5200 50
, 0.18436967 -0.15731879 3.6773648 -1.9372128 0.18044735 -0.06457399 -2.6485622 -0.95008284 0.47844702 -1.6627538 -3.9733849 0.42246646 1.6847842 1.027082 1.4695964 0.28376114 -2.6025047 -3.8188987 -1.0328741 -0.83983713 0.60138124 2.417188 1.8898495 -0.59332585 0.67556345 -1.6934966 -1.8981956 0.5068956 0.7179532 0.3636041 -0.588204 -1.2437319 -1.5564038 -2.4627776 1.1533661 2.7803822 -2.8629627 -2.7880974 0.2298586 0.65104884 0.51347613 -0.8139804 -3.2861264 0.84129465 1.0450894 0.6955825 -2.1789246 -2.0471573 -0.8589069 2.4208302
of 0.14053313 -0.109795846 2.5817888 -1.3647681 0.13886617 -0.03460546 -1.8502852 -0.6575444 0.34859937 -1.1690793 -2.7914958 0.28687865 1.190382 0.73416173 1.0389736 0.1994127 -1.8256016 -2.6855278 -0.7167545 -0.58095646 0.42132163 1.6857387 1.3211035 -0.3997144 0.45774373 -1.1912133 -1.309895 0.36513323 0.50556195 0.2441114 -0.39795744 -0.8640017 -1.096652 -1.7286087 0.8113916 1.9497082 -2.0114818 -1.9561055 0.17083934 0.44882104 0.3480386 -0.5815035 -2.3000932 0.5954675 0.74335027 0.47870886 -1.5370376 -1.4415057 -0.61879504 1.6973536
the 0.18578608 -0.15212025 3.3269217 -1.752022 0.18236487 -0.04489893 -2.3823235 -0.8394855 0.43794045 -1.4932925 -3.580919 0.36271355 1.5264653 0.9345484 1.3350493 0.2646075 -2.339384 -3.4658625 -0.91736794 -0.7362215 0.5314021 2.1752634 1.7075793 -0.5023887 0.58882445 -1.5440406 -1.6976026 0.46569824 0.65700233 0.30951515 -0.5167943 -1.110661 -1.4056503 -2.217169 1.0449723 2.5073507 -2.569706 -2.5217192 0.21699598 0.57515717 0.43994266 -0.75986195 -2.971319 0.76195604 0.94041353 0.6225615 -1.9787074 -1.8441402 -0.7867795 2.1815593
and 0.16045205 -0.12398044 3.0455182 -1.6012237 0.17097807 -0.04214663 -2.1753376 -0.79352796 0.39577016 -1.3749559 -3.2853847 0.34164238 1.3966929 0.85418224 1.2296054 0.22765078 -2.1446533 -3.1637037 -0.84604084 -0.6887835 0.4875467 1.9953382 1.5640501 -0.4784875 0.5454486 -1.4023983 -1.5549262 0.4225679 0.6004756 0.28894615 -0.48049456 -1.0319659 -1.2956445 -2.0370378 0.94509166 2.3001237 -2.3693306 -2.3102684 0.20236655 0.5237197 0.4148595 -0.6906821 -2.706594 0.7013273 0.8658493 0.573196 -1.8212044 -1.6992962 -0.713374 1.9989636
. 0.10846777 -0.07855702 1.8227073 -0.94420296 0.08843231 -0.015710859 -1.296289 -0.46117377 0.25158662 -0.80336106 -1.950947 0.20690212 0.8264002 0.49895245 0.7175038 0.14086485 -1.2821879 -1.886607 -0.49715543 -0.40882555 0.2900915 1.1912858 0.926067 -0.26864183 0.31952447 -0.8351834 -0.9266685 0.26362675 0.36738485 0.18314818 -0.2914725 -0.6078327 -0.76813483 -1.2245007 0.575523 1.3677093 -1.4105052 -1.3808136 0.12595107 0.32159102 0.22941783 -0.3959808 -1.6199069 0.4071808 0.51997554 0.33610848 -1.0905001 -0.9998945 -0.41477603 1.2063856
in 0.28668126 -0.21365476 5.365856 -2.8035436 0.3049554 -0.08740533 -3.8378232 -1.3780309 0.67648727 -2.4457006 -5.77358 0.6091933 2.4714923 1.5047998 2.1654932 0.4266538 -3.7822132 -5.566609 -1.4928594 -1.2150999 0.8716198 3.5195384 2.7431426 -0.87765366 0.97824913 -2.476211 -2.7545357 0.7583328 1.0541408 0.53578806 -0.84109145 -1.8082898 -2.2847583 -3.5976834 1.6533046 4.0487223 -4.174079 -4.0644193 0.36684772 0.92086697 0.7234427 -1.1940231 -4.759192 1.2209644 1.5332587 1.0154891 -3.1998472 -2.981912 -1.232264 3.531154
actin 0.15744877 -0.11474098 2.6196017 -1.3787811 0.13984524 -0.05134559 -1.8777478 -0.66099155 0.33694723 -1.1956618 -2.83221 0.28950807 1.210832 0.7389014 1.0576131 0.22178112 -1.8536986 -2.7365687 -0.73460597 -0.5821338 0.42479232 1.7275167 1.3347801 -0.4053547 0.4616906 -1.2259187 -1.3492205 0.37505218 0.52278453 0.24927105 -0.4111593 -0.87806517 -1.1203437 -1.7608509 0.8097548 1.9866277 -2.031159 -2.006923 0.1865448 0.43327188 0.35165393 -0.5935057 -2.3323958 0.60066426 0.7517691 0.49535224 -1.5656791 -1.4569798 -0.60186505 1.7268536
to 0.13084854 -0.101640865 2.242734 -1.1912823 0.124368414 -0.03344792 -1.609895 -0.5842884 0.309958 -1.0096259 -2.4231582 0.24752061 1.0334425 0.63692266 0.9176519 0.17358801 -1.5701584 -2.3466122 -0.6157826 -0.5049348 0.36262187 1.4528179 1.1619413 -0.33763912 0.38671523 -1.0416756 -1.1489338 0.32134417 0.4469223 0.20900886 -0.35415977 -0.74567705 -0.9556016 -1.4971644 0.6994543 1.6980247 -1.7282519 -1.7025946 0.13796213 0.38510185 0.2985885 -0.50514907 -2.0002954 0.5167631 0.6442756 0.42484984 -1.3267872 -1.2546113 -0.5225195 1.4728551
) 0.15464821 -0.108962014 2.5022097 -1.3280885 0.13508773 -0.021762723 -1.7974657 -0.6591073 0.3187908 -1.1455737 -2.7276955 0.28624144 1.1524392 0.7019409 1.0288267 0.1886236 -1.7622677 -2.6141934 -0.6867687 -0.5631712 0.38758904 1.6505718 1.2813892 -0.40788567 0.44080192 -1.1764064 -1.2874244 0.35339636 0.5059094 0.2573676 -0.3935146 -0.83600205 -1.076689 -1.6793822 0.8021734 1.8907334 -1.9417022 -1.9255415 0.18580955 0.43199283 0.33387768 -0.58366156 -2.2505827 0.5661555 0.7438135 0.489738 -1.4873805 -1.3967988 -0.5940785 1.6487036
( 0.15778314 -0.11363545 2.817621 -1.4630527 0.14348456 -0.031903222 -2.0022402 -0.7261847 0.35771647 -1.2687886 -3.037261 0.32782364 1.2752755 0.78084266 1.1552105 0.21650355 -1.9780239 -2.9171572 -0.7820447 -0.6370359 0.45236313 1.8499913 1.4464643 -0.45409265 0.51086336 -1.3145263 -1.431045 0.3882107 0.5453956 0.27616495 -0.43996853 -0.944198 -1.1883223 -1.8828753 0.87680864 2.1233268 -2.1949596 -2.143319 0.18459772 0.48999658 0.37166628 -0.61509347 -2.5104053 0.6462133 0.80936587 0.5427788 -1.6712841 -1.56391 -0.6610617 1.8547353
a 0.09425772 -0.081680715 1.8140483 -0.9736318 0.0910538 -0.025868269 -1.2887485 -0.47480744 0.25009742 -0.8232061 -1.946762 0.19079663 0.8147067 0.5107565 0.73134017 0.14188352 -1.2869394 -1.8985674 -0.5124027 -0.39590272 0.306569 1.1967801 0.9406526 -0.26122457 0.32631442 -0.8567685 -0.9329617 0.24744284 0.34864146 0.17387481 -0.2691338 -0.61828613 -0.7555144 -1.2068675 0.58124954 1.3846629 -1.397685 -1.3677456 0.10006501 0.31032634 0.24343129 -0.40083802 -1.6296413 0.41463274 0.5089086 0.3302087 -1.074527 -1.0091972 -0.42801479 1.1816411
with 0.09867997 -0.082684815 1.7794548 -0.9402243 0.09945876 -0.022021638 -1.2722076 -0.4524953 0.24208032 -0.8030069 -1.9150646 0.19666734 0.8178099 0.49597377 0.71781164 0.13347977 -1.2552098 -1.8480338 -0.48790658 -0.39064077 0.28864795 1.1636356 0.91412425 -0.279414 0.31902045 -0.8191766 -0.9149872 0.25300905 0.3500404 0.16806322 -0.2864179 -0.5958226 -0.75591314 -1.193098 0.5580623 1.3386242 -1.3783194 -1.3460451 0.11378247 0.3100251 0.23967241 -0.39817393 -1.5856987 0.40466624 0.50775737 0.3295902 -1.0548433 -0.995455 -0.42534983 1.1682744
that 0.1135981 -0.09682898 2.1428385 -1.1348292 0.110735826 -0.028296016 -1.5422326 -0.55780053 0.28212583 -0.9666664 -2.3280401 0.2392196 0.992255 0.6049381 0.8617278 0.16160537 -1.5217941 -2.2470243 -0.6012511 -0.478785 0.33867508 1.4141365 1.1054206 -0.32202137 0.3850303 -0.9957016 -1.0998232 0.29916778 0.42441425 0.20394425 -0.33776826 -0.7108341 -0.9026937 -1.4394424 0.6766374 1.6196911 -1.6603004 -1.6366334 0.13944657 0.3723872 0.28914607 -0.4895251 -1.9212838 0.4978425 0.61505467 0.39756057 -1.278277 -1.2048173 -0.50509363 1.4092085
profilin 0.12108961 -0.10412675 2.1264906 -1.1222749 0.117168635 -0.035643738 -1.5289431 -0.528884 0.2797703 -0.9629399 -2.2969143 0.23658083 0.9734727 0.60340226 0.85825753 0.17274037 -1.4964433 -2.225598 -0.5902345 -0.47540683 0.3446975 1.3983221 1.0883425 -0.32055455 0.37045997 -0.9822396 -1.0913689 0.3002363 0.41450846 0.19804676 -0.33347118 -0.71440846 -0.90138394 -1.4236361 0.66126305 1.6091107 -1.6496129 -1.6220849 0.142679 0.35568452 0.27426216 -0.48519707 -1.8944588 0.49676076 0.6064076 0.39673015 -1.2636458 -1.1839677 -0.4953604 1.3989395
for 0.12134789 -0.09500607 2.1712782 -1.1506081 0.11626246 -0.0338531 -1.5478142 -0.55475587 0.28604493 -0.9822951 -2.3435714 0.2386595 0.99144983 0.60658795 0.89162934 0.17627968 -1.5267981 -2.2663639 -0.6052276 -0.4806394 0.35031298 1.4284726 1.1196182 -0.33187428 0.37563747 -0.9983327 -1.1144589 0.3048616 0.43176436 0.20180288 -0.3395721 -0.72791135 -0.92136997 -1.4596622 0.68610513 1.6275005 -1.682194 -1.6544158 0.15324143 0.3685971 0.2885708 -0.4939012 -1.9371254 0.49402067 0.61250466 0.41014624 -1.2925676 -1.2058154 -0.5168176 1.4378917
is 0.117745936 -0.1142925 2.1683736 -1.1494257 0.10432662 -0.02568584 -1.5583571 -0.5548247 0.28180647 -0.9813515 -2.3447013 0.24626955 0.99880695 0.61335087 0.88160855 0.16973427 -1.529627 -2.264167 -0.59638447 -0.48251787 0.3522296 1.4271011 1.1312971 -0.32550842 0.3856365 -1.0080332 -1.1192034 0.29986334 0.43160492 0.2013574 -0.33379763 -0.71674013 -0.92288494 -1.4441642 0.6920737 1.6364937 -1.6803076 -1.6540866 0.1341157 0.3763395 0.29472122 -0.49873245 -1.9439663 0.5010039 0.62509537 0.41334096 -1.300713 -1.2044692 -0.51112825 1.4475362
by 0.08971103 -0.07680069 1.5569258 -0.8138709 0.08771926 -0.015690994 -1.1154096 -0.39127773 0.21344055 -0.6990504 -1.6932378 0.16707398 0.72969216 0.43692088 0.63828576 0.10826942 -1.0940492 -1.6246982 -0.43531278 -0.33552098 0.25529793 1.0186818 0.7973934 -0.23115139 0.2742852 -0.7269112 -0.7978132 0.217248 0.30452353 0.15899731 -0.23959787 -0.52828395 -0.6719317 -1.0513428 0.49234143 1.181416 -1.212835 -1.1898245 0.105189845 0.2585529 0.20831813 -0.35904002 -1.3992856 0.36746818 0.4504354 0.29528463 -0.9248257 -0.8758141 -0.36727032 1.0266405
protein 0.115244925 -0.084422134 2.14048 -1.1152936 0.1095942 -0.03222736 -1.5243907 -0.5367914 0.2779848 -0.9698002 -2.2995892 0.2436324 0.98112047 0.5950981 0.860874 0.16434784 -1.502664 -2.2139466 -0.6014695 -0.48048308 0.33740678 1.4060482 1.0937226 -0.3359148 0.38089097 -0.9893775 -1.090252 0.29385963 0.421234 0.21031845 -0.33021677 -0.7191844 -0.90426165 -1.431875 0.6603521 1.6078084 -1.6675009 -1.62739 0.15342806 0.3647603 0.28653377 -0.4837082 -1.8975487 0.49485376 0.6189043 0.39854747 -1.2738521 -1.1855154 -0.5045921 1.3989965
The 0.077815466 -0.064454965 1.3760098 -0.72399694 0.0814529 -0.019075317 -0.98233217 -0.3557536 0.18101342 -0.6291825 -1.479912 0.1463499 0.63565105 0.38907823 0.56621414 0.11084145 -0.9716993 -1.4408714 -0.38673142 -0.30250683 0.21977265 0.89980286 0.7059081 -0.19752023 0.24989684 -0.6372572 -0.7061625 0.18284957 0.27292174 0.12723604 -0.22065243 -0.4631243 -0.5872746 -0.92245674 0.43204108 1.0454041 -1.0799477 -1.044799 0.090753 0.23948951 0.18192844 -0.3187931 -1.2333595 0.32282668 0.38877228 0.26464716 -0.8177702 -0.7739822 -0.3276121 0.9097358
proteins 0.097232714 -0.0739199 1.7896187 -0.9351625 0.08850084 -0.028544249 -1.2797663 -0.448031 0.23672572 -0.8101395 -1.9267296 0.2040027 0.8240727 0.49761268 0.71836746 0.13741542 -1.2579926 -1.8578484 -0.50201505 -0.39912894 0.2841919 1.176654 0.9169853 -0.27504936 0.31483328 -0.82697093 -0.913451 0.24837436 0.3518587 0.17254144 -0.27674606 -0.6021172 -0.7533106 -1.199617 0.55499774 1.3483179 -1.3939478 -1.360587 0.12692705 0.3056354 0.24050239 -0.40716547 -1.5909991 0.4127803 0.5157794 0.33575484 -1.063188 -0.9959596 -0.42678574 1.1731918
was 0.09304378 -0.075818636 1.7310046 -0.9018591 0.08891208 -0.027274597 -1.2390896 -0.4420591 0.22361358 -0.7767491 -1.8474739 0.19241183 0.7859726 0.47987172 0.6945051 0.14034544 -1.2114619 -1.7912263 -0.4863129 -0.38527972 0.275216 1.1207185 0.8831154 -0.2566161 0.31101865 -0.7981214 -0.8769477 0.24456225 0.3474122 0.16581552 -0.27582535 -0.57414144 -0.7271536 -1.1567265 0.5416144 1.3006252 -1.3370432 -1.2961442 0.10931122 0.30410933 0.22436921 -0.39051756 -1.5355189 0.39710602 0.4889544 0.3223938 -1.0164571 -0.95161027 -0.40163258 1.1292115
beta-catenin 0.051341377 -0.025396286 1.5262272 -0.76323104 0.09192791 -0.041916836 -1.0938673 -0.39144498 0.17200355 -0.6965408 -1.5886693 0.18409766 0.6706626 0.40909266 0.5885747 0.11847818 -1.0557249 -1.5398916 -0.40750885 -0.35203353 0.24158765 0.9987475 0.7608893 -0.2845693 0.30224314 -0.6809713 -0.77325034 0.19553807 0.2994688 0.18916921 -0.24456306 -0.5175359 -0.6128706 -0.98477894 0.45103356 1.10961 -1.1640525 -1.1129028 0.0912826 0.27303264 0.22438772 -0.3158108 -1.324393 0.3114644 0.43223932 0.26066884 -0.9029744 -0.82450104 -0.33806717 0.9864073
cells 0.103122346 -0.0833432 1.7809484 -0.9342234 0.09863856 -0.02159541 -1.2721543 -0.45693663 0.23912433 -0.79312736 -1.9203206 0.19486652 0.8175921 0.50129193 0.72137576 0.14244871 -1.2472951 -1.854393 -0.4945409 -0.39760086 0.28148907 1.1644224 0.9143579 -0.2702749 0.31248644 -0.8219154 -0.90635586 0.24389273 0.35154396 0.16271241 -0.273843 -0.5952063 -0.74901676 -1.1860671 0.5554427 1.3454039 -1.3746811 -1.3412893 0.11361134 0.2995652 0.24507791 -0.40158337 -1.5969224 0.4100605 0.50438434 0.3307066 -1.0513854 -0.9914473 -0.4207936 1.1713061
myosin 0.13863564 -0.072655745 1.7883703 -0.9593091 0.10941193 -0.046481192 -1.2580802 -0.4824893 0.22135185 -0.8299895 -1.945865 0.19447389 0.82755464 0.49437165 0.72701675 0.15270595 -1.2523584 -1.8284343 -0.4972981 -0.4205989 0.2929933 1.1682302 0.8967979 -0.34223747 0.33444655 -0.85213804 -0.9261791 0.2705543 0.33880526 0.18401535 -0.2831816 -0.6025057 -0.7914563 -1.2018923 0.556051 1.3466507 -1.4010984 -1.3768915 0.14887254 0.30270943 0.24037595 -0.3975624 -1.5626503 0.40278164 0.5273178 0.37259755 -1.0739641 -0.9906566 -0.39588913 1.174699
alpha-catenin 0.054119304 -0.029070972 1.5307469 -0.7681817 0.09248158 -0.040784188 -1.0931371 -0.3941488 0.17369078 -0.6943774 -1.5920681 0.18088128 0.6727691 0.40695035 0.5910002 0.12315835 -1.0572013 -1.5410806 -0.41030726 -0.35497993 0.24327733 1.0045347 0.76295805 -0.28433135 0.30487424 -0.68025804 -0.77392024 0.19988567 0.2970031 0.18765545 -0.2420817 -0.51638776 -0.6155212 -0.9885046 0.45215195 1.110551 -1.1656005 -1.1155823 0.09204063 0.27252847 0.22211859 -0.32069096 -1.3245362 0.31515303 0.43629524 0.2612906 -0.90699995 -0.8230077 -0.33873683 0.9862554
binding 0.110284016 -0.0899952 1.9635941 -1.0350409 0.10416222 -0.027526032 -1.4208484 -0.49099126 0.2663093 -0.8947652 -2.1286712 0.21718873 0.9081337 0.557622 0.7972923 0.15294495 -1.389269 -2.0635507 -0.5461952 -0.4307362 0.31478 1.298534 1.0154864 -0.28341666 0.34102744 -0.9121035 -1.0122215 0.2841467 0.38347316 0.18058532 -0.3036644 -0.662745 -0.83249176 -1.3260146 0.6098527 1.4950584 -1.5353801 -1.5052418 0.12919216 0.33611512 0.259681 -0.44810578 -1.7544904 0.4625281 0.568817 0.3723028 -1.1787183 -1.1014228 -0.4601198 1.2967643
chain 0.14397106 -0.087453224 2.0293667 -1.0775793 0.12455883 -0.0504562 -1.4191262 -0.5499024 0.2468319 -0.9400419 -2.2053614 0.223792 0.9414484 0.5610903 0.81343836 0.18357725 -1.4214803 -2.082246 -0.5673432 -0.48351672 0.33347285 1.3290437 1.0122908 -0.38891226 0.38016304 -0.96893764 -1.0370482 0.28938147 0.39025116 0.19933417 -0.32821667 -0.6844571 -0.9087165 -1.372027 0.6328984 1.5181248 -1.5905696 -1.5705138 0.1624767 0.3455518 0.27342528 -0.452156 -1.7654446 0.4462683 0.5907199 0.41860977 -1.2240546 -1.1242596 -0.4570081 1.3276641
are 0.09843687 -0.07494774 1.7270967 -0.9151949 0.09285422 -0.024178836 -1.2470027 -0.4483609 0.22488439 -0.7710225 -1.8620723 0.19944036 0.7889081 0.48052913 0.7102503 0.1382766 -1.2133138 -1.8048337 -0.48726258 -0.37626344 0.2838945 1.1246945 0.89181083 -0.27278474 0.3028082 -0.8011466 -0.89463276 0.24352144 0.34138426 0.16777562 -0.27613598 -0.57982045 -0.7369343 -1.1462692 0.5425953 1.3085682 -1.3371645 -1.3121527 0.109126076 0.29969576 0.2347518 -0.3979857 -1.5448653 0.39551583 0.4936747 0.32626674 -1.0320891 -0.963731 -0.40494996 1.1362697
were 0.101868086 -0.08386305 1.8377903 -0.9714517 0.09675407 -0.016171262 -1.3229879 -0.47612512 0.23723517 -0.8250479 -1.9929359 0.20285863 0.8525242 0.5229602 0.7421133 0.14652212 -1.2997152 -1.918871 -0.5223713 -0.41189757 0.30056027 1.2099122 0.94638497 -0.28893363 0.32605192 -0.846273 -0.9481096 0.25425053 0.36875486 0.16937503 -0.29774433 -0.6136746 -0.780193 -1.2309642 0.5794622 1.3961307 -1.428557 -1.3986531 0.11752865 0.32445085 0.25103793 -0.41278726 -1.63811 0.42782524 0.53026444 0.34973797 -1.1007725 -1.0259922 -0.428037 1.2081252
cofilin 0.114068516 -0.09773786 1.9745109 -1.0409092 0.1120651 -0.034163 -1.420186 -0.4954853 0.25890693 -0.8980514 -2.1326754 0.22110213 0.9081097 0.555358 0.7958027 0.16307695 -1.3970028 -2.06788 -0.546173 -0.43952408 0.32301253 1.3031011 1.0107273 -0.3038021 0.34468228 -0.9145054 -1.0176752 0.27954978 0.3872046 0.1851675 -0.31059214 -0.6648703 -0.83725333 -1.3180125 0.61776525 1.4932655 -1.5313776 -1.5031124 0.1307661 0.330673 0.25921375 -0.45057586 -1.7583439 0.45575333 0.5655402 0.37299082 -1.173414 -1.1017749 -0.4577569 1.3029001
as 0.10472383 -0.084263764 2.1218822 -1.1173874 0.104092106 -0.033797637 -1.5192322 -0.5400422 0.2849227 -0.9542634 -2.2806969 0.23110929 0.9810517 0.59496206 0.85695595 0.16970451 -1.5010823 -2.2220871 -0.5893146 -0.46611497 0.338562 1.3904433 1.0960873 -0.32490477 0.39028528 -0.9801191 -1.0942628 0.29231092 0.41361284 0.19727936 -0.33025938 -0.7088076 -0.8922457 -1.4222741 0.6585623 1.6060314 -1.650234 -1.608272 0.12816358 0.37291038 0.28677213 -0.47923893 -1.8979684 0.48367736 0.5970879 0.40516233 -1.2512234 -1.1882014 -0.50444555 1.3899908
heavy 0.07543879 -0.040373392 0.95066893 -0.50165 0.0512455 -0.035681676 -0.6590585 -0.2760261 0.11970692 -0.44051406 -1.0505773 0.1038739 0.42140213 0.26259515 0.3861565 0.085010864 -0.6544116 -0.95603746 -0.25458756 -0.22622389 0.15717371 0.6068913 0.4727048 -0.19684654 0.17188573 -0.4725455 -0.49979517 0.14489622 0.18956956 0.0927913 -0.15217103 -0.3198445 -0.44499546 -0.6340188 0.30089217 0.6900445 -0.7509256 -0.73845065 0.07445285 0.15839022 0.13224666 -0.21182781 -0.80569166 0.20955314 0.26630026 0.21180232 -0.5631493 -0.52696794 -0.19122496 0.6258227
not 0.084455475 -0.05893591 1.4762325 -0.78167504 0.070171796 -0.007610765 -1.0681907 -0.38061652 0.18789352 -0.6624919 -1.5954908 0.16842692 0.6797466 0.41008124 0.601217 0.12242065 -1.0351307 -1.5356017 -0.41304216 -0.32283837 0.23741171 0.9729017 0.760008 -0.22035143 0.26244384 -0.6770446 -0.7630595 0.20410405 0.29908317 0.1527687 -0.23038495 -0.49096507 -0.62461805 -0.9908029 0.4740627 1.1163386 -1.148303 -1.1207938 0.08593918 0.250097 0.20235507 -0.33667663 -1.3152736 0.3471486 0.4266468 0.26712707 -0.8850685 -0.8252921 -0.34383127 0.97747105
or 0.10735296 -0.08532131 1.9948033 -1.0501119 0.11023622 -0.033248566 -1.4200733 -0.52068573 0.25586075 -0.90544057 -2.162578 0.22928113 0.91040885 0.55692726 0.81805 0.16053511 -1.4107304 -2.0801544 -0.55697346 -0.43643498 0.31745043 1.3117791 1.0247511 -0.31623006 0.3493638 -0.92694294 -1.029497 0.2801408 0.40345436 0.19218123 -0.3263519 -0.66812235 -0.85214937 -1.3460925 0.62396383 1.5166576 -1.5537784 -1.5224969 0.13795803 0.35521957 0.27737162 -0.44729713 -1.7840567 0.46480346 0.5687599 0.38184088 -1.1914755 -1.1041155 -0.4737089 1.316856
on 0.14339599 -0.11214369 2.5948882 -1.3479252 0.14104664 -0.038157854 -1.8485426 -0.6490307 0.33973157 -1.1668084 -2.8021226 0.2753613 1.1850834 0.7315449 1.0379356 0.19995043 -1.8240509 -2.6998863 -0.7153897 -0.5877019 0.42006758 1.6901056 1.322293 -0.3890643 0.44663608 -1.1974944 -1.3334852 0.3734058 0.50338113 0.22715908 -0.40705052 -0.85563785 -1.1109321 -1.7268047 0.8064259 1.9570792 -2.0028434 -1.9747589 0.18151599 0.4389237 0.3414116 -0.5904498 -2.3006864 0.607999 0.734023 0.491352 -1.5263708 -1.4355177 -0.59287935 1.6945223
an 0.14571786 -0.12696347 2.709465 -1.4298711 0.1391233 -0.036834005 -1.9409146 -0.69541156 0.35322925 -1.2181851 -2.9235163 0.30304304 1.2400832 0.762966 1.0975449 0.202943 -1.9119956 -2.814944 -0.7630611 -0.5991818 0.4335245 1.769689 1.3919046 -0.4269528 0.48785046 -1.2410424 -1.3815666 0.37592968 0.5362268 0.25087953 -0.4230132 -0.90223444 -1.154424 -1.816473 0.85639244 2.0557098 -2.1088316 -2.0556312 0.17436755 0.4656062 0.36653835 -0.60686946 -2.40895 0.6224256 0.77211845 0.503492 -1.6170816 -1.50343 -0.6328309 1.7806041
which 0.07924011 -0.06500732 1.420781 -0.7511147 0.07356587 -0.018597959 -1.0193386 -0.36212578 0.18484907 -0.6415346 -1.5394838 0.16230349 0.65719384 0.39916325 0.57625717 0.11227642 -1.0028692 -1.4867172 -0.39719188 -0.30852526 0.23005952 0.93654907 0.7366806 -0.22005488 0.25519183 -0.65404713 -0.73585296 0.19917123 0.27701718 0.13711877 -0.22511463 -0.47976023 -0.598865 -0.95394295 0.44630212 1.0818825 -1.1073253 -1.0812953 0.09830046 0.24035059 0.18971138 -0.32388797 -1.2642007 0.32637823 0.41192386 0.27129492 -0.84708154 -0.7984694 -0.3371671 0.93937385
from 0.076662995 -0.05854361 1.4447665 -0.7611616 0.07867404 -0.02009592 -1.035585 -0.37094533 0.19000597 -0.6526241 -1.5701325 0.15771778 0.6622355 0.40488967 0.5832481 0.10377638 -1.020673 -1.5123253 -0.40378684 -0.32097343 0.23637782 0.95158595 0.74404246 -0.22073597 0.25900018 -0.6607439 -0.7440014 0.19828506 0.28696766 0.13828084 -0.22186524 -0.48704004 -0.61153406 -0.9660189 0.46261054 1.0991956 -1.1282171 -1.0985246 0.09338088 0.24960713 0.19729042 -0.3250016 -1.2905536 0.33496225 0.41165355 0.2761089 -0.8567455 -0.8054657 -0.33926323 0.95559126
cell 0.11373083 -0.09579238 2.007891 -1.0544286 0.11034565 -0.02183666 -1.4384109 -0.51264673 0.2685858 -0.9025513 -2.1706207 0.2156022 0.92044836 0.56887794 0.8095913 0.15681395 -1.4077193 -2.0940452 -0.5557053 -0.4446908 0.32290807 1.3181235 1.0289739 -0.30695888 0.3592768 -0.92708856 -1.0293915 0.27543414 0.39976874 0.18278527 -0.31337178 -0.674319 -0.840959 -1.3397099 0.6303365 1.5150987 -1.5460715 -1.5203037 0.13020355 0.34113735 0.27992535 -0.45550945 -1.792332 0.46358547 0.57278556 0.36782458 -1.1867375 -1.1131665 -0.47071078 1.3225592
expression 0.086041145 -0.06665121 1.7213366 -0.8965289 0.09641937 -0.026122084 -1.2295592 -0.4377126 0.22335628 -0.77435833 -1.8379185 0.19269551 0.77724046 0.47938484 0.6872173 0.13612568 -1.2121739 -1.7828102 -0.47282982 -0.38693073 0.2718161 1.1265119 0.8764966 -0.27656043 0.31301323 -0.79510194 -0.8834641 0.24362768 0.339858 0.169622 -0.27234063 -0.5788639 -0.7287486 -1.1371238 0.5330257 1.2885611 -1.3304818 -1.2965349 0.114229456 0.2917986 0.23812528 -0.3879807 -1.5206687 0.38778841 0.48526967 0.32906774 -1.0198443 -0.9524825 -0.39256042 1.11957
In 0.041632265 -0.026904944 0.54597366 -0.293102 0.03275719 -0.0015406671 -0.3932516 -0.14514539 0.068193085 -0.25051287 -0.59354544 0.06453079 0.24340516 0.15689874 0.2191071 0.04175062 -0.38850975 -0.5610495 -0.15256318 -0.13347822 0.08999 0.352592 0.28492948 -0.0796865 0.09413374 -0.2513201 -0.2720375 0.077931866 0.10812355 0.043222465 -0.09240568 -0.18038975 -0.2276646 -0.3721668 0.16301069 0.4144578 -0.43589783 -0.4118235 0.026268817 0.10609926 0.08005692 -0.12761061 -0.48586413 0.13896857 0.15898988 0.09144316 -0.33128905 -0.31396776 -0.12950619 0.35587826
we 0.07539944 -0.06279564 1.241484 -0.65555817 0.07222046 -0.019458003 -0.9003177 -0.31769362 0.15509832 -0.55586636 -1.3559377 0.12804805 0.5727 0.34750757 0.5038913 0.0989613 -0.87872124 -1.3040322 -0.3502016 -0.28220025 0.21072006 0.8248331 0.6443187 -0.18840072 0.22116439 -0.56419796 -0.6401544 0.17390592 0.24377494 0.11127448 -0.20146544 -0.41945577 -0.5333836 -0.8386276 0.38764876 0.9411017 -0.9734555 -0.94441587 0.07359658 0.22236589 0.17744859 -0.29078993 -1.1175356 0.30269152 0.35379195 0.23976062 -0.7498765 -0.69148415 -0.3021106 0.8239714
actin-binding 0.092825264 -0.07305977 1.5742029 -0.8311689 0.08099053 -0.026814165 -1.1353627 -0.39211252 0.20949891 -0.7204229 -1.7082129 0.17218058 0.72989535 0.44722217 0.6389753 0.1241108 -1.1185173 -1.6594629 -0.44040412 -0.3485022 0.25658402 1.041306 0.81309277 -0.22562051 0.27537572 -0.735737 -0.81166685 0.22875495 0.31121823 0.14305644 -0.2438434 -0.52988064 -0.6711341 -1.0633281 0.48742282 1.2024843 -1.2305434 -1.2088317 0.109393515 0.26467076 0.20876363 -0.3603281 -1.4105948 0.37230584 0.4578724 0.2969824 -0.9465172 -0.88654804 -0.36984912 1.0423566
but 0.0633523 -0.03855345 1.0694813 -0.5636291 0.06030002 -0.012742349 -0.77279276 -0.27377662 0.14216618 -0.48614892 -1.1461176 0.10878528 0.48936692 0.30775422 0.43132502 0.075116955 -0.75222015 -1.1157339 -0.29765576 -0.24375415 0.17943303 0.70445865 0.5513166 -0.16399781 0.19002621 -0.49590835 -0.54291505 0.15084977 0.21106346 0.103084266 -0.16997112 -0.36619422 -0.44626638 -0.71334034 0.33537203 0.80115974 -0.81971496 -0.80808127 0.06333013 0.18133318 0.14419198 -0.23131867 -0.9505762 0.23426907 0.30479088 0.19581309 -0.63286155 -0.5880489 -0.2497734 0.706405
at 0.07754663 -0.06622333 1.508489 -0.8014942 0.08544615 -0.019317832 -1.075922 -0.39424285 0.20010222 -0.6743165 -1.6349199 0.1713788 0.70278317 0.42614758 0.61590004 0.109407015 -1.0644075 -1.5789627 -0.41628963 -0.34205016 0.24483451 0.9936595 0.77433383 -0.22591549 0.25998524 -0.70764774 -0.7723011 0.21568757 0.29323632 0.15152079 -0.2246356 -0.49876994 -0.6415409 -0.9956931 0.48162723 1.145324 -1.1660079 -1.1453873 0.08961811 0.24958424 0.20457456 -0.3443469 -1.3525692 0.3323551 0.4296826 0.28240058 -0.89479005 -0.82579714 -0.35687393 1.0000587
complex 0.07071946 -0.06347792 1.4172992 -0.74603784 0.073832445 -0.021163974 -1.0216763 -0.36267596 0.18623623 -0.6383595 -1.5178576 0.15860085 0.6485869 0.39153424 0.5765924 0.108827464 -1.0007855 -1.4837528 -0.3922409 -0.3114142 0.2267342 0.9299388 0.73013705 -0.21580139 0.2470671 -0.6468456 -0.72701436 0.20041095 0.28088227 0.13147947 -0.21983354 -0.47572145 -0.59693426 -0.94541276 0.44246867 1.0776951 -1.0951521 -1.0706298 0.09601628 0.24126507 0.19614273 -0.3218848 -1.2667998 0.3233369 0.39995056 0.2621839 -0.84020233 -0.7922527 -0.3320772 0.9300847
E-cadherin 0.04007989 -0.023149818 1.1561617 -0.5830207 0.06827004 -0.026801974 -0.81659 -0.29740676 0.13159901 -0.52561754 -1.2097467 0.1365349 0.5098759 0.31130078 0.44402772 0.09344158 -0.79814976 -1.1703676 -0.30721623 -0.2685542 0.17806274 0.7563297 0.58292496 -0.21321368 0.23045142 -0.5160077 -0.5792602 0.15456264 0.22601761 0.14138761 -0.18251699 -0.39220706 -0.46483764 -0.74843997 0.34192967 0.8446297 -0.88498616 -0.8454295 0.073540114 0.2037404 0.164446 -0.24536441 -0.9990053 0.24498709 0.3297769 0.1980878 -0.6868488 -0.6237319 -0.26064917 0.7446434
have 0.057866514 -0.054030653 1.1473749 -0.6082879 0.058464777 -0.018741442 -0.83489 -0.29298973 0.14465389 -0.5125541 -1.2395145 0.12571043 0.520585 0.3283807 0.45925573 0.08739435 -0.8163614 -1.1996284 -0.32199052 -0.25631455 0.18143338 0.7465845 0.5924432 -0.17915227 0.20130764 -0.53362995 -0.58184314 0.16320162 0.23309569 0.10120482 -0.18568997 -0.39010572 -0.47733584 -0.7695772 0.35870287 0.86555594 -0.88746333 -0.8656263 0.073514625 0.20340118 0.15690483 -0.26273203 -1.0225434 0.26651928 0.3292739 0.2068832 -0.6842485 -0.63805693 -0.27180025 0.7482414
these 0.11150072 -0.08563189 1.9021294 -1.0119172 0.10205816 -0.026291812 -1.3658216 -0.4887139 0.2484076 -0.86187226 -2.0570724 0.21137848 0.8746124 0.53755975 0.77310526 0.15132277 -1.3409181 -1.9912179 -0.5280699 -0.4173142 0.30561972 1.2446725 0.97748953 -0.2910783 0.33706132 -0.8778842 -0.97641957 0.26553118 0.37933403 0.17803167 -0.29849213 -0.64327526 -0.8099598 -1.270332 0.5948562 1.4459815 -1.476473 -1.440028 0.12217085 0.33516246 0.25452805 -0.43732223 -1.6991633 0.43738315 0.54002094 0.35911366 -1.134644 -1.0646335 -0.4533877 1.2573216
: 0.06047841 -0.054195523 1.2373557 -0.66224086 0.06486363 -0.008782063 -0.8795676 -0.30608314 0.16353604 -0.5671234 -1.3196397 0.13158864 0.559863 0.33521533 0.49323922 0.10171296 -0.8749086 -1.2734375 -0.33710435 -0.27437556 0.20038667 0.8110889 0.6375066 -0.1816038 0.22200724 -0.569116 -0.63421404 0.17330936 0.24536514 0.10701608 -0.20872568 -0.41327736 -0.5232982 -0.81847215 0.39481893 0.9338162 -0.96445185 -0.9332242 0.07535125 0.21644409 0.16208088 -0.2924748 -1.1054325 0.2841736 0.35659176 0.2203145 -0.7198906 -0.6761474 -0.2828775 0.81369054
talin 0.098168515 -0.08322288 1.8251388 -0.96497726 0.09684993 -0.02890306 -1.3020145 -0.46068573 0.22921196 -0.8280733 -1.9639385 0.20509762 0.837833 0.5151058 0.73540694 0.15253924 -1.2843282 -1.8909984 -0.5089456 -0.41516098 0.29251376 1.1977367 0.9272604 -0.2962011 0.32920864 -0.8444758 -0.9374783 0.24860989 0.35670897 0.18576929 -0.2862358 -0.6134699 -0.7731667 -1.2158917 0.5706402 1.3731166 -1.4191664 -1.3862134 0.12137021 0.31002453 0.24676868 -0.40359354 -1.6158668 0.41183415 0.52234083 0.35284296 -1.0848794 -1.017838 -0.42527974 1.194712
genes 0.10582815 -0.08880362 1.9491882 -1.0321363 0.100260824 -0.022630194 -1.395656 -0.4977469 0.26212764 -0.8793039 -2.1035726 0.21388456 0.8920995 0.551676 0.79224694 0.15025134 -1.3710923 -2.0289087 -0.5443799 -0.43819496 0.30845472 1.2760761 1.004809 -0.3013205 0.34960672 -0.8986128 -0.9987983 0.2780195 0.37886408 0.1807033 -0.30467394 -0.65700793 -0.82653207 -1.3040402 0.6181597 1.4745353 -1.5095451 -1.4772441 0.12923044 0.3319998 0.2635577 -0.44297284 -1.7361125 0.44068164 0.55683666 0.36626482 -1.1574771 -1.0907044 -0.46061948 1.2799772
muscle 0.07626936 -0.05472071 1.1761302 -0.6249015 0.07193143 -0.020346202 -0.83138317 -0.3075273 0.15026449 -0.53514946 -1.2782768 0.12749295 0.5428027 0.3255449 0.48055458 0.10350068 -0.8223152 -1.2108157 -0.32506645 -0.2711822 0.18893863 0.7675331 0.5957043 -0.19829972 0.21279259 -0.55570483 -0.6083404 0.16856477 0.2249336 0.11063847 -0.18641204 -0.39405727 -0.50924414 -0.79042816 0.37151176 0.88942146 -0.9119801 -0.9003875 0.07689287 0.20111595 0.1587795 -0.26927295 -1.0368997 0.26815686 0.33889276 0.23520704 -0.69609356 -0.6570368 -0.2687466 0.7754516
be 0.081483975 -0.065193124 1.4666816 -0.77350557 0.07687774 -0.028290935 -1.0611227 -0.38038728 0.1966705 -0.6674135 -1.5918381 0.16213432 0.6641768 0.40876076 0.6021296 0.1086335 -1.0421984 -1.5358266 -0.39888301 -0.32395375 0.23225151 0.9644799 0.767344 -0.24252537 0.25779718 -0.6840409 -0.75615346 0.20182478 0.2932164 0.13658075 -0.235616 -0.49952188 -0.6144681 -0.9768038 0.4528836 1.1140064 -1.1550584 -1.1115955 0.09057811 0.2540775 0.20191345 -0.32533136 -1.3176101 0.33588326 0.42092156 0.27448532 -0.88360155 -0.81032866 -0.3489565 0.9614172
two 0.05030288 -0.04953329 0.9167064 -0.4811053 0.055156905 -0.00900202 -0.6519357 -0.23660335 0.11849441 -0.41244286 -0.9872335 0.10226841 0.42214772 0.26301843 0.36652526 0.06715396 -0.64125395 -0.9474877 -0.26085833 -0.20633814 0.1387157 0.6024648 0.474855 -0.13323924 0.16082075 -0.41208634 -0.46765906 0.11888349 0.17608054 0.0834421 -0.13634643 -0.30355707 -0.38413563 -0.6088514 0.2804365 0.69499713 -0.7073396 -0.695743 0.0601317 0.16140883 0.12445057 -0.20685074 -0.8138825 0.21273556 0.26267573 0.18155357 -0.5337859 -0.5079769 -0.21614149 0.6013114
kinase 0.08011164 -0.07061286 1.4041733 -0.74588585 0.07098422 -0.011615234 -0.99440974 -0.35870385 0.1869086 -0.6301813 -1.509312 0.1548446 0.65105355 0.39614028 0.5632774 0.11476906 -0.9952202 -1.4579276 -0.38707018 -0.31150293 0.22102025 0.9211227 0.71716255 -0.21046814 0.25345144 -0.64617336 -0.7160179 0.19206682 0.28430772 0.1295579 -0.22332026 -0.4708337 -0.5943741 -0.9362872 0.44685614 1.0656765 -1.08791 -1.0533559 0.09354497 0.24405003 0.18557386 -0.32418358 -1.2514845 0.32316005 0.40015954 0.2669082 -0.83427835 -0.7800403 -0.33146146 0.921234
; 0.047908604 -0.058208443 1.2116446 -0.6376425 0.053571787 -0.0057308427 -0.855613 -0.31991705 0.16140099 -0.55504584 -1.2954593 0.14457649 0.54491496 0.321554 0.47965068 0.08174838 -0.8545685 -1.2295476 -0.346264 -0.25573033 0.20620167 0.79898006 0.60187304 -0.19311579 0.21171404 -0.5499066 -0.5990845 0.16871856 0.23861325 0.1054087 -0.17771842 -0.40039164 -0.5211377 -0.8001754 0.37132072 0.90351987 -0.9366423 -0.90669435 0.08818989 0.20472187 0.16272037 -0.27147615 -1.0742315 0.27490216 0.35767856 0.24101955 -0.7255258 -0.6473179 -0.28745735 0.7828286
filaments 0.08191863 -0.06695683 1.4380329 -0.76095355 0.07575809 -0.016674314 -1.035835 -0.35754994 0.1982578 -0.6468842 -1.554256 0.15675592 0.66783005 0.4112833 0.58497363 0.11313559 -1.010718 -1.5042499 -0.39578837 -0.31854495 0.22935463 0.94266945 0.7361382 -0.21461974 0.24944808 -0.6665531 -0.73750186 0.204638 0.27853304 0.12992603 -0.22222519 -0.4786667 -0.6117272 -0.961521 0.45160654 1.0851368 -1.1122193 -1.0914123 0.092254594 0.24076591 0.18936032 -0.33028835 -1.2809875 0.33534327 0.40688655 0.27603784 -0.8509444 -0.8008429 -0.34083343 0.9452468
between 0.055529542 -0.04352491 1.0346158 -0.543079 0.055160776 -0.01854182 -0.7392167 -0.2632226 0.13211988 -0.46291235 -1.1195014 0.11290453 0.4729128 0.29115063 0.41494304 0.07774257 -0.7241213 -1.0704672 -0.28401127 -0.22772165 0.16653398 0.6750056 0.53130627 -0.16173473 0.17952554 -0.47479334 -0.5276705 0.14469029 0.20643732 0.10245694 -0.16286989 -0.3519966 -0.435668 -0.69095945 0.31596112 0.77502394 -0.8082095 -0.78113604 0.068586424 0.18019496 0.13730194 -0.23545069 -0.92106605 0.23411913 0.29286966 0.19469294 -0.6151663 -0.5720654 -0.23878528 0.6797037
this 0.084333256 -0.0777399 1.5737439 -0.8322151 0.07817835 -0.021186544 -1.1294589 -0.39886552 0.20921527 -0.7099196 -1.7047027 0.1714638 0.7184812 0.4382571 0.63588834 0.118709974 -1.1118617 -1.642305 -0.44898704 -0.34334576 0.25159594 1.034995 0.8201702 -0.23581862 0.28498122 -0.72140795 -0.8111303 0.21685214 0.30315182 0.15258086 -0.24690619 -0.5310057 -0.66667247 -1.0540004 0.49578294 1.188825 -1.2186285 -1.1921139 0.10037756 0.27014163 0.21571755 -0.3690275 -1.4061453 0.3573396 0.45211315 0.29400343 -0.93854815 -0.880004 -0.3707629 1.0316199
also 0.05864308 -0.049380112 1.0616746 -0.5571042 0.062790155 -0.015856905 -0.75989306 -0.27278033 0.14050208 -0.4727396 -1.1450899 0.11656645 0.48624805 0.29873317 0.43400544 0.08122366 -0.74743676 -1.1083734 -0.29611507 -0.23612542 0.16938971 0.6930511 0.54883426 -0.16208717 0.19539887 -0.48733625 -0.5421565 0.15210193 0.21032403 0.10395516 -0.16162036 -0.35642776 -0.4478207 -0.70427936 0.3340646 0.7981302 -0.82312274 -0.80871165 0.07339633 0.18114135 0.14666416 -0.24193908 -0.95099294 0.24088167 0.3019746 0.19969879 -0.63291985 -0.5892449 -0.24481364 0.69919014
yeast 0.052055974 -0.050340045 1.0077871 -0.53483546 0.057593547 -0.012831197 -0.7306834 -0.25679976 0.13702877 -0.457694 -1.0976964 0.11131391 0.46429986 0.28217563 0.40887684 0.08120082 -0.7145077 -1.0565712 -0.28730762 -0.22829024 0.16047753 0.66365415 0.5213708 -0.14585823 0.17723526 -0.46205303 -0.51528585 0.13602415 0.2028757 0.09414739 -0.15517363 -0.34664506 -0.42792812 -0.6757879 0.32001698 0.7674566 -0.7845262 -0.7661607 0.06462299 0.16479293 0.13248917 -0.23409607 -0.9077159 0.23292871 0.28984648 0.18934697 -0.60534394 -0.56791586 -0.23595707 0.6673301
histone 0.07402248 -0.056131948 1.1887465 -0.6275702 0.06462343 -0.020519402 -0.845808 -0.30185404 0.15911943 -0.5340397 -1.2770746 0.13387917 0.53646994 0.33345369 0.4795561 0.08317542 -0.83710736 -1.2315091 -0.3409399 -0.2489295 0.18722948 0.7745031 0.61839426 -0.1779617 0.2129811 -0.5367215 -0.6107295 0.16455336 0.22174786 0.10572693 -0.18778302 -0.3966987 -0.5035702 -0.7895209 0.37815136 0.89613074 -0.9173011 -0.8953798 0.07825856 0.21173386 0.15996705 -0.26949042 -1.062796 0.27244252 0.33309448 0.22093381 -0.7094277 -0.6635653 -0.2841725 0.781425
can 0.08369023 -0.08224701 1.5946344 -0.8470349 0.09034083 -0.022868885 -1.1402218 -0.40437922 0.20565833 -0.7186556 -1.7210073 0.1794684 0.73559326 0.4446792 0.64643973 0.12100171 -1.1251426 -1.6689818 -0.44051257 -0.3500333 0.25422406 1.0431623 0.8186576 -0.24803098 0.27952817 -0.7345152 -0.8194118 0.22075203 0.31544694 0.14369918 -0.2534565 -0.5318069 -0.672175 -1.0685381 0.5075328 1.2057813 -1.2450403 -1.2043006 0.09553474 0.26842335 0.21328434 -0.3583296 -1.4221858 0.37413818 0.4509851 0.2938834 -0.9512504 -0.88781357 -0.3776918 1.0613961
polymerization 0.08033258 -0.06478595 1.4573888 -0.76254165 0.080459744 -0.021340508 -1.04579 -0.36041275 0.19914518 -0.6523426 -1.5700251 0.160985 0.6689303 0.41120866 0.5883344 0.11688068 -1.0304488 -1.5244709 -0.40005326 -0.32087946 0.23571607 0.9593564 0.7418211 -0.21606241 0.24889329 -0.6751193 -0.74764496 0.20695187 0.2793924 0.13265707 -0.22430684 -0.48650628 -0.6205058 -0.97139895 0.4514539 1.0985427 -1.1274971 -1.1030083 0.09508265 0.24012128 0.18781999 -0.33608183 -1.2971715 0.33831534 0.41285497 0.27969563 -0.8575034 -0.80994564 -0.340886 0.9524437
both 0.06446097 -0.05169563 1.0842429 -0.5730476 0.057227504 -0.017203689 -0.77601355 -0.27259362 0.14275233 -0.4852852 -1.161952 0.11642175 0.5031382 0.30175778 0.43340856 0.08219283 -0.76038975 -1.1253074 -0.29777983 -0.24656409 0.17449369 0.7048517 0.5563066 -0.17009774 0.19212966 -0.4959861 -0.5636345 0.15568413 0.212291 0.110273175 -0.17284276 -0.36612168 -0.45882225 -0.72703767 0.33924818 0.8186911 -0.83764625 -0.8239949 0.068884395 0.18900815 0.14844407 -0.24280876 -0.96208453 0.25060833 0.3094919 0.20126039 -0.6497605 -0.61030966 -0.25210115 0.7098061
gene 0.09288819 -0.077930026 1.6860782 -0.8830008 0.078005165 -0.017225249 -1.2006669 -0.43482074 0.22440186 -0.7615483 -1.8168797 0.19152613 0.7731097 0.4748127 0.6794859 0.12688845 -1.1885114 -1.7528195 -0.47191638 -0.37830707 0.26533735 1.0956478 0.86817575 -0.26181886 0.3066031 -0.77495235 -0.86341536 0.2444789 0.33073926 0.15181579 -0.26122022 -0.5672599 -0.7152434 -1.1272293 0.5365787 1.2685808 -1.3050004 -1.2733328 0.11115407 0.29134822 0.2231581 -0.38212395 -1.4952334 0.38449323 0.48201254 0.32022563 -1.0060878 -0.93905413 -0.39392176 1.1065887
% 0.06519794 -0.04044881 0.9611124 -0.504203 0.048119217 -0.009658793 -0.67050874 -0.25737143 0.1376195 -0.41746128 -1.0269628 0.09388445 0.43609673 0.2693557 0.39841625 0.073773324 -0.68011093 -1.0050371 -0.2511113 -0.22393423 0.14070374 0.6182327 0.48589796 -0.14747782 0.1713961 -0.4503749 -0.4745779 0.14608762 0.19252169 0.091218546 -0.1433771 -0.32269698 -0.40607804 -0.6356387 0.28340012 0.7236898 -0.72469866 -0.7330616 0.074374884 0.16013491 0.12830132 -0.21773458 -0.8502258 0.21625012 0.28363293 0.19268312 -0.5523098 -0.53330696 -0.22151637 0.63235104
We 0.017259017 -0.016626406 0.42426497 -0.2263153 0.024014253 -0.0033113635 -0.30161077 -0.10321106 0.051176194 -0.18609996 -0.4495312 0.056381036 0.19800335 0.1117778 0.15952542 0.040285274 -0.291829 -0.4344529 -0.11042455 -0.104549974 0.06336456 0.26679778 0.20794903 -0.06009099 0.0697063 -0.19514006 -0.21117944 0.056196284 0.083610155 0.042698063 -0.062334444 -0.14781503 -0.18029684 -0.27926272 0.12864983 0.3099523 -0.32771194 -0.32376733 0.030285437 0.066029996 0.04956717 -0.1030253 -0.36814445 0.09959974 0.12308586 0.06770737 -0.26206893 -0.225821 -0.088899955 0.2784889
1 0.03730915 -0.031522304 0.71838546 -0.38501453 0.03993594 0.0024946309 -0.520457 -0.18339624 0.10366795 -0.32704103 -0.77998304 0.079367206 0.31648478 0.20300063 0.28786606 0.048935626 -0.5069238 -0.7468202 -0.18713863 -0.16366719 0.12497797 0.48952731 0.36296588 -0.11007367 0.11868651 -0.3292504 -0.36203867 0.095624685 0.14447764 0.064748995 -0.11641921 -0.23242944 -0.3055316 -0.47839677 0.228994 0.54968 -0.5670981 -0.5519415 0.045515638 0.11679511 0.10436001 -0.16013224 -0.62621367 0.1620526 0.21253654 0.13589126 -0.42842317 -0.39163807 -0.17105806 0.4822495
domain 0.09394121 -0.06940458 1.621813 -0.8547264 0.090802215 -0.03017717 -1.1558632 -0.4185237 0.20875947 -0.73882425 -1.7475955 0.18178086 0.74219817 0.4547739 0.65104735 0.12935376 -1.143172 -1.6794624 -0.45161417 -0.36814958 0.26409748 1.0648513 0.8249966 -0.26322874 0.29509333 -0.7482896 -0.8267515 0.2316019 0.3170715 0.15649338 -0.25209746 -0.5434167 -0.6959187 -1.0835298 0.50647944 1.2226014 -1.2631296 -1.2316773 0.112308644 0.27308854 0.22267056 -0.36473373 -1.4355286 0.3667806 0.4650138 0.30984113 -0.968281 -0.90253526 -0.3784537 1.0657415
DNA 0.04912299 -0.050240286 0.88640344 -0.4628594 0.04673607 -0.0035213642 -0.62255067 -0.22613573 0.11040173 -0.4053669 -0.9556991 0.10185059 0.40428278 0.24450277 0.36194444 0.070710056 -0.61792487 -0.9153509 -0.24502338 -0.19523 0.1342051 0.58107746 0.44996914 -0.12862052 0.14301054 -0.4015978 -0.4510231 0.121995315 0.17814931 0.08339965 -0.14250088 -0.29788476 -0.3772242 -0.5816937 0.27688494 0.6729045 -0.67831933 -0.66759807 0.063628525 0.14949563 0.119465135 -0.20220712 -0.79170644 0.2009548 0.24787791 0.15826423 -0.52046883 -0.4878271 -0.20644566 0.5750561
its 0.07229199 -0.06573559 1.2592077 -0.6731282 0.055488825 -0.013473277 -0.9159585 -0.31851193 0.16486171 -0.5655865 -1.3571861 0.13745266 0.57629764 0.35499674 0.513733 0.097386405 -0.8913089 -1.3138673 -0.36090446 -0.27784643 0.2021257 0.83117825 0.6440687 -0.19213484 0.22080585 -0.5857948 -0.64761406 0.1768652 0.24364568 0.11485673 -0.1928868 -0.4236648 -0.53459686 -0.84129316 0.40124995 0.95104027 -0.9821566 -0.9565365 0.08411455 0.21100864 0.17437823 -0.29034975 -1.128563 0.2959747 0.36672112 0.23861234 -0.74788487 -0.7026154 -0.30012867 0.8387101
human 0.04958615 -0.041541398 0.8805724 -0.46671697 0.04837849 -0.011850285 -0.6305599 -0.22023068 0.11541472 -0.39587957 -0.9452423 0.09407973 0.4001714 0.2439319 0.36054152 0.071988754 -0.6177561 -0.91878015 -0.24786459 -0.19794479 0.14543115 0.57782763 0.45354444 -0.13211183 0.15076266 -0.40438578 -0.45036548 0.12228146 0.17067274 0.07635208 -0.1367098 -0.2936945 -0.37656727 -0.5897078 0.2786225 0.66661066 -0.6931557 -0.67752594 0.060335565 0.14920034 0.11620019 -0.19961357 -0.78639525 0.20171742 0.24642725 0.16706678 -0.5247603 -0.49088332 -0.20808086 0.58929986
RAD51 0.046230633 -0.04102608 0.9414646 -0.49846408 0.04126748 -0.013686623 -0.6766072 -0.2421846 0.120147675 -0.42896864 -1.0053606 0.10426188 0.4324079 0.2582892 0.37461653 0.07801041 -0.6558971 -0.9811995 -0.2608005 -0.20916124 0.1526486 0.62073123 0.48895553 -0.14809188 0.18065691 -0.4294055 -0.47640723 0.13370305 0.19794542 0.088261075 -0.1491027 -0.32457417 -0.39710823 -0.62987155 0.29439133 0.7126515 -0.72431505 -0.7127925 0.07253791 0.1669103 0.13109621 -0.21055831 -0.84089607 0.21671472 0.26556 0.17783548 -0.5541754 -0.5307475 -0.22086969 0.617874
results 0.08315408 -0.07050847 1.3777813 -0.7303106 0.072251 -0.018051218 -0.98678124 -0.35192302 0.1820704 -0.6150411 -1.4865272 0.15351157 0.630169 0.3855607 0.5562026 0.10485347 -0.9705923 -1.4363195 -0.38633463 -0.306379 0.2216682 0.90329295 0.7139297 -0.20769966 0.24678862 -0.63550365 -0.707795 0.19532809 0.26619762 0.12697792 -0.2168161 -0.4603943 -0.5839841 -0.9238602 0.43327975 1.0421188 -1.0699148 -1.0445566 0.089733966 0.23991483 0.1891913 -0.3146411 -1.2282245 0.3165862 0.3963373 0.25582573 -0.82387036 -0.76790774 -0.32116887 0.9079867
activity 0.08350188 -0.06785184 1.4499971 -0.7639038 0.07623125 -0.02209582 -1.0394708 -0.36299074 0.18924665 -0.65870136 -1.5686929 0.1591389 0.66881484 0.40741497 0.58823043 0.115366735 -1.0265131 -1.5176092 -0.40524796 -0.31631267 0.22983925 0.9526894 0.7438369 -0.2141119 0.25594068 -0.676105 -0.7486606 0.20901243 0.28662905 0.13359271 -0.22477216 -0.48500362 -0.61945415 -0.97320104 0.45367268 1.1045426 -1.1201601 -1.1060904 0.0977425 0.24258125 0.19712351 -0.3293815 -1.2981572 0.33565262 0.4116963 0.27847716 -0.8643578 -0.8114521 -0.34144494 0.9571666
cytoskeleton 0.05815187 -0.04555987 0.9609346 -0.5101541 0.0540309 -0.013811012 -0.69015634 -0.24147682 0.12751757 -0.4337041 -1.0376035 0.10524232 0.4440094 0.2686481 0.39142138 0.07646935 -0.6769256 -1.0032923 -0.26835263 -0.21115376 0.15513451 0.62923235 0.4917786 -0.14433719 0.16747026 -0.44462755 -0.49559212 0.13997643 0.18852802 0.086991996 -0.14611395 -0.32056192 -0.4119838 -0.644491 0.30095178 0.72484094 -0.74519694 -0.73091626 0.060096487 0.15967563 0.12683706 -0.22415483 -0.8527337 0.22578721 0.27171603 0.18221192 -0.56788206 -0.5382029 -0.22640972 0.6283516
These 0.072869085 -0.057561122 1.1842082 -0.6271259 0.063352086 -0.017747518 -0.84739417 -0.30608192 0.15707704 -0.53735447 -1.2738762 0.13147298 0.5456174 0.3314831 0.47702664 0.09562188 -0.83637947 -1.2339437 -0.32709095 -0.25479975 0.19418359 0.7724258 0.6075204 -0.1749398 0.21312457 -0.5475395 -0.6114218 0.16579883 0.2370071 0.10817572 -0.18917833 -0.40173754 -0.5037073 -0.789611 0.36883354 0.8979228 -0.9191541 -0.89805037 0.076231495 0.20107444 0.16184904 -0.27221963 -1.0572088 0.27205715 0.34127483 0.22846395 -0.70244914 -0.66136044 -0.2813741 0.7826265
interaction 0.11174734 -0.089807615 2.0347097 -1.0726229 0.10818211 -0.031108364 -1.4567035 -0.5091737 0.26872155 -0.9182164 -2.1914525 0.22769909 0.9355928 0.5713859 0.8197475 0.1593378 -1.4369885 -2.1315637 -0.56451017 -0.44728827 0.32798544 1.3434153 1.0468245 -0.30674496 0.3541671 -0.9415956 -1.0487188 0.29024103 0.4000767 0.1878779 -0.31236696 -0.6822524 -0.86270356 -1.3623928 0.63196415 1.5447931 -1.5786023 -1.5474006 0.13430461 0.34098837 0.27357697 -0.46468818 -1.8133177 0.47051504 0.57785165 0.38360545 -1.2114551 -1.1351931 -0.4719224 1.3338653
assembly 0.053961392 -0.04248667 0.99804777 -0.5305874 0.05738542 -0.016103582 -0.71519965 -0.25510442 0.13455397 -0.45127493 -1.0751506 0.10586314 0.46121222 0.2840095 0.4010305 0.07787846 -0.70436645 -1.0432869 -0.28116474 -0.22135724 0.15997174 0.6502049 0.51717836 -0.14724495 0.17696533 -0.4620427 -0.51224947 0.14021012 0.19167446 0.094963886 -0.15438242 -0.33759826 -0.42863482 -0.670549 0.31240058 0.7599633 -0.77544755 -0.7554671 0.064157285 0.16830228 0.13285413 -0.2305883 -0.8931222 0.2257262 0.2849476 0.18699943 -0.593368 -0.55968046 -0.2304853 0.6554507
has 0.06349669 -0.062133003 1.236878 -0.64795226 0.063447036 -0.023065168 -0.8883545 -0.30845228 0.1621164 -0.5538917 -1.3245081 0.13253127 0.5667988 0.35205263 0.49679223 0.09242969 -0.87292194 -1.2896005 -0.3455956 -0.27814478 0.20004633 0.8003518 0.63245094 -0.19054489 0.21965851 -0.57198083 -0.62457913 0.17576863 0.24581453 0.10915286 -0.18855615 -0.41436717 -0.51551276 -0.81986254 0.38599944 0.9360209 -0.9514012 -0.94322425 0.07758344 0.21787643 0.16149236 -0.27410576 -1.0964377 0.2822772 0.3482674 0.22962768 -0.730301 -0.69077826 -0.29589716 0.80718404
plakoglobin 0.025762383 -0.022351101 0.7138815 -0.36199299 0.044057887 -0.015517308 -0.5090382 -0.18543315 0.085842855 -0.3241144 -0.7548349 0.083871216 0.32152387 0.1963326 0.27706265 0.05847782 -0.5001629 -0.72853696 -0.19289824 -0.16340621 0.11631113 0.46991125 0.36075798 -0.12529461 0.13892975 -0.31834435 -0.36411753 0.09980942 0.1398082 0.08356011 -0.11373404 -0.24188052 -0.29284936 -0.46870035 0.21387939 0.5252515 -0.54946613 -0.53209955 0.040086925 0.12504221 0.096494555 -0.15081343 -0.62401104 0.15395223 0.20173989 0.12780663 -0.42711332 -0.3927907 -0.16313516 0.46517715
cyclin 0.08214071 -0.07451779 1.5618556 -0.82532805 0.08911526 -0.022613555 -1.1048479 -0.401378 0.1995775 -0.7134993 -1.6716695 0.17325868 0.7144478 0.43515807 0.62686586 0.12706213 -1.1055019 -1.6141958 -0.4339547 -0.35273135 0.24962965 1.0172417 0.7918682 -0.25498122 0.2834366 -0.7170617 -0.8008213 0.2186014 0.3035737 0.15379536 -0.24673763 -0.5237 -0.66669667 -1.0335739 0.48974538 1.1702896 -1.2102836 -1.1752863 0.10025078 0.26092374 0.20884898 -0.35205412 -1.3848991 0.35539043 0.44480866 0.29434896 -0.92155355 -0.86551553 -0.3713974 1.0181085
region 0.102253094 -0.084520124 1.8520046 -0.9714257 0.09822103 -0.031286538 -1.3225905 -0.46260774 0.24499394 -0.8331218 -1.9949807 0.20380001 0.84758013 0.5163241 0.7494739 0.14433426 -1.3033825 -1.9323963 -0.51434374 -0.40923584 0.30069843 1.2095516 0.950939 -0.27890772 0.32393825 -0.8568391 -0.9508265 0.26021352 0.36370173 0.16773964 -0.28652695 -0.61928785 -0.7839809 -1.2380294 0.57274324 1.3933699 -1.4366312 -1.4022449 0.1305974 0.32036716 0.24534145 -0.42065677 -1.6496301 0.425576 0.5266553 0.35005355 -1.098245 -1.0283349 -0.42686778 1.212165
fimbrin 0.06314133 -0.04458966 1.16788 -0.6120518 0.064844735 -0.017880017 -0.8331261 -0.29730085 0.14334115 -0.53009504 -1.2542653 0.12975694 0.5334562 0.31986648 0.46909702 0.09545741 -0.8193395 -1.2044259 -0.32784998 -0.26327872 0.18925099 0.7630743 0.58824575 -0.18782382 0.21275273 -0.53909445 -0.5989024 0.16645065 0.2305734 0.11381717 -0.18170781 -0.39014506 -0.49228868 -0.7752806 0.35877708 0.87157583 -0.9060897 -0.8827135 0.07674148 0.19739076 0.15417881 -0.26003358 -1.0362666 0.26400775 0.3355669 0.21499948 -0.6966688 -0.6400177 -0.27408704 0.7632147
been 0.059785042 -0.04552121 1.1182334 -0.59041137 0.061227072 -0.019543443 -0.8068396 -0.2859559 0.14453337 -0.50115335 -1.2038947 0.122245006 0.5134911 0.315114 0.45738485 0.083363324 -0.7835831 -1.1658559 -0.31148872 -0.24526788 0.17140265 0.73313546 0.57669497 -0.1743939 0.19441652 -0.520545 -0.57313234 0.15597159 0.22616643 0.10783207 -0.17659603 -0.37509498 -0.47226384 -0.7478338 0.34328005 0.8375658 -0.87471014 -0.8461141 0.06836814 0.18664528 0.1515922 -0.24980459 -1.0003046 0.2514365 0.318361 0.2086524 -0.6686667 -0.62574506 -0.26647875 0.7378029
other 0.087357655 -0.0672123 1.513734 -0.7997802 0.079633765 -0.02832172 -1.0843014 -0.39233726 0.20116512 -0.689598 -1.6364213 0.16789536 0.6929914 0.41770303 0.60736537 0.120862275 -1.066584 -1.5817952 -0.42092592 -0.33968422 0.23620848 0.9944154 0.7847783 -0.23616429 0.2726198 -0.7005788 -0.77870333 0.2140933 0.30025563 0.1484914 -0.23979919 -0.5099722 -0.64191616 -1.0115232 0.46897033 1.1456634 -1.1781529 -1.147982 0.094268516 0.26668054 0.20220353 -0.33991283 -1.3562698 0.34851342 0.4398909 0.27908608 -0.9087263 -0.84344697 -0.3586168 0.9980237
RAD52 0.043698266 -0.04270994 0.8429995 -0.45658997 0.035496414 -0.013897022 -0.6035173 -0.21966475 0.10556149 -0.38411462 -0.90733176 0.09403179 0.3879801 0.2299014 0.33517942 0.07362533 -0.58975524 -0.88117486 -0.23654136 -0.1865341 0.13497941 0.56019366 0.43708467 -0.13157624 0.15697464 -0.39242074 -0.4318085 0.12094306 0.17742683 0.08473706 -0.13537298 -0.28843382 -0.3562518 -0.5677281 0.2643448 0.64199656 -0.6598265 -0.63947165 0.06252193 0.14686869 0.11833021 -0.18937445 -0.7658054 0.19205618 0.2411255 0.15727526 -0.4969506 -0.4822995 -0.19696029 0.5561026
found 0.05910941 -0.047007743 1.0856255 -0.5746558 0.061075445 -0.014952202 -0.7811191 -0.2749638 0.13696726 -0.49328995 -1.1736909 0.12284418 0.5043656 0.30589658 0.44150344 0.08556234 -0.76729614 -1.1354891 -0.30216837 -0.24083439 0.17367321 0.7125831 0.5591627 -0.1669273 0.19123879 -0.49863106 -0.55437964 0.15036409 0.22094195 0.10019157 -0.17122513 -0.36334726 -0.46451062 -0.7245146 0.3411293 0.8163289 -0.83963007 -0.82791007 0.07021401 0.19448905 0.15140145 -0.24833986 -0.9749756 0.2541362 0.3033536 0.19665192 -0.64908296 -0.60495895 -0.25909472 0.7153408
factor 0.06351919 -0.05203119 1.1599857 -0.6166764 0.06441173 -0.0115341665 -0.8303272 -0.29727918 0.15166031 -0.5184884 -1.2505693 0.12779383 0.5325983 0.3248624 0.46875748 0.09518397 -0.82650137 -1.2119957 -0.31727993 -0.25515422 0.18795496 0.75727254 0.59259814 -0.18037236 0.20708339 -0.53666544 -0.59205955 0.16407105 0.22850637 0.10708627 -0.18432967 -0.39059588 -0.487868 -0.7807274 0.36445895 0.8744712 -0.9018983 -0.88246506 0.07779275 0.19697423 0.1610865 -0.26354057 -1.0387356 0.2675983 0.33442977 0.22253942 -0.695319 -0.65063035 -0.2713986 0.7661907
binds 0.05406927 -0.045156464 1.0130968 -0.5344164 0.05103953 -0.014754354 -0.7350656 -0.2592034 0.13237603 -0.4608059 -1.0964566 0.109564655 0.47180957 0.2824588 0.41004458 0.0754828 -0.71679556 -1.0570114 -0.2841889 -0.22075793 0.16462776 0.66812426 0.5203029 -0.14560217 0.17370215 -0.46611246 -0.5252486 0.14544421 0.19877739 0.096119806 -0.15797628 -0.33709145 -0.4218918 -0.6784108 0.31603062 0.7725251 -0.7898365 -0.7745461 0.059244413 0.17324314 0.13227436 -0.23263997 -0.9016392 0.22854954 0.28979582 0.18646294 -0.60590327 -0.56151515 -0.23988196 0.66828305
virus 0.04611762 -0.04354136 0.8788613 -0.4590507 0.04951985 -0.010243484 -0.6323773 -0.22262445 0.11705107 -0.3939756 -0.94733393 0.089111954 0.4119587 0.24654481 0.36198816 0.0703749 -0.6127562 -0.917578 -0.2428434 -0.19318421 0.13471936 0.5750371 0.44949186 -0.13026963 0.14780188 -0.40529582 -0.45308968 0.1249069 0.17318492 0.07703041 -0.13995542 -0.29703572 -0.37736303 -0.59119254 0.27836186 0.6679607 -0.6750725 -0.6676662 0.060377944 0.15399906 0.118879214 -0.19876806 -0.7820041 0.20341668 0.2478575 0.16270368 -0.5227606 -0.48932058 -0.20990187 0.58293325
vinculin 0.058858108 -0.05113228 1.1753162 -0.6125522 0.06468977 -0.01678534 -0.8368795 -0.3034456 0.14547849 -0.5365086 -1.2630981 0.13169481 0.53964406 0.33495057 0.47242412 0.09542962 -0.8321786 -1.2191927 -0.33177906 -0.26723188 0.18976234 0.7682846 0.59531796 -0.19278659 0.21503276 -0.536068 -0.60140985 0.1655308 0.23376939 0.11597911 -0.18647797 -0.3990568 -0.5010871 -0.7841715 0.36584657 0.88786054 -0.9140599 -0.891116 0.077995405 0.198797 0.15630153 -0.26497447 -1.0439415 0.26424712 0.33955708 0.22076407 -0.69933283 -0.6499863 -0.28133073 0.77162313
inhibitor 0.065940194 -0.054018725 1.1534213 -0.6107712 0.059826188 -0.009854131 -0.8177423 -0.28940126 0.15126956 -0.51584715 -1.2382257 0.12892766 0.5302061 0.32307222 0.46650454 0.085442975 -0.81703085 -1.1972846 -0.318988 -0.2538815 0.1778437 0.75149137 0.5866454 -0.17617676 0.20551634 -0.5310457 -0.5866168 0.16111462 0.23440552 0.10661241 -0.1858858 -0.38627025 -0.49055585 -0.7702195 0.35871676 0.8713985 -0.89029896 -0.8625036 0.07038197 0.19675532 0.14925563 -0.26253736 -1.0288358 0.272038 0.32641447 0.21863803 -0.68565303 -0.6388895 -0.27072683 0.7596281
using 0.114873014 -0.09593999 1.9881687 -1.0484179 0.107229546 -0.029811617 -1.4281472 -0.5043909 0.25959137 -0.8962452 -2.1533353 0.2223747 0.91366154 0.5582428 0.80700266 0.16048637 -1.402011 -2.07145 -0.55483556 -0.43841892 0.3223071 1.3090115 1.0242131 -0.3052648 0.35090932 -0.924308 -1.0240066 0.28676602 0.3939933 0.18103968 -0.30817792 -0.66410774 -0.8470804 -1.3315187 0.62224287 1.5079398 -1.5461239 -1.5099627 0.13370103 0.34349 0.26479942 -0.44629547 -1.7742893 0.4652047 0.5709652 0.37882861 -1.1901019 -1.1132423 -0.46325585 1.3092147
P 0.01629904 -0.0108593395 0.34479544 -0.20173416 0.023250759 0.0041911276 -0.23840517 -0.09796465 0.05165337 -0.16158393 -0.3954533 0.030847248 0.1673702 0.09567632 0.1617387 0.00979462 -0.27096796 -0.37375522 -0.10905181 -0.07161335 0.07050425 0.24146438 0.19143274 -0.049254976 0.055228163 -0.16071257 -0.18105792 0.05357788 0.07701899 0.02970085 -0.044885892 -0.1165206 -0.15859795 -0.23560195 0.10610979 0.27708048 -0.2995404 -0.27799848 0.03317894 0.06956223 0.044183727 -0.0799728 -0.3271045 0.08220884 0.10767343 0.055286624 -0.21697208 -0.19167489 -0.07902967 0.23831415
may 0.049409967 -0.03879994 0.7971316 -0.41342336 0.045215752 -0.01041608 -0.57153165 -0.19640276 0.101297334 -0.3519047 -0.8523857 0.09062005 0.36325505 0.22188677 0.31541133 0.06518702 -0.55841655 -0.823819 -0.22385491 -0.17293628 0.12781005 0.51220715 0.40786132 -0.12121067 0.14016359 -0.36812037 -0.40576857 0.10957448 0.15287869 0.075941764 -0.13161795 -0.26057872 -0.34386843 -0.5168522 0.25173387 0.58947575 -0.6230712 -0.59750277 0.045504086 0.13487716 0.1052323 -0.17839302 -0.70688236 0.17924346 0.22767498 0.1440257 -0.4742001 -0.44324064 -0.18809982 0.5276034
A 0.036508225 -0.034310468 0.3596437 -0.19331612 0.025789697 0.012264649 -0.25476438 -0.08690931 0.033361107 -0.15881975 -0.37467694 0.053270247 0.16452445 0.09124409 0.13675201 0.018563008 -0.25842375 -0.3723511 -0.100197315 -0.06645576 0.053899363 0.24428655 0.16562009 -0.06159483 0.07278678 -0.16243424 -0.16921818 0.062245116 0.07806888 0.047074124 -0.06934619 -0.12825164 -0.1540502 -0.23954605 0.11482038 0.27050138 -0.27034676 -0.27963957 0.036265813 0.05227693 0.056101948 -0.08526224 -0.3229314 0.08819423 0.0954815 0.06746361 -0.2141486 -0.20603956 -0.08040237 0.24432817
membrane 0.05105024 -0.042230066 0.9493016 -0.5006729 0.04952017 -0.0096036 -0.67666507 -0.2437791 0.12907532 -0.4289386 -1.0275742 0.103175916 0.43717903 0.2673906 0.3867096 0.077449895 -0.6712193 -0.9891767 -0.26629564 -0.21111539 0.14844316 0.61780465 0.49055985 -0.14624268 0.17319295 -0.4414734 -0.4884811 0.13330358 0.18572801 0.09076399 -0.14661688 -0.31731907 -0.40181577 -0.6351653 0.29695928 0.7233951 -0.7357843 -0.7218875 0.060273502 0.16438806 0.12520151 -0.21885127 -0.8472928 0.21624832 0.27493116 0.17873985 -0.5640818 -0.5325582 -0.2179138 0.62396735
bind 0.07558478 -0.06115468 1.3723986 -0.7174313 0.0688588 -0.018492054 -0.9932403 -0.34987822 0.17401312 -0.6187538 -1.4890374 0.1516089 0.6331377 0.38595498 0.55558795 0.10614619 -0.9754923 -1.4379972 -0.38272125 -0.30262142 0.22250105 0.90409887 0.7050431 -0.1977184 0.24258876 -0.63397956 -0.70934683 0.1987061 0.27194107 0.13039884 -0.21006456 -0.46561354 -0.5755264 -0.9246958 0.43076345 1.0425557 -1.0737678 -1.0453396 0.08446341 0.23279172 0.18084572 -0.30907187 -1.2296793 0.3152527 0.39379093 0.25523317 -0.8261933 -0.768408 -0.32233766 0.9046667
it 0.032173607 -0.035261545 0.608401 -0.3137722 0.033445496 -0.017242922 -0.4378393 -0.16003536 0.07492207 -0.26060876 -0.6459837 0.07006633 0.28090698 0.17434269 0.24737392 0.050256915 -0.43043453 -0.63631475 -0.17745383 -0.12901396 0.09553452 0.3984084 0.3061376 -0.0922449 0.105007015 -0.27502725 -0.31500545 0.08036238 0.11618877 0.061613783 -0.090283245 -0.20028007 -0.24911861 -0.41137505 0.19247466 0.45566025 -0.45493326 -0.46819282 0.050095703 0.1000334 0.08509992 -0.1393259 -0.54430944 0.13432795 0.17017782 0.11133095 -0.35345143 -0.34007093 -0.14295852 0.4037033
site 0.060201313 -0.04394328 0.9860411 -0.5224876 0.051370338 -0.010527766 -0.6986914 -0.24799293 0.12790304 -0.4435867 -1.0586133 0.10455501 0.44932362 0.28055036 0.3942021 0.06798498 -0.6863483 -1.023241 -0.27631828 -0.2196237 0.16047183 0.63569385 0.5058711 -0.14511018 0.17391478 -0.45973778 -0.49959213 0.14141272 0.19516368 0.09028247 -0.15518714 -0.32518056 -0.4182692 -0.6527648 0.30405846 0.73801076 -0.76069933 -0.74571747 0.061876703 0.1634869 0.12579677 -0.22078234 -0.884049 0.21997042 0.2693997 0.1853068 -0.5843127 -0.55135643 -0.23043221 0.6493242
I 0.02372509 -0.0073785353 0.3035618 -0.16815248 0.023077294 0.0126281995 -0.22665554 -0.07254295 0.050534457 -0.13336584 -0.34736225 0.034210443 0.13930604 0.088857315 0.1266683 0.028018387 -0.22364466 -0.32270736 -0.08738386 -0.07912061 0.05542057 0.21059531 0.17524554 -0.05029494 0.040506396 -0.13712877 -0.15776005 0.041466 0.06813592 0.03308543 -0.04403194 -0.11683746 -0.12425286 -0.19668886 0.11057607 0.25235343 -0.2583874 -0.2537707 0.03263422 0.051488917 0.036064036 -0.06001554 -0.27691472 0.08423804 0.07946571 0.06198199 -0.18757874 -0.1822401 -0.078255594 0.21924749
identified 0.082160294 -0.06653872 1.4193788 -0.7479486 0.07497728 -0.018559843 -1.0128508 -0.36385044 0.18898265 -0.6396858 -1.5363225 0.15762004 0.6496983 0.40046826 0.5717586 0.112640575 -1.0009023 -1.4814517 -0.3941608 -0.31448066 0.22594802 0.9254124 0.7306247 -0.2164618 0.24822815 -0.65400493 -0.7312386 0.2020159 0.28094232 0.13195719 -0.22133052 -0.47355738 -0.599105 -0.94850516 0.4428077 1.0751977 -1.0984378 -1.077378 0.09248089 0.24114347 0.19512665 -0.32174364 -1.267149 0.33019596 0.40474883 0.2652555 -0.8426997 -0.7915461 -0.3308764 0.92800033
growth 0.04709181 -0.037661955 0.7827942 -0.41349533 0.045130745 -0.013885973 -0.56235737 -0.19458568 0.10596373 -0.3505619 -0.84358805 0.08630333 0.35501713 0.21978804 0.31348044 0.05755648 -0.5529513 -0.819044 -0.21896197 -0.17508048 0.12913662 0.5073784 0.39728 -0.12073251 0.1367447 -0.3605851 -0.40446386 0.10842116 0.15515317 0.07510953 -0.12278742 -0.2572304 -0.33148417 -0.51878214 0.246738 0.5914292 -0.6031662 -0.5922426 0.047944117 0.12613459 0.105582625 -0.17711772 -0.69526756 0.17843041 0.22455402 0.14738536 -0.4636279 -0.439218 -0.18773924 0.5178787
than 0.09038914 -0.07482206 1.6631166 -0.8783836 0.090723224 -0.02157694 -1.1931521 -0.4250623 0.2152171 -0.7464332 -1.79841 0.17987014 0.7609167 0.4692177 0.6716662 0.12562536 -1.1686488 -1.733897 -0.46627465 -0.36638048 0.26671842 1.0849068 0.85941833 -0.25991985 0.29785627 -0.7674191 -0.84851766 0.23205437 0.33471897 0.15648817 -0.25946254 -0.5558229 -0.7033415 -1.1082381 0.52528566 1.2550753 -1.2890819 -1.2642502 0.10603014 0.28626746 0.22396007 -0.3790641 -1.4868407 0.3882251 0.46658155 0.314894 -0.990873 -0.9213036 -0.39014357 1.0885857
into 0.08897171 -0.07229854 1.507169 -0.79171777 0.08002087 -0.017423403 -1.0799363 -0.3834709 0.20302983 -0.6757005 -1.6178818 0.1696251 0.696997 0.42320985 0.6098791 0.11541436 -1.0592409 -1.5785311 -0.41632253 -0.3293657 0.24761048 0.97921276 0.7788001 -0.2264418 0.25686285 -0.692061 -0.771406 0.21014935 0.29790184 0.1446707 -0.23594373 -0.50359386 -0.64318144 -1.0046307 0.46781862 1.1429951 -1.1741005 -1.1393825 0.09832485 0.25900745 0.20539083 -0.342955 -1.3443161 0.34752932 0.42968133 0.28161338 -0.8980633 -0.8415993 -0.3510273 0.9954042
increased 0.08703314 -0.07099209 1.5603292 -0.8233773 0.08295006 -0.018062852 -1.1160978 -0.39200264 0.2046189 -0.7023359 -1.680007 0.16977689 0.71908486 0.43539864 0.62877715 0.11959463 -1.1032877 -1.6313629 -0.43421027 -0.34444606 0.24880879 1.0164099 0.8032094 -0.23585762 0.28135073 -0.7243886 -0.79980594 0.21561463 0.3101361 0.1455015 -0.24504946 -0.5227928 -0.6592986 -1.0437074 0.4883633 1.182451 -1.2076874 -1.1811372 0.104450725 0.26931313 0.21000496 -0.35368687 -1.3917006 0.35698235 0.44413382 0.28932565 -0.92310226 -0.8666056 -0.36703938 1.026305
sequence 0.0628972 -0.048298176 1.089314 -0.5738736 0.057217743 -0.016428739 -0.7781257 -0.27809754 0.1412981 -0.49133494 -1.176558 0.12064283 0.501375 0.30620196 0.43828264 0.085527904 -0.76515657 -1.1395769 -0.30362836 -0.24065733 0.17540778 0.7127452 0.5639155 -0.16557312 0.19114886 -0.49961588 -0.5588385 0.1509218 0.21466683 0.09848076 -0.17287435 -0.3605167 -0.46258 -0.730914 0.34316793 0.8249707 -0.8420064 -0.8282113 0.07381872 0.18450047 0.1467682 -0.25095686 -0.9739631 0.24900074 0.31261536 0.2043847 -0.64864516 -0.60934293 -0.26133373 0.7162212
suggest 0.053271703 -0.051557478 0.99072456 -0.52365243 0.052669376 -0.008728439 -0.71331495 -0.25143933 0.1350998 -0.45002097 -1.0720234 0.10848164 0.45592266 0.27760705 0.40165177 0.08227961 -0.70309496 -1.0354043 -0.27625817 -0.22060774 0.16224146 0.6481968 0.51487356 -0.14720108 0.182439 -0.45486766 -0.5090882 0.14452204 0.20063972 0.09385061 -0.15857887 -0.33065933 -0.41876537 -0.66119283 0.30879655 0.75249183 -0.77177894 -0.754134 0.06117536 0.17280884 0.13375424 -0.22662905 -0.8904288 0.23366766 0.28663 0.1864817 -0.5935648 -0.55611247 -0.23224047 0.6533701
their 0.07195286 -0.058709756 1.3089182 -0.6934876 0.06878198 -0.016708767 -0.9332894 -0.3340777 0.17385872 -0.5827183 -1.4133523 0.14252618 0.5972564 0.36658108 0.524917 0.10354976 -0.9185749 -1.3652496 -0.364738 -0.28992504 0.21366654 0.8565043 0.6729175 -0.20536014 0.22983935 -0.607382 -0.6696036 0.1802938 0.26256278 0.121759884 -0.20327061 -0.43745384 -0.5490841 -0.87199867 0.4128061 0.9932987 -1.0133579 -0.9863084 0.08066162 0.22892608 0.173568 -0.29724506 -1.164843 0.30073467 0.36905795 0.25165108 -0.7784728 -0.7268083 -0.30906323 0.8632615
filament 0.0827597 -0.071378626 1.5139861 -0.80010706 0.078750364 -0.017303875 -1.0882871 -0.38014865 0.20786826 -0.68019867 -1.6353008 0.16303806 0.70207566 0.43116593 0.615174 0.118773654 -1.0653963 -1.5847394 -0.41493362 -0.33386192 0.24112871 0.9896303 0.77875745 -0.2248245 0.2627106 -0.7012908 -0.7734191 0.21483672 0.29429746 0.13484342 -0.23354559 -0.5056021 -0.64210624 -1.0109885 0.47428125 1.1410407 -1.1736345 -1.1510128 0.09831571 0.25232157 0.19916786 -0.34747502 -1.3483704 0.35252056 0.42586315 0.2890323 -0.8953329 -0.8424495 -0.35695553 0.9950845
affinity 0.043216918 -0.036514156 0.80065167 -0.42184374 0.040350046 -0.012018149 -0.58170855 -0.20172027 0.11078645 -0.36059338 -0.86889035 0.09129882 0.3673672 0.22498089 0.32707697 0.061930344 -0.56643677 -0.8424408 -0.224436 -0.18110913 0.13037513 0.53055227 0.41369042 -0.12116888 0.13842276 -0.3691114 -0.40993527 0.11708297 0.15715426 0.075320244 -0.124745324 -0.26825356 -0.34433725 -0.53932786 0.25186524 0.61274326 -0.6182321 -0.61029154 0.052636433 0.13536485 0.10629186 -0.18650143 -0.7187401 0.1828323 0.22881907 0.149861 -0.47707218 -0.44676474 -0.18687834 0.52820325
Acanthamoeba 0.03310724 -0.028411604 0.5906347 -0.31371117 0.031553958 -0.0057546627 -0.42404783 -0.14969248 0.076635316 -0.26313666 -0.63796496 0.06566737 0.27029383 0.16626881 0.23892953 0.042500295 -0.41500443 -0.6149401 -0.16483346 -0.12990035 0.0942277 0.38454294 0.3049837 -0.088188745 0.10263193 -0.27045986 -0.30385005 0.082492284 0.11732484 0.052305937 -0.09154555 -0.19264397 -0.24950527 -0.3955901 0.18475315 0.44544083 -0.45819685 -0.44853 0.039393365 0.099515826 0.07686519 -0.13246235 -0.5260059 0.13656466 0.16653635 0.10932532 -0.35119537 -0.32627454 -0.1401263 0.3877975
similar 0.046482064 -0.03586979 0.8233787 -0.437852 0.04237201 -0.010303761 -0.5926276 -0.20808014 0.10813726 -0.37214515 -0.8968633 0.089411624 0.38075754 0.2296703 0.33741018 0.06417316 -0.58576626 -0.85900813 -0.23281696 -0.18348365 0.13606969 0.5415136 0.4295529 -0.12536564 0.14426036 -0.38589084 -0.42564043 0.116207205 0.16337903 0.07444688 -0.13494313 -0.28128067 -0.35018843 -0.5577912 0.2586566 0.63073504 -0.644846 -0.6267717 0.053765535 0.1412247 0.11397789 -0.19181165 -0.7407445 0.18883868 0.2369798 0.15037963 -0.49284044 -0.4612803 -0.19430384 0.54668635
involved 0.068470314 -0.058098014 1.2495784 -0.65535915 0.0684959 -0.014573598 -0.8941888 -0.31422266 0.1688037 -0.5610525 -1.3459271 0.13961126 0.57714915 0.34982982 0.503114 0.0970426 -0.87547445 -1.3086635 -0.3452511 -0.27943575 0.19929953 0.8158961 0.64166856 -0.18815 0.21948206 -0.5753663 -0.64087296 0.1740729 0.24876538 0.11382819 -0.19754301 -0.4174733 -0.53106505 -0.8340614 0.39539486 0.94694704 -0.9668582 -0.94333804 0.07982867 0.20831 0.1689602 -0.2827326 -1.1149868 0.2899544 0.35467732 0.2324332 -0.74643123 -0.69622695 -0.2965166 0.8247793
role 0.05093578 -0.03637851 0.8399672 -0.44539422 0.049290396 -0.011218641 -0.6003451 -0.21307082 0.10791433 -0.38200477 -0.9101234 0.08692886 0.38495246 0.2364966 0.33840483 0.071579196 -0.58715194 -0.8801833 -0.23584372 -0.19257964 0.13306588 0.55257815 0.43222645 -0.12154127 0.15063164 -0.39332625 -0.42844832 0.12029441 0.16442597 0.07239523 -0.13540725 -0.28270587 -0.35949126 -0.5595102 0.26281375 0.6343392 -0.6535331 -0.64395344 0.05722086 0.14349753 0.11307397 -0.19435705 -0.75152516 0.19547611 0.2431744 0.16239466 -0.49024096 -0.46789357 -0.20599133 0.54846793
presence 0.076256625 -0.06267008 1.372732 -0.72131073 0.07578665 -0.02264264 -0.9827937 -0.3478666 0.18306282 -0.6160758 -1.4770494 0.15246955 0.62757456 0.38811383 0.55259085 0.10843121 -0.9691485 -1.4320349 -0.38125578 -0.30756244 0.21497545 0.8965572 0.71003747 -0.2080868 0.24334195 -0.6350815 -0.7038694 0.19292194 0.2671462 0.12503208 -0.21445172 -0.45705402 -0.5842643 -0.9179124 0.42934796 1.0395167 -1.0625247 -1.041971 0.09179979 0.2293644 0.18901071 -0.31542706 -1.2220498 0.31581295 0.3858153 0.2597389 -0.81709903 -0.75816256 -0.3240516 0.89879864
UL8 0.027530516 -0.030424442 0.4809433 -0.2573237 0.020113485 -0.007718879 -0.34252143 -0.12586768 0.06748711 -0.2116729 -0.51193804 0.05301996 0.22042672 0.12748611 0.19885413 0.0328642 -0.34281614 -0.49357596 -0.126771 -0.10539095 0.07057895 0.3114402 0.26359656 -0.077867925 0.08664264 -0.22217713 -0.25132135 0.060349703 0.09745628 0.04386439 -0.07919042 -0.16811553 -0.20227306 -0.30889922 0.14942339 0.37225732 -0.37275764 -0.3610553 0.03689802 0.085087106 0.06363055 -0.10368013 -0.42869753 0.102444455 0.13737938 0.09060304 -0.28509212 -0.27231357 -0.11445666 0.31940383
phosphoprotein 0.06509478 -0.042505957 1.1739333 -0.60920286 0.06053455 -0.016988574 -0.829953 -0.29090783 0.15495895 -0.5277756 -1.2555057 0.1345608 0.5383571 0.32211468 0.47149086 0.08872596 -0.8231604 -1.2087715 -0.32819313 -0.2636735 0.18370597 0.76863855 0.5983174 -0.18423095 0.21037512 -0.54186565 -0.59538585 0.1576888 0.23048797 0.11384776 -0.17858395 -0.3909916 -0.49763435 -0.7883427 0.3597485 0.87646574 -0.91622335 -0.89080155 0.08612149 0.2008565 0.15815149 -0.26194397 -1.0359386 0.27351642 0.33674112 0.21847694 -0.7005269 -0.6457754 -0.27477592 0.7665465
during 0.0849123 -0.07376751 1.5434712 -0.8121151 0.08009607 -0.02216641 -1.1106488 -0.38795924 0.2066418 -0.7023326 -1.6686907 0.16657443 0.70998496 0.43475437 0.6304565 0.120285824 -1.0846134 -1.6127657 -0.42626578 -0.3416531 0.24907926 1.0147454 0.79415226 -0.23382719 0.27539563 -0.7132423 -0.79596865 0.22122203 0.30264673 0.14643253 -0.24292968 -0.5200489 -0.6592759 -1.0372609 0.4795214 1.166337 -1.2025689 -1.1778871 0.10210371 0.26562238 0.20940277 -0.35107026 -1.3757931 0.36093244 0.44021806 0.29689 -0.9240311 -0.8637415 -0.35927922 1.0175747
UL52 0.019132085 -0.028182494 0.47302273 -0.2546493 0.020714905 -0.00547147 -0.3344902 -0.12452456 0.06190455 -0.21029176 -0.5083528 0.056433152 0.22130474 0.13089006 0.1915844 0.031182121 -0.34023064 -0.48669502 -0.123052046 -0.10724614 0.07074954 0.31166127 0.24988244 -0.075666495 0.079667486 -0.21703239 -0.2485578 0.067655995 0.09490798 0.045977972 -0.07749759 -0.16062984 -0.19701558 -0.31865814 0.14843516 0.36153433 -0.37170184 -0.35360813 0.030018682 0.08370051 0.062003456 -0.10882559 -0.42096424 0.10985448 0.13604328 0.092508405 -0.2820639 -0.2687946 -0.11054537 0.31816676
repair 0.046510536 -0.04084471 0.89268583 -0.47111964 0.051264614 -0.01166376 -0.64012253 -0.23272394 0.1174962 -0.4019506 -0.9709545 0.09873191 0.41200975 0.25239632 0.36250433 0.07480933 -0.62966865 -0.9373734 -0.25478306 -0.1938612 0.1413987 0.5883203 0.4646614 -0.13634427 0.15960877 -0.4133174 -0.46265176 0.1305393 0.17594323 0.081204265 -0.13918146 -0.2998574 -0.38468945 -0.6007742 0.27847752 0.67170334 -0.6925074 -0.6815216 0.062168747 0.15359493 0.123402484 -0.20443699 -0.80323344 0.21035059 0.2562227 0.16587655 -0.5316387 -0.50482297 -0.209481 0.5924203
profilins 0.09538519 -0.08474454 1.6823671 -0.8901332 0.08892456 -0.025476063 -1.2123889 -0.41825587 0.22610608 -0.75991416 -1.8202432 0.18656932 0.7713145 0.47532776 0.68302256 0.13477269 -1.1868925 -1.7637632 -0.47000858 -0.37470245 0.27461556 1.104339 0.8642046 -0.24816501 0.2912666 -0.7753968 -0.8637394 0.23741196 0.32787934 0.15278822 -0.26288617 -0.5645654 -0.7119705 -1.1296993 0.524256 1.2751501 -1.3048055 -1.2831477 0.111116655 0.2824426 0.2152899 -0.38606805 -1.5062724 0.3964887 0.47847977 0.3134162 -0.99790967 -0.939004 -0.39582497 1.1084142
vitro 0.022486147 -0.01973491 0.5627023 -0.29886422 0.033087064 -0.0095646735 -0.4098377 -0.14382078 0.08200468 -0.24750441 -0.6010798 0.05858647 0.2619804 0.16313362 0.22583403 0.047215667 -0.3975095 -0.586373 -0.15716597 -0.12362078 0.093384214 0.3679034 0.2871485 -0.08513229 0.10357189 -0.2568065 -0.28794974 0.07885773 0.10765393 0.054027285 -0.09082555 -0.18442516 -0.23994203 -0.3720878 0.17416771 0.42500693 -0.42987922 -0.42731804 0.04147251 0.09747865 0.07914127 -0.124128915 -0.5031552 0.1265114 0.15706496 0.10719551 -0.34031862 -0.3149677 -0.13703227 0.36850065
type 0.04608439 -0.034345333 0.80621 -0.43028277 0.043471918 -0.0028900097 -0.57874376 -0.21410471 0.104197614 -0.35934022 -0.8691164 0.09008852 0.36656 0.22265129 0.33655936 0.060350493 -0.56399155 -0.8423796 -0.22127853 -0.17780466 0.12954102 0.5265032 0.41018 -0.12536703 0.1445636 -0.37870464 -0.4141141 0.1154099 0.16000335 0.07469223 -0.12830019 -0.26432598 -0.33907938 -0.5375662 0.2553795 0.6149714 -0.6328124 -0.6204426 0.06552788 0.13783003 0.10862362 -0.18222715 -0.720068 0.18335837 0.23160952 0.14757606 -0.4833894 -0.44663724 -0.18682414 0.53017586
antibodies 0.060607605 -0.05241745 1.1074 -0.58471364 0.05800608 -0.013335606 -0.79035723 -0.2844688 0.14424719 -0.49703202 -1.1958905 0.12368232 0.51001453 0.30721536 0.44959423 0.085248716 -0.7782659 -1.1582164 -0.3083383 -0.24406059 0.17893393 0.7256389 0.5724561 -0.1711055 0.19816206 -0.51554334 -0.5699377 0.15602836 0.22451173 0.10713034 -0.17219442 -0.37218037 -0.47074777 -0.7406521 0.3488993 0.83608836 -0.86285484 -0.8396131 0.07282025 0.19210775 0.15090546 -0.2496674 -0.9861315 0.25218683 0.31799293 0.2102274 -0.657848 -0.6188617 -0.25983799 0.7289695
beta 0.058213875 -0.040143818 1.1609458 -0.60182756 0.06529962 -0.024858655 -0.8355482 -0.29775095 0.14499621 -0.5290086 -1.2450023 0.13555297 0.5297985 0.32306784 0.45974028 0.084161825 -0.81148046 -1.188844 -0.32427293 -0.26442778 0.1894744 0.75733876 0.5887514 -0.192036 0.21322459 -0.53706825 -0.59127647 0.15529864 0.23383075 0.122913405 -0.18599352 -0.39603516 -0.4816578 -0.76548576 0.35401616 0.86484474 -0.90032923 -0.8686004 0.06882096 0.20618658 0.15690239 -0.25201985 -1.0333482 0.24825479 0.32697532 0.21949558 -0.6889578 -0.6411003 -0.26716024 0.7599669
associated 0.0787778 -0.060638297 1.5061778 -0.7943369 0.08030832 -0.022391582 -1.0852449 -0.3819482 0.19574463 -0.68223065 -1.6230562 0.16931081 0.6927983 0.42171267 0.60659915 0.119658895 -1.0658904 -1.5755868 -0.41918725 -0.33405396 0.24272831 0.98866796 0.77672166 -0.23463762 0.27223885 -0.6958321 -0.77860373 0.20955712 0.29861993 0.1495445 -0.24057175 -0.5022521 -0.6306378 -1.009598 0.47168046 1.1446525 -1.1709204 -1.1347637 0.093069986 0.26253313 0.20797373 -0.34338552 -1.3470606 0.34201837 0.43017548 0.276912 -0.89866453 -0.84212935 -0.3549956 0.98948866
required 0.07215606 -0.058205962 1.274603 -0.6735802 0.06644169 -0.017878504 -0.9140591 -0.32546595 0.16464822 -0.57461023 -1.3793638 0.1381984 0.584493 0.3543389 0.51396513 0.097704224 -0.89750916 -1.3293887 -0.3565609 -0.27971458 0.20821778 0.8372359 0.6594799 -0.19590053 0.22349556 -0.58644074 -0.6555931 0.17665346 0.25168848 0.11674228 -0.20422041 -0.42436606 -0.5402519 -0.8510077 0.3973655 0.9663998 -0.99107337 -0.9670865 0.08689792 0.2141136 0.17393515 -0.289204 -1.1367196 0.29072967 0.3638834 0.23705962 -0.7580278 -0.71462244 -0.2989596 0.8411649
UL5 0.022681212 -0.03132389 0.52567714 -0.28518337 0.023509672 -0.013401791 -0.37841848 -0.13369368 0.06267325 -0.23489854 -0.56329495 0.06750069 0.24331574 0.15421614 0.21349338 0.03307956 -0.382924 -0.5495709 -0.13889648 -0.11242806 0.08345537 0.349413 0.28732792 -0.08512582 0.0898118 -0.2408092 -0.27280095 0.074254945 0.10355038 0.04597307 -0.09209854 -0.18629965 -0.21537831 -0.34597024 0.1628224 0.40233853 -0.4105454 -0.39972582 0.025733545 0.09293718 0.06225303 -0.12363289 -0.46884093 0.113993876 0.1584475 0.10273924 -0.3205986 -0.30091903 -0.123155706 0.3562049
2 0.021706782 -0.006964229 0.43720368 -0.22387387 0.018552635 -0.001137068 -0.32123232 -0.112448685 0.06428957 -0.19674039 -0.5000763 0.054802537 0.21145096 0.12293953 0.16870095 0.021244932 -0.32995376 -0.47246632 -0.11474 -0.10593136 0.08198589 0.3022458 0.21406972 -0.063556954 0.06854553 -0.2231755 -0.21572775 0.061776683 0.07218371 0.052646004 -0.07109054 -0.15107593 -0.1934883 -0.3093465 0.1323294 0.34439728 -0.3337583 -0.34877896 0.0373365 0.07843933 0.063275255 -0.09727945 -0.4050973 0.10157029 0.14271343 0.08486062 -0.2564647 -0.2631455 -0.10302696 0.27663377
function 0.104464345 -0.08535094 1.917582 -1.0068719 0.10266126 -0.025479361 -1.369449 -0.47635633 0.25438106 -0.86293226 -2.063286 0.2115326 0.87462044 0.54161096 0.7732028 0.15397032 -1.3550689 -2.0042877 -0.5339726 -0.42559448 0.31183642 1.2589426 0.984084 -0.2839224 0.3360191 -0.8906003 -0.9851918 0.27252325 0.37610906 0.17241125 -0.29916322 -0.64071226 -0.8182385 -1.2793012 0.59826344 1.4532653 -1.4853349 -1.4544809 0.12825288 0.32402003 0.25694358 -0.43983576 -1.7079555 0.44453928 0.5422914 0.3623591 -1.1393197 -1.0694025 -0.44906557 1.255678
effect 0.053006493 -0.045737103 0.921776 -0.48232496 0.05170832 -0.0133742485 -0.6601741 -0.23449612 0.118180536 -0.41008866 -0.9828111 0.10204314 0.42024174 0.26148024 0.3758741 0.071237154 -0.64387846 -0.9624937 -0.24931024 -0.20617366 0.14768547 0.60069734 0.47373223 -0.13848352 0.156196 -0.42716146 -0.47408405 0.12791236 0.17642121 0.0799243 -0.14634778 -0.30983612 -0.39251208 -0.61058754 0.28389353 0.6923933 -0.70575225 -0.69396335 0.059973937 0.1509474 0.12698108 -0.20949557 -0.8168212 0.2111166 0.26162133 0.16938858 -0.5471459 -0.5061527 -0.22162625 0.5999618
microM 0.045738 -0.043996688 0.8881805 -0.4620324 0.044305284 -0.011555075 -0.6323523 -0.22153091 0.11967547 -0.39515218 -0.9538868 0.097976424 0.40691766 0.24427901 0.35833544 0.07139932 -0.6212208 -0.9223492 -0.24630836 -0.19639608 0.14663552 0.5802392 0.4524742 -0.13845685 0.15131986 -0.4065666 -0.45341006 0.12426493 0.17201255 0.08758482 -0.13903654 -0.29673687 -0.37444785 -0.5908653 0.27199212 0.66397893 -0.689723 -0.6714652 0.059511315 0.15026173 0.11861787 -0.20238005 -0.79236144 0.20148848 0.25315407 0.1691938 -0.5230528 -0.49034023 -0.20794836 0.5768724
containing 0.09529904 -0.0731473 1.7215899 -0.9087724 0.09216385 -0.026152551 -1.2316647 -0.43956327 0.22812612 -0.7799797 -1.8572654 0.19211906 0.78983426 0.4797867 0.69546956 0.13539386 -1.2074654 -1.7965804 -0.47658756 -0.38000304 0.2774635 1.1302589 0.88504004 -0.26994017 0.30815202 -0.7941264 -0.8843757 0.23960568 0.33961996 0.1615978 -0.26838085 -0.581018 -0.7367618 -1.1549923 0.5377328 1.3020875 -1.3369098 -1.3079067 0.11478102 0.29727647 0.22825043 -0.39274845 -1.5349865 0.3969329 0.49432012 0.32871145 -1.0241946 -0.9611735 -0.40626746 1.1315098
cyclin-dependent 0.061305314 -0.05508177 1.1186879 -0.5950576 0.061656125 -0.01010968 -0.7901001 -0.28535897 0.14767987 -0.5022836 -1.2020736 0.12514053 0.51439804 0.31100756 0.4539993 0.08798714 -0.79278505 -1.1634141 -0.30857226 -0.24981065 0.17368494 0.722893 0.5726808 -0.17061424 0.19907662 -0.51306164 -0.570632 0.15321785 0.2203576 0.10048605 -0.18134859 -0.3730652 -0.4763685 -0.7446388 0.3563296 0.846375 -0.86648655 -0.84003276 0.06792978 0.18693003 0.15210672 -0.25736555 -0.99708337 0.2605112 0.317289 0.2119598 -0.65880716 -0.6228253 -0.2702936 0.73017526
shown 0.0447559 -0.049035985 0.8833719 -0.470283 0.047607556 -0.007552133 -0.6401807 -0.22789533 0.11957155 -0.40158844 -0.960763 0.09405775 0.4075858 0.24299708 0.3637885 0.070466444 -0.6292717 -0.93681145 -0.24990627 -0.20182848 0.14755037 0.5848573 0.4615778 -0.13603957 0.15765952 -0.40675208 -0.46570972 0.12904623 0.1808797 0.08351021 -0.14236523 -0.30264667 -0.37842426 -0.59879774 0.27784643 0.67066014 -0.6926369 -0.6794106 0.054389294 0.15494175 0.1144249 -0.20193249 -0.7995068 0.20374368 0.2545792 0.16791256 -0.5369744 -0.500467 -0.21778941 0.59204996
sites 0.08147545 -0.05870314 1.348309 -0.71199507 0.074503794 -0.018153813 -0.9626046 -0.33933675 0.17875192 -0.6030344 -1.4476488 0.14374559 0.61260533 0.37973112 0.5443184 0.1017393 -0.94182 -1.4045125 -0.37031162 -0.30114448 0.21791904 0.8776912 0.69536537 -0.20610355 0.23701672 -0.62188274 -0.6876043 0.1902384 0.2624445 0.121429965 -0.2137707 -0.44959894 -0.5712938 -0.8979691 0.4228385 1.0158043 -1.0377395 -1.0229001 0.08586573 0.22381727 0.17725375 -0.3081017 -1.2019168 0.3054382 0.37600568 0.25287688 -0.7950164 -0.7473103 -0.31634724 0.8872382
complexes 0.06619497 -0.05572262 1.3060079 -0.68742126 0.07045413 -0.017490027 -0.94308835 -0.33367762 0.16938287 -0.58633447 -1.4018543 0.14684348 0.5976326 0.36364716 0.52918106 0.10069371 -0.92258596 -1.367132 -0.3641616 -0.28872305 0.20835243 0.8580337 0.6705624 -0.2013287 0.23146795 -0.6009788 -0.66977495 0.18261002 0.25741366 0.12203813 -0.20351543 -0.44054472 -0.54987854 -0.8752132 0.40939975 0.99053967 -1.011113 -0.9885676 0.08585529 0.22126417 0.17924306 -0.29692665 -1.1681864 0.29676333 0.37270796 0.24203077 -0.7755338 -0.72798395 -0.30760595 0.8564614
synthesis 0.05464118 -0.043212015 0.9059867 -0.4794378 0.05001983 -0.013554356 -0.64733785 -0.23155266 0.12197096 -0.40835837 -0.97865087 0.10099576 0.41655093 0.25625765 0.36619088 0.07315833 -0.6380203 -0.94233686 -0.24849649 -0.1987676 0.14226055 0.59171355 0.47208267 -0.14068219 0.16250308 -0.41912577 -0.46677434 0.12988463 0.17953174 0.08171766 -0.14256538 -0.3073727 -0.3887846 -0.60331607 0.28398225 0.6896233 -0.70675683 -0.68889767 0.06280146 0.15912648 0.12428555 -0.20519473 -0.80504256 0.212045 0.2599579 0.1723605 -0.54119563 -0.5063624 -0.21299279 0.5962073
adhesion 0.06595517 -0.050396647 1.3598573 -0.707769 0.07159424 -0.019756386 -0.9732907 -0.33739716 0.17601766 -0.61548287 -1.4604677 0.15249671 0.6195759 0.3842369 0.54957974 0.10465921 -0.95607877 -1.4128416 -0.37454733 -0.30453724 0.21574467 0.8935705 0.6931892 -0.21347187 0.24379304 -0.621794 -0.69658 0.19661729 0.26332602 0.13069524 -0.2128064 -0.45590973 -0.57365376 -0.9031659 0.42085192 1.020159 -1.0519756 -1.0251445 0.08740201 0.23375729 0.18332672 -0.30845127 -1.1982366 0.3052979 0.3838483 0.25348848 -0.80555445 -0.755301 -0.3127056 0.8845655
whereas 0.05993583 -0.045707416 1.0800486 -0.5675134 0.05671389 -0.016401988 -0.772775 -0.27671233 0.14477392 -0.48768872 -1.1631391 0.12009206 0.4985658 0.3014961 0.43543792 0.08186461 -0.76100725 -1.1268264 -0.30298668 -0.23897466 0.17154978 0.7069399 0.5510276 -0.16764581 0.19560035 -0.49730143 -0.55591875 0.14955877 0.2108479 0.103264734 -0.17548856 -0.36291534 -0.45379892 -0.72081983 0.33709732 0.81864315 -0.8309218 -0.8160256 0.0698682 0.19059442 0.14658569 -0.24683094 -0.95887095 0.24815454 0.30471078 0.20136113 -0.6400948 -0.60321456 -0.25200054 0.7091662
three 0.051210012 -0.042368375 0.8923381 -0.47839993 0.04640188 -0.011633816 -0.63526475 -0.22736858 0.11554346 -0.4025632 -0.967553 0.10154916 0.41326776 0.24949585 0.3583475 0.068364166 -0.6289545 -0.93076795 -0.24758142 -0.19443382 0.1425421 0.5857654 0.4648294 -0.13213162 0.16014381 -0.41209123 -0.45566922 0.123660915 0.17836353 0.0848222 -0.13572913 -0.30112168 -0.37920728 -0.5995093 0.2833528 0.6784605 -0.6903307 -0.6779235 0.05888163 0.15983678 0.1224928 -0.20617719 -0.79827577 0.20765385 0.25737956 0.17216282 -0.5322749 -0.49859306 -0.2108394 0.5935642
molecules 0.054951027 -0.050146032 1.0764323 -0.56902426 0.06050102 -0.011694093 -0.77278405 -0.2707638 0.14104974 -0.48207837 -1.162173 0.118179075 0.49173057 0.29991478 0.43585065 0.08323853 -0.761887 -1.1214633 -0.29565346 -0.23859322 0.17515567 0.704674 0.55290866 -0.16362487 0.19633488 -0.49965686 -0.5512098 0.14992934 0.2124182 0.099881604 -0.16760267 -0.36472228 -0.44937152 -0.7238315 0.3381413 0.8179222 -0.8346188 -0.8196603 0.06876844 0.18286371 0.14946884 -0.24444135 -0.9634678 0.24614002 0.30741185 0.20432425 -0.64237154 -0.6002585 -0.25460526 0.70909315
skeletal 0.060406953 -0.046685047 1.0258557 -0.5417212 0.059584122 -0.014421768 -0.7356996 -0.26486456 0.12869145 -0.46117896 -1.1123912 0.11221733 0.47288147 0.28418124 0.41987136 0.08233789 -0.7247983 -1.0709021 -0.2857873 -0.22939713 0.16408594 0.67258984 0.52211154 -0.15897542 0.17829998 -0.47473532 -0.52574134 0.1496888 0.20200193 0.10065576 -0.15875904 -0.3463269 -0.43934637 -0.6916743 0.32000318 0.77267104 -0.7983255 -0.7823737 0.063523 0.17468952 0.13376409 -0.23407981 -0.90927875 0.24079415 0.29095 0.19843502 -0.61210483 -0.5722315 -0.24098031 0.66913503
effects 0.057428595 -0.050065044 0.9930128 -0.5185897 0.05725043 -0.010665885 -0.7133641 -0.2516609 0.13129178 -0.44278634 -1.063105 0.108882286 0.4554924 0.2838848 0.4044222 0.07523619 -0.6958217 -1.0326312 -0.2726265 -0.21956272 0.15685125 0.6492191 0.5073195 -0.15077956 0.17009032 -0.45535702 -0.5106907 0.13870393 0.18653455 0.08558097 -0.15845971 -0.33264115 -0.42514512 -0.6578544 0.30996618 0.74761033 -0.763433 -0.7491739 0.06659546 0.16494165 0.13550366 -0.22437431 -0.8813788 0.22959158 0.28181294 0.18527734 -0.58943826 -0.54675275 -0.23693359 0.64635336
isoforms 0.04309284 -0.029409984 0.6580358 -0.3536837 0.03501195 -0.008845047 -0.46882132 -0.17284687 0.087686 -0.300398 -0.71694386 0.06857873 0.30005875 0.18397844 0.26803854 0.05522578 -0.46537003 -0.6841506 -0.1855974 -0.15256672 0.10063773 0.43546504 0.34083563 -0.106110916 0.11773405 -0.31101793 -0.33847925 0.0964111 0.12906569 0.06209177 -0.10550303 -0.22434033 -0.29030147 -0.4419515 0.20495492 0.4941135 -0.51421446 -0.5078363 0.046257157 0.11259336 0.08712534 -0.15166715 -0.58211464 0.15539739 0.18820313 0.12699115 -0.3929771 -0.36773947 -0.15037706 0.43350065
show 0.047470354 -0.051650837 0.9326945 -0.49600554 0.051247705 -0.0049122046 -0.67697316 -0.23717728 0.12481243 -0.42526215 -1.0190595 0.10162464 0.4322604 0.25780234 0.38098413 0.07335733 -0.6647455 -0.9786291 -0.26680487 -0.20921183 0.14838628 0.61469895 0.4838377 -0.14119688 0.16879095 -0.43380195 -0.4835128 0.13744502 0.1883756 0.08315265 -0.14779054 -0.31746632 -0.4060857 -0.62959725 0.29530606 0.70680547 -0.72919774 -0.71785444 0.06111418 0.16531047 0.12073808 -0.22367282 -0.83933127 0.21709386 0.2671839 0.1701664 -0.5602992 -0.5263358 -0.22472139 0.62252384
high 0.041142713 -0.02945417 0.68651015 -0.36034957 0.04407951 -0.009244613 -0.4886285 -0.17492321 0.09229284 -0.3075595 -0.73582083 0.07498405 0.3147205 0.18934101 0.2803073 0.049781915 -0.47889605 -0.71043736 -0.1895387 -0.14959913 0.11273198 0.44766244 0.3472095 -0.102041 0.118041664 -0.3139539 -0.35021573 0.09534815 0.13172148 0.06499022 -0.10358546 -0.22661199 -0.29100412 -0.45152235 0.21829659 0.51711494 -0.5337399 -0.52117974 0.035930786 0.12281241 0.08404125 -0.14937998 -0.6061475 0.1568587 0.1929329 0.12632315 -0.40410897 -0.38357833 -0.16303931 0.44200942
form 0.06899502 -0.04923657 1.1260167 -0.59595007 0.063556 -0.021254124 -0.8042797 -0.2909631 0.153025 -0.5145765 -1.2225652 0.12057169 0.5206633 0.316577 0.45518667 0.091241606 -0.8001826 -1.1810575 -0.31333214 -0.2454791 0.17955609 0.7397697 0.58129877 -0.17285709 0.20099 -0.52358 -0.57805544 0.15393731 0.22049116 0.10189558 -0.17291568 -0.38093987 -0.48567155 -0.75178313 0.35627067 0.85151905 -0.8751701 -0.86032766 0.07719586 0.19244222 0.14968175 -0.25830987 -1.008966 0.25390413 0.32535696 0.20994672 -0.6725862 -0.6288391 -0.26809645 0.7442097
formation 0.110617265 -0.08988806 1.9907255 -1.0449381 0.109996185 -0.031748023 -1.4199972 -0.49759775 0.2669068 -0.89331377 -2.1418188 0.21928628 0.9114544 0.55744857 0.8034942 0.15857507 -1.4079453 -2.0786803 -0.5491877 -0.43940833 0.31847516 1.3065172 1.0194002 -0.29826263 0.34639943 -0.92212814 -1.0212775 0.28274125 0.38310108 0.17947559 -0.3093719 -0.6646546 -0.84986573 -1.3236548 0.6202082 1.4969722 -1.5401046 -1.5091062 0.13455214 0.33545333 0.26288643 -0.4564334 -1.7732127 0.45979545 0.56329083 0.38095483 -1.1762778 -1.1097369 -0.4660906 1.3027954
nucleocapsid 0.031772226 -0.023665117 0.5975111 -0.317579 0.031104928 -0.0077950447 -0.42615315 -0.14925599 0.07910384 -0.2706816 -0.6453927 0.06639772 0.2783736 0.1665333 0.2429792 0.041295275 -0.42557317 -0.6194987 -0.17152277 -0.13196623 0.09103581 0.39036572 0.30922154 -0.09217398 0.10916923 -0.27572244 -0.3027284 0.07796357 0.12102056 0.055806953 -0.0916847 -0.20256342 -0.256419 -0.4016689 0.18338972 0.44999823 -0.46826908 -0.45163175 0.04291666 0.10300584 0.08057046 -0.13525432 -0.53220254 0.13654906 0.17504252 0.111399926 -0.35874173 -0.3295365 -0.14496969 0.39746302
domains 0.068718866 -0.056239873 1.1867265 -0.63044775 0.06007821 -0.02113334 -0.84878516 -0.3077285 0.15576603 -0.54114693 -1.283509 0.13283542 0.54684836 0.3336554 0.4805101 0.09195388 -0.8400036 -1.2390951 -0.3308206 -0.26524928 0.19249316 0.777411 0.60780764 -0.18437864 0.21466985 -0.5470411 -0.6070451 0.17223895 0.23623325 0.11206156 -0.18084107 -0.40003616 -0.50826776 -0.7932877 0.3726296 0.9024012 -0.9265794 -0.9013343 0.07763611 0.2026104 0.16011901 -0.26962864 -1.0583333 0.26956835 0.3401285 0.22505029 -0.70738906 -0.66277736 -0.27861145 0.78041685
functions 0.09060368 -0.07457164 1.6451973 -0.8655579 0.086549416 -0.020594357 -1.178592 -0.41307053 0.21570358 -0.7381604 -1.7718865 0.18186632 0.7512889 0.4637452 0.6638696 0.13202661 -1.1612417 -1.7201021 -0.46144024 -0.36388502 0.26585013 1.0789734 0.8470196 -0.24272063 0.28774318 -0.7638418 -0.84455156 0.23267727 0.32685724 0.15003315 -0.2562013 -0.55021155 -0.69815946 -1.0975809 0.5142198 1.2483057 -1.2759193 -1.2493633 0.1074765 0.27934167 0.2195495 -0.37468702 -1.4677817 0.38013312 0.46636128 0.30789787 -0.97981125 -0.917407 -0.38842225 1.0799863
nucleotide 0.05328363 -0.03894225 0.9055407 -0.47873923 0.051701006 -0.007629229 -0.6499688 -0.22583811 0.118434235 -0.4049905 -0.98071027 0.10009937 0.41519755 0.2526427 0.36864677 0.06884503 -0.6363387 -0.94003206 -0.2559762 -0.20226684 0.144539 0.58749294 0.47071087 -0.1367879 0.15868647 -0.4165527 -0.4627927 0.12150873 0.1808542 0.08647325 -0.14014381 -0.30787286 -0.38496006 -0.60822564 0.28093904 0.68462324 -0.7022739 -0.6849783 0.061236005 0.15326428 0.12324411 -0.20718993 -0.8064141 0.20949404 0.26091528 0.16630691 -0.5340995 -0.50073326 -0.21383339 0.5987142
H4 0.013661951 -0.01736927 0.3396383 -0.17949855 0.020388884 0.0032063527 -0.23829836 -0.08477268 0.04548674 -0.15395124 -0.3769901 0.039091263 0.14646205 0.092581965 0.14356619 0.021323048 -0.23030972 -0.34633607 -0.11321584 -0.0637701 0.04195947 0.22581968 0.18544361 -0.049524378 0.05309036 -0.15316346 -0.17421615 0.052734625 0.060396824 0.037071988 -0.056863964 -0.11102097 -0.15523659 -0.23865345 0.11393291 0.2647205 -0.2616585 -0.24714613 0.019173317 0.065886565 0.044048678 -0.077437334 -0.30483964 0.07618064 0.0950273 0.06386854 -0.20300919 -0.19836597 -0.07566113 0.2228498
mutant 0.06522657 -0.057878908 1.2407459 -0.65667033 0.066693954 -0.016676145 -0.89277387 -0.31784442 0.16487041 -0.55978787 -1.3423533 0.13605036 0.57217246 0.34412622 0.50485116 0.09648003 -0.8741904 -1.3006727 -0.3433751 -0.27228877 0.20121665 0.8117193 0.64317006 -0.18730406 0.22428699 -0.57126695 -0.6385806 0.17627196 0.24357931 0.11588552 -0.19685034 -0.41323102 -0.5233126 -0.8324786 0.38649568 0.94490504 -0.9678453 -0.9405636 0.07901769 0.21362714 0.16520353 -0.2837302 -1.1111578 0.2905854 0.35602435 0.23741528 -0.73747486 -0.6894953 -0.2918395 0.8180864
such 0.032333896 -0.034681395 0.75136715 -0.40483525 0.039149743 -0.009630833 -0.54582554 -0.19160418 0.09706041 -0.33580497 -0.82400966 0.085267015 0.3529045 0.21622142 0.29988763 0.059944227 -0.53750336 -0.7950714 -0.20983864 -0.16552101 0.12766272 0.49851534 0.3864044 -0.113400005 0.14143105 -0.34706265 -0.38460627 0.109292954 0.14754313 0.071389124 -0.1142311 -0.26004258 -0.31986475 -0.5077997 0.23250899 0.5725789 -0.5941096 -0.575561 0.04650105 0.12672219 0.10782194 -0.17193647 -0.6846487 0.17909147 0.22100721 0.13721098 -0.44990656 -0.4242585 -0.17604092 0.49819338
vivo 0.018692456 -0.019811945 0.44666442 -0.23268996 0.020895682 -0.0034268328 -0.3214328 -0.11614647 0.05750297 -0.20104662 -0.48258096 0.04363753 0.20725003 0.12160666 0.18070702 0.03642835 -0.31131136 -0.462088 -0.12487325 -0.101867445 0.06857232 0.28915036 0.2319685 -0.06844523 0.074438915 -0.20262094 -0.22231379 0.06846421 0.08792156 0.04090843 -0.07173491 -0.14596134 -0.19108582 -0.2964227 0.13809036 0.34201476 -0.34353516 -0.3369072 0.028274447 0.07320165 0.05518876 -0.09983876 -0.3947926 0.09951782 0.12845327 0.08020404 -0.26364958 -0.24966736 -0.09998011 0.2987291
study 0.03438768 -0.023576595 0.5926169 -0.31911638 0.032994155 -0.0012746028 -0.42141578 -0.15113917 0.07671556 -0.2659105 -0.6424411 0.0676689 0.2706431 0.16261381 0.24223906 0.04876727 -0.41737014 -0.6150124 -0.16200405 -0.14057782 0.09487042 0.37882036 0.30199164 -0.09390076 0.10196313 -0.2713185 -0.30704084 0.07904063 0.11661671 0.051415123 -0.09126518 -0.19986698 -0.2524461 -0.39486846 0.1838365 0.4386301 -0.4541973 -0.44731805 0.038584474 0.09758743 0.082835205 -0.13702951 -0.5249144 0.13686065 0.16630003 0.103999905 -0.35076565 -0.32318988 -0.13261856 0.38412204
different 0.072357826 -0.056661367 1.250809 -0.6603857 0.06404773 -0.013745074 -0.89534795 -0.3196566 0.16581585 -0.5585806 -1.3500084 0.14049894 0.5728042 0.35331732 0.5079581 0.0985766 -0.8836266 -1.304487 -0.34337926 -0.2827473 0.20271339 0.82066625 0.6401279 -0.18948744 0.22108164 -0.58026224 -0.6400642 0.17750435 0.24705522 0.112000115 -0.19899239 -0.4189052 -0.5317792 -0.8347241 0.39195314 0.9471697 -0.9687919 -0.9458316 0.08052358 0.2116935 0.16650018 -0.28430364 -1.119166 0.28707507 0.35434347 0.2364651 -0.74230105 -0.69778645 -0.29241723 0.8226734
receptor 0.06813591 -0.055602048 1.2514907 -0.65552604 0.06782561 -0.0121643 -0.8928151 -0.31928864 0.16343695 -0.5576277 -1.3548589 0.14042804 0.5719377 0.349853 0.5085425 0.098236375 -0.8855355 -1.3060975 -0.34563023 -0.27600855 0.20216824 0.81674427 0.6420756 -0.19154741 0.2173273 -0.57447225 -0.6439945 0.1763958 0.24537376 0.11456967 -0.1956684 -0.4170167 -0.5261506 -0.8335487 0.39309257 0.94402283 -0.9640774 -0.94483256 0.077405214 0.21656793 0.16829541 -0.2851726 -1.1180602 0.28539598 0.3591367 0.23406897 -0.74271697 -0.7000979 -0.2991257 0.8252359
cytoskeletal 0.061112877 -0.04736654 1.0201735 -0.5418426 0.05812906 -0.016268836 -0.73255247 -0.25895798 0.13015936 -0.46153533 -1.1069199 0.11172383 0.47246313 0.28723383 0.41702744 0.0823391 -0.719349 -1.06733 -0.2863705 -0.22670774 0.16522112 0.6693647 0.52242863 -0.15620612 0.1782238 -0.47374156 -0.5237981 0.14765447 0.19990326 0.098884724 -0.15497127 -0.34292608 -0.43760246 -0.6863529 0.31938192 0.769853 -0.7946104 -0.77725 0.06400526 0.17151017 0.13453181 -0.23636451 -0.907024 0.23956299 0.29117653 0.19312504 -0.60708976 -0.5725753 -0.24078886 0.6674636
expressed 0.08750679 -0.067321844 1.6399164 -0.85567194 0.08740137 -0.022223027 -1.1710156 -0.41641343 0.21250583 -0.7330202 -1.7548723 0.18163413 0.7437886 0.45618668 0.6585123 0.1287381 -1.1536684 -1.6997632 -0.44978616 -0.3651365 0.25977972 1.0729432 0.83794284 -0.26099133 0.29213768 -0.7567669 -0.83794177 0.23098338 0.32522306 0.1587036 -0.25918916 -0.5491117 -0.693694 -1.0875022 0.5090213 1.2328995 -1.2684325 -1.2331975 0.109112725 0.27752846 0.22310975 -0.37005547 -1.453855 0.36863193 0.46496764 0.30837438 -0.9712462 -0.90606993 -0.37987822 1.0699387
showed 0.068900436 -0.06288537 1.3109316 -0.6943269 0.07125768 -0.019429393 -0.9411326 -0.33483025 0.17242657 -0.5921159 -1.4195763 0.14885342 0.60655004 0.36705846 0.5296712 0.101553954 -0.9278445 -1.3753785 -0.3693987 -0.28580403 0.21004961 0.8604339 0.67629176 -0.19866686 0.23454703 -0.60645735 -0.6764461 0.18565452 0.26561847 0.122051336 -0.20660572 -0.44312477 -0.56145877 -0.880375 0.41569796 0.994035 -1.0178798 -0.99954355 0.086394876 0.2274369 0.17487742 -0.30005845 -1.1749309 0.3023189 0.37858525 0.24259539 -0.7799104 -0.73275125 -0.31195283 0.8657349
interactions 0.10068105 -0.082287095 1.8295277 -0.9654005 0.096914455 -0.027094893 -1.3113378 -0.46107408 0.24040705 -0.82491446 -1.972341 0.20440787 0.8417571 0.51241875 0.7375909 0.14413911 -1.2909031 -1.9168146 -0.5099874 -0.4019423 0.29415214 1.2067398 0.9422313 -0.27539104 0.31887475 -0.84688675 -0.9423474 0.26002437 0.36221287 0.1701768 -0.2812042 -0.6141692 -0.7734386 -1.2251183 0.56962055 1.3903978 -1.420684 -1.3918872 0.11911043 0.30804068 0.24513835 -0.41656914 -1.6326337 0.42201117 0.5198052 0.34276196 -1.0902762 -1.0205675 -0.42697877 1.2012519
3 0.026717346 -0.017477958 0.38587275 -0.20269802 0.0048293583 0.006867248 -0.25562507 -0.09972836 0.059870962 -0.17506069 -0.4100992 0.052869417 0.16840231 0.09722191 0.15877895 0.041398495 -0.25031778 -0.3911729 -0.086845286 -0.07877805 0.046783455 0.25722158 0.19729058 -0.050630137 0.060999844 -0.18013479 -0.18064445 0.06292331 0.058631167 0.02479665 -0.06746259 -0.11955315 -0.17528078 -0.24115622 0.12394044 0.27599084 -0.29832307 -0.2760544 0.017803535 0.08270457 0.044567447 -0.08673972 -0.3317899 0.07629384 0.10686748 0.05559147 -0.23841417 -0.19023609 -0.09654631 0.25386572
[ 0.012579031 -0.007661419 0.4218553 -0.21631207 0.015834356 -0.010946749 -0.31769538 -0.096811384 0.05889023 -0.19387266 -0.4665054 0.04926716 0.19009641 0.12071473 0.1642558 0.023391427 -0.29298726 -0.44469464 -0.13391611 -0.10905764 0.06135697 0.2784943 0.23288065 -0.06744923 0.08545527 -0.2031365 -0.22533481 0.05783494 0.10279585 0.027346749 -0.08155359 -0.13409445 -0.19062248 -0.28320393 0.14378592 0.3199054 -0.34059036 -0.32721007 0.02973846 0.06908335 0.075585544 -0.095755294 -0.37423968 0.0917469 0.13104936 0.074677415 -0.24305066 -0.23590294 -0.10189241 0.26491964
] 0.00990884 -0.012804808 0.36845198 -0.17696512 0.0032848204 0.0035214813 -0.25676775 -0.09025307 0.056666277 -0.14642447 -0.3827362 0.043440167 0.16236646 0.103011474 0.15795991 0.021940878 -0.24507912 -0.36930606 -0.10079635 -0.08093987 0.06725426 0.2141258 0.17523852 -0.07108888 0.06298509 -0.17419781 -0.17909795 0.06716866 0.058549296 0.03630752 -0.050402835 -0.12917104 -0.14360163 -0.24236685 0.12378819 0.25328976 -0.2922237 -0.25454387 0.01592751 0.07444663 0.053716898 -0.083969876 -0.32653445 0.07318625 0.1078071 0.06499744 -0.22485407 -0.19685604 -0.10079415 0.22691017
one 0.079791 -0.06400367 1.3634491 -0.71811295 0.07321607 -0.02167705 -0.9642653 -0.34937742 0.17924012 -0.6113946 -1.4649118 0.1493876 0.61238533 0.38066664 0.54942924 0.09911784 -0.95789826 -1.4134318 -0.38328567 -0.3007111 0.22007512 0.88502276 0.69831043 -0.2063218 0.24109797 -0.61654186 -0.70531446 0.20051003 0.26495242 0.12203186 -0.21245232 -0.45230582 -0.57571137 -0.9058361 0.42779464 1.0316442 -1.0555581 -1.0229539 0.087655045 0.23986664 0.18524493 -0.30976042 -1.217201 0.311308 0.38574287 0.2596222 -0.8103538 -0.7582832 -0.31488553 0.8816818
H3 0.022880422 -0.008766124 0.3658963 -0.20759484 0.022897303 -0.009431437 -0.2554444 -0.08082524 0.04888223 -0.17035103 -0.40898374 0.02973331 0.1626858 0.104859084 0.14953266 0.027200602 -0.25986582 -0.3714771 -0.1116319 -0.08563197 0.047570232 0.232851 0.18851994 -0.04265217 0.06549483 -0.17541604 -0.18981725 0.05713802 0.07266683 0.032559752 -0.06808344 -0.1142815 -0.15134902 -0.25815818 0.114603445 0.27612168 -0.28786302 -0.2758947 0.025712103 0.07492392 0.04294494 -0.07782966 -0.3330282 0.0876578 0.104558006 0.055684164 -0.21089101 -0.19951953 -0.08988407 0.23359634
mutations 0.09904475 -0.08283804 1.823935 -0.95582056 0.09868062 -0.025278581 -1.3082458 -0.460463 0.24307816 -0.8208639 -1.967919 0.20531307 0.83828646 0.5107753 0.73553056 0.149889 -1.287558 -1.9046333 -0.50735265 -0.40241632 0.29077008 1.1960787 0.9396401 -0.27609238 0.3212946 -0.8499465 -0.93824804 0.25729957 0.35733935 0.17035817 -0.2862375 -0.61173755 -0.77375394 -1.219651 0.5684858 1.3770607 -1.4148054 -1.3851101 0.11923796 0.30809602 0.24355304 -0.41860405 -1.6254275 0.42006886 0.5157579 0.34662652 -1.0828133 -1.0195701 -0.42493427 1.1951015
only 0.050235413 -0.04288187 0.8531 -0.44978854 0.040589646 -0.008440926 -0.61490065 -0.21481596 0.11265088 -0.3802687 -0.91832066 0.08560058 0.38640788 0.23988824 0.34905067 0.066621386 -0.6003654 -0.894915 -0.23735642 -0.19576786 0.13838735 0.5550714 0.4436817 -0.13042444 0.15658766 -0.3932142 -0.43478975 0.122698 0.16495566 0.07815542 -0.1279195 -0.2877355 -0.36141464 -0.5704909 0.26736248 0.6450399 -0.65730065 -0.6461939 0.055247124 0.14450595 0.10938394 -0.19539124 -0.7584341 0.19474918 0.23720501 0.1590715 -0.50812584 -0.4768053 -0.19872154 0.5574978
activation 0.11584545 -0.095002756 2.1069705 -1.1051103 0.115158804 -0.03267135 -1.5054251 -0.5233141 0.27876607 -0.9493675 -2.2719789 0.22868347 0.9671423 0.59243697 0.84755945 0.16758884 -1.4912443 -2.203968 -0.58486575 -0.4635492 0.33873028 1.3832709 1.0794244 -0.31079882 0.36410555 -0.98446536 -1.0843644 0.30115837 0.411531 0.18862239 -0.32788292 -0.7029706 -0.8967663 -1.4052438 0.65330166 1.5955501 -1.631535 -1.6029655 0.14197059 0.35363567 0.2829907 -0.4822845 -1.8792559 0.490952 0.5957346 0.40186667 -1.2487818 -1.1789243 -0.48947096 1.379559
levels 0.034085065 -0.0321326 0.65228826 -0.345551 0.033388246 -0.0104365805 -0.4679343 -0.16847368 0.08731055 -0.291778 -0.70442295 0.07741593 0.30036992 0.18122284 0.26444474 0.046541233 -0.46167493 -0.6852584 -0.17853916 -0.14824256 0.10352746 0.42556155 0.3343051 -0.09911138 0.11762348 -0.30132997 -0.3367794 0.09541557 0.12767859 0.06830235 -0.09695847 -0.21949211 -0.27734056 -0.43823674 0.20291562 0.49328378 -0.5081081 -0.5004896 0.042906027 0.11076483 0.08612169 -0.14424098 -0.5867627 0.14785847 0.1880513 0.12621394 -0.3895552 -0.36760622 -0.15323749 0.42685333
