5200 20
, 0.52837473 -0.25023377 -0.13960409 -0.0006597508 -0.35296494 -0.18906662 -0.50269216 0.4149002 -0.18803468 0.64381576 -0.28155634 0.12603056 -0.23726812 0.28995013 -0.23674846 0.30845463 -0.28159612 0.05039254 -0.1259875 0.42018786
of 0.8655719 -0.1572677 -0.041359838 -0.020112408 -0.15569603 0.27894044 -0.7169957 0.6285634 -0.2694082 0.773149 -0.41318965 0.3891418 -0.5432098 0.5217566 -0.27209523 0.2548049 -0.3712092 0.3393807 -0.10966668 0.551273
the 1.0795159 -0.1865814 0.043580532 0.06904744 -0.18112554 0.12727901 -0.66631216 0.76912224 -0.10397681 0.8147793 -0.4669757 0.57074237 -0.75219786 0.60299486 -0.21695818 0.1665937 -0.38385463 0.45074913 -0.032099094 0.5926742
and 1.0060933 -0.25475508 -0.12633274 -0.2170874 -0.4407831 0.031169806 -0.9220254 0.66232693 -0.19722673 1.0262566 -0.42672104 0.22810619 -0.6327019 0.60935944 -0.43792486 0.45524153 -0.5456265 0.2650439 -0.1886314 0.7122589
. 0.5157287 -0.134516 0.039635923 -0.18543336 -0.21365812 0.09445233 -0.4746451 0.391727 -0.0035451679 0.563313 -0.34668046 0.1639913 -0.33937228 0.2942577 -0.21654536 0.23176429 -0.2562911 0.12868552 -0.07249522 0.38457948
in 1.078006 -0.111255795 -0.08340892 -0.21931174 -0.24905497 0.28052774 -0.79791176 0.6148749 -0.23986685 0.5489133 -0.38104776 0.32195455 -0.5918277 0.8443788 -0.29817867 0.26271206 -0.6913115 0.395432 -0.3625813 0.5563307
actin 1.2355994 0.052096788 0.13027687 -0.44955933 -0.2681637 0.5455596 -0.936144 0.6461179 0.06270148 0.6787519 -0.6862372 0.37501428 -1.1283414 0.88703066 -0.43776533 0.32145151 -0.7064152 0.66974926 -0.2685183 0.72737086
to 0.9423542 -0.15944447 0.053479 -0.08778756 -0.1884273 0.20997977 -0.60005873 0.7666897 -0.1488595 0.65027416 -0.4822628 0.5326632 -0.61599094 0.5863666 -0.21423274 0.12960126 -0.3383169 0.3833493 0.0056647696 0.5217724
) 0.45947665 -0.3100188 0.2220541 -0.18776432 -0.29090953 -0.25503206 -0.61191124 0.36936474 0.029465605 0.86050385 -0.4545032 0.044421077 -0.09479756 -0.054160915 -0.1422062 0.51631 -0.28693378 -0.22379464 -0.21149683 0.57266027
( 0.39310163 -0.2240745 0.22379391 -0.31200817 -0.3269068 -0.21661443 -0.5687816 0.4452227 0.030455537 0.84100395 -0.35538903 -0.11227986 -0.045903355 0.081662245 -0.15288553 0.4006529 -0.46044624 -0.09189987 -0.16139266 0.6447881
a 0.5993364 -0.13485338 0.1962135 -0.026764216 -0.04557079 0.0944116 -0.28151593 0.391531 0.0836306 0.6328077 -0.29480937 0.3190516 -0.3812442 0.16651858 -0.10868901 0.15234298 -0.24337 0.2148279 0.069703825 0.29622483
with 1.0605582 -0.29179966 0.020071654 -0.11000423 -0.28648442 0.21685213 -0.8007965 0.8303214 -0.16957723 0.96585447 -0.5130892 0.4860272 -0.6668936 0.6841209 -0.32601225 0.25891665 -0.5025403 0.38945666 -0.07820193 0.66353095
that 1.1561697 -0.27966568 0.18916987 0.13887346 -0.14246629 0.23051311 -0.5609531 0.9167372 -0.011848038 1.0089765 -0.5676124 0.85120946 -0.71799797 0.5300918 -0.0839834 0.080434605 -0.31668708 0.47480133 0.13498007 0.65237564
profilin 1.3075067 -0.13927288 0.32270527 -0.05480792 -0.26486704 0.48061392 -0.6741534 0.8568398 0.07284302 0.73628664 -0.66547495 0.9165715 -0.99872243 0.7465591 -0.14696006 0.041961018 -0.47086215 0.7142155 -0.06353683 0.7023686
is 0.9681656 -0.20280422 0.06023836 -0.016346104 -0.1681971 0.23102672 -0.5870633 0.6872127 -0.15463449 0.70369077 -0.4141888 0.53788584 -0.6520216 0.54885316 -0.2337947 0.18408619 -0.3424007 0.40983057 -0.0050688963 0.57341415
for 0.9559736 -0.21050835 0.07186437 -0.14631727 -0.29364806 0.17799342 -0.79568297 0.72302586 -0.08837446 0.90553063 -0.5185197 0.4093656 -0.6543795 0.5740201 -0.2701891 0.30566812 -0.4929808 0.34219804 -0.10786804 0.67611325
by 0.8662228 -0.2626664 0.07645914 -0.037765864 -0.10816093 0.214475 -0.49417806 0.7640296 -0.07677831 0.8294896 -0.46315464 0.5510142 -0.4989841 0.49651957 -0.09623653 0.09542322 -0.33185613 0.32943735 0.014696181 0.51847833
protein 1.0071379 -0.28903043 0.37538654 -0.39909554 -0.70073324 -0.2728672 -1.1762593 0.63472337 0.1761622 1.1108096 -0.87024385 0.22404802 -0.63708305 0.29240108 -0.38246706 0.6961979 -0.7585468 0.09483974 -0.5478751 1.1374327
The 0.9227609 -0.25323197 0.24124826 -0.043507636 -0.08149303 0.22611178 -0.53914493 0.7888543 0.025323093 1.0316141 -0.53608704 0.5959968 -0.5836148 0.3934076 -0.18916444 0.16893707 -0.31955793 0.3738012 0.112133816 0.5765074
proteins 1.0417991 -0.2883095 0.35046485 -0.20235625 -0.5648062 -0.12718667 -0.9748359 0.7430793 0.13200277 1.0774556 -0.79348445 0.48247832 -0.6782012 0.34577605 -0.29947448 0.4945703 -0.58346874 0.22340502 -0.3470289 0.9856859
was 1.0955576 -0.24471752 -0.0806036 -0.038329367 -0.26592678 0.111539386 -0.72199017 0.75722027 -0.24359503 0.9336584 -0.43241426 0.37614426 -0.58392 0.64434034 -0.30463624 0.28765365 -0.47853824 0.30501732 -0.11535376 0.6302127
beta-catenin 1.7340343 -0.388162 -0.69717205 0.18491335 -0.73038703 -0.47926724 -1.4645343 0.9506968 -1.0391479 0.7120138 -0.3001851 0.3042894 -0.67369807 1.5219059 -0.3914204 0.4472093 -1.2023162 0.3345491 -0.88901013 0.94907814
cells 1.1221582 -0.30449232 0.060631093 0.027233128 -0.13959576 0.22606562 -0.62030715 0.9550345 -0.16232632 0.9200067 -0.50300497 0.719165 -0.62744004 0.6828874 -0.19309333 0.14342389 -0.39816043 0.4460153 0.030970072 0.6196248
myosin 1.3239303 -0.20118262 -0.2647685 -1.0520506 -0.6159298 0.3017014 -1.493966 0.6293775 -0.18284564 1.4296849 -0.7240377 -0.48840448 -1.061485 0.9116729 -1.0930212 1.0682048 -1.0861757 0.22703068 -0.48524445 0.84415346
alpha-catenin 1.7332637 -0.38032708 -0.7441355 0.05764561 -0.75015235 -0.48206532 -1.5241063 0.9233901 -1.0328947 0.7824434 -0.3246733 0.16368757 -0.7335461 1.5295845 -0.52191514 0.5538018 -1.2524285 0.30685365 -0.9072579 0.95199996
chain 1.3588903 -0.22914273 -0.39458182 -1.0524074 -0.6139386 0.28294584 -1.5408189 0.6012934 -0.26597396 1.3709338 -0.581992 -0.5649585 -1.1502463 1.0202615 -1.1878718 1.0937599 -1.1681447 0.2713125 -0.475014 0.8453699
binding 1.3046302 -0.046708077 0.14871345 0.03613459 -0.42810598 0.29816073 -0.98456025 0.7447448 -0.020959444 0.62657845 -0.72689664 0.79341084 -1.0357724 0.8680933 -0.16355215 0.16089705 -0.567866 0.6858059 -0.34049422 0.8120732
are 1.0384916 -0.27813238 0.082057945 0.06728131 -0.29797223 0.11294372 -0.68646944 0.8355599 -0.12557304 0.94647175 -0.48708338 0.68318045 -0.62859577 0.53767836 -0.2504839 0.20895827 -0.3187615 0.37472296 -0.009384379 0.63312185
were 1.0897387 -0.3184411 -0.04363798 -0.1178137 -0.37984535 -0.01873855 -0.8328743 0.77107835 -0.21583451 1.0343566 -0.4704856 0.39692393 -0.57058734 0.64458174 -0.35271418 0.41359633 -0.5038943 0.2305282 -0.115340374 0.64783704
cofilin 1.32875 -0.14053439 0.21343958 -0.048813447 -0.26249483 0.45700073 -0.7153805 0.8228029 -0.013821701 0.710579 -0.6057969 0.83922464 -0.9952306 0.8495148 -0.19821748 0.08290062 -0.54219407 0.6994778 -0.13807224 0.66207
as 1.0545728 -0.16565447 -0.057460196 -0.021250019 -0.24659964 0.22667873 -0.49000198 0.69726235 -0.17406622 0.7677082 -0.36527106 0.5392997 -0.5548455 0.64361554 -0.23098063 0.19678895 -0.49341762 0.34289706 -0.13004392 0.5017059
heavy 1.2321817 -0.08384987 -0.22724867 -1.0642182 -0.44977644 0.26490125 -1.3900856 0.5221356 -0.08365849 1.5816523 -0.64804494 -0.5407904 -1.0410024 0.8002088 -1.2184567 1.0621008 -0.8889721 0.32093632 -0.19080883 0.72181636
not 1.1173362 -0.27695665 -0.14120677 0.07242806 -0.2657185 0.045399163 -0.8123271 0.83133876 -0.3316091 0.87570304 -0.45161217 0.47657934 -0.6373339 0.832583 -0.28393123 0.21345985 -0.5816964 0.29739457 -0.20080796 0.6481947
or 0.8123063 -0.19276711 -0.03243164 -0.16650425 -0.3285594 -0.062321253 -0.8512528 0.5928425 -0.19959003 0.89986765 -0.37039155 0.1416826 -0.5122679 0.5013593 -0.3168882 0.45313573 -0.54773164 0.15576379 -0.22163132 0.77162373
on 0.92153907 -0.023239985 -0.014699463 -0.093501836 -0.121135935 0.5418424 -0.6398206 0.59144056 -0.051450163 0.56785655 -0.4843265 0.46364164 -0.88147616 0.77490944 -0.19842875 0.06642796 -0.33302045 0.64287907 -0.10991732 0.54393435
an 0.89348704 -0.18038416 0.15445814 -0.16343117 -0.22794631 0.16172415 -0.6125711 0.646047 -0.009036988 0.7922026 -0.47521102 0.4812599 -0.5765977 0.47455335 -0.18910703 0.21413942 -0.45482445 0.35752118 -0.01480394 0.5948521
which 1.1279444 -0.273238 0.07258935 -0.056864094 -0.31112638 0.08638473 -0.8102687 0.86525816 -0.14611267 0.99164885 -0.56820273 0.54798186 -0.7185952 0.6548205 -0.28314635 0.28770956 -0.5138969 0.35367796 -0.12406418 0.72479117
from 1.0800023 -0.270069 0.17229289 -0.010576546 -0.19394454 0.24919754 -0.6778776 0.87651676 -0.09499846 1.009275 -0.5252724 0.6398091 -0.5959163 0.60265946 -0.21660434 0.18571357 -0.39454508 0.4069886 0.022360384 0.6308956
cell 1.200387 -0.3017771 0.027704997 0.0907459 -0.13352141 0.16861762 -0.6725549 1.0006913 -0.2125483 0.92958736 -0.50467753 0.72416675 -0.6420153 0.722607 -0.1826052 0.14462715 -0.45262 0.48069412 -0.026912771 0.65452474
expression 1.3429317 -0.12606964 -0.42561814 -0.17286627 -0.31017777 0.17070416 -1.136302 0.7800493 -0.4927288 0.8858072 -0.38688943 0.071464024 -0.9488795 1.2340775 -0.5297416 0.4626422 -0.84665483 0.50050354 -0.4701501 0.764536
In 0.9022936 -0.21651055 0.10826884 0.052976612 -0.15915978 0.24481185 -0.5888321 0.75393283 -0.050351553 0.8272426 -0.51819366 0.6044668 -0.52728564 0.45775577 -0.17107524 0.1481951 -0.29623678 0.37018567 0.10096705 0.57998395
we 1.020593 -0.3289495 0.16188756 0.15238559 -0.1787982 -0.016906159 -0.39448857 0.6753554 -0.033350945 0.95472777 -0.41607815 0.70567596 -0.48809263 0.35411733 -0.06721582 0.25266328 -0.2588957 0.30013046 0.14273764 0.54226846
actin-binding 1.2604854 -0.053913523 0.23774248 -0.103116535 -0.32970798 0.37300146 -0.93146586 0.78188825 0.091719225 0.8437554 -0.75115895 0.7214524 -1.0410433 0.7539771 -0.2276773 0.23468743 -0.56898975 0.65550524 -0.22661312 0.83574164
at 0.8886802 -0.2004326 0.045220032 -0.030950062 -0.13279232 0.23626369 -0.5105343 0.7166126 -0.041692212 0.8097352 -0.45325565 0.5013635 -0.64955103 0.46610552 -0.24127206 0.10975419 -0.3141744 0.34810543 -0.0010296162 0.5058453
but 1.1440405 -0.26970014 -0.10223025 -0.070009165 -0.35579044 -0.035872452 -0.8804684 0.7852787 -0.38345045 0.8667055 -0.4688361 0.40124297 -0.66680086 0.7942602 -0.34813657 0.32588476 -0.54583734 0.24794474 -0.23320732 0.680418
complex 1.2398812 -0.26902762 0.009223438 0.10791972 -0.3099889 0.175081 -0.8658161 0.88506705 -0.24713553 0.8841731 -0.48550853 0.72696024 -0.73488337 0.8570433 -0.24737553 0.24085155 -0.57673776 0.47949508 -0.21374497 0.7195534
E-cadherin 1.6405265 -0.34982318 -0.6021311 0.059288125 -0.7403756 -0.35471708 -1.4766546 0.8697886 -0.9254796 0.7952935 -0.3825586 0.20523284 -0.7431258 1.4288366 -0.48298684 0.5099 -1.1584044 0.34867337 -0.8714234 0.97098947
have 1.1654221 -0.37780455 0.24313454 0.12452433 -0.18845333 0.23171611 -0.5890243 0.92755353 -0.05242544 1.1238099 -0.5828739 0.8461929 -0.6141707 0.50183845 -0.1409566 0.16293325 -0.31526098 0.39114007 0.119022004 0.67803043
these 1.1987381 -0.23879948 0.04160392 0.14985761 -0.20717081 0.13810717 -0.7258536 0.88768464 -0.19439898 0.9643796 -0.46761525 0.7160847 -0.77382714 0.7316359 -0.19588076 0.15209499 -0.43241072 0.5261033 -0.0733192 0.6682434
: 0.44262305 -0.12060882 0.18461967 -0.115378246 -0.07994147 0.1517808 -0.41888607 0.35723567 0.000120960176 0.6548739 -0.2600663 0.21058661 -0.31277192 0.21362688 -0.115179956 0.21279104 -0.26774156 0.15615718 -0.004593136 0.38522747
genes 0.97926337 -0.29328004 0.015872248 -0.17723995 -0.4251709 0.051137526 -0.9438657 0.78911424 -0.097170964 1.1757884 -0.6024674 0.36290583 -0.7241263 0.52663237 -0.4613902 0.49872544 -0.4843478 0.27082568 -0.17886057 0.7556941
talin 1.2736157 -0.12503184 -0.1250296 -0.21972269 -0.47598732 0.17320956 -0.9599959 0.6816762 -0.23033743 0.7931679 -0.5613112 0.30260333 -0.9285267 0.91560465 -0.4663908 0.42803028 -0.7888241 0.45023924 -0.43230152 0.7478676
muscle 1.1226509 -0.18374076 -0.16166495 -0.9305241 -0.3812395 0.33788615 -1.2105812 0.6235369 -0.08798588 1.3929695 -0.6061979 -0.2718534 -0.948454 0.82476175 -0.9816244 0.8466386 -0.8127859 0.33330527 -0.21167402 0.73365957
two 1.0328001 -0.28999844 0.2088703 -0.0808705 -0.20919392 0.25245452 -0.66221774 0.82161766 0.015375693 1.0987972 -0.56756127 0.5595843 -0.708454 0.5056592 -0.28811732 0.25123996 -0.38942862 0.3793602 0.020857919 0.65043867
be 1.0932658 -0.22285205 0.044403914 -0.0035505132 -0.22434655 0.21103999 -0.57580197 0.8019843 -0.2132748 0.68576056 -0.40714878 0.7177553 -0.5322702 0.7107275 -0.08698682 0.10450126 -0.43167716 0.43627328 0.03128191 0.54348403
kinase 1.07244 -0.24497557 0.28816164 -0.20720284 -0.13653491 0.122222096 -0.94799745 0.8633825 -0.012718403 1.5331087 -0.6616772 0.27641392 -0.6829635 0.4100438 -0.28093594 0.5942667 -0.6637984 0.25056237 -0.1594389 0.9459104
; 0.42381328 -0.22378719 0.20087019 -0.06307305 -0.29117683 -0.040328912 -0.49116224 0.43294474 0.036422804 0.6655238 -0.4029231 0.1076681 -0.2806479 0.15551169 -0.10419111 0.27407724 -0.23041448 0.10754624 -0.05947624 0.4783846
filaments 1.2571834 -0.08714659 0.09103139 -0.11336085 -0.18610474 0.58663267 -0.7562354 0.8429428 -0.0318738 0.74184835 -0.5870496 0.7293327 -1.0613438 0.89345276 -0.31470045 0.10613776 -0.44906124 0.7465592 -0.06528549 0.5980938
between 1.1421968 -0.2964232 0.05800467 -0.123395264 -0.33413365 0.11288468 -0.85327643 0.85151863 -0.15671872 1.0745304 -0.56313837 0.51239735 -0.6460242 0.63097394 -0.2789245 0.32510975 -0.5637822 0.35470027 -0.13721296 0.73218435
this 1.2709557 -0.26880714 0.10469642 0.116926745 -0.18460645 0.2239477 -0.6845538 0.93846154 -0.1596003 0.98699135 -0.5861712 0.7744465 -0.7823608 0.70975435 -0.17241144 0.1713723 -0.4369811 0.5500217 0.039072488 0.69238037
yeast 1.131088 -0.2632566 0.15970817 -0.010403466 -0.22468898 0.2984971 -0.7004297 0.89389455 -0.012616509 1.0606221 -0.60144293 0.7281615 -0.74686474 0.6083931 -0.20806102 0.18720916 -0.38402817 0.492228 0.020661417 0.68169487
also 1.1100575 -0.27543703 0.047766402 -0.031403545 -0.22960506 0.16287625 -0.7438044 0.8732878 -0.16803218 0.95140976 -0.52139956 0.5929269 -0.6650087 0.68205243 -0.25749016 0.21630964 -0.46046218 0.40325564 -0.05116327 0.65647316
histone 1.0533655 -0.39745095 0.25115508 0.29678982 -0.34231704 0.02353706 -0.70718956 0.9318005 -0.09146664 1.291145 -0.7182647 0.73033315 -0.76342696 0.5025784 -0.20639487 0.40235806 -0.30428547 0.36524698 0.119062856 0.81187266
can 1.1547507 -0.2164417 0.11519344 -0.015898954 -0.21331766 0.21179268 -0.7261509 0.842197 -0.17398478 0.87504053 -0.5244641 0.694057 -0.6680154 0.6710001 -0.2200512 0.12033248 -0.45736608 0.45962766 -0.0052569965 0.6240191
both 1.0918983 -0.29573786 -0.031095795 -0.21850514 -0.32423353 0.09333205 -0.8545924 0.76827437 -0.15101446 1.0844125 -0.5216042 0.35433546 -0.6760083 0.6294332 -0.3889621 0.3745639 -0.52368027 0.31924775 -0.11238556 0.6821642
gene 0.9513848 -0.32183066 0.14808334 -0.16336718 -0.43464747 0.00026530298 -0.8940329 0.7714272 -0.028019309 1.2292277 -0.6799607 0.38170207 -0.6631868 0.38916448 -0.36373577 0.52285665 -0.47298524 0.23401117 -0.12065519 0.80495715
polymerization 1.2642746 -0.10302763 0.046760153 -0.13547745 -0.23961146 0.5290648 -0.8730236 0.8298206 -0.08178343 0.7853541 -0.6045623 0.64074326 -1.0925943 0.93906456 -0.2935553 0.16174689 -0.52063537 0.7227309 -0.13896532 0.68192184
We 0.84124887 -0.24884957 0.17587021 -0.00048364815 -0.14515975 0.17115125 -0.44012564 0.6856713 -0.042754557 0.8939059 -0.44500813 0.5655353 -0.47845381 0.36962956 -0.10284288 0.18211786 -0.27473408 0.24447575 0.104754865 0.5511134
% 0.47970456 -0.10836707 0.010511508 -0.10781449 -0.24181804 -0.11673349 -0.5089406 0.49987674 0.011699144 0.6838989 -0.18497589 0.012810387 -0.27275255 0.2097429 -0.28040457 0.31181788 -0.3465047 0.029058553 -0.103779525 0.3996482
DNA 1.0397967 -0.3072153 0.16224115 0.001888273 -0.23166564 0.1338861 -0.70908064 0.9101024 -0.06763813 1.1954448 -0.56126076 0.63204515 -0.6550597 0.48721626 -0.26660153 0.31369072 -0.35679883 0.32542676 -0.0036838965 0.73008734
domain 1.2782972 -0.28450143 0.015732063 -0.20793259 -0.4150587 0.14298768 -1.0024036 0.8257186 -0.20615588 1.0054605 -0.6030554 0.38787493 -0.7979893 0.8013328 -0.44241598 0.45135808 -0.7093451 0.35663766 -0.29817146 0.806503
1 0.36195448 -0.1884923 0.07403154 -0.23199946 -0.18432796 0.070094116 -0.49488938 0.3763935 0.10763921 0.75923723 -0.36778343 0.17897527 -0.28862315 0.207149 -0.19300953 0.27168402 -0.28023154 -0.014066232 -0.0803419 0.46402848
its 1.1891016 -0.17972161 0.111258134 -0.007470823 -0.18088685 0.3551778 -0.69256294 0.81179714 -0.104130745 0.807931 -0.53618085 0.6970167 -0.830025 0.7560422 -0.21146038 0.1415412 -0.44199735 0.57039154 -0.060737696 0.59950954
human 1.122629 -0.28663248 0.1339613 -0.12793726 -0.27459332 0.17328866 -0.8136392 0.85849136 -0.09018537 1.086085 -0.5975305 0.5781904 -0.6824335 0.59600556 -0.28491586 0.27736765 -0.48849717 0.37712952 -0.035366636 0.72038734
RAD51 1.0758873 -0.3632232 -0.082333304 0.0054301894 -0.41705808 -0.07746685 -0.88821614 0.9469207 -0.17595209 1.1286967 -0.575643 0.6154775 -0.742609 0.5551504 -0.30636868 0.19981691 -0.4267602 0.3726408 -0.16609159 0.78548455
results 1.3043998 -0.30930617 0.20899063 0.0804666 -0.16764806 0.31882235 -0.686097 0.99418145 -0.08590036 1.104173 -0.59216905 0.869917 -0.7977036 0.70281327 -0.1743759 0.12542115 -0.41763294 0.5584981 0.07841117 0.73099786
activity 1.1888528 -0.13029677 0.2525986 -0.10126278 -0.15769921 0.41044387 -0.7584922 0.8820666 0.019429246 0.98161495 -0.6494108 0.6888031 -0.8919689 0.690158 -0.21465366 0.19365025 -0.46713638 0.58734196 -0.024831695 0.7477864
cytoskeleton 1.165057 -0.12884472 0.05350872 -0.16854578 -0.25181696 0.39729434 -0.8316303 0.79566735 -0.093975045 0.8629973 -0.609909 0.53364515 -0.9247642 0.80691 -0.33555844 0.2459255 -0.5115338 0.57393205 -0.107336044 0.6407449
These 1.1969844 -0.28825822 0.20931819 0.08517311 -0.15555127 0.20705612 -0.70734113 0.98216885 -0.07912147 1.2083924 -0.58471936 0.8029686 -0.7327044 0.5907735 -0.15663947 0.1714137 -0.40247357 0.49709308 0.055076122 0.7168897
interaction 1.3117992 -0.06713457 0.039191943 -0.1160137 -0.25328112 0.42267022 -0.9316615 0.84488755 -0.13241272 0.7785918 -0.58823556 0.61503166 -1.0476655 0.97985154 -0.3302977 0.20775555 -0.58541477 0.7189996 -0.21887141 0.67985785
assembly 1.2339619 -0.2020745 0.064796835 -0.11175203 -0.24065521 0.34835908 -0.81441915 0.8631254 -0.109470986 0.95219994 -0.5828616 0.6365033 -0.8685619 0.8107911 -0.32817283 0.22999594 -0.5128248 0.54593277 -0.08939119 0.68604624
plakoglobin 1.4696783 -0.30519575 -0.3984967 -0.030259786 -0.6053251 -0.14103296 -1.2600695 0.8360118 -0.63831204 0.84966385 -0.43228486 0.29233593 -0.7835223 1.1859094 -0.47630614 0.46655542 -0.93507725 0.37740034 -0.6142631 0.86815083
has 1.1265614 -0.314425 0.19745529 0.09303166 -0.20831473 0.21870871 -0.5919323 0.89966077 -0.08753268 1.0772212 -0.5303879 0.7491077 -0.61042416 0.5290723 -0.15435913 0.1862575 -0.36699805 0.35923648 0.041027524 0.6948988
cyclin 1.2199278 -0.1086589 0.028804509 -0.04647209 -0.1784347 0.24199493 -0.96156704 0.80168325 -0.24931218 1.1011578 -0.5022506 0.2669097 -0.84000987 0.82021624 -0.25566682 0.5056366 -0.78079146 0.40105474 -0.37939805 0.91233176
been 1.2372788 -0.34389442 0.1746026 -0.050201222 -0.2748272 0.15940385 -0.7356422 0.9318571 -0.114988714 1.1579722 -0.581325 0.7523321 -0.6651245 0.63400096 -0.19748932 0.26618627 -0.50475687 0.39485395 -0.023145987 0.78728104
other 1.2624034 -0.3022029 0.03582812 -0.05595969 -0.368674 0.04834633 -0.9250607 0.89760095 -0.22861423 1.1070099 -0.59204 0.5191867 -0.7507828 0.75305194 -0.33669743 0.38313934 -0.61424184 0.38236338 -0.19958201 0.8002271
region 1.161063 -0.12337476 -0.032657247 -0.0064497553 -0.2650275 0.30729124 -0.81442404 0.79359263 -0.13610561 0.73634 -0.5211275 0.5471219 -0.9275392 0.85027885 -0.27080667 0.1831281 -0.49636626 0.5904398 -0.18736999 0.6734713
fimbrin 1.2756408 -0.26185584 0.037804525 -0.15406466 -0.4166254 0.11525827 -0.95827204 0.83984286 -0.18235494 1.0082872 -0.5749064 0.48135263 -0.7861285 0.78471136 -0.35755944 0.3697545 -0.66036224 0.39873618 -0.23535633 0.7838618
RAD52 1.136347 -0.384455 -0.10119929 -0.0050358414 -0.4183753 -0.042325106 -0.9382749 0.9754265 -0.19513607 1.1546407 -0.59856546 0.62073004 -0.7688353 0.60526645 -0.31560913 0.22655968 -0.458617 0.37938872 -0.17896396 0.82225496
binds 1.2463944 -0.18615116 0.09486964 0.009109765 -0.35048962 0.24885365 -0.86584944 0.80442363 -0.15788174 0.765087 -0.605237 0.67124957 -0.81349844 0.8037089 -0.18838708 0.20063925 -0.54616064 0.5354296 -0.19025698 0.73602456
found 1.2373067 -0.27495056 0.13892509 0.001429084 -0.22941612 0.24606378 -0.7987011 0.9438704 -0.15620902 1.057312 -0.5929849 0.7047332 -0.747062 0.72144604 -0.27063268 0.23068148 -0.49706084 0.4968937 -0.036837902 0.7330373
factor 1.1235359 -0.23894787 0.16903411 -0.22357868 -0.2868888 0.21430776 -0.87445784 0.855337 0.0032309552 1.1574677 -0.6420576 0.48145923 -0.77372193 0.60629463 -0.30970383 0.3983873 -0.5150791 0.3741781 -0.1347559 0.81980306
vinculin 1.3193349 -0.21356767 -0.11332971 -0.19071728 -0.47357368 0.10455652 -1.0110528 0.8034052 -0.24929878 0.9578706 -0.605012 0.3902045 -0.87610257 0.90553373 -0.4182441 0.4346669 -0.77377653 0.39487526 -0.37935355 0.7889014
virus 1.0365412 -0.39352533 0.310499 -0.17796284 -0.3309582 0.116294615 -0.8990258 0.91904414 0.12959713 1.4322599 -0.7146168 0.57413393 -0.61502075 0.40639558 -0.28737468 0.45694026 -0.50758773 0.19061556 -0.044833668 0.86907715
inhibitor 1.1639532 -0.20202227 0.2882367 -0.077268094 -0.08593618 0.36048168 -0.8267608 0.9294467 -0.03488112 1.3595799 -0.59213895 0.5362022 -0.7389527 0.5962109 -0.16841756 0.38324583 -0.57197636 0.42118898 -0.088477165 0.921173
may 1.2065209 -0.23476757 0.18017061 -0.011996853 -0.21569814 0.28700945 -0.7572356 0.93098223 -0.109021366 0.9539915 -0.61518866 0.7480206 -0.75310796 0.6941263 -0.2230614 0.14132227 -0.44965944 0.5201551 -0.016774146 0.6952763
using 1.1321907 -0.20071019 0.13786834 -0.056945458 -0.2518203 0.29391214 -0.75412256 0.8330143 -0.0041030603 0.9889248 -0.61138374 0.681907 -0.7967287 0.64464325 -0.27471182 0.23232381 -0.42465088 0.47912163 -0.031806905 0.6865149
P 0.39019093 -0.25303987 0.20178811 -0.33404335 -0.4009352 -0.28317672 -0.7300122 0.3655716 0.15149021 0.8672104 -0.5265149 -0.025796212 -0.1817576 0.029401522 -0.21497865 0.46679607 -0.44086245 -0.1206269 -0.21014561 0.6428461
A 0.50884813 -0.12145734 0.097726285 -0.020800535 -0.1453646 0.0752842 -0.36160427 0.41025212 -0.01456824 0.57464784 -0.3091456 0.17498015 -0.3287486 0.24608901 -0.15883557 0.1362164 -0.27990448 0.14517586 0.002947254 0.3563992
bind 1.2253661 -0.15302283 0.028591722 0.05882547 -0.4027684 0.2051919 -0.879016 0.7346064 -0.23154515 0.5916614 -0.55767894 0.6677994 -0.7906408 0.8633512 -0.18518788 0.16127092 -0.5405778 0.5440149 -0.2725649 0.7026991
it 1.0028503 -0.2093512 0.10986535 -0.009221591 -0.2014957 0.20390916 -0.5941682 0.695485 -0.11689855 0.7947846 -0.4196993 0.5435698 -0.60738707 0.6169524 -0.18539041 0.17337376 -0.42082518 0.42479515 -0.0527992 0.5659822
I 0.5938017 -0.12723309 0.10470199 -0.13943852 -0.18136731 0.120507956 -0.43738186 0.34514907 -0.026516749 0.60408974 -0.27154964 0.22751449 -0.40329206 0.2691006 -0.2022438 0.18164113 -0.31313425 0.2343573 0.03925962 0.32071784
identified 1.2661706 -0.2515358 0.14070626 -0.04706887 -0.23179288 0.2393516 -0.760689 0.9216215 -0.11146767 1.1077683 -0.59856933 0.6838191 -0.7502783 0.7028142 -0.2784322 0.27663293 -0.52980393 0.4668936 -0.048351247 0.7286513
membrane 1.1776603 -0.24895246 0.12322842 -0.0765859 -0.2630239 0.21577188 -0.85014534 0.91554725 -0.1213535 1.0425448 -0.6277454 0.60781527 -0.8001328 0.6982334 -0.2853702 0.2845907 -0.5207813 0.46183655 -0.08953329 0.7719113
growth 1.059626 -0.271469 0.14758399 -0.16397773 -0.20342886 0.23956494 -0.7221084 0.84036434 -0.02049129 1.0861698 -0.5811405 0.5089869 -0.68976945 0.56520724 -0.29272714 0.27617016 -0.4310402 0.3619554 0.015895816 0.67893237
site 1.2544589 -0.23116398 0.18155836 -0.032232445 -0.24857835 0.3421614 -0.820077 0.89203316 -0.12120604 0.9771216 -0.6247272 0.7182283 -0.8245209 0.7139183 -0.27342486 0.22833219 -0.51250243 0.51439023 -0.07329282 0.7561951
suggest 1.2843014 -0.28744593 0.15000555 0.091132194 -0.17787834 0.31279236 -0.686725 0.94608915 -0.11671883 1.049704 -0.55379 0.86596763 -0.7950883 0.721848 -0.16468315 0.11620352 -0.42897663 0.58509177 0.036497317 0.7053045
their 1.1296172 -0.24882841 0.11344274 0.033786777 -0.22566554 0.1605181 -0.69949067 0.88633496 -0.105695635 1.0010002 -0.54191285 0.6547412 -0.7147254 0.62012494 -0.20951565 0.20514825 -0.42263043 0.43015242 -0.027122712 0.6634944
than 1.1252282 -0.25778946 0.15852576 -0.012072108 -0.19179448 0.22658414 -0.6869396 0.85679394 -0.06009623 0.98722893 -0.54812545 0.65737253 -0.7003022 0.5946687 -0.18190132 0.17869464 -0.4276612 0.4482105 0.05727811 0.6586135
increased 1.1636884 -0.21430527 0.013704657 0.0069959806 -0.1609341 0.23175916 -0.778695 0.87512946 -0.2093055 0.99366933 -0.51159185 0.56971323 -0.7314729 0.76359946 -0.25835985 0.2613661 -0.5095204 0.45882952 -0.11216758 0.70498264
into 1.0755438 -0.24495643 0.122219555 -0.060125493 -0.16944797 0.29783833 -0.70707107 0.86814153 -0.0825588 0.9601403 -0.54646677 0.62886727 -0.6860091 0.6236276 -0.24980126 0.19325456 -0.42018712 0.44792834 0.010532658 0.6112734
sequence 1.1623054 -0.22516814 0.19810532 -0.06189868 -0.27022895 0.2586539 -0.7984985 0.8895607 -0.021647763 1.0756996 -0.6178303 0.64053684 -0.80085486 0.62918013 -0.27173766 0.25651616 -0.47147414 0.4800894 -0.049567126 0.7519147
affinity 1.2342889 -0.24913919 0.2249009 -0.019987071 -0.19779389 0.33207056 -0.7803534 0.9584386 -0.057451054 1.0622996 -0.621902 0.7655812 -0.7836657 0.6691605 -0.1905075 0.15440616 -0.45322013 0.5200735 0.03381439 0.74044406
filament 1.3236518 -0.093616135 0.09644166 -0.0889335 -0.17792319 0.6056464 -0.80056036 0.89066726 -0.053894527 0.8059852 -0.61412436 0.76736754 -1.1039575 0.9381523 -0.30279803 0.119622745 -0.47867528 0.77865434 -0.0644824 0.65043753
presence 1.2617116 -0.17480074 0.036970135 0.03262783 -0.23149768 0.3255664 -0.77660286 0.90814465 -0.16428575 0.864579 -0.55783373 0.68907803 -0.9028759 0.8622846 -0.27595794 0.16564004 -0.47973537 0.59627724 -0.09992264 0.6807626
role 1.1356034 -0.22730984 0.10820742 -0.13340074 -0.23067074 0.28625956 -0.7675406 0.8409866 -0.074227214 1.0079751 -0.576119 0.5790894 -0.7981401 0.6869463 -0.31786683 0.2548304 -0.48635533 0.44935572 -0.02768904 0.6848516
UL8 1.0034853 -0.24075696 -0.027120367 0.014663873 -0.47447458 -0.07869501 -0.92906064 0.7878276 -0.07950787 1.1106418 -0.5266733 0.46900263 -0.65519065 0.5080588 -0.42893702 0.5306164 -0.49094653 0.19782154 -0.3002076 0.8175268
Acanthamoeba 1.13191 -0.23514557 0.2080182 -0.05163827 -0.1861334 0.33680713 -0.6934863 0.886007 -0.030316355 1.0146008 -0.58460474 0.71264327 -0.7460961 0.620974 -0.20305826 0.17478922 -0.41762522 0.48229674 0.04561743 0.66777027
involved 1.3026412 -0.24368057 0.09214282 0.03502868 -0.18018419 0.33480683 -0.73944896 0.9940811 -0.1400736 0.993034 -0.5796334 0.8231831 -0.82478 0.79602295 -0.2543115 0.12949078 -0.46072462 0.58404577 0.015012549 0.6919668
similar 1.206669 -0.2808453 0.15616117 -0.050341178 -0.25256053 0.24429561 -0.81950104 0.92228127 -0.09829287 1.0834001 -0.5961419 0.66588193 -0.77341306 0.6836911 -0.25987235 0.2361009 -0.50465167 0.47437543 -0.05073707 0.74411494
UL52 1.0128367 -0.27256724 -0.056700304 -0.01895498 -0.49620768 -0.08402683 -0.939344 0.80566216 -0.09101153 1.0975169 -0.5385299 0.4815326 -0.6669447 0.56134874 -0.41481182 0.50363374 -0.5099437 0.21675795 -0.33232203 0.8365975
phosphoprotein 1.0030507 -0.3280713 0.291964 -0.5108288 -0.6698018 -0.31285027 -1.2593623 0.67490643 0.12676594 1.3348105 -0.859622 0.06432171 -0.55993134 0.3148974 -0.43002632 0.7980033 -0.8240861 0.025597863 -0.5021576 1.145398
during 1.1599448 -0.18396647 -0.014506604 -0.08723646 -0.31073228 0.24953277 -0.8613209 0.8012572 -0.13949691 0.8982037 -0.5744352 0.53354657 -0.8323477 0.772589 -0.33120978 0.26777053 -0.51761854 0.48441896 -0.16400754 0.67985255
repair 1.1293664 -0.3193613 0.13326722 0.02245176 -0.25915682 0.2030613 -0.7150593 0.97057265 -0.060151678 1.144526 -0.5989957 0.7548805 -0.7113719 0.5942189 -0.2207358 0.21298341 -0.373077 0.42164195 0.02243574 0.7206762
type 1.1304857 -0.32669342 0.16546653 -0.27398676 -0.31676915 0.23403955 -0.95315933 0.9036319 -0.016577529 1.414148 -0.6560531 0.47222078 -0.7553227 0.58728695 -0.42939433 0.4811257 -0.5933209 0.28584573 -0.059397712 0.8125292
vitro 1.0759436 -0.24620286 0.13451815 -0.11105467 -0.23155591 0.2599875 -0.734386 0.8259363 -0.055770576 1.0244178 -0.5618164 0.57318676 -0.71245635 0.5857433 -0.29118818 0.26048744 -0.43565172 0.39651924 -0.00044584 0.65751207
antibodies 1.2100539 -0.25805932 0.034170207 -0.19909173 -0.32273304 0.18776196 -0.9013176 0.8481227 -0.17069507 1.0875618 -0.5664261 0.46557605 -0.7603162 0.7632256 -0.38508874 0.36971545 -0.6234257 0.40738153 -0.15009975 0.7030546
profilins 1.2378528 -0.1947722 0.36965084 0.0120942425 -0.21242578 0.45616028 -0.60479546 0.90903646 0.10424341 0.8625356 -0.65789866 0.9798072 -0.90086716 0.62874377 -0.107373744 0.016056547 -0.36256802 0.6573615 0.06359823 0.6800405
associated 1.4277749 -0.22036652 -0.10924598 0.022383513 -0.30385104 0.1745175 -0.9701356 0.94485843 -0.41111362 0.9046838 -0.50235045 0.6365731 -0.83835447 1.0569605 -0.31215283 0.24071223 -0.70220184 0.58896595 -0.2671774 0.7439529
beta 1.4529321 -0.37376234 -0.1356308 -0.17985953 -0.52951217 -0.052608833 -1.2100921 0.95977044 -0.3911065 1.1766155 -0.5500123 0.35651138 -0.7207761 0.9307991 -0.44781372 0.52274144 -0.88464814 0.3321602 -0.36918747 0.88695234
required 1.2044896 -0.28311285 0.09909695 -0.020832706 -0.26291317 0.1744035 -0.79606164 0.92744434 -0.14835276 1.0520667 -0.57520163 0.6597584 -0.7420573 0.68452126 -0.2663994 0.24050713 -0.46008986 0.44907725 -0.047150597 0.71775603
UL5 1.0351237 -0.25708088 -0.01530133 0.0068790647 -0.519227 -0.10657317 -0.9914719 0.8135604 -0.096384056 1.1656148 -0.5451024 0.5125285 -0.67404574 0.53591645 -0.4257737 0.55553544 -0.4916654 0.20646067 -0.35229963 0.87637424
complexes 1.2222509 -0.25984758 -0.01619137 0.056768347 -0.30431384 0.16201352 -0.8714675 0.8630822 -0.26944235 0.881651 -0.48395646 0.6309198 -0.7424913 0.858496 -0.27878633 0.2620034 -0.5772132 0.46649036 -0.21729623 0.70622325
containing 1.2559237 -0.2509751 0.048409574 -0.1413714 -0.3599462 0.20591544 -0.9601544 0.8859392 -0.13444656 1.0845865 -0.6261828 0.5393347 -0.84308267 0.77868 -0.3738992 0.36315915 -0.61800224 0.45114058 -0.18043129 0.77481383
microM 1.1546919 -0.31916395 0.20377232 -0.14689772 -0.2913204 0.18752499 -0.84976083 0.9392411 -0.019195277 1.2135179 -0.6326757 0.5747198 -0.7141096 0.5840229 -0.3013827 0.33882675 -0.5106569 0.35788143 -0.016789405 0.779392
synthesis 1.2809503 -0.28849494 0.08251039 -0.19381037 -0.29204124 0.26176527 -0.9488276 0.9429334 -0.091845945 1.2564949 -0.66784006 0.53472954 -0.8634581 0.7324287 -0.4199281 0.40215474 -0.57945824 0.45436227 -0.07724187 0.8002661
shown 1.1950504 -0.30215627 0.21561904 0.061859395 -0.18543981 0.22163859 -0.66306686 0.95283806 -0.09622426 1.0916058 -0.58132434 0.80170304 -0.6883337 0.57961136 -0.16504994 0.16726229 -0.39043525 0.45745963 0.078958035 0.71655583
2 0.50013876 -0.19146878 0.12780143 -0.23469853 -0.2242099 0.036938462 -0.4870885 0.35724145 0.04529225 0.71493727 -0.317141 0.074295394 -0.33449727 0.19233674 -0.23401648 0.3304134 -0.36699432 0.04817293 -0.01828039 0.4190004
sites 1.2072996 -0.24393629 0.19030969 -0.061068285 -0.25041795 0.32799485 -0.7981187 0.89462596 -0.09822677 1.0460498 -0.63338834 0.6848053 -0.8116272 0.6664949 -0.28473356 0.2613308 -0.48093066 0.48973873 -0.03905785 0.76007676
cyclin-dependent 1.2192492 -0.17723672 0.20339964 0.033536468 -0.047645003 0.32856187 -0.8490433 0.94188225 -0.12554799 1.2929032 -0.5644429 0.5271234 -0.79745036 0.6944006 -0.17269033 0.38848385 -0.5996854 0.45125708 -0.12918416 0.8940959
effect 1.1209446 -0.19837292 0.1734652 -0.108491495 -0.17345113 0.36692512 -0.7538826 0.85408884 -0.08857375 1.0224292 -0.5693062 0.65797585 -0.7697209 0.66674525 -0.27112663 0.21734948 -0.44336677 0.48756424 0.007404965 0.6951224
function 1.2525568 -0.13480234 0.104115106 0.016373672 -0.16792291 0.4354275 -0.767727 0.8772703 -0.086806364 0.79159623 -0.5736649 0.7247083 -0.9959683 0.8688811 -0.20953296 0.10428604 -0.46078417 0.70106864 -0.06794171 0.66219735
adhesion 1.3328263 -0.21890001 -0.104842246 -0.02692684 -0.28813127 0.19483945 -0.9856648 0.8805393 -0.33708 0.8929736 -0.52695495 0.4994507 -0.8780973 0.9998727 -0.31537956 0.2561171 -0.67028207 0.5383886 -0.28688776 0.77626085
three 1.2251135 -0.3003712 0.14903046 -0.023196476 -0.2582929 0.22424081 -0.79885155 0.9467667 -0.076046 1.1632633 -0.61582464 0.676479 -0.7979857 0.6656951 -0.27273306 0.28530124 -0.4715114 0.46258554 -0.0063461144 0.76458496
whereas 1.1712698 -0.2592822 -0.007834184 0.014744559 -0.27976367 0.1338557 -0.81067026 0.8646832 -0.2162267 1.0084802 -0.5158675 0.5671347 -0.6966945 0.7298736 -0.2808001 0.29841718 -0.50584954 0.3823695 -0.13294722 0.71960974
molecules 1.1349646 -0.2621373 0.0939012 -0.093610935 -0.29332912 0.1707711 -0.8306943 0.8479991 -0.122141354 1.0280565 -0.586918 0.53747773 -0.7316717 0.6691478 -0.2710252 0.291879 -0.5367053 0.41190645 -0.118267804 0.74775475
form 1.1544658 -0.20956579 -0.0060193585 -0.13178752 -0.31280845 0.22511393 -0.843518 0.78889173 -0.17476533 0.90324455 -0.53143823 0.4909236 -0.76427597 0.75944334 -0.34978923 0.2921255 -0.55619323 0.44825238 -0.121174596 0.64639884
isoforms 1.0953747 -0.21993862 0.007776155 -0.40956748 -0.3108252 0.24144849 -0.93214947 0.72984654 -0.11032481 1.1384212 -0.5483119 0.20549163 -0.75080156 0.6650188 -0.5301917 0.49874422 -0.61550355 0.35029376 -0.086598225 0.6755607
effects 1.1428851 -0.2090145 0.19517012 -0.096130714 -0.17654447 0.3647551 -0.75109667 0.87149835 -0.076264925 1.0451795 -0.58281684 0.68289053 -0.7859061 0.6629438 -0.26546836 0.21379901 -0.43966252 0.49941435 0.016385216 0.69445974
skeletal 1.1936476 -0.15385953 -0.060920697 -0.4294483 -0.34449697 0.32721004 -0.9883301 0.7378491 -0.11198569 1.0337869 -0.61375874 0.2424496 -0.9391502 0.8316079 -0.57205886 0.46243668 -0.64817005 0.48052236 -0.18850543 0.6773881
show 1.242485 -0.34662393 0.28312004 0.08455954 -0.17680876 0.24279629 -0.6426448 1.0093462 -0.0326332 1.1787832 -0.60705125 0.8910671 -0.6960992 0.53787416 -0.13756047 0.15477593 -0.37050304 0.49138638 0.13731489 0.72657496
high 1.1354516 -0.23667093 0.097146936 -0.049658 -0.24119455 0.18503784 -0.78066576 0.8799366 -0.13647391 1.0656376 -0.5520902 0.5657782 -0.720331 0.65278774 -0.27570778 0.29006144 -0.4903366 0.41835698 -0.052776206 0.6952589
mutant 1.1849071 -0.27484792 0.20065196 -0.06752213 -0.18708247 0.322909 -0.7562326 0.9364859 -0.05764699 1.0963544 -0.5904616 0.7071928 -0.76643974 0.6682339 -0.24571393 0.19721875 -0.4707965 0.5075257 0.032741915 0.695059
nucleocapsid 0.8923816 -0.33998024 0.30602604 -0.39373425 -0.4698131 -0.17856665 -1.0292429 0.71141475 0.105063535 1.3121704 -0.7509277 0.20321545 -0.4753378 0.27670488 -0.3329295 0.5914833 -0.6201553 0.07249157 -0.22995314 0.94633806
H4 0.80313915 -0.25811487 0.19431596 0.15526487 -0.17937934 0.0990748 -0.5641176 0.7280444 -0.056240052 0.95263946 -0.5124581 0.5288806 -0.5262513 0.39901924 -0.15335624 0.27136362 -0.1848692 0.28852642 0.12374074 0.6138271
domains 1.181977 -0.2859133 0.11679586 -0.063473515 -0.31826192 0.18185632 -0.81441134 0.87379885 -0.11566172 1.028334 -0.58692443 0.58393675 -0.741937 0.65657145 -0.32407135 0.31623945 -0.51444757 0.3781377 -0.1105803 0.73570627
formation 1.3160475 -0.102477826 -0.040136162 -0.059963465 -0.21945843 0.4848063 -0.8873345 0.8667408 -0.17214079 0.7213995 -0.558296 0.6280906 -1.0974472 1.0443541 -0.29367557 0.13957426 -0.5543583 0.745438 -0.18729606 0.67389804
nucleotide 1.181016 -0.3356487 0.28637642 -0.21368384 -0.3301641 0.1488808 -0.9404192 0.9366471 0.031858563 1.300229 -0.7616679 0.575456 -0.71575356 0.55139375 -0.27096534 0.3789506 -0.5514123 0.37552747 -0.082421616 0.8913035
functions 1.196721 -0.2055064 0.15528613 0.029924996 -0.19879176 0.32309413 -0.72162783 0.9001886 -0.07110863 0.92129517 -0.5737124 0.744769 -0.86247677 0.7247616 -0.21346045 0.14352588 -0.4281105 0.5890521 -0.0018719785 0.6588317
study 1.204763 -0.3017026 0.15827808 0.020998647 -0.2161211 0.2557191 -0.73121476 0.9498604 -0.094952516 1.1000532 -0.61075705 0.73361397 -0.7203213 0.6569176 -0.21392326 0.23286493 -0.44639647 0.46752194 0.050695278 0.7240806
receptor 1.1491973 -0.32088825 0.21560389 -0.11057194 -0.2521185 0.18130617 -0.80319333 0.91931254 -0.029702857 1.2169808 -0.640759 0.62225366 -0.67797637 0.54753244 -0.2393026 0.33959278 -0.47428676 0.34262684 -0.023436066 0.80383384
cytoskeletal 1.275889 -0.15905675 0.013544206 -0.2904053 -0.3239763 0.3764423 -0.9754642 0.8454982 -0.11461658 1.0230739 -0.6637672 0.4496275 -0.9841152 0.8689697 -0.46461523 0.36660144 -0.6250567 0.55932957 -0.15930177 0.71874666
showed 1.2422699 -0.3120656 0.16937745 0.05947521 -0.1904133 0.23494273 -0.6930238 0.97517514 -0.12533335 1.0834353 -0.5662486 0.80899924 -0.71040326 0.65812784 -0.18260695 0.16186674 -0.42297643 0.5084054 0.040114436 0.70386046
vivo 1.0587357 -0.2410973 0.069083564 -0.1290684 -0.26974055 0.18104106 -0.76492476 0.8008442 -0.06811214 1.0051786 -0.55243105 0.50058633 -0.71458083 0.6172487 -0.30250308 0.2853276 -0.46541375 0.375438 -0.06946839 0.6640424
interactions 1.2680981 -0.122696154 0.08084216 -0.095266186 -0.26756743 0.34442583 -0.8830363 0.8658039 -0.11550778 0.87283856 -0.58696204 0.64247876 -0.94853556 0.86648923 -0.32270697 0.22642168 -0.5498564 0.63958454 -0.15822977 0.6744376
such 1.2444999 -0.25582868 0.13263339 -0.044845425 -0.2885874 0.19628505 -0.774204 0.9271896 -0.088153765 1.1219288 -0.62229514 0.70777696 -0.772255 0.6801341 -0.26404065 0.2516261 -0.53632736 0.44882715 -0.07852376 0.76224345
different 1.2534802 -0.258143 0.11922742 -0.05857298 -0.17497478 0.31825584 -0.8127991 0.93889654 -0.121083684 1.0960605 -0.56963694 0.6823974 -0.80920786 0.7669479 -0.26930332 0.23392896 -0.50357777 0.5319443 -0.015558808 0.7053934
expressed 1.285647 -0.1868335 -0.24532752 -0.11709632 -0.25813073 0.1953951 -0.96583015 0.84989977 -0.37536594 0.9495644 -0.43268064 0.3268183 -0.83442706 1.0473263 -0.45128253 0.36120018 -0.6912778 0.48274457 -0.2731795 0.709757
activation 1.2630061 -0.06992187 0.0921345 -0.078444794 -0.1458884 0.52288646 -0.8358215 0.8470692 -0.04924711 0.77320606 -0.61478156 0.65237063 -1.1071769 0.9402709 -0.24646446 0.14797348 -0.51553094 0.7612268 -0.15238722 0.7235174
Here 1.2106853 -0.33491695 0.1460781 -0.021216886 -0.27367443 0.17132008 -0.75521 0.9146349 -0.088425756 1.1735734 -0.5877299 0.6901203 -0.6732908 0.5891793 -0.24401526 0.30609185 -0.44619396 0.36346266 0.03152224 0.7182577
mutations 1.1812142 -0.18293014 0.03207498 -0.011995774 -0.2168389 0.35384172 -0.76005876 0.8611033 -0.13370413 0.8463751 -0.5303137 0.650525 -0.91517466 0.82602626 -0.28555912 0.15010297 -0.4657529 0.6054845 -0.07330267 0.62629324
H3 0.8640778 -0.2579507 0.1520344 0.13023233 -0.23908809 0.051109873 -0.5569188 0.7648617 -0.079402 0.9810128 -0.552819 0.5437016 -0.597885 0.42057782 -0.16687441 0.26551136 -0.22766122 0.28450662 0.101507224 0.6504779
[ 0.45426512 -0.27978146 0.106077686 -0.11728417 -0.19242878 0.1019724 -0.40437564 0.44021374 0.04200478 0.65430844 -0.3641324 0.13377015 -0.31892592 0.15364224 -0.07343445 0.30727282 -0.28264433 0.06323554 0.10814518 0.36115968
only 1.1089728 -0.2694433 0.13574882 -0.063953124 -0.2331018 0.20496517 -0.72456336 0.8584442 -0.08725622 1.0113997 -0.570245 0.6020634 -0.73349416 0.602235 -0.25354096 0.22359243 -0.43091202 0.40851182 -0.008691997 0.70989263
one 1.0168743 -0.31365302 0.21076599 0.050054304 -0.32073694 0.1084718 -0.7303613 0.84078926 -0.040051166 1.1252578 -0.6497773 0.6199977 -0.734631 0.5035048 -0.23884211 0.33561483 -0.37784567 0.361819 0.004381769 0.7576948
3 0.54125816 -0.1890563 0.114593476 -0.087633505 -0.2007647 0.102495685 -0.4089597 0.48644322 0.01834973 0.6004716 -0.31296784 0.31648967 -0.3332926 0.26233113 -0.0954637 0.19785985 -0.26299334 0.102972545 0.00513722 0.34422094
] 0.43267235 -0.23304847 0.16117738 -0.082424104 -0.1516011 0.07786223 -0.44781864 0.41384616 0.02715791 0.6178099 -0.36427754 0.21640871 -0.32646227 0.19119278 -0.082521625 0.19333264 -0.28419718 0.15225619 0.037313223 0.39361918
levels 1.142956 -0.28732896 0.03100293 -0.1178576 -0.2859687 0.13739301 -0.8392876 0.87473375 -0.16413668 1.1105955 -0.5408467 0.4609419 -0.6961733 0.6789721 -0.32597402 0.3409009 -0.54087484 0.36006317 -0.097742625 0.72646856
mutants 1.1351366 -0.25762683 0.19137849 -0.06670093 -0.18436772 0.33413863 -0.702373 0.9011463 -0.03253954 1.0370046 -0.5778293 0.6991665 -0.7562465 0.63849825 -0.2450479 0.17658018 -0.42545277 0.5006493 0.03588213 0.66079456
MSH2 1.0723815 -0.32130215 0.10428341 0.01100258 -0.31951258 0.09447117 -0.6932519 0.8713406 -0.07175835 1.1223983 -0.544243 0.59131914 -0.64009607 0.55838203 -0.23742455 0.29408112 -0.41740075 0.32900277 -0.029831493 0.65148866
regulation 1.386058 -0.08200254 -0.092929006 -0.14254534 -0.25304043 0.53004897 -0.9801252 0.870532 -0.18279763 0.77011603 -0.5911258 0.5653103 -1.2201176 1.1497921 -0.37647444 0.20282786 -0.6216563 0.80446637 -0.23176177 0.7324493
N 0.46626765 -0.17089249 0.12446651 -0.3210276 -0.284863 -0.23374046 -0.6956796 0.34779575 0.08695328 0.776733 -0.48915517 -0.009664754 -0.2541405 0.12442772 -0.231239 0.4257767 -0.38698548 -0.028603036 -0.20988676 0.6065211
ability 1.3268479 -0.25588298 0.22160567 -0.021442674 -0.20534773 0.39179894 -0.8077463 1.038348 -0.06569785 1.0965171 -0.6810045 0.85278785 -0.85814536 0.75111204 -0.1990573 0.1597636 -0.4685991 0.57167673 0.016912779 0.7718445
all 1.3633724 -0.32058883 -0.072857164 -0.18046121 -0.39358535 0.084763475 -1.0790318 0.96167696 -0.29056054 1.2033428 -0.5913342 0.4279775 -0.80936545 0.8648988 -0.4672792 0.48951578 -0.70402354 0.39843053 -0.22244449 0.8375223
smooth 1.1737193 -0.24943994 -0.15424676 -0.70077497 -0.4006363 0.20883949 -1.1152916 0.706295 -0.13701776 1.3142022 -0.5980301 -0.09716958 -0.8682252 0.7762031 -0.80207866 0.6997827 -0.7520229 0.2961868 -0.19744508 0.73041487
isolated 1.2074434 -0.23245765 -0.05401574 -0.058885995 -0.25530237 0.1981602 -0.822866 0.8374036 -0.2537848 0.9132115 -0.5034686 0.52252513 -0.7307427 0.82600176 -0.33413213 0.2645302 -0.55255 0.4776545 -0.118668936 0.6642986
adenosine 1.1403087 -0.3261388 0.19208619 -0.1929957 -0.27302557 0.18245341 -0.85305387 0.8872544 -0.03998461 1.261187 -0.66531664 0.50442636 -0.6956158 0.57436955 -0.3176539 0.40654233 -0.54030526 0.3265893 -0.058637757 0.8008733
known 1.1505591 -0.28925982 0.16483845 -0.017376637 -0.23262708 0.19326973 -0.73032326 0.918244 -0.10900705 1.0765707 -0.58731514 0.6798135 -0.6905111 0.6095782 -0.22857262 0.2277867 -0.44933566 0.4177424 -8.318623e-05 0.72561425
TRADD 1.0747998 -0.3290895 0.13382721 -0.0701735 -0.27433765 0.10318993 -0.7665283 0.91854215 -0.058761153 1.1643732 -0.5915558 0.5740727 -0.64674723 0.54212624 -0.24820541 0.28776887 -0.44696805 0.31694177 -0.023731122 0.7365074
interact 1.2062974 -0.1466952 0.1058374 -0.09987566 -0.26896942 0.2805812 -0.85835063 0.83838856 -0.12298112 0.88052976 -0.56349194 0.633601 -0.8303059 0.79079694 -0.2950345 0.23475944 -0.528573 0.56487465 -0.14912167 0.6553149
exchange 1.0830237 -0.24911173 0.15003088 -0.117088795 -0.19938625 0.26544926 -0.73592633 0.8413226 -0.07202991 1.0196773 -0.5737502 0.5595408 -0.7280441 0.6261848 -0.26279724 0.2581497 -0.4468059 0.42451695 -0.020325612 0.66930985
lines 1.4875607 -0.30543798 0.1261139 -0.08015583 -0.2923377 0.3112279 -1.0438198 1.0938252 -0.19281517 1.2930276 -0.7326061 0.75828457 -0.9926689 0.89445484 -0.3684004 0.33561662 -0.64991724 0.5783783 -0.11172465 0.9254793
gelsolin 1.1935166 -0.21521159 0.049747914 -0.13721284 -0.3643904 0.16605411 -0.87289625 0.78697926 -0.14863236 0.9491737 -0.5681228 0.48611432 -0.78030634 0.7284724 -0.30797705 0.34002838 -0.61953807 0.41431165 -0.21842706 0.7431699
II 0.89122653 -0.21439263 0.11113369 -0.14765579 -0.22322744 0.15792613 -0.6350527 0.6495707 -0.026418816 0.8657571 -0.44183794 0.40214705 -0.56436366 0.444384 -0.24466506 0.233091 -0.39648193 0.280286 -0.013179529 0.56140006
induced 1.3865336 -0.27780107 0.08263381 0.023343371 -0.22287725 0.30062366 -0.85017985 1.0601498 -0.19650543 1.112534 -0.6283789 0.78995794 -0.82975703 0.85300404 -0.25679877 0.22190633 -0.5604127 0.5704967 -0.049840864 0.79702675
addition 1.1612494 -0.14099894 0.03917617 0.003602614 -0.16814291 0.38456675 -0.7057026 0.7876391 -0.119591825 0.72914535 -0.51371264 0.6366498 -0.9001914 0.8288102 -0.19827694 0.12460638 -0.435835 0.61640847 -0.09324548 0.6103432
analysis 1.1729963 -0.30009016 0.17382737 -0.032399848 -0.22275734 0.2600613 -0.7382504 0.9308102 -0.060362965 1.1289732 -0.6027672 0.6777463 -0.7136544 0.62994987 -0.24042109 0.24629161 -0.4517063 0.4481691 0.007585773 0.7285351
4 0.5763035 -0.16999298 0.080892086 -0.10618733 -0.22591904 0.09376355 -0.485156 0.45583418 -0.029946955 0.58720803 -0.2647816 0.20479597 -0.3174845 0.28271672 -0.1672543 0.21498325 -0.35427478 0.11909648 -0.06299567 0.4389314
light 1.2424595 -0.20371175 -0.0691194 -0.5238436 -0.39063105 0.21635251 -1.1104343 0.76165676 -0.1490729 1.3270117 -0.62978375 0.07347607 -0.9069307 0.76136506 -0.7193604 0.6706449 -0.7429844 0.36673176 -0.16428559 0.76958567
This 0.9297553 -0.2559858 0.15104055 0.041459475 -0.15138212 0.18742865 -0.54194826 0.7457623 -0.06576593 0.88156927 -0.48428935 0.5973542 -0.56885886 0.4672663 -0.13830556 0.15108384 -0.3187889 0.36248854 0.06830182 0.5684956
association 1.346974 -0.11354235 -0.1194014 -0.0005614658 -0.24353896 0.37002623 -0.93791705 0.8553274 -0.31946257 0.68919766 -0.48233306 0.59401745 -1.0207953 1.1204993 -0.29029396 0.1519531 -0.6434405 0.7153752 -0.2960888 0.6792844
To 0.6816279 -0.20329545 0.14677316 -0.05765637 -0.08479252 0.16047516 -0.43267316 0.5672064 0.008487338 0.75183785 -0.37208307 0.3894521 -0.3710307 0.31491742 -0.12822658 0.16695203 -0.23577847 0.22769386 0.09538185 0.42339528
cerevisiae 1.0094229 -0.29938605 0.18477352 -0.041105647 -0.21004927 0.18059567 -0.6446464 0.853006 -0.039814007 1.0867432 -0.5810339 0.630058 -0.5964132 0.4653484 -0.20271237 0.25392193 -0.37172556 0.3500241 0.060052495 0.67160887
nuclear 1.1320261 -0.32952622 0.27220565 -0.22382122 -0.33067313 0.104332544 -0.9332862 0.90934324 0.023430124 1.2572169 -0.74823654 0.5131203 -0.67628974 0.5277398 -0.27906993 0.38501465 -0.5540441 0.35167852 -0.0939888 0.88461787
kDa 0.97971827 -0.3224935 0.14590918 -0.28247517 -0.3941904 -0.011345597 -0.8750154 0.7436294 -0.013170807 1.1769845 -0.6254097 0.267365 -0.5267258 0.43741623 -0.34426165 0.4870472 -0.51362664 0.15066092 -0.11931902 0.803641
regulate 1.2637153 -0.18250969 0.0063386094 -0.14352728 -0.29052845 0.32924303 -0.89178 0.8391377 -0.14255618 0.93476987 -0.58448416 0.55051714 -0.935474 0.8795807 -0.34309235 0.26646903 -0.57765335 0.57141787 -0.13191575 0.73625517
normal 1.3337389 -0.28781065 -0.051030368 -0.11506998 -0.34623206 0.14778443 -0.9838827 0.9360629 -0.25785553 1.1090869 -0.56854445 0.5241293 -0.80938935 0.84293103 -0.40157232 0.35288933 -0.6462478 0.43076316 -0.18034612 0.79260975
residues 1.1309282 -0.25973395 0.16126487 -0.069275774 -0.23440479 0.2513572 -0.75173783 0.8753784 -0.04802664 1.0826783 -0.573338 0.6165058 -0.7223293 0.6157275 -0.25675243 0.26397678 -0.44388634 0.43204245 -0.018785207 0.71803373
MSH3 1.0728847 -0.3039428 0.09220991 -0.008105882 -0.323287 0.052155253 -0.73037356 0.8631332 -0.07628102 1.1244916 -0.5784992 0.5600478 -0.6481375 0.5686206 -0.2682291 0.3165696 -0.44041902 0.3068058 -0.040853243 0.67995846
localization 1.2427647 -0.1221788 -0.067462794 -0.069376916 -0.2708036 0.36972874 -0.8906766 0.81747115 -0.18315578 0.7340352 -0.5423895 0.5564135 -1.0095851 0.9706099 -0.30974358 0.18727617 -0.56126887 0.6524595 -0.2429781 0.6831517
phosphorylation 1.2843375 -0.20434748 0.031124748 -0.2609944 -0.39424735 0.20245455 -1.09676 0.8501762 -0.1034136 1.0552105 -0.6844076 0.3862703 -0.95013887 0.8642157 -0.39896983 0.4354254 -0.71921396 0.49974352 -0.32135934 0.8894563
rate 1.5771123 -0.3228122 0.11840415 -0.05588745 -0.31234333 0.34606114 -1.0237862 1.1527843 -0.167494 1.3121488 -0.7213072 0.8508014 -1.0076988 0.96925926 -0.34820834 0.31471005 -0.6700225 0.6500759 -0.053363994 0.907322
monomers 1.2767198 -0.2491659 0.18584092 -0.07624516 -0.25937158 0.33459514 -0.816249 0.9523396 -0.06397045 1.0744263 -0.663483 0.7663452 -0.8658837 0.7393561 -0.24311914 0.22560097 -0.4849998 0.55141765 -0.023374142 0.76867217
gamma-catenin 1.4741046 -0.325271 -0.54216534 0.14087704 -0.59269845 -0.35312903 -1.2247425 0.83291376 -0.83288544 0.67917216 -0.31031612 0.2975414 -0.6177868 1.2670057 -0.3482129 0.3801679 -0.99323595 0.31170392 -0.7007077 0.831268
changes 1.234774 -0.25323507 0.05668814 -0.20285055 -0.27812588 0.3033786 -0.90191334 0.89010537 -0.11950747 1.1236054 -0.613082 0.5038578 -0.8709838 0.76536304 -0.41223675 0.37562 -0.56478333 0.46809652 -0.09208285 0.74045855
used 1.3087014 -0.24377503 0.02669611 0.045584474 -0.21602117 0.24714194 -0.79999155 0.9543021 -0.24713497 0.96667475 -0.5492739 0.7385937 -0.7534589 0.8647991 -0.26369894 0.17317773 -0.5437464 0.5544534 -0.074098356 0.6927339
specific 1.3801653 -0.28633788 0.13902763 -0.18530922 -0.29979026 0.30506247 -0.97524846 1.043499 -0.094602615 1.3285953 -0.6979239 0.6499249 -0.9045484 0.7824857 -0.4105722 0.37900302 -0.62785137 0.51247203 -0.059530932 0.83648604
did 1.2650014 -0.31809956 0.112659946 -0.081057355 -0.30224183 0.168961 -0.9014014 0.9755708 -0.16260692 1.1660907 -0.6459114 0.65122706 -0.73954743 0.73283035 -0.29409888 0.3053349 -0.5613372 0.38651088 -0.084426925 0.8174391
pathway 1.1466348 -0.26959804 0.17237803 -0.04169807 -0.20485534 0.28645396 -0.7166825 0.896229 -0.045273248 1.0535349 -0.58367234 0.6713779 -0.72205037 0.62921804 -0.22685951 0.22593449 -0.4196822 0.44708636 0.014109391 0.67225885
recombinant 1.181301 -0.27338693 0.1220517 -0.07176342 -0.27024457 0.22127584 -0.8225703 0.905652 -0.10675122 1.1090125 -0.5929324 0.6425625 -0.73917407 0.6573964 -0.268766 0.26553276 -0.4978757 0.42727554 -0.060077094 0.7323013
FADD 1.0692039 -0.30346894 0.16548264 -0.053116787 -0.23739217 0.12409363 -0.6933804 0.9020691 -0.05024817 1.1383152 -0.59478986 0.5642418 -0.602549 0.52997684 -0.23257281 0.28403974 -0.45871255 0.3270925 0.009544735 0.72794795
major 1.029523 -0.24404222 0.15236475 -0.11190119 -0.25482783 0.16195776 -0.7802877 0.825901 -0.037335288 1.100576 -0.5825006 0.52063996 -0.65759987 0.51350445 -0.27003372 0.31724364 -0.45386192 0.33278692 -0.033899076 0.72423023
through 1.2181559 -0.28408435 0.15828481 -0.06791269 -0.23988733 0.24556929 -0.79836655 0.9542844 -0.07957357 1.1676856 -0.61867523 0.65819925 -0.7493916 0.6505253 -0.2643619 0.2676001 -0.47845596 0.44737646 -0.007408038 0.7588874
focal 1.3068868 -0.2758475 0.06817435 -0.10392887 -0.31492355 0.23067255 -0.9045082 0.9748829 -0.13712658 1.116685 -0.64115626 0.64795864 -0.85152835 0.7599016 -0.335853 0.2998689 -0.55762154 0.48432592 -0.116549835 0.79338115
essential 1.188652 -0.25486666 0.111341275 -0.09335661 -0.2299376 0.26323512 -0.80824405 0.90341187 -0.09900423 1.0706929 -0.59359795 0.61891437 -0.77805454 0.70736915 -0.30094358 0.26495877 -0.48259276 0.46754742 -0.05592726 0.7340287
most 1.2080623 -0.28376332 0.16598158 -0.060299084 -0.2308643 0.25245744 -0.79764503 0.9533615 -0.09422212 1.1331115 -0.6110011 0.6651453 -0.76402926 0.66914433 -0.26093948 0.2445628 -0.48886052 0.4744814 -0.026856612 0.75585866
Saccharomyces 1.0542133 -0.2899017 0.16776103 -0.07460862 -0.2288788 0.19184309 -0.69557935 0.846053 -0.033506397 1.0970203 -0.5771414 0.57735777 -0.6509266 0.5167126 -0.2495071 0.27387992 -0.41284373 0.37234408 0.024607083 0.687255
system 1.0635296 -0.28945172 0.16987489 -0.052655578 -0.20374477 0.20643622 -0.68999666 0.8528664 -0.042826712 1.0771539 -0.56294274 0.61169004 -0.6448892 0.5370739 -0.22064877 0.24710818 -0.40638614 0.37223208 0.0225018 0.66305536
well 1.1939213 -0.29547805 0.043209717 0.0058950637 -0.23325777 0.11967167 -0.727153 0.8891527 -0.18848866 1.0321472 -0.5175032 0.60315245 -0.6225895 0.6561171 -0.2227694 0.2699014 -0.4955719 0.3906637 -0.023781758 0.6773644
demonstrated 1.2889336 -0.2848586 0.06439617 0.038862124 -0.23166165 0.22628121 -0.77629507 0.9560098 -0.20334817 1.0658422 -0.5614426 0.7253211 -0.7639572 0.78226167 -0.26056567 0.21511617 -0.49065888 0.52628994 -0.016578313 0.71492463
replication 1.3001878 -0.20161691 0.04816937 0.019544907 -0.23552755 0.38162935 -0.85833174 0.9489128 -0.13380271 0.9175858 -0.5981794 0.74253213 -0.9966135 0.89845806 -0.27121142 0.16459712 -0.49399772 0.6647839 -0.12644601 0.7356402
MSH6 0.9894806 -0.28332445 0.08133357 -0.013362825 -0.30723268 0.047860287 -0.65836626 0.78348404 -0.056868855 1.0335221 -0.5160311 0.5115157 -0.60453814 0.514226 -0.2352755 0.30587816 -0.4182398 0.29642808 -0.05870495 0.62836474
RAD54 1.0204217 -0.35400262 -0.05408441 0.00055010396 -0.3736173 -0.016704109 -0.8121332 0.9023268 -0.14884262 1.0824875 -0.5466926 0.58446574 -0.68397033 0.52038723 -0.28084856 0.20113018 -0.39417413 0.34432885 -0.106774844 0.73837197
determined 1.2963302 -0.2712712 0.11528368 -0.027344285 -0.23727466 0.23088384 -0.81889355 0.97259086 -0.146899 1.1173034 -0.61499494 0.6794564 -0.7920367 0.76164 -0.29622543 0.26325634 -0.5326986 0.49045932 -0.05298021 0.76519966
concentration 1.2152394 -0.1416772 0.0413528 -0.08201328 -0.20234725 0.4365562 -0.8236755 0.8518717 -0.09883015 0.83511865 -0.5444517 0.6132771 -0.9680445 0.8718953 -0.2799263 0.18029219 -0.49312782 0.6480929 -0.111237265 0.66389537
respectively 1.2496253 -0.25942168 0.08178251 -0.14066704 -0.31381643 0.2090603 -0.91722 0.9438546 -0.11399694 1.1590939 -0.61178917 0.5437426 -0.8246349 0.7283445 -0.36585757 0.3456947 -0.57483405 0.44401297 -0.11025122 0.7957218
revealed 1.1860764 -0.2717631 0.05094786 -0.0032466738 -0.23253687 0.20626113 -0.749042 0.90234756 -0.17831269 1.0080471 -0.5252034 0.6647633 -0.7139814 0.7236852 -0.24466819 0.21554519 -0.4830219 0.46028545 -0.05077423 0.683475
present 1.3667471 -0.18836357 0.0065682167 0.033837408 -0.19946305 0.34871918 -0.8324788 0.96076965 -0.20475265 0.93274724 -0.5690649 0.7238875 -0.9551014 0.9603318 -0.29436535 0.19742946 -0.54276633 0.6510076 -0.09998486 0.7179523
However 0.96566045 -0.23660365 0.097942755 -0.053487383 -0.22610064 0.14221725 -0.67302465 0.7539303 -0.09130147 0.943522 -0.49773037 0.49783242 -0.5969952 0.51821804 -0.24013749 0.24666458 -0.40628812 0.33122522 -0.047314405 0.6301058
recombination 1.2849594 -0.195061 0.024296712 -0.037911117 -0.2538508 0.35440072 -0.8764805 0.9246781 -0.15739001 0.93559134 -0.5824109 0.6784023 -0.96426195 0.8859686 -0.28706002 0.19191125 -0.5266933 0.61602354 -0.14476778 0.72646964
tropomyosin 1.071452 -0.20012794 -0.06196974 -0.54590064 -0.40915892 0.20260406 -1.025205 0.6479431 -0.096160166 1.1353068 -0.5826346 -0.009225447 -0.7781785 0.6519939 -0.6480834 0.6321481 -0.70693755 0.25524506 -0.2370803 0.68853366
structures 1.2827833 -0.29994714 0.13716026 -0.08058584 -0.26834112 0.2478568 -0.85352707 0.9756554 -0.117993996 1.1725467 -0.64613765 0.6858214 -0.8074661 0.7373316 -0.30838367 0.3044063 -0.531894 0.47104797 -0.03256243 0.78062534
studies 1.1797875 -0.2634709 0.13690579 -0.0639693 -0.21847104 0.28159547 -0.74686897 0.8992519 -0.0853077 1.1000259 -0.5909823 0.67107546 -0.7594145 0.6571168 -0.26266736 0.25125366 -0.47731632 0.44770804 -0.01008691 0.6939732
regions 1.1289054 -0.19704364 0.051079776 0.009135309 -0.27413994 0.23007138 -0.7518898 0.840132 -0.10446692 0.8853679 -0.5304704 0.61099815 -0.8076949 0.70415 -0.26643935 0.2021089 -0.449996 0.49113324 -0.08514624 0.6599505
transcription 1.2290103 -0.22971183 0.1150023 -0.05934261 -0.2160569 0.32628912 -0.83201426 0.9400255 -0.08792563 1.0411308 -0.6395152 0.65501183 -0.8863858 0.7765352 -0.26644412 0.24623735 -0.48894206 0.5439246 -0.06850386 0.7419808
either 1.1538311 -0.28475454 0.020978177 -0.017219983 -0.32844657 0.09036608 -0.82697904 0.8511213 -0.2317626 0.9972936 -0.5360733 0.5127666 -0.6755132 0.69657785 -0.2895003 0.32096863 -0.54048383 0.35053438 -0.1422645 0.7056041
determine 1.2269164 -0.28336567 0.15625802 -0.064137876 -0.24644063 0.20405187 -0.81409293 0.92741925 -0.10555333 1.1373746 -0.62940633 0.61843675 -0.7619216 0.6735783 -0.29623833 0.30455768 -0.5158464 0.43619692 -0.04750894 0.76726556
signaling 1.2438881 -0.23855649 0.1410539 -0.0067628054 -0.2508127 0.30195832 -0.76630056 0.91756946 -0.05500722 1.0206081 -0.6295451 0.73903656 -0.82753414 0.7120934 -0.22495206 0.21658248 -0.48574707 0.52042764 -0.053343326 0.739368
alpha 1.512049 -0.345386 -0.34517902 -0.39209065 -0.6052831 -0.12135865 -1.3849275 0.92196536 -0.49686423 1.2587997 -0.56528723 0.05998407 -0.840346 1.0835376 -0.7106127 0.7234605 -1.0342132 0.28457746 -0.51354676 0.92376924
CBP 0.9430059 -0.23100172 0.14312008 -0.034513135 -0.2499818 0.13997154 -0.66145355 0.7320376 -0.063561656 0.91432333 -0.5156227 0.51344174 -0.5718525 0.45617023 -0.23366438 0.27324715 -0.37997705 0.30571797 -0.045427717 0.6331323
' 0.50502014 -0.1278791 0.08948308 -0.06264373 -0.1318188 0.06920076 -0.38176242 0.4187451 -0.003252387 0.53735065 -0.30440527 0.24001747 -0.32617337 0.22621745 -0.09934701 0.167745 -0.23710452 0.10901879 -0.02100272 0.3662644
J. 0.61928016 -0.21576682 0.08427957 -0.058053017 -0.25213823 -0.003776826 -0.49721092 0.5009123 -0.011233335 0.79626447 -0.37054917 0.2961967 -0.31960332 0.229547 -0.16096476 0.2815981 -0.29811198 0.10903245 -0.05096091 0.53435236
simplex 0.98120385 -0.2812396 0.17916358 -0.003333219 -0.2294702 0.20133114 -0.7100665 0.8037762 -0.035246454 1.0481713 -0.51126945 0.664243 -0.5729671 0.52818257 -0.19527091 0.2486737 -0.4246774 0.30608281 -0.046589505 0.6725123
after 1.1240612 -0.27017078 0.12329717 -0.06910138 -0.2604633 0.18817192 -0.7777827 0.8752521 -0.098232634 1.0803713 -0.56434155 0.5771846 -0.69230545 0.62712646 -0.26114947 0.26155505 -0.4915025 0.38066557 -0.04631901 0.70226514
four 1.0533429 -0.27913374 0.15357143 0.011117738 -0.22589816 0.16574532 -0.70953876 0.8328817 -0.08471938 1.0066384 -0.5454268 0.5914572 -0.6464365 0.5353989 -0.23022956 0.23617272 -0.42739496 0.37456667 -0.037169326 0.6767854
staining 1.2852628 -0.25602257 0.017838757 -0.101344906 -0.3560596 0.17510177 -0.9608068 0.9018803 -0.17141138 1.0756502 -0.6123811 0.570201 -0.82724416 0.8030324 -0.36249718 0.3502825 -0.6138085 0.45417693 -0.1858076 0.782548
homologous 1.3239819 -0.33947584 0.20977023 -0.05604114 -0.31348985 0.22043297 -0.8887313 1.0598491 -0.069603 1.2905233 -0.7261906 0.75982744 -0.79522645 0.6821068 -0.26980606 0.3015651 -0.53227997 0.4570215 -0.036725037 0.8674891
reduced 1.2747469 -0.2538871 -0.010233998 -0.0031482992 -0.26703608 0.19458541 -0.8471183 0.94568336 -0.24853803 0.993269 -0.5397848 0.6258394 -0.75306976 0.8159018 -0.29390714 0.24467218 -0.5545993 0.4863505 -0.11947568 0.746245
indicate 1.2021818 -0.26965797 0.102001205 0.11087424 -0.2329566 0.17315252 -0.74207205 0.87797016 -0.17361115 0.9187657 -0.5343527 0.7597325 -0.6896756 0.7114606 -0.14771202 0.15097682 -0.4713791 0.49534822 -0.08498262 0.6975152
helicase-primase 1.1360065 -0.30815056 0.1919445 -0.08318518 -0.27128127 0.19553828 -0.8258492 0.9132556 -0.025780926 1.2458163 -0.62975574 0.6252001 -0.7152428 0.5607123 -0.28924736 0.35352296 -0.48569283 0.35091287 -0.043153852 0.7863869
D1 0.75016135 -0.17769498 0.047779717 -0.054632895 -0.13355544 0.13393576 -0.6187416 0.61490643 -0.11461508 0.8973793 -0.41741407 0.3343306 -0.48814574 0.44518095 -0.15726471 0.30788606 -0.356021 0.25629464 -0.03892991 0.56568927
ends 1.2813895 -0.2742468 0.16760202 -0.047902748 -0.2287971 0.29196814 -0.83992666 0.9737993 -0.08728723 1.1656814 -0.67444396 0.7276453 -0.87095743 0.689678 -0.27297378 0.28468993 -0.50255656 0.4927208 -0.04487811 0.8060753
C 0.60325557 -0.15205342 0.03538513 -0.07540737 -0.102337815 0.06819659 -0.38169354 0.44815236 0.00824113 0.58120966 -0.29301536 0.2413802 -0.36407226 0.25123248 -0.16956466 0.15045455 -0.25050005 0.16818222 -0.02081261 0.36296237
endothelial 1.1404002 -0.2847969 0.12036034 -0.12709226 -0.26109645 0.18741998 -0.82462096 0.87584686 -0.081638135 1.1293758 -0.5930203 0.5485185 -0.70783955 0.6171915 -0.30412298 0.31674287 -0.50931627 0.36415485 -0.058706466 0.73682356
important 1.24358 -0.27467397 0.19912104 -0.035191245 -0.20111006 0.30787587 -0.78614646 0.969855 -0.076586284 1.1107943 -0.62907654 0.7681533 -0.787476 0.6872304 -0.22392534 0.21926177 -0.47651398 0.50225884 0.01868458 0.73374593
more 1.202739 -0.26869762 0.13411513 -0.03406924 -0.22751544 0.25350994 -0.7578491 0.9247183 -0.11501038 1.0803635 -0.5800571 0.67751354 -0.7390232 0.671938 -0.25086048 0.2250048 -0.44898298 0.4583315 0.012565336 0.68051875
L 0.49196815 -0.13843709 0.09143514 -0.16316354 -0.2322581 -0.068356924 -0.45875692 0.3916319 -0.008811109 0.6899525 -0.37552756 0.08459871 -0.26236504 0.22051068 -0.17562193 0.24326678 -0.34658062 0.035356008 -0.097535506 0.4233809
distribution 1.2886153 -0.20708033 0.031163687 -0.051132612 -0.25870135 0.32208878 -0.87386215 0.90701526 -0.14683586 0.947793 -0.6016744 0.640723 -0.9302056 0.8642553 -0.3000324 0.23273058 -0.5524607 0.5901842 -0.12844948 0.7382728
acid 1.0666431 -0.2808917 0.2633904 -0.10876391 -0.23423572 0.20195223 -0.7340164 0.83933806 0.032057237 1.1091887 -0.6247453 0.57398635 -0.6362814 0.49729642 -0.23467569 0.30821192 -0.44984657 0.34651044 0.0007475547 0.7509171
products 1.1326308 -0.25711071 0.22821406 -0.011596503 -0.25777835 0.23331568 -0.7309769 0.9060104 -0.017687421 1.0105633 -0.6228443 0.7182887 -0.7475388 0.5978061 -0.22425026 0.22073945 -0.4286425 0.46299133 -0.029853618 0.72613627
including 1.1732174 -0.22448361 0.11409213 -0.011118183 -0.27881157 0.23940048 -0.810253 0.86786884 -0.066582665 0.98808783 -0.6183117 0.67912966 -0.79674786 0.6936367 -0.23093894 0.24415727 -0.48460263 0.48390487 -0.12278578 0.7309788
related 1.5328606 -0.277779 -0.1204905 0.012294047 -0.35632673 0.19465023 -1.0565532 1.0508164 -0.39616945 1.0773968 -0.602138 0.6848487 -0.9310924 1.1012155 -0.39472634 0.29594806 -0.70976835 0.6178783 -0.2272496 0.84306586
sequences 1.1583887 -0.25710836 0.20674035 -0.10493119 -0.29700482 0.21811832 -0.84705746 0.88749474 -0.015691511 1.1552314 -0.64349306 0.58695614 -0.78148127 0.59822214 -0.3024892 0.32255203 -0.50405014 0.43298677 -0.059186984 0.78773916
bundles 1.1441851 -0.2591118 0.15018849 -0.08978257 -0.24298297 0.25579518 -0.78762054 0.88199914 -0.07811681 1.0738207 -0.5931591 0.6039409 -0.75009096 0.65465593 -0.2925226 0.27036634 -0.47965834 0.43303165 -0.034331243 0.7227113
motility 1.2303945 -0.25234064 0.2221422 -0.03396383 -0.18317674 0.35877457 -0.7576452 0.96594745 -0.054349724 1.0712419 -0.642876 0.78108734 -0.79511034 0.68251425 -0.1957628 0.16882254 -0.4478142 0.52283245 0.03190536 0.7314869
observed 1.1297572 -0.24439575 0.0739788 -0.0035434868 -0.20861566 0.19558571 -0.70089155 0.8520097 -0.14918153 0.9614162 -0.50296205 0.62271357 -0.6773618 0.67284733 -0.24404427 0.19667043 -0.45546994 0.44751796 -0.045598313 0.6520148
cytoplasm 1.1811333 -0.24298187 0.045580655 -0.033364974 -0.27462995 0.19533792 -0.8025374 0.87112266 -0.18869632 0.943035 -0.5348375 0.57264405 -0.7224847 0.7458127 -0.27160013 0.24764174 -0.51564515 0.43913925 -0.124339625 0.69150525
bound 1.1253622 -0.25168732 0.18247809 -0.039613858 -0.19959119 0.2772967 -0.72869277 0.8652795 -0.08118678 1.0087069 -0.5738476 0.6709072 -0.7089053 0.6179457 -0.22926071 0.20239213 -0.43341258 0.46022388 0.008014486 0.69062525
no 1.085709 -0.26000977 0.018521557 -0.05327649 -0.24573222 0.13844043 -0.74985737 0.8135267 -0.17744859 0.9764548 -0.5018792 0.49275404 -0.676306 0.6496695 -0.2916449 0.2758445 -0.5007928 0.30162862 -0.09510503 0.6648489
reorganization 1.1289247 -0.12803769 0.023699304 -0.061410647 -0.18717022 0.43199727 -0.7486181 0.800239 -0.10713437 0.7347236 -0.5302324 0.6073712 -0.93227464 0.8366964 -0.24353035 0.13318034 -0.43880305 0.61751664 -0.099896125 0.60852057
cardiac 1.0243968 -0.22529706 0.05028209 -0.30177003 -0.2657084 0.19942762 -0.82806486 0.7355331 -0.09087069 1.0868444 -0.55139387 0.28852624 -0.69094014 0.58074015 -0.43954867 0.41734853 -0.5232696 0.32412204 -0.062215835 0.6454119
stress 1.3126148 -0.26104888 0.057224724 -0.07282842 -0.20833626 0.30709487 -0.8493329 0.95305955 -0.16133378 1.1252694 -0.6035526 0.6510941 -0.84985995 0.81620044 -0.3195487 0.2689391 -0.53480685 0.5154758 -0.048845716 0.77027386
increase 1.1581376 -0.24584244 0.082515895 -0.045010097 -0.18067068 0.23692438 -0.81322336 0.89783186 -0.14448112 1.13089 -0.5623568 0.5535344 -0.7450518 0.6797962 -0.26673463 0.32323605 -0.5232185 0.42310107 -0.08304307 0.763964
compared 1.2928195 -0.250887 0.0361262 0.020289399 -0.27640522 0.22760257 -0.8487151 0.9481294 -0.22464186 0.98351127 -0.5610509 0.6969842 -0.79965746 0.84351873 -0.29177874 0.23905653 -0.55215144 0.5238583 -0.13973252 0.7267369
model 1.0394973 -0.23434888 0.19535439 -0.03723645 -0.18566705 0.25538242 -0.6564459 0.82133806 -0.050613597 0.969258 -0.54441106 0.6267096 -0.65262187 0.5435557 -0.20880243 0.19239065 -0.3807954 0.41406947 0.035503943 0.63234705
5 0.5261805 -0.16740425 0.06007441 -0.06730624 -0.10483453 0.059734385 -0.38058954 0.40352204 0.009161175 0.5933742 -0.30147648 0.23250574 -0.29228482 0.21353024 -0.13325578 0.17065388 -0.18356222 0.143278 -0.02822128 0.32284296
desmin 1.1710484 -0.24329765 -0.07363432 -0.36780658 -0.4166758 0.090652764 -1.0296332 0.7101217 -0.18979616 1.0716009 -0.5599907 0.1616085 -0.7734215 0.7636785 -0.53859884 0.5564926 -0.74228156 0.2982895 -0.29179522 0.7745061
M 0.4929121 -0.1961404 0.20950377 -0.15292108 -0.19010969 -0.09427866 -0.47961715 0.36483654 0.05878996 0.67823267 -0.36968344 0.12454972 -0.23392773 0.15496615 -0.16061857 0.31604028 -0.3234407 0.08992457 -0.037334662 0.47674245
purified 1.1459768 -0.2541135 0.11391359 -0.07513979 -0.20927441 0.24983808 -0.7088208 0.86445093 -0.10668936 1.0178978 -0.5596185 0.63565224 -0.68442035 0.6434199 -0.2695089 0.22756566 -0.46888223 0.44052944 -0.008625711 0.65393853
p27 1.0688418 -0.26063958 0.20594382 -0.111651205 -0.1859306 0.18218502 -0.7797685 0.8585705 -0.04526683 1.234004 -0.55498326 0.4657959 -0.62948996 0.5307621 -0.23620842 0.38291258 -0.50447494 0.3261768 -0.05936939 0.7711639
alpha-smooth 1.2259163 -0.27983418 -0.228655 -0.48427197 -0.4565379 0.028537156 -1.1369048 0.7513283 -0.300786 1.1712506 -0.5289288 -0.00068357657 -0.7678872 0.85285044 -0.6744213 0.6423415 -0.8071198 0.26140574 -0.3249177 0.7534262
monomeric 1.4102569 -0.26787743 0.17075591 -0.10086367 -0.3022783 0.36903018 -0.93798137 1.0284 -0.081111126 1.2011064 -0.7214708 0.7944764 -0.9588551 0.83015907 -0.31212923 0.2697604 -0.5670608 0.5943965 -0.054468904 0.8430466
dynamics 0.9640048 -0.22151086 0.1151086 -0.09604475 -0.21375285 0.23276001 -0.6510642 0.7452136 -0.052217457 0.9179493 -0.4962198 0.49841827 -0.63826144 0.5434997 -0.23290895 0.2294264 -0.38921535 0.36926094 -0.016852507 0.6120915
control 1.1221126 -0.23749034 0.10359051 -0.1565349 -0.2789007 0.26388845 -0.81325614 0.8404246 -0.069894746 1.0253438 -0.5866909 0.52636373 -0.78473043 0.6533524 -0.33234093 0.3070406 -0.48761207 0.43389162 -0.07040067 0.6942352
fluorescence 1.1446263 -0.26640627 0.17163372 -0.020829368 -0.19356237 0.29462835 -0.6785493 0.9055156 -0.049614806 1.0556267 -0.57318836 0.7115311 -0.7276155 0.62179697 -0.20975481 0.19962126 -0.403274 0.46353015 0.04119968 0.6709871
viral 1.1607659 -0.30029887 0.14936924 -0.12040828 -0.30610707 0.17860371 -0.8891655 0.9120535 -0.041559264 1.2213016 -0.6564944 0.599402 -0.7555005 0.6165317 -0.33394757 0.3633667 -0.51388806 0.3570588 -0.08757894 0.81392395
previously 1.2025423 -0.27268246 0.15985514 -0.009822188 -0.22137809 0.24712405 -0.7379339 0.93338186 -0.086117655 1.066316 -0.5955829 0.71003264 -0.7503995 0.6570525 -0.23233722 0.22656846 -0.45567384 0.45541334 0.010270258 0.71201026
molecular 1.2973642 -0.30469814 0.14413391 -0.12016551 -0.31668812 0.20896628 -0.9373796 0.9892693 -0.098993644 1.2171986 -0.6906313 0.65186584 -0.8374861 0.72851235 -0.30371854 0.34065732 -0.59281313 0.46577075 -0.115311526 0.85143876
inhibited 1.2267451 -0.20599157 0.18696028 -0.008546228 -0.11103296 0.35328567 -0.7921054 0.9653069 -0.12526615 1.1775209 -0.5629855 0.6469996 -0.7635627 0.72784203 -0.19150308 0.2624285 -0.54694664 0.5151084 -0.0694388 0.81536734
mammalian 1.0713698 -0.25515288 0.12960686 -0.062221333 -0.24523894 0.20288798 -0.735434 0.8325574 -0.06879701 1.0137099 -0.54362106 0.589881 -0.66808975 0.57454765 -0.2405633 0.2437483 -0.44081333 0.38463277 -0.032367714 0.6874594
although 1.1177801 -0.26525947 0.041495614 -0.052516844 -0.2627126 0.1476641 -0.7842341 0.84378475 -0.17274694 1.0136459 -0.5209754 0.5319892 -0.6626611 0.6574191 -0.27009973 0.27426684 -0.49686527 0.3686629 -0.088035956 0.6983612
directly 1.2521842 -0.29195628 0.08952309 -0.03651784 -0.26701668 0.21262898 -0.830725 0.94219816 -0.17491864 1.05624 -0.5908944 0.65178555 -0.7665742 0.74441415 -0.26957133 0.24579842 -0.5117321 0.45734963 -0.06816153 0.7244275
large 1.016966 -0.28992808 0.20475407 -0.14463003 -0.28178766 0.12146271 -0.7697961 0.82450694 -0.016261782 1.136002 -0.6078607 0.492891 -0.6177247 0.4779162 -0.2655247 0.3373013 -0.4694 0.29887345 -0.04234447 0.7397498
mechanism 1.0821317 -0.25491562 0.14189047 -0.061724924 -0.19042617 0.2729492 -0.6801217 0.84323865 -0.054957014 0.99115986 -0.5468723 0.6062778 -0.70995706 0.6042705 -0.24551626 0.23289038 -0.41081974 0.4248308 0.012117229 0.65158725
cytoplasmic 1.2781156 -0.27419874 0.060867507 -0.0538434 -0.30096734 0.2014687 -0.8781738 0.9442799 -0.1898523 1.0580978 -0.59188557 0.6035817 -0.78435856 0.7769895 -0.30609626 0.29175836 -0.56702644 0.45934236 -0.12565453 0.76078004
had 0.9550594 -0.28423858 0.16836436 -0.0025623995 -0.18618836 0.18170817 -0.576956 0.75072736 -0.056653243 0.97053176 -0.5245565 0.6032521 -0.5612394 0.45408225 -0.17071758 0.19309114 -0.32134694 0.2971242 0.06322321 0.60998887
encodes 1.1463082 -0.2938896 0.1787585 -0.10216899 -0.31898284 0.1786669 -0.86043465 0.90022343 -0.017010378 1.225571 -0.6510113 0.5792815 -0.7819156 0.56336004 -0.3414855 0.39753383 -0.50377333 0.37884945 -0.08118799 0.8021883
ADF 0.9707135 -0.24595991 0.0833199 -0.07760812 -0.22451268 0.1290554 -0.67264205 0.7448353 -0.06210684 0.93559897 -0.5124636 0.47309303 -0.5878472 0.5203652 -0.24363996 0.26050797 -0.43026587 0.30105725 -0.058979105 0.60548526
suggesting 1.3392116 -0.25232065 0.12473414 0.025458327 -0.24112211 0.33506945 -0.8116702 0.96587765 -0.106973894 1.0574417 -0.6280227 0.8339305 -0.8998263 0.7988896 -0.24201015 0.17397566 -0.48653787 0.6081347 -0.044210613 0.76244503
link 1.1952775 -0.21840191 0.126136 -0.05509653 -0.23736085 0.29349783 -0.76951116 0.85153484 -0.10772241 0.93104815 -0.57031155 0.6313273 -0.8117675 0.7255965 -0.26871383 0.22933052 -0.517236 0.5144049 -0.070994146 0.70994294
relative 1.2680945 -0.25215626 0.052588366 -0.08020321 -0.29997134 0.25797895 -0.9076768 0.9294416 -0.15578583 1.0992078 -0.6163924 0.57855684 -0.8667592 0.7987477 -0.3570892 0.31403372 -0.5663394 0.5101889 -0.10271317 0.77741486
N-terminal 1.2384051 -0.26403737 0.14768864 -0.08456908 -0.25194883 0.2303333 -0.8340541 0.9261965 -0.09233298 1.135468 -0.62809753 0.60322595 -0.78969586 0.6759868 -0.3024119 0.31036618 -0.52240616 0.43548775 -0.06598238 0.7629352
inhibition 1.2643224 -0.13312711 0.14014974 -0.024728466 -0.10825 0.476348 -0.83769053 0.9257027 -0.10005685 1.0355703 -0.5799248 0.6470226 -0.9670985 0.8632798 -0.19870733 0.22009562 -0.5515957 0.6436604 -0.12361344 0.8000701
concentrations 1.1677353 -0.18353494 0.08118123 -0.06536584 -0.2151091 0.3586573 -0.7800584 0.8591364 -0.08597693 0.90899223 -0.5401946 0.62759715 -0.868535 0.76434034 -0.27298346 0.19704516 -0.46242374 0.5711519 -0.060795184 0.6531482
brain 1.1352856 -0.23720376 -0.048288535 -0.30685565 -0.38573992 0.15387763 -0.95943815 0.70718884 -0.17332347 0.9847928 -0.5311962 0.26641473 -0.7589944 0.72512525 -0.4478069 0.4363165 -0.69239527 0.3262116 -0.25566146 0.73855424
plant 1.4767659 -0.30846375 0.110494986 -0.074906744 -0.32501477 0.27183676 -1.0301596 1.0817271 -0.19031279 1.2493739 -0.6764769 0.7399047 -0.91878647 0.8999766 -0.33729076 0.31010714 -0.6437012 0.55428666 -0.106984176 0.8827866
encoding 1.0927329 -0.21073288 0.13793541 -0.08436241 -0.34638074 0.17178656 -0.8674358 0.8081665 -0.001960015 1.0125848 -0.6408679 0.5705546 -0.80220073 0.5951361 -0.3084376 0.33041227 -0.49437296 0.4284846 -0.16810825 0.75114065
absence 1.0651134 -0.18151793 0.078308575 -0.022609347 -0.22771528 0.26882398 -0.71005225 0.7988392 -0.0865412 0.8599205 -0.5150069 0.58531696 -0.76177514 0.6632769 -0.2553091 0.18948635 -0.4213647 0.4698439 -0.06481736 0.635318
surface 1.083052 -0.26604542 0.11846908 -0.041073624 -0.2281634 0.2000866 -0.7447722 0.8321268 -0.117182866 0.9736835 -0.5367784 0.5791145 -0.6608882 0.6049099 -0.23191072 0.22699362 -0.4394042 0.4105806 -0.05329013 0.6820542
Kd 0.76052237 -0.20658137 0.15405636 -0.07136693 -0.1368084 0.1730524 -0.4790316 0.6185446 -0.004146742 0.8004623 -0.38470346 0.42362532 -0.4397111 0.36181864 -0.13374723 0.19221428 -0.2975656 0.2664911 0.049018353 0.47934753
nucleation 1.3774065 -0.20410545 0.10209053 -0.15625419 -0.29223907 0.38080263 -1.0280519 0.9660288 -0.084634885 1.0287745 -0.7128954 0.6298909 -1.0763489 0.9513091 -0.32126203 0.27170032 -0.62811875 0.678689 -0.19749282 0.86134696
pathways 1.1104517 -0.260132 0.16764653 -0.039553363 -0.19228871 0.27523586 -0.6940863 0.8757588 -0.0344171 1.0466838 -0.5738031 0.65199137 -0.7013581 0.59628713 -0.22237337 0.222903 -0.4014711 0.42287686 0.022013785 0.66122586
intracellular 1.1989212 -0.2934397 0.16727652 -0.07013152 -0.22724007 0.24548571 -0.8111954 0.9649239 -0.06850676 1.145205 -0.63234717 0.67677146 -0.73544466 0.65523356 -0.24803032 0.2651593 -0.4777992 0.448777 -0.016603483 0.7474567
receptors 1.1492189 -0.31487882 0.19728048 -0.089870065 -0.25794405 0.17719376 -0.78115046 0.9103301 -0.047388986 1.1714472 -0.6284716 0.6351745 -0.68214923 0.56649 -0.23322782 0.30536297 -0.45911077 0.3598088 -0.013223577 0.77071404
examined 1.2443868 -0.29006413 0.09443773 -0.025471749 -0.24828684 0.22149156 -0.8141553 0.951711 -0.15809219 1.0881919 -0.5779824 0.65582645 -0.7424924 0.74244434 -0.26976636 0.26597536 -0.5232996 0.4592323 -0.061810106 0.754721
MHC 0.87193257 -0.2118795 0.007863371 -0.458607 -0.33805254 0.1074603 -0.8678475 0.5678093 -0.073200025 1.0816348 -0.4938045 -0.002402063 -0.6123901 0.47062135 -0.5296096 0.54617345 -0.5682467 0.191709 -0.15223739 0.6207706
highly 1.1607558 -0.26599193 0.13567477 -0.04545455 -0.2361656 0.20889096 -0.785558 0.89977866 -0.09009664 1.0881865 -0.5875439 0.6124353 -0.7376518 0.6356819 -0.28377497 0.27919653 -0.49018127 0.41435236 -0.025037088 0.7190641
total 1.1010939 -0.22233394 0.04922332 -0.23013957 -0.2991108 0.20189409 -0.8462075 0.79679036 -0.09744421 1.0770314 -0.58579177 0.4010065 -0.7723742 0.66033447 -0.40278664 0.3851497 -0.5331749 0.38806903 -0.10099304 0.7049824
under 1.2504845 -0.29950967 0.1896402 -0.08225756 -0.26902846 0.23541342 -0.86040753 0.97475445 -0.08169195 1.2647421 -0.6464612 0.6518474 -0.7660307 0.6734121 -0.28186914 0.34075043 -0.5212206 0.42139408 -0.017115517 0.8135229
each 1.0542907 -0.25142515 0.1626903 -0.061730083 -0.23730876 0.1730297 -0.7096329 0.81037945 -0.04621929 1.0208436 -0.5587397 0.5898537 -0.63668674 0.53237975 -0.23455216 0.25872248 -0.44074488 0.34380296 -0.013167986 0.68856335
responsible 1.2151808 -0.29001385 0.12569673 -0.07750476 -0.25901556 0.22272426 -0.80528575 0.9425523 -0.1278746 1.1134076 -0.6049245 0.6613373 -0.75858223 0.69220555 -0.2880735 0.27048334 -0.4858256 0.44363382 -0.021901784 0.7261385
independent 1.2861847 -0.20032673 0.15853626 0.055754013 -0.087981224 0.3416761 -0.8523528 0.97466046 -0.15072371 1.1920743 -0.574835 0.6463349 -0.8444389 0.7853656 -0.19751446 0.30140814 -0.5724307 0.52822924 -0.10496383 0.837327
fusion 1.1200615 -0.18734807 -0.05106769 -0.17994563 -0.3062069 0.16525121 -0.95694464 0.7440348 -0.17960782 0.932802 -0.54571676 0.28956243 -0.81680757 0.7811686 -0.35625696 0.3836391 -0.6277748 0.41582865 -0.26810256 0.7504881
molecule 1.0343369 -0.23453923 0.08173929 -0.11702912 -0.26975 0.15724863 -0.7654922 0.7637679 -0.1069757 0.9447381 -0.5394527 0.4703276 -0.6714147 0.6030899 -0.25726533 0.28013933 -0.5021325 0.36888722 -0.11712443 0.67975307
PIP2 0.97424775 -0.26529866 0.20163809 -0.08704882 -0.18956318 0.20503145 -0.65408903 0.78670466 -0.01854104 0.9784981 -0.5552502 0.54319596 -0.58786184 0.47915018 -0.20879936 0.2328941 -0.38408515 0.33882442 0.020737372 0.63137096
when 1.1291431 -0.27651346 0.11792352 -0.06173161 -0.23868808 0.19956285 -0.74087816 0.8748976 -0.09610472 1.0679623 -0.5873724 0.630102 -0.68184185 0.59465563 -0.24792081 0.25520185 -0.43067226 0.39906666 -0.02531482 0.6996161
10 0.9005006 -0.27356124 0.17317292 -0.082299605 -0.19635642 0.098412335 -0.6343857 0.771506 -0.031514734 1.0528178 -0.51376873 0.46789053 -0.5006012 0.37876678 -0.2154077 0.28407317 -0.36091328 0.2390059 0.02653344 0.62481326
regulated 1.4182434 -0.19991328 -0.08137216 -0.11264236 -0.31593654 0.31388053 -0.98831075 0.939715 -0.2638105 0.99179953 -0.6019393 0.5998682 -0.9925173 1.0316244 -0.39896438 0.28566736 -0.65577674 0.6318534 -0.18145512 0.78873944
data 0.8609757 -0.2317165 0.1725169 -0.068792656 -0.17277527 0.1692952 -0.5535359 0.6692309 -0.0495075 0.8847468 -0.45445177 0.4730916 -0.49250653 0.39798087 -0.1905147 0.2117088 -0.3262463 0.26245448 0.047583643 0.53355306
amino 1.0331279 -0.27800846 0.17023796 -0.0639848 -0.25076205 0.16215529 -0.7390966 0.81692517 -0.06245296 1.0542357 -0.55613726 0.5387469 -0.62904066 0.52547526 -0.23831005 0.2895644 -0.4467034 0.33546725 -0.04088257 0.6989114
treatment 1.1374152 -0.21641323 0.09069718 -0.07298511 -0.20940785 0.28042457 -0.7449734 0.8543817 -0.09868218 0.99887294 -0.55164456 0.58709514 -0.7593074 0.6977924 -0.28257385 0.25980574 -0.47943416 0.46432707 -0.045827404 0.6676751
those 1.191259 -0.28285417 0.17936297 -0.06614426 -0.27019918 0.18602346 -0.81722647 0.9226846 -0.07022716 1.1690028 -0.622428 0.63963497 -0.7368393 0.6291505 -0.2530759 0.30087194 -0.5066139 0.4381995 -0.025805855 0.7737152
components 1.1318697 -0.21137993 0.060729157 -0.036659937 -0.25628313 0.24407351 -0.7745989 0.81646764 -0.1264519 0.90888935 -0.5280094 0.5848258 -0.76109093 0.71727854 -0.2944827 0.24907717 -0.48881787 0.4568746 -0.11616699 0.6516714
platelet 1.2733856 -0.2627199 0.045760386 -0.09409021 -0.3015358 0.23512 -0.89669585 0.91123307 -0.17384933 1.0623769 -0.59727913 0.5919348 -0.82324976 0.78715324 -0.3283363 0.29776463 -0.5759354 0.4694569 -0.1194075 0.74914116
contrast 1.1706613 -0.2588993 0.07378845 -0.14631909 -0.28972718 0.25076836 -0.84836906 0.8678421 -0.08621682 1.081058 -0.6051931 0.5294154 -0.7976108 0.6840809 -0.35185724 0.33015564 -0.5033211 0.44231045 -0.068671234 0.70932007
dependent 1.502423 -0.23591466 0.19172087 0.033465374 -0.10286896 0.3983221 -1.0042888 1.1402954 -0.16736223 1.4452658 -0.677588 0.72284526 -0.9872844 0.89524806 -0.25512713 0.38797677 -0.67041725 0.5902015 -0.118088335 0.99821806
mutation 1.2626389 -0.10551239 -0.045589752 -0.034047626 -0.19405669 0.48838446 -0.8360203 0.8487567 -0.16432117 0.71026725 -0.5324836 0.62608075 -1.093946 1.0226121 -0.29662204 0.11469433 -0.5204782 0.7475753 -0.15987976 0.640034
pollen 1.0232117 -0.25057667 0.18826306 -0.09306311 -0.21323352 0.24354003 -0.66826135 0.7922956 -0.025280956 1.0229195 -0.5627702 0.5649566 -0.6365541 0.52892834 -0.22189231 0.25134408 -0.41604394 0.3697771 -0.0062179314 0.65275633
family 1.1163083 -0.2607418 0.13661331 -0.11194594 -0.23478505 0.2345088 -0.76889724 0.8620011 -0.057120968 1.066531 -0.5732752 0.57538426 -0.73182213 0.61287457 -0.29279494 0.2761747 -0.46812168 0.40968302 -0.035018828 0.6930618
assay 1.0483812 -0.23614259 0.121725924 -0.042797986 -0.19566678 0.25752124 -0.6536698 0.7938578 -0.10241325 0.90293795 -0.508977 0.6005949 -0.6531344 0.6100534 -0.21560226 0.19160812 -0.4262982 0.4235528 -0.023113351 0.6049889
cellular 1.2588218 -0.31260943 0.16825472 -0.045119748 -0.21765758 0.22590841 -0.82013994 1.0151975 -0.09487415 1.1606531 -0.6493676 0.7237433 -0.7379922 0.6851416 -0.23948066 0.24978647 -0.49469906 0.46957305 -0.020702 0.77434844
suggests 1.196553 -0.2606402 0.15412734 0.06662992 -0.16402481 0.31544778 -0.6518514 0.88680613 -0.08935808 0.9896559 -0.529188 0.80000347 -0.7528974 0.6676931 -0.16681598 0.11279845 -0.39995465 0.54672325 0.04388215 0.6538839
contractile 1.0975643 -0.17637338 0.059449 -0.23477566 -0.2778614 0.27040604 -0.85275346 0.7697557 -0.052797582 0.98318267 -0.5775226 0.39777738 -0.80863637 0.686497 -0.3985396 0.35511068 -0.52210873 0.44948387 -0.11208429 0.6706094
peptide 1.3330083 -0.3242514 0.27074012 -0.03810414 -0.21984646 0.32891724 -0.81948364 1.0539783 -0.014777936 1.2913977 -0.71176404 0.8628415 -0.82471144 0.6639768 -0.22395487 0.24882846 -0.4609323 0.51337475 0.0520268 0.84113413
Thus 0.9057978 -0.23502779 0.1314475 -0.054887068 -0.19913068 0.13840333 -0.62184405 0.7150762 -0.061623428 0.9185503 -0.48763707 0.47731483 -0.5599939 0.45189583 -0.22104178 0.24636602 -0.3817117 0.29761866 -0.027866496 0.59643024
rabbit 0.96353984 -0.21584155 0.16779661 -0.10846338 -0.16788813 0.23493573 -0.65416986 0.7617102 -0.032507736 0.9634061 -0.51688415 0.5093357 -0.6261723 0.5215049 -0.24740387 0.24284679 -0.4070991 0.35863858 0.009390573 0.613825
consistent 1.2866608 -0.23802389 0.105172954 -0.05389946 -0.26162362 0.29003188 -0.87950295 0.9489282 -0.1385939 1.0846223 -0.5991064 0.68261516 -0.8567577 0.79545254 -0.3075388 0.28249234 -0.5611966 0.53777814 -0.091517806 0.76197463
thymosin 1.2143068 -0.28621885 0.031882882 -0.3457312 -0.41591656 0.16300203 -1.0293945 0.81858796 -0.13686131 1.17469 -0.61612004 0.2847483 -0.77369374 0.70864624 -0.48376292 0.5211326 -0.70329213 0.33077005 -0.21030426 0.79833025
Arp2/3 0.8609612 -0.23579521 0.14515167 -0.041089866 -0.19341336 0.15895617 -0.57579917 0.6888559 -0.02636005 0.87296546 -0.47148094 0.48820063 -0.50354964 0.4225282 -0.17083329 0.20260186 -0.33819363 0.30209577 0.009303394 0.5452917
birch 0.9238098 -0.22438103 0.16241838 -0.06949946 -0.22179386 0.16328216 -0.6383183 0.7192252 -0.040122155 0.8906858 -0.5050342 0.51090866 -0.5700381 0.48567432 -0.20053121 0.22110698 -0.38959703 0.31960347 -0.01451757 0.5946364
proposed 1.3220617 -0.2716022 0.167253 -0.050951783 -0.2897409 0.22639483 -0.8734097 0.9900792 -0.10381566 1.1028124 -0.68008775 0.7253106 -0.84399176 0.7550756 -0.2972344 0.27399772 -0.55895317 0.53266823 -0.09583893 0.8328584
cell-cell 1.0194131 -0.25932705 0.056331784 0.027314488 -0.16177493 0.13909163 -0.6164476 0.8211576 -0.15972391 0.86073697 -0.46650138 0.5792873 -0.55517715 0.5845107 -0.17543133 0.17812788 -0.3933821 0.37344927 -0.012126832 0.5890124
several 1.2478155 -0.29625097 0.14833997 -0.083401635 -0.26703784 0.23887788 -0.84553957 0.9766829 -0.07649888 1.1928986 -0.6485337 0.66673756 -0.7804489 0.6837324 -0.30418882 0.309036 -0.51552355 0.4451235 -0.031579364 0.7796165
T 0.48777857 -0.1745403 0.06688752 -0.07292341 -0.06718856 0.08570298 -0.3432457 0.41421828 -0.05995592 0.49587908 -0.29721642 0.29751778 -0.2674354 0.24552324 -0.12646383 0.10466577 -0.19559605 0.17378634 0.016389279 0.34695834
plasma 1.1404448 -0.26670086 0.062309194 -0.042141665 -0.27208734 0.13235469 -0.80690557 0.84927106 -0.1654812 0.9895844 -0.52538836 0.55149895 -0.6787794 0.686348 -0.2768773 0.27180347 -0.5221136 0.38830772 -0.10978208 0.71202224
S. 0.66296077 -0.22220485 0.12262689 -0.024753248 -0.18583521 0.094286226 -0.44995886 0.5584532 -0.022717856 0.74231476 -0.39085093 0.37734866 -0.33718583 0.28737026 -0.116724476 0.1947346 -0.25506002 0.22791429 0.047541514 0.48481327
cortical 1.3797847 -0.29911315 0.13184161 -0.059097786 -0.28066677 0.31146318 -0.91350275 1.0597175 -0.12557621 1.2039577 -0.66718096 0.7604836 -0.8950185 0.8125922 -0.31381953 0.28196022 -0.55129725 0.5447042 -0.04710013 0.8084863
together 1.1030775 -0.25222123 0.071825445 -0.04816701 -0.27355927 0.13352033 -0.7861047 0.8338063 -0.16031286 0.9882526 -0.52399015 0.54454243 -0.6780847 0.63909227 -0.27443182 0.2816425 -0.48758787 0.37702087 -0.08672435 0.6755303
accumulation 1.2035401 -0.12392115 -0.013254824 -0.08773764 -0.20163015 0.41969454 -0.8282665 0.81273216 -0.13994256 0.77715605 -0.53768045 0.54153764 -0.9779919 0.92027867 -0.29724193 0.19571237 -0.5223991 0.63945836 -0.15499829 0.65979147
syntaxin 1.0778582 -0.26012358 0.0501707 -0.14814688 -0.28587666 0.15467243 -0.81336325 0.7732644 -0.14188798 0.9883863 -0.532163 0.42576176 -0.67325205 0.625746 -0.31980535 0.32814515 -0.5370974 0.33244 -0.13380364 0.6677714
two-hybrid 0.9467053 -0.24836472 0.17834255 -0.061958175 -0.17814201 0.19747855 -0.5804554 0.7621466 -0.026012624 0.98438686 -0.49897754 0.54736894 -0.56948805 0.45345196 -0.2062037 0.21611066 -0.35002506 0.33364472 0.038736064 0.5881923
C-terminal 1.2079036 -0.26107097 0.14151882 -0.0728134 -0.24540417 0.22397551 -0.8094318 0.90231115 -0.08762416 1.0938435 -0.61219054 0.6048054 -0.771533 0.66213816 -0.29078898 0.29432127 -0.5066223 0.43391636 -0.0695947 0.7472109
ATP 0.8323023 -0.1913525 0.13129339 -0.104956746 -0.17578313 0.17839561 -0.54940784 0.6194692 -0.017989662 0.8473768 -0.44833842 0.40394947 -0.5253811 0.42795652 -0.21587078 0.23077269 -0.3243096 0.2983634 0.010329425 0.5423966
stimulation 1.3625407 -0.14946932 0.017765889 -0.09703684 -0.22057396 0.48644716 -0.94039 0.92869675 -0.12948744 0.9049814 -0.63310194 0.6476127 -1.1071343 1.0180597 -0.3297097 0.21785817 -0.5728971 0.7297469 -0.16012369 0.7445351
RIP 0.8336243 -0.23321886 0.13035539 -0.039168213 -0.19707055 0.12790355 -0.55973524 0.69833815 -0.06442709 0.8888529 -0.4575281 0.45501256 -0.48495564 0.3990969 -0.18309653 0.20304607 -0.35226694 0.2751096 0.0063453508 0.5737778
same 1.0301057 -0.22225393 0.104307294 -0.069555044 -0.21848863 0.20542361 -0.6962072 0.78451085 -0.0974296 0.93539125 -0.51022714 0.5245089 -0.63921183 0.5776129 -0.23039521 0.23161559 -0.4229566 0.34957495 -0.04478881 0.6291744
barbed 1.1785269 -0.2707974 0.12989542 -0.022568373 -0.18974657 0.26615298 -0.7266988 0.9277285 -0.11339479 1.0488338 -0.585427 0.69171536 -0.7444515 0.6641442 -0.23380305 0.2060659 -0.43874684 0.47380483 -0.012595028 0.6971478
investigated 1.1927603 -0.27323154 0.05875878 -0.007848964 -0.23292351 0.1861187 -0.76705056 0.9010649 -0.18805407 1.0184109 -0.52983457 0.64239645 -0.6923586 0.71086085 -0.24868278 0.23288496 -0.49595597 0.4550831 -0.05755272 0.6962884
characterized 1.2792209 -0.2503072 0.070937276 -0.13894267 -0.27370524 0.2944338 -0.8775709 0.9266597 -0.13243595 1.0896571 -0.6056978 0.59683603 -0.84883225 0.7909286 -0.3530259 0.30088004 -0.565068 0.5217596 -0.081199415 0.73476046
homology 1.1520134 -0.27753082 0.18628806 -0.030882599 -0.25371262 0.21408035 -0.7513096 0.9278775 -0.050141566 1.0955539 -0.62582487 0.6870361 -0.7001683 0.59187305 -0.21716827 0.23283815 -0.4410974 0.42660868 -0.021437025 0.7464996
low 1.114414 -0.26699343 0.18870854 -0.04214858 -0.23065329 0.2176876 -0.7345913 0.8947164 -0.059456937 1.0785149 -0.5779992 0.6243767 -0.6900467 0.5835038 -0.23531245 0.24791534 -0.44070846 0.43350333 0.0037301928 0.6976255
free 0.996821 -0.255 0.1501716 -0.08207434 -0.17589094 0.24199644 -0.6544492 0.7872495 -0.031033058 0.9868915 -0.5424183 0.55732495 -0.6417164 0.5243086 -0.24430485 0.23232627 -0.38733304 0.3760023 0.013347038 0.60484415
distinct 1.1681353 -0.2694348 0.14468785 -0.05365495 -0.23550789 0.24955696 -0.77788 0.908749 -0.091885515 1.0816694 -0.61447185 0.6552203 -0.7522487 0.6483225 -0.25599104 0.2457642 -0.47181663 0.44231638 -0.020706542 0.7258427
response 1.2523377 -0.2940539 0.13251378 -0.051375642 -0.2672927 0.21236052 -0.82889205 0.9670975 -0.118344754 1.1462923 -0.61098695 0.6851124 -0.7828529 0.7056458 -0.27323717 0.26565826 -0.5068284 0.4618524 -0.042737383 0.74239606
antigen 1.2603693 -0.33851114 0.17566672 -0.18007071 -0.29321137 0.19943136 -0.89368594 0.9799383 -0.08767243 1.2951787 -0.6790088 0.5932258 -0.7628121 0.6466843 -0.3259081 0.3835682 -0.5669199 0.41293895 -0.038242005 0.8215374
contains 1.1351722 -0.2517757 0.0797519 -0.17495623 -0.32317767 0.21380065 -0.8571872 0.8233823 -0.09856269 1.0586543 -0.5831825 0.48038927 -0.76866 0.6498162 -0.37026602 0.36404416 -0.5424933 0.38929427 -0.11607286 0.7082049
death 1.1263027 -0.2971334 0.1348023 -0.14649071 -0.24142049 0.21036913 -0.7778023 0.8826181 -0.068439595 1.157705 -0.6004129 0.5374697 -0.6987546 0.5935194 -0.31400573 0.3083669 -0.46676937 0.36148998 -0.010836878 0.7057206
fibers 1.2183443 -0.28310275 0.14469661 -0.064955175 -0.25357255 0.25356278 -0.7928936 0.9519617 -0.089080274 1.1427854 -0.62593114 0.71402436 -0.7789104 0.65366226 -0.25740945 0.25875467 -0.4764338 0.46207467 -0.020796312 0.74874353
rates 1.4479662 -0.29101214 0.08542685 -0.10997046 -0.31322014 0.29905373 -1.0192392 1.0700545 -0.1557371 1.2713145 -0.698332 0.71279067 -0.9845139 0.8756191 -0.38834903 0.36991513 -0.6510491 0.57014954 -0.08189855 0.88214576
actin-based 1.1328689 -0.11132099 0.19377841 -0.12761512 -0.19753446 0.35289812 -0.7757046 0.7955738 -0.0016458341 0.903432 -0.6173552 0.6034366 -0.83989286 0.67538345 -0.24890924 0.23249356 -0.50141674 0.54395235 -0.096391715 0.7175101
structure 1.1746597 -0.28684884 0.14537157 -0.075686365 -0.24761541 0.21459015 -0.78241295 0.89833844 -0.0996202 1.0959239 -0.603823 0.63752514 -0.7238558 0.6474597 -0.27908507 0.29089007 -0.47899833 0.41389376 -0.014772227 0.71930933
monomer 1.2743819 -0.22909902 0.18169546 -0.07072024 -0.26370585 0.34500867 -0.8220963 0.92972183 -0.058847934 1.0556984 -0.6596898 0.75412434 -0.88000786 0.7411416 -0.25468162 0.22020727 -0.4840353 0.5617458 -0.034592513 0.7603045
demonstrate 1.1511102 -0.272496 0.13068992 0.025435634 -0.20478505 0.23275013 -0.68665653 0.86464596 -0.11053249 1.021212 -0.5410872 0.6850679 -0.699847 0.64193916 -0.21192814 0.19759755 -0.4129172 0.46810967 0.03662644 0.6591806
functional 1.2994661 -0.23119123 0.14511822 -0.047659174 -0.22897808 0.33736742 -0.8264171 0.9581663 -0.080966115 1.0598757 -0.6332179 0.7143352 -0.9085046 0.78110504 -0.27863544 0.22800256 -0.49743533 0.5826145 -0.030177647 0.7415758
pattern 1.1522778 -0.25147226 0.08391917 -0.075455695 -0.2579591 0.20792912 -0.7925818 0.862285 -0.11096268 1.0450705 -0.55718726 0.5785276 -0.720015 0.64913493 -0.28111953 0.28380477 -0.49066678 0.4212377 -0.057318725 0.7053823
detected 1.2912292 -0.2570749 0.034877624 -0.055302177 -0.24642842 0.20867923 -0.8458653 0.979221 -0.22777212 1.0606003 -0.5754607 0.66365355 -0.766322 0.81780666 -0.3304025 0.2619164 -0.558326 0.5003429 -0.083125815 0.7292592
increases 1.0997726 -0.22970662 0.06237262 -0.038482256 -0.17386545 0.23485193 -0.7618488 0.8452894 -0.1389145 1.0373831 -0.5280605 0.5376958 -0.7126582 0.6596655 -0.2680196 0.2885564 -0.4823576 0.41415468 -0.07660906 0.70031756
loss 1.0046366 -0.2198299 0.05666651 -0.061180793 -0.22780108 0.17521471 -0.71552557 0.75070494 -0.12796772 0.9106934 -0.48602486 0.50886273 -0.61903703 0.6120444 -0.24207173 0.23718253 -0.44785354 0.3701804 -0.07451581 0.6296721
interacts 1.2351171 -0.16447799 0.12976487 -0.08333086 -0.25948578 0.30081028 -0.8470836 0.8679876 -0.10919388 0.93257654 -0.5824689 0.67320865 -0.8476447 0.78772837 -0.2870333 0.21798883 -0.523665 0.5764737 -0.12610236 0.6753107
CREB 0.92176366 -0.22259782 0.18039443 -0.058381435 -0.19208573 0.16416542 -0.62642026 0.71057016 -0.03538314 0.87531316 -0.50906324 0.50943303 -0.5581368 0.46059397 -0.19717349 0.23917909 -0.36418152 0.3155689 -0.0272921 0.60436255
deaminase 1.1275271 -0.2981079 0.20788811 -0.13781951 -0.23126785 0.15382941 -0.86332506 0.90309346 -0.05693689 1.3031873 -0.6296696 0.47873864 -0.69178736 0.53872097 -0.2774528 0.40933642 -0.5683705 0.32699904 -0.07874833 0.8384305
regulator 1.0729321 -0.17295048 0.056365985 -0.19128771 -0.26011443 0.27756694 -0.80103034 0.7376607 -0.06488234 0.9389673 -0.54781955 0.4294216 -0.80219 0.6850198 -0.31719178 0.30484954 -0.5122798 0.44730935 -0.11278803 0.6975366
manner 1.0451003 -0.26751652 0.15235417 -0.077734485 -0.22431616 0.20243247 -0.7126039 0.8203864 -0.056348085 1.0383824 -0.55394113 0.5664524 -0.64162594 0.5520129 -0.23927978 0.26315698 -0.43688127 0.36127672 -0.0123103205 0.6757118
seen 1.1150851 -0.28969666 0.15868339 -0.09637017 -0.24525075 0.1802669 -0.7426574 0.88766116 -0.07891715 1.1294061 -0.5806673 0.61590314 -0.65079194 0.5701862 -0.23524536 0.28893283 -0.48148125 0.36518937 -0.01246786 0.7162942
microscopy 1.0470927 -0.27438837 0.15354499 -0.0984551 -0.22932315 0.21585217 -0.70158255 0.83828694 -0.056398295 1.0428486 -0.55269474 0.5740849 -0.65335876 0.56576633 -0.25093612 0.25231585 -0.4334455 0.36679795 0.0017333064 0.6565903
against 0.9749058 -0.24497414 0.040368903 -0.096919306 -0.2690694 0.1371141 -0.71164244 0.7359767 -0.13006678 0.91850424 -0.46927652 0.43274018 -0.59205514 0.57071835 -0.29078206 0.28657708 -0.46403047 0.3082354 -0.07688605 0.6280578
mouse 1.2094935 -0.2891877 0.18172659 -0.071329236 -0.25636908 0.22223292 -0.82892215 0.96244454 -0.08153359 1.1875819 -0.61508477 0.6451404 -0.7576526 0.64423406 -0.2681497 0.28398734 -0.49968052 0.42714882 -0.016596682 0.77869934
phenotype 0.97997636 -0.268803 0.15070009 -0.11560828 -0.21294035 0.19568983 -0.6985431 0.79254895 -0.039743457 1.0546895 -0.52991897 0.5053096 -0.60757136 0.4898731 -0.26234668 0.28662854 -0.42177445 0.31296247 0.009504907 0.6553334
cycle 1.2397287 -0.2149591 0.12349007 -0.19993228 -0.1813856 0.31431758 -0.95721495 0.90720963 -0.14820763 1.3312345 -0.6297223 0.3758199 -0.83165246 0.73053586 -0.3788814 0.4750107 -0.6669353 0.4330929 -0.13230485 0.8776527
core 1.2751969 -0.271189 0.07687702 -0.045355693 -0.29476485 0.21834865 -0.85524577 0.9241108 -0.16718227 1.0680093 -0.60286576 0.6673277 -0.7905487 0.77541155 -0.3024325 0.2857708 -0.55617243 0.48171484 -0.08823222 0.72958857
properties 1.1493863 -0.2463889 0.17248671 -0.0937148 -0.2742295 0.2391877 -0.8020933 0.88088673 -0.050862722 1.0611826 -0.6265364 0.634502 -0.76835185 0.63035524 -0.27217025 0.28103778 -0.48492327 0.43457296 -0.062943734 0.7396946
could 1.0385361 -0.2329387 0.12861858 -0.05006422 -0.2278857 0.2164502 -0.705223 0.80697495 -0.07464583 0.9435445 -0.5418575 0.58008134 -0.65299976 0.5903301 -0.23090757 0.22798559 -0.4178081 0.40785643 -0.041876484 0.6306276
level 1.0863339 -0.26387265 0.042499837 -0.11164842 -0.2655525 0.13798659 -0.7893323 0.8205788 -0.13863073 1.0527712 -0.52017075 0.4337012 -0.6669404 0.62495965 -0.31440416 0.3119825 -0.496851 0.35738 -0.082017966 0.69692403
experiments 1.1708133 -0.22562912 0.10086691 -0.08812645 -0.21148811 0.3072584 -0.7695568 0.8774467 -0.09682323 1.0069934 -0.5639782 0.60734403 -0.79726416 0.7245704 -0.3077275 0.24286392 -0.483977 0.49238068 -0.04288547 0.66879654
decreased 1.1424015 -0.22588411 0.024859825 -0.018453218 -0.183826 0.20777714 -0.79134613 0.8619653 -0.20309263 1.0078152 -0.51270324 0.53493166 -0.709312 0.72398734 -0.26646572 0.2794994 -0.510638 0.42082146 -0.10932979 0.7036808
N-cadherin 1.429607 -0.3034992 -0.4861126 0.035997998 -0.6253175 -0.26697555 -1.2699782 0.77519804 -0.76439977 0.71960783 -0.35427645 0.2096132 -0.66495275 1.2133211 -0.41862795 0.43471196 -0.98332083 0.31286016 -0.71703905 0.8404148
chains 1.1915982 -0.24329324 -0.12008948 -0.56947416 -0.42314097 0.26706108 -1.106419 0.72374696 -0.14649594 1.2268165 -0.5582527 0.0053863525 -0.93342066 0.7672944 -0.7595321 0.68669075 -0.76906383 0.32888046 -0.19697839 0.7285338
microfilaments 1.2225311 -0.16761583 0.13740207 -0.10974894 -0.2181728 0.44770226 -0.7484436 0.87298644 -0.031500947 0.8898664 -0.5955827 0.7030891 -0.93394065 0.78356355 -0.28772184 0.15639529 -0.45424515 0.6137706 -0.037813965 0.64303714
differentiation 1.2372885 -0.18654265 0.034065265 -0.045978107 -0.18409827 0.3787819 -0.81073093 0.87281215 -0.15407413 0.87624204 -0.53632236 0.63667697 -0.9056842 0.878453 -0.2646275 0.1695655 -0.50805503 0.6159209 -0.11057887 0.6683702
Although 0.87032515 -0.2114583 0.07956825 -0.028115647 -0.18199526 0.15318187 -0.57628053 0.6825428 -0.0986115 0.81101954 -0.42178503 0.48130652 -0.51146823 0.47796008 -0.17536516 0.19223362 -0.35271376 0.30303356 -0.025319656 0.5440788
tumor 0.9556545 -0.2335084 0.15942396 -0.09162002 -0.19854543 0.14029342 -0.6935545 0.78878963 -0.057742476 1.0364275 -0.52268213 0.47747427 -0.56142193 0.47681263 -0.23053664 0.289767 -0.4239749 0.27486026 -0.034067042 0.6775453
strongly 1.122858 -0.26256832 0.16980948 -0.07953816 -0.20450217 0.25559372 -0.7212994 0.8542427 -0.06320534 1.0544268 -0.5743346 0.62142414 -0.7022748 0.59739316 -0.25195497 0.23868702 -0.4362036 0.42680848 0.013250119 0.67737633
subunits 1.0704795 -0.2559694 0.15691434 -0.049517002 -0.2264045 0.24035871 -0.7043844 0.8416373 -0.056466814 1.0045869 -0.55487776 0.6254018 -0.7002414 0.5855675 -0.242779 0.23376559 -0.40581897 0.42420882 -0.013208328 0.6571774
small 1.0420526 -0.25695428 0.10440946 -0.12651949 -0.2395299 0.15938392 -0.76582366 0.7919954 -0.09862649 1.0337362 -0.5224181 0.4612042 -0.6451197 0.5537777 -0.29972643 0.3083827 -0.4536697 0.34118026 -0.068983234 0.664461
component 1.1822264 -0.2235228 0.06188275 -0.017795594 -0.25209513 0.23997067 -0.8126025 0.85368854 -0.1488451 0.96989936 -0.53930324 0.6049016 -0.7789044 0.75521123 -0.28625384 0.27472225 -0.5201523 0.4778746 -0.12312249 0.69738907
via 1.0063128 -0.23336211 0.14530165 -0.09333559 -0.26248512 0.18141761 -0.7239828 0.7946166 -0.034659397 1.0526292 -0.5513274 0.52588135 -0.6453695 0.54599434 -0.2595524 0.297343 -0.447989 0.33034685 -0.04311983 0.66107374
cadherin 1.7313215 -0.3591367 -0.49831372 0.004386363 -0.7246184 -0.24988365 -1.4991899 0.97329146 -0.84530693 0.932334 -0.47466713 0.31447366 -0.83280474 1.4243178 -0.5134011 0.5142468 -1.1487002 0.41283557 -0.7858371 1.0154419
inhibits 1.0734891 -0.17159595 0.25565812 -0.025851281 -0.06040408 0.3727925 -0.68571496 0.855197 -0.042685002 1.105277 -0.532484 0.5857099 -0.7113758 0.5939791 -0.1367848 0.24018404 -0.46739903 0.46336648 -0.043757226 0.7475484
measured 1.2481295 -0.26688892 0.096790165 -0.045448232 -0.2221779 0.28557047 -0.7744306 0.9523205 -0.12239021 1.081031 -0.5912722 0.6937547 -0.7910333 0.7294963 -0.27788803 0.24731778 -0.48782977 0.489269 -0.008212112 0.7176169
vascular 1.1212769 -0.26895964 0.123369984 -0.14819025 -0.2633719 0.18901737 -0.80933356 0.85750115 -0.074000776 1.105863 -0.6092294 0.5307791 -0.70229775 0.6038582 -0.30297682 0.32416824 -0.49385467 0.36224952 -0.06747724 0.73536074
conditions 1.2152067 -0.21652234 0.10287902 -0.02863213 -0.24249655 0.31169885 -0.7919521 0.89188176 -0.09942301 0.9714212 -0.5878828 0.6802162 -0.8691465 0.7599547 -0.2686136 0.2201167 -0.48487413 0.5549438 -0.05868194 0.6848467
deletion 1.3468127 -0.17273153 0.019122584 -0.063950695 -0.22735402 0.4324595 -0.91163284 0.9274018 -0.14537124 0.93363 -0.6126564 0.66157013 -1.0600761 0.9693866 -0.3198652 0.2215763 -0.56851953 0.6849183 -0.14266819 0.7358849
development 1.1052729 -0.21190526 0.06391325 -0.16418141 -0.21731839 0.2685515 -0.7736935 0.79396594 -0.0946167 1.0006601 -0.5364772 0.4574398 -0.76776576 0.6686506 -0.35435575 0.31121036 -0.4877465 0.4342082 -0.051393382 0.6546715
organization 1.1810051 -0.12458788 -0.0027172724 -0.06645369 -0.19831976 0.45065942 -0.79373527 0.82093304 -0.1278685 0.73408675 -0.54305947 0.608138 -0.989464 0.89592665 -0.26259288 0.14201517 -0.47436994 0.6518679 -0.13030449 0.63367265
