5200 20
, 1.1091223 0.68057257 0.4246383 0.30759585 -0.19687441 -0.38934943 0.44735715 -0.3729682 0.38143146 0.40004572 -0.8253972 0.378164 -0.4382072 1.113968 -0.8549231 -0.062633425 -0.40938208 -0.96540964 -0.7260314 -0.6164878
of 1.0471545 0.7896234 0.21359931 0.5284559 -0.07641886 -0.25185695 0.16799264 0.038607612 0.56491494 0.57353795 -0.9644487 0.45082664 -0.115558445 0.7822424 -0.7716414 -0.48192534 -0.42842737 -0.9380835 -0.44069183 -0.28016436
the 0.9390741 0.8014564 0.2948136 0.48928156 -0.0020100176 -0.26879424 0.048131555 0.14865449 0.58990437 0.6182638 -1.0804925 0.48425427 -0.24953137 0.667323 -0.8285035 -0.51371425 -0.5725896 -0.92549056 -0.38172778 -0.33427593
and 1.1041071 0.80982226 0.3164045 0.44340342 -0.14117648 -0.3890242 0.306356 -0.1401098 0.5784252 0.42237392 -0.88680124 0.335805 -0.21446528 1.0458586 -0.93012154 -0.28102493 -0.45414224 -0.9469563 -0.7345664 -0.578107
. 1.0913957 0.7469273 0.21772899 0.5456163 -0.13554458 -0.26928055 0.19292507 0.071539335 0.60245585 0.53908503 -0.9322986 0.47207892 -0.17888749 0.8269411 -0.8591652 -0.3831587 -0.41753164 -0.8879642 -0.4893188 -0.29760936
in 0.86625236 0.9619994 0.14281237 0.3051727 -0.029503144 -0.5508596 0.15959188 -0.076336935 0.5529946 0.5211066 -0.98288536 0.4224614 -0.14321643 0.9173757 -1.1846194 -0.4338706 -0.5255618 -1.1154842 -0.91299593 -0.85666287
actin 0.9587429 1.104706 -0.020001043 0.56425095 -0.096536614 -0.57685786 0.039838538 0.27286837 0.8920833 0.49071905 -0.94128567 0.31327948 0.095740885 0.7825151 -1.1517564 -0.63564956 -0.5312483 -0.938911 -0.92994606 -0.67702097
to 0.9760065 0.7132405 0.29948187 0.4708382 -0.17133537 -0.28473744 0.100682236 0.0069850953 0.51028126 0.5952518 -1.0901268 0.5814623 -0.28664976 0.71800345 -0.83422637 -0.4742385 -0.58986956 -0.9605622 -0.28343317 -0.32559702
) 1.3204534 0.5824314 0.28793913 0.61514163 -0.37202552 -0.5118495 0.41777393 -0.14706561 0.3999216 0.19358695 -0.57506174 0.36599255 -0.31361654 1.0799935 -0.8973157 -0.036977977 -0.29955423 -0.9608357 -0.7688254 -0.34423208
( 1.4012668 0.63096744 0.30679312 0.5230139 -0.38203678 -0.20763464 0.57150626 -0.12070765 0.6251915 0.3311915 -0.5294921 0.2409541 -0.13106968 1.3105644 -0.8541111 0.25988603 -0.3446405 -0.85049856 -0.6113225 -0.26612976
a 1.0874095 0.7053243 0.36657342 0.53118753 -0.07745789 -0.19112341 0.16143335 0.13993208 0.57372314 0.6492119 -0.9883598 0.5738633 -0.29141456 0.69461066 -0.7059076 -0.42668018 -0.5551963 -0.83454615 -0.22640346 -0.1784593
with 1.0603855 0.742643 0.3172058 0.46668327 -0.0780531 -0.26334074 0.16379394 -0.049595118 0.5727875 0.55654573 -1.0301696 0.46270064 -0.19890445 0.8446546 -0.8804667 -0.4088616 -0.54411745 -0.9817352 -0.44530442 -0.3909405
that 1.0345174 0.6653393 0.44421518 0.5613144 -0.08572721 -0.16397618 0.09654885 0.088257544 0.47754794 0.7329266 -1.1412725 0.67670566 -0.4121069 0.72127384 -0.64944166 -0.51798093 -0.5533716 -0.97147316 -0.07104292 -0.0740649
profilin 0.8576775 0.8949959 0.12795532 0.6008413 -0.088089794 -0.50529456 -0.0784237 0.33713195 0.70795506 0.7149455 -1.138076 0.6309715 -0.21678622 0.5521337 -0.94178224 -0.7320955 -0.5883674 -0.9552989 -0.4273071 -0.30736795
for 1.0565096 0.7845248 0.26412627 0.5528144 -0.16814625 -0.25897178 0.15980129 0.0400727 0.53013116 0.5357241 -0.965702 0.4929123 -0.26487392 0.80542547 -0.8092462 -0.40814516 -0.49541232 -0.94992214 -0.399503 -0.29447308
is 1.1125209 0.7697025 0.32697582 0.5585887 -0.113112316 -0.27196592 0.1169967 0.03601063 0.5659224 0.61343664 -0.98161757 0.5463573 -0.22483125 0.75113153 -0.7661025 -0.53095996 -0.5719457 -0.9931151 -0.341858 -0.2384043
by 0.97784334 0.7316438 0.27302465 0.5648871 -0.1487728 -0.21188694 0.08654668 0.11025657 0.5617591 0.66509676 -1.0469842 0.57242084 -0.28737128 0.7136304 -0.74466985 -0.49663484 -0.47887868 -0.9123315 -0.26429462 -0.15224987
protein 1.1418015 0.75724787 0.18107663 0.63381386 -0.32586762 -0.62217385 0.32869148 -0.009570367 0.509921 0.45973775 -0.86801535 0.550502 -0.41008338 0.9642426 -0.99135405 -0.2163538 -0.4073852 -0.9470559 -0.7972931 -0.43649152
The 1.0811466 0.65823996 0.34562805 0.57251316 -0.08019964 -0.1824542 0.10291116 0.10874527 0.5659008 0.65267795 -0.9968966 0.5582084 -0.3032317 0.70082986 -0.7052553 -0.45996517 -0.50209075 -0.8911708 -0.16685967 -0.063547604
proteins 1.1025075 0.7346328 0.22843736 0.6313924 -0.2596567 -0.510009 0.24804592 0.035553083 0.49821994 0.5385341 -0.94800097 0.5782615 -0.4225085 0.84805745 -0.8761551 -0.2967661 -0.42008674 -0.90939325 -0.59629905 -0.2979555
was 1.0872958 0.7019929 0.30739206 0.42506394 -0.048789807 -0.25637612 0.18997167 -0.03994282 0.5079965 0.5014008 -0.9044302 0.43469572 -0.22473608 0.88883364 -0.8305522 -0.38953143 -0.50779533 -0.97023004 -0.491546 -0.34104648
beta-catenin 0.6806831 0.9428052 0.50710946 -0.12335548 -0.016030742 -0.7870621 0.4495961 -0.6946528 0.18650836 0.4770349 -1.1731014 0.43230456 -0.46040383 1.1679201 -1.3812766 -0.21509598 -0.7027534 -1.458284 -1.3220724 -1.531133
cells 1.0357625 0.6935095 0.39364675 0.52235115 0.010554969 -0.17922172 0.109484814 0.07630334 0.47431335 0.67553467 -1.0692353 0.5497285 -0.30731568 0.71214086 -0.71974635 -0.4177875 -0.5236198 -0.94711155 -0.22753577 -0.16593511
myosin 1.7311594 1.2681907 0.036128577 0.5730071 -0.013748153 -0.5021206 0.37144503 0.08602836 1.206359 0.11117675 -0.5385534 -0.1250792 0.43699288 1.6375108 -1.3025441 -0.348543 -0.42046985 -1.0054436 -1.4444168 -0.9475966
alpha-catenin 0.7765722 0.9804551 0.47816297 -0.08814445 -0.01240556 -0.7767964 0.4721737 -0.6665782 0.24926358 0.4306366 -1.1256895 0.38535115 -0.40097076 1.2236943 -1.3897406 -0.19061337 -0.6872899 -1.4474432 -1.3682811 -1.5420076
binding 0.78134745 0.96992487 0.13403293 0.5648292 -0.10576264 -0.6054056 -0.04111855 0.16384439 0.66866577 0.73525935 -1.2300185 0.6090383 -0.24145693 0.5058521 -1.0595394 -0.7984912 -0.58544165 -0.9964417 -0.57940894 -0.52737266
chain 1.7666874 1.2919259 0.08835365 0.57195497 0.013173939 -0.5236482 0.3915928 0.10399131 1.2733445 0.06565496 -0.51048505 -0.19012362 0.5542454 1.7039644 -1.3107836 -0.2995657 -0.44123846 -0.97714114 -1.5168283 -1.0567418
are 1.114958 0.71116894 0.3679177 0.5632669 -0.14479972 -0.20766535 0.10645951 0.066204205 0.49883842 0.6250158 -1.0976787 0.5790223 -0.31556988 0.7740164 -0.7315422 -0.44171166 -0.51054853 -0.9321872 -0.28639692 -0.22949138
were 1.1104075 0.6760568 0.35909578 0.44893897 -0.07573974 -0.26386315 0.2124567 -0.051960252 0.5126879 0.48929843 -0.8990378 0.4259592 -0.206271 0.93131614 -0.7828031 -0.30342692 -0.45328075 -0.9374033 -0.46420965 -0.38992998
cofilin 0.87860554 0.91349095 0.14045903 0.54241836 -0.044174988 -0.468906 -0.08164449 0.3054503 0.7243936 0.710705 -1.1149856 0.5897313 -0.16467051 0.58629954 -0.97671294 -0.71727115 -0.6034915 -0.9648459 -0.49034938 -0.38818008
as 0.9483264 0.7543945 0.31095502 0.37352067 -0.098940544 -0.34716612 0.120818585 -0.0014005844 0.4826866 0.71936333 -1.013516 0.5256504 -0.27514943 0.8123083 -0.90375465 -0.4754901 -0.5819117 -1.029673 -0.47473717 -0.38006175
heavy 1.7840612 1.2292511 0.060833797 0.659016 -0.111268744 -0.40982428 0.3722805 0.15215427 1.3182713 0.09160796 -0.42656994 -0.130313 0.56049377 1.6278344 -1.222627 -0.3729812 -0.4014036 -0.8873626 -1.3421096 -0.8606804
not 1.0660175 0.755898 0.37989277 0.42518064 -0.077835426 -0.24217112 0.24863492 -0.21276571 0.50952464 0.56603914 -1.0098898 0.5108084 -0.306213 0.841557 -0.84246796 -0.3602588 -0.49158946 -1.0688068 -0.42166486 -0.4757896
or 1.0725477 0.7817833 0.30378705 0.49934933 -0.18455108 -0.25332338 0.25071228 -0.068947464 0.51619434 0.52244234 -0.9271064 0.49227068 -0.26352185 0.92139345 -0.88731724 -0.2525882 -0.5098232 -0.9942913 -0.55777204 -0.3808129
on 0.82230186 1.0593458 0.01424301 0.5834892 -0.0532683 -0.44214457 -0.030561548 0.33943737 0.750425 0.5630424 -1.0371563 0.4349465 -0.020544749 0.618478 -0.9810452 -0.78261375 -0.45990354 -0.91975576 -0.68153304 -0.4371332
an 1.0699514 0.78160024 0.27898887 0.5639422 -0.15171038 -0.28894004 0.124535635 0.058456182 0.58378524 0.65123487 -1.0524391 0.5458813 -0.3143456 0.78502893 -0.78298914 -0.4694728 -0.5204424 -0.95338064 -0.35495275 -0.27500343
which 1.0427668 0.78534603 0.3652113 0.4884943 -0.102263615 -0.3194602 0.16594078 -0.058889203 0.5130568 0.60301846 -1.0897578 0.52664834 -0.32910094 0.81761956 -0.8329262 -0.4179138 -0.5413705 -0.9799786 -0.43502194 -0.403234
from 1.044823 0.7332138 0.32274005 0.5505933 -0.1064823 -0.23102732 0.13491423 0.04313975 0.54716814 0.6529906 -1.0720404 0.53706527 -0.29246923 0.7316038 -0.7556843 -0.46268177 -0.5179748 -0.93399215 -0.2865854 -0.20061818
cell 1.0201402 0.75797313 0.41264522 0.4609993 -0.004966733 -0.21632117 0.1286278 0.059816286 0.44767857 0.7510378 -1.1337025 0.5932997 -0.33638832 0.71650827 -0.7839091 -0.43905404 -0.58336794 -1.0079142 -0.2670414 -0.21887775
expression 0.9320863 1.074123 0.20970781 0.28181836 0.0548668 -0.4708934 0.27524024 -0.060630403 0.6342203 0.37543103 -0.87509394 0.25474393 -0.027718503 0.9892907 -1.1125822 -0.4232221 -0.5374291 -1.0973077 -1.0416156 -0.89640105
In 1.137644 0.7135732 0.35740793 0.5752027 -0.045701243 -0.16639301 0.14232312 0.091778435 0.575976 0.5916916 -1.0107145 0.5086651 -0.2562159 0.81766295 -0.6809861 -0.49389347 -0.49320617 -0.9576261 -0.22073972 -0.1413049
we 1.118781 0.6248262 0.5723811 0.48425898 -0.029512407 -0.21452367 0.08609815 0.055200882 0.51749593 0.67255485 -0.98016536 0.5865299 -0.33183214 0.88714236 -0.7158984 -0.43310764 -0.5833782 -0.97873974 -0.21184698 -0.20880745
actin-binding 0.87242335 0.95002013 0.14298941 0.6035004 -0.12526892 -0.50705713 -0.003706783 0.22012201 0.7019992 0.70721936 -1.1554058 0.56870097 -0.21569404 0.55730253 -0.9866611 -0.7100817 -0.56047904 -0.94467133 -0.5314158 -0.38793945
but 1.0987349 0.7842754 0.2943901 0.43560776 -0.11284847 -0.3320144 0.250093 -0.09497739 0.5187968 0.4814443 -0.96886253 0.4717395 -0.2636628 0.891471 -0.9583936 -0.3713763 -0.54591954 -1.004766 -0.6253129 -0.58101577
at 1.0761192 0.72728235 0.35896802 0.5388192 -0.08076108 -0.2302498 0.10920515 0.027187718 0.5829394 0.6046282 -1.0566195 0.53607064 -0.26128423 0.75481874 -0.739187 -0.4445037 -0.5092002 -0.9390194 -0.3370802 -0.2302229
complex 0.91803145 0.78968734 0.30972046 0.49788293 -0.07666974 -0.3553844 0.15989497 -0.027140127 0.48593667 0.6765412 -1.0908188 0.5503676 -0.34218717 0.680526 -0.8052561 -0.4991475 -0.5474858 -1.0158579 -0.38129553 -0.32904488
E-cadherin 0.8377622 0.9333408 0.4787597 0.051791094 -0.039759133 -0.7020046 0.44966403 -0.593043 0.27106005 0.4302018 -1.0691929 0.3928305 -0.40223032 1.1788158 -1.2879817 -0.22356215 -0.67800456 -1.4012727 -1.2355931 -1.297998
have 1.0864873 0.6871836 0.4718871 0.55649555 -0.07628283 -0.14778759 0.13168213 0.04676337 0.49305573 0.7311925 -1.1054326 0.6091494 -0.35156217 0.8015751 -0.68125576 -0.47120026 -0.56740075 -1.0105777 -0.18894997 -0.10241416
these 1.0037563 0.7640178 0.38612196 0.49809778 -0.043332137 -0.25806227 0.0807546 0.084526144 0.5332373 0.7049045 -1.1352766 0.56711805 -0.3360782 0.74045163 -0.8214652 -0.4887771 -0.6107826 -1.0048573 -0.31778145 -0.29675135
: 1.0210665 0.66191185 0.33912975 0.5126788 -0.12402062 -0.23586869 0.16717619 0.05503498 0.5736755 0.54438186 -0.8907722 0.40604186 -0.17055461 0.78365207 -0.74587345 -0.313224 -0.4370007 -0.86097777 -0.40655988 -0.15196055
talin 0.9433162 0.95359933 0.13316678 0.39405912 -0.071950585 -0.54923844 0.14942437 0.029943135 0.71768624 0.51064366 -0.9395132 0.37148544 -0.10944735 0.897691 -1.1098839 -0.47518322 -0.54720193 -0.980717 -0.8521583 -0.7346738
genes 1.1902616 0.82050323 0.29470778 0.5969761 -0.1499719 -0.32696187 0.27803466 0.008774028 0.54603755 0.49202242 -0.9683494 0.3903941 -0.31056756 0.9550971 -0.7690555 -0.39929596 -0.37998405 -0.8996414 -0.54715174 -0.34464687
muscle 1.523546 1.139111 0.0661771 0.63533694 0.014723214 -0.40447402 0.27788872 0.18470101 1.0981663 0.21325794 -0.59590644 -0.03461489 0.3736451 1.3383757 -1.1113966 -0.392591 -0.37940365 -0.871565 -1.0946587 -0.7451726
be 1.048715 0.80098253 0.40930474 0.5308556 -0.07144972 -0.28878874 0.062439878 0.00058388896 0.5294986 0.66731554 -1.1807411 0.6567057 -0.32572556 0.87254965 -0.8396368 -0.53828067 -0.5511976 -1.1143836 -0.34515214 -0.33750138
two 1.1484405 0.7952627 0.34389457 0.5848525 -0.10867711 -0.23488155 0.1483772 0.068653755 0.6195525 0.62586963 -1.0707806 0.52106535 -0.24510375 0.8085699 -0.7962947 -0.46313295 -0.54241383 -0.9150253 -0.3678473 -0.21388187
kinase 1.1843704 0.9114069 0.24599607 0.53202975 -0.24965583 -0.22890788 0.34070447 0.061870832 0.611044 0.6049438 -0.9439131 0.56001335 -0.2219048 0.94997436 -0.9914362 -0.3021103 -0.5092643 -1.013866 -0.55814236 -0.306826
; 1.1186342 0.59958535 0.37396827 0.51528037 -0.21365426 -0.24916251 0.29034185 -0.09330468 0.5121424 0.49937072 -0.9766479 0.4369843 -0.3347989 0.9033596 -0.7686436 -0.25667647 -0.41125894 -0.91159457 -0.3585552 -0.24088067
filaments 0.9096685 0.9059136 0.10566184 0.59697574 -0.020895254 -0.41027462 -0.0434358 0.26141757 0.7402856 0.63722765 -1.0583608 0.4888522 -0.064507276 0.5894952 -0.9101598 -0.66674906 -0.5204351 -0.8955697 -0.45974222 -0.3927902
between 1.0768929 0.7719239 0.3071092 0.50313765 -0.105772674 -0.3064933 0.17523351 0.00488505 0.55156416 0.5753981 -1.003955 0.49981964 -0.2697881 0.8504559 -0.84027463 -0.4468833 -0.49767822 -0.9621601 -0.4593914 -0.33494183
this 1.1324259 0.7639233 0.4474189 0.5924215 -0.053335346 -0.20659298 0.104640774 0.12386603 0.5423828 0.75609225 -1.1830531 0.6036234 -0.35781935 0.77028173 -0.7980324 -0.55649495 -0.6012516 -1.0645876 -0.21143976 -0.177658
also 1.0310369 0.7344889 0.3618779 0.46670276 -0.09254927 -0.2565687 0.14497696 -0.006081326 0.50188565 0.6179626 -1.0161284 0.5113496 -0.29873684 0.77687144 -0.80537564 -0.40519914 -0.5335256 -0.9739616 -0.35752544 -0.29638436
yeast 1.0742534 0.8018339 0.29723236 0.6173404 -0.10086992 -0.24066074 0.12296392 0.11556566 0.5971384 0.66821647 -1.0641086 0.56723285 -0.25634187 0.72453797 -0.74932444 -0.5258512 -0.5105585 -0.9337232 -0.32761127 -0.18855293
histone 1.0984848 0.5333169 0.51955384 0.5662431 -0.11049356 -0.043818567 0.25735655 0.04398722 0.35495612 0.68905467 -1.2911491 0.52748924 -0.47787 0.90919787 -0.74947375 -0.33540136 -0.50556654 -0.9617994 -0.14319906 -0.028161705
can 1.081302 0.79461277 0.36881855 0.5595022 -0.13848805 -0.28661734 0.10778332 0.054874312 0.59580755 0.67516893 -1.0916691 0.58533293 -0.29406172 0.78289145 -0.85086524 -0.5209528 -0.5943211 -1.0594857 -0.38332278 -0.3098846
polymerization 0.84457695 1.0202526 0.09931993 0.58885056 -0.04631314 -0.48625538 -0.029027881 0.28220525 0.71303153 0.62810427 -1.117837 0.4988692 -0.09503239 0.6065425 -0.98551685 -0.7291176 -0.50861424 -0.9755288 -0.6008406 -0.4643091
both 1.1322746 0.79617536 0.3269253 0.50895476 -0.07382282 -0.29429206 0.17035267 0.013175725 0.5805714 0.5019159 -0.9650354 0.41320953 -0.21574974 0.9081623 -0.8439508 -0.4003503 -0.48874882 -0.9736885 -0.48746195 -0.38639715
gene 1.1967909 0.7376932 0.3177093 0.60439086 -0.18512778 -0.30226097 0.295913 0.0019461807 0.50630385 0.51645714 -0.9781281 0.46778402 -0.35347387 0.94344515 -0.7525334 -0.375918 -0.40560293 -0.9014141 -0.45412067 -0.25629824
% 1.0770216 0.70636344 0.32774884 0.4854571 -0.11692192 -0.20792574 0.31396633 -0.039807014 0.4938956 0.385209 -0.83576435 0.37428337 -0.25932902 0.8317218 -0.7696018 -0.20412186 -0.3876736 -0.9379426 -0.5239563 -0.29731858
We 1.0404894 0.7030739 0.3539778 0.48555404 -0.09323343 -0.20987488 0.1204952 0.07960087 0.5167774 0.5861879 -0.9490995 0.51515186 -0.26679677 0.75867254 -0.7006238 -0.40538493 -0.4901193 -0.8977008 -0.24209815 -0.17594428
1 1.1928887 0.713459 0.28467008 0.6390672 -0.14522292 -0.3017492 0.26371604 0.029046047 0.60269356 0.49720365 -0.8059647 0.35696098 -0.16367659 0.909677 -0.74036956 -0.29977366 -0.42652804 -0.9230635 -0.409071 -0.16233832
domain 1.113589 0.83939356 0.26140448 0.5235451 -0.11934152 -0.39285704 0.18698384 -0.013389926 0.6254796 0.5418802 -0.9850056 0.46805507 -0.21316159 0.9140891 -0.9873789 -0.4240267 -0.55060357 -1.0195144 -0.6479314 -0.50348854
DNA 1.1819719 0.7870503 0.3525388 0.63282925 -0.1767807 -0.2341421 0.16950715 0.04373235 0.5709494 0.69925016 -1.1320112 0.5774182 -0.35046673 0.8198635 -0.7813219 -0.45924616 -0.47935578 -0.96701 -0.34730938 -0.15799083
its 1.066872 0.8618466 0.26210362 0.59133095 -0.08276426 -0.33781272 0.097725235 0.11029053 0.6195022 0.68728095 -1.129733 0.54049957 -0.24297048 0.7429551 -0.89840347 -0.57195145 -0.54775876 -1.0020492 -0.41725498 -0.36189285
human 1.1124699 0.7803475 0.30381948 0.5707189 -0.12166757 -0.2719452 0.14383309 0.049605623 0.5730963 0.605026 -1.0082548 0.5139304 -0.24377656 0.8047525 -0.779446 -0.45513803 -0.5040799 -0.98969567 -0.37586972 -0.2207383
RAD51 1.1160113 0.8852813 0.4460009 0.5336343 -0.24375686 -0.19048926 0.23744363 -0.14530341 0.37515602 0.6044916 -1.1110711 0.6059282 -0.49508223 0.8350712 -0.685254 -0.45698583 -0.3984329 -0.93950015 -0.48493776 -0.25435314
results 1.099679 0.78974897 0.3857283 0.58160394 -0.09282551 -0.26317906 0.09346343 0.13144109 0.5888659 0.72037 -1.1240677 0.6316651 -0.31517735 0.76402706 -0.80049056 -0.56133497 -0.60429275 -1.0304959 -0.25372452 -0.21224578
activity 1.0084167 0.84988046 0.22009881 0.59894943 -0.10129763 -0.28914475 0.069404274 0.17583762 0.6431989 0.6592618 -1.0916559 0.5507813 -0.21501878 0.66683155 -0.86472565 -0.57715815 -0.5493564 -0.9738781 -0.38191283 -0.21394816
cytoskeleton 0.9370738 0.8910913 0.14674792 0.52525455 -0.034823168 -0.38490078 0.051284317 0.1555707 0.6623538 0.5423585 -0.969731 0.4242392 -0.08474239 0.7197938 -0.8961639 -0.5687177 -0.46438777 -0.89981663 -0.5670265 -0.45761606
These 1.1469661 0.7173231 0.42682233 0.57670057 -0.08435529 -0.20235595 0.12010191 0.118494496 0.5615284 0.7570999 -1.112203 0.6402681 -0.36260632 0.7867869 -0.771089 -0.48636544 -0.6023677 -1.01408 -0.18520159 -0.12736969
interaction 0.8695206 1.0087912 0.13815321 0.55897665 -0.04463816 -0.44858938 0.030779514 0.19514853 0.6679366 0.62604505 -1.1331029 0.4894166 -0.17057028 0.6031349 -0.9676065 -0.6870273 -0.51279867 -1.0123017 -0.6250432 -0.4555065
assembly 1.0410258 0.86805195 0.2442953 0.5738316 -0.06534057 -0.3486578 0.05994525 0.15478528 0.65082777 0.63621 -1.0583974 0.5233762 -0.19310252 0.7619354 -0.8722253 -0.57332677 -0.5301151 -0.98222667 -0.44929448 -0.3334169
has 1.1066921 0.7640746 0.40961483 0.54901546 -0.111877605 -0.24934275 0.13703178 0.021798195 0.50669265 0.6969212 -1.0853591 0.59558076 -0.35023862 0.8350821 -0.81106526 -0.46508035 -0.58215415 -1.0120994 -0.314344 -0.23460388
plakoglobin 0.9025916 0.8810823 0.3544867 0.22478412 -0.080562524 -0.5676166 0.31905672 -0.32965025 0.40286556 0.44621244 -1.0022655 0.38902855 -0.29636893 1.0354598 -1.1071285 -0.2810728 -0.56896955 -1.1621096 -0.95947325 -0.9615094
cyclin 0.9915108 0.99926466 0.16851202 0.37072757 -0.12765703 -0.32005182 0.25248232 0.08197218 0.6208953 0.5632173 -0.97605103 0.5118202 -0.19107904 0.9262252 -1.1288375 -0.3612322 -0.56227654 -1.0840803 -0.78767276 -0.59126604
region 0.81180304 0.88483256 0.20516835 0.5077484 -0.040195882 -0.3645265 0.0321567 0.16336174 0.55934095 0.63024837 -1.0500073 0.52079356 -0.2080092 0.58469754 -0.8598937 -0.63562745 -0.50558585 -0.94912237 -0.48409757 -0.35232314
fimbrin 1.0563424 0.82229507 0.285147 0.47510394 -0.11238432 -0.4245836 0.21117635 -0.05086017 0.5767427 0.5150753 -0.9795753 0.46094716 -0.23790695 0.9061431 -0.966029 -0.4101021 -0.52624106 -1.0063139 -0.6483149 -0.5479571
been 1.1413386 0.8005117 0.45446035 0.53774506 -0.10113318 -0.29326198 0.15801008 -0.0028293259 0.52824396 0.6792734 -1.1023239 0.5968214 -0.3360895 0.9073025 -0.8126649 -0.5189615 -0.54934645 -1.0644221 -0.38512772 -0.29468775
other 1.0894821 0.81059915 0.38611966 0.51525325 -0.12567195 -0.35278666 0.18809345 -0.04179625 0.5411333 0.64482665 -1.1229962 0.5421125 -0.35911268 0.893941 -0.9195193 -0.43058434 -0.5687699 -1.0796794 -0.52576023 -0.4152833
RAD52 1.1249233 0.92096555 0.45851555 0.5507828 -0.24966608 -0.2513752 0.2818919 -0.1366884 0.42985514 0.60916924 -1.1478028 0.6174662 -0.5002106 0.8751774 -0.73139626 -0.4534548 -0.3983215 -0.9633128 -0.53183174 -0.311337
found 1.115466 0.782018 0.3824767 0.5523797 -0.07188543 -0.27256247 0.13414428 0.018627686 0.5540031 0.65780014 -1.125402 0.56286824 -0.31410325 0.8377463 -0.84780145 -0.50204957 -0.5797052 -1.0538986 -0.377203 -0.30162188
factor 1.135459 0.8096283 0.27868617 0.61732215 -0.17454489 -0.28095448 0.18137833 0.08854828 0.5960362 0.59453917 -1.0385953 0.54187536 -0.25935295 0.8322344 -0.89055735 -0.40714654 -0.5070548 -0.98550373 -0.4387337 -0.26023847
binds 0.87281835 0.8449295 0.22899881 0.48329124 -0.11464788 -0.46688542 0.07735688 0.012281817 0.57277995 0.6164236 -1.0891927 0.5395239 -0.2460893 0.6708702 -0.9542108 -0.5860473 -0.5567945 -1.0038533 -0.52374953 -0.51449674
virus 1.2286469 0.75041467 0.34623307 0.6912247 -0.16072604 -0.26182318 0.25166473 0.011528206 0.5687879 0.62235755 -1.0240532 0.5370726 -0.32907638 0.8920521 -0.75848234 -0.38777322 -0.50695294 -1.0485516 -0.35225403 -0.12396904
vinculin 1.0408373 0.90942067 0.22959706 0.44975516 -0.0974236 -0.48020217 0.18741305 -0.033808954 0.63337785 0.5147067 -1.0015049 0.44101065 -0.21683845 0.9219131 -1.0270522 -0.41903156 -0.52113485 -1.018796 -0.77216077 -0.65760225
inhibitor 1.0176203 0.891254 0.21700251 0.53602326 -0.18293895 -0.21896583 0.18224283 0.14849092 0.5890804 0.6696373 -1.061022 0.63996273 -0.266591 0.7674905 -0.9419159 -0.41252488 -0.54092383 -1.0313442 -0.4577171 -0.21337776
using 1.0030345 0.8218505 0.23737936 0.5700422 -0.054756477 -0.3354164 0.07369878 0.12749408 0.6169948 0.6370111 -1.0344807 0.5158282 -0.17853476 0.7071226 -0.82475275 -0.565386 -0.5016334 -0.9056696 -0.42097095 -0.29681596
P 1.1827784 0.6763699 0.3184228 0.57789457 -0.2141622 -0.3739121 0.3790183 -0.06280199 0.4974667 0.4132916 -0.7130833 0.39123034 -0.3454393 0.95870084 -0.7482773 -0.17477517 -0.3867402 -0.869999 -0.525464 -0.2316472
may 1.221443 0.8332993 0.3871875 0.61888933 -0.14298943 -0.31101036 0.08614482 0.12408333 0.66371167 0.7209115 -1.1855481 0.66045463 -0.31044826 0.86505604 -0.9116888 -0.5767609 -0.62640804 -1.1108518 -0.34907937 -0.25372154
A 0.9645533 0.6197556 0.28369623 0.4770731 -0.086007625 -0.19091219 0.18200912 0.052526332 0.4533073 0.44546124 -0.82856417 0.3423729 -0.21116666 0.7374203 -0.671229 -0.3481853 -0.41658297 -0.7710943 -0.3238924 -0.18436646
membrane 1.0744654 0.82188517 0.31438673 0.561269 -0.092119135 -0.31992537 0.14098674 0.06600626 0.5772723 0.6081952 -1.0686748 0.5084078 -0.2551124 0.8086495 -0.86222696 -0.48044816 -0.5306838 -1.0169917 -0.45536518 -0.33048016
bind 0.7959664 0.8253956 0.22105971 0.45013192 -0.106994696 -0.4926961 0.06392837 -0.013688967 0.5395636 0.6003428 -1.1005696 0.5431335 -0.2620459 0.6412918 -0.9668869 -0.58015877 -0.5578427 -1.0115002 -0.5573234 -0.5643504
it 1.1156236 0.8054762 0.2968998 0.560313 -0.092944145 -0.2853765 0.14244987 0.081237696 0.6013271 0.6327832 -1.0843683 0.5279623 -0.2422665 0.80077016 -0.83626974 -0.47397768 -0.5401634 -0.96666074 -0.3728938 -0.2676795
site 1.0714982 0.84243447 0.28790662 0.57333523 -0.12189136 -0.383813 0.10187344 0.07547119 0.625765 0.6919115 -1.1341134 0.5903608 -0.26325464 0.8139312 -0.9264744 -0.5742417 -0.5741009 -1.061876 -0.45712045 -0.32463795
I 1.0637561 0.7308065 0.2659599 0.5400291 -0.16665642 -0.27942163 0.14786395 0.075029224 0.64357525 0.52891946 -0.90724987 0.44409806 -0.17446615 0.8476984 -0.81828165 -0.4071714 -0.5015034 -0.90203136 -0.44334236 -0.23110287
identified 1.0800223 0.7781425 0.34667256 0.54695004 -0.06997241 -0.27422968 0.132856 0.08976432 0.58526444 0.65449214 -1.0757 0.5442851 -0.25673777 0.80724835 -0.82117295 -0.54459554 -0.5491134 -0.9933088 -0.37653002 -0.24006002
growth 1.1039194 0.7149336 0.3126687 0.53283757 -0.08533496 -0.21542132 0.16913132 0.06697166 0.5898543 0.52159184 -0.90455234 0.4203298 -0.19509622 0.8278258 -0.769409 -0.38760397 -0.47383052 -0.8947999 -0.37108937 -0.2156378
than 1.0595604 0.74718034 0.32273546 0.53713936 -0.08614071 -0.24987693 0.10323706 0.095592745 0.5750811 0.63750196 -1.0425211 0.53811955 -0.261035 0.7720125 -0.7544571 -0.49033576 -0.54149985 -0.99487233 -0.3006992 -0.23411745
into 1.0075974 0.76685613 0.27357814 0.55110407 -0.11964386 -0.24090552 0.10088422 0.07106083 0.5357102 0.63942236 -1.071206 0.55789006 -0.277396 0.7076345 -0.776329 -0.48492196 -0.49946877 -0.9705137 -0.30697545 -0.22416033
increased 0.9711951 0.778872 0.29400742 0.46866754 -0.07784418 -0.25690758 0.14430645 0.014631021 0.5077041 0.58152586 -1.018845 0.52616924 -0.24901702 0.7425658 -0.81080407 -0.47354734 -0.51823014 -0.9960742 -0.42687234 -0.33170852
sequence 1.0983167 0.80501145 0.295266 0.60527676 -0.09147669 -0.31231302 0.13935992 0.115556665 0.60798955 0.610805 -1.0490062 0.524282 -0.24641448 0.8070705 -0.81578934 -0.4947693 -0.52559084 -0.95968795 -0.4002245 -0.24894264
suggest 1.0581522 0.75521916 0.38664025 0.55149424 -0.050924 -0.24495496 0.06113269 0.118060544 0.5831513 0.72906965 -1.1076746 0.63905287 -0.31052595 0.73619986 -0.750529 -0.5567661 -0.62196654 -1.0323375 -0.23982312 -0.21517187
their 1.0101212 0.7079258 0.3377001 0.52498406 -0.054447416 -0.22042719 0.098142155 0.05286707 0.51863146 0.63366234 -1.0510894 0.5335615 -0.3029972 0.7127174 -0.77072376 -0.44295493 -0.5256101 -0.92811126 -0.29857406 -0.23583964
filament 0.95511514 0.9570504 0.12200213 0.6273273 -0.038224284 -0.41518986 -0.03467945 0.26958516 0.7673982 0.6793396 -1.12509 0.544859 -0.094313115 0.61794466 -0.9545615 -0.6957901 -0.5563263 -0.9634533 -0.47374058 -0.39974186
affinity 1.089384 0.7987499 0.30070472 0.6300566 -0.11290198 -0.2947202 0.103688054 0.10967608 0.5978503 0.69505095 -1.1269814 0.59855485 -0.2893897 0.7497205 -0.8378661 -0.55505776 -0.5569542 -1.0270547 -0.3209922 -0.20985107
Acanthamoeba 1.0001247 0.7421529 0.27691707 0.57178557 -0.103355184 -0.2544247 0.08812151 0.11550526 0.56463933 0.61842203 -1.0187927 0.5098809 -0.23153558 0.6789582 -0.7502776 -0.49663252 -0.49973276 -0.9150356 -0.30158457 -0.19012457
similar 1.0961012 0.75298864 0.35159993 0.5666661 -0.08623532 -0.2744216 0.1391228 0.03785917 0.55430835 0.6396127 -1.0562425 0.54945946 -0.29354903 0.7866718 -0.79484725 -0.48293933 -0.5450086 -0.99876934 -0.33801937 -0.23737967
involved 1.0795374 0.783178 0.36623883 0.5946507 -0.08961182 -0.23654945 0.070555344 0.10357544 0.5391183 0.7349997 -1.1728565 0.66388047 -0.33709428 0.7189857 -0.7994139 -0.5733269 -0.56884784 -1.0375456 -0.26596314 -0.18431388
role 1.1165978 0.81909144 0.30926052 0.6023151 -0.077874094 -0.2810343 0.13132417 0.107955076 0.6158497 0.6461951 -1.0458617 0.5330224 -0.23985334 0.8031657 -0.81715065 -0.529114 -0.5257719 -0.98112255 -0.35819766 -0.24205895
presence 0.95616907 0.87047076 0.26669097 0.5307061 -0.011280643 -0.35645768 0.086031474 0.1417133 0.61129886 0.5914531 -1.0433391 0.47149682 -0.19473694 0.73402816 -0.8671384 -0.5521892 -0.5362107 -0.97419655 -0.49809778 -0.3985439
UL8 1.1173102 0.82923067 0.35794687 0.57088536 -0.16231968 -0.40708175 0.24461131 -0.036180608 0.50809664 0.63090765 -1.1200696 0.5415911 -0.45262596 0.89434105 -0.7885746 -0.35804948 -0.4885587 -0.9858995 -0.4815815 -0.3590713
phosphoprotein 1.1563016 0.6957065 0.21647651 0.6090919 -0.29541308 -0.50131047 0.3332766 -0.03415553 0.4846012 0.4286571 -0.8110547 0.4937632 -0.34734166 0.9613967 -0.9307341 -0.17068477 -0.40021867 -0.9525338 -0.6905463 -0.36796507
during 0.96234834 0.86585087 0.21453674 0.5067776 -0.055164337 -0.38640407 0.11154014 0.080291145 0.6350213 0.53260094 -0.964418 0.43315753 -0.1365921 0.75789315 -0.8858123 -0.5303931 -0.4844008 -0.91126996 -0.5770485 -0.4520268
UL52 1.066005 0.86121994 0.35229605 0.54137653 -0.14147036 -0.4123875 0.266671 -0.028680729 0.5162643 0.59763235 -1.0763137 0.5149827 -0.45210454 0.85270506 -0.8029501 -0.35187384 -0.43734506 -0.9483839 -0.49535504 -0.38580522
repair 1.1024224 0.7892772 0.36031365 0.5864816 -0.123565495 -0.2117877 0.12846892 0.037970945 0.5196566 0.68748206 -1.1105032 0.5997083 -0.36302114 0.74050635 -0.7365414 -0.52244854 -0.49725387 -0.9495473 -0.29239115 -0.16492045
profilins 0.9100778 0.8019592 0.19542426 0.6282538 -0.10260738 -0.39315268 -0.046318267 0.2983336 0.64087224 0.72281253 -1.1182411 0.6335378 -0.2649868 0.54064435 -0.8137114 -0.6746287 -0.55004656 -0.91301113 -0.27386877 -0.14615701
vitro 1.0179975 0.76431155 0.27247012 0.5434845 -0.0828558 -0.2785941 0.12884413 0.06946354 0.5754248 0.54524624 -0.9727625 0.47201523 -0.2252756 0.7449083 -0.7884331 -0.4735753 -0.48336473 -0.90312314 -0.41570944 -0.2752265
type 1.3972025 0.88063127 0.35699728 0.68762654 -0.12589656 -0.28886688 0.2230675 0.043032553 0.7339954 0.6014035 -1.0035945 0.47022477 -0.18277708 1.0566201 -0.87173295 -0.45379934 -0.52740246 -1.0690223 -0.50812 -0.2194604
antibodies 1.1286333 0.82432467 0.29512462 0.5196111 -0.086151056 -0.330439 0.17471294 0.005579731 0.62097543 0.54235506 -0.9920194 0.44038236 -0.17890318 0.87172735 -0.87867486 -0.43841505 -0.51019204 -0.99497867 -0.50940144 -0.40405563
beta 1.2288876 0.97990096 0.40040666 0.4501433 -0.10566147 -0.49279183 0.2985775 -0.1763093 0.63272756 0.55791223 -1.1356069 0.46496075 -0.2573886 1.211578 -1.1728514 -0.37677133 -0.59730095 -1.2365626 -0.8480131 -0.78083223
associated 0.98034114 0.8713219 0.33051878 0.4107961 -0.038546562 -0.3545041 0.15469314 -0.05362813 0.5068981 0.66519123 -1.1626499 0.5393678 -0.30225855 0.803806 -0.9635274 -0.52870363 -0.60074025 -1.1389581 -0.5350668 -0.5058032
required 1.0621139 0.79135585 0.33532318 0.5763434 -0.1086408 -0.27775308 0.117486574 0.050035667 0.5258388 0.6496392 -1.0989674 0.58844024 -0.309495 0.7530515 -0.78442246 -0.52953607 -0.5298133 -0.983073 -0.3482532 -0.26496798
UL5 1.1486458 0.91022193 0.39075556 0.5847499 -0.1275707 -0.44430998 0.25824407 -0.0042997687 0.5197922 0.65254223 -1.1483476 0.5346928 -0.48961094 0.8953557 -0.8426728 -0.36574483 -0.4753017 -0.9831337 -0.5177859 -0.37003323
2 1.1102507 0.6892256 0.29253668 0.5079562 -0.15752374 -0.1958201 0.19100535 0.014800601 0.55671585 0.46871275 -0.8273434 0.41370732 -0.20576863 0.88525116 -0.7733845 -0.33238852 -0.42437792 -0.89565086 -0.40706044 -0.22082718
function 0.86093545 0.937359 0.2149038 0.5828647 -0.038590383 -0.35705268 -0.005516025 0.23004824 0.62563443 0.6797095 -1.130633 0.5490065 -0.2243409 0.5622178 -0.86284626 -0.70965993 -0.5443818 -0.99267054 -0.43894196 -0.29846272
effect 1.0702093 0.8251171 0.20870957 0.5851843 -0.079694964 -0.2945087 0.08991012 0.14039126 0.67574424 0.5663206 -0.9579223 0.4668858 -0.15591165 0.7585603 -0.8147575 -0.50866395 -0.49683166 -0.92741776 -0.42368066 -0.25450337
microM 1.2170433 0.80234927 0.3145374 0.63077706 -0.14687897 -0.26085874 0.18391128 0.078928016 0.63187915 0.64524895 -1.0645268 0.57594115 -0.276953 0.8632506 -0.84667146 -0.43760324 -0.52150154 -1.0237203 -0.373662 -0.23640507
containing 1.1165259 0.88583183 0.2897679 0.54117346 -0.09348178 -0.39153343 0.15979116 0.0062680696 0.6621032 0.58463365 -1.0421982 0.4571292 -0.19217443 0.883103 -0.9437889 -0.48777786 -0.5209492 -1.0093354 -0.59272724 -0.46955544
cyclin-dependent 1.0531543 0.9137679 0.23884715 0.48937303 -0.15410937 -0.2179765 0.2077428 0.12087208 0.57847965 0.66559887 -1.0613602 0.61643463 -0.25746414 0.8267528 -0.9828091 -0.42264202 -0.5526064 -1.0700634 -0.49621284 -0.32477337
shown 1.0979816 0.7148183 0.38824195 0.55592036 -0.07886855 -0.18036778 0.085162155 0.06202563 0.52931654 0.6931635 -1.0853875 0.60673577 -0.3193551 0.7530796 -0.72772497 -0.50812095 -0.5614889 -0.9870361 -0.19734931 -0.122185014
sites 1.0924886 0.8482274 0.27945867 0.5831417 -0.09657261 -0.32765695 0.13082176 0.083961315 0.627826 0.6279869 -1.0871948 0.49174225 -0.21687753 0.82144445 -0.9031118 -0.53962857 -0.55077404 -1.0201815 -0.47435412 -0.32880697
complexes 0.9407499 0.8027547 0.30790937 0.47703844 -0.08207616 -0.3540632 0.16304335 -0.04043736 0.5007657 0.63017136 -1.060409 0.5133454 -0.3067483 0.72795653 -0.8471948 -0.46685627 -0.5363995 -1.0111246 -0.45755354 -0.39356706
synthesis 1.2330292 0.9091689 0.31109852 0.5897934 -0.096618496 -0.3155095 0.1840346 0.073972024 0.6904677 0.591267 -1.0441841 0.45747903 -0.20103124 0.9442589 -0.9201292 -0.48403767 -0.5480121 -1.0282274 -0.5527927 -0.3837649
adhesion 0.94187313 0.9417271 0.3020034 0.4226854 -0.023358846 -0.41305444 0.18379828 -0.009838565 0.5477709 0.5711297 -1.0664968 0.45637953 -0.2217959 0.83967453 -0.9923518 -0.5045974 -0.56276613 -1.1102628 -0.6828097 -0.5833562
whereas 1.0546017 0.7489972 0.35460514 0.4720928 -0.09538537 -0.27377737 0.19482124 -0.05362503 0.5218605 0.5839232 -1.0226417 0.49994034 -0.29065996 0.8639696 -0.83145773 -0.4097866 -0.51342005 -1.0090442 -0.4430085 -0.35167494
three 1.1689957 0.7629385 0.36895448 0.6010583 -0.08720041 -0.23243028 0.14639671 0.08038094 0.59363 0.6523353 -1.0941882 0.5566142 -0.31447956 0.84061587 -0.7954663 -0.47861713 -0.5399892 -1.0172304 -0.32993603 -0.2114057
molecules 1.0494703 0.79691994 0.32156578 0.526572 -0.09211223 -0.3121328 0.15571216 0.036309853 0.5372903 0.5992667 -1.0494881 0.49825174 -0.30378172 0.794149 -0.83119494 -0.44777492 -0.53065073 -0.999366 -0.4416388 -0.3225182
skeletal 1.1413957 0.9883015 0.15602386 0.5706514 -0.044018216 -0.41860202 0.13022453 0.11510723 0.79561424 0.4550672 -0.8919602 0.32857677 0.005807022 0.9510383 -0.98939276 -0.51177776 -0.46618226 -0.9321633 -0.735128 -0.5732994
effects 1.0812533 0.8348001 0.2369175 0.59390813 -0.08342456 -0.30318436 0.0927667 0.13751948 0.66749585 0.61507607 -1.0232708 0.50891894 -0.19100189 0.7586134 -0.83451796 -0.53127736 -0.52164274 -0.9662204 -0.40838167 -0.2652732
isoforms 1.2061598 0.8520229 0.19818325 0.520156 -0.060724106 -0.30375543 0.21679927 0.09060888 0.75847465 0.37814087 -0.7504471 0.2359604 0.025837123 1.0131124 -0.87129295 -0.37155756 -0.43299824 -0.8641698 -0.67159927 -0.44064212
show 1.2034777 0.77540785 0.45075485 0.6315823 -0.09258497 -0.20625353 0.078540795 0.09044567 0.6055567 0.7795524 -1.1820445 0.68342155 -0.36878803 0.8254927 -0.7652352 -0.5632678 -0.6335877 -1.0909275 -0.1920115 -0.113235354
high 1.1393098 0.7774716 0.3248463 0.5744515 -0.098709434 -0.23851298 0.16866949 0.046346273 0.59749424 0.6342172 -1.0781492 0.5123197 -0.26774588 0.85176736 -0.82956964 -0.45001784 -0.53221285 -1.010538 -0.40346453 -0.22550629
form 1.0620173 0.8001042 0.28530282 0.50042343 -0.114954375 -0.30833885 0.15751065 0.04904604 0.6057427 0.55334306 -0.97145844 0.44009826 -0.19664961 0.8532959 -0.8543163 -0.45196745 -0.5034404 -0.959121 -0.45731032 -0.367356
formation 0.8553778 1.0584394 0.14246303 0.5591621 -0.01939451 -0.46790022 0.003429757 0.23687598 0.6831313 0.62358326 -1.1307776 0.4700455 -0.114341736 0.64123124 -0.9914354 -0.71795446 -0.5282578 -1.0342803 -0.6334813 -0.49909332
nucleocapsid 1.0949047 0.66191596 0.27480385 0.56211597 -0.2311608 -0.34924877 0.29458332 -0.03287118 0.47799408 0.43964937 -0.7908901 0.46192294 -0.3090162 0.88019365 -0.8020777 -0.22199708 -0.38939813 -0.90112543 -0.49159703 -0.27926263
domains 1.0963564 0.77135295 0.2907346 0.56107974 -0.1123942 -0.30303764 0.13940826 0.036922302 0.58111924 0.58526415 -0.99943495 0.4948171 -0.26981673 0.8127526 -0.84219104 -0.44168314 -0.51827776 -0.95380014 -0.42975503 -0.300306
functions 0.9423867 0.8163781 0.30508047 0.5658448 -0.07076742 -0.27860686 0.06174995 0.14115056 0.55960333 0.6684729 -1.0995908 0.5511858 -0.30097416 0.6413002 -0.78751165 -0.5890836 -0.5252728 -0.9672234 -0.34193605 -0.20826879
nucleotide 1.1667833 0.80975765 0.3061292 0.63315576 -0.1576822 -0.31748196 0.19858362 0.0619942 0.59445953 0.60987103 -1.0362644 0.5816445 -0.30533925 0.87616926 -0.8856561 -0.43838766 -0.49895543 -1.0244597 -0.4320855 -0.26373708
H4 1.0563695 0.601676 0.3983935 0.5306211 -0.14687215 -0.1070874 0.18804574 0.030923668 0.41675258 0.5906725 -1.0941746 0.46586603 -0.35287023 0.86660016 -0.70904016 -0.36655205 -0.4435007 -0.9169541 -0.23529659 -0.10554783
mutant 1.078881 0.8034129 0.30899447 0.579058 -0.109580904 -0.31259137 0.12412572 0.06342681 0.58368075 0.6202604 -1.054256 0.5383668 -0.26422587 0.76177436 -0.82928133 -0.5103958 -0.54383415 -1.0013752 -0.4021571 -0.29114202
such 1.1473174 0.847056 0.36809617 0.5767479 -0.11528118 -0.30684334 0.15100184 0.08241219 0.64221644 0.72331774 -1.1507255 0.5875536 -0.28132352 0.8583378 -0.8914797 -0.5133283 -0.57614046 -1.0335369 -0.40599144 -0.2637832
vivo 1.0368255 0.7381373 0.27136678 0.5376718 -0.08708659 -0.2913665 0.17340787 0.047487713 0.55639774 0.5463224 -0.95531917 0.4654789 -0.25123847 0.7734905 -0.7682035 -0.4219681 -0.46730432 -0.93656325 -0.43636388 -0.28112605
study 1.1365832 0.75945336 0.3605599 0.56246066 -0.06269225 -0.2222448 0.12620048 0.09046796 0.595399 0.658454 -1.0610849 0.5588644 -0.28649658 0.82227665 -0.8007624 -0.5158404 -0.56337607 -1.0232027 -0.30557308 -0.21817333
different 1.0901225 0.825521 0.31290278 0.5739197 -0.074928425 -0.2647611 0.11937157 0.07555126 0.5915974 0.6568172 -1.0793694 0.5488324 -0.24542955 0.79666114 -0.84624124 -0.5240659 -0.5377501 -1.015555 -0.39914367 -0.27386025
receptor 1.1047995 0.7532181 0.34591314 0.5819744 -0.1535205 -0.24180509 0.16286793 0.03269461 0.5152089 0.6481946 -1.0588217 0.5940609 -0.32399467 0.7995029 -0.7989967 -0.41601807 -0.5077083 -0.98752064 -0.318848 -0.19082835
cytoskeletal 1.1249093 0.987886 0.1835464 0.59002423 -0.051808756 -0.42451158 0.09720539 0.13006361 0.76587456 0.56482726 -1.0247731 0.43378732 -0.07521969 0.8885631 -1.0046419 -0.57623345 -0.5128553 -0.99754375 -0.67473173 -0.5364972
expressed 1.0127776 0.92040396 0.296118 0.38065165 0.020053815 -0.36179137 0.21342856 -0.04283651 0.574531 0.4979751 -0.9558989 0.39703074 -0.15168339 0.9231306 -0.94731677 -0.43482727 -0.5443187 -1.0629592 -0.71147776 -0.6204925
showed 1.087464 0.75204647 0.39983475 0.57450676 -0.053499624 -0.22468045 0.07412313 0.06268468 0.5474464 0.724358 -1.1303643 0.6226767 -0.33294508 0.7642477 -0.769959 -0.5373496 -0.5965344 -1.0433645 -0.23695575 -0.17965135
interactions 0.926291 0.915262 0.21025044 0.5504158 -0.06458551 -0.383069 0.07384217 0.13462733 0.61761224 0.62142545 -1.1078373 0.49613497 -0.22764982 0.65515804 -0.90371954 -0.60214907 -0.5037768 -0.9915313 -0.5399336 -0.37847385
3 1.0675462 0.61782146 0.30435526 0.55130595 -0.10941057 -0.17211367 0.14775556 -0.010838989 0.53896546 0.5244679 -0.9389833 0.46073467 -0.29518205 0.77547336 -0.74228203 -0.33413675 -0.46505243 -0.84408534 -0.29208246 -0.14448929
[ 1.0439487 0.6386788 0.2957996 0.48080128 -0.17527798 -0.19357532 0.18235359 -0.02462125 0.5309851 0.53138053 -0.88249683 0.4270205 -0.24091385 0.7638007 -0.6254583 -0.2781842 -0.4301173 -0.8527207 -0.2770572 -0.11906936
] 1.030045 0.6019561 0.29370445 0.51507026 -0.10339469 -0.17362297 0.21669811 -0.017931253 0.5216104 0.4681669 -0.78686255 0.44788557 -0.23294996 0.75123 -0.6310262 -0.2995693 -0.44279718 -0.8277222 -0.32303983 -0.1131175
one 1.1471852 0.70194 0.399506 0.62527514 -0.12243954 -0.22757694 0.1974014 0.07787078 0.5126694 0.66051376 -1.1904935 0.52836215 -0.35892877 0.88771355 -0.84248525 -0.4345253 -0.5182084 -0.99103355 -0.32398275 -0.1543485
H3 1.1299891 0.6302488 0.4236703 0.5699638 -0.14106703 -0.12514603 0.22351536 -0.0056038713 0.47740465 0.6616731 -1.1386231 0.48827764 -0.38646024 0.86519647 -0.74791956 -0.36763895 -0.48435456 -0.93267787 -0.26040426 -0.10552524
mutations 0.87388635 0.8774742 0.23957708 0.50898504 -0.021657838 -0.3587721 0.062639855 0.13774934 0.5762633 0.5902769 -1.0390022 0.45816582 -0.20249669 0.64757067 -0.842445 -0.5872584 -0.4979047 -0.94670326 -0.50819725 -0.36586747
only 1.1130687 0.76589453 0.3005067 0.597299 -0.093956 -0.25592926 0.1402735 0.08376144 0.59622633 0.62207 -1.045984 0.5119346 -0.26389563 0.8163424 -0.8257986 -0.475578 -0.51871973 -0.9616705 -0.40049556 -0.26345342
activation 0.8266433 1.0429491 0.10824991 0.5829755 -0.036634777 -0.4459659 -0.024464138 0.2869632 0.6965542 0.6557938 -1.1341672 0.49736246 -0.13467869 0.56928414 -0.98098665 -0.7316902 -0.5368982 -0.9996642 -0.5860266 -0.40574756
levels 1.1122704 0.7820085 0.29823035 0.5307569 -0.06589662 -0.25562766 0.17823836 0.028662022 0.58949804 0.5599131 -0.9908179 0.47877884 -0.21725754 0.86108476 -0.834564 -0.424187 -0.50281143 -0.98024637 -0.455312 -0.3270157
Here 1.1781585 0.7088876 0.39451668 0.5766282 -0.104947 -0.22136699 0.16256069 0.032123413 0.5401439 0.6533035 -1.0681603 0.5798153 -0.3028549 0.8593565 -0.7558679 -0.42901477 -0.5310731 -1.013356 -0.28933227 -0.20118295
N 1.0730283 0.55140316 0.24965471 0.540311 -0.16038193 -0.28967372 0.26701716 -0.028845463 0.39816445 0.40639585 -0.7297186 0.47029206 -0.3303619 0.7981037 -0.74166936 -0.23407504 -0.3784266 -0.8335941 -0.45538342 -0.18043375
regulation 0.8689887 1.1456642 0.10226298 0.5898752 0.003921441 -0.5110776 -0.041573662 0.28373656 0.7619097 0.6421358 -1.1449994 0.4793432 -0.07476872 0.66033983 -1.065159 -0.800982 -0.5601822 -1.0609766 -0.73739994 -0.5789029
MSH2 1.1018142 0.7308603 0.38499138 0.53874034 -0.14323781 -0.2169285 0.19374245 -0.005477404 0.51664394 0.61451334 -0.99779147 0.56434757 -0.3419856 0.8207722 -0.7559467 -0.40157083 -0.45046672 -0.91983736 -0.32607475 -0.2247787
mutants 1.0341122 0.76161045 0.28317606 0.56290454 -0.09336108 -0.29601482 0.10954485 0.08799438 0.5701811 0.6029594 -1.0045534 0.49930936 -0.23083459 0.73076886 -0.7844138 -0.50167066 -0.51217693 -0.9308178 -0.37153548 -0.2633272
ability 1.145023 0.86104476 0.30694643 0.63122994 -0.107675105 -0.3169241 0.10365963 0.09586355 0.64504397 0.71189815 -1.1932132 0.60388166 -0.28284734 0.8016426 -0.9003802 -0.58974826 -0.58531135 -1.077132 -0.38650987 -0.25964212
isolated 0.96501917 0.77824616 0.28700522 0.43901905 -0.01992275 -0.28560627 0.12528348 0.019956358 0.5268921 0.56125367 -0.99004894 0.44016284 -0.2079346 0.78660995 -0.82452554 -0.4860867 -0.5141276 -0.96857095 -0.48543358 -0.39725986
gelsolin 0.9728702 0.82869285 0.21627481 0.46581522 -0.10323643 -0.39284396 0.14442559 0.066794485 0.62250715 0.5571281 -0.97413415 0.45297027 -0.18071707 0.8077851 -0.93238986 -0.4508497 -0.5071402 -0.95242155 -0.6031437 -0.46877503
smooth 1.4128425 0.9860077 0.19102447 0.545091 -0.03176659 -0.3514108 0.26214892 0.05129696 0.88949746 0.2655588 -0.66965324 0.10830488 0.14008564 1.2350448 -1.0025312 -0.32858735 -0.44374537 -0.91673326 -0.88609046 -0.64398247
exchange 1.0357829 0.7691644 0.2632376 0.54356086 -0.0803696 -0.27314934 0.10786682 0.087137744 0.5916238 0.55486137 -0.96037364 0.47692165 -0.199027 0.7779659 -0.7782245 -0.4739361 -0.48202088 -0.92290354 -0.38938218 -0.26101914
all 1.3461192 0.98722154 0.41087776 0.54435664 -0.06589856 -0.36763066 0.2772505 -0.059922345 0.67507476 0.65611374 -1.1821518 0.53818494 -0.2848379 1.1379329 -1.1095234 -0.4640954 -0.6516585 -1.2425973 -0.6639428 -0.5625564
known 1.0532104 0.7085354 0.34523723 0.51953405 -0.10240172 -0.23403335 0.14964657 0.019243028 0.50765306 0.59736 -1.0146359 0.5299012 -0.28002897 0.7575834 -0.76255757 -0.42740858 -0.50542086 -0.9321979 -0.3256893 -0.21817128
interact 0.94539326 0.8380607 0.22664043 0.53014237 -0.08915912 -0.34957102 0.10248257 0.067015275 0.5674145 0.6162425 -1.0804361 0.51409096 -0.24948911 0.65737814 -0.8547593 -0.5353064 -0.4896591 -0.9703439 -0.4715567 -0.35322392
lines 1.3438369 1.0821894 0.3781614 0.6826335 -0.09493571 -0.40727413 0.16698645 0.09261456 0.7299438 0.7765905 -1.3077772 0.593189 -0.30942968 1.0210967 -1.0846615 -0.61579376 -0.6429691 -1.2544758 -0.599254 -0.4159919
adenosine 1.1925013 0.7833655 0.32990986 0.58335966 -0.13424002 -0.2604491 0.21651325 0.044210482 0.5848216 0.5765846 -1.0063334 0.5153241 -0.25629184 0.9148126 -0.8593682 -0.40521857 -0.5105737 -1.0008805 -0.43606588 -0.25696084
TRADD 1.108604 0.7152427 0.37904346 0.54737353 -0.15832397 -0.22611377 0.17978679 -0.02376564 0.5112478 0.6311504 -1.032656 0.5376026 -0.36472368 0.8003758 -0.7993349 -0.373028 -0.49073565 -0.9446842 -0.34492865 -0.20400003
4 1.0336239 0.6959942 0.32797477 0.57032394 -0.1800911 -0.24038306 0.17931417 0.05720771 0.48889303 0.53668535 -0.9283314 0.48424834 -0.2534498 0.7793101 -0.7674549 -0.34959954 -0.42592752 -0.9017137 -0.34886974 -0.2021268
induced 1.1012771 0.8678137 0.3397401 0.5849864 -0.06889576 -0.29721892 0.12731098 0.06416525 0.58453757 0.73393214 -1.2175561 0.64077055 -0.3180278 0.8036548 -0.90416044 -0.576424 -0.60706246 -1.1276314 -0.38721836 -0.29833567
addition 0.77386636 0.86818874 0.17824218 0.52030367 -0.022810828 -0.35718066 -1.5508522e-05 0.20246512 0.5821447 0.5931598 -0.9859967 0.46801257 -0.15278839 0.5537174 -0.8363998 -0.6289766 -0.48962247 -0.90622973 -0.46330696 -0.34511247
kDa 1.2029727 0.69562906 0.33403105 0.5707101 -0.19405885 -0.30446976 0.2856875 -0.040662162 0.55117863 0.4840265 -0.89313257 0.45284805 -0.2805198 0.96852195 -0.8289104 -0.30388302 -0.47480184 -0.9704156 -0.46134633 -0.27226642
To 0.8274964 0.53284395 0.24801758 0.40634155 -0.09045722 -0.15305424 0.117651775 0.055691972 0.4323321 0.4760332 -0.73393685 0.41774544 -0.25640285 0.5828007 -0.5535995 -0.30495065 -0.39619696 -0.7086046 -0.2204484 -0.09751915
light 1.419424 0.9999228 0.19722919 0.5808086 -0.09267463 -0.36879444 0.24259876 0.06820942 0.90321356 0.39006668 -0.8037263 0.22744805 0.09163087 1.2048231 -1.0355508 -0.41201082 -0.47547716 -0.9874786 -0.8706326 -0.5676645
nuclear 1.1804312 0.80811304 0.3176482 0.614329 -0.14304867 -0.31475022 0.19636534 0.06270444 0.58881855 0.6009469 -1.0232707 0.5448092 -0.28309688 0.86468446 -0.878525 -0.42182168 -0.50378233 -1.0128359 -0.44663772 -0.27650735
association 0.7992764 1.003269 0.16488352 0.4426863 -0.0039215973 -0.4553007 0.04913554 0.123035185 0.5990847 0.6178336 -1.1157397 0.46459165 -0.16449735 0.63637596 -1.0011218 -0.65903217 -0.5423657 -1.0517951 -0.6609387 -0.5598758
cerevisiae 0.9908991 0.6129423 0.32545188 0.5005527 -0.101285815 -0.16747291 0.1537695 0.04353355 0.45874575 0.5460348 -0.88307947 0.48661003 -0.27371815 0.7036721 -0.6272495 -0.3668101 -0.42927232 -0.83302003 -0.22384864 -0.11996355
analysis 1.1072675 0.7531471 0.3268133 0.56957096 -0.09717565 -0.23753728 0.1289942 0.053405292 0.5609715 0.62681264 -1.042324 0.5465797 -0.28921333 0.78018683 -0.7819111 -0.47845593 -0.5366294 -0.9790138 -0.32792684 -0.2000837
II 1.095981 0.73437893 0.263944 0.5576142 -0.108913094 -0.22599271 0.17734976 0.045806892 0.5861524 0.50781274 -0.8683727 0.41836262 -0.2083256 0.7926638 -0.70579374 -0.4026981 -0.45319283 -0.8676113 -0.39495564 -0.21641526
This 0.93650013 0.5613339 0.3485835 0.48852167 -0.081946656 -0.13656099 0.10370052 0.061663434 0.41299915 0.5854378 -0.911198 0.50220436 -0.27059186 0.6047672 -0.58913547 -0.4131038 -0.45617208 -0.79261106 -0.13206948 -0.06366805
gamma-catenin 0.6672277 0.80874574 0.4451598 -0.043189175 -0.028074523 -0.63433826 0.3866021 -0.54998386 0.19132762 0.43339595 -1.0264204 0.39327523 -0.40476766 1.0057588 -1.1577406 -0.19382095 -0.60641766 -1.2568597 -1.0785158 -1.2154717
rate 1.3364081 1.0869954 0.39467764 0.6834804 -0.07777254 -0.42627174 0.13194604 0.08254149 0.7701561 0.84900033 -1.4479747 0.72394234 -0.32831675 1.0205619 -1.1541659 -0.69204605 -0.7306681 -1.3526601 -0.5874208 -0.47097528
regulate 0.96864814 0.89151657 0.22187033 0.5456315 -0.061958365 -0.37112287 0.047200613 0.12127258 0.6375838 0.61749995 -1.0474358 0.51864636 -0.18767802 0.75472057 -0.9030505 -0.58940595 -0.53705907 -0.9957622 -0.5292054 -0.42287356
monomers 1.1171367 0.85434425 0.27961078 0.64628893 -0.107567616 -0.3302795 0.092236005 0.1551837 0.66883963 0.67859197 -1.1250992 0.5826658 -0.2376919 0.7752781 -0.8837804 -0.58935064 -0.549259 -1.0222259 -0.37241265 -0.269729
residues 1.0972831 0.79112554 0.31927133 0.5618174 -0.1036197 -0.2725612 0.14091513 0.07874885 0.5933654 0.6186104 -1.0244559 0.52232575 -0.25230613 0.7979256 -0.8195947 -0.4659982 -0.51347417 -0.96534526 -0.38900724 -0.2598412
localization 0.7937774 0.97155267 0.14597754 0.5090834 -0.010514086 -0.45947292 0.013083584 0.18534094 0.6228595 0.6007658 -1.0914527 0.47257012 -0.14743043 0.6113641 -0.94795626 -0.66522485 -0.50504255 -0.98626506 -0.6057659 -0.5056573
normal 1.1720445 0.8443822 0.35945106 0.515072 -0.09224506 -0.32497373 0.2135856 -0.033149634 0.6016064 0.59955364 -1.0535351 0.4979627 -0.2595516 0.9341764 -0.9198476 -0.42985067 -0.54988563 -1.0903144 -0.5463396 -0.44478923
phosphorylation 1.034058 0.9685009 0.19072051 0.5961479 -0.09766261 -0.46777543 0.13802832 0.13182428 0.66058403 0.580431 -1.0658748 0.48583788 -0.18507695 0.8154165 -1.024884 -0.5513821 -0.526615 -1.0748711 -0.6774115 -0.47742334
MSH3 1.1508431 0.72129506 0.3956704 0.5541515 -0.15704304 -0.20050474 0.22063111 -0.021707365 0.52742344 0.6314337 -1.0442067 0.57952845 -0.36962178 0.8373514 -0.75385034 -0.384725 -0.45631352 -0.95641154 -0.30018127 -0.22371693
focal 1.1978537 0.8990065 0.3493726 0.6132539 -0.09843096 -0.32975557 0.15437406 0.044288922 0.6378371 0.68383235 -1.175403 0.56665456 -0.30339792 0.91906315 -0.9486169 -0.51575744 -0.5937649 -1.1036214 -0.48484188 -0.37493652
essential 1.1158471 0.8220294 0.31687635 0.58838207 -0.08470903 -0.2923867 0.114056155 0.0788496 0.58898985 0.6384195 -1.0670136 0.53682894 -0.2446667 0.8137043 -0.83600557 -0.52665764 -0.536219 -1.0063006 -0.39760727 -0.27935886
demonstrated 1.0712135 0.8022328 0.38828504 0.52467513 -0.045465466 -0.26756492 0.10905502 0.057502873 0.5575472 0.68345493 -1.117023 0.58146876 -0.2997555 0.79732 -0.83352876 -0.54278326 -0.5896427 -1.0575591 -0.35673183 -0.3111968
specific 1.3146406 0.9246642 0.35867417 0.6589362 -0.10532646 -0.3172278 0.17352171 0.067441285 0.7133048 0.67437595 -1.1688296 0.5726096 -0.2572535 0.970862 -0.94792897 -0.5433725 -0.5723567 -1.1188962 -0.49213994 -0.32175043
changes 1.2107395 0.90007925 0.26384085 0.5953551 -0.06227646 -0.3268198 0.14893472 0.10826383 0.7254345 0.5533332 -1.0217047 0.43634447 -0.13159086 0.9243594 -0.89839286 -0.516298 -0.52592486 -1.0137047 -0.55402434 -0.38866943
pathway 1.0791943 0.76627076 0.32211214 0.5767521 -0.10204461 -0.25256273 0.116452836 0.074920304 0.5688274 0.6440925 -1.0581822 0.53755695 -0.27115908 0.7615711 -0.7955221 -0.48817116 -0.5189149 -0.9667333 -0.33102882 -0.20886171
major 1.0335823 0.7007711 0.31750432 0.5214864 -0.10881043 -0.24325223 0.13680792 0.053199746 0.5128826 0.58943576 -0.96098334 0.50908077 -0.29673955 0.74259037 -0.7465874 -0.3886254 -0.47499666 -0.90808976 -0.3290176 -0.18473561
did 1.2966329 0.8982313 0.37179917 0.6521381 -0.13499498 -0.33285183 0.22516726 0.007789771 0.6450939 0.6788543 -1.1998299 0.6504807 -0.36018398 0.9925324 -0.9863065 -0.48191473 -0.60577375 -1.1699699 -0.5085906 -0.35921076
most 1.1845825 0.8383715 0.34237143 0.60685515 -0.09214744 -0.2873549 0.16107789 0.079088956 0.63222134 0.667427 -1.128594 0.5589593 -0.27651998 0.8535804 -0.8649197 -0.51307803 -0.5723276 -1.0544893 -0.39336613 -0.2557094
Saccharomyces 1.0100505 0.6627165 0.29323995 0.52897066 -0.09316361 -0.18399161 0.13509354 0.055918403 0.5130539 0.55591285 -0.91002214 0.4764179 -0.23928389 0.7160975 -0.6816403 -0.410152 -0.43278942 -0.83817446 -0.27549377 -0.15975633
system 1.0185492 0.68554497 0.29611096 0.5225283 -0.0955889 -0.22775643 0.13587546 0.051672798 0.5210055 0.5767187 -0.92158586 0.4870763 -0.2336628 0.7358126 -0.7101429 -0.41230035 -0.4785994 -0.8661402 -0.3062564 -0.17868407
recombinant 1.0493171 0.78601074 0.31848058 0.5552248 -0.13095996 -0.27732202 0.14747497 0.04143505 0.54104465 0.62494457 -1.0429429 0.54714656 -0.290583 0.7639666 -0.7917399 -0.47949317 -0.49794394 -0.97008663 -0.38330004 -0.25898212
used 1.0830773 0.82231045 0.3707042 0.56939596 -0.048953198 -0.27379444 0.101078 0.052066397 0.5633571 0.7289499 -1.2185479 0.6203043 -0.31565046 0.7848221 -0.85686326 -0.5973726 -0.6131745 -1.1068133 -0.36347297 -0.29205683
through 1.159031 0.7949341 0.3535741 0.59301835 -0.11347379 -0.24236245 0.15400785 0.057740435 0.5986802 0.6632249 -1.0909226 0.54835886 -0.28047252 0.8539529 -0.8353536 -0.46565852 -0.5539415 -1.0153791 -0.36315516 -0.233932
well 0.99901956 0.69819427 0.390123 0.43219146 -0.059724912 -0.24644183 0.17439936 0.0064271498 0.46670714 0.6610301 -1.0339193 0.5206894 -0.28386965 0.8005058 -0.78319716 -0.40095013 -0.52765507 -0.9673893 -0.33101895 -0.27189037
FADD 1.0691231 0.71400553 0.35814932 0.5398077 -0.12506922 -0.21654615 0.1603701 0.01611964 0.52202755 0.6142349 -0.9891395 0.5186468 -0.33395606 0.7692475 -0.7604891 -0.3566142 -0.4846671 -0.91070116 -0.29714185 -0.20810986
revealed 1.0274082 0.7402649 0.334816 0.5136705 -0.07962698 -0.24850982 0.11830039 0.038249403 0.52253747 0.63135505 -1.0453271 0.53978145 -0.28162888 0.73981947 -0.7672115 -0.4948612 -0.5368047 -0.9694317 -0.32723388 -0.25223497
concentration 0.8563385 0.95153654 0.15534577 0.5550597 -0.019004796 -0.41012952 0.011847916 0.23883389 0.6636947 0.5795534 -1.0352271 0.44549763 -0.11108014 0.6193706 -0.89764094 -0.6511092 -0.49278226 -0.953539 -0.5580517 -0.4052512
present 1.0543336 0.92921257 0.29716393 0.55235624 -0.027757969 -0.3679215 0.09734921 0.13517122 0.6505376 0.668306 -1.1356096 0.5417228 -0.21808243 0.7961004 -0.9437124 -0.58610743 -0.58754367 -1.0740893 -0.51040006 -0.41871992
MSH6 1.0579572 0.7079281 0.36123884 0.52958274 -0.13161625 -0.21417274 0.20840265 -0.012996823 0.48373422 0.57449967 -0.9383779 0.5296079 -0.326735 0.78765434 -0.7177621 -0.33426178 -0.44219083 -0.8674705 -0.31770003 -0.23045722
replication 0.90749514 1.000785 0.2248164 0.5794187 -0.040279653 -0.40851647 0.017877812 0.1766794 0.62183666 0.6773579 -1.1910533 0.555093 -0.22972043 0.64739764 -0.9358015 -0.6886167 -0.5466694 -1.0391854 -0.5239139 -0.40372992
respectively 1.1253474 0.8363335 0.31258023 0.56791973 -0.11169541 -0.2967849 0.15968227 0.05733938 0.62466705 0.59893095 -1.0465904 0.50137407 -0.23385969 0.86503017 -0.86513495 -0.45429313 -0.5207621 -1.0039154 -0.47891337 -0.33053258
RAD54 1.0591866 0.8112742 0.43661192 0.5170509 -0.22532977 -0.17852567 0.23853453 -0.120088354 0.39305818 0.5502596 -1.0537572 0.5642887 -0.44856918 0.81293046 -0.65408105 -0.40510246 -0.36952427 -0.8932899 -0.44139194 -0.23995876
determined 1.124537 0.82092035 0.3652025 0.57138324 -0.06385292 -0.26996502 0.1422157 0.06671355 0.58632755 0.67764574 -1.1372986 0.5752918 -0.27561355 0.83014935 -0.84776115 -0.53275985 -0.5778964 -1.0576614 -0.38668826 -0.26910836
However 0.9187703 0.6349062 0.27467132 0.44747037 -0.08048612 -0.21092865 0.12739949 0.021000337 0.472239 0.50191957 -0.84737253 0.43036586 -0.21548532 0.6977337 -0.66672486 -0.36046526 -0.42042074 -0.8192965 -0.32630482 -0.22823197
signaling 1.0467784 0.8545108 0.30365977 0.5829316 -0.083276644 -0.33217046 0.08641943 0.110655725 0.60983795 0.7114457 -1.1305262 0.57090354 -0.28947517 0.7372881 -0.8736711 -0.5679061 -0.5534298 -1.0023104 -0.3997554 -0.28776276
alpha 1.3248338 1.0598629 0.3614075 0.413586 -0.053745363 -0.5291211 0.3744158 -0.22176105 0.7100968 0.4662561 -1.0474986 0.33987224 -0.15242544 1.3286402 -1.2415954 -0.33564934 -0.60278064 -1.2748947 -1.0597328 -0.98082364
structures 1.1558791 0.8506979 0.32745242 0.5926288 -0.08228722 -0.30595228 0.121868975 0.08332043 0.63411427 0.66080976 -1.106416 0.5508893 -0.25584322 0.835281 -0.87636447 -0.5126561 -0.55781907 -1.0397205 -0.41919354 -0.29911253
transcription 1.0251324 0.8695134 0.2655328 0.5849215 -0.08530656 -0.30832613 0.10263406 0.13340056 0.60008395 0.6428548 -1.0952102 0.53192055 -0.23240942 0.73643947 -0.888176 -0.5580019 -0.52718556 -0.9989187 -0.43817902 -0.29183373
CBP 0.99413884 0.65048045 0.30156413 0.51927596 -0.12414287 -0.22204648 0.15391862 0.026326993 0.4736995 0.5716147 -0.97443086 0.49023676 -0.3083667 0.7327881 -0.7257856 -0.40696588 -0.46861023 -0.88081455 -0.31095383 -0.17580588
studies 1.079881 0.7652034 0.31381026 0.5502435 -0.07736544 -0.2624347 0.113330066 0.06611311 0.60607576 0.58566797 -1.0083802 0.50676876 -0.23243544 0.7896066 -0.7909228 -0.48353526 -0.5083515 -0.9703791 -0.3677043 -0.2723878
either 1.0000478 0.7118939 0.3507713 0.45139048 -0.111764856 -0.28783768 0.19355363 -0.06292572 0.46742734 0.573405 -1.0315423 0.5092089 -0.33588204 0.81671643 -0.8288854 -0.38071325 -0.52112806 -0.9912834 -0.45321178 -0.36050552
tropomyosin 1.262215 0.89710224 0.14537042 0.49489355 -0.06452652 -0.3516828 0.24977334 0.053375024 0.7932107 0.28648537 -0.6527497 0.15652005 0.09312859 1.0977644 -0.93607515 -0.3268044 -0.39995268 -0.8498286 -0.83969057 -0.5636557
recombination 0.90129244 0.9518906 0.20943831 0.5510747 -0.07157061 -0.38621756 0.05457404 0.150019 0.59507656 0.63338697 -1.1078373 0.5197033 -0.2193871 0.6522211 -0.8940991 -0.6334279 -0.501097 -0.99167764 -0.5338673 -0.3927243
after 1.0518179 0.7518375 0.31321636 0.53382313 -0.096676335 -0.25591177 0.16198705 0.025158813 0.5474315 0.59332347 -1.0151004 0.5166029 -0.26572332 0.7742131 -0.7978701 -0.43050215 -0.49627608 -0.96345323 -0.39290026 -0.26535687
simplex 0.95214885 0.6306052 0.31517115 0.52465516 -0.097012274 -0.23413333 0.16330147 0.01623139 0.46206817 0.5788433 -0.91571975 0.47793528 -0.28392565 0.65281403 -0.62793225 -0.4077179 -0.45010844 -0.8627307 -0.2394894 -0.12424173
regions 0.92198604 0.7725983 0.2921432 0.5162627 -0.07244682 -0.29795584 0.08842598 0.08719001 0.5149144 0.61675674 -1.0256803 0.5216671 -0.2775305 0.6657455 -0.79001707 -0.5147227 -0.49637362 -0.93526495 -0.3973193 -0.26643315
determine 1.1370333 0.8011455 0.35451633 0.5767867 -0.08560275 -0.26155877 0.15717834 0.069222316 0.5895135 0.65504843 -1.101775 0.55368936 -0.2722958 0.83685637 -0.8402711 -0.50515723 -0.554379 -1.0308664 -0.39239424 -0.2546588
J. 0.8289851 0.49796695 0.27320126 0.39797735 -0.12275786 -0.19544125 0.1555638 -0.030414445 0.40549895 0.43273306 -0.7062605 0.3861625 -0.27066904 0.6303363 -0.5347429 -0.21049416 -0.3559298 -0.72260594 -0.28110695 -0.12969515
' 0.8887552 0.5707121 0.2547387 0.42064252 -0.115192056 -0.12794402 0.12756595 -0.00059870444 0.4010911 0.46312776 -0.77301395 0.386068 -0.21983391 0.6484129 -0.57570577 -0.30141255 -0.35001063 -0.74099594 -0.23909084 -0.102985546
acid 1.1136099 0.75697273 0.32053843 0.58796304 -0.1385822 -0.29385746 0.16144823 0.057462465 0.59251475 0.6253756 -1.0280086 0.5554942 -0.279925 0.7934442 -0.8348437 -0.4493023 -0.5275654 -0.97001725 -0.3726365 -0.1909681
more 1.1807112 0.79235595 0.373355 0.6064987 -0.100414224 -0.28872243 0.16015965 0.052989043 0.6120386 0.6629814 -1.125958 0.56136054 -0.2762745 0.8815867 -0.8676317 -0.4845712 -0.5604778 -1.0713054 -0.37151146 -0.27836117
homologous 1.2102841 0.8326826 0.3739391 0.64030635 -0.1455228 -0.29482013 0.18329167 0.02059073 0.5823172 0.7030708 -1.1688762 0.6304546 -0.36478186 0.8669087 -0.8769768 -0.5115319 -0.5764071 -1.0952502 -0.4032968 -0.24771045
four 1.021028 0.6928668 0.34660733 0.5102826 -0.107560374 -0.22773257 0.14633964 0.010860591 0.4900336 0.5821327 -0.99829525 0.5009563 -0.3002241 0.7666684 -0.7390867 -0.38523328 -0.4974396 -0.91711175 -0.30677554 -0.20740713
reduced 1.0291107 0.8070565 0.30660412 0.5013268 -0.06422347 -0.29838702 0.14983192 0.013437575 0.5369424 0.6212949 -1.0673258 0.5124692 -0.2496039 0.7918521 -0.85216296 -0.4903004 -0.5415095 -1.0266242 -0.4548038 -0.36377037
distribution 1.0016769 0.89898914 0.25618804 0.5662314 -0.0575308 -0.35329384 0.07708339 0.14395575 0.626938 0.6393689 -1.1146475 0.52130306 -0.21547781 0.73403746 -0.9100485 -0.5882298 -0.54648185 -1.0210528 -0.49367014 -0.3689245
staining 1.1082532 0.8752782 0.30139974 0.5346759 -0.099300705 -0.3796736 0.15754674 -0.0052440464 0.6394755 0.59169424 -1.054492 0.4856705 -0.20946786 0.8763328 -0.9377349 -0.48406404 -0.5399371 -1.0250796 -0.5782086 -0.46383053
ends 1.1739916 0.8707592 0.29041976 0.63486004 -0.11995519 -0.32340506 0.14065635 0.07703018 0.6587786 0.67022544 -1.1484205 0.6002648 -0.26449978 0.85690385 -0.8968138 -0.5221213 -0.55739284 -1.063911 -0.42402264 -0.3072144
related 1.1623468 0.9698673 0.3867855 0.5335779 -0.04324365 -0.36578196 0.14560618 -0.007133448 0.59691393 0.737502 -1.3007683 0.60159224 -0.3317864 0.94522667 -1.0250072 -0.62234545 -0.65151674 -1.2368237 -0.5734638 -0.50287354
important 1.1292925 0.82948995 0.3501769 0.63778144 -0.113039635 -0.301949 0.09904833 0.09971307 0.58917797 0.71309364 -1.1617414 0.6298424 -0.31450167 0.7934012 -0.83102095 -0.56681806 -0.5738902 -1.0500933 -0.32910183 -0.21006784
indicate 0.8782172 0.72891086 0.3453455 0.43531367 -0.0656274 -0.3143395 0.077505596 -0.013491337 0.44557613 0.66947085 -1.1062189 0.6090817 -0.35284626 0.64968073 -0.7889525 -0.5020342 -0.5669135 -0.9999364 -0.32718417 -0.33088562
sequences 1.1343907 0.80118 0.3016795 0.60737175 -0.114957735 -0.31148982 0.16507584 0.095983654 0.6113195 0.60372216 -1.0302854 0.51108897 -0.24735792 0.8365455 -0.8207463 -0.47622737 -0.51225305 -0.96874934 -0.41533947 -0.25639275
C 0.9619194 0.63103545 0.26264152 0.44827864 -0.072973326 -0.17279527 0.16666746 -0.0011028564 0.50377166 0.5165055 -0.79349595 0.43670207 -0.23092243 0.72826654 -0.63355565 -0.31800342 -0.43167078 -0.79674846 -0.28361264 -0.1702306
including 0.99395764 0.8077282 0.29130292 0.5319159 -0.104560405 -0.33409142 0.10998324 0.061008137 0.5625969 0.65082955 -1.074391 0.5596292 -0.29437247 0.72162974 -0.85288316 -0.514032 -0.5153299 -0.9670811 -0.41277844 -0.3226127
products 1.0220708 0.749652 0.29805952 0.59424627 -0.11365482 -0.30180886 0.11732357 0.11139155 0.54359335 0.6470577 -1.0639039 0.5877356 -0.3343982 0.7035628 -0.76142716 -0.4934971 -0.50806415 -0.94464946 -0.29654726 -0.18493958
endothelial 1.0934179 0.7341191 0.31189778 0.5409956 -0.100646585 -0.24482116 0.18522131 0.028946076 0.54596716 0.5730987 -0.96635073 0.47607583 -0.25557584 0.8214308 -0.7916547 -0.39671674 -0.48614433 -0.95066786 -0.3960562 -0.26268417
L 0.9878535 0.6404662 0.2535718 0.4845474 -0.13349879 -0.26784924 0.17623079 -0.025154442 0.41999257 0.49710876 -0.84508884 0.47148338 -0.22126019 0.69536144 -0.68292975 -0.2688289 -0.39332664 -0.83728755 -0.3583768 -0.20070939
helicase-primase 1.1266918 0.7394423 0.33493552 0.5831886 -0.12682097 -0.23549193 0.1768427 0.049733363 0.54937875 0.632863 -1.0154338 0.53001374 -0.2954404 0.81084883 -0.75985914 -0.42646337 -0.5103094 -0.959162 -0.31382677 -0.17019153
D1 0.90489125 0.6677357 0.27266103 0.4162595 -0.07971211 -0.18921013 0.14089648 0.02785365 0.4877617 0.50794923 -0.8439212 0.4539443 -0.21331155 0.67960775 -0.69218963 -0.34581974 -0.46346405 -0.82983625 -0.3275123 -0.21585749
observed 0.987827 0.6833683 0.34581593 0.49011934 -0.053222798 -0.2157535 0.12346896 0.017283298 0.4727014 0.60555494 -1.010737 0.5119516 -0.29613242 0.71931916 -0.7351385 -0.44399104 -0.5082486 -0.9451304 -0.29655778 -0.21756469
5 0.92105305 0.55339855 0.3040229 0.42695364 -0.11436662 -0.18122168 0.14649752 -0.010869863 0.420859 0.44001323 -0.7905377 0.43110994 -0.2317421 0.6623299 -0.6140807 -0.28157514 -0.39437437 -0.7760948 -0.28510547 -0.16659138
bundles 1.0752094 0.7749053 0.2811649 0.56413186 -0.082441136 -0.26720944 0.13240618 0.07643808 0.58908015 0.57816863 -0.9873369 0.46477708 -0.2232389 0.78545195 -0.8107936 -0.4505249 -0.49431342 -0.944184 -0.40679115 -0.2666588
control 1.0729249 0.7898797 0.2719401 0.5599491 -0.08091313 -0.28149694 0.13972113 0.09489888 0.6300276 0.56878895 -0.9807195 0.45861787 -0.19174385 0.8045272 -0.81748796 -0.45864263 -0.4837906 -0.93669546 -0.4406312 -0.29619867
motility 1.0903611 0.8232047 0.2983331 0.60008436 -0.09154814 -0.292955 0.10587096 0.11379594 0.6095456 0.67763853 -1.1125463 0.5645168 -0.26973706 0.76201594 -0.8476963 -0.55035377 -0.5401276 -1.0210854 -0.36524048 -0.25010142
monomeric 1.2138711 0.9350633 0.30357113 0.67399913 -0.110024884 -0.37285972 0.11188963 0.14494915 0.72422916 0.718148 -1.2062782 0.6059803 -0.2546186 0.8703958 -0.9673098 -0.62612194 -0.59160084 -1.1233022 -0.45279762 -0.33523682
compared 1.0625786 0.8343526 0.33086362 0.53334314 -0.068177715 -0.33873442 0.15013078 0.015787503 0.57228416 0.6706736 -1.1277624 0.5499778 -0.28371766 0.8081605 -0.88707054 -0.5163243 -0.5690644 -1.0575844 -0.4615576 -0.37489364
bound 1.0280174 0.7409958 0.30870426 0.54050714 -0.087071195 -0.25783104 0.124140754 0.056221716 0.5582728 0.5971378 -1.0260539 0.51433593 -0.2692084 0.7387179 -0.7799263 -0.47177643 -0.517881 -0.9627555 -0.34265792 -0.25655004
cytoplasm 0.9823353 0.7637458 0.28954405 0.46274668 -0.076883115 -0.30839846 0.14539194 -0.0033832183 0.5196306 0.58790606 -0.99609447 0.48018548 -0.23130605 0.76799506 -0.84361506 -0.43508607 -0.5094053 -0.95913714 -0.4477957 -0.38221967
inhibited 0.98077184 0.8738111 0.23717752 0.5226278 -0.11838377 -0.25389296 0.12500219 0.13498317 0.57535285 0.67725414 -1.0946454 0.6167428 -0.25647962 0.7324714 -0.89517564 -0.50688154 -0.55614233 -1.0434912 -0.42503136 -0.25989085
fluorescence 1.0313493 0.7497188 0.2994776 0.52414554 -0.062461708 -0.2618871 0.12668256 0.07220913 0.5649061 0.5858699 -0.9817076 0.49201727 -0.2235443 0.7546937 -0.77219445 -0.45869374 -0.50076044 -0.92295927 -0.36433372 -0.26852432
stress 1.1819481 0.8837231 0.34558603 0.5932554 -0.04946078 -0.2991582 0.15601893 0.05396083 0.6558982 0.65321547 -1.1243935 0.57649535 -0.24362443 0.89014006 -0.9094947 -0.5024116 -0.5847799 -1.090744 -0.46114856 -0.35071716
M 0.9425926 0.5119755 0.25646603 0.46763292 -0.13311233 -0.2501971 0.20936328 -0.032477863 0.41266647 0.40019795 -0.7218498 0.38168925 -0.30506822 0.7188347 -0.66715044 -0.21319218 -0.35837597 -0.78290385 -0.2956149 -0.176137
previously 1.0855793 0.7148395 0.34332153 0.5605728 -0.09790259 -0.23619783 0.13687262 0.05188954 0.5388568 0.6219747 -1.0255926 0.5451681 -0.285614 0.7888192 -0.75344586 -0.4588604 -0.5136442 -0.9702555 -0.31546 -0.19354114
dynamics 0.8848681 0.637939 0.22445923 0.45848677 -0.06951961 -0.22352189 0.121586956 0.09110809 0.50649023 0.48348638 -0.8107597 0.4065082 -0.17470473 0.64154136 -0.6611816 -0.39496338 -0.40512162 -0.77036566 -0.3283683 -0.21768582
model 1.0218624 0.6783006 0.2924761 0.5364309 -0.08440649 -0.21431093 0.12257707 0.072854705 0.5223008 0.58287704 -0.94480014 0.50440395 -0.25201216 0.704793 -0.70469666 -0.4232395 -0.47421566 -0.8675501 -0.2803169 -0.17506245
viral 1.1645472 0.81552416 0.32916024 0.6062202 -0.12866911 -0.3128118 0.18936327 0.039074674 0.5982374 0.63117135 -1.0768669 0.5001714 -0.29534328 0.85969025 -0.83248544 -0.46131474 -0.5197604 -1.0081466 -0.4593577 -0.28047195
no 1.2131898 0.8227264 0.38169837 0.56859547 -0.088987656 -0.2748884 0.21607637 -0.06945334 0.60583335 0.62893254 -1.07773 0.58305997 -0.2909435 0.9302246 -0.8535468 -0.42856908 -0.54842806 -1.1148531 -0.43763632 -0.34880906
p27 1.1395551 0.77739227 0.3254783 0.5405735 -0.16448072 -0.21234727 0.21122468 0.06452612 0.56266266 0.6369139 -1.0241805 0.5779532 -0.28859082 0.84533405 -0.84056664 -0.3696111 -0.5003571 -1.002769 -0.34995833 -0.178104
purified 0.9799687 0.7111972 0.29910883 0.4827542 -0.05794914 -0.2449523 0.118516035 0.08089171 0.5493796 0.57087475 -0.95514226 0.4592032 -0.20232631 0.72898316 -0.7353732 -0.46562538 -0.4818045 -0.8766121 -0.35577282 -0.24665591
alpha-smooth 1.1985233 0.9093537 0.25042257 0.41067633 -0.039223365 -0.3995959 0.2837145 -0.09114218 0.68206435 0.32533553 -0.76244414 0.20844822 -0.018855497 1.1191146 -0.9902617 -0.27884963 -0.4656578 -0.97799796 -0.86364454 -0.7290749
molecular 1.1945674 0.85849637 0.36001652 0.6111459 -0.11116824 -0.32766765 0.17453474 0.047692012 0.60943407 0.6694396 -1.1368127 0.56403345 -0.31848222 0.8804371 -0.90408593 -0.4905338 -0.5714141 -1.0880574 -0.45602435 -0.3088756
increase 1.0675011 0.8088014 0.30140495 0.5118085 -0.11051637 -0.24995796 0.18372668 0.022646956 0.54980236 0.59476864 -1.0208015 0.53875077 -0.24212678 0.8070731 -0.8463366 -0.4473191 -0.5161975 -1.0096507 -0.4400758 -0.30951387
reorganization 0.76573426 0.8817917 0.1284473 0.50838286 -0.021607822 -0.38836884 -0.011495572 0.2128741 0.585098 0.55950737 -1.0032825 0.4481264 -0.12800191 0.5472028 -0.8300669 -0.6218439 -0.45229623 -0.8773586 -0.49380141 -0.38241005
desmin 1.174161 0.8949818 0.19625977 0.4560349 -0.060667522 -0.40111715 0.24567351 0.0023465229 0.70895153 0.37324753 -0.7783893 0.2419975 -0.026741153 1.0483034 -0.9767926 -0.33868393 -0.44759133 -0.9338901 -0.82533807 -0.6253527
cardiac 1.1481373 0.7668058 0.26122227 0.50329024 -0.08003733 -0.24095339 0.19718488 0.057249825 0.64954174 0.45144284 -0.80639535 0.32640156 -0.084731594 0.91227686 -0.8040932 -0.36762735 -0.44733536 -0.8746215 -0.517352 -0.32645282
absence 0.92519736 0.7723367 0.2547047 0.5170496 -0.06008547 -0.2977831 0.09443045 0.10761494 0.5373816 0.54977113 -0.95738196 0.44227433 -0.19859418 0.6835512 -0.7752487 -0.4949537 -0.47522056 -0.88231534 -0.42198434 -0.3067222
plant 1.2777686 0.96682245 0.40221146 0.645022 -0.111797914 -0.38544413 0.16503245 0.02109602 0.67561966 0.7451099 -1.294936 0.6560386 -0.34416512 0.9657003 -1.0271627 -0.5810986 -0.6700201 -1.2321503 -0.5340429 -0.41427034
ADF 0.9573367 0.6182037 0.26602468 0.46862888 -0.109875426 -0.19533412 0.15189402 0.0118615115 0.47714168 0.50467837 -0.8559381 0.46172962 -0.24041438 0.67921054 -0.6752424 -0.33694747 -0.44480497 -0.827609 -0.28731972 -0.16945866
relative 1.1208297 0.86635804 0.3149071 0.56875044 -0.0840684 -0.30192962 0.14069852 0.0703189 0.6102585 0.61651754 -1.0997605 0.4956468 -0.21414824 0.8675663 -0.89838564 -0.51663345 -0.5428024 -1.038979 -0.5026316 -0.35195968
N-terminal 1.13633 0.81785077 0.31639293 0.57167345 -0.0825276 -0.27687892 0.14322188 0.05821608 0.6104806 0.6339019 -1.0792696 0.5282821 -0.24311799 0.8381694 -0.8596117 -0.48632818 -0.5398483 -1.0093452 -0.4244077 -0.29032594
examined 1.1124864 0.8098058 0.36396992 0.5401004 -0.07789305 -0.2959394 0.17122501 0.007225746 0.55812067 0.64284325 -1.0920805 0.55654866 -0.2931597 0.851061 -0.848658 -0.4823862 -0.5659274 -1.0532782 -0.4176969 -0.30829814
receptors 1.1020281 0.7485879 0.3450133 0.5794234 -0.13307679 -0.24324718 0.15008171 0.034208797 0.5231706 0.6434409 -1.0548378 0.5894909 -0.31662938 0.7932655 -0.7842781 -0.43164635 -0.5087024 -0.97852564 -0.32319957 -0.20358866
surface 1.009797 0.7261736 0.28369328 0.50019246 -0.085742384 -0.2720823 0.12396873 0.059049234 0.5199336 0.57653064 -0.9682632 0.4826709 -0.23069747 0.7398467 -0.7614106 -0.43684444 -0.4842333 -0.9230487 -0.36346847 -0.25418603
large 1.0681286 0.7046793 0.3054935 0.5555026 -0.124705 -0.2467773 0.18469998 0.043551274 0.5232953 0.5569893 -0.9251998 0.49860343 -0.26014143 0.77453977 -0.7457245 -0.38077384 -0.4736105 -0.9105323 -0.3550617 -0.21714923
encoding 1.030453 0.82839787 0.26133597 0.58163494 -0.110053785 -0.36715582 0.108132556 0.09520699 0.5942598 0.61541533 -1.0535648 0.52079135 -0.24472195 0.7281535 -0.826942 -0.52600235 -0.5012564 -0.93348783 -0.44942126 -0.2944481
suggesting 1.08332 0.8649563 0.34330142 0.5909716 -0.0633155 -0.32684344 0.06357791 0.13156629 0.64403844 0.7382401 -1.1592243 0.61303735 -0.27493972 0.7660608 -0.864726 -0.60650986 -0.6155074 -1.060004 -0.37320456 -0.3116656
concentrations 0.89963615 0.8571604 0.21619697 0.5411084 -0.037883475 -0.34864542 0.051738735 0.18008864 0.6109987 0.5735783 -1.0058483 0.44897363 -0.1678838 0.65275085 -0.83151954 -0.56899285 -0.47975883 -0.92505586 -0.47547513 -0.32927573
had 1.0156065 0.6443001 0.3274021 0.50984013 -0.11996204 -0.18099953 0.15142176 0.028036436 0.48208252 0.574967 -0.9263732 0.49654654 -0.27296597 0.7534989 -0.6837217 -0.38302976 -0.46433893 -0.85800874 -0.27130148 -0.16039874
directly 1.13386 0.794791 0.3410423 0.5592912 -0.09815458 -0.26897264 0.13687156 0.036283366 0.567438 0.63190037 -1.0832858 0.5539016 -0.27854636 0.8241223 -0.84248346 -0.47786885 -0.5581769 -1.0123544 -0.37546125 -0.28607455
encodes 1.171209 0.79660505 0.33120036 0.6142307 -0.13133477 -0.30428278 0.17640221 0.062065735 0.58878183 0.61775255 -1.0423487 0.52855885 -0.28994673 0.84576845 -0.79812014 -0.45857045 -0.5241424 -0.989791 -0.40355036 -0.2352303
mammalian 0.93667954 0.6478846 0.29088074 0.46104082 -0.089018404 -0.22588348 0.13487314 0.016319498 0.47617283 0.52653515 -0.8817931 0.45957896 -0.24387577 0.7003802 -0.68851775 -0.3765881 -0.44208506 -0.83150274 -0.32103375 -0.22559236
brain 1.0977864 0.8411981 0.21406928 0.446358 -0.07579313 -0.39909723 0.20388032 -0.0032485442 0.65908664 0.41193002 -0.81319976 0.2733465 -0.06412896 0.9567993 -0.933914 -0.34473902 -0.45654297 -0.91863346 -0.72518414 -0.5549789
inhibition 0.8678214 1.0127859 0.1394383 0.56328535 -0.082308926 -0.35802066 0.05411044 0.25476214 0.65587586 0.67246836 -1.1139961 0.5842284 -0.17759044 0.6273203 -0.975378 -0.63187766 -0.54991466 -1.0399163 -0.5474088 -0.34069717
Kd 0.8736435 0.61511385 0.23967639 0.49524626 -0.10392348 -0.16863033 0.12201145 0.058078423 0.44209337 0.45235476 -0.8144789 0.38883734 -0.207614 0.64744097 -0.59930533 -0.33911085 -0.39700836 -0.75935555 -0.27771634 -0.15439025
link 1.0032694 0.85306525 0.22470373 0.5209313 -0.08460815 -0.34565312 0.069319196 0.10109391 0.61822504 0.631129 -1.031294 0.5001245 -0.19882017 0.75367504 -0.89325434 -0.5406825 -0.5377599 -0.99019206 -0.4854674 -0.3732033
although 1.0128094 0.72750145 0.33541545 0.47238573 -0.08388739 -0.2517681 0.18074799 -0.035367344 0.5070009 0.55448097 -0.96498495 0.4735334 -0.26989534 0.8187383 -0.78250587 -0.36948466 -0.5095447 -0.94663566 -0.40620443 -0.31793648
pathways 1.0656359 0.73614556 0.31612125 0.5676022 -0.112945795 -0.2438624 0.12836945 0.065143235 0.55200094 0.62768054 -1.0323161 0.52988386 -0.27772576 0.7532334 -0.7740196 -0.46083066 -0.4998082 -0.93957174 -0.3208865 -0.19348201
intracellular 1.1126812 0.7829433 0.32387528 0.5910185 -0.09322198 -0.25904518 0.12818901 0.07860929 0.5764971 0.66986203 -1.0921514 0.56453645 -0.3036008 0.7666909 -0.8062314 -0.48597068 -0.5267045 -0.99489003 -0.33111805 -0.19512962
mechanism 0.9853189 0.70349044 0.26617643 0.52224016 -0.07883937 -0.23155753 0.11352411 0.08278921 0.5329123 0.54004043 -0.9199832 0.44496498 -0.19326283 0.7093746 -0.7095587 -0.43874457 -0.46594626 -0.8581568 -0.3346275 -0.21558253
nucleation 1.0220356 1.0905963 0.18583393 0.63331807 -0.06264624 -0.49151197 0.07029051 0.21875885 0.72159696 0.66555667 -1.1934803 0.54315966 -0.18444312 0.7593936 -1.0695409 -0.6981721 -0.5617744 -1.1275418 -0.68115604 -0.49427408
cytoplasmic 1.0895649 0.820796 0.32014346 0.5130561 -0.087786965 -0.32331562 0.16621253 -0.005683569 0.5696291 0.63464767 -1.0720233 0.51989 -0.26128167 0.849568 -0.906214 -0.46733406 -0.54866344 -1.0314188 -0.48454046 -0.39978063
10 1.0694956 0.67447823 0.2954113 0.5222761 -0.13078275 -0.1830017 0.18352105 0.010965535 0.4883905 0.56001264 -0.9312899 0.4888486 -0.30913228 0.7716898 -0.7336097 -0.35811687 -0.46174294 -0.92038685 -0.32671285 -0.15949975
amino 1.1176059 0.7299926 0.34100148 0.5480699 -0.116582535 -0.24832496 0.18084688 0.0076064807 0.5392234 0.57790005 -1.0030698 0.52925235 -0.2899462 0.81599164 -0.7861292 -0.4185902 -0.5088741 -0.9498998 -0.34735876 -0.21185084
family 1.0909823 0.75415844 0.31388053 0.55920404 -0.094784714 -0.26630968 0.15554991 0.06045541 0.5661626 0.58203775 -0.98772943 0.49451065 -0.25616607 0.7872174 -0.80151004 -0.43497378 -0.49026415 -0.9459146 -0.3717963 -0.23231271
components 0.966202 0.7666766 0.2676771 0.511782 -0.058465637 -0.30559906 0.11768108 0.07334067 0.552411 0.5918261 -0.9925573 0.46484488 -0.22054699 0.72331715 -0.7973921 -0.47084215 -0.49753746 -0.9121608 -0.4076487 -0.29306796
dependent 1.2669616 1.0634565 0.30724457 0.6157389 -0.16029522 -0.3008458 0.20863649 0.13235958 0.7033531 0.7887254 -1.2847852 0.7147271 -0.2970113 0.96242845 -1.1284845 -0.56827855 -0.65572524 -1.2527071 -0.5630399 -0.39127183
highly 1.1021782 0.7450258 0.32090506 0.5546492 -0.102803625 -0.23843879 0.1535948 0.046527386 0.558969 0.61203825 -1.0325437 0.50892854 -0.2733926 0.80424666 -0.7776637 -0.43746954 -0.51409185 -0.9549082 -0.35487086 -0.21581599
data 0.88600236 0.55273175 0.26435015 0.42990685 -0.09425818 -0.1656036 0.12689713 0.054813433 0.45781663 0.47688562 -0.78262734 0.40721303 -0.206637 0.62451464 -0.5812426 -0.32468697 -0.40294316 -0.7318372 -0.22812921 -0.13406375
platelet 1.0686749 0.84363776 0.30092934 0.5154088 -0.06628904 -0.33964267 0.15039606 0.0063094567 0.5923439 0.5892729 -1.0609452 0.503463 -0.23318405 0.852528 -0.90482634 -0.4811058 -0.5549818 -1.0329027 -0.5087154 -0.42082658
mutation 0.79319435 1.0440898 0.13818935 0.52836317 0.016495787 -0.4654568 -0.0069308425 0.23629764 0.65793115 0.60554343 -1.0912988 0.45123008 -0.10838793 0.5837733 -0.95479417 -0.7347312 -0.52200717 -0.996509 -0.65156895 -0.50404745
under 1.2126235 0.85564244 0.3653102 0.62105477 -0.10230826 -0.28705677 0.15520199 0.07460208 0.6268755 0.69541675 -1.1521399 0.60398537 -0.31664914 0.8718162 -0.91505754 -0.5070392 -0.5977792 -1.1059974 -0.3880369 -0.2614473
suggests 0.9766049 0.71468586 0.34428522 0.52283263 -0.05086952 -0.23764235 0.047262263 0.11927671 0.55250466 0.67164356 -1.0316783 0.58319193 -0.2803271 0.6806321 -0.7088405 -0.5244891 -0.56918377 -0.9479861 -0.23261483 -0.21105127
peptide 1.2437774 0.8509839 0.39028218 0.67600286 -0.115753464 -0.26313853 0.16406904 0.08650241 0.64600533 0.75569785 -1.2166082 0.66131735 -0.35146978 0.87898767 -0.88158613 -0.5562555 -0.6160798 -1.1064283 -0.31706536 -0.18746768
cellular 1.1434172 0.79933816 0.36074683 0.5907433 -0.07603345 -0.261494 0.13454579 0.07856089 0.5709838 0.6987803 -1.1266865 0.5904763 -0.3213503 0.79547805 -0.8344975 -0.49360213 -0.56442 -1.0287224 -0.33284488 -0.21199548
when 1.1593976 0.75740683 0.3484941 0.5658532 -0.120470166 -0.22898589 0.16463336 0.024276001 0.5535072 0.63758826 -1.0622832 0.55693364 -0.29985702 0.8421352 -0.79432887 -0.44802138 -0.5279459 -1.0003768 -0.3215103 -0.23199248
responsible 1.1195819 0.81587315 0.32773238 0.5626129 -0.09659735 -0.27956995 0.13034134 0.059767045 0.59725636 0.628859 -1.0520208 0.52971965 -0.25451165 0.8208975 -0.82991475 -0.49976662 -0.53534687 -1.0018352 -0.4141403 -0.2814265
fusion 0.8966725 0.88554674 0.18478136 0.43163893 -0.042007804 -0.39758962 0.1549584 0.078605086 0.5869621 0.48104852 -0.8911451 0.3677913 -0.1221297 0.76737326 -0.9024388 -0.45973945 -0.46681258 -0.9541663 -0.6753461 -0.51436967
molecule 0.9700745 0.7248511 0.2894081 0.48447362 -0.09008792 -0.28685287 0.15174548 0.037724383 0.49923488 0.53422123 -0.9405128 0.4529163 -0.2707652 0.73725706 -0.7641327 -0.40378717 -0.47605476 -0.90569 -0.40995675 -0.3022342
total 1.1164464 0.81587356 0.26101223 0.5337608 -0.090742305 -0.28285706 0.16941626 0.049269892 0.6467927 0.50173414 -0.926694 0.4017536 -0.16244172 0.8863764 -0.8485544 -0.43754652 -0.47707182 -0.9398859 -0.5288672 -0.3789863
pollen 1.0278627 0.7151661 0.2970822 0.5472048 -0.097191885 -0.24109106 0.11778957 0.0840658 0.5575047 0.57479763 -0.96499974 0.52051413 -0.22474007 0.7277195 -0.72677755 -0.45189124 -0.47269621 -0.89476866 -0.2899972 -0.16206378
contrast 1.1183176 0.80845946 0.291653 0.57173914 -0.072120465 -0.2783848 0.1390794 0.088710114 0.6454679 0.55643594 -0.94997567 0.44809642 -0.17008428 0.82888603 -0.81560695 -0.46175045 -0.49152645 -0.94035786 -0.4677712 -0.30796257
assay 0.94519365 0.681361 0.29459614 0.4908395 -0.08943316 -0.21861102 0.09872808 0.07690912 0.50543314 0.583619 -0.93696314 0.4874744 -0.2537013 0.67919594 -0.7110658 -0.44965285 -0.48320872 -0.86919963 -0.2924099 -0.20284525
independent 1.0651101 0.91896886 0.2749174 0.52510077 -0.13511676 -0.27170652 0.1639972 0.106296524 0.58932287 0.69951886 -1.1482679 0.64338475 -0.2870671 0.7998788 -0.9717633 -0.51275814 -0.5744022 -1.0975386 -0.46452722 -0.33732352
rabbit 0.95232 0.6885198 0.2226748 0.48670617 -0.09270268 -0.22966649 0.1322928 0.081685185 0.5364513 0.4952231 -0.83273965 0.40616196 -0.16958451 0.69092923 -0.69055593 -0.3846181 -0.40925717 -0.8008278 -0.32684255 -0.21822342
treatment 1.0710175 0.80251247 0.27689698 0.54708314 -0.08942997 -0.2726977 0.12653667 0.08091736 0.59997296 0.5983512 -1.0114672 0.49246052 -0.20432971 0.776128 -0.8372675 -0.47217682 -0.49596265 -0.9590216 -0.41279942 -0.28565997
each 1.0412848 0.71041185 0.2977056 0.5419242 -0.11082271 -0.2690675 0.1394401 0.05319127 0.52284807 0.58469915 -0.98454756 0.52087563 -0.29005873 0.7450442 -0.7575558 -0.43459776 -0.47266272 -0.92588174 -0.350175 -0.22716479
those 1.134996 0.77423877 0.34556124 0.58044696 -0.11746278 -0.2674883 0.15239821 0.050874818 0.57029265 0.62912357 -1.0732739 0.56529224 -0.3017771 0.82411265 -0.82416034 -0.4493331 -0.5469864 -1.0006202 -0.36131415 -0.24597552
MHC 1.1738002 0.75020474 0.17196755 0.4719406 -0.08990048 -0.2645408 0.24116202 0.04114956 0.680102 0.2817677 -0.63239974 0.17810461 0.04830339 0.98013955 -0.7982581 -0.27864385 -0.35993165 -0.7857064 -0.65667766 -0.4236494
regulated 1.0471827 0.9635948 0.27944922 0.55309933 -0.038017984 -0.38194144 0.07299779 0.09335025 0.64598435 0.6830908 -1.1635119 0.55400693 -0.22893155 0.8363685 -0.98334354 -0.6404038 -0.5987754 -1.1108313 -0.5730175 -0.47863328
PIP2 0.98438627 0.653319 0.29651585 0.50235826 -0.123994514 -0.21248755 0.14604343 0.032180198 0.49656734 0.5305253 -0.88858914 0.48223838 -0.24697971 0.71056014 -0.7082809 -0.37819245 -0.45324516 -0.8388199 -0.29987967 -0.17669801
contractile 1.0760098 0.8369341 0.21976288 0.5469482 -0.07643244 -0.3037387 0.13385186 0.12055446 0.681438 0.5010589 -0.8967966 0.38411528 -0.10139324 0.80294555 -0.8286249 -0.46077028 -0.45778662 -0.8882549 -0.5343554 -0.34442326
Thus 0.9455751 0.608841 0.30688313 0.48322722 -0.09790998 -0.2000289 0.13432175 0.031848554 0.4514713 0.5454546 -0.8735991 0.474558 -0.26039445 0.70396525 -0.65143585 -0.36047223 -0.44137195 -0.8393423 -0.27880713 -0.17680986
birch 0.8986302 0.6361901 0.2659756 0.48213664 -0.10573233 -0.22492376 0.11153319 0.049472775 0.4700174 0.52519125 -0.8767809 0.46676335 -0.2346503 0.6452293 -0.67058545 -0.4042077 -0.43341273 -0.81744015 -0.29504195 -0.20387903
monomer 1.1019953 0.87191695 0.2807202 0.64595354 -0.10969805 -0.35189494 0.08846763 0.16281034 0.6714701 0.6819881 -1.1439923 0.5869039 -0.2388959 0.76922584 -0.89705884 -0.6064936 -0.55638576 -1.0301869 -0.38784492 -0.2830907
C-terminal 1.0963646 0.79297686 0.3101425 0.5604565 -0.08375111 -0.27629608 0.12903798 0.062213905 0.58951074 0.6264691 -1.0606899 0.5315557 -0.24821235 0.7941352 -0.83123726 -0.4831357 -0.52167904 -0.9806024 -0.40602574 -0.2758356
actin-based 0.9347696 0.84089786 0.20028684 0.55460805 -0.10144626 -0.34523216 0.050420243 0.16282274 0.6224208 0.62584203 -1.0288712 0.51112664 -0.18970945 0.6440616 -0.8533733 -0.5595919 -0.5160735 -0.9219209 -0.4439533 -0.28636482
consistent 1.0733532 0.832197 0.3246344 0.55424446 -0.09088108 -0.3147224 0.13698395 0.061603654 0.59482604 0.65862715 -1.0850155 0.53476626 -0.25389117 0.8014275 -0.87229437 -0.5095111 -0.5387768 -1.0276738 -0.42879948 -0.32225057
plasma 0.9851315 0.74041414 0.30473086 0.47562173 -0.09025533 -0.27634048 0.17183158 -0.039830677 0.48175973 0.561329 -0.97608966 0.47893643 -0.26875713 0.7829243 -0.797361 -0.39026865 -0.4883246 -0.95121324 -0.44192675 -0.35082364
response 1.1313531 0.84131896 0.33676818 0.57405156 -0.09352604 -0.2958187 0.14844154 0.053542774 0.59902 0.65373284 -1.0960952 0.5624184 -0.28292477 0.85413945 -0.86433804 -0.50695086 -0.5578072 -1.0361663 -0.43071592 -0.2918037
distinct 1.0659597 0.749102 0.3229477 0.54843605 -0.09169296 -0.23822974 0.13987608 0.07110608 0.5579988 0.62512046 -1.0266721 0.51506543 -0.26981744 0.7678382 -0.7805409 -0.4565802 -0.52055293 -0.9454321 -0.33905113 -0.22249433
stimulation 0.99860674 1.0791051 0.17805907 0.62187535 -0.025343474 -0.4453465 0.033138335 0.23727182 0.732942 0.6631098 -1.1772372 0.5168987 -0.13320561 0.73658395 -1.0373025 -0.72652364 -0.5716214 -1.0959518 -0.65139776 -0.47741562
fibers 1.1431202 0.7888488 0.32959786 0.5998161 -0.10970802 -0.25481957 0.13140394 0.056484926 0.60375446 0.64687717 -1.083275 0.56226414 -0.2787733 0.79699236 -0.8159612 -0.48464358 -0.54417354 -1.0032668 -0.3427725 -0.22949417
loss 0.94125885 0.68232304 0.27659333 0.47454348 -0.09401586 -0.24869429 0.1426569 0.0058463663 0.48830396 0.5426098 -0.9159645 0.47390595 -0.24574484 0.70005965 -0.71744066 -0.388789 -0.47860757 -0.8834217 -0.37612936 -0.26235783
cortical 1.2469041 0.90455556 0.35790345 0.6547897 -0.098034054 -0.31066233 0.14900742 0.071101524 0.66172755 0.7294396 -1.2232009 0.6141533 -0.31398538 0.9099856 -0.9518359 -0.56445163 -0.6077258 -1.1405092 -0.43623903 -0.32751012
same 0.94180036 0.6589077 0.25425997 0.48445702 -0.089765035 -0.22822703 0.11034563 0.06629369 0.5088896 0.54444623 -0.9109035 0.48717535 -0.22840263 0.6700803 -0.69298637 -0.4259958 -0.45383713 -0.8227591 -0.2859483 -0.18536986
detected 1.1289304 0.82472104 0.353997 0.53313947 -0.042530056 -0.27368858 0.14394616 0.04426108 0.5913741 0.62575257 -1.0670897 0.5307142 -0.23394267 0.86418146 -0.86128855 -0.50628996 -0.54930824 -1.0471627 -0.4387735 -0.3361833
structure 1.0806009 0.7612243 0.31279686 0.5590606 -0.08656779 -0.2655339 0.11179986 0.07710913 0.5754416 0.62190884 -1.0323507 0.52946687 -0.24916607 0.769938 -0.7839211 -0.46479756 -0.50930166 -0.9513301 -0.34966365 -0.23600616
proposed 1.1136727 0.82200724 0.3435276 0.6207718 -0.109343335 -0.34324777 0.123710126 0.08644692 0.58677626 0.70541245 -1.1720219 0.63395256 -0.33878344 0.80318594 -0.861889 -0.5423733 -0.59234923 -1.067954 -0.374915 -0.2615913
syntaxin 1.0086111 0.7229862 0.26679683 0.43275082 -0.09502658 -0.26851612 0.17923014 -0.012573368 0.5274508 0.49741724 -0.86989 0.40797085 -0.18475042 0.8038636 -0.8013272 -0.3597002 -0.4583701 -0.88072705 -0.4854208 -0.36392912
increases 0.9890353 0.76927626 0.28357196 0.47430992 -0.0910616 -0.24801467 0.15867747 0.015713902 0.51648736 0.5511379 -0.96515656 0.48925155 -0.22077484 0.74604297 -0.79089403 -0.43283853 -0.47703755 -0.94271654 -0.42468655 -0.3058889
antigen 1.2957002 0.87827045 0.3797209 0.6447665 -0.13413511 -0.2941905 0.19734272 0.044852864 0.65173006 0.6741042 -1.1532681 0.5642181 -0.27512643 0.9612799 -0.9111792 -0.49810612 -0.5832104 -1.0983157 -0.43531016 -0.2886442
free 1.0262897 0.6864006 0.2977233 0.5241355 -0.08730101 -0.22601032 0.13649951 0.035865568 0.51805377 0.55994123 -0.9471992 0.4746808 -0.25710613 0.72857755 -0.6965344 -0.4121087 -0.47397965 -0.8800831 -0.30299917 -0.19087724
Arp2/3 0.8196435 0.54688746 0.24924642 0.4115721 -0.09783093 -0.17518497 0.13216062 0.019549802 0.40942982 0.4657545 -0.7540215 0.38570434 -0.20683832 0.5740382 -0.58341074 -0.31164807 -0.36902124 -0.7009804 -0.24041617 -0.15115933
thymosin 1.2163645 0.8641452 0.24744348 0.53319347 -0.10641884 -0.3483039 0.22306089 0.024333559 0.685937 0.4597542 -0.87047726 0.35297638 -0.10346941 1.0197573 -0.9534958 -0.3751532 -0.4910751 -0.9812756 -0.6816315 -0.48997542
T 0.780569 0.53478646 0.27104202 0.39812204 -0.07227017 -0.16353963 0.104115576 0.017138472 0.39188233 0.489685 -0.69201225 0.3468421 -0.21341065 0.5988971 -0.5336454 -0.30045006 -0.35966563 -0.65428305 -0.19567741 -0.14071578
low 1.1791805 0.78432053 0.36121872 0.6032572 -0.115381934 -0.24274762 0.14396496 0.054193825 0.59621 0.66510403 -1.1187164 0.60484827 -0.32037708 0.8473236 -0.8402627 -0.4868531 -0.5558267 -1.0608678 -0.3590479 -0.23280613
two-hybrid 0.90785295 0.59353733 0.28225908 0.48097184 -0.08803538 -0.18464682 0.13721384 0.042143404 0.4554873 0.51221645 -0.83304155 0.4410491 -0.2237152 0.6492103 -0.60536575 -0.3717719 -0.41731766 -0.7665885 -0.24282376 -0.1425549
functional 1.0845239 0.8923334 0.30224687 0.621341 -0.089136586 -0.3000539 0.08530854 0.13558476 0.6396645 0.6869322 -1.1402273 0.56207174 -0.27320924 0.75030094 -0.8651831 -0.60759413 -0.5627966 -1.0314448 -0.4120464 -0.26646957
homology 1.0665509 0.7230955 0.3288065 0.56579065 -0.12541479 -0.24690956 0.15768276 0.015200402 0.50773937 0.6360663 -1.0433385 0.565482 -0.33423632 0.74905676 -0.7661353 -0.46069044 -0.51582015 -0.9814655 -0.33582625 -0.20967637
barbed 1.0266228 0.72904533 0.30216518 0.5330825 -0.076582566 -0.2396447 0.10566959 0.07532388 0.51836634 0.63559747 -1.0506945 0.51853764 -0.2564881 0.74238604 -0.7658117 -0.4786506 -0.51764756 -0.9555619 -0.32052073 -0.23615412
contains 1.1233815 0.82407564 0.272663 0.53118294 -0.08649782 -0.33786508 0.16536018 0.03950931 0.6526918 0.5166552 -0.93197215 0.38400218 -0.15054366 0.880399 -0.8623334 -0.4282679 -0.468234 -0.9275813 -0.5434853 -0.3871696
characterized 1.1200442 0.82549024 0.29208353 0.5635016 -0.061661817 -0.28773934 0.13612738 0.0882746 0.6453733 0.5917115 -1.0236797 0.46462157 -0.17683634 0.8299714 -0.84784514 -0.49662733 -0.5207675 -0.9680555 -0.44436455 -0.3074798
cell-cell 0.89041513 0.62576914 0.32198364 0.41888732 -0.037299804 -0.19906418 0.12676471 0.02241326 0.40494263 0.58319193 -0.91293025 0.46166253 -0.27892932 0.6450209 -0.66226953 -0.36979088 -0.4724415 -0.8473208 -0.27032685 -0.20130253
RIP 0.9105334 0.5634356 0.29307488 0.42666268 -0.113974236 -0.18692873 0.13858274 0.030906605 0.4240645 0.49275085 -0.8241849 0.40759966 -0.268635 0.6637904 -0.61217344 -0.30770034 -0.41281104 -0.7586985 -0.24297631 -0.15902248
together 0.97485423 0.6972365 0.29854792 0.4768104 -0.10036001 -0.26934198 0.16953504 -0.01557769 0.48328373 0.54624254 -0.950691 0.47556624 -0.26981717 0.74437106 -0.7572114 -0.38359484 -0.4755873 -0.91036236 -0.3860633 -0.28994635
death 1.1262856 0.75407344 0.31286657 0.55305266 -0.08771517 -0.23739655 0.1547316 0.044465523 0.58448535 0.5777077 -0.9708513 0.47692826 -0.22815005 0.83201975 -0.8053967 -0.42591956 -0.5073305 -0.9343365 -0.40072802 -0.2500064
demonstrate 1.011765 0.7304139 0.3557601 0.5100176 -0.061972436 -0.24514046 0.10139048 0.07293018 0.53748417 0.6347502 -1.0210443 0.5501159 -0.27240133 0.7340675 -0.75751674 -0.4902218 -0.54475313 -0.96006924 -0.30328733 -0.25084358
several 1.188571 0.8324891 0.3373154 0.6005837 -0.10048237 -0.29297593 0.16064191 0.04415258 0.621746 0.6522956 -1.099085 0.5288305 -0.27666095 0.88151366 -0.8701873 -0.49316323 -0.5391959 -1.0449697 -0.43033528 -0.2882761
rates 1.303149 1.0512527 0.36064762 0.65018535 -0.07505778 -0.4132922 0.17647536 0.069275506 0.74973035 0.73321736 -1.2998612 0.59274894 -0.2687536 1.0171511 -1.1073889 -0.6146349 -0.647513 -1.2459701 -0.64256406 -0.48214155
investigated 0.9655485 0.7353472 0.33349153 0.48270562 -0.052385557 -0.25551334 0.1273396 0.029825063 0.48205385 0.63000035 -1.0327816 0.5390716 -0.2857529 0.73073477 -0.7813445 -0.47713417 -0.521477 -0.97380245 -0.35400245 -0.29085815
ATP 0.8554325 0.5883103 0.23950528 0.42584753 -0.077781565 -0.18013455 0.12101067 0.027616592 0.45263916 0.45264032 -0.79338485 0.3924358 -0.20266202 0.6071373 -0.6236092 -0.33874327 -0.39149362 -0.7255025 -0.2659531 -0.15548415
S. 0.822926 0.5013227 0.26382312 0.3683646 -0.07832908 -0.17801195 0.14903048 -0.019881334 0.40664962 0.4408822 -0.7323594 0.39058092 -0.20659502 0.6250849 -0.53668725 -0.2649021 -0.37764955 -0.69800687 -0.25914472 -0.19275421
accumulation 0.83139443 0.94160897 0.1376092 0.5060201 -0.011891518 -0.39336377 0.022323154 0.1935587 0.6213548 0.56636155 -1.0059988 0.42940348 -0.113271214 0.61843127 -0.9081762 -0.61761725 -0.49662152 -0.947974 -0.5955715 -0.45168948
pattern 1.0943139 0.7602583 0.33739367 0.54029256 -0.090381354 -0.25909278 0.15675709 0.033957798 0.56807834 0.60485506 -1.0169669 0.5101067 -0.26976925 0.8103934 -0.80718404 -0.44779107 -0.5117413 -0.9878436 -0.38618398 -0.27243578
inhibits 0.8945285 0.81133085 0.19000567 0.4975918 -0.13139646 -0.22594704 0.12131548 0.15635131 0.55195147 0.62899935 -0.9931076 0.57826084 -0.22825207 0.6509417 -0.8268757 -0.44625422 -0.49478257 -0.9297149 -0.38426277 -0.20959826
could 0.97559774 0.69303215 0.29228657 0.4942454 -0.09043154 -0.23748705 0.117369 0.05841267 0.52360755 0.5522023 -0.92296785 0.46454018 -0.24228175 0.71124357 -0.71578383 -0.41295213 -0.47163165 -0.8467544 -0.31653443 -0.22042994
tumor 0.99932474 0.64256984 0.31086248 0.48122513 -0.10651953 -0.19644141 0.18665197 0.010918945 0.45975706 0.5108978 -0.8792956 0.46286768 -0.2647778 0.73884475 -0.70315903 -0.31906042 -0.4385768 -0.8646228 -0.32313916 -0.18350355
properties 1.0583977 0.77731615 0.2751202 0.5691327 -0.12020683 -0.30927765 0.13876311 0.091343425 0.58125633 0.5989736 -1.0064871 0.51989365 -0.25951043 0.7689107 -0.81415427 -0.4670749 -0.5045677 -0.94046926 -0.40158057 -0.25815663
strongly 1.0599107 0.7208599 0.30610985 0.55700177 -0.08780743 -0.2292681 0.11605143 0.08479194 0.5699577 0.58629996 -0.97540325 0.5038057 -0.23046328 0.7461067 -0.741196 -0.4327156 -0.5033133 -0.91888976 -0.3119566 -0.2107454
via 1.0709506 0.74367225 0.29228014 0.5289934 -0.107091926 -0.29539803 0.16920105 0.036714423 0.5584343 0.5810729 -0.9846968 0.46492967 -0.26471236 0.7940245 -0.782821 -0.40645447 -0.4699107 -0.901388 -0.41852888 -0.29517487
interacts 0.9807525 0.85118484 0.2441834 0.54844147 -0.08226286 -0.35107592 0.10310027 0.07884163 0.58450407 0.6444405 -1.1132809 0.5408807 -0.26947853 0.6817623 -0.8698241 -0.5557189 -0.5143117 -0.99731964 -0.45719007 -0.34315938
core 1.1876652 0.8651434 0.34981197 0.5916365 -0.07152739 -0.31486192 0.15726091 0.050970133 0.63872164 0.6589425 -1.1219192 0.5538032 -0.25768846 0.8991962 -0.91823715 -0.51780325 -0.58002275 -1.0828466 -0.4561361 -0.35854146
mouse 1.2106208 0.8184784 0.35265982 0.61375874 -0.12920837 -0.27177724 0.17665043 0.06198294 0.61309063 0.6486769 -1.0994323 0.5730256 -0.30680233 0.8634808 -0.8635313 -0.47182056 -0.5569775 -1.0596969 -0.38843516 -0.24861981
does 1.161923 0.7904972 0.31577504 0.58889025 -0.08491965 -0.2630593 0.17838815 0.023356788 0.5992952 0.61811584 -1.0604657 0.52818006 -0.27057365 0.83738613 -0.84676266 -0.46149513 -0.5498032 -1.0279224 -0.40227348 -0.2906285
cycle 1.2446784 0.9749808 0.26580688 0.5578356 -0.10707796 -0.25782704 0.22749287 0.12193107 0.701425 0.5931841 -1.0020359 0.48188725 -0.15540186 0.98831326 -1.0039151 -0.4346813 -0.5499027 -1.0720477 -0.60699534 -0.37943587
CREB 0.86618197 0.56681305 0.2581116 0.44625103 -0.1237371 -0.16693124 0.12449911 0.011167097 0.41541356 0.5096682 -0.82064795 0.42423737 -0.24194323 0.5981921 -0.6134546 -0.34830096 -0.42203513 -0.7521557 -0.2218398 -0.10681853
epithelial 1.1052682 0.74755156 0.34158015 0.5337187 -0.09082474 -0.2526603 0.17324495 0.021653634 0.5490462 0.5988552 -1.0145153 0.5058721 -0.2803532 0.82519495 -0.81032604 -0.40961307 -0.51227915 -0.98132545 -0.38287982 -0.2644072
N-cadherin 0.7505027 0.8105739 0.40580642 0.07618218 -0.035458423 -0.59447694 0.37839833 -0.4882237 0.26410726 0.39826986 -0.9458547 0.3486642 -0.34357595 1.0171967 -1.1081766 -0.20988575 -0.58660734 -1.2096438 -1.0317907 -1.0895344
microscopy 1.0451429 0.7141646 0.28393814 0.52754325 -0.102379955 -0.2313518 0.13963154 0.053549588 0.54391026 0.5630662 -0.9378044 0.4994305 -0.23495448 0.7497654 -0.7382896 -0.4114071 -0.47116324 -0.8927229 -0.332615 -0.21790259
following 0.92720485 0.70413536 0.26172 0.52085245 -0.071452804 -0.25602633 0.09758232 0.07983234 0.51791126 0.56637114 -0.92768514 0.46654153 -0.22276975 0.66712564 -0.7201499 -0.4497156 -0.4542943 -0.8455414 -0.3300914 -0.22346526
Although 0.8124492 0.55103046 0.26357996 0.39164332 -0.07221969 -0.1695314 0.1200709 -0.01267245 0.40018693 0.4623038 -0.76684076 0.3897392 -0.21875697 0.6195074 -0.59120136 -0.30652866 -0.40282074 -0.7308995 -0.26022947 -0.18672878
small 1.0640634 0.7126458 0.29604733 0.4982956 -0.090823345 -0.24039564 0.17556168 0.016103676 0.52663684 0.534867 -0.9050825 0.43275496 -0.2357275 0.8091443 -0.7481803 -0.38149107 -0.47090113 -0.8909811 -0.388533 -0.25723043
development 1.0605973 0.8014291 0.24288826 0.52571136 -0.0607699 -0.278267 0.13551836 0.10048622 0.63098365 0.5122219 -0.8934878 0.40825355 -0.11853581 0.8120158 -0.8143916 -0.44870004 -0.47218087 -0.88395625 -0.48186773 -0.33556858
subunits 0.9980259 0.7104356 0.27857077 0.5010699 -0.08916046 -0.24482457 0.11612883 0.06536233 0.52583617 0.56862366 -0.94666624 0.47206768 -0.24588463 0.71246153 -0.72883916 -0.43021017 -0.4640756 -0.8755917 -0.33553618 -0.22059964
level 1.0835296 0.7508739 0.28664482 0.5132969 -0.08045664 -0.23012634 0.16372865 0.029808711 0.5646414 0.54781723 -0.9442021 0.470014 -0.21577708 0.83631593 -0.7965594 -0.39510623 -0.48488453 -0.95337796 -0.42211622 -0.2894133
seen 1.1493907 0.7724114 0.3363785 0.54102147 -0.094466574 -0.27395284 0.17601663 0.031918127 0.59163666 0.60580695 -1.025553 0.5262853 -0.2584196 0.8666927 -0.82193285 -0.46630767 -0.5211219 -0.99318796 -0.42226362 -0.2826376
manner 1.0202816 0.68187857 0.30851677 0.5200214 -0.1091896 -0.24512444 0.14474349 0.043832052 0.50642693 0.56784374 -0.94329673 0.49476424 -0.2677408 0.7546625 -0.74086106 -0.39636973 -0.47213915 -0.9043246 -0.3295854 -0.20484872
conditions 0.973745 0.85033983 0.27408177 0.5579333 -0.05293237 -0.3278696 0.08974029 0.1233202 0.6062829 0.62856174 -1.0575808 0.49038854 -0.23280217 0.71754915 -0.84242034 -0.5583992 -0.5192983 -0.96857756 -0.45065534 -0.3042352
experiments 1.0053906 0.7960543 0.2524437 0.5087558 -0.047166552 -0.3080723 0.119940646 0.08123835 0.59906024 0.5656605 -0.96152115 0.44552642 -0.17172094 0.7554468 -0.81432575 -0.471969 -0.49285233 -0.91710204 -0.4430973 -0.3382815
phenotype 1.0360751 0.67216414 0.28537914 0.5124361 -0.09631702 -0.20246896 0.16192938 0.038943924 0.5269871 0.52918196 -0.8538839 0.43334332 -0.21112594 0.7574764 -0.67614305 -0.3695125 -0.43647963 -0.8460272 -0.30812657 -0.17352687
against 0.9748772 0.692095 0.2806692 0.45922297 -0.077507995 -0.25811106 0.15658134 -0.0012175705 0.52732515 0.47494006 -0.8389079 0.38252288 -0.1761407 0.767711 -0.71650034 -0.35949397 -0.4404086 -0.8378181 -0.42698553 -0.30589345
regulator 0.92964107 0.79901373 0.19759019 0.52455336 -0.08590942 -0.2956335 0.06187909 0.13146399 0.5920139 0.5474756 -0.90308565 0.4547755 -0.16277549 0.70299965 -0.7997102 -0.49333763 -0.46859938 -0.87605035 -0.4533657 -0.30906722
number 0.89777666 0.6316 0.24176231 0.4653728 -0.09220151 -0.22994503 0.12304872 0.05659111 0.47138587 0.4975205 -0.8417884 0.42209807 -0.22192943 0.66447794 -0.6632017 -0.3818044 -0.42563424 -0.80407345 -0.32371318 -0.20447156
decreased 1.0095521 0.77618706 0.29398423 0.47779557 -0.079623684 -0.25072643 0.14654174 0.02269319 0.52417886 0.57359576 -0.99302113 0.50946456 -0.23740806 0.7666616 -0.8159734 -0.46238586 -0.51027894 -0.99125654 -0.42572668 -0.32354167
deaminase 1.1862346 0.82482404 0.31150547 0.5657308 -0.17088546 -0.2540046 0.24684289 0.035551883 0.5824211 0.61119545 -1.0089556 0.54876584 -0.24681215 0.9099235 -0.8958873 -0.37975106 -0.51514065 -0.99741554 -0.4463707 -0.26124758
matrix 1.0059364 0.58447295 0.2825698 0.4914209 -0.15625536 -0.23233601 0.19682579 0.0070753554 0.4593252 0.49377787 -0.81381094 0.4503881 -0.27835777 0.74694 -0.68280184 -0.27652508 -0.41225684 -0.8262638 -0.30316776 -0.18055733
microfilaments 0.9753489 0.8330312 0.1715079 0.5903391 -0.058401544 -0.34725407 0.01727044 0.20550913 0.67516214 0.63320506 -1.0343175 0.51424253 -0.14929621 0.6509149 -0.84902376 -0.59036875 -0.50887865 -0.90541524 -0.3928111 -0.30522633
vascular 1.0803156 0.72830474 0.3037627 0.55108047 -0.10216176 -0.25863102 0.16336162 0.046313174 0.55689853 0.55555034 -0.9556824 0.46941757 -0.23612086 0.7939144 -0.7758771 -0.38985386 -0.48292848 -0.9155459 -0.3776543 -0.23095474
component 1.0130472 0.80627054 0.29165047 0.5247426 -0.073513314 -0.30995178 0.1376286 0.06033876 0.5653389 0.62270576 -1.0476521 0.50315624 -0.25123766 0.7609439 -0.8406436 -0.4885272 -0.5298072 -0.9704035 -0.425337 -0.30802703
five 1.1310158 0.7988413 0.35053656 0.61122686 -0.12927577 -0.25152978 0.12284391 0.08070231 0.6076771 0.66145617 -1.0919541 0.56174535 -0.2718314 0.8173673 -0.82524204 -0.4871666 -0.53451294 -0.9912554 -0.34929788 -0.20991306
cadherin 1.004246 1.0180185 0.48200023 0.19095773 -0.063008755 -0.69504315 0.431872 -0.5051021 0.39872208 0.52178234 -1.1793052 0.45444056 -0.40026286 1.2423581 -1.3426603 -0.30663514 -0.71917075 -1.4631681 -1.2000008 -1.229198
mismatch 1.0200198 0.6585351 0.30254254 0.52422786 -0.12360012 -0.1927644 0.14816752 0.03189354 0.48011288 0.5629919 -0.936525 0.504868 -0.27956158 0.711058 -0.6819217 -0.3810532 -0.43855605 -0.8446147 -0.25895593 -0.15667361
