5200 50
, -0.273403 0.24751657 -0.025621936 0.090098605 -0.38643596 0.13183346 -0.3157464 -0.3615434 -0.032111596 -0.49989069 -0.6307116 0.77014416 0.05128091 0.21620539 0.18306495 -0.3059629 -0.6518278 -0.14114821 0.16174038 -0.6656885 0.60874134 0.5636588 -0.27452022 -0.19321355 0.23674732 -0.7395306 0.19856028 -0.121498354 -0.24840567 0.8353819 0.076642685 -0.23158252 -0.29681104 -0.34126455 0.4193524 0.40979254 -0.18351813 -0.6410457 -0.03371408 0.54341656 0.058087334 0.4736492 -0.7187598 0.06447615 0.2207021 0.36422268 0.35758638 -0.18232398 -0.19477448 0.36293957
of -0.049605645 0.09784268 0.16599838 -0.036492288 -0.16965473 0.2815311 -0.33958685 -0.23816052 0.09395111 -0.39399448 -0.62250483 0.5057346 0.20038372 0.36701858 0.18911001 -0.16579027 -0.563797 -0.33355525 0.26050374 -0.43196118 0.6431372 0.46117648 -0.16088058 0.01741843 0.12638381 -0.86494076 0.22457433 0.0027030965 -0.06740734 0.69169486 0.24222629 -0.0887244 -0.41654274 -0.46197 0.4334679 0.53130835 -0.21183203 -0.68072337 -0.0141361095 0.41326472 -0.076824486 0.33575764 -0.7207613 0.16296549 0.13329002 0.2203983 0.09480267 -0.23689145 -0.15724778 0.53344697
the -0.07105958 0.074751936 0.20877826 -0.042884715 -0.16660853 0.25701383 -0.42458966 -0.20261323 0.07468172 -0.40794238 -0.58529913 0.48258147 0.22652045 0.41607547 0.18903875 -0.14405699 -0.57857233 -0.39498845 0.22599097 -0.3541428 0.66472036 0.508284 -0.10056679 0.103884116 0.1335561 -0.8881243 0.18682225 0.0005687329 -0.038045477 0.66689533 0.28565335 -0.098532744 -0.35842115 -0.48977 0.38527218 0.5638388 -0.14804493 -0.6698513 -0.051578593 0.40358347 -0.08146799 0.31029138 -0.83556557 0.21566269 0.07915081 0.17337875 0.017296582 -0.24414624 -0.16477774 0.56802255
and -0.13139161 0.2181274 0.030826861 0.083604775 -0.25099647 0.19158772 -0.33068636 -0.33796072 -0.0117331445 -0.49378014 -0.66933423 0.6793257 0.12289447 0.32388574 0.21779397 -0.23088849 -0.61432153 -0.2310017 0.23984708 -0.5921091 0.6663335 0.5373312 -0.279923 -0.16583356 0.17874356 -0.88569766 0.22050755 -0.046688378 -0.19520473 0.7858532 0.15487786 -0.14838792 -0.41764158 -0.43685475 0.4033332 0.48817632 -0.17585334 -0.772735 0.042946417 0.4504623 -0.0072526783 0.4131413 -0.7066827 0.13663447 0.17648424 0.40726566 0.23547003 -0.22944157 -0.13934094 0.4385028
. -0.0479873 0.10524951 0.13686082 0.030330945 -0.2270839 0.27787247 -0.3234635 -0.2628068 0.060353577 -0.3879736 -0.61508167 0.5584917 0.1555368 0.32184824 0.217427 -0.17465195 -0.57169217 -0.32020727 0.25753772 -0.44054836 0.6339564 0.48412144 -0.20407297 -0.006295252 0.10270466 -0.88108104 0.2096155 0.0148370825 -0.0710139 0.70969737 0.21997066 -0.08887671 -0.39820302 -0.45935485 0.4296773 0.5214663 -0.1919935 -0.731949 0.026777562 0.41552195 -0.107703455 0.36884955 -0.74099654 0.13503085 0.16782078 0.2939746 0.11632809 -0.20927347 -0.12222196 0.5274034
in -0.1459677 0.4399562 -0.07306211 0.32847977 -0.24458481 0.052791506 -0.54449064 -0.18311033 -0.07914877 -0.65713054 -0.52849305 0.7252444 0.27316865 0.5781125 0.14421462 -0.18866616 -0.69184065 -0.24599123 0.23530164 -0.58485496 0.82215244 0.6523659 -0.41318935 -0.27877572 0.2603206 -0.98161066 0.26139268 -0.07579574 -0.25317818 0.843102 0.26073098 -0.03952209 -0.36207244 -0.56911665 0.21366838 0.47351018 -0.0011655465 -0.8263396 0.087128066 0.3494334 0.08587743 0.47007436 -0.7801798 0.2467953 0.08105481 0.45016414 0.18098357 -0.22476374 -0.0484216 0.37794048
actin 0.10815232 0.2194821 -0.034886274 0.17862186 -0.18231662 0.14682181 -0.43520018 -0.18505044 -0.04740609 -0.55536884 -0.6159062 0.53383404 0.25808865 0.5698732 0.17929275 -0.029499559 -0.5947127 -0.3368506 0.32052246 -0.43182412 0.8271542 0.5548075 -0.3951233 -0.20333327 0.115371235 -1.1660315 0.23463625 0.058489095 -0.14970975 0.7025182 0.32513592 0.06265374 -0.5355776 -0.5793063 0.28663638 0.56561166 -0.013558242 -1.0417136 0.22247729 0.22923827 -0.041568127 0.34039024 -0.7220686 0.24309461 0.092667975 0.5810755 0.08309034 -0.25514427 0.019653792 0.4555308
to -0.098906115 0.10580674 0.1919651 -0.047048427 -0.1937232 0.25873697 -0.43192965 -0.2360203 0.12227289 -0.39291677 -0.6002804 0.5301536 0.2267882 0.3879591 0.22829814 -0.19680667 -0.5757156 -0.4054768 0.23108898 -0.3857116 0.6625501 0.47928193 -0.0843737 0.12308088 0.10489828 -0.8483811 0.18117568 -0.0039693946 -0.03519739 0.7113776 0.2787842 -0.09971866 -0.3427207 -0.47478855 0.41367698 0.54788554 -0.18075173 -0.6405687 -0.10654069 0.42691624 -0.065643765 0.3587681 -0.8248056 0.20020258 0.11970615 0.14437908 0.05616682 -0.24402457 -0.1744565 0.5754726
) -0.06816901 0.09361829 -0.095061466 0.0659232 -0.36548868 0.3231117 -0.07579258 -0.45017728 -0.0655362 -0.44602686 -0.7420592 0.72985464 -0.038892847 0.091792926 0.36023206 -0.30658102 -0.5217352 -0.17071238 0.3203817 -0.5535945 0.4450805 0.4580451 -0.40617353 -0.22389065 0.008636096 -0.85864985 0.24322069 -0.007095646 -0.11057255 0.7823618 0.073940344 -0.0975772 -0.44942075 -0.22858691 0.5525734 0.39233658 -0.18220182 -0.79963636 0.21025161 0.4738994 -0.15596615 0.3021094 -0.6760327 -0.05580223 0.43140125 0.5330001 0.4278283 -0.121803895 -0.17166801 0.34336463
( -0.06593166 0.10193762 -0.011910486 0.09823422 -0.38286433 0.32609233 0.025554068 -0.4750202 -0.07343864 -0.40125793 -0.726171 0.7434735 -0.1263322 0.027615163 0.40767094 -0.2505232 -0.53730965 -0.120022416 0.26644588 -0.62693834 0.48615783 0.45201617 -0.37679955 -0.274484 0.06060514 -0.8787205 0.2788501 -0.030540138 -0.20630594 0.74319166 0.037095957 -0.142484 -0.43604708 -0.25449604 0.5155743 0.4147703 -0.28425628 -0.8049036 0.14115572 0.50956386 -0.17190298 0.43118778 -0.579407 -0.045965515 0.4044212 0.59652627 0.44421905 -0.13187242 -0.1564158 0.36336988
a -0.072648905 0.009630999 0.20864609 -0.12103963 -0.19918229 0.31826812 -0.32040986 -0.25386173 0.11484274 -0.35075846 -0.60258025 0.4654758 0.15305321 0.31301543 0.23271193 -0.17389219 -0.56490254 -0.40524578 0.22310014 -0.3409754 0.62439686 0.4722002 -0.07204555 0.15554056 0.093033925 -0.85743153 0.18159832 -0.0045997314 -0.023466993 0.667662 0.2785541 -0.1190135 -0.3470784 -0.42751107 0.47868374 0.57525134 -0.21681704 -0.61920995 -0.09656576 0.422514 -0.117481634 0.31778643 -0.8127376 0.15863578 0.13660818 0.1414743 0.06277917 -0.22921565 -0.19083652 0.563159
with -0.09218004 0.13199247 0.15806386 -0.019140078 -0.19356976 0.2442296 -0.40132055 -0.2539564 0.07973366 -0.4392494 -0.6296468 0.57160205 0.19857627 0.35961416 0.20359756 -0.199089 -0.59816116 -0.3432592 0.23880182 -0.45808065 0.6817525 0.5126596 -0.15062769 -0.0036117942 0.16883196 -0.8774898 0.18663086 -0.014230546 -0.1002048 0.7540186 0.22841868 -0.1289996 -0.39522773 -0.49458358 0.43739417 0.5305023 -0.19452348 -0.69137967 -0.062937684 0.44231418 -0.037852786 0.38846442 -0.7774079 0.16489516 0.123230435 0.22213058 0.10760341 -0.24683787 -0.17151934 0.541628
that -0.1321119 -0.001876409 0.2524154 -0.1642158 -0.20798217 0.33139536 -0.40786025 -0.24561349 0.13937686 -0.3448251 -0.63750833 0.49361745 0.22793904 0.33195284 0.20371364 -0.2098522 -0.6147522 -0.45293772 0.19668269 -0.34032428 0.62797534 0.50527376 0.0063939136 0.25091574 0.113012336 -0.80995744 0.1736642 -0.014798232 0.016545229 0.69200134 0.29067278 -0.1422959 -0.31258437 -0.47146943 0.48540372 0.59052163 -0.24671288 -0.5882807 -0.14998348 0.48977804 -0.09257087 0.30842236 -0.89174783 0.20210558 0.12941864 0.023343276 0.005262639 -0.27480936 -0.2332293 0.63982064
profilin -0.0202034 0.079428576 0.1698743 0.022405967 -0.16785869 0.25284126 -0.5248897 -0.09643385 0.092561215 -0.42904174 -0.561614 0.4698625 0.311903 0.54497546 0.20024899 -0.12319536 -0.59349847 -0.47959962 0.2801431 -0.25382778 0.7628057 0.5492607 -0.13999197 0.16166265 0.051245954 -0.994994 0.1928244 0.03343659 -0.01875178 0.6512447 0.42122787 0.015567702 -0.36784005 -0.5590718 0.34596747 0.6080894 -0.104637116 -0.792905 0.0064444523 0.31623578 -0.12891135 0.26953837 -0.9236973 0.31787294 0.057555422 0.20354949 -0.045001764 -0.26350042 -0.12628563 0.61028695
for -0.07288193 0.085586675 0.15397045 -0.046194684 -0.21288168 0.27950683 -0.332903 -0.26266316 0.068861656 -0.40661877 -0.631426 0.53566897 0.16874543 0.33348694 0.2535862 -0.17101613 -0.5651606 -0.35497162 0.25032452 -0.40119022 0.63681716 0.5042842 -0.14100026 0.04040208 0.08540542 -0.8742388 0.19833101 0.0031785208 -0.05018317 0.69927555 0.24132088 -0.095634185 -0.39187083 -0.46314946 0.45301098 0.5200325 -0.19260266 -0.70428383 -0.008633798 0.42007834 -0.09813469 0.33830467 -0.7903835 0.16445252 0.14209878 0.24560663 0.1039347 -0.23309483 -0.17255671 0.5542351
is -0.07595699 0.038225967 0.17258719 -0.080679655 -0.21449617 0.29396152 -0.39685756 -0.24506553 0.08032032 -0.4025218 -0.61979073 0.527177 0.19599077 0.36163417 0.22346754 -0.17733814 -0.58503526 -0.39051414 0.25610337 -0.39275718 0.67325324 0.5043424 -0.08012138 0.10503386 0.12308755 -0.8900869 0.1817185 -0.0058870562 -0.041848198 0.70634073 0.28368244 -0.093011856 -0.38408554 -0.46486342 0.47151354 0.55298144 -0.20371397 -0.68645597 -0.08027024 0.44366723 -0.08052867 0.324647 -0.8272989 0.19157317 0.14363138 0.19027866 0.046877787 -0.23845649 -0.17839041 0.60936445
by -0.06012675 0.01774513 0.21319808 -0.06680428 -0.17873126 0.32439017 -0.35322797 -0.20793977 0.12093287 -0.3417356 -0.6114152 0.46972728 0.2298708 0.3426177 0.2318767 -0.19084595 -0.552381 -0.39473438 0.23792677 -0.31477785 0.62494254 0.46516755 -0.089540705 0.15315175 0.07980826 -0.8505095 0.19081967 0.009439588 -0.008688483 0.673517 0.28262642 -0.09875338 -0.38166663 -0.47320396 0.44566944 0.5674008 -0.22100243 -0.64537203 -0.057949375 0.4032615 -0.11974673 0.29891416 -0.82134223 0.19599625 0.13773252 0.155279 0.042606425 -0.24498868 -0.1768618 0.58451337
protein -0.13825926 0.15361553 -0.036992166 0.14962356 -0.4145262 0.25620165 -0.2478119 -0.3035478 -0.036790222 -0.49322554 -0.6535593 0.7525692 0.1014573 0.27024406 0.31679717 -0.28626508 -0.63958824 -0.2548819 0.2514289 -0.45079657 0.61675584 0.5768933 -0.35770637 -0.09394939 0.0241351 -0.9431232 0.25737038 -0.044427358 -0.13500857 0.7652086 0.23810959 -0.06629262 -0.37086266 -0.35634854 0.42843488 0.4855226 -0.16461913 -0.85762644 0.18937762 0.46175292 -0.12992783 0.32168418 -0.8356487 0.12401874 0.33026648 0.47575805 0.29059285 -0.18178935 -0.18964647 0.43112153
The -0.057799395 -0.015677238 0.21652952 -0.13045932 -0.17450498 0.33376104 -0.31725836 -0.2538212 0.11297894 -0.34420487 -0.609477 0.45929027 0.18086864 0.3019826 0.24139641 -0.16795254 -0.5464867 -0.39926037 0.23387346 -0.3437609 0.6009735 0.4436204 -0.06894122 0.176589 0.08902866 -0.8258958 0.17844236 0.0022037954 0.00041948605 0.64991957 0.2506843 -0.11588311 -0.37980396 -0.43354002 0.47822642 0.56814975 -0.25164285 -0.6280967 -0.07566986 0.4356772 -0.12815413 0.29353207 -0.78885376 0.1655221 0.13752024 0.14124848 0.056247782 -0.2404386 -0.19579124 0.60170615
proteins -0.13030572 0.08211808 0.058891367 0.04782112 -0.35430235 0.2840478 -0.2816715 -0.27251345 0.023467151 -0.42879644 -0.63415 0.6620444 0.14485921 0.2766909 0.2866952 -0.25918213 -0.61411434 -0.3159004 0.24004735 -0.3849366 0.607353 0.5431838 -0.23727281 0.02367764 0.024806317 -0.8912112 0.22139181 -0.02496435 -0.07557737 0.7180069 0.26149267 -0.087068655 -0.3511833 -0.37844348 0.44167295 0.5241067 -0.1901719 -0.769458 0.10688493 0.45683065 -0.13276754 0.29547966 -0.8501572 0.14041057 0.2719519 0.34472936 0.20067318 -0.20884256 -0.20884235 0.49840924
was -0.099874675 0.12828277 0.13760878 -0.012572852 -0.22171669 0.22402157 -0.36721826 -0.27157232 0.04448114 -0.42783278 -0.6079229 0.5652713 0.15524618 0.32029897 0.20341809 -0.18991351 -0.589105 -0.3148935 0.2052282 -0.4871808 0.6285953 0.4872097 -0.17027347 -0.02027196 0.17806593 -0.83875257 0.1984986 -0.024942039 -0.09893314 0.72899485 0.18828025 -0.13649428 -0.3693085 -0.4478647 0.4315804 0.505812 -0.2039526 -0.6488067 -0.056532122 0.45300987 -0.043549903 0.37710425 -0.74030054 0.1436923 0.14455616 0.24795829 0.1519297 -0.21113718 -0.15549967 0.4984546
beta-catenin -0.50822955 0.83366466 -0.16435516 0.5213745 -0.4009542 -0.19736013 -0.79680634 -0.22901648 -0.16069654 -0.87181693 -0.509029 1.0402794 0.19269817 0.6110416 0.08241515 -0.39819682 -0.8819157 -0.11138469 0.09560698 -0.8691809 0.9118658 0.89052147 -0.4316248 -0.43264934 0.51530147 -0.84017056 0.25728944 -0.283484 -0.4766604 1.1196193 0.16627024 -0.25386372 -0.11294656 -0.5521268 0.11841615 0.3444851 0.072843626 -0.67908496 -0.10747395 0.53210455 0.38993153 0.6904121 -0.9235742 0.24075133 0.048504975 0.3510786 0.3288851 -0.20647018 -0.13783383 0.26505587
cells -0.09706743 0.038498946 0.24764422 -0.09141507 -0.1697221 0.31363124 -0.38977206 -0.23719707 0.11581919 -0.34545097 -0.6100356 0.49549925 0.2102801 0.34815174 0.22114445 -0.17913614 -0.5660811 -0.4109416 0.2089618 -0.37255418 0.6130439 0.48701897 -0.054632436 0.14299591 0.12937403 -0.8116028 0.1807759 -0.027699122 -0.005036339 0.6865567 0.27286676 -0.14261295 -0.3239674 -0.4581572 0.44648275 0.5782784 -0.21080352 -0.5849457 -0.116456464 0.43094555 -0.066207 0.33090523 -0.8499761 0.1787727 0.11084678 0.07793604 0.041833833 -0.23663248 -0.20037927 0.6126892
myosin 0.24853912 0.25271854 -0.1676662 0.17667565 -0.20287953 0.16150688 -0.15245514 -0.52970463 -0.18987727 -0.7376914 -0.92705625 0.75554657 0.03639048 0.3864976 0.29155025 -0.055116378 -0.59046066 -0.11872051 0.44844303 -0.9531868 0.83956575 0.53956294 -0.6971848 -0.7818592 0.25484705 -1.4072292 0.31106797 0.08594918 -0.43547446 0.91465217 0.05389294 -0.024745531 -0.87369615 -0.5356469 0.50283957 0.5216963 -0.12175875 -1.3457931 0.4158238 0.33786643 -0.033085827 0.51367205 -0.424361 -0.0053556403 0.29267177 1.0921615 0.4698446 -0.2569525 0.059654783 0.30498746
alpha-catenin -0.4658337 0.8144152 -0.17425917 0.5133091 -0.39745003 -0.18793471 -0.7612181 -0.25564533 -0.16968375 -0.8742708 -0.5378031 1.0362322 0.17674537 0.5953705 0.09507962 -0.37554348 -0.87169355 -0.09954862 0.117270015 -0.90006125 0.915672 0.8818153 -0.4657071 -0.486938 0.5171277 -0.88451153 0.26300606 -0.26213688 -0.4944262 1.1304964 0.15366124 -0.24095266 -0.16469578 -0.55387414 0.14436285 0.3436089 0.0672769 -0.73101467 -0.07324231 0.52565473 0.36763498 0.69605076 -0.88424903 0.2256659 0.06884604 0.4160603 0.35577092 -0.20275794 -0.121670954 0.25585642
binding -0.077707045 0.16913061 0.09179324 0.09895475 -0.21082914 0.21113268 -0.61412174 -0.088664554 0.06758803 -0.47987676 -0.5411494 0.5308691 0.34866726 0.5971954 0.16595507 -0.1565847 -0.64709467 -0.45129532 0.26289985 -0.2286395 0.82209736 0.60376215 -0.15580635 0.16437759 0.07282441 -1.008099 0.17498118 0.038488112 -0.06401243 0.693466 0.46111545 0.027152536 -0.36475518 -0.6031999 0.29252508 0.6071985 -0.08308902 -0.82039243 0.0052590715 0.34788468 -0.07056956 0.29397935 -0.9428959 0.38033506 0.056117825 0.25743467 -0.0757591 -0.2835464 -0.106982276 0.59755087
chain 0.25127304 0.27430728 -0.1942008 0.22511277 -0.19647689 0.13404918 -0.11740308 -0.55290127 -0.20657548 -0.7596466 -0.9409237 0.7745804 0.028916454 0.39890793 0.2792577 -0.01711085 -0.5827941 -0.11293451 0.45869654 -1.0003965 0.85688144 0.54543495 -0.7481088 -0.86585146 0.2643857 -1.4539106 0.3327293 0.058851574 -0.47175434 0.90225095 0.031902675 -0.028384985 -0.9272969 -0.5536861 0.4840969 0.49485558 -0.112595275 -1.4143237 0.44566223 0.32807744 -0.0135329785 0.5299458 -0.36955166 -0.032810472 0.2731419 1.1593704 0.4827441 -0.26549488 0.06877466 0.2754835
are -0.09668036 0.041441288 0.21006334 -0.11900616 -0.20983186 0.2971489 -0.39539313 -0.27541038 0.09488105 -0.37212387 -0.637101 0.5443639 0.19070825 0.32895538 0.24335374 -0.19005103 -0.5909144 -0.40078083 0.21769042 -0.3930478 0.65828145 0.48592392 -0.060087424 0.10383143 0.11655432 -0.86181957 0.16014037 -0.005053714 -0.031150987 0.72261715 0.25414753 -0.14533676 -0.37780294 -0.44829115 0.4739713 0.57556355 -0.22315346 -0.6533107 -0.09047811 0.4744266 -0.079459175 0.33857346 -0.83939606 0.16522135 0.14043961 0.15582314 0.060036905 -0.2558281 -0.19499731 0.60791266
were -0.10514787 0.11995554 0.10774776 -0.013512656 -0.22249718 0.24050571 -0.34462976 -0.29558727 0.026492449 -0.4200041 -0.6347611 0.5828254 0.15063216 0.31115958 0.21029763 -0.19533053 -0.58707404 -0.29621357 0.19908366 -0.49862978 0.6270109 0.49899557 -0.1785474 -0.05850282 0.1632928 -0.8207556 0.17782834 -0.039609093 -0.11964006 0.72807467 0.1664411 -0.14846146 -0.37158802 -0.41974258 0.43270797 0.5072107 -0.19252825 -0.6631805 -0.047652736 0.4611316 -0.027251907 0.38820934 -0.71900266 0.13062017 0.16794927 0.26345053 0.15612954 -0.21467157 -0.15865964 0.48361626
cofilin -0.016754508 0.10213876 0.14907709 0.03613383 -0.15987791 0.23285994 -0.53139025 -0.113037154 0.07955063 -0.45262176 -0.5635144 0.48002517 0.31407574 0.54735535 0.18375042 -0.11280431 -0.6078421 -0.46272853 0.27905148 -0.28525975 0.7761699 0.5584531 -0.16163242 0.11035604 0.086244866 -1.0079857 0.19107044 0.027350888 -0.044387568 0.67208475 0.40140554 0.008535013 -0.38389584 -0.56411123 0.3466454 0.60047853 -0.092489935 -0.79483116 0.0015122439 0.3162709 -0.09597106 0.29001015 -0.90188634 0.3055978 0.05206156 0.2369967 -0.03110112 -0.26799992 -0.11157062 0.5964323
as -0.17750636 0.1587661 0.12674801 0.009823704 -0.25845078 0.20574105 -0.45006108 -0.2047782 0.075237826 -0.43088916 -0.57159275 0.57718194 0.23454814 0.3942804 0.1802411 -0.20189434 -0.65681636 -0.38714674 0.20479149 -0.406116 0.6771139 0.5481274 -0.13919978 0.06307744 0.19374278 -0.85124266 0.18516082 -0.06588225 -0.10251349 0.7363383 0.28172746 -0.12639728 -0.2994122 -0.48133704 0.38674617 0.5504237 -0.19014896 -0.64563096 -0.11013734 0.46458742 -0.020883188 0.3733191 -0.86860216 0.20117225 0.09129625 0.1997491 0.113088466 -0.25171894 -0.19392046 0.5356692
heavy 0.26102948 0.15650803 -0.12003173 0.12051429 -0.20402744 0.19072367 -0.07978523 -0.5931852 -0.16248825 -0.65649885 -0.9851752 0.71529585 -0.053651452 0.33111224 0.3087574 -0.029980363 -0.5084887 -0.10844937 0.4802636 -0.92269164 0.78112006 0.44123384 -0.6264888 -0.7763931 0.20280473 -1.4139533 0.26964706 0.10116589 -0.37221023 0.85774595 0.020013519 -0.0499256 -0.93929255 -0.47702602 0.5480909 0.48077646 -0.19047777 -1.3286179 0.37643507 0.347772 -0.06661633 0.49125955 -0.33382714 -0.038836896 0.2610206 1.1045647 0.4927607 -0.26409027 0.0984522 0.3381355
not -0.13217841 0.17207332 0.12658106 -0.021003937 -0.2491738 0.2590715 -0.45213747 -0.27408412 0.052377857 -0.42658588 -0.6346914 0.6144743 0.19064857 0.34696403 0.21296492 -0.19666466 -0.60092264 -0.3316495 0.2054778 -0.46695417 0.67183304 0.54650694 -0.14919092 0.036175676 0.17909987 -0.83357143 0.17886363 -0.05449005 -0.088118486 0.8129817 0.22757319 -0.13965254 -0.34741408 -0.47665828 0.47266278 0.5265404 -0.19562581 -0.65073 -0.13460734 0.4552111 -0.0048522386 0.4058473 -0.7980482 0.19113325 0.1318898 0.1693743 0.11476304 -0.23525535 -0.16962907 0.5525599
or -0.11994189 0.1319992 0.1047281 0.0016414504 -0.25825456 0.2694221 -0.30158073 -0.31399742 0.03702011 -0.43636718 -0.65619904 0.62198263 0.12176481 0.299655 0.24814107 -0.21668018 -0.6074759 -0.2977915 0.24569403 -0.47209746 0.62246144 0.5203691 -0.21103838 -0.03344585 0.12569071 -0.88076025 0.21544728 -0.032574274 -0.086333476 0.7624044 0.17271787 -0.11977293 -0.38979292 -0.43879104 0.46119773 0.519309 -0.1994481 -0.70499384 -0.0150686465 0.48568165 -0.06203733 0.39240572 -0.7877101 0.14551567 0.18587925 0.30034465 0.19099304 -0.20965093 -0.1844192 0.5043235
on 0.04451739 0.170532 0.16301334 0.12941149 -0.10383126 0.22568014 -0.47640413 -0.135271 0.019915178 -0.47105494 -0.58214 0.44043416 0.29506367 0.5924872 0.1552362 -0.08390659 -0.5406404 -0.39023083 0.31405494 -0.36668897 0.769738 0.52989566 -0.22351302 -0.024356095 0.09138643 -1.0459114 0.21433705 0.0759099 -0.06865601 0.60948056 0.33839107 0.05567816 -0.49865872 -0.59315306 0.275976 0.57540476 -0.04339653 -0.86464727 0.123821706 0.27150005 -0.082691565 0.27306396 -0.77717876 0.31746912 0.02049193 0.35816777 -0.0075915847 -0.265191 -0.008872194 0.51066065
an -0.09188828 0.066716 0.176094 -0.03975195 -0.21830693 0.2985695 -0.39422324 -0.24165788 0.08480461 -0.3947196 -0.63852614 0.54750407 0.20272185 0.37271973 0.23819438 -0.20373915 -0.6074503 -0.38582912 0.23790394 -0.3811851 0.6730566 0.5027727 -0.13356377 0.08756912 0.10764176 -0.881859 0.20608914 -0.0060746535 -0.043776587 0.7170123 0.29035482 -0.08697216 -0.38640904 -0.48390347 0.4637189 0.59084994 -0.221519 -0.70471406 -0.053116303 0.4330976 -0.09702388 0.35054234 -0.8351697 0.19768906 0.14018281 0.1993336 0.0674257 -0.23469901 -0.17219815 0.5931903
which -0.13534474 0.12598792 0.14309059 -0.026755389 -0.24136433 0.2468151 -0.41590735 -0.24539831 0.07026467 -0.43455693 -0.62799996 0.59017754 0.20718096 0.3719757 0.21397518 -0.21244381 -0.63154584 -0.36837417 0.21672362 -0.41959584 0.68223166 0.54745233 -0.12520371 0.057917807 0.14943306 -0.85981506 0.18214053 -0.036265563 -0.08970383 0.75778234 0.25771913 -0.13619795 -0.33656082 -0.47355717 0.42919198 0.56120765 -0.19311418 -0.6706427 -0.06682833 0.4501994 -0.038776558 0.3747742 -0.8333671 0.18705867 0.14282288 0.19697946 0.09825493 -0.2508986 -0.1928335 0.56020415
from -0.0972375 0.07109657 0.2019349 -0.06581264 -0.19397458 0.29646346 -0.3786853 -0.23876199 0.09926718 -0.38013947 -0.6293101 0.51675963 0.1998536 0.34292737 0.21862516 -0.19874214 -0.5863105 -0.39604586 0.2283526 -0.38720724 0.649081 0.5006532 -0.094841816 0.11454458 0.11639283 -0.8379397 0.18644255 -0.0132714715 -0.03317854 0.7021361 0.27320197 -0.12523317 -0.3587143 -0.46179482 0.45858544 0.57083154 -0.22243585 -0.6507261 -0.0772195 0.43980837 -0.08581584 0.3409101 -0.81864244 0.18124066 0.12975964 0.16229017 0.070292294 -0.23897375 -0.1871174 0.5905245
cell -0.13611898 0.06712231 0.2591474 -0.07645516 -0.1777364 0.31568143 -0.43760747 -0.22929658 0.116164714 -0.39090845 -0.62983006 0.5242904 0.22676569 0.38989937 0.21552914 -0.2067429 -0.60770565 -0.4287995 0.20337725 -0.38847512 0.6560375 0.538629 -0.05680782 0.15220399 0.16411331 -0.8314417 0.18021573 -0.051000502 -0.010371279 0.71724063 0.28484437 -0.16129126 -0.30274877 -0.48666117 0.44463786 0.5988923 -0.19766034 -0.5986601 -0.1349682 0.45707205 -0.039032146 0.3474197 -0.90570164 0.20532165 0.10884917 0.051756497 0.042499226 -0.24136676 -0.21530351 0.6343733
expression -0.08774818 0.36342254 0.013620649 0.21675572 -0.19956246 0.098512076 -0.46261248 -0.27335066 -0.078774005 -0.61536765 -0.5933034 0.66546524 0.1679033 0.5148515 0.14672337 -0.15467249 -0.6220882 -0.22437426 0.2670402 -0.6428666 0.75385594 0.6184755 -0.3583855 -0.340465 0.29550844 -1.0100933 0.2533373 -0.055789094 -0.25102988 0.8081718 0.16359901 -0.08983737 -0.45346737 -0.53276855 0.2744282 0.4634485 -0.047209334 -0.8225476 0.06991791 0.36433882 0.08951261 0.44426346 -0.69987607 0.20022224 0.06511648 0.5038527 0.2027752 -0.243232 -0.037328713 0.36616865
In -0.05256394 0.018301278 0.20035899 -0.11259015 -0.1885868 0.32146284 -0.3470728 -0.2695302 0.090537444 -0.3734278 -0.64725983 0.51468474 0.17032412 0.3222326 0.22175337 -0.18532948 -0.5738268 -0.36964667 0.23468372 -0.42397988 0.6318253 0.4613412 -0.088651896 0.10548121 0.10696835 -0.8459326 0.19671509 0.006106305 -0.030705404 0.6802137 0.23427129 -0.12143968 -0.39047116 -0.46072027 0.4653998 0.5655922 -0.25292045 -0.6493728 -0.08499931 0.46221256 -0.08615522 0.32067865 -0.7853751 0.17833118 0.14990631 0.15710747 0.07206951 -0.25260267 -0.18670197 0.5763236
we -0.11987313 0.033680238 0.17827877 -0.11122432 -0.20541924 0.28716087 -0.4038968 -0.25455043 0.07981722 -0.36267138 -0.6582545 0.5231073 0.18341698 0.3036893 0.20225422 -0.2157437 -0.61235976 -0.3898574 0.19711123 -0.43280172 0.668321 0.5179754 -0.057205364 0.14724839 0.14453173 -0.7855527 0.17250788 -0.03899641 -0.07359043 0.71949244 0.2408178 -0.16996153 -0.34708327 -0.4617865 0.47511974 0.5610721 -0.26019838 -0.59846175 -0.16282877 0.5101635 -0.038195793 0.33029833 -0.85017806 0.20990512 0.14290646 0.11891176 0.058950424 -0.23422611 -0.24605082 0.5969275
actin-binding -0.02846555 0.101428695 0.10422145 0.0391836 -0.20792635 0.24664944 -0.49896237 -0.13171554 0.06021594 -0.4406875 -0.56629694 0.49510834 0.30304238 0.52070886 0.18515341 -0.12791021 -0.6192473 -0.4413074 0.2686697 -0.25262788 0.7711994 0.55619645 -0.16491798 0.1366241 0.06418709 -1.0026479 0.1902131 0.045280848 -0.033945724 0.66094124 0.41005394 0.012618135 -0.4005974 -0.5557595 0.33678427 0.6154574 -0.11226887 -0.82162076 0.04388262 0.34184623 -0.098632336 0.27799872 -0.8957971 0.31633523 0.09082898 0.28425145 -0.038201425 -0.27764025 -0.10850589 0.5919345
but -0.10354882 0.22321844 0.09149833 0.048133977 -0.24126367 0.19641992 -0.4317409 -0.28451797 0.025632283 -0.5063865 -0.62720263 0.6215801 0.1723522 0.3950549 0.20669365 -0.2264723 -0.636412 -0.31770134 0.22549596 -0.5485737 0.70782334 0.5635765 -0.2224919 -0.095370494 0.19732955 -0.9095945 0.21184322 -0.041224692 -0.14775452 0.7966885 0.19435538 -0.15363155 -0.3790953 -0.4766195 0.41667333 0.49956033 -0.14861111 -0.72292346 -0.045069326 0.44865152 -0.004177491 0.44504252 -0.7744523 0.14558733 0.1447604 0.29443392 0.17221355 -0.21389022 -0.14265999 0.5052218
at -0.093173504 0.058305137 0.1988709 -0.09026763 -0.19094272 0.29589176 -0.35579175 -0.26690683 0.094479084 -0.37654775 -0.6436529 0.52617705 0.21044438 0.34098372 0.22371522 -0.19560902 -0.5798974 -0.3895458 0.22708723 -0.41119146 0.63829184 0.5000179 -0.10155086 0.098740205 0.11328966 -0.8643412 0.18741883 0.0024565677 -0.04836317 0.7126702 0.2667617 -0.11463375 -0.38455763 -0.44525033 0.4701465 0.56502676 -0.21203554 -0.6575328 -0.07640537 0.4303526 -0.077145696 0.32829916 -0.81050074 0.14430344 0.14046964 0.1745306 0.075633734 -0.22311755 -0.18466747 0.5819037
complex -0.1543034 0.13134699 0.16986313 -0.019048035 -0.21847029 0.24758248 -0.4673519 -0.19945961 0.09168628 -0.4166978 -0.56116694 0.55479926 0.2372075 0.39208743 0.21031979 -0.21613428 -0.62977487 -0.40059844 0.22545396 -0.3603191 0.6829634 0.561356 -0.08990041 0.109106965 0.12262536 -0.8376746 0.18819678 -0.03416478 -0.05574391 0.7223198 0.29500496 -0.116078384 -0.31467485 -0.48645127 0.3996801 0.58448076 -0.17697455 -0.63200086 -0.0799936 0.42798665 -0.026527125 0.3447356 -0.8735847 0.20608637 0.10407193 0.1285688 0.039726406 -0.25077963 -0.18196052 0.5793792
E-cadherin -0.42203233 0.6786954 -0.11188368 0.40493187 -0.37383685 -0.079976805 -0.66409683 -0.26468363 -0.122214206 -0.78565466 -0.5750464 0.96971905 0.17457414 0.53176254 0.11409902 -0.36613515 -0.82924217 -0.14642961 0.14713459 -0.8175908 0.8461703 0.8171138 -0.39369974 -0.37103873 0.4414244 -0.86032176 0.26363653 -0.21792156 -0.41119176 1.0644716 0.16474378 -0.23579873 -0.19019069 -0.5191793 0.20981698 0.38540834 -0.0062461323 -0.7048658 -0.0790976 0.5315237 0.28476167 0.6261533 -0.87220407 0.21671046 0.102015264 0.36432555 0.31415898 -0.20796001 -0.16160156 0.31681958
have -0.13999085 0.018519396 0.23495407 -0.13807048 -0.22585297 0.31008533 -0.4191407 -0.25285143 0.10134614 -0.36957705 -0.643916 0.53104496 0.18648516 0.33395007 0.2222908 -0.21235828 -0.6417181 -0.4312973 0.20776443 -0.39985952 0.6406528 0.5040314 -0.031525627 0.16634558 0.1270266 -0.8410582 0.19217435 -0.016772488 -0.0049940217 0.7059473 0.26403996 -0.17754455 -0.32283175 -0.47309902 0.48068237 0.59115285 -0.257873 -0.60973936 -0.13740608 0.51528525 -0.08528491 0.339589 -0.87873787 0.19312173 0.136889 0.07783216 0.050852038 -0.25591943 -0.22844692 0.6179761
these -0.12176941 0.0840397 0.20507546 -0.08102118 -0.20564784 0.2756092 -0.45312205 -0.22896552 0.08410153 -0.42872307 -0.6175793 0.54105765 0.22660585 0.40594846 0.20633274 -0.19223456 -0.6288798 -0.41638127 0.21361507 -0.37856105 0.6860017 0.54463077 -0.07826044 0.14009385 0.15098721 -0.8709032 0.181389 -0.030842159 -0.036707222 0.72959334 0.28845638 -0.14732203 -0.3426178 -0.49455166 0.42424265 0.5990684 -0.18750025 -0.6402596 -0.11497132 0.47561738 -0.0585965 0.3428454 -0.8958744 0.21987422 0.09892026 0.12320413 0.035412315 -0.26317275 -0.2055409 0.6146077
: -0.060501434 0.058418125 0.16154072 -0.06911235 -0.19017835 0.2877886 -0.28628337 -0.24897222 0.055404313 -0.39088136 -0.60094374 0.49594006 0.13805419 0.27816668 0.21550275 -0.15923351 -0.54184425 -0.30402198 0.24341254 -0.41441843 0.5857207 0.4580269 -0.14471287 0.014669776 0.108881935 -0.8243946 0.1814182 0.0062559056 -0.06316801 0.6401824 0.17708851 -0.1088984 -0.39733902 -0.4086454 0.44127783 0.5170948 -0.21693642 -0.6635885 -0.013796396 0.41306707 -0.09076697 0.29939982 -0.7090261 0.13019735 0.16284628 0.23411062 0.13674688 -0.20448445 -0.14229368 0.50838053
talin -0.073914535 0.23979482 -0.007453219 0.15748473 -0.25367275 0.13968997 -0.44592094 -0.21730185 -0.035389595 -0.5581752 -0.60912514 0.6381311 0.21543704 0.49579623 0.17928058 -0.15152086 -0.6311305 -0.27794307 0.25616488 -0.5180003 0.765353 0.5819866 -0.34987715 -0.1853978 0.17919542 -1.0107359 0.21891926 -0.040008467 -0.20625378 0.7753276 0.2600407 -0.035884444 -0.42438155 -0.5068298 0.3352314 0.5073522 -0.06780127 -0.86677366 0.07664023 0.35472456 0.0065548043 0.40640447 -0.76327044 0.21022089 0.1155633 0.47643286 0.173261 -0.23929498 -0.08933666 0.42017922
genes -0.08556564 0.059018716 0.1262448 -0.059836354 -0.2607084 0.28030333 -0.30389908 -0.32108757 0.03865838 -0.44360244 -0.6815599 0.5973622 0.14278011 0.31525403 0.25141338 -0.19161472 -0.5876769 -0.31592333 0.25255904 -0.48381892 0.6314113 0.5206897 -0.16741784 -0.04507186 0.12320731 -0.9143692 0.199742 0.006980005 -0.10826852 0.7232316 0.20325664 -0.13757567 -0.4347822 -0.43935832 0.48449892 0.5560474 -0.19206135 -0.7545559 0.049591813 0.45440644 -0.07767928 0.3485954 -0.768243 0.10637055 0.19579054 0.32661206 0.16577147 -0.2635492 -0.16851135 0.52184796
muscle 0.19246535 0.1506991 -0.046873093 0.09923806 -0.14539665 0.20680007 -0.1857938 -0.44233644 -0.10592275 -0.58930093 -0.8367288 0.6295704 0.07915598 0.3666766 0.27424744 -0.035067614 -0.5177164 -0.1830572 0.40782535 -0.7643288 0.74905485 0.4622703 -0.5122423 -0.54194134 0.18928911 -1.2503233 0.2513752 0.07905604 -0.30290216 0.7941568 0.10830214 -0.03670976 -0.76316696 -0.5132316 0.4786492 0.5160284 -0.13789208 -1.1535943 0.26855573 0.32077688 -0.07025659 0.42150372 -0.45999998 0.04419155 0.21284361 0.8448976 0.3405423 -0.262751 0.024123142 0.3839859
be -0.13548268 0.1428176 0.16629994 -0.010884342 -0.23080221 0.24341953 -0.5139343 -0.22900832 0.09685018 -0.4586147 -0.6419823 0.5948668 0.23735525 0.42793062 0.23085335 -0.23049933 -0.6754725 -0.42343992 0.2468492 -0.42413315 0.73048127 0.57319283 -0.093994126 0.079903945 0.1492703 -0.9191716 0.19548112 -0.045828883 -0.061524563 0.7862866 0.2981564 -0.13868184 -0.33241943 -0.52093565 0.42214522 0.58727854 -0.21931854 -0.68447685 -0.118813455 0.47165293 -0.032123696 0.40169638 -0.9309444 0.22977945 0.11178186 0.14050014 0.040848054 -0.24767415 -0.20070754 0.6041013
two -0.070032634 0.03275222 0.19465177 -0.090284534 -0.2034384 0.3074976 -0.3615876 -0.27828062 0.075161 -0.41369158 -0.6702476 0.5458815 0.19775426 0.35795012 0.23512243 -0.18339121 -0.60002846 -0.3862367 0.23901132 -0.42436314 0.6567579 0.5155728 -0.11469688 0.077041075 0.11763983 -0.9073325 0.19110192 -0.004096433 -0.056644864 0.71821445 0.2702519 -0.11968175 -0.41240403 -0.47349697 0.46440855 0.5933094 -0.21765387 -0.7262459 -0.037570935 0.45840105 -0.09546982 0.34833938 -0.82536745 0.17201552 0.15389459 0.24038951 0.09796117 -0.25656408 -0.18322589 0.59232914
kinase -0.04171217 0.032979116 0.13162081 -0.04623897 -0.2937661 0.40516385 -0.22947532 -0.35034093 0.04652575 -0.41524243 -0.70143104 0.6036143 0.13191603 0.30600977 0.26689628 -0.19927223 -0.62879944 -0.32135954 0.336131 -0.46997482 0.6140268 0.5423606 -0.2716039 -0.023000335 0.10347397 -0.9883078 0.27791378 -0.03705452 -0.031698644 0.77419496 0.17577665 -0.093124844 -0.46751174 -0.42621085 0.5647836 0.6013611 -0.23718894 -0.7496158 0.019283498 0.50090325 -0.16243838 0.3526611 -0.84716177 0.13289009 0.247968 0.37491703 0.20913656 -0.23055716 -0.18010432 0.54369515
; -0.1429174 0.08685316 0.13310851 -0.029940724 -0.27768892 0.2827788 -0.27522442 -0.31690288 0.043328892 -0.42537242 -0.642577 0.6111586 0.10071218 0.22923589 0.25385296 -0.2434076 -0.59314346 -0.26789325 0.19275245 -0.43816224 0.5991329 0.5102795 -0.1933125 -0.021204783 0.1057283 -0.8078376 0.21807572 -0.023811284 -0.09163208 0.70426726 0.199087 -0.13810161 -0.37406895 -0.38908577 0.45101982 0.49596393 -0.22373126 -0.65927386 -0.000633711 0.4651128 -0.079904355 0.3562466 -0.7600985 0.10224744 0.23418362 0.28681815 0.16295926 -0.17468716 -0.19376928 0.4820767
filaments 0.016257346 0.082484156 0.1761487 0.009153225 -0.124667324 0.2609978 -0.46854085 -0.14737873 0.08933887 -0.4107548 -0.5806619 0.44334435 0.29946086 0.5130966 0.1910725 -0.10563665 -0.53714585 -0.41834947 0.2828539 -0.30646598 0.7149484 0.49002427 -0.15729882 0.07027591 0.08169071 -0.9792658 0.1827229 0.055235647 -0.045123477 0.6408965 0.3565025 0.0029515633 -0.4402525 -0.55255574 0.36213613 0.5777596 -0.11871806 -0.7668642 0.010057886 0.30247352 -0.10224325 0.2797966 -0.78750086 0.26662415 0.054493 0.26802602 -0.0154808005 -0.25926283 -0.095342375 0.56921166
between -0.10085811 0.11679302 0.13698491 -0.011495768 -0.23209323 0.24891344 -0.3774965 -0.26363602 0.051622905 -0.43301615 -0.6474784 0.5811407 0.18098281 0.3567732 0.22723801 -0.20263804 -0.60198736 -0.34859172 0.24678193 -0.4514589 0.6716601 0.520183 -0.16407059 0.00615743 0.12734722 -0.8926345 0.20463991 -0.021182751 -0.08737045 0.7440557 0.23970452 -0.12613921 -0.38529798 -0.4705282 0.42939293 0.5364227 -0.20767222 -0.7096142 -0.02876442 0.44783193 -0.05888825 0.3621681 -0.8042033 0.16184838 0.14625387 0.2505347 0.121022865 -0.23420742 -0.16771749 0.5399953
this -0.11188545 0.03248705 0.24630956 -0.12023151 -0.21861404 0.32680565 -0.45088446 -0.23643436 0.12154356 -0.4149292 -0.6831144 0.5380319 0.2229826 0.38892794 0.2352651 -0.21214394 -0.6542076 -0.4540683 0.21670161 -0.37766954 0.7070818 0.55766296 -0.03614445 0.18752566 0.14122821 -0.9126114 0.1877128 -0.013681768 -0.032653127 0.76246667 0.3166179 -0.14324532 -0.3728318 -0.53127265 0.49730977 0.63205695 -0.23068166 -0.67413455 -0.123965554 0.49594223 -0.08160502 0.3344968 -0.94614005 0.21505308 0.1350193 0.106329985 0.023371594 -0.27764988 -0.22067863 0.6549373
also -0.11907348 0.11281527 0.1565579 -0.025610534 -0.2093022 0.24822682 -0.40333158 -0.24185447 0.072978094 -0.40745857 -0.6097777 0.55766493 0.19418913 0.35609785 0.21418338 -0.2023427 -0.59941804 -0.3628273 0.21356949 -0.42656547 0.65173405 0.5117786 -0.12201428 0.05617424 0.15567437 -0.83443373 0.18604322 -0.028360194 -0.07622639 0.7371325 0.2533469 -0.13331647 -0.34008643 -0.4552779 0.4272819 0.5330476 -0.19145483 -0.6490179 -0.07807929 0.43781912 -0.037069235 0.36095348 -0.81385785 0.17739101 0.12434829 0.18071339 0.09226601 -0.23034686 -0.17514738 0.54675126
yeast -0.076857135 0.028442778 0.2035823 -0.084003545 -0.19687277 0.31124038 -0.3940192 -0.24168658 0.09838908 -0.38225594 -0.6379549 0.50906456 0.21786274 0.3653063 0.22202797 -0.16168791 -0.5895765 -0.41413456 0.24029492 -0.38008526 0.66283876 0.5040558 -0.094251655 0.12628856 0.10170085 -0.887311 0.19685899 0.0029476285 -0.016407289 0.6894605 0.29094872 -0.11234998 -0.38880512 -0.48287064 0.4588805 0.59546465 -0.2125031 -0.6912686 -0.04933389 0.42217043 -0.10874106 0.3168332 -0.84427184 0.19587359 0.13070148 0.18432355 0.04402041 -0.26425603 -0.17461331 0.60608375
histone -0.1196901 0.019887293 0.26774055 -0.18440877 -0.22488037 0.32199883 -0.32960886 -0.2519912 0.112666324 -0.4017807 -0.71113664 0.55732924 0.1335744 0.26667452 0.26644823 -0.27564126 -0.6341352 -0.35879582 0.13404486 -0.35222617 0.56879437 0.5307288 -0.006646834 0.17219543 0.11766143 -0.80150414 0.15689147 -0.005388182 -0.075776786 0.7136415 0.22096762 -0.16835889 -0.36707106 -0.47112653 0.53975964 0.60093135 -0.25753412 -0.59760135 -0.09561211 0.5632007 -0.09742695 0.34416148 -0.91449624 0.14196321 0.18138541 0.10547004 0.07378202 -0.24368234 -0.25956765 0.5945642
can -0.102091275 0.08802589 0.19094762 -0.051947176 -0.19703838 0.286701 -0.44013026 -0.23779209 0.08965669 -0.42913476 -0.650678 0.5655238 0.23585226 0.400278 0.22871247 -0.20196153 -0.63404924 -0.4223132 0.25488392 -0.42336622 0.7141188 0.53077334 -0.12036659 0.08203598 0.13239422 -0.91473657 0.1977394 -0.015955659 -0.05591347 0.75701505 0.2859377 -0.11548526 -0.3796228 -0.51222306 0.46977684 0.59161556 -0.22840194 -0.6929564 -0.103003435 0.44652727 -0.07158386 0.38150826 -0.8660315 0.21924816 0.11575789 0.17023851 0.06131586 -0.2558838 -0.18780017 0.6340026
polymerization 0.0017873691 0.15116517 0.1564882 0.09787013 -0.13170116 0.23742448 -0.5197692 -0.13222262 0.054557998 -0.45625612 -0.5737727 0.48387882 0.30661747 0.5709274 0.1876464 -0.10469275 -0.5753149 -0.42153546 0.30000636 -0.31372026 0.76799315 0.55819976 -0.18601294 0.033464085 0.08849514 -1.0340667 0.20351063 0.049560048 -0.057344582 0.66118 0.36926493 0.023426408 -0.44221655 -0.59253234 0.30725995 0.5905386 -0.07494647 -0.82370985 0.058925595 0.2914759 -0.087770686 0.28035086 -0.85117084 0.30949226 0.041752234 0.31151783 -0.019976815 -0.27683923 -0.067652896 0.5544459
both -0.064927705 0.10454845 0.12652333 -0.024775606 -0.21721134 0.24551353 -0.36616656 -0.27929088 0.042049017 -0.44304678 -0.6488837 0.57317656 0.17524168 0.3463114 0.21876669 -0.18162397 -0.5890909 -0.33020604 0.2548308 -0.49350464 0.67151076 0.5051576 -0.18202047 -0.047821544 0.15038396 -0.9055567 0.18826465 -0.0030944878 -0.10895 0.7574442 0.22003163 -0.12984669 -0.4209919 -0.47571582 0.4450364 0.5404249 -0.18865246 -0.743229 -0.013536712 0.4362359 -0.0515226 0.37555313 -0.7539987 0.15149078 0.14961219 0.29529512 0.12841104 -0.24712601 -0.1512469 0.525381
gene -0.09151797 0.039469473 0.13839364 -0.06636829 -0.28688914 0.30867144 -0.27189243 -0.3245025 0.04811485 -0.4225733 -0.6858888 0.60086673 0.12602912 0.27354276 0.26648176 -0.21897024 -0.5932119 -0.3198777 0.23841795 -0.4500592 0.6010077 0.5036526 -0.1550635 -0.00038886376 0.09965503 -0.8858953 0.1981576 0.012299236 -0.08198681 0.71329474 0.20784412 -0.13353711 -0.41558412 -0.4175409 0.510823 0.54367995 -0.21665758 -0.7240717 0.032914463 0.4789417 -0.10954096 0.33557704 -0.78201467 0.104909055 0.22886597 0.30140144 0.15819646 -0.2404693 -0.18404388 0.5286428
% -0.060460534 0.10648674 0.09767024 0.003672889 -0.24795659 0.24946281 -0.23144707 -0.33339083 0.026358314 -0.38357288 -0.61848176 0.5536205 0.08315788 0.23798195 0.2703561 -0.19635543 -0.5391756 -0.2749811 0.24690291 -0.4995584 0.52683276 0.44984236 -0.21522793 -0.08529323 0.116081536 -0.81381 0.21289872 0.0057854326 -0.10217077 0.6833991 0.1563267 -0.12860447 -0.37483367 -0.36162782 0.4019737 0.46280706 -0.15992141 -0.6866839 0.05055993 0.4094895 -0.07432653 0.33757117 -0.6769428 0.07223332 0.22736666 0.3479908 0.2281447 -0.19263387 -0.1443003 0.4414009
We -0.08592972 0.037276767 0.18702833 -0.09364532 -0.1900661 0.2866616 -0.3362277 -0.23770325 0.0786712 -0.34609777 -0.5912804 0.49549615 0.17653967 0.28857395 0.20296997 -0.16720644 -0.53941256 -0.35748565 0.2254994 -0.3895987 0.58511686 0.4465881 -0.09433013 0.09781776 0.103406526 -0.79327714 0.17474502 -0.0065476503 -0.035328656 0.65887696 0.23541273 -0.13070951 -0.35516322 -0.42183572 0.43683988 0.51497567 -0.22387698 -0.6174921 -0.070392415 0.4153394 -0.0909134 0.29656896 -0.74929476 0.15792054 0.1453093 0.1478105 0.05814132 -0.21212842 -0.16963686 0.54792035
1 -0.04128487 0.036320344 0.12000279 -0.06716035 -0.22226249 0.32077232 -0.24824241 -0.3165804 0.060207244 -0.37943637 -0.66263235 0.5405789 0.082046956 0.24795747 0.26226422 -0.18865567 -0.5319976 -0.30580604 0.29058287 -0.46198678 0.5957998 0.47324836 -0.19725478 -0.03318543 0.07384903 -0.86372244 0.20672251 0.0050799563 -0.076334044 0.6835821 0.1739006 -0.10248749 -0.4325049 -0.3838923 0.49222946 0.5297765 -0.24346484 -0.7240663 0.020251011 0.41674873 -0.0982054 0.3374347 -0.67094195 0.077753454 0.21963215 0.31373346 0.17840713 -0.19936518 -0.15800992 0.5156131
domain -0.072639875 0.17236058 0.07052226 0.05263087 -0.24705523 0.22214322 -0.39620626 -0.27735198 0.022203047 -0.5098639 -0.6570149 0.6328679 0.18884583 0.40835086 0.22959958 -0.19211361 -0.63948786 -0.33581072 0.2641948 -0.50085 0.7319415 0.5649986 -0.25743407 -0.07436328 0.15483956 -0.98060244 0.22502357 -0.012154261 -0.14309777 0.7859417 0.26358506 -0.088068 -0.43497315 -0.4954452 0.4243791 0.54338175 -0.15520398 -0.8190242 0.03121923 0.4225634 -0.03868952 0.39802355 -0.804421 0.16826876 0.15951683 0.36540958 0.1551494 -0.24674983 -0.14531198 0.51745963
DNA -0.095784664 0.015185886 0.21779802 -0.10083906 -0.2337054 0.3466026 -0.3526757 -0.28540814 0.086838685 -0.41651392 -0.6876804 0.57117647 0.19390467 0.33718228 0.26741645 -0.20073529 -0.6186019 -0.40748307 0.25812387 -0.40310505 0.6536503 0.5405494 -0.10120783 0.11725265 0.080540605 -0.91474724 0.19820748 -0.0016286394 -0.024338562 0.74246377 0.2596632 -0.13554677 -0.41217133 -0.46447578 0.5030236 0.62053406 -0.22661485 -0.711691 -0.03515577 0.47802237 -0.11271497 0.34139904 -0.8940194 0.16095755 0.16719368 0.18838944 0.092492126 -0.2597198 -0.20222703 0.6181039
its -0.058347356 0.08112158 0.18784367 -0.04058439 -0.20895179 0.29272538 -0.46836963 -0.21831019 0.09166993 -0.42963007 -0.6394042 0.5381759 0.24838065 0.44642326 0.22502033 -0.1706135 -0.6273074 -0.42237657 0.25410587 -0.38826218 0.73202807 0.5482055 -0.13833234 0.08992635 0.11725281 -0.9746911 0.19981599 0.010431989 -0.05590337 0.7397048 0.32766357 -0.08495806 -0.41032076 -0.5345182 0.44763264 0.6104031 -0.18561116 -0.75180686 -0.04186321 0.4138431 -0.0781543 0.3467338 -0.877422 0.23289716 0.119329795 0.21923968 0.039222594 -0.26533386 -0.16067842 0.63019884
human -0.07403235 0.065133296 0.17793797 -0.05258035 -0.21040186 0.30157438 -0.36350748 -0.2553522 0.07633511 -0.40072596 -0.6389105 0.54202706 0.18191399 0.34593466 0.24818994 -0.18016233 -0.5867008 -0.38204476 0.25064853 -0.42049283 0.66437894 0.5039784 -0.13587211 0.06259992 0.10528881 -0.89628905 0.20685679 -0.00031497522 -0.053946327 0.7122883 0.26520503 -0.10857999 -0.39869812 -0.4713502 0.46180314 0.57024366 -0.22600171 -0.7184092 -0.03170394 0.43547815 -0.09781923 0.34704864 -0.81511056 0.1680177 0.14281459 0.22601742 0.092173815 -0.24261776 -0.17451987 0.5877123
RAD51 -0.20279709 0.058894098 0.1893426 -0.12347629 -0.3160959 0.26508182 -0.4013911 -0.31553125 0.07121476 -0.42031732 -0.6208934 0.605878 0.19542709 0.29952478 0.204858 -0.21053812 -0.6210871 -0.38197756 0.2022294 -0.4618275 0.65230083 0.56866777 -0.05824885 0.09646984 0.18163887 -0.81181896 0.20659702 -0.03693605 -0.01349231 0.738457 0.2328081 -0.20850703 -0.32264563 -0.44681174 0.46766692 0.5608094 -0.21297741 -0.64450973 -0.029983575 0.521312 -0.02678938 0.35615626 -0.89779115 0.16374508 0.15025832 0.17032172 0.122047015 -0.3015183 -0.23887043 0.57438403
results -0.08408924 0.034619473 0.2251565 -0.10855103 -0.20497 0.31546476 -0.4436669 -0.23364697 0.11126606 -0.39400554 -0.64833933 0.53117305 0.23452453 0.39621016 0.22106472 -0.18544723 -0.62757283 -0.44938225 0.2364112 -0.37488863 0.7022091 0.5374014 -0.052262638 0.17028002 0.12657127 -0.9181396 0.18374194 -0.0013785536 -0.029072644 0.72991586 0.31389105 -0.12056898 -0.3782339 -0.51719683 0.47461766 0.6184774 -0.21894683 -0.68923324 -0.102433585 0.4674283 -0.08179709 0.3299805 -0.9068122 0.21775676 0.12563214 0.12578937 0.009628895 -0.2702471 -0.19507502 0.65249157
activity -0.022113834 0.050338294 0.18430644 -0.05028658 -0.18951176 0.31284472 -0.40165165 -0.20308134 0.084687404 -0.40088102 -0.6225608 0.48845288 0.24125627 0.4168268 0.22865012 -0.1437938 -0.5943232 -0.43272957 0.2683394 -0.31982633 0.68747485 0.5153894 -0.13015763 0.116633065 0.08593872 -0.96327776 0.19938561 0.029302653 -0.005122971 0.68790996 0.31966078 -0.052523144 -0.41601175 -0.5135032 0.43209553 0.615878 -0.16903484 -0.7506042 -0.008651174 0.3843062 -0.1083165 0.3051807 -0.8667488 0.22089225 0.12145009 0.23359202 0.020621143 -0.26050678 -0.14860271 0.60971767
cytoskeleton -0.004645808 0.12677799 0.12237294 0.03417536 -0.15196311 0.22482882 -0.42620343 -0.19593884 0.044821464 -0.4394961 -0.5849944 0.49493337 0.24206634 0.45364055 0.19420977 -0.12512584 -0.54973733 -0.35864905 0.2670663 -0.3763257 0.69414264 0.4981069 -0.19304113 -0.024479503 0.1168469 -0.947458 0.1876668 0.030633068 -0.08388904 0.67121726 0.29290855 -0.0331977 -0.43467975 -0.51935166 0.3580267 0.5380852 -0.12382666 -0.765579 0.030949842 0.3281093 -0.06388175 0.30814445 -0.7404921 0.22334944 0.086740494 0.31033254 0.049537186 -0.2525942 -0.093911655 0.5067487
These -0.106267534 0.0147236 0.23676547 -0.14093821 -0.22084029 0.3467859 -0.40490922 -0.2692956 0.1198401 -0.39939752 -0.6705461 0.54925144 0.21218412 0.35106567 0.23782802 -0.20815924 -0.64205897 -0.43954027 0.24145173 -0.38464126 0.6835836 0.53056455 -0.059487958 0.19514345 0.12610343 -0.89877313 0.18559648 -0.0169893 -0.008052009 0.74965644 0.28244478 -0.15762798 -0.38087144 -0.48647273 0.51267487 0.63139176 -0.25625756 -0.6660412 -0.1254747 0.50793064 -0.10140471 0.34148854 -0.92126334 0.19607161 0.15191905 0.12036184 0.05686716 -0.26654223 -0.23258919 0.6683745
interaction -0.03122326 0.1642558 0.14625941 0.057921506 -0.1670132 0.22468716 -0.5032667 -0.14445549 0.04579235 -0.468907 -0.57140064 0.514927 0.30237263 0.54141366 0.18069689 -0.121670306 -0.60527784 -0.4310247 0.27307242 -0.32435122 0.7661402 0.5913942 -0.16561848 0.03146907 0.111646555 -1.015478 0.20549232 0.024755677 -0.052815266 0.6882754 0.35971376 -0.012515062 -0.4178418 -0.5858342 0.31605017 0.6148351 -0.086393654 -0.8056244 0.049586438 0.3264955 -0.043892093 0.29571345 -0.86854905 0.2838805 0.054353923 0.28209814 -0.025586562 -0.28465742 -0.08254898 0.5592476
assembly -0.046378955 0.09137022 0.1728451 -0.019079646 -0.18052661 0.2740842 -0.4307117 -0.2186092 0.074125834 -0.43067873 -0.6256514 0.5222591 0.24263999 0.43767282 0.21737605 -0.1568278 -0.59531564 -0.40739378 0.26387876 -0.38448274 0.70898324 0.5167201 -0.14141928 0.062450264 0.113058515 -0.96148247 0.19634965 0.01729884 -0.059514973 0.7139751 0.30463025 -0.07434613 -0.42752984 -0.5259282 0.41718018 0.5932525 -0.1739815 -0.74965054 -0.02149266 0.39759633 -0.08917879 0.32750404 -0.83686256 0.21388617 0.106706515 0.24418762 0.045072198 -0.2606665 -0.13456953 0.5849028
has -0.14388473 0.057939056 0.19974563 -0.07336034 -0.24755049 0.28713307 -0.42657796 -0.24227254 0.093635544 -0.41026387 -0.64265025 0.5717944 0.20865189 0.36655927 0.22818811 -0.22233513 -0.6624397 -0.4183324 0.22361709 -0.42635232 0.67930096 0.52545244 -0.102197245 0.11904843 0.13869241 -0.8875318 0.20771727 -0.023799304 -0.042136144 0.74497825 0.28064224 -0.14953133 -0.34084678 -0.47868738 0.47860846 0.6007 -0.23149385 -0.675907 -0.110047914 0.509771 -0.08737283 0.37289137 -0.8877673 0.19556797 0.13980088 0.15290567 0.09070493 -0.2558924 -0.22161968 0.608313
plakoglobin -0.26892737 0.43522966 -0.037752397 0.25272486 -0.31289628 0.037257474 -0.5392742 -0.25525048 -0.059751194 -0.63650656 -0.5793665 0.7900523 0.1794953 0.46429792 0.15056291 -0.27264938 -0.72125727 -0.21146892 0.18440951 -0.6502019 0.77448004 0.6838516 -0.32034558 -0.24254586 0.30766672 -0.8758718 0.22404866 -0.12211302 -0.29128462 0.9069348 0.19691928 -0.16614848 -0.2809928 -0.49518114 0.28486618 0.43281135 -0.063366495 -0.73204273 -0.035657506 0.46196777 0.13515277 0.5149942 -0.8048901 0.19451004 0.1129216 0.36287776 0.23200577 -0.21885535 -0.13792236 0.38446108
cyclin -0.07575997 0.16844897 0.07969633 0.078998275 -0.2698627 0.28286687 -0.356292 -0.26927415 0.009807811 -0.52363193 -0.6266017 0.620859 0.19342189 0.4409102 0.2008709 -0.19070044 -0.6746656 -0.3026477 0.30841213 -0.4986757 0.6951717 0.5868776 -0.33362448 -0.11643639 0.16759762 -1.0137666 0.28328395 -0.060570706 -0.112481296 0.7959243 0.20155871 -0.05426238 -0.43545634 -0.47445166 0.43592864 0.55659264 -0.13795419 -0.76973015 0.010035445 0.43820786 -0.07170715 0.39035353 -0.86208755 0.20903663 0.1631782 0.4019765 0.19775239 -0.23502639 -0.16700543 0.47523093
region -0.05323742 0.12603192 0.17834496 0.031924963 -0.15397663 0.22963366 -0.46908805 -0.14536306 0.05960361 -0.4168907 -0.53235406 0.4690185 0.26831776 0.48061854 0.18087912 -0.13606906 -0.55537707 -0.40795955 0.23930344 -0.30280504 0.688662 0.5221966 -0.11041744 0.08740379 0.11336913 -0.90279025 0.18879361 0.016914664 -0.027604556 0.6310577 0.33066696 -0.030809091 -0.36021352 -0.53113323 0.30790815 0.54643285 -0.10495155 -0.688443 0.0044016447 0.3446501 -0.06302641 0.27983487 -0.8368697 0.26673487 0.054485403 0.19952358 -0.026395544 -0.25654256 -0.10355848 0.5395153
fimbrin -0.110871494 0.20363605 0.06351926 0.076401934 -0.258099 0.19999108 -0.40762013 -0.26731163 0.0021259594 -0.5074686 -0.6385345 0.64147085 0.17627928 0.38857403 0.21586323 -0.20240626 -0.62994516 -0.3023675 0.23766263 -0.51347333 0.7043293 0.56246805 -0.26043263 -0.08932657 0.16876136 -0.9298197 0.21306571 -0.028406393 -0.1517215 0.7790516 0.23582391 -0.10101791 -0.3841095 -0.4693545 0.39410728 0.5058596 -0.14130552 -0.76976377 0.0130265 0.4260239 -0.022961577 0.39873654 -0.79471487 0.16919069 0.1584793 0.337382 0.16865776 -0.22055674 -0.14878908 0.47876063
been -0.12280473 0.10238852 0.1811195 -0.04934622 -0.2381017 0.28324324 -0.44096658 -0.27153066 0.073429756 -0.4389596 -0.67668897 0.60061985 0.21282174 0.38267067 0.2491741 -0.22397533 -0.6495874 -0.4137005 0.24425836 -0.45731038 0.6959717 0.55944085 -0.122889064 0.07210714 0.14087601 -0.9339249 0.21038012 -0.03077423 -0.063058764 0.78906083 0.27356732 -0.1462689 -0.38036013 -0.50945115 0.4691927 0.58637834 -0.24554414 -0.7130886 -0.09137816 0.4859375 -0.064068116 0.38947618 -0.9014193 0.1929449 0.1474899 0.18854618 0.08741499 -0.26240402 -0.21184392 0.6188612
other -0.14863494 0.15648149 0.14074878 -0.0054268003 -0.26470307 0.23940423 -0.44528297 -0.2732817 0.055813745 -0.49122488 -0.66237587 0.6410722 0.20142244 0.3861278 0.22284627 -0.22614811 -0.6746696 -0.37810293 0.2270268 -0.479295 0.7138388 0.59229594 -0.15161781 0.02633733 0.17470367 -0.92388177 0.20468488 -0.04149328 -0.10465935 0.8113399 0.26647398 -0.15215151 -0.36426514 -0.49692652 0.43276325 0.579361 -0.19369645 -0.7199479 -0.07061684 0.4978997 -0.03706132 0.407454 -0.903081 0.19463415 0.15537895 0.22361873 0.11244261 -0.25349516 -0.20091318 0.575676
RAD52 -0.20262381 0.06687164 0.17200232 -0.12094113 -0.32755664 0.26134565 -0.40603915 -0.32721505 0.061366618 -0.44329196 -0.6434966 0.63125694 0.19303873 0.31440824 0.20533676 -0.21097946 -0.6408396 -0.37868223 0.21214305 -0.48469406 0.6797803 0.5923042 -0.08476865 0.078038625 0.17962934 -0.8612233 0.21284081 -0.03919444 -0.03375169 0.7721373 0.23745714 -0.1997661 -0.3388951 -0.46349004 0.47513562 0.5743317 -0.21912916 -0.6789938 -0.02428018 0.52496415 -0.02468404 0.37212583 -0.9278571 0.163736 0.15721847 0.19635193 0.1372091 -0.31110463 -0.23272094 0.5776114
found -0.114028685 0.09472619 0.18942751 -0.055514853 -0.22160666 0.29267037 -0.43196276 -0.25013825 0.076476686 -0.43727842 -0.66182774 0.58362424 0.21957956 0.38502073 0.23655747 -0.21011867 -0.64160854 -0.4106434 0.23655024 -0.42879012 0.6923944 0.5477451 -0.115073174 0.09265848 0.13660192 -0.90764564 0.19962789 -0.018126555 -0.047767293 0.76638967 0.28208855 -0.13228218 -0.380434 -0.49906486 0.4642685 0.58897907 -0.2095479 -0.70240915 -0.08177879 0.48610684 -0.06421482 0.36763868 -0.8925994 0.20455813 0.13304442 0.17083266 0.07328921 -0.25280648 -0.19895576 0.61069244
factor -0.061475214 0.06417374 0.15411685 -0.045032367 -0.2292612 0.32970217 -0.33633947 -0.27666545 0.069459625 -0.39868775 -0.6638999 0.55853343 0.1758594 0.33956143 0.24822792 -0.18583861 -0.61583745 -0.37558326 0.2808093 -0.4076309 0.6574304 0.5130039 -0.18086392 0.04052354 0.09459697 -0.93467945 0.22154303 0.005446808 -0.044371855 0.7322542 0.24936225 -0.09397648 -0.41501632 -0.4703257 0.48277086 0.5778641 -0.21031913 -0.74550664 0.0010833669 0.4387731 -0.10484581 0.3372971 -0.84151185 0.16660716 0.18561043 0.2810487 0.11159259 -0.24594271 -0.16845095 0.57438177
binds -0.10854442 0.1847465 0.09496067 0.06989296 -0.2237632 0.20002167 -0.5322451 -0.17426206 0.054728705 -0.47344175 -0.5763399 0.5637905 0.2704973 0.47970745 0.18346865 -0.19328791 -0.63053256 -0.37279284 0.23457868 -0.35961983 0.7513415 0.5656806 -0.1725332 0.06346818 0.1227832 -0.91942036 0.17194006 -0.0040412312 -0.09943957 0.7402759 0.3424416 -0.05180369 -0.34053847 -0.53077614 0.34908116 0.55004376 -0.123504065 -0.7402439 -0.046070598 0.38808346 -0.035654146 0.35028487 -0.8466016 0.2624985 0.09118738 0.23707256 0.02982702 -0.24151394 -0.13704878 0.54446626
virus -0.099622376 0.029279124 0.17590007 -0.07588257 -0.26097777 0.3586968 -0.32464275 -0.3157646 0.08291047 -0.40255347 -0.70395446 0.59367096 0.15631746 0.2889109 0.306119 -0.22504802 -0.6165469 -0.38339347 0.2832445 -0.44973582 0.643211 0.53327465 -0.15382695 0.0699264 0.07533933 -0.9242949 0.21399185 -0.0028184163 -0.051155016 0.7553885 0.23063225 -0.14210676 -0.4242012 -0.44558814 0.5387944 0.6136711 -0.25774658 -0.7401313 -0.017117279 0.50353307 -0.12113698 0.3642587 -0.84555924 0.1264262 0.22418661 0.23909616 0.15092391 -0.23522417 -0.21032922 0.6176391
vinculin -0.11275729 0.21368541 0.0345847 0.113513246 -0.26661938 0.18636368 -0.42731038 -0.258837 -0.008333919 -0.53618914 -0.63660616 0.6521359 0.20358951 0.44547963 0.19968602 -0.19564383 -0.658767 -0.301511 0.24441582 -0.52112556 0.7451289 0.5829343 -0.30202115 -0.12162334 0.1805173 -0.9694123 0.22219115 -0.039928127 -0.17367812 0.7931577 0.24763604 -0.09294 -0.41370365 -0.49663237 0.38689366 0.5394176 -0.12258243 -0.81647116 0.03235604 0.4126516 -0.016160471 0.40570596 -0.8080984 0.184566 0.14963157 0.39190596 0.17796786 -0.23004471 -0.14177929 0.47197556
inhibitor -0.053301428 0.03658235 0.19703671 -0.053194784 -0.24791168 0.39137474 -0.3177565 -0.25178874 0.08269633 -0.39060795 -0.635467 0.53654474 0.1981736 0.36690816 0.24031119 -0.19745624 -0.626769 -0.3847999 0.31233895 -0.3684456 0.6242757 0.535569 -0.18805955 0.08462671 0.084514886 -0.95568305 0.26456526 -0.020137789 0.022485195 0.72530556 0.23946501 -0.06540883 -0.41275087 -0.46906897 0.4915532 0.6136385 -0.20749193 -0.68421334 -0.03926528 0.4598463 -0.16142693 0.31890804 -0.9083335 0.20893236 0.17742291 0.25316268 0.09946764 -0.23599574 -0.18648264 0.589292
using -0.043372307 0.058822025 0.15574618 -0.024760235 -0.18000825 0.26446378 -0.40650937 -0.20159425 0.06632061 -0.39960483 -0.6040451 0.50085944 0.23139101 0.40580484 0.2011502 -0.14118561 -0.5715119 -0.38608032 0.24623106 -0.34557107 0.6831346 0.50549865 -0.13505712 0.07581863 0.09797377 -0.911488 0.17918985 0.027159292 -0.04766389 0.66043407 0.3030564 -0.05773052 -0.40626833 -0.4950838 0.40130344 0.57345366 -0.16601449 -0.7216952 -0.007060818 0.3863738 -0.090134375 0.30878627 -0.8009574 0.22652017 0.11094544 0.24227495 0.03180715 -0.25737584 -0.13408706 0.560724
P -0.10554805 0.0972362 -0.0017602216 0.025805086 -0.31271136 0.2934647 -0.15023968 -0.35104525 -0.0070598787 -0.40798712 -0.6588991 0.63219875 0.038116388 0.17464538 0.33259165 -0.27153295 -0.5772628 -0.23556504 0.2312963 -0.4570965 0.5482897 0.48235896 -0.26235688 -0.087530956 0.037181042 -0.8179308 0.22402026 -0.0144067705 -0.101903036 0.69582 0.16198492 -0.10463255 -0.38710514 -0.30228478 0.45187044 0.4593363 -0.23395559 -0.7271464 0.10573234 0.46883592 -0.12596582 0.33023694 -0.707581 0.05319784 0.30478346 0.3738264 0.27457023 -0.1473633 -0.16054343 0.42605966
may -0.08619224 0.052500248 0.22598138 -0.0812001 -0.23161246 0.34420314 -0.46069485 -0.2622684 0.108178094 -0.43584067 -0.71205574 0.600595 0.24351059 0.41237044 0.2578037 -0.20672524 -0.67984647 -0.4657328 0.2737252 -0.4266915 0.75823694 0.56166524 -0.10711349 0.13422339 0.11889749 -1.0068634 0.21366179 -0.003050577 -0.0373173 0.8106319 0.31300282 -0.11678458 -0.43708518 -0.52719826 0.52872574 0.6463999 -0.26371852 -0.7627147 -0.09454165 0.50174564 -0.109605476 0.38578483 -0.9647686 0.21986507 0.1566777 0.18313792 0.055990715 -0.28368118 -0.2129242 0.7012228
A -0.036997765 0.03481768 0.13163021 -0.05103349 -0.17515126 0.26267087 -0.2602348 -0.2385902 0.037548754 -0.3347496 -0.5361453 0.4746123 0.12593517 0.24588326 0.1924977 -0.16568497 -0.4878183 -0.28538603 0.20812973 -0.36478442 0.51940197 0.4165268 -0.15383585 -0.0004923877 0.111101754 -0.73332685 0.18307462 0.011437124 -0.053085886 0.61345065 0.16460218 -0.11051853 -0.345894 -0.36457413 0.39720124 0.45256382 -0.1726642 -0.5962701 -0.0038381335 0.35966748 -0.06495206 0.2884671 -0.6418844 0.11575078 0.13777 0.22054894 0.11555649 -0.19876847 -0.1379964 0.45650578
membrane -0.084527284 0.1064046 0.16655166 -0.017681204 -0.21407145 0.29044887 -0.40253317 -0.25274327 0.073063605 -0.44033074 -0.65524256 0.57115054 0.21317388 0.39871523 0.2345895 -0.18905316 -0.6183133 -0.38177037 0.25053555 -0.4248417 0.6864937 0.5328686 -0.1524172 0.04177194 0.13276064 -0.9389632 0.20513962 -0.00091046025 -0.06606993 0.7495362 0.27677196 -0.101407565 -0.40370885 -0.4995214 0.4447296 0.5874294 -0.18345024 -0.73519313 -0.027120827 0.4415047 -0.07952923 0.35061416 -0.8509749 0.18804497 0.14830698 0.24133042 0.0858202 -0.25100872 -0.16054583 0.57613283
bind -0.12599374 0.2127977 0.07195076 0.10750878 -0.22822188 0.1734934 -0.5566512 -0.14639217 0.042249404 -0.46568775 -0.5371285 0.5625705 0.27348855 0.49264392 0.16652156 -0.1955247 -0.6279069 -0.36396217 0.22130218 -0.33484372 0.74503386 0.5643589 -0.16835733 0.078132324 0.12838781 -0.8832764 0.16260356 -0.009202807 -0.100393586 0.72659963 0.3565787 -0.051144157 -0.30005968 -0.52908635 0.3115004 0.52060914 -0.10132186 -0.7050662 -0.053150777 0.37155822 -0.018358268 0.35090065 -0.84721047 0.2847967 0.07619804 0.2166711 0.009481974 -0.24018203 -0.12795569 0.5213883
it -0.07275493 0.0680131 0.19123599 -0.048300594 -0.1999988 0.2813232 -0.4057596 -0.25249612 0.08102383 -0.39971647 -0.6406053 0.5414081 0.21061051 0.38133606 0.23531823 -0.1761445 -0.60813236 -0.40552804 0.2373733 -0.40369645 0.67804235 0.5180571 -0.13171832 0.072886884 0.12049637 -0.91046715 0.19184318 -0.0027879928 -0.057035424 0.73358494 0.28296962 -0.10632986 -0.3881791 -0.50183225 0.45882833 0.5797839 -0.19183086 -0.7217935 -0.04441001 0.42970413 -0.07928047 0.34701577 -0.83948743 0.18077993 0.13218069 0.20600604 0.076476105 -0.25166106 -0.17297168 0.59709895
site -0.07631585 0.10557034 0.18788275 -0.030901039 -0.2283164 0.30164462 -0.44456613 -0.23106594 0.08076218 -0.4573927 -0.66516215 0.57759726 0.23903841 0.44149607 0.23606123 -0.21296315 -0.6499128 -0.42687246 0.26435688 -0.41360655 0.74406123 0.5581867 -0.14147307 0.10068521 0.1150418 -0.99187964 0.2178697 0.0025963471 -0.053711 0.7684826 0.3207046 -0.08477828 -0.4106556 -0.52911025 0.45301867 0.61260515 -0.19535135 -0.77197057 -0.03696071 0.45281917 -0.097466 0.3658729 -0.9292517 0.21678847 0.12533116 0.22450358 0.06346885 -0.26703092 -0.17925368 0.6294042
I -0.029603507 0.06419184 0.12892866 -0.044927023 -0.19123657 0.30534494 -0.3131162 -0.25585657 0.07051431 -0.37260717 -0.64418435 0.5144563 0.15196392 0.3153534 0.23442048 -0.15587635 -0.5475495 -0.33501068 0.25819913 -0.42630574 0.627331 0.4683537 -0.14850947 0.008094957 0.077006534 -0.8683858 0.19760934 0.008007578 -0.05590492 0.68060136 0.23203799 -0.10645787 -0.40318757 -0.4190465 0.45967254 0.5490061 -0.22053611 -0.7283139 0.011104116 0.40012562 -0.10347166 0.33733314 -0.72735095 0.15624428 0.1481124 0.2753209 0.11509124 -0.2309283 -0.15321448 0.54077244
identified -0.078050666 0.05996829 0.19184405 -0.06724653 -0.21300778 0.30048838 -0.40231115 -0.24702032 0.08635056 -0.4146387 -0.6638109 0.5477334 0.21098617 0.38350436 0.22458372 -0.185594 -0.621881 -0.415259 0.24880926 -0.40141577 0.6760497 0.5205209 -0.11524991 0.0910793 0.12367229 -0.9159245 0.19600563 -0.0058860704 -0.045889985 0.73256236 0.2870715 -0.11195282 -0.387608 -0.49422646 0.4575307 0.60072595 -0.21499822 -0.70122325 -0.06367536 0.45154515 -0.07553507 0.34586266 -0.86599004 0.20485422 0.13648741 0.1932699 0.06808903 -0.26230034 -0.18278445 0.59493786
growth -0.039788753 0.052114714 0.15728228 -0.051399358 -0.18436436 0.27797696 -0.3135511 -0.2603375 0.06577879 -0.37632197 -0.62346464 0.5080808 0.14791271 0.30758417 0.22777304 -0.16724446 -0.5407709 -0.3451519 0.2445558 -0.41675982 0.6107966 0.45257744 -0.15144856 0.01337942 0.10757376 -0.8556743 0.18216588 0.0077955606 -0.06074221 0.67615896 0.21687545 -0.099426456 -0.40139064 -0.42808145 0.44381148 0.5246676 -0.19737212 -0.68336004 -0.02006448 0.394578 -0.08974549 0.32576534 -0.7253951 0.13611406 0.15449734 0.2546987 0.11104373 -0.22781782 -0.15584674 0.52592653
than -0.079396814 0.06508764 0.19995065 -0.07202994 -0.189946 0.29346296 -0.4038744 -0.24326779 0.08630688 -0.3958042 -0.644959 0.5146431 0.20717885 0.3731931 0.22410293 -0.17876631 -0.59004134 -0.40658256 0.233713 -0.39610693 0.6689778 0.50107914 -0.09505339 0.09322481 0.12591857 -0.88525224 0.1935223 0.00014422563 -0.03475427 0.71423084 0.2821052 -0.11267645 -0.37929022 -0.4867449 0.455368 0.5761433 -0.20967163 -0.68816555 -0.07286816 0.43415153 -0.085340075 0.3346382 -0.8344637 0.19862944 0.11599424 0.17727977 0.051708426 -0.24718629 -0.17715742 0.5896332
into -0.0812398 0.06303311 0.19926533 -0.05383538 -0.1985191 0.29732302 -0.39614818 -0.21060805 0.10429666 -0.37169588 -0.58574784 0.51383936 0.23663749 0.37190637 0.21632916 -0.18334264 -0.58142984 -0.41274986 0.23530859 -0.3396741 0.65258676 0.49426416 -0.08862936 0.124453194 0.088802606 -0.85348487 0.19039403 -0.0071144435 -0.012778164 0.69208413 0.28167936 -0.09361877 -0.36486968 -0.4745591 0.42348978 0.58025414 -0.2042881 -0.6433596 -0.061774775 0.41987973 -0.079969116 0.31562674 -0.8386362 0.19739175 0.12443299 0.15139568 0.03549452 -0.2451148 -0.1726004 0.5905358
increased -0.1030764 0.11325247 0.17063615 -0.02184242 -0.21154462 0.26809508 -0.39935005 -0.2133741 0.07089534 -0.41114536 -0.5897923 0.5319575 0.2128906 0.3765327 0.1981733 -0.19252779 -0.6011349 -0.37165892 0.22787838 -0.3913789 0.6407308 0.5137273 -0.128634 0.06266021 0.14582655 -0.85689193 0.20023672 -0.031968758 -0.047288623 0.7119006 0.25001788 -0.10734583 -0.34725213 -0.4723219 0.4113931 0.5527553 -0.1772052 -0.63744766 -0.06087537 0.43224818 -0.05290103 0.34331706 -0.82273316 0.19312127 0.1171836 0.17464033 0.08131881 -0.23072107 -0.16957338 0.5454589
sequence -0.056621168 0.070011206 0.17783225 -0.04246935 -0.20982143 0.29255298 -0.37448603 -0.2554854 0.0654569 -0.42062733 -0.6523394 0.54522204 0.19971114 0.3753189 0.23845819 -0.1747719 -0.59190476 -0.39430732 0.2545669 -0.40111688 0.67690635 0.51861787 -0.13174035 0.05580209 0.10649277 -0.92955273 0.20085414 0.007042521 -0.0587293 0.7085178 0.27833617 -0.08844189 -0.4175879 -0.49073574 0.44667295 0.58279556 -0.19317979 -0.74085534 -0.009983357 0.42870066 -0.09842512 0.32844624 -0.8348307 0.18137898 0.15026389 0.24754722 0.075838916 -0.25359342 -0.17184162 0.5765003
suggest -0.10810039 0.036234487 0.20749633 -0.10144334 -0.20350966 0.30666053 -0.46069646 -0.21518834 0.115862705 -0.3987929 -0.6263304 0.5188637 0.23969392 0.39318213 0.20782329 -0.1764131 -0.63018113 -0.44006371 0.231947 -0.36845613 0.7030866 0.52307004 -0.051698633 0.1803646 0.13683939 -0.88487566 0.17854433 -0.0038197325 -0.018655537 0.72481537 0.31544524 -0.12122128 -0.35934657 -0.5061438 0.45828217 0.60611403 -0.2199434 -0.66724867 -0.12724742 0.46385574 -0.074744344 0.3230837 -0.9020378 0.23304707 0.11603978 0.11301702 0.0071918033 -0.26261127 -0.20049524 0.6400571
their -0.092048034 0.057645246 0.1998683 -0.07762282 -0.19662197 0.28120938 -0.38364288 -0.22752397 0.09166557 -0.36985096 -0.6007263 0.49901402 0.19977742 0.35031945 0.20972188 -0.17443746 -0.57248455 -0.3916745 0.21304671 -0.36211425 0.63460755 0.48953998 -0.08426438 0.10978622 0.11577936 -0.8355472 0.17627212 -0.0122339465 -0.02616884 0.680963 0.26698714 -0.118875064 -0.33782518 -0.45557013 0.43090317 0.5616611 -0.19520359 -0.6243026 -0.08325723 0.42939034 -0.07944141 0.32426444 -0.81445307 0.18274906 0.11602616 0.1514093 0.050956532 -0.23454462 -0.18383093 0.5770525
filament 0.0036800732 0.083253115 0.19359538 0.0027636255 -0.1399522 0.28554976 -0.49033743 -0.15949869 0.09603744 -0.42858085 -0.60903144 0.4662426 0.31372353 0.53341603 0.20378485 -0.117346965 -0.5761754 -0.4499252 0.29817867 -0.31557414 0.7481312 0.51947564 -0.15294291 0.092252776 0.08563978 -1.0238208 0.1998072 0.050384562 -0.034799244 0.6764676 0.3749374 -0.0031985876 -0.45011356 -0.5781101 0.38755345 0.612775 -0.13534515 -0.79386556 -0.00058952166 0.32915807 -0.11070466 0.2957046 -0.8491609 0.28307223 0.05866395 0.26128554 -0.018764969 -0.2720977 -0.10969376 0.6074796
affinity -0.07265248 0.06338772 0.20397711 -0.06577418 -0.21131715 0.32274175 -0.43187472 -0.2323932 0.103619725 -0.40906295 -0.6602052 0.54281795 0.22594073 0.39568633 0.24821924 -0.192162 -0.6195179 -0.4407029 0.26603624 -0.38520977 0.70930666 0.5372335 -0.10604947 0.1272488 0.09331883 -0.9417003 0.20227054 0.013722603 -0.025096856 0.74184537 0.31186166 -0.09507149 -0.40607458 -0.5125561 0.47003213 0.6206845 -0.20705402 -0.72829676 -0.058795303 0.44160938 -0.10942854 0.3359937 -0.89624894 0.20731466 0.13870941 0.18525428 0.05187401 -0.2566487 -0.18318564 0.6320264
Acanthamoeba -0.052361917 0.055210043 0.19147673 -0.060993914 -0.18025127 0.2918334 -0.37810373 -0.2200305 0.087839834 -0.37541273 -0.6071968 0.48647207 0.20675959 0.36437342 0.2236989 -0.16559449 -0.55949587 -0.38919687 0.24435444 -0.3601615 0.64136946 0.48067513 -0.10670675 0.09388794 0.091769144 -0.8678491 0.18382826 0.01130148 -0.030449765 0.6661814 0.27677557 -0.08520075 -0.3776109 -0.47001567 0.42586982 0.5579701 -0.19288768 -0.67743284 -0.03853352 0.39594162 -0.09858941 0.31351197 -0.7958262 0.18587905 0.12195918 0.18791647 0.04760465 -0.23673879 -0.16300587 0.5667803
similar -0.08874983 0.06928646 0.1816902 -0.06834773 -0.21636577 0.3043743 -0.39228347 -0.2514195 0.08623574 -0.4051649 -0.6480578 0.54396456 0.19968927 0.35374314 0.2450971 -0.19835685 -0.6065334 -0.3940375 0.24364436 -0.4013475 0.6724254 0.5167429 -0.107781254 0.09752031 0.11124251 -0.8994119 0.19186549 -0.0012126614 -0.04345804 0.7319183 0.27321026 -0.122301765 -0.38288784 -0.48503226 0.46509254 0.58442396 -0.21722873 -0.6913775 -0.062324326 0.45010546 -0.0858443 0.34298116 -0.84847105 0.17996877 0.14994437 0.18271843 0.074059375 -0.24472328 -0.18796392 0.5993862
involved -0.10310476 0.044250753 0.24634157 -0.0954331 -0.20227511 0.3276748 -0.45963234 -0.21470739 0.12839252 -0.3958862 -0.6405606 0.5311705 0.26358217 0.41293785 0.22388765 -0.19303657 -0.6343081 -0.47486776 0.24448271 -0.35749695 0.69656837 0.5373518 -0.054550055 0.18546943 0.11627284 -0.9111882 0.1899105 -0.007746432 0.00679409 0.73604304 0.3172046 -0.11595425 -0.3694864 -0.5224667 0.4746422 0.63316876 -0.22372529 -0.65941566 -0.11543318 0.46198344 -0.091615975 0.34454447 -0.9358554 0.23845741 0.11246819 0.09471586 0.000326347 -0.27243334 -0.206497 0.6709328
role -0.047687773 0.059888933 0.19004126 -0.06531426 -0.18943353 0.30788836 -0.389837 -0.2514277 0.08172161 -0.41199553 -0.6605057 0.5252275 0.21191841 0.38289067 0.23493952 -0.16203783 -0.5923861 -0.41468963 0.25977358 -0.41046333 0.68585783 0.5144231 -0.12414282 0.08721466 0.11349168 -0.94606614 0.20246658 0.014788554 -0.044527266 0.71454436 0.28056276 -0.09670577 -0.42605007 -0.49841052 0.4627432 0.5969327 -0.21188264 -0.74216753 -0.03715879 0.43166924 -0.09908121 0.33598676 -0.83985275 0.19412455 0.13986222 0.22468561 0.07502468 -0.25727284 -0.17551666 0.6022637
presence -0.062347565 0.12876013 0.16654593 0.010061585 -0.17813575 0.23337752 -0.44846103 -0.20667431 0.05187836 -0.44988525 -0.6041217 0.5314076 0.23134181 0.4538693 0.19735327 -0.15624142 -0.59755176 -0.3875466 0.24440518 -0.40700203 0.69866365 0.5387353 -0.14033823 0.027654886 0.14400856 -0.9354727 0.19611752 -0.0035055464 -0.08313531 0.6988935 0.29150596 -0.07618688 -0.39856458 -0.52409136 0.3725348 0.5705835 -0.14006831 -0.73058915 -0.018092062 0.38686535 -0.04527838 0.33082947 -0.8286296 0.22614282 0.08236493 0.24293472 0.04489448 -0.2472952 -0.13732336 0.54813904
UL8 -0.14669548 0.05776019 0.12426605 -0.05458311 -0.3069617 0.26947826 -0.37520406 -0.3062735 0.060093343 -0.43709067 -0.6555634 0.6486257 0.17559502 0.32131478 0.24657343 -0.25027138 -0.67493194 -0.32607174 0.27077177 -0.4691359 0.66992074 0.5658552 -0.11898427 0.011636332 0.12424117 -0.91407925 0.18255258 -0.0453993 -0.095798776 0.78539234 0.21130653 -0.17571664 -0.38323897 -0.42236468 0.47867438 0.6038013 -0.20859714 -0.72628653 -0.014644344 0.5108465 -0.06826109 0.38708353 -0.86272234 0.13146123 0.1992185 0.26939917 0.15672149 -0.26331204 -0.19927683 0.5817232
phosphoprotein -0.11326745 0.13587579 -0.011105377 0.11776164 -0.3756294 0.27159676 -0.2137488 -0.32304716 -0.027382558 -0.45697698 -0.6617238 0.7202128 0.06833456 0.22857131 0.31675762 -0.26917672 -0.6050081 -0.23959334 0.25445098 -0.47237146 0.5801005 0.532194 -0.33743313 -0.11213436 0.042382557 -0.9064568 0.2503455 -0.035075266 -0.1286969 0.7513988 0.19427305 -0.082409345 -0.38992268 -0.3501867 0.44960392 0.4658371 -0.19052014 -0.8119257 0.15218475 0.46511292 -0.12570272 0.3344828 -0.768361 0.095920995 0.31772786 0.4574346 0.2865763 -0.16721912 -0.17089279 0.43018797
during -0.05312586 0.13982019 0.10629585 0.04683935 -0.18630792 0.21985655 -0.41462255 -0.20957273 0.03926922 -0.4574736 -0.5985737 0.53108335 0.22047783 0.4329294 0.19653884 -0.15048504 -0.5715924 -0.3428516 0.25582042 -0.407727 0.70129305 0.5192234 -0.19630069 -0.021857226 0.13626419 -0.9277637 0.19225459 0.012877514 -0.10571927 0.6976643 0.2761878 -0.06214373 -0.4174222 -0.5064764 0.36030626 0.53132075 -0.13487838 -0.7609119 0.020715347 0.36858144 -0.046058595 0.33474872 -0.7592597 0.2175374 0.10266602 0.31345257 0.071324036 -0.24770883 -0.10780455 0.5082091
UL52 -0.15657905 0.068694964 0.110704824 -0.042243585 -0.30107388 0.24618818 -0.36636007 -0.29580522 0.039595578 -0.43756592 -0.6317944 0.6384544 0.17838694 0.327554 0.22563925 -0.23652059 -0.65735286 -0.30869886 0.26184008 -0.4650377 0.65689754 0.56515366 -0.13863707 -0.009034858 0.120590836 -0.8880541 0.17710449 -0.03656517 -0.10471917 0.7604131 0.20419449 -0.16065058 -0.36859798 -0.43074635 0.44941702 0.5687357 -0.19376355 -0.7088004 -0.0106691355 0.48611915 -0.057128392 0.3646059 -0.8309738 0.1401167 0.18811268 0.2839971 0.15203488 -0.25952736 -0.1860364 0.55572116
repair -0.11034545 0.03271863 0.22176713 -0.104341246 -0.20682168 0.31361243 -0.40072572 -0.25623623 0.10176065 -0.3876149 -0.64319384 0.5296355 0.22628026 0.36639926 0.23014127 -0.17825554 -0.6057552 -0.43196362 0.22850583 -0.36677006 0.6584933 0.52485853 -0.05610077 0.14492165 0.11086956 -0.8794104 0.1774013 0.0043589966 -0.013405623 0.7072921 0.285819 -0.12856026 -0.37898052 -0.48760077 0.4628704 0.59104556 -0.21489558 -0.6674238 -0.070042446 0.4578005 -0.08803099 0.32818305 -0.8865428 0.19679195 0.13197517 0.13449064 0.04379663 -0.2755126 -0.1950049 0.6290784
profilins -0.033265505 0.016086059 0.21591005 -0.056734562 -0.1673369 0.29895213 -0.4641747 -0.12842755 0.12240298 -0.3686121 -0.5710338 0.44386688 0.28238645 0.45989546 0.21756944 -0.13799125 -0.5700423 -0.47944698 0.26091564 -0.23940043 0.7011821 0.5051547 -0.074941404 0.21497424 0.0382235 -0.9215452 0.17873825 0.034395922 0.018551478 0.62663615 0.38976616 -0.024117397 -0.35450992 -0.5193788 0.39084664 0.6074935 -0.1561881 -0.7152725 -0.032010008 0.35068074 -0.14750619 0.25555947 -0.9059014 0.2773927 0.0792214 0.13668993 -0.042817015 -0.25909182 -0.16113117 0.63106376
vitro -0.06567319 0.0795779 0.15857647 -0.03698872 -0.19000797 0.26397124 -0.37094715 -0.23835716 0.07427249 -0.38843074 -0.6024977 0.5057783 0.19478992 0.3625976 0.2132311 -0.1569903 -0.5627342 -0.35940948 0.23966901 -0.39360663 0.6378332 0.48472562 -0.14721529 0.036420926 0.117852464 -0.8661226 0.18491213 0.002782625 -0.06276806 0.68068755 0.24482922 -0.0907707 -0.38818708 -0.45214182 0.41871932 0.54363835 -0.17544016 -0.6903913 -0.0151930945 0.39918023 -0.07356051 0.32896978 -0.7671352 0.16618387 0.12736304 0.23337774 0.07635191 -0.23481871 -0.15249912 0.5381221
type -0.040353272 0.048840955 0.15933326 -0.09043643 -0.24367557 0.36437854 -0.3356713 -0.3630152 0.063190736 -0.44813836 -0.76881635 0.6230155 0.14662679 0.3291036 0.31116703 -0.19847593 -0.6346248 -0.3932101 0.32659376 -0.5252191 0.72000927 0.5483836 -0.2023322 -0.018497922 0.117213935 -1.0488635 0.22846918 0.015687073 -0.08806494 0.8122133 0.23161769 -0.12393105 -0.5047457 -0.48920587 0.56702656 0.6430225 -0.27223238 -0.8575899 0.026393091 0.49391755 -0.11086933 0.39405453 -0.83765906 0.12841974 0.21991485 0.33371127 0.16599053 -0.2631365 -0.17748654 0.62323195
antibodies -0.069306456 0.122438595 0.12844 -0.009175959 -0.21350434 0.25950116 -0.38260767 -0.2712753 0.046195902 -0.44920805 -0.65875745 0.5834201 0.18768355 0.37064514 0.23383558 -0.18752384 -0.6020213 -0.35814652 0.25853586 -0.46527448 0.6886526 0.5275041 -0.1813685 -0.027306667 0.14375407 -0.9394789 0.19979085 -0.008400561 -0.09559138 0.76147854 0.24576068 -0.11127778 -0.42070025 -0.48536268 0.44637313 0.55513436 -0.18942663 -0.74924135 -0.014054844 0.43343544 -0.05295895 0.3767591 -0.7856161 0.16000827 0.15192367 0.28975675 0.12420434 -0.2435866 -0.15007724 0.5414305
beta -0.18018498 0.32183906 0.035257276 0.15004693 -0.3150738 0.17053302 -0.4937064 -0.3431694 -0.02707331 -0.64089113 -0.74987644 0.8202458 0.1748216 0.45103657 0.2461977 -0.2789431 -0.7546144 -0.29360363 0.25924984 -0.6947124 0.8369343 0.67825925 -0.32727093 -0.19742575 0.25031975 -1.0685582 0.25881293 -0.08595065 -0.2343104 0.96518993 0.21759029 -0.1734371 -0.42542446 -0.543594 0.4309102 0.55869824 -0.16223095 -0.8764006 -0.012085936 0.5298533 0.039421685 0.5225757 -0.9089867 0.15769477 0.1725365 0.4304601 0.25607106 -0.25775984 -0.16411617 0.5111494
associated -0.16475977 0.21679638 0.15287702 0.0237893 -0.23570709 0.22286412 -0.5233209 -0.20971505 0.06150563 -0.49992514 -0.6187043 0.62858486 0.25530082 0.46597737 0.19374616 -0.22353451 -0.6899548 -0.4040581 0.22157209 -0.44364992 0.747637 0.61836845 -0.14168079 0.04105121 0.20061262 -0.9264074 0.20907623 -0.058720753 -0.09268766 0.82103306 0.29262394 -0.12864691 -0.33311114 -0.5476039 0.39702624 0.5970786 -0.16118675 -0.6825232 -0.0959683 0.4735646 0.013596109 0.4008499 -0.9235469 0.23556052 0.09414349 0.17620584 0.062572114 -0.2673106 -0.18111603 0.57983387
required -0.097417444 0.0721014 0.20018381 -0.075800896 -0.21665666 0.29188323 -0.4277232 -0.23941864 0.08606764 -0.41226688 -0.63434166 0.53793937 0.22097267 0.38184446 0.22763452 -0.19289838 -0.6136762 -0.42366308 0.23606473 -0.37553507 0.68884194 0.53401905 -0.07397844 0.11822382 0.11799393 -0.89579505 0.18226536 -0.009842651 -0.029685672 0.726982 0.28997585 -0.113885164 -0.36902863 -0.4937936 0.44480342 0.59022284 -0.20574223 -0.67862964 -0.069364496 0.44273838 -0.07491784 0.34425423 -0.8796807 0.20169638 0.12945613 0.15549232 0.04670222 -0.2653193 -0.18817693 0.61323357
UL5 -0.17202063 0.06201412 0.124567024 -0.05374869 -0.31808358 0.26136944 -0.4009493 -0.29840216 0.044123378 -0.4546041 -0.65952504 0.67906564 0.19292009 0.35817534 0.24030457 -0.2601594 -0.70608807 -0.3436295 0.27793282 -0.46806735 0.70122373 0.6025466 -0.117249325 0.015990218 0.12187587 -0.9336408 0.18742824 -0.039800163 -0.10406059 0.79913616 0.21751787 -0.18220219 -0.37737092 -0.44660568 0.47584662 0.61353046 -0.20622113 -0.746058 -0.03189658 0.5197443 -0.07483715 0.38148603 -0.8944079 0.14357434 0.20571484 0.27961412 0.14205351 -0.27849188 -0.20206249 0.6070574
2 -0.057762742 0.06940588 0.114435524 -0.032006044 -0.222417 0.28419307 -0.2669073 -0.2837674 0.054114938 -0.36711606 -0.64033854 0.530336 0.12318709 0.25959066 0.22799073 -0.19146156 -0.54146683 -0.3127184 0.25394994 -0.4361417 0.5805192 0.45580444 -0.18591426 -0.010380457 0.08478056 -0.8440259 0.2044584 0.0012653731 -0.087021895 0.6765728 0.18265647 -0.10839396 -0.39717966 -0.39850768 0.44350776 0.5031581 -0.194657 -0.68007463 0.008613284 0.414253 -0.08809586 0.32875335 -0.6997396 0.10046895 0.2007813 0.2754028 0.16156852 -0.21793783 -0.15277201 0.46725866
function -0.03578033 0.10470368 0.20948012 0.0065839496 -0.14212489 0.26550117 -0.49339893 -0.14101368 0.07724048 -0.41886064 -0.5612882 0.46194673 0.28930768 0.5217281 0.18576136 -0.11214371 -0.5811064 -0.45758355 0.25808436 -0.2910198 0.73519206 0.5484309 -0.09655159 0.12242135 0.106151566 -0.969406 0.19693929 0.030847766 -0.0063555003 0.64410585 0.36236355 -0.023613224 -0.39689693 -0.56530094 0.33531806 0.6103997 -0.11340315 -0.735006 -0.0012810229 0.33778328 -0.07506812 0.2729491 -0.88637465 0.2907069 0.039538927 0.19425271 -0.06003635 -0.28326198 -0.113501616 0.5938485
effect -0.013422026 0.057269096 0.183572 -0.039533168 -0.17259093 0.29492876 -0.37024298 -0.2415568 0.060096998 -0.40232503 -0.628445 0.50006694 0.19880037 0.39306998 0.2369138 -0.14123438 -0.5600459 -0.3906856 0.282952 -0.40590775 0.6672215 0.49071583 -0.14656699 0.0372139 0.09146601 -0.9399705 0.19411473 0.017750585 -0.053632986 0.67237735 0.26116785 -0.08081403 -0.43635774 -0.4832055 0.43074808 0.5742106 -0.17661524 -0.7433739 -0.006107263 0.38521624 -0.09677428 0.32354873 -0.77713823 0.18092951 0.12441048 0.25312623 0.06576914 -0.23573627 -0.14851753 0.56094605
microM -0.07211808 0.055093534 0.19055392 -0.04774128 -0.23933242 0.33131516 -0.3595421 -0.28292474 0.0820446 -0.41379228 -0.6965021 0.584689 0.18486811 0.34669182 0.2720573 -0.19437811 -0.617945 -0.40114915 0.2712821 -0.4437517 0.6924879 0.5276451 -0.15878922 0.056700267 0.094521224 -0.95865643 0.21299626 0.0057888646 -0.05474442 0.76620626 0.2646077 -0.110706404 -0.43158957 -0.485229 0.4936944 0.5974479 -0.23271437 -0.7598653 -0.027680993 0.46589002 -0.11657574 0.36362654 -0.8622918 0.16332439 0.18154235 0.2588678 0.121272504 -0.24287176 -0.184168 0.59881765
containing -0.078828216 0.14760602 0.112782925 0.022078943 -0.23125973 0.24680424 -0.41166836 -0.26840687 0.043114867 -0.4914197 -0.6737607 0.61558384 0.21057343 0.41397727 0.22508006 -0.1880626 -0.6321744 -0.36426187 0.26722077 -0.47277352 0.7386652 0.56573385 -0.21395507 -0.0380474 0.14915192 -0.986062 0.20894593 -0.009338158 -0.12100468 0.77871 0.27498323 -0.101241045 -0.45083204 -0.5182619 0.4339191 0.5787394 -0.16967498 -0.8101156 0.01312901 0.438944 -0.05675309 0.38142326 -0.8285978 0.1914198 0.15017755 0.33743566 0.12478112 -0.2587297 -0.15036456 0.54971975
cyclin-dependent -0.07192343 0.06136615 0.18823186 -0.044720702 -0.24907717 0.37366247 -0.3425156 -0.2679846 0.07502191 -0.4285146 -0.6500124 0.5637659 0.20646451 0.39260587 0.23232822 -0.19710582 -0.65274125 -0.38704607 0.30613202 -0.41676745 0.6545472 0.5490032 -0.19879057 0.05578113 0.12135666 -0.9717965 0.26478904 -0.043851152 -0.01781818 0.7584837 0.23086984 -0.0797021 -0.41909853 -0.478192 0.5049531 0.61868584 -0.20830162 -0.6942599 -0.059859656 0.47354263 -0.12317231 0.3499435 -0.9170509 0.21335915 0.16683389 0.260717 0.12419304 -0.25100756 -0.20907095 0.5805595
shown -0.104200564 0.009378397 0.21454011 -0.11788714 -0.20502362 0.32700628 -0.40193227 -0.23797242 0.11623099 -0.3675292 -0.63556045 0.51018286 0.20610167 0.33280942 0.23406725 -0.1952449 -0.6019476 -0.4329254 0.2303198 -0.36936322 0.6543569 0.4954969 -0.05116763 0.16723809 0.10950193 -0.8490855 0.16780472 0.0007066662 -0.004115036 0.7135232 0.28498727 -0.13644776 -0.35741124 -0.47757468 0.47971037 0.5832911 -0.24135034 -0.6370506 -0.12266236 0.46961245 -0.102243744 0.32849008 -0.8668614 0.18907167 0.13931873 0.108127944 0.030193191 -0.2503633 -0.21888167 0.6331762
sites -0.058234297 0.09863785 0.17772603 -0.036356997 -0.20815353 0.28734818 -0.41621977 -0.23990723 0.07126888 -0.44614866 -0.66007876 0.557702 0.21505837 0.41787377 0.23717363 -0.1875768 -0.61725056 -0.40470982 0.2670061 -0.42248362 0.71571255 0.54049575 -0.14414689 0.05390978 0.116954476 -0.9707455 0.20755322 0.0068768803 -0.07009465 0.7389986 0.2907839 -0.09021462 -0.42352965 -0.5151454 0.45186892 0.59947306 -0.18423943 -0.76992035 -0.017132232 0.4314533 -0.08814954 0.35131854 -0.8662827 0.19499707 0.12829429 0.2509962 0.07909858 -0.25687447 -0.16562234 0.5978611
complexes -0.14431001 0.15451689 0.1520167 0.0025963692 -0.21612656 0.23505326 -0.45901224 -0.21198219 0.06973642 -0.4320023 -0.57485086 0.5683374 0.22539283 0.39802703 0.20388222 -0.20910503 -0.624028 -0.3776607 0.22124873 -0.3958485 0.6824581 0.5595288 -0.12267559 0.0593621 0.14376162 -0.85364753 0.19356804 -0.03721854 -0.07840786 0.7320591 0.27627873 -0.119711414 -0.32731792 -0.4902986 0.39415163 0.5627628 -0.16633251 -0.6523028 -0.067648314 0.42352703 -0.020533148 0.3571661 -0.8497979 0.19840717 0.10911114 0.17024137 0.06341923 -0.24438432 -0.1730846 0.5527109
synthesis -0.055619452 0.093894824 0.15342616 -0.033615965 -0.22779046 0.29367608 -0.3844134 -0.300417 0.05314371 -0.47424912 -0.71302897 0.60693276 0.18899256 0.39453822 0.25001305 -0.18189554 -0.6389201 -0.378305 0.28531513 -0.4907297 0.7231368 0.5552208 -0.18236838 -0.021477936 0.14744656 -1.0134027 0.21687259 0.0017600887 -0.09776219 0.7860906 0.25548542 -0.12055494 -0.47223735 -0.51126313 0.48633227 0.6114503 -0.21128778 -0.8139864 0.0010932946 0.46811876 -0.076465994 0.38721433 -0.8415934 0.17596127 0.16566986 0.3208672 0.12681922 -0.26728553 -0.1610867 0.5880717
adhesion -0.13357322 0.25244653 0.11041652 0.11000473 -0.21701224 0.19316067 -0.49342313 -0.2211656 0.0095801065 -0.53431916 -0.61385924 0.6296105 0.22601102 0.49631703 0.19059047 -0.19555657 -0.648303 -0.3381461 0.2416833 -0.49831825 0.75010806 0.611925 -0.22396004 -0.076332666 0.2099467 -0.95263946 0.22736701 -0.03542997 -0.14670886 0.7860042 0.2657956 -0.09997142 -0.38323152 -0.53810585 0.3421288 0.54205847 -0.110157214 -0.75171196 -0.015548066 0.41861674 0.012572535 0.3945069 -0.8403601 0.22923937 0.08868028 0.2996581 0.105894536 -0.25503096 -0.12546504 0.5025088
whereas -0.12550555 0.128633 0.15073107 -0.022806212 -0.23406504 0.254683 -0.3915697 -0.26149276 0.06673718 -0.4376283 -0.63449687 0.5874099 0.1900782 0.35363808 0.21526664 -0.21660084 -0.62314475 -0.35257804 0.21718358 -0.45635942 0.657296 0.53352714 -0.15381734 0.026856858 0.15974104 -0.86358094 0.1982203 -0.036515877 -0.091354296 0.7548366 0.22434212 -0.1388975 -0.35871312 -0.46556038 0.43959233 0.5502305 -0.18978183 -0.666973 -0.0674293 0.4713798 -0.041547406 0.3769191 -0.81844944 0.17160724 0.14128129 0.2105042 0.12604944 -0.23766348 -0.18462473 0.5420677
three -0.08363288 0.03804203 0.20486979 -0.10191406 -0.22097674 0.3220326 -0.38173568 -0.2714501 0.09080749 -0.4125145 -0.68422407 0.5611482 0.20439543 0.3546961 0.24613295 -0.19943467 -0.6243448 -0.40985063 0.25012776 -0.41575497 0.68275255 0.5274751 -0.09719197 0.106370755 0.1210567 -0.92422235 0.19701132 -0.0026808514 -0.040888827 0.7493165 0.28021625 -0.13594954 -0.40754244 -0.49498358 0.4956522 0.6131142 -0.22952732 -0.7141406 -0.06687557 0.48361385 -0.095387585 0.35089347 -0.870671 0.18128605 0.16005078 0.20084676 0.07617259 -0.2596468 -0.19984394 0.6288338
molecules -0.106494725 0.0968667 0.16421251 -0.027981214 -0.21343595 0.27798337 -0.39481103 -0.23629837 0.06604554 -0.41875556 -0.6243205 0.5540782 0.1961307 0.36972603 0.22549614 -0.19469526 -0.6057363 -0.37201926 0.24100856 -0.40721276 0.67134035 0.52512336 -0.1387618 0.060887378 0.13033234 -0.8903962 0.20035207 -0.015128072 -0.063804075 0.7199494 0.26911452 -0.11486209 -0.3659559 -0.4779101 0.4292819 0.5686694 -0.18781453 -0.69624764 -0.041824862 0.4341622 -0.064998485 0.34187523 -0.83645797 0.18327042 0.13920656 0.2170113 0.08616889 -0.24015665 -0.17904261 0.562798
skeletal 0.032245584 0.14424497 0.060557667 0.056260828 -0.17560956 0.21531372 -0.36612454 -0.28348634 -0.007401968 -0.49274433 -0.67393225 0.56002873 0.18464579 0.41731194 0.2276815 -0.113930635 -0.56414026 -0.31310362 0.3089135 -0.5107223 0.7205999 0.5042805 -0.29526496 -0.18031442 0.13928206 -1.0344318 0.21432593 0.038777318 -0.15544567 0.7401416 0.2394116 -0.053275276 -0.52330464 -0.51940227 0.40063456 0.5291354 -0.14049588 -0.8894763 0.097690575 0.3417447 -0.064416006 0.36326775 -0.67729414 0.16824497 0.1316182 0.47646484 0.14945246 -0.25187644 -0.07279097 0.4700315
effects -0.03032112 0.058864728 0.19823721 -0.043871883 -0.17999709 0.30880398 -0.40168804 -0.24035418 0.074816085 -0.4133959 -0.6465 0.51826483 0.21809624 0.41407427 0.23996401 -0.15593715 -0.5889076 -0.407749 0.28021666 -0.40449828 0.690884 0.5166109 -0.13871136 0.061874602 0.099031694 -0.9561619 0.19842146 0.015254553 -0.053035866 0.6988902 0.28005984 -0.0867029 -0.43720338 -0.50237036 0.4465192 0.6001984 -0.18658753 -0.75282174 -0.020060608 0.40740383 -0.09840248 0.3350802 -0.82614857 0.19972967 0.123607844 0.23947637 0.056042623 -0.24875353 -0.15999323 0.5912331
isoforms 0.04365678 0.1049564 0.058695044 0.010299236 -0.18375996 0.23865297 -0.25640666 -0.33072937 -0.007913127 -0.46202677 -0.6875775 0.5500233 0.11270395 0.32074836 0.23783721 -0.118468516 -0.52758956 -0.26917368 0.29491645 -0.54571795 0.64330673 0.4641999 -0.28265938 -0.20596913 0.13775998 -0.9817551 0.21367778 0.031227281 -0.1594951 0.7039463 0.165073 -0.080592126 -0.53081626 -0.44669044 0.43529716 0.49728206 -0.17717399 -0.84858155 0.10034348 0.3694317 -0.074154995 0.3594132 -0.6046403 0.1035336 0.17539862 0.47434267 0.19709505 -0.22834207 -0.07915556 0.44500154
show -0.114908986 -0.0033097477 0.24500924 -0.14604054 -0.2251834 0.36981538 -0.44035685 -0.2573044 0.12986594 -0.4002882 -0.7057326 0.5564636 0.2252925 0.36063105 0.25445426 -0.21511278 -0.6621146 -0.47079077 0.24505147 -0.39374846 0.708223 0.5431133 -0.04392549 0.20478688 0.11834142 -0.9338816 0.18866292 0.002753083 -0.003067084 0.7706173 0.31735757 -0.15141799 -0.39929008 -0.52018654 0.5361982 0.6467981 -0.26883036 -0.69382507 -0.13844715 0.52424026 -0.116838 0.33998135 -0.9566614 0.20926037 0.1527343 0.0983519 0.03229326 -0.2728864 -0.2410995 0.6988098
high -0.06801218 0.06728271 0.19183941 -0.07126617 -0.20756124 0.30966437 -0.36662978 -0.26841822 0.08278592 -0.41831672 -0.6722068 0.5536076 0.19058447 0.35097146 0.24959451 -0.19770417 -0.6100803 -0.38281047 0.2523019 -0.42501774 0.67412513 0.5222791 -0.13644567 0.065216534 0.11762417 -0.9222849 0.20454091 -0.0006099611 -0.058779445 0.7432935 0.25841105 -0.114858106 -0.4183245 -0.48163778 0.48678362 0.5922301 -0.22805433 -0.7241482 -0.05257273 0.4679632 -0.105237365 0.36292964 -0.8397806 0.172716 0.15529177 0.22888094 0.10093909 -0.25328806 -0.18643545 0.582675
form -0.05854374 0.10929813 0.1324222 -0.012553922 -0.20002955 0.24898057 -0.3697414 -0.2581186 0.059602868 -0.4367404 -0.637351 0.5477568 0.18910865 0.36601266 0.22181179 -0.17151035 -0.5876493 -0.35266313 0.25411698 -0.43032387 0.6675663 0.51098865 -0.16449033 -0.0038244417 0.12961993 -0.90869844 0.19886632 -0.008267178 -0.09320214 0.7165234 0.25105694 -0.1025332 -0.4129862 -0.47064388 0.42939135 0.54059786 -0.18350066 -0.7275191 -0.016524386 0.41451722 -0.06874085 0.3529494 -0.77792627 0.16605595 0.1389728 0.26618442 0.1028092 -0.2379385 -0.1514317 0.536503
formation -0.017643452 0.17800497 0.168349 0.09640983 -0.13597621 0.22796385 -0.52141404 -0.14604117 0.043064777 -0.48503268 -0.58606875 0.50967276 0.30344796 0.58163553 0.18449159 -0.111546315 -0.6024014 -0.42415658 0.29162925 -0.3514342 0.7825002 0.58943367 -0.18188712 0.009920695 0.12753199 -1.0506831 0.21843971 0.033222068 -0.07180184 0.6881994 0.35578185 0.0016048526 -0.45095992 -0.60536295 0.3070762 0.5978248 -0.073569104 -0.824647 0.05428762 0.32029936 -0.059156563 0.3021804 -0.87668097 0.3082029 0.033402417 0.3091857 -0.017616704 -0.2882805 -0.0718346 0.55824894
nucleocapsid -0.091851085 0.09295506 0.03932498 0.02935733 -0.29741514 0.2801548 -0.20932989 -0.30890018 0.0018055819 -0.40415218 -0.63832945 0.61551994 0.07616584 0.2167923 0.29192686 -0.24111857 -0.5601513 -0.2527026 0.23349008 -0.4373002 0.54342425 0.47069886 -0.24857879 -0.06032753 0.05668374 -0.83113456 0.2192967 -0.018494489 -0.087214716 0.69352514 0.17804807 -0.10273398 -0.38302466 -0.34139937 0.44359815 0.46411484 -0.20018637 -0.7159555 0.082907744 0.44481406 -0.11951887 0.3194766 -0.7150306 0.081769615 0.2728571 0.35591283 0.22757077 -0.16673455 -0.16427954 0.44670168
domains -0.070694484 0.07459701 0.14332172 -0.044149715 -0.22687928 0.27415675 -0.36351067 -0.2651394 0.06829965 -0.42372206 -0.63875735 0.5573154 0.19386928 0.35548574 0.23454548 -0.18662229 -0.5980526 -0.37598082 0.25006914 -0.41375765 0.6680782 0.51085466 -0.15438941 0.043647088 0.11586044 -0.90443647 0.19576664 0.004248415 -0.06558478 0.72103995 0.2722742 -0.10552791 -0.40490353 -0.4640402 0.44954318 0.56341916 -0.19640386 -0.72550374 -0.017464902 0.42939797 -0.0806275 0.3449956 -0.8094426 0.16081113 0.15404785 0.2528171 0.101862215 -0.24667713 -0.17062107 0.5582528
functions -0.071327664 0.068111524 0.21297961 -0.051896617 -0.17458764 0.28225058 -0.43794873 -0.18944225 0.0872385 -0.38873655 -0.58583343 0.48479754 0.2442139 0.42675084 0.20373914 -0.14547503 -0.58136404 -0.4355394 0.23002425 -0.3232868 0.6815181 0.52271014 -0.072980575 0.13695973 0.10963907 -0.897914 0.18784231 0.0088829 -0.008155812 0.6607593 0.31917983 -0.0795292 -0.36568967 -0.508968 0.39015108 0.59544164 -0.16540359 -0.6789127 -0.043189116 0.3891917 -0.07611977 0.29544702 -0.8666862 0.23122244 0.08258381 0.15591377 -0.011045748 -0.26593313 -0.16168131 0.5937504
nucleotide -0.07357194 0.07797218 0.1498721 -0.024627669 -0.25638995 0.33175093 -0.34979445 -0.28099465 0.059750468 -0.42895472 -0.70403844 0.606548 0.17303093 0.34300447 0.28258318 -0.22251031 -0.63046736 -0.3755964 0.26670846 -0.4407807 0.6782874 0.5292565 -0.17707606 0.046666317 0.08385853 -0.95940256 0.22174878 -0.0042849677 -0.053883787 0.7673474 0.26709446 -0.11061418 -0.4275916 -0.4738342 0.49065912 0.5896026 -0.21901713 -0.77944314 0.008446918 0.47376093 -0.12199978 0.35070676 -0.8648551 0.16708416 0.20937045 0.27801985 0.14267659 -0.23172417 -0.18188906 0.5907748
H4 -0.10198212 0.033961587 0.20519489 -0.123170845 -0.20432179 0.3050651 -0.30458972 -0.2449111 0.09127066 -0.3791505 -0.6604582 0.5160692 0.13632773 0.26775143 0.24822842 -0.22110784 -0.5614484 -0.33230275 0.1614678 -0.3613472 0.54952717 0.48544475 -0.058694497 0.10505018 0.09810969 -0.7929945 0.16653591 0.0056288685 -0.064051725 0.6829903 0.20724311 -0.1334856 -0.3772717 -0.45246613 0.4821801 0.55644804 -0.22852187 -0.59902817 -0.063797444 0.4816575 -0.093139805 0.32636827 -0.8010195 0.13266206 0.16544697 0.15941891 0.091814175 -0.23206943 -0.19924967 0.54249126
mutant -0.08771291 0.08857499 0.17177911 -0.041310944 -0.20922504 0.28389606 -0.42020327 -0.24060847 0.076815784 -0.42419904 -0.6347872 0.5468301 0.2167252 0.3877659 0.23057655 -0.184497 -0.60884255 -0.40565622 0.25752077 -0.4015782 0.69142103 0.53138894 -0.12207906 0.07739784 0.12589371 -0.916139 0.19850022 -0.0035414242 -0.056134168 0.7323117 0.2832995 -0.10181353 -0.3818096 -0.49546793 0.43986335 0.5894336 -0.19588403 -0.707817 -0.05062463 0.43520597 -0.07799586 0.34725502 -0.85508144 0.20422533 0.12949869 0.21113828 0.06975795 -0.24978477 -0.1710998 0.58855355
such -0.11437051 0.06952488 0.17980923 -0.06861094 -0.24008107 0.31360877 -0.4239821 -0.2676317 0.08873385 -0.43504146 -0.6989127 0.5961837 0.2273841 0.39599764 0.2352096 -0.20052324 -0.67018896 -0.42742482 0.2603779 -0.432068 0.73968166 0.56494117 -0.1412482 0.08992075 0.14674169 -0.96753293 0.21574424 -0.011381474 -0.06512424 0.7844261 0.3063708 -0.13442673 -0.4127088 -0.51719517 0.48289835 0.63160044 -0.2392695 -0.75765914 -0.065118656 0.4792814 -0.076667935 0.37658757 -0.92501026 0.20386349 0.15776259 0.22111207 0.09197528 -0.2762859 -0.20139165 0.63134646
vivo -0.07754931 0.07457998 0.15267152 -0.03412219 -0.21007437 0.27103606 -0.35030797 -0.24954247 0.06264769 -0.38983402 -0.6102528 0.5151094 0.17816594 0.33130777 0.22006541 -0.17009751 -0.55847037 -0.34612188 0.23348741 -0.4045603 0.61616254 0.48185965 -0.14191662 0.033626318 0.109511115 -0.8469776 0.19433378 0.0018393736 -0.059811413 0.67874193 0.23392124 -0.099718615 -0.37979415 -0.43930677 0.42557546 0.5409846 -0.18710728 -0.6733029 -0.022522144 0.4066309 -0.081535935 0.32759142 -0.7590665 0.15298438 0.14552389 0.22412077 0.09898369 -0.22738972 -0.14949876 0.53658766
study -0.08067499 0.054497704 0.2102008 -0.09832135 -0.20424432 0.31872854 -0.3906998 -0.2591147 0.08906497 -0.40630084 -0.6709917 0.54312074 0.1981514 0.35662243 0.23598002 -0.18819451 -0.61155987 -0.40614855 0.24412853 -0.4278167 0.6713578 0.50953937 -0.098176934 0.09663388 0.12520286 -0.8978662 0.19027519 -0.010134042 -0.040306367 0.7251702 0.26922753 -0.13131565 -0.39745513 -0.48875183 0.47336614 0.5814244 -0.22534893 -0.6844218 -0.07898501 0.46272525 -0.07950001 0.33740604 -0.8516729 0.18698175 0.14121342 0.16659519 0.06781976 -0.24876617 -0.1875423 0.60067385
different -0.06594289 0.07190709 0.19646408 -0.063967355 -0.199214 0.30682543 -0.403845 -0.24600509 0.08520571 -0.4118438 -0.64858973 0.53589976 0.21623115 0.39386204 0.2282794 -0.17557853 -0.6092321 -0.40658355 0.25956914 -0.41604802 0.686565 0.52466965 -0.12821226 0.07630982 0.12855308 -0.9231325 0.204501 -0.0021796064 -0.044406734 0.72507256 0.27253067 -0.11006357 -0.4051887 -0.4983927 0.45821705 0.59685296 -0.20436768 -0.7000589 -0.060883142 0.43664226 -0.08430119 0.34749034 -0.84981155 0.1936097 0.12599458 0.20132253 0.066749856 -0.25556636 -0.17509086 0.6000853
receptor -0.09737967 0.049657293 0.18776266 -0.06848143 -0.2328009 0.33038056 -0.35525393 -0.26489708 0.08822211 -0.379405 -0.65193254 0.5548227 0.18315314 0.32840765 0.24855843 -0.20514625 -0.6140853 -0.39900035 0.25508073 -0.388005 0.64288086 0.51123494 -0.120600685 0.10329047 0.09543003 -0.8822792 0.19729315 -0.007502302 -0.026529703 0.72462934 0.26054308 -0.11668461 -0.37328565 -0.454077 0.48164552 0.5772988 -0.21647094 -0.672963 -0.061549906 0.46493357 -0.10464505 0.33314598 -0.86583316 0.16780059 0.17469482 0.19030686 0.09162621 -0.24572775 -0.20446657 0.5932784
cytoskeletal -0.0025923983 0.14102024 0.10673964 0.03780605 -0.18628506 0.24530442 -0.43315968 -0.2567085 0.029371394 -0.4987507 -0.68027556 0.57564694 0.23504728 0.46903345 0.22937384 -0.14081404 -0.61141706 -0.37316325 0.30354962 -0.4716706 0.76418084 0.54597044 -0.2482853 -0.08254483 0.13818325 -1.0602037 0.21814378 0.028356563 -0.12011816 0.7715755 0.29428667 -0.055574834 -0.5019144 -0.55663544 0.41953275 0.58348423 -0.1537592 -0.8743403 0.049881995 0.3774887 -0.07006839 0.36529517 -0.7895885 0.21321015 0.12378085 0.3940486 0.10355994 -0.27421397 -0.105455495 0.54264337
expressed -0.101874545 0.2362604 0.099959515 0.08277727 -0.20878649 0.1801386 -0.440688 -0.26456857 -0.0037625094 -0.51798487 -0.612336 0.61883545 0.18023273 0.43637735 0.18040784 -0.1800653 -0.62166727 -0.2988424 0.24688144 -0.5498655 0.70554656 0.57414365 -0.23499005 -0.15256613 0.23059094 -0.93228537 0.22083849 -0.047076352 -0.1620413 0.78477937 0.19818725 -0.12331883 -0.40587062 -0.50535405 0.36021164 0.51562095 -0.1312213 -0.7291869 -0.014292072 0.41295618 0.02832977 0.41385266 -0.7636029 0.18416922 0.09535508 0.33293733 0.15115155 -0.24011044 -0.11353066 0.47000125
showed -0.114582956 0.036878094 0.2255274 -0.106511354 -0.20604654 0.31569344 -0.43017498 -0.22616379 0.11199073 -0.38783 -0.64025885 0.5335045 0.22675632 0.3674925 0.22546072 -0.20149955 -0.62384623 -0.4411588 0.22434422 -0.36153972 0.67237985 0.52047956 -0.05353728 0.17226127 0.12388625 -0.872384 0.17901728 -0.009667462 -0.009058949 0.72966826 0.299749 -0.13560651 -0.36020812 -0.49896994 0.4774732 0.6050521 -0.22943904 -0.646422 -0.121299155 0.4752644 -0.08763113 0.33530715 -0.8977913 0.20786516 0.13151245 0.09961951 0.030812323 -0.25290057 -0.21418792 0.63995504
interactions -0.057154022 0.13163696 0.1541616 0.01169234 -0.18675618 0.24007039 -0.46060488 -0.17861494 0.056249276 -0.44303334 -0.5879529 0.52483505 0.26819816 0.4702551 0.19392264 -0.14336814 -0.60206544 -0.41668102 0.25130102 -0.3445532 0.7243182 0.56765825 -0.14343783 0.049668632 0.11411262 -0.95930785 0.19806032 0.009531151 -0.05045153 0.6945793 0.32775596 -0.053681172 -0.3938832 -0.5428686 0.35715258 0.603146 -0.12596777 -0.75756073 0.01543586 0.36406568 -0.047813866 0.30846307 -0.8550624 0.24142283 0.083159894 0.24668926 0.0070705744 -0.2716394 -0.11998561 0.5612497
3 -0.06791727 0.04720411 0.1750319 -0.07041125 -0.22166945 0.2921062 -0.28368485 -0.26163542 0.08589898 -0.35873798 -0.6030812 0.51286244 0.14021295 0.26287925 0.23803419 -0.16756989 -0.5147492 -0.33413655 0.2383146 -0.38186687 0.5518401 0.45848498 -0.11145874 0.05646002 0.09146407 -0.7960979 0.18846321 0.007421889 -0.06251361 0.6389954 0.19838268 -0.111121446 -0.37381232 -0.3862691 0.44557738 0.49719852 -0.22358233 -0.61092615 -0.05061762 0.43414032 -0.09396219 0.31430674 -0.71934897 0.111259 0.1613176 0.18105157 0.0880259 -0.18671869 -0.18001842 0.5209261
[ -0.08187182 0.057400674 0.14049315 -0.047642373 -0.21080938 0.269228 -0.2816478 -0.24010512 0.071433894 -0.3379293 -0.5892416 0.49084985 0.11771123 0.24933077 0.21050519 -0.18614525 -0.49328178 -0.30889973 0.19992855 -0.4076224 0.5350732 0.41787222 -0.110804886 0.026906982 0.1052933 -0.7749484 0.16533509 0.0011810823 -0.026001438 0.61191106 0.16722885 -0.10041253 -0.36974734 -0.372886 0.44685012 0.47673583 -0.22635919 -0.6101674 -0.025849689 0.39601287 -0.0614399 0.3031401 -0.6705556 0.09447743 0.17671244 0.20413692 0.13399988 -0.19327515 -0.16421251 0.45974585
] -0.0741692 0.03477299 0.15984207 -0.05008854 -0.21074653 0.2822484 -0.2524352 -0.24522468 0.07804696 -0.29900673 -0.560612 0.46741682 0.116126776 0.2363624 0.23636761 -0.17247808 -0.47119159 -0.29896533 0.20763102 -0.36846718 0.52672 0.37588465 -0.123867944 0.015245957 0.081606545 -0.7477429 0.1691535 0.025074983 -0.052565992 0.5997261 0.18434653 -0.115919456 -0.33617812 -0.36401245 0.43586218 0.4458082 -0.22948718 -0.564206 -0.034419466 0.39819616 -0.080054924 0.2796493 -0.6631006 0.0881907 0.17161345 0.19863275 0.096121095 -0.18481632 -0.17809622 0.45578086
one -0.09510786 0.05279734 0.22483967 -0.10529803 -0.2326529 0.32067803 -0.36196384 -0.2677713 0.08867305 -0.43101382 -0.70902866 0.5770503 0.17017756 0.339613 0.26372477 -0.23984614 -0.6427924 -0.3881791 0.21244714 -0.4065735 0.6571574 0.5461066 -0.09636623 0.11027821 0.108776785 -0.9017704 0.17926541 0.014881113 -0.0639488 0.7429861 0.26075837 -0.12780133 -0.40738246 -0.49173597 0.5114987 0.61705226 -0.23336676 -0.6997131 -0.048762012 0.51415455 -0.10007385 0.35076326 -0.90789384 0.16836591 0.17954496 0.19969179 0.08579087 -0.25336045 -0.20803586 0.5927571
H3 -0.10113223 0.046161808 0.20883533 -0.1438829 -0.21901956 0.30967754 -0.31843847 -0.25744465 0.09424283 -0.40406474 -0.7023722 0.54027545 0.14815769 0.287471 0.25608176 -0.22636051 -0.6077617 -0.35060087 0.18688211 -0.4092254 0.5900294 0.50105536 -0.079451695 0.117406204 0.112617865 -0.85371554 0.17748486 0.003528476 -0.061244007 0.71955204 0.21214111 -0.13668916 -0.38266402 -0.47516486 0.50474024 0.5769184 -0.24590522 -0.64707685 -0.063894264 0.5136215 -0.102327906 0.3555022 -0.8488031 0.14250438 0.17929685 0.15744026 0.11236839 -0.23201732 -0.21818033 0.56792676
mutations -0.061961792 0.13480307 0.16925107 0.031774707 -0.15722772 0.22751705 -0.46297807 -0.17562261 0.05318505 -0.43301824 -0.5643496 0.4981514 0.2527395 0.4704641 0.18038751 -0.12740822 -0.56728375 -0.38905492 0.24012826 -0.3560006 0.6943716 0.5353495 -0.12852165 0.03759565 0.13765721 -0.9209433 0.19174878 0.008047202 -0.061196707 0.6623022 0.30261138 -0.058553103 -0.37860596 -0.52897435 0.3303527 0.55647504 -0.11134811 -0.7108293 3.611729e-06 0.34620896 -0.042241212 0.30013746 -0.8157627 0.24256602 0.054596733 0.23226625 0.010347843 -0.26415092 -0.10907004 0.5298725
