5200 20
, 3.0013633 3.9875202 0.3669186 3.8036811 3.7197907 -2.1786547 2.534102 -0.23978105 2.401379 1.8114258 -4.062023 1.0965133 -1.1355296 2.273222 -1.8304977 -3.7638469 -1.343068 -6.7070937 -1.8315189 0.07163791
of 2.0385814 2.6861236 0.24723956 2.5861793 2.492824 -1.4483871 1.7106643 -0.15604275 1.6076714 1.2483138 -2.7809136 0.7476853 -0.72809947 1.5068014 -1.215044 -2.5482757 -0.9025436 -4.5190763 -1.2085361 0.08023006
the 2.6640494 3.5280783 0.34441993 3.394982 3.3162024 -1.9131658 2.232938 -0.17951442 2.1325524 1.6383383 -3.6486366 0.99443674 -0.99127835 1.9771625 -1.6172143 -3.3579385 -1.2387362 -5.980123 -1.5907519 0.114436515
and 2.373691 3.1469312 0.30708724 3.0389214 2.9593263 -1.7189417 2.0175493 -0.18412662 1.9028969 1.4433668 -3.2382462 0.86426145 -0.8982104 1.7904613 -1.4318572 -2.9875169 -1.0828375 -5.3207517 -1.4337629 0.093249895
. 1.4458749 1.8476666 0.17060441 1.8106058 1.7569467 -0.9783505 1.1996891 -0.06770442 1.1377699 0.8641931 -1.9206649 0.5459971 -0.5180264 1.05141 -0.8658606 -1.7766225 -0.61957145 -3.1271293 -0.84541065 0.09205273
in 4.493928 5.952055 0.53287965 5.7106605 5.6101336 -3.2435021 3.7889938 -0.32172358 3.599673 2.6823459 -6.057913 1.6176741 -1.6466564 3.3836212 -2.7406785 -5.6170664 -1.9871268 -10.028316 -2.7046762 0.17572878
actin 2.1135457 2.8185384 0.22782297 2.7105997 2.6346056 -1.5602874 1.8148042 -0.14079453 1.7044286 1.2710729 -2.862846 0.757187 -0.77032787 1.5534805 -1.2810878 -2.65356 -0.9479528 -4.728497 -1.2889092 0.106425956
to 1.8977672 2.519477 0.22965199 2.4133995 2.3318129 -1.3765813 1.5983881 -0.12834257 1.5115108 1.1491678 -2.6052165 0.7199848 -0.7097554 1.412964 -1.1523232 -2.405212 -0.89063936 -4.2497497 -1.1070603 0.07766902
) 1.9577748 2.5841453 0.24465325 2.4982102 2.3823867 -1.4455206 1.6240326 -0.13222992 1.5380716 1.179163 -2.672945 0.73567116 -0.7400934 1.441948 -1.206207 -2.4527845 -0.88053346 -4.390156 -1.2015604 0.05151666
( 2.1145558 2.787393 0.27692437 2.6673815 2.5645876 -1.4720227 1.7713814 -0.13563842 1.6898015 1.3097667 -2.850562 0.76540834 -0.7435053 1.6054784 -1.2677777 -2.5775938 -0.9533659 -4.6862316 -1.2294384 0.0909342
a 1.8027345 2.3362648 0.26868752 2.2335734 2.1915457 -1.2498255 1.5084081 -0.09556295 1.4218526 1.1059858 -2.4093065 0.6873089 -0.68339324 1.29958 -1.0556242 -2.2030995 -0.83344275 -3.8864176 -1.0353891 0.046599947
with 1.410266 1.866745 0.18155955 1.807515 1.7612232 -1.0114483 1.1962137 -0.11052928 1.1391972 0.8597346 -1.9524399 0.5263685 -0.5194484 1.044148 -0.8783898 -1.7737579 -0.6568509 -3.177652 -0.8409351 0.06467985
that 1.6799327 2.2322888 0.22080274 2.1460378 2.0972025 -1.2141184 1.4184376 -0.112051815 1.3387656 1.0434853 -2.301762 0.642991 -0.64020914 1.2710782 -1.007011 -2.1321604 -0.7719719 -3.7805023 -0.980568 0.07583246
profilin 1.6724108 2.2000263 0.20679176 2.134853 2.0936453 -1.2462239 1.4284508 -0.09704923 1.3595837 1.0068712 -2.263753 0.6181961 -0.6338802 1.2386706 -1.0097877 -2.105934 -0.7584975 -3.7469497 -1.0034173 0.100835264
for 1.7437218 2.307337 0.20798913 2.2251153 2.138012 -1.2492762 1.4616059 -0.12538035 1.368408 1.0296129 -2.334788 0.6244958 -0.6545771 1.2943131 -1.0448164 -2.17819 -0.7955407 -3.8758245 -1.0324731 0.06377424
is 1.6953301 2.2176192 0.2091921 2.1398761 2.056825 -1.2217097 1.4136271 -0.14231479 1.3317528 1.020204 -2.2492077 0.61775583 -0.6101688 1.2310631 -0.9993632 -2.1278162 -0.7776962 -3.753109 -1.004362 0.08389665
by 1.1176536 1.5045266 0.15081105 1.4541135 1.3837711 -0.8123835 0.95040536 -0.084223144 0.9125859 0.71116436 -1.553955 0.44063854 -0.44940412 0.859175 -0.6709211 -1.4367418 -0.5075788 -2.5400348 -0.6727516 0.047729008
protein 1.6952621 2.256431 0.19078377 2.1949656 2.1195745 -1.2482748 1.4527167 -0.11855579 1.363917 1.0269715 -2.32511 0.6390087 -0.64557916 1.259029 -1.0341558 -2.1281083 -0.7492267 -3.8189902 -1.0502589 0.07791097
The 1.2215303 1.6176145 0.1582084 1.5580635 1.5376176 -0.8976205 1.0264174 -0.0801876 0.9879451 0.76498616 -1.6632214 0.46182278 -0.4648653 0.9031931 -0.7643146 -1.5443556 -0.5447089 -2.7442868 -0.73044825 0.0459901
proteins 1.3903985 1.8471411 0.16281626 1.792676 1.7460715 -1.0266505 1.1862211 -0.094769105 1.1143886 0.8542306 -1.9143354 0.53524923 -0.53506327 1.0212485 -0.84557986 -1.7446662 -0.62365353 -3.133141 -0.8510363 0.07142066
was 1.1962559 1.5454075 0.1359646 1.4994948 1.4776388 -0.84296846 0.9774998 -0.07605247 0.93490946 0.7136229 -1.6002744 0.4414373 -0.44609573 0.8866421 -0.71427053 -1.5034578 -0.5487239 -2.646642 -0.7044035 0.07850368
beta-catenin 1.1349919 1.5148473 0.14510599 1.441438 1.4786469 -0.8600767 0.9955612 -0.15170045 0.8960239 0.66612583 -1.5868218 0.45331064 -0.4627295 0.8873762 -0.72373664 -1.4393083 -0.5471098 -2.6933835 -0.7042512 0.008058224
cells 1.4273372 1.8810762 0.19657499 1.8190073 1.7977467 -1.0189983 1.1946481 -0.08669349 1.1320018 0.8814974 -1.9480698 0.5295249 -0.5342352 1.0618526 -0.8588664 -1.7811503 -0.65007275 -3.1857579 -0.8485569 0.067479685
myosin 1.5577904 2.0448632 0.1230833 1.8959146 1.8751293 -1.0558932 1.2647839 -0.103125595 1.2807113 0.82041955 -1.9427055 0.47113404 -0.48705894 1.1843354 -0.9390806 -1.8870316 -0.59805435 -3.2866423 -0.9996909 0.028326536
alpha-catenin 1.1604279 1.5437773 0.14625512 1.4675934 1.5016319 -0.868429 1.0147803 -0.14887735 0.91522974 0.66683114 -1.6067806 0.45193473 -0.46885052 0.90191317 -0.72619045 -1.4466686 -0.5469483 -2.7204258 -0.710175 0.012020464
binding 1.5456374 2.0382385 0.19159909 1.984161 1.9413884 -1.1451089 1.3404955 -0.13274623 1.2231085 0.9563022 -2.1285148 0.5715832 -0.5977192 1.1155424 -0.934861 -1.963258 -0.71875405 -3.4835129 -0.9177891 0.09773492
chain 1.6468949 2.1315405 0.17888416 2.0121286 1.9919823 -1.1106347 1.3478105 -0.11136595 1.3344808 0.87299526 -2.0705543 0.48943222 -0.4968466 1.2500147 -0.96380943 -1.9650421 -0.63378614 -3.4705327 -1.021453 0.027303241
are 1.4165817 1.849506 0.17188856 1.7904955 1.7205164 -1.0159856 1.1682001 -0.0758085 1.1062726 0.8568955 -1.9289061 0.534789 -0.5204039 1.0514487 -0.8475704 -1.7587099 -0.64427346 -3.1399572 -0.839245 0.031952746
were 1.4149377 1.8448697 0.17940138 1.7927489 1.7358251 -1.0130261 1.1834776 -0.09108038 1.1224545 0.85201365 -1.9122382 0.5306704 -0.51227075 1.0672855 -0.84274745 -1.7599295 -0.6256569 -3.1458948 -0.82343954 0.051465534
cofilin 1.5428653 2.0210311 0.18878089 1.9512129 1.9278891 -1.1302637 1.29715 -0.091271296 1.2509121 0.93564653 -2.0796165 0.5669623 -0.57967997 1.1321205 -0.9368107 -1.9347879 -0.7009521 -3.4427075 -0.93331784 0.08596588
as 1.632831 2.1603312 0.19065215 2.065798 2.0199215 -1.1665686 1.3718873 -0.10518202 1.2958603 1.0398456 -2.215217 0.5990844 -0.59395474 1.2318456 -0.98964906 -2.0689528 -0.75765705 -3.6837153 -0.9693251 0.10076226
heavy 0.8582083 1.1116824 0.05995031 1.0357865 0.97177917 -0.55627406 0.6835903 -0.051964574 0.7450322 0.43503064 -1.0251346 0.23387979 -0.21462126 0.63432205 -0.50882107 -1.0442756 -0.28617162 -1.7365452 -0.5563006 -0.015506459
not 1.1726162 1.557721 0.15592085 1.4830781 1.4394759 -0.8305692 0.9987399 -0.11729269 0.9409266 0.7186329 -1.5896527 0.42979902 -0.4414958 0.86386067 -0.70733535 -1.4647064 -0.51710284 -2.632961 -0.69066894 0.029109318
or 1.6208714 2.1638732 0.20709558 2.098719 2.0071418 -1.1503131 1.3541087 -0.107602805 1.3032609 0.98811966 -2.1877894 0.6003388 -0.5959657 1.2205067 -0.9795065 -2.008252 -0.7521957 -3.6380556 -0.9893747 0.06971235
on 2.0408552 2.6945777 0.23471515 2.6107 2.504675 -1.4722563 1.7277949 -0.12875772 1.6249285 1.2343317 -2.7616377 0.75334096 -0.7570839 1.5121865 -1.2345874 -2.5693586 -0.90751636 -4.535237 -1.2243769 0.12379548
an 2.119586 2.8067608 0.25321898 2.6862304 2.5978823 -1.5040376 1.7877623 -0.1652832 1.6824541 1.2988185 -2.869398 0.7667163 -0.81674135 1.5946541 -1.2319537 -2.6352227 -0.9456676 -4.71251 -1.2564902 0.0762084
which 1.0914491 1.4492176 0.1408824 1.3834413 1.3536516 -0.78752273 0.90078187 -0.087198086 0.8770583 0.6603194 -1.4832169 0.39104137 -0.40416548 0.80491745 -0.653999 -1.3592867 -0.5008149 -2.408513 -0.6499245 0.032484546
from 1.1973243 1.5970554 0.15179978 1.5328636 1.4832909 -0.8641895 1.0178285 -0.09202519 0.9529223 0.74508536 -1.6508199 0.43340158 -0.4521846 0.887494 -0.7124728 -1.5076072 -0.54643816 -2.6697032 -0.7141459 0.045929197
cell 1.6412144 2.1825895 0.2130294 2.070333 2.0438306 -1.1816242 1.3825692 -0.10193968 1.2950675 1.0232409 -2.2285695 0.6209078 -0.6031123 1.2102879 -0.99312264 -2.0596237 -0.7551456 -3.670036 -0.97511464 0.07468863
expression 1.3737018 1.8339596 0.16966374 1.7653875 1.7342488 -1.0006114 1.1841345 -0.10216843 1.103126 0.81329006 -1.868353 0.516943 -0.5185448 1.0264009 -0.8377312 -1.7273046 -0.62583715 -3.1027439 -0.8401331 0.060924638
In 0.44863078 0.57545424 0.06473152 0.55612576 0.56062055 -0.2939853 0.37120092 -0.010862652 0.35256818 0.2453441 -0.5975867 0.15218684 -0.15632328 0.34421736 -0.23918396 -0.56661755 -0.1922485 -0.98401195 -0.22897188 0.03099354
we 1.0100474 1.3135217 0.17577915 1.2779793 1.2571421 -0.7293283 0.8156512 -0.051189695 0.8093815 0.62753016 -1.3442522 0.3786259 -0.37295008 0.7726197 -0.61551005 -1.2739233 -0.47247636 -2.2527394 -0.5876187 0.04374913
actin-binding 1.2371985 1.6458211 0.15081519 1.5981809 1.5508875 -0.92605597 1.0783991 -0.09737262 0.9902301 0.76521075 -1.7089962 0.45978984 -0.4774868 0.8907565 -0.7486153 -1.5691788 -0.5762361 -2.7923944 -0.7382308 0.08281825
but 0.9235567 1.1901534 0.11289314 1.1548322 1.1137623 -0.6447858 0.77356476 -0.072507516 0.70911556 0.5563611 -1.242835 0.339152 -0.3575976 0.66112584 -0.5541963 -1.1511955 -0.427825 -2.0307248 -0.5257044 0.03107168
at 1.1661648 1.5386288 0.17152885 1.4786 1.4434738 -0.8436034 0.9584032 -0.09181687 0.95113623 0.70674 -1.6024351 0.44015408 -0.4250064 0.8501967 -0.68995905 -1.4541475 -0.535252 -2.5962265 -0.7040312 0.035308816
complex 1.2023783 1.6040883 0.14655183 1.5371926 1.5032798 -0.87114424 1.0273226 -0.09811901 0.95912164 0.7414257 -1.6344749 0.4469398 -0.45395765 0.8880924 -0.721957 -1.5264626 -0.56424093 -2.704733 -0.7134122 0.052320503
E-cadherin 0.968122 1.2940176 0.12337458 1.2439901 1.2504458 -0.7243764 0.84666085 -0.118941195 0.74809754 0.55519354 -1.3236833 0.37600926 -0.3919527 0.7521348 -0.6099028 -1.2233936 -0.474612 -2.2737138 -0.608566 0.021196892
have 0.95474666 1.2839423 0.14009334 1.2411144 1.2130708 -0.68415636 0.818606 -0.0687044 0.77029556 0.6150722 -1.3438414 0.36513945 -0.35741916 0.7196794 -0.5685522 -1.2294555 -0.45192787 -2.1984382 -0.57742983 0.050367
these 1.5055923 1.9834228 0.19035512 1.9278818 1.8696738 -1.0862422 1.2555856 -0.096286036 1.196857 0.9399354 -2.065022 0.56544405 -0.5711743 1.1292597 -0.9095881 -1.8904705 -0.7090203 -3.3829236 -0.8933232 0.06654739
: 0.90485615 1.1958997 0.1534168 1.1645477 1.1199234 -0.6691847 0.7730962 -0.06932423 0.75426584 0.58385175 -1.2519917 0.33149523 -0.3231309 0.6794969 -0.5626427 -1.1181431 -0.40857357 -2.0508695 -0.573241 0.07323484
talin 1.4691185 1.9631687 0.15853095 1.8778503 1.8706071 -1.090499 1.2750057 -0.11123671 1.209117 0.8985169 -2.002551 0.53061295 -0.55802506 1.1021495 -0.91809094 -1.8699127 -0.6784756 -3.3266718 -0.89659524 0.073861085
genes 1.584449 2.0814853 0.17922887 2.017492 1.941155 -1.1498673 1.3502553 -0.10649261 1.2489877 0.95321155 -2.1425414 0.56877005 -0.61303645 1.1848382 -0.9452445 -1.9971582 -0.69436145 -3.5178115 -0.93648344 0.06087287
muscle 0.94395053 1.2515415 0.09848931 1.1995384 1.1663766 -0.660097 0.7940982 -0.056573164 0.7727544 0.5516383 -1.2364221 0.29994553 -0.3209402 0.70683897 -0.5724638 -1.1672951 -0.38253176 -2.0452223 -0.5777164 0.0328056
be 1.2006855 1.5635407 0.1720182 1.5212924 1.4702944 -0.8291652 0.9720715 -0.08866478 0.9425984 0.712342 -1.6226847 0.46372274 -0.4396281 0.926692 -0.69314873 -1.4815876 -0.5291322 -2.6699562 -0.6775369 0.06465134
two 0.7372898 0.9750663 0.100430526 0.9407306 0.90133 -0.5182428 0.62497413 -0.057535835 0.58989525 0.45540026 -1.011414 0.2859397 -0.26673 0.52606744 -0.4292808 -0.914058 -0.35118538 -1.6154579 -0.4245369 0.04637732
kinase 1.1297433 1.5369577 0.1389927 1.4583457 1.4071472 -0.818342 0.98377115 -0.076612614 0.91651654 0.70970607 -1.5585004 0.42753512 -0.42195722 0.85162586 -0.7096903 -1.4338074 -0.5186222 -2.5473099 -0.702324 0.031770386
; 0.86661595 1.117826 0.11725074 1.1185815 1.0661308 -0.62016577 0.7506122 -0.0836163 0.71966445 0.51508427 -1.2277932 0.30225644 -0.3331314 0.64570457 -0.5090326 -1.1108431 -0.35636434 -1.9461285 -0.48342776 0.056021698
filaments 1.1547457 1.5158608 0.13661623 1.4716706 1.4322553 -0.8414427 0.97451824 -0.0803727 0.93061 0.71072936 -1.5525627 0.41339347 -0.4160969 0.84057015 -0.69610053 -1.4324853 -0.5252499 -2.5576138 -0.6809682 0.06123497
between 0.80177075 1.055486 0.090009265 1.0108883 0.9943486 -0.5725085 0.67880803 -0.058156937 0.63184637 0.4837621 -1.0943089 0.29779986 -0.3064852 0.5973626 -0.48866376 -1.0142086 -0.36270759 -1.7831451 -0.4830991 0.03255267
this 1.291184 1.6892803 0.1838419 1.6463262 1.6030294 -0.9206764 1.0790933 -0.07371258 1.0078481 0.7956901 -1.7408357 0.45672175 -0.49028188 0.9396896 -0.77290493 -1.6272626 -0.5778995 -2.8810143 -0.74284846 0.070669755
also 0.795151 1.0545224 0.10581812 1.0012988 0.9689915 -0.56031674 0.65997654 -0.046873752 0.6276777 0.49786672 -1.0696529 0.28432038 -0.30137017 0.57810676 -0.4840554 -0.98239475 -0.36838865 -1.7662641 -0.45915982 0.052794036
yeast 0.79653335 1.0694013 0.096412204 1.0376601 0.99827564 -0.56820357 0.687097 -0.052945506 0.64525634 0.5064124 -1.0946712 0.30259335 -0.28584358 0.57859 -0.47353113 -1.0110012 -0.3752196 -1.7933824 -0.4764792 0.04127689
histone 0.980142 1.2969387 0.13541435 1.2589437 1.2501792 -0.69849443 0.8547583 -0.04438118 0.7725876 0.60921896 -1.3711262 0.36986274 -0.38770106 0.76146704 -0.6137174 -1.2417618 -0.45963338 -2.227182 -0.577441 0.04906045
can 1.2353086 1.6416467 0.17673554 1.5957305 1.5192906 -0.89144766 1.0385714 -0.08450607 0.99866235 0.76936466 -1.6767111 0.4625425 -0.47540787 0.90727746 -0.7384634 -1.5648831 -0.5795458 -2.7888181 -0.7466834 0.05249706
polymerization 1.154652 1.5179013 0.14333387 1.4768986 1.4434832 -0.84562 0.98363376 -0.0775822 0.9156251 0.6969661 -1.5721998 0.42540914 -0.43086556 0.8428219 -0.69499934 -1.4478159 -0.5173489 -2.57597 -0.6841502 0.07880999
both 0.9436388 1.2351536 0.123034306 1.1815404 1.1620177 -0.66715294 0.7824959 -0.058054306 0.7353344 0.5542807 -1.2769269 0.3359716 -0.35413048 0.7074098 -0.56722325 -1.1615694 -0.4204667 -2.0947692 -0.5432917 0.043276437
gene 1.3737528 1.7997211 0.15818073 1.7361379 1.6828469 -1.0046165 1.1768278 -0.09578978 1.0779027 0.8214222 -1.8553964 0.50560594 -0.52511245 1.0319566 -0.8161506 -1.7381283 -0.60730565 -3.0374289 -0.81678253 0.042181727
% 0.7149271 0.9782629 0.10410887 0.919679 0.903824 -0.47163987 0.62776065 -0.03617108 0.5797634 0.42384294 -1.0002295 0.27147076 -0.28651008 0.49121 -0.4364857 -0.8865578 -0.31376228 -1.6427476 -0.43533826 0.046978503
We 0.43821806 0.61670774 0.057125732 0.5293949 0.5390167 -0.32360652 0.3603259 -0.003926608 0.35480273 0.2641564 -0.6019099 0.16033584 -0.15382767 0.33334184 -0.27228263 -0.5453967 -0.19577436 -0.9759457 -0.24611822 0.00347654
1 0.59744245 0.7945663 0.06286724 0.81006503 0.73909795 -0.47090515 0.52331823 -0.030451974 0.47891888 0.37979564 -0.8012227 0.1865463 -0.20507325 0.45062858 -0.3601727 -0.7397548 -0.26147246 -1.3571781 -0.34875858 0.05610967
domain 1.2689586 1.6653739 0.14901358 1.6241401 1.5744957 -0.89717764 1.0753734 -0.09547629 1.0229404 0.74821895 -1.6973976 0.46246654 -0.46788833 0.9504079 -0.7650256 -1.57125 -0.5691658 -2.8242702 -0.7713711 0.045837626
DNA 0.7894437 1.0225775 0.09454739 0.99475306 0.94813156 -0.5500811 0.65300906 -0.0621715 0.63515025 0.50086325 -1.067448 0.28316575 -0.28406042 0.58239335 -0.46305925 -0.9765681 -0.33309722 -1.7294674 -0.47998375 0.04233079
its 1.0189911 1.3404623 0.12959354 1.3005589 1.2535087 -0.72291523 0.8682305 -0.08913179 0.7832175 0.63752425 -1.3838156 0.3621123 -0.39654943 0.7377085 -0.6058107 -1.2644593 -0.44763657 -2.2542303 -0.59267455 0.034100946
human 0.776785 1.0332774 0.0904018 0.9830133 0.9516408 -0.5623128 0.6431933 -0.060858443 0.6108479 0.46914715 -1.044392 0.28525004 -0.27721637 0.5752488 -0.45122594 -0.9759626 -0.35061267 -1.7471865 -0.46013877 0.04129106
RAD51 0.79274356 1.0904883 0.1033146 1.0130192 0.97249717 -0.5619848 0.6732226 -0.07555802 0.6140801 0.49379152 -1.0841966 0.30062246 -0.31643614 0.5814396 -0.47545642 -1.0204638 -0.35430065 -1.7936062 -0.5029847 0.040438913
results 1.0597752 1.3988135 0.1387753 1.3507084 1.2934716 -0.7689573 0.8970346 -0.066032045 0.8402263 0.6486719 -1.425251 0.39720544 -0.4019804 0.7925459 -0.6404136 -1.3382308 -0.48799682 -2.3719127 -0.6148008 0.044679973
activity 1.167394 1.5504919 0.13672508 1.4914458 1.4558549 -0.84894997 0.99341124 -0.081690356 0.9402222 0.7134288 -1.5874032 0.42768705 -0.42665562 0.8552747 -0.70621324 -1.4814868 -0.53765893 -2.616608 -0.69386566 0.07113697
cytoskeleton 0.7691242 1.0131439 0.08815391 0.98047036 0.95732784 -0.55520344 0.64738125 -0.05280153 0.609894 0.46942228 -1.0377936 0.28062907 -0.2834809 0.5707109 -0.4625352 -0.9561615 -0.33124164 -1.6946135 -0.45497638 0.036032114
These 0.9406568 1.2275466 0.11977001 1.1941975 1.1722068 -0.6804405 0.7884284 -0.031032277 0.74849135 0.599129 -1.2624649 0.35586083 -0.3515503 0.7008489 -0.57099414 -1.1799462 -0.43590248 -2.0933073 -0.5476414 0.040933095
interaction 1.5908667 2.1023471 0.19267146 2.0263317 1.9767758 -1.155236 1.3560793 -0.11122763 1.274605 0.9629413 -2.161421 0.5874356 -0.5952157 1.1525004 -0.9596898 -1.9871247 -0.7170441 -3.559632 -0.9519617 0.09274367
assembly 0.8236341 1.0857089 0.10132825 1.0456312 1.0304939 -0.60252976 0.69339067 -0.05362506 0.65246636 0.5022983 -1.1093633 0.30227122 -0.3061212 0.6211612 -0.48224118 -1.035728 -0.36751607 -1.8406352 -0.49138647 0.049913175
has 0.9324419 1.2480808 0.12936886 1.1969842 1.152804 -0.6714087 0.77315325 -0.06070679 0.7303501 0.56727314 -1.2650882 0.33837888 -0.35011697 0.6903285 -0.55682474 -1.1710244 -0.44004908 -2.0733895 -0.5421632 0.036777165
plakoglobin 0.5692902 0.7549988 0.060379066 0.7266453 0.72128135 -0.42052025 0.48319846 -0.05776267 0.43187025 0.32331508 -0.7799728 0.21196601 -0.22513379 0.44079214 -0.35592577 -0.70066875 -0.26508495 -1.3030987 -0.34430075 0.016387364
cyclin 1.2526824 1.6674443 0.15077937 1.5979961 1.5789379 -0.88725954 1.0728357 -0.07993924 1.0064402 0.7483968 -1.6946732 0.4623254 -0.4829128 0.95269 -0.77075076 -1.5699009 -0.56886274 -2.8067384 -0.77314323 0.044067986
region 1.4021196 1.8623279 0.17799744 1.799619 1.7526233 -1.0215416 1.2003251 -0.1001173 1.1213993 0.8632616 -1.8963984 0.5251997 -0.525335 1.0367638 -0.8511703 -1.7694306 -0.6300268 -3.1449683 -0.8442478 0.07814867
fimbrin 0.8671276 1.1519126 0.10078015 1.120464 1.0887588 -0.64269596 0.7461155 -0.06823482 0.7040786 0.5065287 -1.1776718 0.31801602 -0.3241424 0.6524807 -0.53953683 -1.0989306 -0.39405805 -1.9482803 -0.52779347 0.018356692
been 0.8385038 1.1177806 0.13349037 1.0635139 1.0407237 -0.60829127 0.713896 -0.07492731 0.6539683 0.51644605 -1.1410013 0.3093181 -0.3151011 0.63528854 -0.48753023 -1.0764103 -0.3741515 -1.8889213 -0.50302595 0.03386736
other 1.1681389 1.5447549 0.15256111 1.5026691 1.4395347 -0.8461027 0.9789433 -0.08345303 0.9373333 0.722677 -1.6057287 0.43510303 -0.45409295 0.8789739 -0.7103673 -1.4693177 -0.53743565 -2.635769 -0.71055436 0.057314914
RAD52 0.70463777 0.98152936 0.104440816 0.9194578 0.8682272 -0.52291197 0.62580085 -0.06635289 0.5670937 0.44314662 -0.9876671 0.28810441 -0.29593807 0.526601 -0.43487045 -0.91545415 -0.31057623 -1.6182765 -0.45084953 0.031798325
found 0.863063 1.1312389 0.11415594 1.096334 1.0728813 -0.610935 0.7158946 -0.06578756 0.6835421 0.5220143 -1.1696584 0.30366388 -0.31847933 0.64740366 -0.5134793 -1.0849712 -0.4014918 -1.9143251 -0.511801 0.034543034
factor 0.9168948 1.2121273 0.10448899 1.1803141 1.122002 -0.655389 0.7685749 -0.05458487 0.7232411 0.54455644 -1.2469383 0.34070492 -0.3366382 0.6694613 -0.5655603 -1.1376485 -0.4149634 -2.033825 -0.54144806 0.0398664
binds 0.7928589 1.054949 0.10121058 1.0093354 0.97898537 -0.5850699 0.68838334 -0.07489894 0.6280545 0.487404 -1.0808421 0.2914655 -0.3074967 0.5755924 -0.48137924 -1.0016252 -0.3743188 -1.7846527 -0.46056092 0.047510616
virus 0.78822327 1.068631 0.09225632 1.0486152 0.9921344 -0.57130927 0.6815962 -0.05515427 0.63714576 0.49088827 -1.101271 0.29593712 -0.29911318 0.5940645 -0.47049522 -1.0195048 -0.37064952 -1.815903 -0.4835449 0.040123884
vinculin 0.92055434 1.2173907 0.1040546 1.1661341 1.1469046 -0.67158264 0.7787301 -0.07161303 0.7379727 0.5397046 -1.2481822 0.33940378 -0.35466516 0.6856464 -0.55793655 -1.1448485 -0.4153852 -2.0625522 -0.56693786 0.033538923
inhibitor 0.936212 1.2464207 0.115581654 1.1991571 1.1620493 -0.66476375 0.78566086 -0.06446335 0.74941945 0.5717106 -1.2740945 0.35566404 -0.3572029 0.6974621 -0.57165045 -1.1646167 -0.43030944 -2.085867 -0.574786 0.042129572
using 1.6050769 2.1268723 0.2049741 2.0563323 2.010529 -1.1720982 1.365642 -0.11942436 1.2752019 1.001026 -2.2075737 0.6126885 -0.58628243 1.1955483 -0.9722922 -2.0343053 -0.7401274 -3.6023443 -0.96276504 0.07556108
P 0.2895568 0.39899367 0.045722537 0.36346853 0.35511497 -0.2048763 0.26139167 -0.018488474 0.23799989 0.16798368 -0.3479724 0.06917538 -0.11822344 0.2157772 -0.136074 -0.36043173 -0.11918418 -0.5935617 -0.16736211 0.028514177
may 0.6783486 0.873061 0.094583325 0.8340941 0.82685274 -0.49743125 0.54646283 -0.02711617 0.54830384 0.39955622 -0.90799373 0.25256076 -0.24317278 0.5097681 -0.41635427 -0.85174423 -0.31772 -1.5104584 -0.39708874 0.023769854
A 0.2713685 0.33691505 0.05045123 0.3492439 0.32075575 -0.17681244 0.23101246 0.011196516 0.17974108 0.14159678 -0.37792245 0.05001766 -0.10655552 0.21492696 -0.16432767 -0.34638324 -0.12344513 -0.5549133 -0.13939074 0.034661256
membrane 0.7269204 0.96566164 0.10535153 0.9329147 0.9052773 -0.5299892 0.61561805 -0.045115616 0.57859623 0.44140288 -0.99095696 0.26490772 -0.27167132 0.54004955 -0.43170625 -0.91918594 -0.34120315 -1.6404012 -0.43156716 0.038715266
bind 1.0426612 1.3759857 0.1273576 1.336362 1.3028551 -0.7649146 0.9024693 -0.090982154 0.834341 0.6325147 -1.4289857 0.37980798 -0.39967996 0.76776975 -0.6302179 -1.3085836 -0.49161503 -2.354216 -0.6246614 0.062147938
it 0.566027 0.7422076 0.058611445 0.69826806 0.67754483 -0.40415072 0.47751546 -0.032263704 0.44071078 0.33154273 -0.773882 0.20115206 -0.20839338 0.40683007 -0.3288278 -0.6691405 -0.24473481 -1.2004694 -0.32457393 0.029191673
site 0.7895003 1.051588 0.10170217 1.0030661 0.99250126 -0.59759015 0.67611575 -0.070303775 0.6495386 0.49830619 -1.0861506 0.29254392 -0.29446504 0.605851 -0.48599157 -1.0140096 -0.3683955 -1.8054817 -0.47905922 0.031884506
I 0.2672969 0.38724026 0.029356768 0.3657147 0.3456352 -0.23877406 0.24991143 -0.023484524 0.26783416 0.17369674 -0.40151945 0.10433203 -0.10807147 0.24588308 -0.21235794 -0.38120562 -0.16444299 -0.67159903 -0.21420026 0.021619568
identified 1.1061516 1.4676148 0.14602903 1.4211775 1.3824147 -0.80787194 0.9470892 -0.069676 0.8951302 0.6861296 -1.525419 0.4106253 -0.41757378 0.8271887 -0.67042357 -1.422945 -0.5133642 -2.4998405 -0.66176885 0.06659345
growth 0.58872354 0.75462955 0.08857845 0.7303651 0.7229465 -0.400904 0.49453795 -0.03723468 0.466724 0.34430838 -0.78085124 0.20060295 -0.21882835 0.44496956 -0.35068122 -0.71965295 -0.25918472 -1.2843047 -0.3376213 0.0392239
than 1.3122034 1.7218364 0.15537521 1.6499035 1.6122088 -0.93911844 1.09664 -0.085697584 1.0439346 0.8090164 -1.773527 0.48417962 -0.48563603 0.9849091 -0.77158433 -1.6389731 -0.60292304 -2.9440522 -0.7656984 0.06632317
into 1.2682209 1.6792804 0.15282746 1.6121746 1.5521339 -0.89701253 1.0577755 -0.08324449 1.0068033 0.76865536 -1.7265773 0.46083233 -0.4617337 0.9491196 -0.75679916 -1.5879319 -0.57015204 -2.8300912 -0.744646 0.05452155
increased 1.2644383 1.6706935 0.1621501 1.6091751 1.5630797 -0.90080553 1.0629848 -0.08855662 1.0149404 0.7567132 -1.7184954 0.46937674 -0.46092695 0.936968 -0.7564057 -1.6064076 -0.5833983 -2.8312266 -0.75094676 0.05312398
sequence 0.90252197 1.184633 0.12033777 1.1549537 1.1126287 -0.6519052 0.7632886 -0.058568113 0.7101397 0.5494473 -1.2269412 0.34163898 -0.34313023 0.67839 -0.5324827 -1.1200553 -0.41916728 -2.0017867 -0.52094597 0.053177897
suggest 0.77697366 1.0288191 0.09862201 0.9992563 0.98672336 -0.564189 0.66941303 -0.04555864 0.6251723 0.48221767 -1.068444 0.30109763 -0.30202463 0.5847977 -0.45686874 -0.9884266 -0.37068424 -1.7684118 -0.4642334 0.031139491
their 1.0926763 1.4352766 0.14417048 1.3995055 1.369186 -0.77593094 0.91009605 -0.0843047 0.8668269 0.6778646 -1.5011764 0.41029683 -0.4152932 0.81184864 -0.6685892 -1.3625818 -0.5059825 -2.4437659 -0.64750737 0.04577267
filament 1.222338 1.6115493 0.14634766 1.5657084 1.5137568 -0.8897939 1.0332934 -0.08327597 0.99214715 0.74855226 -1.6506729 0.44465727 -0.44639343 0.88903767 -0.7350032 -1.518267 -0.55828947 -2.7163773 -0.723879 0.061964057
affinity 0.6825938 0.9006074 0.07836109 0.8784996 0.8508239 -0.4903305 0.5761969 -0.0446002 0.5440001 0.42886466 -0.9327335 0.24737126 -0.25615966 0.5169051 -0.4151924 -0.8672291 -0.3116693 -1.5288659 -0.39568478 0.035172634
Acanthamoeba 0.48164532 0.6415153 0.06277618 0.624083 0.5992512 -0.35466966 0.40592748 -0.030786697 0.38079625 0.29971188 -0.6544418 0.16789284 -0.17553183 0.34615064 -0.28428385 -0.6089386 -0.22007094 -1.0813662 -0.28614026 0.018453438
similar 0.7092522 0.9328747 0.09830009 0.9003048 0.8885955 -0.51485413 0.59505016 -0.05091193 0.5615861 0.43949014 -0.9599249 0.26102588 -0.2640102 0.5282369 -0.41970754 -0.89206773 -0.32905462 -1.5816028 -0.41598108 0.029547712
involved 1.0338616 1.3468329 0.13726777 1.3100011 1.2648829 -0.73882794 0.8582614 -0.06785287 0.8103001 0.6331351 -1.3899518 0.39196908 -0.37753433 0.75767064 -0.61555475 -1.2844005 -0.4663479 -2.29204 -0.60765165 0.05125337
role 0.7037987 0.9462152 0.0954077 0.90278566 0.8866846 -0.51772106 0.6093485 -0.05088793 0.5594211 0.44023678 -0.9620648 0.2580333 -0.26740587 0.5369044 -0.42961138 -0.8983926 -0.3214522 -1.5846721 -0.41370916 0.030558366
presence 1.0854872 1.4464221 0.15027577 1.4051356 1.3623215 -0.7910232 0.92277384 -0.06539432 0.8739001 0.6660632 -1.4851667 0.40545055 -0.4110163 0.80661136 -0.65399086 -1.3687239 -0.49756324 -2.444066 -0.6403617 0.052752562
UL8 0.39215845 0.53419185 0.041090228 0.51451266 0.49077195 -0.30538478 0.340123 -0.033857264 0.31223753 0.25852054 -0.5709659 0.15896675 -0.16711454 0.30003238 -0.22937353 -0.5010665 -0.19289686 -0.91182655 -0.23892425 0.012469226
phosphoprotein 0.9252968 1.2457216 0.09709001 1.2095306 1.1563247 -0.68318444 0.7969899 -0.063378416 0.7412318 0.5700168 -1.2870142 0.35074174 -0.35087627 0.68550473 -0.57095224 -1.1570494 -0.4111582 -2.1061165 -0.5790186 0.042173386
during 1.2209734 1.6247954 0.16145921 1.5720041 1.5253596 -0.8976823 1.0465834 -0.092228904 0.9787432 0.7407954 -1.6760402 0.47319788 -0.46693715 0.9051593 -0.7373096 -1.5530634 -0.5608801 -2.738966 -0.7330253 0.057662103
UL52 0.3722904 0.5367537 0.04779244 0.49546054 0.48378676 -0.29617086 0.34775028 -0.031167472 0.316556 0.24672794 -0.5478753 0.16097353 -0.17642935 0.27237466 -0.23540626 -0.48991346 -0.16882823 -0.879672 -0.21423827 0.017864266
repair 0.78176105 1.0223538 0.10279575 0.97247374 0.94722265 -0.5425192 0.64825904 -0.06492255 0.6081774 0.48112085 -1.0446825 0.29096675 -0.297104 0.56966555 -0.45667055 -0.9789242 -0.35135755 -1.7094741 -0.45539004 0.04258378
profilins 1.2938218 1.6995149 0.16288738 1.6562585 1.6172007 -0.9703628 1.10259 -0.069711134 1.0492632 0.7920961 -1.7533437 0.48030767 -0.48652956 0.9500005 -0.7768153 -1.639338 -0.5883409 -2.8996682 -0.7681586 0.08736987
vitro 0.4164801 0.5625261 0.058626767 0.5471698 0.518983 -0.30261162 0.3556859 -0.038218167 0.3423818 0.24258032 -0.58036935 0.16237745 -0.167412 0.30755126 -0.2580259 -0.5486338 -0.1959785 -0.9413384 -0.25401947 0.028703274
type 0.64066225 0.8418066 0.08429585 0.81069255 0.78626215 -0.4500074 0.5189793 -0.054649856 0.51209074 0.3860735 -0.84867626 0.22576031 -0.21968128 0.4900771 -0.37607014 -0.803043 -0.2742009 -1.414243 -0.39336205 0.045743346
antibodies 0.85953164 1.1331762 0.10581601 1.0784186 1.0532123 -0.6185784 0.7155822 -0.06110152 0.6891167 0.51616406 -1.1595219 0.30362886 -0.30889875 0.62977505 -0.5112046 -1.0654268 -0.38294056 -1.8995649 -0.49447522 0.0346335
beta 0.90797734 1.2064252 0.11098348 1.157242 1.1490145 -0.6577329 0.76548845 -0.08426804 0.72227913 0.5379526 -1.2579459 0.33232698 -0.34026504 0.70625687 -0.5674589 -1.1359286 -0.40389588 -2.0577295 -0.5433571 0.0177098
associated 1.2305502 1.6263459 0.15013084 1.546236 1.5335809 -0.88233024 1.0375621 -0.09016512 0.97274464 0.7565331 -1.6821066 0.4563334 -0.46991545 0.9169087 -0.7413035 -1.5547801 -0.5690571 -2.781034 -0.7242085 0.06186962
required 1.0396984 1.376695 0.12645064 1.3289773 1.2846106 -0.75463194 0.87376326 -0.07838832 0.82099086 0.6390367 -1.4202055 0.3892077 -0.3907924 0.77503896 -0.6191456 -1.3143529 -0.47323677 -2.320679 -0.61367536 0.047796767
UL5 0.44608474 0.60919076 0.06541275 0.56670815 0.5679429 -0.33462974 0.37976503 -0.018420968 0.34095827 0.28130457 -0.61260223 0.16565754 -0.1925747 0.3172676 -0.2644242 -0.5464975 -0.19535814 -0.9805569 -0.25896546 0.03769945
2 0.36863697 0.48678192 0.045832075 0.44579214 0.4417895 -0.22381833 0.28947127 -0.019127216 0.2966032 0.20208383 -0.47669506 0.12469701 -0.12926057 0.31373787 -0.24660003 -0.4698375 -0.14820062 -0.83079565 -0.22690892 0.016048107
function 1.5340296 2.0292459 0.19583064 1.9705834 1.9162756 -1.1205478 1.3098536 -0.110264495 1.234872 0.93236786 -2.0801415 0.5652011 -0.5839486 1.1213045 -0.93071353 -1.9382697 -0.70550996 -3.455268 -0.917953 0.09360504
effect 0.75126666 0.98055124 0.075166054 0.9516473 0.918407 -0.550823 0.62249106 -0.046624407 0.60604227 0.4508708 -0.9898812 0.275998 -0.28133243 0.55070144 -0.43958494 -0.9319743 -0.3349219 -1.65454 -0.44000348 0.039064754
microM 0.7640015 0.99442804 0.08526025 0.95573336 0.92216283 -0.53426987 0.6418341 -0.04152127 0.6043943 0.46395993 -1.0193192 0.28283712 -0.28030992 0.5543437 -0.45271653 -0.9393764 -0.33262953 -1.676639 -0.4465866 0.022916688
containing 1.3863459 1.8368835 0.1902942 1.7661827 1.7192159 -1.0000008 1.1681815 -0.11412542 1.1097491 0.8484696 -1.8891646 0.5154737 -0.51271665 1.0268892 -0.8296582 -1.7421293 -0.62655264 -3.1036935 -0.82270014 0.06112367
cyclin-dependent 0.90636116 1.2038007 0.11336253 1.1686535 1.1253079 -0.64033276 0.7690208 -0.057755854 0.71851516 0.55296576 -1.2357054 0.34045297 -0.3402863 0.6826489 -0.55855703 -1.1354876 -0.40716028 -2.031727 -0.5485046 0.036151994
shown 0.7202831 0.95635855 0.08570192 0.89814687 0.8907303 -0.50308514 0.59130806 -0.05785314 0.5673398 0.4423879 -0.97561073 0.26379266 -0.26046968 0.5370225 -0.42915562 -0.90666026 -0.32974276 -1.5965301 -0.42908588 0.036815584
sites 1.063475 1.4088576 0.1331762 1.3543295 1.3267852 -0.75625354 0.9098467 -0.08214381 0.8509616 0.6497765 -1.4490207 0.3694895 -0.3905714 0.7916816 -0.65222037 -1.3441576 -0.49717024 -2.3965287 -0.63565373 0.046351794
complexes 1.0832042 1.4383698 0.13681582 1.3856052 1.340631 -0.7801107 0.9154841 -0.08947412 0.8609505 0.66509014 -1.467031 0.40073064 -0.41089308 0.79628843 -0.6525449 -1.3647369 -0.50173694 -2.4273002 -0.64322764 0.05025484
synthesis 0.76082903 1.0093783 0.09382254 0.96721727 0.9383351 -0.5449248 0.6428304 -0.04924443 0.6034613 0.4554297 -1.0275031 0.268419 -0.28953052 0.56099117 -0.45334926 -0.95216423 -0.34903777 -1.6875423 -0.45913988 0.02867571
adhesion 1.0643145 1.4240334 0.13936448 1.3723584 1.3560616 -0.7759451 0.93022305 -0.077071324 0.84155273 0.6405143 -1.4607728 0.40467536 -0.40695012 0.7986795 -0.6502346 -1.3579041 -0.49267787 -2.4363241 -0.6372906 0.06000549
whereas 0.8946296 1.1819898 0.12107052 1.1397524 1.1093874 -0.64274365 0.75374454 -0.07550104 0.7299056 0.5475609 -1.2228645 0.3311185 -0.3370447 0.6806303 -0.5367387 -1.1334333 -0.40778795 -2.015123 -0.5251833 0.04341383
three 0.7463841 0.9635353 0.08885264 0.94683963 0.9257962 -0.52735764 0.6266391 -0.044555504 0.5903614 0.44379908 -1.0013809 0.27649337 -0.28402144 0.55603534 -0.43740046 -0.93321 -0.32664344 -1.6650989 -0.44698292 0.028454991
molecules 0.87553954 1.1616356 0.11396249 1.1113094 1.0890348 -0.62324077 0.7394813 -0.061182126 0.6842485 0.52336794 -1.1957381 0.30813202 -0.34584042 0.6520035 -0.51663995 -1.0932528 -0.40202084 -1.961148 -0.5256694 0.032893926
skeletal 0.84773666 1.1383978 0.09758057 1.099122 1.0639839 -0.61328816 0.71654373 -0.064145446 0.69020945 0.51285076 -1.1511707 0.31307915 -0.31481537 0.63638866 -0.5159173 -1.0702252 -0.37013122 -1.886113 -0.50148135 0.03559259
effects 0.84027207 1.093303 0.090649575 1.0625713 1.0258533 -0.61069703 0.70033914 -0.055865563 0.6731979 0.513401 -1.1179445 0.31271502 -0.31125847 0.6126065 -0.49321014 -1.0462124 -0.37662196 -1.8576286 -0.48905498 0.037425827
isoforms 0.52400213 0.6853438 0.0574116 0.6486996 0.6367012 -0.3631003 0.44738176 -0.030833485 0.42639163 0.30910814 -0.692664 0.17125693 -0.18244295 0.4001535 -0.30918765 -0.6370808 -0.22392623 -1.1290399 -0.31972912 0.020875225
show 0.7823114 1.0522958 0.10912215 0.99691206 0.96855927 -0.56531465 0.6367929 -0.05631021 0.64062345 0.48901975 -1.0608348 0.2956963 -0.2961509 0.59571636 -0.45537093 -1.0050025 -0.3696433 -1.7640227 -0.47589687 0.036766544
high 0.53987765 0.70231426 0.064840645 0.6834001 0.67658496 -0.38242266 0.44828826 -0.04650564 0.43990967 0.33569175 -0.7340565 0.18358165 -0.19665168 0.41136873 -0.31915635 -0.66722697 -0.24821562 -1.2080117 -0.33646053 0.041033655
form 0.924799 1.2337338 0.116637774 1.1681237 1.1301833 -0.6739004 0.7925909 -0.064739496 0.7446282 0.55985564 -1.2538747 0.32269943 -0.34254536 0.7062916 -0.5673043 -1.1748818 -0.41504967 -2.069317 -0.5514675 0.0297345
formation 1.5930163 2.1110473 0.20388606 2.0432966 1.978669 -1.1705256 1.3547527 -0.11516802 1.2611772 0.96175575 -2.1681108 0.5797371 -0.5923921 1.1705694 -0.9602568 -1.9977832 -0.71651226 -3.5713813 -0.94176966 0.08821948
nucleocapsid 0.48779705 0.66478825 0.059836194 0.64377177 0.60881263 -0.35694352 0.42416716 -0.037179817 0.39746618 0.30900946 -0.6803338 0.19171493 -0.1812595 0.3709379 -0.30707377 -0.6254119 -0.22061823 -1.1267 -0.29174238 0.0116700055
domains 0.9170999 1.2072947 0.108737975 1.1746266 1.1423391 -0.65314656 0.7673476 -0.06471871 0.73676634 0.55199903 -1.2311902 0.3292388 -0.3484941 0.68365365 -0.5505855 -1.1421516 -0.42001066 -2.0481117 -0.53740907 0.042311803
functions 1.2979232 1.7230122 0.16890731 1.6710107 1.6253237 -0.95089954 1.1151898 -0.09048132 1.0484713 0.7946056 -1.7718794 0.48102003 -0.5035463 0.9600627 -0.7957252 -1.6521956 -0.59805524 -2.939297 -0.7792905 0.07817366
nucleotide 0.7259687 0.9752666 0.0936982 0.94471383 0.92200947 -0.5195781 0.6258406 -0.054436997 0.5862738 0.45073068 -0.9957197 0.28011882 -0.274032 0.5496916 -0.44934934 -0.9248736 -0.32548863 -1.6491455 -0.43002295 0.030485371
H4 0.22557141 0.31184447 0.028744727 0.2962945 0.2748319 -0.15298304 0.19408423 -0.0022432231 0.16265422 0.12855022 -0.34322405 0.07452441 -0.09325116 0.21815002 -0.13642569 -0.3071927 -0.089012414 -0.5456906 -0.13835907 0.014463528
mutant 1.0123024 1.3178294 0.12501104 1.292935 1.2265011 -0.71912056 0.83813876 -0.069092214 0.8046705 0.59680635 -1.3510981 0.36394256 -0.36837342 0.733818 -0.5967389 -1.2538568 -0.4584682 -2.2317607 -0.58718646 0.04906287
such 0.5713914 0.77600455 0.085978724 0.7408874 0.7276959 -0.4259918 0.49787018 -0.025958776 0.47598723 0.3726488 -0.8062698 0.2276671 -0.20523024 0.4335367 -0.35327837 -0.7422525 -0.27268618 -1.305992 -0.33950812 0.043625552
vivo 0.34416923 0.46228838 0.032685712 0.45803002 0.4449107 -0.26884252 0.31196502 -0.026132178 0.28608766 0.20604987 -0.48460522 0.13012128 -0.1493956 0.2548074 -0.20144454 -0.44676456 -0.1573537 -0.81242883 -0.22660652 0.01405628
study 0.47523436 0.6203114 0.050069172 0.598921 0.5972246 -0.3306008 0.39451787 -0.018658537 0.39107 0.28820863 -0.6388601 0.1752416 -0.18416959 0.3568221 -0.29203606 -0.61131537 -0.2203633 -1.0656377 -0.27110663 0.021639591
different 1.013777 1.3515908 0.12874754 1.31352 1.2648667 -0.7331776 0.8549006 -0.0763363 0.8083541 0.6318959 -1.3930686 0.3865725 -0.38145176 0.7575918 -0.6155354 -1.2934483 -0.45831656 -2.2855465 -0.6082859 0.05503008
receptor 0.99386823 1.3175485 0.124766394 1.2698632 1.2249581 -0.7130582 0.8352039 -0.07732851 0.7770398 0.6084636 -1.3512002 0.37148413 -0.36888757 0.7389378 -0.5903559 -1.244026 -0.43948594 -2.2154498 -0.5824683 0.04633696
cytoskeletal 0.8401426 1.1060183 0.098690644 1.07712 1.0443547 -0.6051557 0.7007442 -0.06173039 0.67282254 0.5126385 -1.133575 0.30588308 -0.30986187 0.620196 -0.5028252 -1.0473416 -0.36485046 -1.8495142 -0.49897578 0.033468347
expressed 1.3206303 1.76353 0.16358556 1.6845474 1.659186 -0.95583755 1.1167384 -0.0984475 1.0583152 0.8006978 -1.7958131 0.50319105 -0.4929651 0.98803765 -0.7932244 -1.6666563 -0.6053261 -2.9720957 -0.7993379 0.05192329
showed 1.0882174 1.4521209 0.14613666 1.3996173 1.3719492 -0.790405 0.89812106 -0.082881674 0.8761623 0.68009746 -1.4865324 0.41059816 -0.41304302 0.81838065 -0.65266746 -1.3915769 -0.51250035 -2.4597275 -0.6488208 0.0508665
interactions 1.4135705 1.8726785 0.17375813 1.8047198 1.7614343 -1.0275506 1.208309 -0.09749833 1.1358912 0.8587674 -1.9273838 0.5245052 -0.5333614 1.0312939 -0.85883355 -1.7739097 -0.6400032 -3.1741204 -0.84953004 0.07956647
3 0.2984044 0.34750527 0.025182337 0.39577743 0.3731563 -0.17891133 0.21706405 -0.04160445 0.25380293 0.15054858 -0.41290393 0.09020732 -0.13562545 0.21992433 -0.20167586 -0.34295568 -0.12958276 -0.6070241 -0.16821903 0.032831375
[ 0.3741358 0.50189793 0.045110956 0.45454445 0.42565495 -0.26719475 0.31329513 -0.049262024 0.31550616 0.25386107 -0.53924847 0.12904269 -0.14650269 0.27507684 -0.18686569 -0.44214976 -0.16635877 -0.8477243 -0.19728991 0.049028914
] 0.38867834 0.4834971 0.048247963 0.4819842 0.47552198 -0.25696447 0.3475008 -0.053914733 0.31626844 0.20345384 -0.47542188 0.1519064 -0.14222986 0.2891537 -0.21814038 -0.46375424 -0.18647124 -0.8349194 -0.25780207 0.03006043
one 1.0549577 1.3859708 0.14326844 1.364891 1.3271916 -0.7749919 0.8946158 -0.049753662 0.83860576 0.64623594 -1.4446285 0.37284592 -0.3893338 0.79957676 -0.652892 -1.3283285 -0.4803633 -2.359948 -0.628722 0.062830806
H3 0.2981747 0.3855601 0.044129744 0.38576886 0.37016472 -0.20445672 0.2686365 -0.036971662 0.24517977 0.20941597 -0.43089652 0.089859895 -0.13560861 0.22138244 -0.18417558 -0.37509674 -0.13781129 -0.6647656 -0.18704271 0.031690847
mutations 1.4218174 1.8779722 0.1861652 1.8231195 1.7805216 -1.0386778 1.2123182 -0.094534576 1.138215 0.86096185 -1.927799 0.52192247 -0.53550494 1.0486045 -0.8594688 -1.7860763 -0.64707136 -3.1876616 -0.85074145 0.08750985
only 0.6486618 0.85733914 0.06724718 0.8589394 0.82181305 -0.46338835 0.55212474 -0.029675681 0.52812666 0.4138706 -0.90403616 0.22982521 -0.25174665 0.4854246 -0.40199974 -0.83436906 -0.2993591 -1.455762 -0.40230128 0.02976744
activation 1.68145 2.2315066 0.20255992 2.1612332 2.1037648 -1.2444109 1.4330027 -0.1145169 1.3440541 1.0189177 -2.282427 0.6089487 -0.6314313 1.2350081 -1.0168571 -2.1125965 -0.7578745 -3.774665 -1.0067948 0.105797626
levels 0.5683602 0.751462 0.057056464 0.72987 0.7312192 -0.40140185 0.48424777 -0.038979013 0.46056226 0.34771726 -0.7810556 0.21961872 -0.2083654 0.42624334 -0.3484966 -0.72344106 -0.261122 -1.286507 -0.3435133 0.019263605
Here 0.79005396 1.0309666 0.08886859 1.0048696 0.96646804 -0.57271916 0.657981 -0.0553773 0.61855453 0.4841983 -1.0801309 0.30661276 -0.2836011 0.58884 -0.46666697 -0.9874689 -0.352661 -1.7701225 -0.4655976 0.029586924
N 0.1785367 0.16097224 -0.0030956317 0.21949461 0.2162925 -0.10585491 0.13363788 -0.01082206 0.08387908 0.0748322 -0.1888966 0.098286286 -0.09457506 0.09648775 -0.11166464 -0.20423803 -0.06662156 -0.35000488 -0.1132026 0.041355763
regulation 1.6426431 2.165513 0.20453323 2.1150253 2.0516312 -1.2012373 1.3876126 -0.12264452 1.3013384 0.9991504 -2.2150204 0.60558414 -0.62549365 1.2029868 -0.9840841 -2.0643888 -0.7407576 -3.6751792 -0.98189306 0.09889285
MSH2 0.45001972 0.612039 0.0754246 0.57740885 0.5671697 -0.32742575 0.3873115 -0.035723142 0.3636691 0.2873735 -0.6203284 0.18906789 -0.17620093 0.34515235 -0.2876957 -0.5897928 -0.19423723 -1.028677 -0.27485812 0.012677106
mutants 0.92121184 1.20763 0.10938264 1.1823517 1.1318543 -0.665424 0.77470547 -0.059148025 0.7312222 0.55826867 -1.2374165 0.32913548 -0.334925 0.6774219 -0.5496612 -1.1566036 -0.4203322 -2.047955 -0.54189116 0.04635049
ability 0.6623629 0.8504859 0.08066486 0.8272041 0.8050955 -0.4743821 0.54703885 -0.053325735 0.52399355 0.40136907 -0.8895446 0.2389011 -0.24132547 0.49082756 -0.38936678 -0.8246742 -0.3024445 -1.4461627 -0.37957174 0.033040162
isolated 1.4249314 1.8729159 0.16850652 1.7965734 1.7737381 -1.0102782 1.1938138 -0.10575215 1.1319851 0.86524093 -1.9300257 0.5166425 -0.5345797 1.0686045 -0.8557573 -1.7952446 -0.64820975 -3.1865256 -0.85789883 0.06815407
gelsolin 0.80405587 1.050453 0.09088555 1.0162214 1.0015473 -0.5802624 0.69596565 -0.056232434 0.65364736 0.4903318 -1.0919336 0.2986353 -0.29944217 0.6003686 -0.49437788 -1.0025529 -0.36554465 -1.8042114 -0.48793465 0.04661555
smooth 0.59913653 0.7739519 0.070232786 0.73382163 0.7254402 -0.4063283 0.48295328 -0.045728605 0.4746765 0.3312785 -0.77229613 0.19141807 -0.2176344 0.44855177 -0.35659206 -0.7223243 -0.25958088 -1.2906289 -0.34417602 0.01710325
exchange 0.54119086 0.71846086 0.06525171 0.69350123 0.6808886 -0.39812332 0.4557573 -0.046817575 0.43331388 0.3179742 -0.73106474 0.19978832 -0.20499423 0.41523945 -0.32301453 -0.68595034 -0.2402934 -1.2156901 -0.3214209 0.02494075
all 1.0850322 1.4457521 0.12578419 1.3829015 1.3739315 -0.77267295 0.93350744 -0.08121196 0.8634252 0.6632048 -1.4728214 0.40966624 -0.41808572 0.81718487 -0.67946845 -1.3742613 -0.5029718 -2.4508538 -0.6316476 0.04813138
known 0.3551532 0.45626232 0.0499581 0.43905643 0.42752677 -0.24845545 0.2981113 -0.026315087 0.27314153 0.20815697 -0.47703552 0.13320108 -0.11894985 0.25671872 -0.2123674 -0.43412435 -0.15784355 -0.76186997 -0.21408741 0.022416571
interact 1.0183932 1.3437277 0.12124214 1.2878848 1.255488 -0.729714 0.8668404 -0.07583155 0.8125294 0.61952335 -1.3879852 0.37594068 -0.372702 0.7362206 -0.6136442 -1.2676737 -0.4568106 -2.2729716 -0.6075736 0.04978749
lines 1.3184643 1.7524543 0.17188168 1.6782067 1.6293594 -0.9555574 1.104122 -0.089196496 1.0347451 0.80710274 -1.7729875 0.46534014 -0.50206417 0.9740394 -0.79167354 -1.6474761 -0.59135896 -2.9391773 -0.7815015 0.07973467
adenosine 0.79050016 1.0563158 0.098886035 1.0116922 0.9970024 -0.57033294 0.6767774 -0.048529003 0.6354067 0.47383195 -1.0745888 0.29084256 -0.2940106 0.5962351 -0.481038 -1.0080369 -0.35517505 -1.7733601 -0.48551458 0.033193015
TRADD 0.5175979 0.67650867 0.06654921 0.6673933 0.6284792 -0.36841646 0.42653218 -0.037329216 0.41437572 0.32821876 -0.7049273 0.18477847 -0.19830818 0.37245023 -0.34036392 -0.6456535 -0.23918481 -1.1560427 -0.30819973 0.035390463
4 0.15668635 0.244484 0.03980746 0.26012352 0.1793548 -0.13044982 0.14789952 0.016112246 0.105931744 0.10181911 -0.25174877 0.07980642 -0.064784095 0.11497281 -0.12796551 -0.22517577 -0.053637013 -0.39837524 -0.10969651 0.01234119
induced 1.2984704 1.7170775 0.16783914 1.6620005 1.6244392 -0.941019 1.1027321 -0.093471 1.0288435 0.7963418 -1.7778537 0.4905825 -0.49217045 0.96118075 -0.77641565 -1.6463323 -0.6050742 -2.9229298 -0.76771295 0.064364426
addition 1.163181 1.5406522 0.15374719 1.5131103 1.4548426 -0.8582249 0.99076736 -0.08331862 0.93222946 0.71881443 -1.5701857 0.43729022 -0.43993697 0.8591404 -0.7156097 -1.4728835 -0.5350406 -2.621654 -0.68974495 0.07737201
kDa 0.3699328 0.4744077 0.041153032 0.4891519 0.43870655 -0.2829388 0.32461643 -0.030868236 0.29519865 0.2043942 -0.49618763 0.13424022 -0.14560293 0.29542443 -0.23304513 -0.48248386 -0.1727483 -0.83849746 -0.22201613 0.01981209
To 0.19134524 0.26164937 0.015124255 0.22704655 0.22439368 -0.14259565 0.16195267 0.0070606717 0.1823751 0.12796399 -0.23939154 0.08452096 -0.10793495 0.14169973 -0.12242646 -0.22602332 -0.10605849 -0.42378893 -0.13155691 0.015302641
light 0.48539814 0.6331562 0.039478768 0.59929544 0.5802926 -0.35381523 0.38409504 -0.036423843 0.39270952 0.28067824 -0.63375705 0.16067386 -0.1568475 0.36155814 -0.29585332 -0.59292626 -0.19474334 -1.0551302 -0.315646 0.009129813
nuclear 0.76450795 1.0010015 0.10331454 0.9638377 0.94200784 -0.5359108 0.63848186 -0.0495222 0.5984819 0.4633648 -1.0236855 0.27988273 -0.27313337 0.55518574 -0.4598062 -0.9399495 -0.3409029 -1.6881027 -0.4467976 0.03138463
association 1.3375154 1.7686304 0.16523328 1.6995918 1.6747738 -0.9749829 1.1416018 -0.09333385 1.060322 0.81623966 -1.8210381 0.49228483 -0.50746214 0.97994566 -0.8067541 -1.6824906 -0.60775816 -3.0082438 -0.79228735 0.0843553
cerevisiae 0.50875014 0.6674195 0.06579147 0.64265454 0.6256197 -0.36310244 0.4369659 -0.028688686 0.3974987 0.30478448 -0.67550874 0.18629229 -0.18428639 0.3817469 -0.29986176 -0.6321777 -0.22804677 -1.1395268 -0.29676217 0.022879051
analysis 0.7455514 0.9802036 0.08267193 0.95029205 0.92085075 -0.53255665 0.61374557 -0.048268795 0.5850946 0.44500563 -1.0023263 0.2776401 -0.28085288 0.5439688 -0.44953755 -0.94331205 -0.34581444 -1.6653211 -0.44438913 0.036388822
II 0.3032142 0.40207714 0.010675598 0.39066002 0.36340374 -0.20299672 0.2568303 -0.027854528 0.23471926 0.15846848 -0.36885908 0.090158306 -0.12511793 0.1972444 -0.13907783 -0.3767742 -0.12193099 -0.6354699 -0.19003981 0.023934396
This 0.7001226 0.89671683 0.10121016 0.8762547 0.83968776 -0.4925844 0.5716528 -0.04573035 0.5310546 0.42278525 -0.9194986 0.25490183 -0.23541664 0.48867515 -0.40753853 -0.8750082 -0.30700308 -1.5006843 -0.40058124 0.03883502
gamma-catenin 0.844467 1.1210853 0.115381524 1.0639124 1.0981153 -0.63924706 0.74167424 -0.11250075 0.66073054 0.48925892 -1.1806166 0.33748072 -0.34961385 0.65994924 -0.53502125 -1.0614073 -0.40963534 -2.0079796 -0.5271952 0.0052849334
rate 1.3215045 1.7434807 0.15266222 1.6855191 1.6528878 -0.9610894 1.1087095 -0.09883264 1.0628356 0.8077343 -1.8128166 0.49853277 -0.48714522 0.9907463 -0.80901563 -1.6595005 -0.6017221 -2.9729743 -0.78867346 0.063280605
regulate 1.1389276 1.5077935 0.13665907 1.4729735 1.4317077 -0.83495027 0.9556924 -0.09066252 0.9093364 0.70274544 -1.5512418 0.42919365 -0.44297957 0.8551107 -0.68480545 -1.4494947 -0.5200326 -2.5681484 -0.6906751 0.056103043
monomers 0.6529916 0.86821705 0.085154705 0.84654427 0.81711084 -0.47930902 0.5675606 -0.039239045 0.52550083 0.40030444 -0.89186376 0.23696886 -0.24866983 0.48564982 -0.39929393 -0.8327291 -0.28970176 -1.4636514 -0.3804563 0.024945257
residues 0.9927204 1.3099188 0.12688941 1.2545296 1.2153543 -0.7081978 0.82893187 -0.064101204 0.79116136 0.6044299 -1.3379859 0.36903432 -0.3698029 0.72998095 -0.6012332 -1.2410387 -0.44285795 -2.2028673 -0.58976966 0.039739355
localization 1.1680572 1.5471352 0.145318 1.5083982 1.4736146 -0.85475326 1.0003206 -0.0804138 0.9316846 0.7085056 -1.6002346 0.43298385 -0.4398664 0.8593864 -0.7058505 -1.4758792 -0.52727 -2.6368766 -0.6882913 0.07734289
normal 0.7632539 0.99749124 0.09833226 0.9625847 0.92705727 -0.5354676 0.6392521 -0.055949856 0.6089802 0.46591437 -1.0258796 0.28622016 -0.28796822 0.55519456 -0.44950685 -0.9506054 -0.34211087 -1.7086655 -0.44748858 0.027758086
phosphorylation 1.1624312 1.5435245 0.14137661 1.5034513 1.4521965 -0.8495919 0.99859166 -0.0853274 0.9243881 0.7049277 -1.5914288 0.4267493 -0.43800336 0.8514021 -0.7047908 -1.4591595 -0.52421683 -2.624278 -0.6947102 0.067478664
MSH3 0.4140357 0.54643667 0.056104526 0.5205502 0.50517565 -0.28687832 0.36215416 -0.033792164 0.34262934 0.25898352 -0.5681741 0.16933113 -0.16411394 0.29805252 -0.24690065 -0.5208231 -0.16955645 -0.9333158 -0.23284288 0.0072966474
focal 0.9192187 1.225326 0.117750876 1.1874573 1.1489367 -0.65005714 0.7709908 -0.06376444 0.72919476 0.5645856 -1.2583263 0.3346167 -0.35614842 0.6953128 -0.55317074 -1.1667867 -0.43068874 -2.0670695 -0.54092026 0.041816246
essential 0.88879824 1.162613 0.1132438 1.1297988 1.1034223 -0.6307406 0.73443085 -0.06493706 0.6913781 0.53996813 -1.1943895 0.31633696 -0.323023 0.66090804 -0.5210112 -1.1202246 -0.40438688 -1.9708838 -0.51463455 0.049432326
demonstrated 1.1233587 1.4861603 0.14670698 1.4225389 1.3869474 -0.80702555 0.9400244 -0.07268714 0.8958809 0.69063354 -1.5153595 0.42728096 -0.4242935 0.8334812 -0.6783327 -1.4172038 -0.5174869 -2.5195644 -0.6615323 0.056170236
specific 0.67177844 0.8770973 0.08982724 0.8495221 0.8288465 -0.48135746 0.5545082 -0.053048998 0.5374805 0.40313837 -0.907064 0.24716361 -0.24460846 0.4972639 -0.4003287 -0.84293556 -0.29543257 -1.4885131 -0.39657018 0.030950606
changes 0.91014826 1.1853133 0.09928243 1.1458483 1.1166034 -0.64744675 0.7640084 -0.06803146 0.7282764 0.5228949 -1.2186471 0.3150491 -0.32886037 0.67459035 -0.53480387 -1.1284013 -0.39131546 -2.003569 -0.53794134 0.034453712
pathway 0.48936582 0.65592176 0.06289563 0.63586587 0.60974616 -0.35504112 0.4091925 -0.03739603 0.39385957 0.30483466 -0.6781603 0.17642525 -0.18154572 0.35925683 -0.29993707 -0.6294158 -0.22855823 -1.1049441 -0.28919762 0.031086337
major 0.5566256 0.7322653 0.08246417 0.69352156 0.69510937 -0.40242794 0.45284757 -0.034408126 0.43139118 0.34857464 -0.7521726 0.20688312 -0.22466297 0.40946755 -0.3361979 -0.68327385 -0.25178427 -1.2422425 -0.33504698 0.031251322
did 0.66826576 0.9296265 0.06683651 0.90154094 0.8683537 -0.5140828 0.5797774 -0.033804663 0.5512115 0.41383153 -0.95810646 0.2811336 -0.27945843 0.51297396 -0.4203119 -0.88191235 -0.3078498 -1.5588559 -0.42871267 0.027925832
most 0.6074404 0.807273 0.07221753 0.773967 0.7609878 -0.4435087 0.527165 -0.03939533 0.49230897 0.36812392 -0.83790344 0.21739087 -0.22529998 0.4469588 -0.3641324 -0.76686245 -0.28573906 -1.3592724 -0.3636779 0.032667555
Saccharomyces 0.5394589 0.71343845 0.059219178 0.6962539 0.671916 -0.3788867 0.4452939 -0.036012385 0.43307054 0.32975155 -0.7283951 0.19560345 -0.19070406 0.3981131 -0.3353834 -0.683545 -0.23477902 -1.2000097 -0.3148172 0.018108396
system 0.31937042 0.42266867 0.034432437 0.40997413 0.38806614 -0.2425577 0.27308154 -0.02789319 0.2562515 0.19988321 -0.42586127 0.11765423 -0.1130213 0.24102971 -0.19740625 -0.39749467 -0.15396151 -0.7060766 -0.19517665 0.022654558
recombinant 0.794255 1.057515 0.105779536 1.0192366 0.9857068 -0.5748227 0.6758021 -0.057705946 0.63789517 0.48856634 -1.0787845 0.29629582 -0.29386228 0.58975613 -0.48027724 -1.0023624 -0.36173287 -1.7913177 -0.47213656 0.03684868
used 1.4209586 1.8680989 0.17523505 1.8133991 1.7595677 -1.0018014 1.1959972 -0.104746945 1.1326722 0.86422104 -1.9440391 0.51770055 -0.5271508 1.0514768 -0.8461265 -1.7961159 -0.6553569 -3.1827812 -0.8512631 0.06833604
through 0.6436706 0.85896283 0.08565081 0.82954794 0.8007948 -0.46097997 0.5451618 -0.04636616 0.51885545 0.4041373 -0.88408536 0.22907904 -0.23560232 0.48810145 -0.39273545 -0.811373 -0.3007637 -1.4415061 -0.39011437 0.023782004
well 0.79312116 1.0559295 0.10761445 1.0093068 0.9986262 -0.57704365 0.68513227 -0.04132006 0.62995845 0.50128835 -1.0971988 0.2947435 -0.27852696 0.61319387 -0.48928702 -1.0057893 -0.35632142 -1.7927444 -0.46894273 0.03173772
FADD 0.39306775 0.5535812 0.05124626 0.5183382 0.4948831 -0.28985652 0.33028758 -0.01687281 0.33000922 0.2476319 -0.53515744 0.13840379 -0.15361537 0.29112837 -0.2521242 -0.4929041 -0.17690313 -0.8799293 -0.24063663 -0.00055247545
revealed 0.9150563 1.2009206 0.11696334 1.1557548 1.1273038 -0.65811086 0.76852083 -0.06937865 0.7212662 0.5567909 -1.2419553 0.33622277 -0.34407246 0.67417055 -0.54527116 -1.1576381 -0.42871568 -2.0492678 -0.5411184 0.037196394
concentration 1.43102 1.8853877 0.18627319 1.8360269 1.7777264 -1.0476593 1.2140844 -0.09655929 1.1410525 0.86366504 -1.9399652 0.5250438 -0.5314989 1.0506176 -0.85967076 -1.7943646 -0.6421774 -3.2078154 -0.84853166 0.0850608
present 1.3769567 1.8203379 0.18460172 1.7611483 1.7160263 -1.0054489 1.1600692 -0.08851639 1.1050321 0.8484079 -1.8752224 0.51032895 -0.51245445 1.0226314 -0.827795 -1.7279814 -0.6246529 -3.0857604 -0.81230074 0.06969129
MSH6 0.39360774 0.55296826 0.059197284 0.5304542 0.49947456 -0.29326174 0.34799826 -0.02432528 0.31352666 0.2554406 -0.5455809 0.16731359 -0.15955761 0.29605815 -0.24835624 -0.48679975 -0.18481995 -0.89394003 -0.23561524 0.00929313
replication 1.390811 1.8429857 0.17718646 1.7897162 1.7322903 -1.0127801 1.1747072 -0.104596846 1.1018322 0.8387529 -1.8962488 0.5237137 -0.52101815 1.0198746 -0.83988523 -1.7448367 -0.62972933 -3.1160715 -0.816082 0.088353395
respectively 0.8938751 1.1906989 0.115465045 1.1437494 1.1160461 -0.645483 0.7581311 -0.06573219 0.72065383 0.547417 -1.2278934 0.32699963 -0.335977 0.67352307 -0.5400551 -1.1238412 -0.4102976 -2.0112786 -0.5418846 0.03910807
RAD54 0.6316815 0.8764567 0.1008447 0.8249257 0.7838412 -0.44713095 0.5473031 -0.05240842 0.5108684 0.38018045 -0.8855912 0.24510159 -0.25498357 0.48065457 -0.38235295 -0.8174788 -0.27193272 -1.4551543 -0.40509412 0.030606898
determined 1.0597686 1.4042695 0.14219508 1.3489256 1.3225752 -0.7575053 0.90597945 -0.07533634 0.8466234 0.65200686 -1.4511826 0.39604923 -0.38683072 0.7948626 -0.62569416 -1.3388504 -0.4879407 -2.379868 -0.62711996 0.057665538
However 0.43069556 0.5665571 0.050448526 0.5457226 0.5290714 -0.30398417 0.35416976 -0.034283582 0.34353337 0.2660058 -0.5759736 0.16497526 -0.1536927 0.32502538 -0.25004977 -0.5415295 -0.18662383 -0.96746445 -0.25285774 0.02591694
signaling 1.0920093 1.4565159 0.1504505 1.3967197 1.3688345 -0.79640216 0.9266354 -0.073105015 0.87127465 0.69174504 -1.4947737 0.3982541 -0.42036253 0.8056974 -0.6575768 -1.3821454 -0.5019505 -2.4462943 -0.6543147 0.05375452
alpha 0.8720799 1.1546724 0.10218867 1.1240597 1.1169263 -0.6327395 0.748094 -0.08631767 0.7090699 0.5054228 -1.1954751 0.3078325 -0.33763435 0.67190826 -0.5255633 -1.0867411 -0.38172853 -1.9836644 -0.5196144 0.011866119
structures 0.8974232 1.181818 0.11253753 1.1309288 1.0931134 -0.64299464 0.7369977 -0.060204882 0.7118141 0.53715587 -1.198012 0.3257359 -0.32860056 0.65817356 -0.5385766 -1.103254 -0.40227547 -1.9850945 -0.5291116 0.04125532
transcription 1.0507872 1.3916918 0.13535479 1.3478166 1.3113079 -0.76244503 0.8960381 -0.0699836 0.8351553 0.64220357 -1.427263 0.39231706 -0.39351448 0.7793142 -0.6451887 -1.322044 -0.4785368 -2.3534088 -0.62547314 0.055345587
CBP 0.14413002 0.1828541 0.014176478 0.20119064 0.17215052 -0.10549981 0.124986626 -0.0050132712 0.110773854 0.09754218 -0.22869943 0.054228257 -0.07957191 0.11369519 -0.0942569 -0.19762942 -0.067977555 -0.32778922 -0.08918997 0.026030598
studies 0.77529764 1.023549 0.09404167 0.99560213 0.9583022 -0.55776405 0.64034444 -0.05491058 0.63790005 0.4597967 -1.0597495 0.29217917 -0.2909978 0.57651216 -0.46852314 -0.98225355 -0.34234372 -1.7441242 -0.45302913 0.025631977
either 0.89595705 1.1727046 0.111144654 1.1398245 1.1066471 -0.6391068 0.75764525 -0.071980394 0.70617753 0.5405901 -1.2278668 0.33929175 -0.34968254 0.6737457 -0.54078186 -1.1233265 -0.40945524 -2.0194514 -0.54462606 0.047038313
tropomyosin 0.8595563 1.1223224 0.07396794 1.0542698 1.0314018 -0.5926003 0.7040496 -0.055260677 0.69353867 0.4693067 -1.0918249 0.2813408 -0.2867632 0.63937545 -0.51444685 -1.0423385 -0.3446585 -1.826649 -0.535737 0.017203454
recombination 1.2741458 1.6906163 0.15800376 1.6317799 1.582647 -0.93024385 1.0824894 -0.09085493 1.0131463 0.77347744 -1.7283924 0.47124627 -0.47905672 0.93543714 -0.77410555 -1.5942217 -0.57313734 -2.8573472 -0.76179445 0.07031708
after 0.674844 0.9051745 0.08478708 0.8605832 0.84017456 -0.4754474 0.57210505 -0.050945558 0.5461392 0.41930553 -0.9265449 0.25493345 -0.24234971 0.49847922 -0.40833855 -0.85150737 -0.30083492 -1.5118476 -0.41145876 0.026456201
simplex 0.7217715 0.93500334 0.09771397 0.90798044 0.8814334 -0.5050664 0.60722834 -0.047022212 0.56950223 0.4359378 -0.96665424 0.2569591 -0.26062492 0.52021366 -0.4170526 -0.9006271 -0.32430747 -1.5801098 -0.42015508 0.033301547
regions 1.1563076 1.5308533 0.14776897 1.4890604 1.4437274 -0.84985846 0.9872692 -0.08007868 0.92321736 0.71128935 -1.5686727 0.4354574 -0.4413165 0.85507816 -0.7076776 -1.457734 -0.5253591 -2.6048954 -0.70203185 0.061062984
determine 0.9162761 1.2087692 0.12233831 1.1621351 1.1383857 -0.6506949 0.7824294 -0.0635722 0.7317787 0.5627362 -1.2457672 0.33724344 -0.33493614 0.6824638 -0.5378111 -1.1565336 -0.4155128 -2.0472436 -0.5431072 0.047794577
J. 0.4585393 0.6315519 0.051692322 0.6078255 0.5969995 -0.36108315 0.37845695 -0.036501445 0.41308308 0.30064976 -0.6419039 0.17866293 -0.18881872 0.340879 -0.26951486 -0.5955006 -0.22280453 -1.0968448 -0.30751714 0.03995137
' 0.21764943 0.29874673 0.021082075 0.25039536 0.24263999 -0.11319251 0.16557187 -0.029909503 0.15061933 0.12788253 -0.28961366 0.058244392 -0.0749248 0.16882092 -0.11561489 -0.2575536 -0.06343068 -0.46940172 -0.11805855 0.041927222
acid 0.5484696 0.72370476 0.08038164 0.70413905 0.68537325 -0.418295 0.47006753 -0.050793458 0.45071277 0.33719483 -0.7428461 0.20920634 -0.20338678 0.4046148 -0.33746383 -0.70006406 -0.25899678 -1.2342703 -0.33168957 0.04435329
more 0.7906983 1.043945 0.10740437 1.0311443 0.99743104 -0.59391654 0.6733869 -0.050056003 0.64469725 0.488986 -1.0977355 0.2919165 -0.28839442 0.6005841 -0.49018356 -1.010943 -0.362895 -1.8022529 -0.46654943 0.026426671
homologous 0.6285804 0.83300775 0.08245257 0.8135358 0.7832091 -0.4523382 0.5347984 -0.04489282 0.5026035 0.39462963 -0.8549147 0.23941 -0.23828624 0.46466425 -0.37876981 -0.7969102 -0.29582882 -1.4143183 -0.3790575 0.03305736
four 0.49747375 0.6721296 0.06578205 0.63894117 0.60976285 -0.36007965 0.41650924 -0.041838735 0.39780676 0.29990697 -0.68670374 0.18273474 -0.18381152 0.38265756 -0.3023595 -0.6148976 -0.23432192 -1.1089032 -0.2937437 0.025666732
reduced 1.1183664 1.4717989 0.1352513 1.4212811 1.3783911 -0.8032368 0.94410807 -0.085261635 0.879937 0.68969053 -1.5241684 0.4117488 -0.41467363 0.8163013 -0.6674715 -1.4045045 -0.5152475 -2.499748 -0.6643442 0.049427643
distribution 1.0412091 1.3661841 0.13283645 1.3320693 1.287594 -0.7508823 0.8770323 -0.06691776 0.8275512 0.62730503 -1.4137588 0.38205376 -0.3880637 0.76339924 -0.627221 -1.2934406 -0.47326154 -2.3205848 -0.6137191 0.055956032
staining 1.2593461 1.6682924 0.16949366 1.6089473 1.5548724 -0.9020415 1.0552936 -0.101181775 1.0077559 0.77081686 -1.71968 0.47953206 -0.46729463 0.93109983 -0.7511377 -1.5867982 -0.5772378 -2.8187628 -0.7462513 0.061685365
ends 0.58471245 0.79183525 0.05609231 0.7676706 0.73961234 -0.44540393 0.49770653 -0.05112759 0.47968054 0.358139 -0.81544477 0.23452145 -0.21775709 0.4391642 -0.3453988 -0.7492742 -0.26184237 -1.3306351 -0.3545526 0.016826916
related 1.8226696 2.3978417 0.2195261 2.2975209 2.2585871 -1.3006148 1.5161481 -0.13269848 1.4406098 1.1075394 -2.469182 0.6655306 -0.6871579 1.3598527 -1.0860094 -2.305084 -0.8273519 -4.0690947 -1.0814537 0.083204366
important 0.60725605 0.80495495 0.081129916 0.7905558 0.74665654 -0.44635156 0.50896496 -0.043419693 0.4754233 0.36964864 -0.82512283 0.22750117 -0.2262809 0.46287885 -0.34968302 -0.76639324 -0.27140024 -1.348181 -0.3537348 0.04114929
indicate 1.1010873 1.4557679 0.13964325 1.396147 1.3830584 -0.80595344 0.92461693 -0.09732793 0.87627333 0.6665572 -1.518547 0.41708815 -0.4144158 0.8203088 -0.6634599 -1.3887819 -0.5157011 -2.4894822 -0.64806074 0.047015365
sequences 0.9306361 1.221305 0.12006938 1.1877089 1.141482 -0.67507255 0.78817093 -0.061568536 0.73295784 0.56806725 -1.259352 0.34435195 -0.34959212 0.6936169 -0.55152404 -1.1642101 -0.42394692 -2.069326 -0.541458 0.04659659
C 0.17978318 0.23332176 0.015684698 0.18341278 0.21961239 -0.10468729 0.16212317 -0.045347985 0.15504082 0.12375285 -0.1942512 0.07383989 -0.08021455 0.16615753 -0.088279486 -0.17683148 -0.08709034 -0.36884362 -0.09743284 0.0024473625
including 1.0728211 1.4168097 0.1416115 1.3730011 1.340817 -0.7812301 0.91630274 -0.07502764 0.855379 0.6602463 -1.4673026 0.40412852 -0.41010967 0.7983133 -0.6482175 -1.3529372 -0.48736086 -2.4169774 -0.63731134 0.052151483
products 0.90525824 1.1891196 0.11535779 1.1551089 1.1214088 -0.6597113 0.772404 -0.058906432 0.7205022 0.5479401 -1.2248696 0.34201103 -0.34790203 0.67431897 -0.5402949 -1.1296529 -0.40859038 -2.0220652 -0.5258153 0.04426908
endothelial 0.7366306 0.9780267 0.08375955 0.9493553 0.92371905 -0.5228093 0.62805617 -0.04991341 0.5891699 0.4543319 -1.0001746 0.2673691 -0.27422664 0.5437509 -0.44157997 -0.93776166 -0.33153552 -1.6565511 -0.4447867 0.029946838
L 0.092583075 0.1256293 -0.011415541 0.09811925 0.095313296 -0.07538919 0.05198387 -0.033578426 0.026868377 0.06760599 -0.13079289 0.06498369 0.007995448 0.020414028 -0.043721743 -0.06267794 -0.01923323 -0.19047096 -0.048980318 0.00979449
helicase-primase 0.55924255 0.73811924 0.06747586 0.7161188 0.6928468 -0.3952743 0.47264516 -0.03731308 0.44338277 0.3456462 -0.76431125 0.2025476 -0.20652856 0.42259988 -0.34233367 -0.7035962 -0.25675488 -1.2490587 -0.3324575 0.023521254
D1 0.06602986 0.12848085 0.01571863 0.089687005 0.12817645 -0.068261884 0.060482826 -0.008821711 0.082153365 0.049583696 -0.10689919 0.042961635 -0.022406792 0.051114324 -0.056879334 -0.10940233 -0.062766 -0.19380401 -0.05651162 -0.00397361
observed 0.68716264 0.9010736 0.0968579 0.8751861 0.8603006 -0.4902662 0.5716107 -0.055192187 0.5428774 0.41838193 -0.9321747 0.2520463 -0.26421255 0.5099121 -0.4149304 -0.8599364 -0.31544137 -1.5475355 -0.40583432 0.03730163
5 0.18674777 0.20481047 0.05533222 0.19141285 0.18612647 -0.12322998 0.13647397 -0.03620974 0.11414108 0.077708945 -0.23235783 0.088675916 -0.07314789 0.123769596 -0.10553145 -0.18689789 -0.07797305 -0.3824301 -0.11455845 -0.0013203928
bundles 0.6632636 0.8779369 0.08429539 0.85671276 0.8253958 -0.47113395 0.553438 -0.041875117 0.5294263 0.40164366 -0.89020723 0.22674863 -0.24706812 0.48894158 -0.40177283 -0.8208172 -0.29626042 -1.4822289 -0.39837348 0.039312694
control 0.91563034 1.2172596 0.11980374 1.1782854 1.1440712 -0.66601455 0.7872492 -0.058930572 0.743522 0.5677938 -1.2680174 0.3429315 -0.3501377 0.6865019 -0.5603031 -1.1547172 -0.41856912 -2.0737395 -0.5530592 0.039741307
motility 0.62031204 0.8085566 0.07871907 0.7812325 0.7674516 -0.44193172 0.52172476 -0.040081065 0.49070504 0.38305107 -0.8364089 0.2275877 -0.2363796 0.45548922 -0.37018692 -0.7820525 -0.27708754 -1.3710684 -0.35805815 0.021329455
monomeric 0.7199361 0.94992554 0.09085566 0.92510086 0.8986124 -0.52575177 0.6141324 -0.043975875 0.57733905 0.44184116 -0.98481417 0.26145473 -0.2797603 0.53274673 -0.43265784 -0.915858 -0.31788072 -1.6173372 -0.41742143 0.029548848
compared 1.0988653 1.4479207 0.13693258 1.3965408 1.3708398 -0.7942415 0.93128556 -0.0879525 0.88286006 0.6827724 -1.4948753 0.40879294 -0.4035973 0.8161306 -0.66276586 -1.3827178 -0.51353925 -2.4603662 -0.6597639 0.04434845
bound 0.6147582 0.81217605 0.0802287 0.7841061 0.7667335 -0.43823138 0.52608913 -0.048743896 0.49877828 0.3670479 -0.8384874 0.21284533 -0.23942323 0.45146912 -0.36279678 -0.76871574 -0.28656018 -1.3832284 -0.3643614 0.020300014
cytoplasm 0.55192757 0.7216775 0.07260303 0.6959511 0.6840509 -0.3921744 0.46325338 -0.046597444 0.42819947 0.3479788 -0.7466972 0.19636533 -0.2019036 0.40692988 -0.33230355 -0.68479955 -0.25308317 -1.2225181 -0.31533182 0.024303759
inhibited 1.2192719 1.6209301 0.15053287 1.5551615 1.5125612 -0.87744313 1.0264033 -0.08809802 0.97506803 0.7464126 -1.6613867 0.4623058 -0.46221256 0.9098524 -0.73053765 -1.5376514 -0.5670045 -2.7430208 -0.73489535 0.05532682
fluorescence 0.76700044 1.0114491 0.09790895 0.9769454 0.9524907 -0.54695094 0.6448357 -0.048675876 0.61193866 0.46952546 -1.0405657 0.28471777 -0.2759106 0.56821895 -0.46648172 -0.964407 -0.35098952 -1.7138599 -0.44844007 0.03732278
stress 0.8584934 1.1401834 0.11157918 1.1082824 1.0852879 -0.6236491 0.7200783 -0.06025736 0.695086 0.5173418 -1.1704959 0.33646065 -0.312296 0.6410696 -0.51775026 -1.074308 -0.39448604 -1.9304558 -0.5124751 0.030344304
M 0.110216975 0.13367113 -0.005000424 0.15434664 0.1767881 -0.11587979 0.091034085 -0.01683743 0.09633227 0.04622374 -0.15127087 0.023812935 -0.0807021 0.07999104 -0.10089156 -0.1457873 -0.04209478 -0.28294557 -0.051702186 -0.013140205
previously 0.66735 0.8772589 0.084890515 0.8582189 0.83180654 -0.484247 0.5648332 -0.05276772 0.5309465 0.41038364 -0.9210205 0.25177145 -0.25016198 0.50154114 -0.39782962 -0.8453849 -0.3042944 -1.5108299 -0.40369996 0.030985683
dynamics 0.27615917 0.35701117 0.032311514 0.35011098 0.34793723 -0.19914125 0.24948257 -0.0058640433 0.22576484 0.16566484 -0.36746314 0.10083309 -0.10465525 0.20103158 -0.16105117 -0.3494058 -0.117955625 -0.6103152 -0.16497469 0.012697828
model 0.47849688 0.61694723 0.052202262 0.6015405 0.59186995 -0.33277777 0.39377484 -0.028108781 0.3731657 0.29164308 -0.63644564 0.18069053 -0.17466222 0.33968353 -0.2837191 -0.58290654 -0.21507478 -1.0299612 -0.27635083 0.014572703
viral 0.79094523 1.0391519 0.10515695 1.0121466 0.9701611 -0.5716324 0.66901463 -0.056368265 0.6300218 0.49234784 -1.0896798 0.27114865 -0.29938018 0.57856214 -0.46318606 -1.0081371 -0.36295778 -1.765162 -0.48356766 0.03947526
no 0.6926436 0.9254164 0.09608005 0.89402336 0.88023937 -0.5073975 0.5991913 -0.0873625 0.55479914 0.4228466 -0.9405858 0.28843844 -0.2620913 0.5272294 -0.39327115 -0.86086375 -0.31424582 -1.5993705 -0.42076916 0.014197481
p27 0.14151078 0.19805375 0.019390406 0.17788716 0.17969431 -0.10430582 0.11541853 0.010129814 0.11983859 0.093529426 -0.20429096 0.06568066 -0.05006792 0.105296016 -0.09523653 -0.17471208 -0.04750762 -0.3285167 -0.07656075 0.027837189
purified 0.75052345 0.98788613 0.104804866 0.9446126 0.93115664 -0.5378534 0.6356806 -0.042872038 0.60828257 0.46331424 -1.0243157 0.2791468 -0.2732968 0.5578895 -0.44542867 -0.94781464 -0.34482878 -1.678052 -0.44260395 0.03872955
alpha-smooth 0.6554822 0.8597973 0.07955537 0.8154855 0.8126246 -0.4598885 0.54501903 -0.06149192 0.5156131 0.36685643 -0.86309904 0.22033583 -0.24354236 0.4901966 -0.3833427 -0.78699917 -0.2840416 -1.4465953 -0.38401902 0.014582853
molecular 0.8522341 1.1274103 0.115118966 1.0876763 1.0575625 -0.60886604 0.7182162 -0.059362493 0.6701028 0.5186093 -1.1583033 0.30412492 -0.32592365 0.62805253 -0.50511867 -1.0665 -0.38338536 -1.9008458 -0.5116444 0.038354855
increase 1.110464 1.4647604 0.14537337 1.4094393 1.3697 -0.7878859 0.9369384 -0.08118715 0.8874858 0.66543645 -1.5046878 0.41324618 -0.39604753 0.82452345 -0.6694907 -1.4025518 -0.5052827 -2.4746797 -0.6565432 0.041603155
reorganization 0.98434186 1.2991394 0.11800482 1.2641536 1.2343276 -0.7279037 0.83731997 -0.066993065 0.77725035 0.5884232 -1.3445997 0.36454064 -0.37192833 0.7203479 -0.59029835 -1.2317009 -0.4380877 -2.201562 -0.5832967 0.062669285
desmin 0.91245097 1.1980442 0.091310546 1.1407036 1.1352454 -0.6481133 0.7688179 -0.065204665 0.7222996 0.5359215 -1.2137256 0.30828238 -0.3421603 0.679496 -0.54490286 -1.1227336 -0.38441327 -2.0159519 -0.5561042 0.034540247
cardiac 0.38373545 0.49601266 0.048696503 0.47397637 0.46633953 -0.259134 0.31820315 -0.016824724 0.3103472 0.22306813 -0.49680805 0.12689373 -0.1289031 0.2879629 -0.23201957 -0.46964893 -0.16463837 -0.83798426 -0.2271554 0.022794109
absence 0.6324844 0.83954585 0.09270698 0.8197403 0.7733384 -0.45232856 0.53687876 -0.041256364 0.4953692 0.38824025 -0.8588111 0.22792107 -0.23505534 0.46523267 -0.3829317 -0.79730433 -0.29091987 -1.4141868 -0.36941075 0.03197203
plant 0.8288738 1.0845988 0.1182526 1.0609872 1.0274764 -0.59543616 0.68216056 -0.066084296 0.6596438 0.4907458 -1.1217216 0.30716693 -0.31531352 0.60951835 -0.48291194 -1.0383667 -0.3923727 -1.8399165 -0.48701885 0.043052677
ADF 0.12758009 0.16698523 -0.0011477984 0.15160777 0.1518776 -0.0866644 0.11922605 -0.029629529 0.10226021 0.06439834 -0.16799246 0.04933032 -0.04558584 0.083745405 -0.08327489 -0.14516875 -0.0706142 -0.2938468 -0.07869481 0.020399809
relative 1.015346 1.3331909 0.13238779 1.2881867 1.251394 -0.7209301 0.84711343 -0.07507569 0.7870971 0.61141914 -1.3836181 0.36747956 -0.36736175 0.75248593 -0.6049857 -1.2755682 -0.45782247 -2.2573433 -0.6015316 0.049417876
N-terminal 0.80937153 1.071062 0.10222453 1.0282599 1.0158728 -0.57880545 0.67891127 -0.063545845 0.645646 0.49899772 -1.1057545 0.2946199 -0.29627138 0.60374725 -0.48095867 -1.0101352 -0.36355352 -1.8102218 -0.48133627 0.03246222
examined 0.92310053 1.2318312 0.12176205 1.1771677 1.1530566 -0.675338 0.7883433 -0.07740103 0.7382096 0.56924415 -1.261421 0.34983984 -0.34918308 0.6900531 -0.54732877 -1.1704268 -0.43131846 -2.0779057 -0.5496422 0.048451632
receptors 0.8025929 1.0659379 0.098233715 1.0283439 0.9968461 -0.5737121 0.6745483 -0.06281119 0.62938696 0.49496305 -1.094116 0.31132445 -0.29935148 0.59559697 -0.47191614 -1.0101081 -0.35685995 -1.7916979 -0.47359276 0.034764975
surface 0.44393614 0.5633701 0.049438596 0.53589964 0.5270171 -0.3173501 0.3604717 -0.028596846 0.33177465 0.26267007 -0.58801025 0.16057941 -0.15462098 0.32283294 -0.25292107 -0.5349079 -0.19535741 -0.9643944 -0.2493411 0.023871116
large 0.37878114 0.51244587 0.04744678 0.4967045 0.4689894 -0.26679274 0.33185175 -0.018603267 0.2971835 0.23285112 -0.51032865 0.15264386 -0.13480516 0.27492672 -0.22611348 -0.4725564 -0.17817722 -0.8551367 -0.23183726 0.0073922
encoding 1.0742823 1.4266822 0.14320977 1.3730676 1.3417747 -0.7884011 0.90918726 -0.07664654 0.8479917 0.65519893 -1.4811066 0.39769623 -0.39605686 0.792057 -0.6351674 -1.3549105 -0.49729893 -2.4113774 -0.64593345 0.056470666
suggesting 1.1072401 1.4690338 0.14836383 1.4256486 1.3903863 -0.80696875 0.9468895 -0.074086145 0.8857083 0.690345 -1.5210215 0.41551223 -0.4214546 0.8255511 -0.6596344 -1.401439 -0.51292574 -2.5017552 -0.65853125 0.050161712
concentrations 1.2710835 1.6770926 0.16697536 1.6324991 1.5827212 -0.9322455 1.0805064 -0.08330111 1.0166078 0.7717054 -1.7288213 0.46695355 -0.47759187 0.9373627 -0.76842576 -1.599636 -0.57217354 -2.8561237 -0.75545365 0.07373556
had 0.39722705 0.5355783 0.045028273 0.51447916 0.49422726 -0.2877943 0.3456938 -0.034386914 0.312141 0.25038806 -0.5455462 0.15501127 -0.15259708 0.30419928 -0.23707663 -0.513807 -0.18127275 -0.8920682 -0.2432722 0.0113099
directly 0.6209099 0.81382126 0.0783781 0.7792385 0.75910413 -0.44040585 0.50611806 -0.040860422 0.4768662 0.36436966 -0.834147 0.22520901 -0.2305723 0.45353016 -0.36847132 -0.76801723 -0.28957486 -1.3652458 -0.36039758 0.028254565
encodes 0.7730392 1.0237004 0.09769459 0.9882026 0.9536652 -0.5671047 0.6546941 -0.0489923 0.6065617 0.46981218 -1.0519319 0.28300294 -0.2903703 0.57222015 -0.45773944 -0.9746535 -0.36195204 -1.7337449 -0.46463817 0.031001972
mammalian 0.38005993 0.51277906 0.054301824 0.4815839 0.48196146 -0.27451763 0.32727033 -0.03923973 0.3030163 0.23245305 -0.5158308 0.14956553 -0.1424572 0.2872683 -0.22412352 -0.48013118 -0.17438924 -0.8532075 -0.23348497 0.015499248
brain 1.04929 1.3772585 0.116617076 1.3104041 1.2910684 -0.75124186 0.87136817 -0.080129124 0.839845 0.610789 -1.3883331 0.33844784 -0.3699822 0.7787402 -0.62974507 -1.2814772 -0.44267812 -2.3034978 -0.6281662 0.041059136
inhibition 1.3738872 1.8263545 0.16914943 1.7759868 1.7157587 -1.0016993 1.1716007 -0.09087792 1.1015173 0.8366712 -1.8619874 0.52037525 -0.518853 1.0078453 -0.8284817 -1.7232931 -0.6310005 -3.085007 -0.82328063 0.08463502
Kd 0.1631059 0.2512835 0.010994445 0.24932064 0.19870779 -0.10156913 0.14551958 -0.0031446917 0.12458967 0.0794959 -0.24539879 0.034929793 -0.061444268 0.14654966 -0.090088226 -0.20176746 -0.07293685 -0.3815106 -0.12009283 0.008543855
link 0.70818233 0.9310809 0.08279341 0.895122 0.8818419 -0.51060015 0.58148515 -0.05593978 0.55547446 0.4411872 -0.94713306 0.24822678 -0.26325685 0.5269196 -0.42147902 -0.89118344 -0.32821712 -1.5915326 -0.4244263 0.037058547
although 0.43516678 0.60460335 0.058523588 0.57219607 0.5607166 -0.32260838 0.37643322 -0.038196664 0.36191136 0.27542457 -0.61192065 0.16449353 -0.17292154 0.34232113 -0.2707231 -0.554749 -0.21555722 -0.9979407 -0.26326886 0.015264181
pathways 0.44264138 0.5874377 0.055068087 0.57591486 0.54262084 -0.3258928 0.37431625 -0.035479542 0.35511076 0.2767804 -0.6164075 0.1654391 -0.17126934 0.326264 -0.27454153 -0.5658937 -0.205124 -0.99643034 -0.26686162 0.025308218
intracellular 0.8747264 1.1453083 0.10511064 1.1069274 1.0774534 -0.6240192 0.7296524 -0.061165836 0.6950846 0.5350634 -1.1808738 0.32241747 -0.32807404 0.6397019 -0.52047104 -1.0881884 -0.39107344 -1.936298 -0.5144341 0.05005453
mechanism 0.37392703 0.4904823 0.04550631 0.4808077 0.46036065 -0.26368704 0.31469622 -0.027530339 0.28865427 0.2200943 -0.51333255 0.12641574 -0.12992646 0.27973926 -0.21707642 -0.47131523 -0.1734261 -0.8298692 -0.22144625 0.01883695
nucleation 1.4840413 1.9571757 0.18678276 1.8956109 1.8494596 -1.0799603 1.2637093 -0.10180248 1.1775953 0.8965306 -2.009474 0.5458633 -0.5519691 1.0845981 -0.89402074 -1.8564506 -0.6677213 -3.3245912 -0.8842719 0.08369468
cytoplasmic 0.5868012 0.7650801 0.0728865 0.74165946 0.72650236 -0.41583765 0.48943117 -0.04853075 0.45797607 0.36837554 -0.79002786 0.20902908 -0.21870269 0.43362266 -0.35435206 -0.7339095 -0.2660642 -1.2913814 -0.3431309 0.021035349
10 0.2621735 0.37086016 0.00039615307 0.33383048 0.33930266 -0.17216791 0.23667002 -0.023924233 0.19947143 0.16166183 -0.36100766 0.09332621 -0.12650563 0.18772383 -0.17206353 -0.34015855 -0.1132834 -0.6186404 -0.184403 0.018040901
amino 0.5682051 0.7480387 0.0743931 0.7140505 0.6948681 -0.4088632 0.47783735 -0.05485427 0.4430384 0.3246887 -0.7610776 0.21375407 -0.21968813 0.4180585 -0.33764136 -0.71048146 -0.2553572 -1.2480214 -0.33330366 0.025459833
family 0.5414179 0.7090311 0.07378347 0.68665564 0.6637218 -0.39227578 0.46014544 -0.03485636 0.42115498 0.32118726 -0.72355735 0.19353305 -0.20809554 0.39309418 -0.33166894 -0.6620897 -0.23534152 -1.1954697 -0.31705973 0.033692133
components 0.9588773 1.2792319 0.12387167 1.2331504 1.2170075 -0.7008764 0.81883645 -0.072471894 0.7700617 0.59458476 -1.3162962 0.3484176 -0.35614866 0.7211777 -0.5868255 -1.2166108 -0.44754842 -2.1666856 -0.57746744 0.051926184
dependent 1.1865042 1.5654358 0.14622274 1.5201927 1.4563291 -0.8410642 1.0016067 -0.07438989 0.94206446 0.72285813 -1.6139476 0.44504553 -0.4395 0.8837803 -0.726889 -1.4897774 -0.52976114 -2.6431336 -0.7122726 0.050168864
highly 0.5288717 0.7054365 0.05830497 0.66970474 0.66105175 -0.38314566 0.44262066 -0.040224258 0.42475775 0.3254503 -0.72406125 0.18243712 -0.19650593 0.39406723 -0.30980793 -0.66496974 -0.2433954 -1.1750274 -0.3250914 0.025168521
data 0.22056985 0.28831232 0.020184316 0.27087247 0.267648 -0.15768884 0.18955761 -0.00043085014 0.18976532 0.1361004 -0.30976203 0.07481608 -0.07890153 0.15386337 -0.13302483 -0.27741334 -0.10400701 -0.4875274 -0.12863745 0.011425474
platelet 0.7912052 1.0517015 0.09403173 1.0075055 1.0010772 -0.5734427 0.6666569 -0.06810374 0.6341687 0.47016406 -1.0749617 0.29316285 -0.29169986 0.59617037 -0.47976476 -0.9989448 -0.37560666 -1.7775089 -0.46583518 0.031883314
mutation 1.7185936 2.2662435 0.22474077 2.2001827 2.1465168 -1.2519809 1.4608523 -0.11859526 1.3642516 1.0353159 -2.3180728 0.6287463 -0.6380445 1.256907 -1.0270189 -2.1492717 -0.7777804 -3.839734 -1.0219401 0.10587591
under 0.59154946 0.8022797 0.07841814 0.7681864 0.7590088 -0.438518 0.49467734 -0.03051825 0.4789788 0.36604017 -0.8119624 0.22155382 -0.22978097 0.42958486 -0.37446967 -0.75811356 -0.2878854 -1.353532 -0.34888217 0.02924071
suggests 0.75748557 1.008087 0.09876498 0.9779184 0.95698005 -0.55210453 0.64617777 -0.043120895 0.61264616 0.4708672 -1.0412928 0.29152548 -0.2948577 0.57472897 -0.44891438 -0.9645856 -0.3596105 -1.720822 -0.44995138 0.025842544
peptide 0.6981225 0.9396738 0.09507857 0.91590345 0.8879422 -0.5005518 0.60822207 -0.046068337 0.5716853 0.4380043 -0.972669 0.26375496 -0.27418962 0.5285096 -0.42643568 -0.90197307 -0.33324024 -1.5825077 -0.4100049 0.037543464
cellular 1.0020734 1.3288573 0.124943875 1.2743857 1.250746 -0.72138876 0.8409707 -0.06498414 0.79834133 0.61476517 -1.3584409 0.3750211 -0.3747415 0.7396346 -0.606949 -1.2629019 -0.45880318 -2.2331014 -0.6016554 0.04349144
when 0.6156634 0.79571974 0.06905554 0.75671977 0.7266379 -0.421716 0.49664953 -0.043992378 0.472489 0.37013647 -0.8150131 0.22584866 -0.22352877 0.4495736 -0.35723406 -0.755736 -0.27680084 -1.3373278 -0.33977953 0.015110067
responsible 0.70036167 0.93506145 0.086805984 0.8882939 0.8692448 -0.50775987 0.58782953 -0.052464455 0.5570122 0.43530333 -0.9544406 0.25840217 -0.2661088 0.51563096 -0.41984054 -0.8923041 -0.3186418 -1.5746242 -0.42779282 0.039817683
fusion 1.0884701 1.4244393 0.12945129 1.3814706 1.3556846 -0.7920573 0.9240429 -0.070926644 0.8632405 0.65750617 -1.457317 0.40309474 -0.40423578 0.79992115 -0.64524955 -1.3502772 -0.48777828 -2.4370785 -0.6475432 0.059991874
molecule 0.71438557 0.943808 0.09320207 0.9053265 0.8847159 -0.50692874 0.60865796 -0.045301165 0.5555034 0.42104208 -0.97092146 0.25403997 -0.28861114 0.531914 -0.42163837 -0.89027476 -0.32262018 -1.594634 -0.42841887 0.024007047
total 0.7145475 0.95778096 0.09045222 0.9188364 0.89486 -0.50066435 0.6054946 -0.05351856 0.5810654 0.4313434 -0.9791218 0.26403105 -0.279842 0.53909296 -0.4277831 -0.92097384 -0.32535124 -1.6252291 -0.42893502 0.024651447
pollen 0.5008341 0.66949224 0.07118859 0.6304891 0.62449235 -0.3623644 0.4251571 -0.040076382 0.40100613 0.29158458 -0.6811418 0.1981405 -0.17384173 0.37334767 -0.2986233 -0.6289376 -0.22196369 -1.1149347 -0.2899855 0.035792347
contrast 0.92312366 1.2056876 0.1295326 1.1738591 1.1363797 -0.6504729 0.77101 -0.06562967 0.732109 0.5588432 -1.2341791 0.34122634 -0.3369657 0.6794505 -0.54927725 -1.1425459 -0.41782448 -2.054223 -0.5503327 0.04622438
assay 0.49098223 0.6612552 0.065592736 0.63237363 0.6128946 -0.3503172 0.41686028 -0.026000094 0.3937599 0.2972129 -0.6628285 0.17361729 -0.19272819 0.3694539 -0.29365185 -0.6349946 -0.22749767 -1.1086555 -0.3015106 0.024452902
independent 1.1656532 1.5391551 0.14932323 1.4884781 1.4362723 -0.82922137 0.982292 -0.07417425 0.9257852 0.70609325 -1.5885687 0.4354438 -0.43404654 0.86676955 -0.70706534 -1.464726 -0.52105945 -2.600163 -0.6938762 0.052537706
rabbit 0.31430215 0.42107195 0.032343894 0.38456196 0.38008973 -0.23118071 0.27164468 -0.022239923 0.25057516 0.19146352 -0.42120352 0.10730496 -0.11949779 0.2283537 -0.18705253 -0.38207507 -0.1304699 -0.68730295 -0.17191167 0.006275562
treatment 0.86565346 1.1436797 0.11192494 1.0968196 1.0640094 -0.6180688 0.7191149 -0.06093143 0.6915738 0.52822715 -1.1733874 0.31075194 -0.31412318 0.6371176 -0.52373064 -1.0791038 -0.3812451 -1.92114 -0.51120555 0.040365987
each 0.35216406 0.44822928 0.029355861 0.44571286 0.43106776 -0.26192555 0.28875178 -0.015090124 0.26960585 0.20207953 -0.46358997 0.1346536 -0.1427948 0.24851479 -0.20803382 -0.43667266 -0.1429592 -0.7771072 -0.2123604 0.013063829
those 0.8728258 1.1507704 0.10718999 1.114964 1.0766608 -0.631569 0.72521806 -0.06799722 0.6937443 0.5255088 -1.1959202 0.33256972 -0.32663146 0.6431058 -0.5228156 -1.0953883 -0.40370607 -1.9424301 -0.51469004 0.035036348
MHC 0.14751266 0.16633955 0.0022378697 0.15056184 0.16001664 -0.08029466 0.109001696 -0.0060466225 0.106043115 0.05056683 -0.17680001 0.022439243 -0.025876727 0.107194595 -0.07370781 -0.15812509 -0.03666269 -0.27789548 -0.09470181 -0.0160095
regulated 1.5679727 2.0763192 0.1928365 2.0085285 1.9613141 -1.1337562 1.3180248 -0.12079265 1.2457173 0.9681449 -2.127365 0.58293736 -0.60439265 1.1766679 -0.94335026 -1.9908173 -0.71681195 -3.526071 -0.9452518 0.079932086
PIP2 0.1787018 0.23837923 0.031137556 0.2296752 0.21171188 -0.1217607 0.15694867 -0.019262282 0.14186476 0.10426795 -0.24086319 0.07889583 -0.07004024 0.12862873 -0.120842785 -0.22221483 -0.08535956 -0.3901971 -0.1040934 0.015061089
contractile 0.969823 1.2812134 0.12437317 1.2280139 1.1889806 -0.69601667 0.82155347 -0.064816944 0.7799994 0.58543074 -1.308396 0.3592816 -0.35701975 0.7072218 -0.57519376 -1.2037148 -0.4321269 -2.1554186 -0.581378 0.051563673
Thus 0.39332816 0.51739335 0.05560242 0.5140693 0.4957094 -0.28789827 0.33195823 -0.017160557 0.30824265 0.2548004 -0.53341454 0.15150672 -0.14685625 0.31134173 -0.23249245 -0.49375832 -0.1772169 -0.8965787 -0.24383512 0.01065644
birch 0.30842078 0.42093506 0.035175595 0.40670294 0.37856516 -0.23236346 0.26574498 -0.022316815 0.24075694 0.19006172 -0.42544907 0.12694041 -0.12182123 0.22760943 -0.19235663 -0.40093836 -0.14206138 -0.70646876 -0.19918534 0.0035827605
monomer 0.724958 0.97256255 0.10088168 0.94301164 0.9053382 -0.53836817 0.6295322 -0.04150389 0.5852272 0.44509032 -1.0036824 0.26711056 -0.27710733 0.5380732 -0.4442912 -0.93192476 -0.328518 -1.6309639 -0.4234292 0.03250649
C-terminal 0.80341333 1.0574667 0.103168026 1.0204908 1.0017654 -0.5790486 0.66929394 -0.05976834 0.63929844 0.49484846 -1.0937461 0.3000178 -0.29789403 0.59146076 -0.47429025 -1.0014158 -0.35418746 -1.7892426 -0.47940978 0.032714147
actin-based 1.0914617 1.4541715 0.13009335 1.4005382 1.3577533 -0.8038279 0.9276904 -0.080801554 0.8738275 0.66956204 -1.492202 0.40425226 -0.40702742 0.79614 -0.6582332 -1.3769959 -0.49729967 -2.4555604 -0.65726715 0.06524748
consistent 0.9912737 1.3135446 0.1415479 1.2718164 1.2274007 -0.7273639 0.84595674 -0.080717236 0.79465294 0.6185482 -1.3528652 0.3664167 -0.37044364 0.7460958 -0.60446686 -1.2476579 -0.44701296 -2.2414799 -0.58913904 0.054190814
plasma 0.41090763 0.5656238 0.04805472 0.543254 0.5176685 -0.2881283 0.34979647 -0.039206933 0.31969804 0.26433897 -0.5795767 0.16147481 -0.1653987 0.3106585 -0.24815424 -0.52889824 -0.19240853 -0.93956107 -0.2496241 0.017628454
response 0.90331036 1.2110639 0.1056729 1.1612791 1.1388365 -0.66198546 0.771364 -0.06882891 0.72356325 0.55901116 -1.2400057 0.33866617 -0.34693736 0.6867519 -0.54812366 -1.1538408 -0.41585287 -2.0392756 -0.5494292 0.052144583
distinct 0.62082064 0.820692 0.08405631 0.79114926 0.7665534 -0.43922457 0.5290143 -0.03145922 0.49566504 0.3823796 -0.83892906 0.22269785 -0.23823573 0.46012822 -0.36661488 -0.77086717 -0.28501984 -1.3780388 -0.36436665 0.036820784
stimulation 1.3747203 1.8053098 0.1745223 1.7664971 1.7110177 -0.99442935 1.1655538 -0.09244364 1.0817384 0.8264072 -1.8588666 0.5039823 -0.5133326 1.0071443 -0.8244287 -1.7178797 -0.6168994 -3.0675778 -0.8182737 0.08591734
fibers 0.43575227 0.5912048 0.051113106 0.5714322 0.5523778 -0.31994408 0.37067848 -0.03522859 0.356985 0.26789615 -0.60334086 0.16009541 -0.16576159 0.31145307 -0.2607925 -0.5671814 -0.20586124 -0.99705905 -0.26352918 0.019229095
loss 0.30911204 0.40978864 0.027973495 0.41278422 0.3823446 -0.2337193 0.25616592 -0.028458567 0.25497392 0.1983357 -0.4258358 0.12867004 -0.11380494 0.21572761 -0.1759782 -0.3975704 -0.15978567 -0.7061418 -0.19542871 0.014998067
cortical 0.9356698 1.2355875 0.10952603 1.2035315 1.157359 -0.66804326 0.7905055 -0.06868793 0.74012524 0.5732538 -1.2704244 0.34710082 -0.35718575 0.699871 -0.5708704 -1.1777133 -0.42385128 -2.0999765 -0.5570941 0.032839116
same 0.28999734 0.38038465 0.02227933 0.35111052 0.35137236 -0.2191192 0.244162 -0.023319839 0.24180652 0.172868 -0.3905445 0.12182765 -0.10551948 0.22042197 -0.1815092 -0.3677968 -0.13722387 -0.6255145 -0.17264983 0.010088204
detected 1.1145889 1.4729812 0.15334626 1.4043759 1.3822792 -0.792904 0.9304829 -0.07612285 0.8882762 0.6798459 -1.4998431 0.42011055 -0.403289 0.8371977 -0.6624275 -1.4030379 -0.5019696 -2.4909823 -0.660448 0.059540033
structure 0.7304918 0.9608267 0.091997124 0.9208333 0.8891411 -0.525479 0.5985457 -0.048273552 0.5770508 0.43856627 -0.9823056 0.26991853 -0.265284 0.53740764 -0.43126163 -0.89631355 -0.32278338 -1.613478 -0.43035436 0.034876652
proposed 1.0635123 1.404605 0.13875952 1.3691673 1.3316396 -0.7837074 0.8991942 -0.07443859 0.8573211 0.6535408 -1.4638925 0.40391213 -0.39951855 0.7960737 -0.6363501 -1.3409874 -0.49810106 -2.3965833 -0.63389474 0.050777778
syntaxin 0.64770895 0.8525255 0.07233986 0.8001267 0.799083 -0.4483501 0.5506057 -0.05589617 0.5065352 0.38706192 -0.8666694 0.23031284 -0.23039663 0.47790894 -0.39542225 -0.7996115 -0.2780635 -1.4289154 -0.3992302 0.021992242
increases 1.0843465 1.4400475 0.1438686 1.3739523 1.3395743 -0.7705688 0.9141894 -0.08293126 0.8658214 0.65024215 -1.4731042 0.40209937 -0.38691077 0.7995599 -0.6553242 -1.3706858 -0.49029228 -2.4207935 -0.6418317 0.045142487
antigen 0.81805265 1.092928 0.1077764 1.0501035 1.0079094 -0.5971845 0.6953459 -0.06031406 0.6497355 0.49737188 -1.1258122 0.30038205 -0.30269423 0.61298156 -0.49474716 -1.0396031 -0.37991545 -1.8360629 -0.48435095 0.026899183
free 0.37726277 0.5023902 0.04355702 0.48113146 0.47622108 -0.28368267 0.3171269 -0.04198014 0.29434422 0.22762737 -0.51807636 0.13665418 -0.15047695 0.27173266 -0.21065907 -0.48103854 -0.17692243 -0.84464836 -0.21923956 0.014062696
Arp2/3 0.14228791 0.18686534 0.02198189 0.1735097 0.15969427 -0.091865644 0.12316517 -0.018331096 0.10802979 0.097993195 -0.18991558 0.04983424 -0.047972962 0.08708733 -0.09666979 -0.1675198 -0.058434468 -0.3010311 -0.07578999 0.009970361
thymosin 0.93881077 1.2289342 0.09663167 1.1773038 1.1440767 -0.65304303 0.776365 -0.06790148 0.7482192 0.5396605 -1.2290616 0.32196867 -0.325041 0.69815725 -0.5673342 -1.1583838 -0.4082693 -2.051371 -0.5754885 0.0223616
T 0.078035854 0.12981106 0.042185888 0.10436052 0.110396355 -0.06649981 0.06623797 -0.025750207 0.07114293 0.09762801 -0.094488375 0.005543364 -0.049315736 0.09704953 -0.043789588 -0.10553752 -0.04145424 -0.16542917 -0.031066172 -0.009279766
low 0.35489804 0.45122713 0.0464861 0.4484603 0.43038818 -0.2430965 0.28829837 -0.031943962 0.27466315 0.20796669 -0.48205948 0.15016854 -0.14597714 0.26274562 -0.2149253 -0.4426038 -0.15666212 -0.8063435 -0.22075842 0.008527042
two-hybrid 0.2831346 0.38206142 0.039501633 0.3809492 0.35691115 -0.2094319 0.25021595 -0.020634748 0.23516655 0.17824385 -0.39588457 0.10315363 -0.09635235 0.21410872 -0.16699353 -0.37456158 -0.13445172 -0.6393817 -0.16545898 0.012516389
functional 1.1946915 1.5899225 0.1462055 1.5381093 1.4906766 -0.8648918 1.0172956 -0.08868718 0.96162915 0.72905296 -1.6250693 0.43575922 -0.45641345 0.880177 -0.72328633 -1.5194337 -0.54740214 -2.6927202 -0.7231403 0.06039052
homology 0.55026984 0.7265641 0.06370638 0.7141085 0.69408745 -0.39484388 0.46997178 -0.042682383 0.43949273 0.34664235 -0.7498594 0.2062539 -0.21147373 0.40268102 -0.32980287 -0.7031385 -0.2612456 -1.2566729 -0.33611658 0.021027902
barbed 0.7158659 0.93518627 0.079245605 0.9052614 0.8866604 -0.5081557 0.59406847 -0.040642425 0.5496745 0.45181078 -0.99255943 0.2542528 -0.2619215 0.535294 -0.42902827 -0.9022142 -0.3304174 -1.6055864 -0.42023233 0.02835322
contains 1.1641154 1.5402937 0.15675522 1.4722509 1.4415983 -0.83907294 0.9765469 -0.0837571 0.9346743 0.70599276 -1.5758935 0.4139544 -0.4215156 0.8648406 -0.70049596 -1.4553503 -0.51662624 -2.597163 -0.6855342 0.052376457
characterized 0.8613387 1.1314949 0.10779729 1.0870469 1.0698979 -0.6153564 0.7263653 -0.06427322 0.6880087 0.51624614 -1.1645628 0.30509895 -0.30965164 0.63389355 -0.51778424 -1.075923 -0.38636804 -1.9074258 -0.5057962 0.041938826
cell-cell 0.83953035 1.1096404 0.10377263 1.0630869 1.0521066 -0.60493433 0.70879877 -0.055758175 0.6598715 0.52393025 -1.1342219 0.3038952 -0.31807426 0.6191077 -0.5028769 -1.0583323 -0.39021313 -1.882174 -0.50564104 0.04036126
RIP 0.21141683 0.2521797 0.025797192 0.23585446 0.2232718 -0.15027626 0.15966214 0.008893468 0.1567405 0.11580592 -0.27361622 0.05200333 -0.08386073 0.15905495 -0.119652666 -0.23873387 -0.095007256 -0.42707872 -0.10921114 0.004315849
together 0.691985 0.9101505 0.085313335 0.8781746 0.85063046 -0.49472472 0.5885653 -0.06315051 0.5378964 0.41722697 -0.93948704 0.25777158 -0.26349503 0.5116788 -0.4100489 -0.85968214 -0.31353047 -1.5439206 -0.4076039 0.037493095
death 0.62056553 0.8168075 0.07597042 0.7900421 0.7780598 -0.43950465 0.5223955 -0.047194663 0.48993298 0.37835103 -0.8422543 0.22772141 -0.23760225 0.46226898 -0.37725052 -0.781285 -0.28734714 -1.3786398 -0.3804413 0.031957597
demonstrate 0.80339205 1.0614204 0.10461231 1.0187997 0.9870312 -0.58130103 0.67422765 -0.04858194 0.6441682 0.49565202 -1.0827054 0.31232947 -0.30069554 0.5932595 -0.48638085 -1.0090841 -0.37438813 -1.7988344 -0.46787378 0.042600326
several 0.70142657 0.91477543 0.08259514 0.8911326 0.85618937 -0.50203717 0.57559955 -0.057773016 0.5527594 0.4269889 -0.9432246 0.25263977 -0.26472247 0.51862603 -0.41388714 -0.8862265 -0.3090521 -1.5567753 -0.4117616 0.031618446
rates 1.3694478 1.8029935 0.16662551 1.7469597 1.6970657 -0.99085164 1.1575936 -0.099867456 1.0896351 0.826485 -1.8542897 0.508137 -0.51411563 1.0161439 -0.83672065 -1.7123797 -0.6055397 -3.060253 -0.8179932 0.06992426
investigated 1.0246582 1.3572087 0.13365479 1.31322 1.2840909 -0.73893696 0.8714294 -0.07333821 0.81156254 0.63278997 -1.4019134 0.3916837 -0.3900231 0.7665252 -0.6202126 -1.3022553 -0.46914372 -2.3090377 -0.6103607 0.0430017
ATP 0.19852519 0.2812579 0.022647584 0.25081497 0.25767404 -0.14536595 0.17653248 -0.030632233 0.1677809 0.11819577 -0.2974735 0.078642 -0.08795589 0.13653027 -0.14196143 -0.25541857 -0.095583335 -0.450746 -0.11527463 0.017569361
S. 0.3342058 0.4127879 0.035505325 0.38955456 0.41324896 -0.24153474 0.27716976 -0.036747858 0.27868718 0.20177485 -0.43851656 0.12525119 -0.09265034 0.25785452 -0.18695961 -0.40021107 -0.1633764 -0.7296272 -0.20792586 -0.021582916
accumulation 1.1697142 1.5301609 0.14203064 1.4921364 1.4552602 -0.8448078 0.9806783 -0.08053796 0.91433644 0.7038419 -1.5665864 0.42292348 -0.43843704 0.84528184 -0.6975271 -1.448569 -0.527607 -2.6013336 -0.69857293 0.06668754
pattern 0.48143056 0.63973254 0.066776045 0.6184524 0.59391546 -0.34549418 0.40683523 -0.03599987 0.39323655 0.29531762 -0.6553735 0.17873213 -0.18452686 0.35551834 -0.29407024 -0.61018026 -0.21651007 -1.092509 -0.2870789 0.020409273
inhibits 0.90343004 1.2039284 0.11410969 1.1560057 1.1271316 -0.6460658 0.76572835 -0.06560745 0.72435564 0.5632261 -1.2367364 0.34811676 -0.3465459 0.67169523 -0.540818 -1.1348771 -0.4152441 -2.0233057 -0.5435009 0.040128827
could 0.48995513 0.6662027 0.06767273 0.62796086 0.6175264 -0.36327258 0.41263723 -0.024635453 0.39989558 0.3025416 -0.67653716 0.17902063 -0.1932786 0.36898267 -0.29411417 -0.62196827 -0.22996382 -1.0949271 -0.28789806 0.027086897
tumor 0.5087597 0.6834149 0.06907879 0.65098923 0.64728874 -0.3604641 0.43063858 -0.021909457 0.40639824 0.30759925 -0.7003282 0.19091067 -0.19001716 0.37210205 -0.3132514 -0.64410263 -0.23387232 -1.1396731 -0.30410022 0.030785652
properties 0.77143764 1.0219587 0.095114015 0.98816967 0.9541839 -0.5625668 0.6593907 -0.0496298 0.6185996 0.4747519 -1.054998 0.29227093 -0.29903385 0.5705633 -0.46825883 -0.97103107 -0.35380372 -1.729028 -0.45858204 0.041363113
strongly 0.5394127 0.70791286 0.07027239 0.69054306 0.66012335 -0.38043892 0.44518018 -0.032236878 0.4297675 0.32800788 -0.73188746 0.20060384 -0.20069362 0.39008808 -0.31543154 -0.66109043 -0.25220826 -1.1989955 -0.30791646 0.02464126
via 0.39870623 0.536832 0.044293225 0.510084 0.5107812 -0.31351066 0.34380752 -0.02068608 0.32167986 0.2567645 -0.5680939 0.13558221 -0.1635863 0.2893019 -0.23905888 -0.5099759 -0.17386353 -0.88498366 -0.25351876 -0.0045510447
interacts 1.0441155 1.3772523 0.124319345 1.3184444 1.293981 -0.74876 0.88770217 -0.07673531 0.8347173 0.6358017 -1.4209684 0.3881376 -0.38902527 0.76011723 -0.62965655 -1.3057765 -0.47116625 -2.329526 -0.6213687 0.050284624
core 1.0397335 1.3656067 0.13737147 1.3246636 1.2974768 -0.74332386 0.8695431 -0.07041062 0.8255527 0.62655234 -1.3980409 0.38471985 -0.37926596 0.7798671 -0.63008916 -1.3082006 -0.47690907 -2.3216624 -0.60528284 0.04254174
mouse 0.71135134 0.9275592 0.08976775 0.8974205 0.8623368 -0.5019239 0.5962857 -0.046319135 0.5612805 0.4159065 -0.9553417 0.26065108 -0.2760819 0.5137754 -0.4226314 -0.875363 -0.32336676 -1.5770742 -0.41561309 0.028478438
does 0.8964224 1.18077 0.09662222 1.1594392 1.1336008 -0.6488877 0.77159005 -0.07893335 0.71687627 0.5493924 -1.2254897 0.33164626 -0.3427595 0.657716 -0.54550296 -1.1265444 -0.41907528 -2.0374281 -0.5290038 0.038174
cycle 0.69150203 0.9154936 0.09042459 0.8683797 0.84684956 -0.48004496 0.5809732 -0.03818978 0.5383663 0.41162294 -0.91402 0.246628 -0.2545773 0.5139136 -0.41950694 -0.85736215 -0.31402385 -1.5213009 -0.4177155 0.030646808
CREB 0.11978082 0.16992465 0.010944634 0.15464298 0.13558163 -0.09235588 0.10834319 -0.025063368 0.09355536 0.07462736 -0.16007909 0.021884613 -0.03980198 0.08241817 -0.081485696 -0.15591656 -0.06476968 -0.26909843 -0.08136987 0.018989198
epithelial 0.68228865 0.9010007 0.086387984 0.8661986 0.851056 -0.48750824 0.5732444 -0.046315446 0.54495144 0.41051763 -0.9207353 0.2516751 -0.2558357 0.5030442 -0.4133366 -0.85432196 -0.3089442 -1.525816 -0.40891048 0.0313908
N-cadherin 0.88814944 1.1821223 0.108215 1.1403368 1.1450032 -0.65979034 0.776319 -0.10859529 0.6940899 0.5185213 -1.2161454 0.33612093 -0.353833 0.6881999 -0.5558141 -1.1167825 -0.42913973 -2.0740433 -0.54901856 0.01825249
microscopy 0.48464727 0.63860047 0.055695657 0.6045895 0.5891676 -0.3444721 0.40048775 -0.035145156 0.38130608 0.29189754 -0.6446101 0.18787259 -0.17686102 0.35573745 -0.29021725 -0.5996174 -0.21838467 -1.0665878 -0.28253597 0.015176441
following 0.7952867 1.064091 0.10522979 1.0373507 1.0070277 -0.58110696 0.67929274 -0.05872523 0.63267535 0.49307567 -1.0893921 0.2937397 -0.29834765 0.59951144 -0.48145062 -1.0122418 -0.36324793 -1.797367 -0.47695756 0.038302094
Although 0.31412843 0.4206585 0.040690858 0.39969146 0.39455184 -0.22154252 0.25625387 -0.03402384 0.2545234 0.20214121 -0.42792013 0.11417618 -0.119454354 0.24003594 -0.19136819 -0.3944781 -0.15719879 -0.69838786 -0.17918432 0.013487744
small 0.5034498 0.67174983 0.050156593 0.6361682 0.6228773 -0.35941687 0.4300408 -0.039061937 0.39269942 0.31332582 -0.6831789 0.17272002 -0.19736409 0.37888432 -0.29597935 -0.6371037 -0.2272302 -1.1147643 -0.29979855 0.02570511
development 0.7430721 0.9803143 0.095688045 0.9494844 0.9186282 -0.53199047 0.62352055 -0.044115648 0.5930217 0.44877234 -1.0012206 0.2736877 -0.27442095 0.55478984 -0.44763687 -0.9309622 -0.3364686 -1.6423941 -0.44030893 0.039448507
subunits 0.512767 0.67136943 0.05719428 0.6285436 0.62731856 -0.35660684 0.4171944 -0.03190157 0.39768448 0.31106016 -0.6793048 0.17983066 -0.1880457 0.36921388 -0.30380768 -0.6343788 -0.22349986 -1.1233069 -0.30024967 0.03230019
level 0.5324985 0.7007769 0.04791917 0.6745485 0.66788685 -0.36233222 0.4392702 -0.031242294 0.42662764 0.32622877 -0.716649 0.20590454 -0.19386773 0.40129185 -0.32792434 -0.65837574 -0.24367218 -1.2035319 -0.3154284 0.025563631
seen 0.60772854 0.78943574 0.07058058 0.75587213 0.75369734 -0.4299925 0.51244694 -0.039766416 0.49094915 0.36972964 -0.8182882 0.23455657 -0.22363643 0.44702247 -0.3584617 -0.77230704 -0.276029 -1.3419904 -0.364038 0.025161954
manner 0.44837585 0.58971334 0.06258042 0.5744926 0.55743265 -0.32555062 0.3748866 -0.025587868 0.3526415 0.28127643 -0.61114275 0.17025386 -0.17209037 0.34172738 -0.2721939 -0.56129813 -0.2035632 -1.0124413 -0.2619196 0.030845962
conditions 1.1754726 1.563159 0.15450838 1.5196503 1.4792742 -0.8660653 1.0115387 -0.085729085 0.94843596 0.72603786 -1.6049652 0.42962027 -0.4527494 0.8755639 -0.71095175 -1.4922 -0.5426278 -2.6504428 -0.70892024 0.070956185
experiments 0.8296913 1.1005483 0.10268852 1.0536388 1.0394006 -0.6028781 0.70496607 -0.058365174 0.66604 0.5111758 -1.1209327 0.2999061 -0.30732048 0.6171935 -0.4963148 -1.0384665 -0.3766857 -1.8482314 -0.4911814 0.040786024
phenotype 0.4275138 0.57657415 0.05143003 0.53640723 0.53123313 -0.30538943 0.36254415 -0.032915797 0.3463457 0.27062884 -0.5716245 0.14884739 -0.15371868 0.32622 -0.25445575 -0.5307492 -0.1907074 -0.9525901 -0.25164998 0.013143399
against 0.43431762 0.6001402 0.062169712 0.5690461 0.5599083 -0.3226658 0.37039736 -0.041856896 0.3613005 0.26542148 -0.6027864 0.15083818 -0.15568514 0.32989532 -0.25697014 -0.56308323 -0.20145388 -0.9946265 -0.27470192 0.014492017
regulator 0.8763834 1.1633097 0.10540224 1.1353458 1.0960673 -0.6382009 0.7263443 -0.06458212 0.6971035 0.5422832 -1.1801751 0.3252744 -0.34220663 0.656513 -0.5262151 -1.113833 -0.397514 -1.9704943 -0.53286994 0.046637278
number 0.37936845 0.49722695 0.03854765 0.4875276 0.46690118 -0.2762412 0.31646484 -0.019014245 0.30016705 0.23589678 -0.518583 0.13943589 -0.1486716 0.28512922 -0.22073328 -0.48904324 -0.1797524 -0.85671383 -0.22344236 0.024736429
decreased 1.0308977 1.3520048 0.12714554 1.298481 1.2593503 -0.72211146 0.8528881 -0.07243775 0.81663245 0.61110526 -1.3807123 0.38199055 -0.3737051 0.75459725 -0.6146419 -1.2991587 -0.46458185 -2.292613 -0.6051854 0.04301131
deaminase 0.81391984 1.0917987 0.09859966 1.0352609 1.0106442 -0.5845248 0.69769907 -0.058349844 0.6454228 0.5030408 -1.1173359 0.30533668 -0.29356584 0.6126377 -0.5029375 -1.0214605 -0.36468664 -1.8101026 -0.4903708 0.033491798
matrix 0.3079391 0.38978028 0.030024666 0.37270674 0.36985356 -0.21742015 0.2524855 -0.022243971 0.24505387 0.19348718 -0.4063855 0.11362662 -0.11539862 0.22488828 -0.18333897 -0.36834934 -0.13753355 -0.67552584 -0.16409077 -0.0014838873
microfilaments 0.9677911 1.2611895 0.10789535 1.2274569 1.1929812 -0.7013808 0.8126485 -0.06041598 0.7746934 0.5939531 -1.293441 0.34846568 -0.35549894 0.70887494 -0.5779364 -1.202089 -0.4329721 -2.1342974 -0.56599444 0.048623133
vascular 0.5717606 0.7647298 0.0729083 0.7381062 0.71627814 -0.41509992 0.48178974 -0.03784035 0.4615444 0.3516314 -0.7924982 0.20518215 -0.2098428 0.42088094 -0.34738517 -0.71370494 -0.26307967 -1.2743688 -0.33912602 0.030187555
component 1.023867 1.3668907 0.13285553 1.316087 1.2925606 -0.748172 0.87308645 -0.080358505 0.8248375 0.62959445 -1.4088032 0.37544176 -0.38389382 0.76607215 -0.62808454 -1.3032123 -0.4800026 -2.310455 -0.6149851 0.050653663
five 0.6652159 0.9192526 0.091548994 0.8794436 0.8266215 -0.4930589 0.55935407 -0.04372852 0.55009073 0.4172776 -0.9190865 0.2561731 -0.24335451 0.49834487 -0.41170442 -0.8631533 -0.30441445 -1.514898 -0.41236755 0.033271395
cadherin 1.137734 1.5188265 0.13991891 1.4646835 1.4557345 -0.84149355 0.99036926 -0.12696618 0.8933814 0.6679866 -1.5545245 0.42942682 -0.45081353 0.8781437 -0.7119135 -1.433037 -0.5483976 -2.6377468 -0.7074182 0.025517495
mismatch 0.33376345 0.42793077 0.03306329 0.41817644 0.3958737 -0.23082599 0.27551055 -0.026601398 0.2508514 0.1967522 -0.4537577 0.13342826 -0.12448462 0.23826265 -0.20201097 -0.40762708 -0.14945163 -0.7260734 -0.18328705 0.012514813
differentiation 1.2576498 1.671409 0.15928417 1.6176403 1.5716025 -0.9186096 1.0621135 -0.092254415 0.99910456 0.77558637 -1.7120525 0.47011226 -0.4744002 0.9274766 -0.75625694 -1.5948427 -0.5685221 -2.8293607 -0.75687784 0.071954384
herpes 0.7872871 1.0437009 0.09369806 1.0059835 0.9609103 -0.57900417 0.6677286 -0.054635048 0.6328325 0.48388025 -1.0685829 0.29569152 -0.29671147 0.6001517 -0.4676713 -1.0064389 -0.35746425 -1.7664957 -0.47228488 0.042529672
deletion 1.3261964 1.7626059 0.15873015 1.7142333 1.6644031 -0.971845 1.1359848 -0.09157056 1.0737619 0.8002175 -1.8176644 0.50023896 -0.49350402 0.97722673 -0.8152351 -1.6790749 -0.6000336 -2.986788 -0.7941948 0.08351902
measured 0.7942332 1.0452231 0.10397817 1.009555 0.988876 -0.5666966 0.6627118 -0.056443855 0.6324519 0.4858579 -1.0704312 0.29291433 -0.29498518 0.5899977 -0.47251335 -0.9857304 -0.36305335 -1.7773432 -0.4577221 0.0335813
infected 1.208393 1.6051666 0.15747614 1.5331299 1.5095513 -0.86572194 1.0154935 -0.081706874 0.9709512 0.739841 -1.6340109 0.45501065 -0.44858366 0.90541697 -0.7243879 -1.5323386 -0.54430115 -2.716914 -0.7138035 0.05842461
