5200 50
, 0.0651015 0.11658534 -0.35567334 -0.44337162 0.0508597 0.1258085 -0.10822768 0.12430484 -0.20996436 -0.3828595 -0.44888055 0.05702861 0.71409076 -0.15638752 -0.149926 0.09702226 -0.44368 0.2158762 0.06557705 0.14354074 -0.3807863 -0.5017104 -0.2235442 0.22331013 -0.414673 0.50107944 0.10200501 -0.5153196 -0.1265368 -0.6599467 0.062939934 0.35130283 0.26412135 -0.41314083 0.051357146 -0.083470546 0.48189756 -0.29418832 0.45869553 -0.29775932 -0.47367728 -0.44172654 0.3434746 0.044989474 0.115322836 -0.061813463 -0.16006188 0.3319561 -0.13270253 0.0044453098
of 0.093809895 0.14034718 -0.30935448 -0.30115247 -0.032187495 0.10220953 0.05961826 0.3403485 -0.1528927 -0.45982856 -0.39445713 0.016388731 0.63170034 -0.08533181 -0.20410137 0.07026514 -0.37286374 0.12433291 0.03966013 0.23854558 -0.2782162 -0.35194457 -0.22754061 0.10151967 -0.3712207 0.47418562 0.014219938 -0.35724422 -0.043161497 -0.61592096 0.15744922 0.48259592 0.31140667 -0.36506325 0.100646965 -0.052359205 0.28635427 -0.1749567 0.43855864 -0.15069555 -0.3206933 -0.5004691 0.31012586 -0.20816235 -0.028109848 0.15129595 -0.041224197 0.29625797 -0.22019248 0.19913532
the 0.12857667 0.15885188 -0.32322824 -0.31502888 -0.016295748 0.08738783 0.050736446 0.34400192 -0.15945178 -0.45314297 -0.4424299 0.024530867 0.6048181 -0.047437597 -0.20142233 0.071014024 -0.38118684 0.124332316 0.06328527 0.2592553 -0.30461824 -0.37731826 -0.21785025 0.07730325 -0.30307436 0.46397674 0.04311022 -0.34697443 -0.03976929 -0.5320148 0.14289048 0.44413006 0.28897566 -0.36080238 0.16126692 -0.022705557 0.20697224 -0.20515126 0.41700485 -0.11928663 -0.24126539 -0.49687022 0.31333998 -0.17687927 -0.042589676 0.18691653 0.0023130057 0.26849943 -0.19618389 0.18279971
and 0.06464037 0.14422071 -0.3337476 -0.44182092 0.011342697 0.11627966 -0.06762046 0.15081795 -0.19570675 -0.4023616 -0.4861805 0.08850811 0.7115315 -0.15304837 -0.1975992 0.12415093 -0.3798178 0.12982075 0.032886602 0.14726226 -0.28745645 -0.49407253 -0.20869076 0.18866824 -0.4378021 0.4946769 0.09449739 -0.48132136 -0.096905656 -0.65656906 0.080873236 0.40521076 0.22963244 -0.38320032 0.042570166 -0.13968056 0.42299956 -0.2783462 0.47127175 -0.2513164 -0.46658978 -0.4525991 0.4119869 -0.08718805 0.15128219 -0.008734536 -0.13250375 0.33923435 -0.13076866 0.035761733
. 0.068041846 0.13914508 -0.2768059 -0.33492538 0.010800602 0.07572389 -0.039655454 0.20157601 -0.15910469 -0.4271629 -0.43465638 0.03141517 0.6373059 -0.05324223 -0.15124778 0.0849332 -0.322933 0.05312221 0.10396681 0.18912864 -0.27034375 -0.42928547 -0.23127148 0.16173379 -0.25285453 0.43800846 0.14566614 -0.42965448 -0.04767713 -0.55113316 0.074767984 0.3859563 0.19838129 -0.3293828 0.11531136 -0.058808737 0.38068092 -0.31019652 0.38432792 -0.13879614 -0.28203645 -0.41462538 0.48440385 -0.09410269 0.08324346 0.04372089 -0.07299235 0.23765737 -0.22634865 0.042293355
in 0.10692289 0.14387652 -0.30775404 -0.29648808 -0.06541362 0.10278434 0.006770855 0.32446748 -0.11938486 -0.4582861 -0.39649886 0.08244506 0.63728017 -0.055150118 -0.1767934 0.04576796 -0.36922377 0.05462387 0.093142755 0.2360952 -0.28720704 -0.32315192 -0.27087718 0.08753656 -0.25144953 0.42640418 0.06715826 -0.32639274 -0.063118584 -0.5525627 0.09748794 0.46319467 0.2497968 -0.32477936 0.1599353 -0.02369345 0.29695553 -0.22316927 0.40175244 -0.11969714 -0.2702121 -0.463502 0.37708205 -0.15388067 -0.018089224 0.14773002 -0.042919204 0.24228942 -0.2535332 0.1633036
actin 0.11483917 0.14346606 -0.27503917 -0.38448486 0.016588606 -0.004471211 -0.014528453 0.13151477 -0.1720566 -0.46481696 -0.5709349 0.08947508 0.7180856 -0.09990912 -0.21926059 0.1456585 -0.24170224 -0.017789323 0.1414506 0.12711416 -0.20510037 -0.48514152 -0.24372691 0.20252775 -0.37655914 0.58309466 0.200228 -0.4617506 -0.03495097 -0.64092416 0.10072994 0.40988895 0.06865061 -0.38361272 -0.0117614055 -0.18035565 0.3998574 -0.30698144 0.46679103 -0.16565587 -0.41136342 -0.4050454 0.62013304 -0.24984862 0.29554874 0.0013579163 -0.12378413 0.31523967 -0.17943642 0.03438002
to 0.081642605 0.117989965 -0.34376052 -0.29217696 -0.06627981 0.13439524 0.06838401 0.38672933 -0.12470418 -0.46825626 -0.38379687 0.08188733 0.5911359 -0.04238719 -0.19164148 0.0621523 -0.39888382 0.115972966 0.08353537 0.22800098 -0.3165597 -0.33428895 -0.27605638 0.06650004 -0.3022522 0.42635527 -0.019949388 -0.35560015 -0.05817154 -0.5483096 0.1581716 0.48367274 0.32103065 -0.31295547 0.22848143 0.012959414 0.25022402 -0.17200354 0.41606182 -0.16089459 -0.24099533 -0.4868565 0.3031052 -0.15409623 -0.08874734 0.17091273 -0.020103315 0.2539394 -0.228567 0.22738712
) 0.05100204 0.10858577 -0.27904636 -0.43024454 0.09842549 0.100493714 -0.16646309 0.002435612 -0.31507137 -0.26462084 -0.48260927 -0.11762493 0.6052019 -0.091317676 -0.033173367 0.06945362 -0.34905112 0.18434335 0.1788012 0.15438762 -0.41542023 -0.6023521 -0.09282607 0.2557213 -0.29483312 0.437715 0.28076845 -0.6124321 -0.093281925 -0.6224681 0.054905634 0.24146837 0.2921049 -0.50588155 0.035304174 -0.026425026 0.52670634 -0.5319748 0.47139126 -0.31118402 -0.27991757 -0.40984285 0.5375983 0.10583893 0.16364804 -0.09503734 -0.16875032 0.18290952 -0.2245443 -0.21511254
( 0.033672944 0.098053485 -0.26280865 -0.5047967 0.18592757 0.06804772 -0.16737482 0.031523746 -0.31511545 -0.31108877 -0.50808203 -0.094958626 0.6262966 -0.10219492 -0.024791325 0.08665936 -0.3351986 0.1429839 0.11366628 0.12586074 -0.39158997 -0.6330134 -0.10696936 0.24315156 -0.29056042 0.46878564 0.3347517 -0.64569694 -0.06369142 -0.63053125 0.027933145 0.2394713 0.23903544 -0.49855134 0.076246925 -0.03430923 0.51322263 -0.52040786 0.46393153 -0.25213364 -0.28223655 -0.339296 0.588132 0.18140122 0.18654206 -0.113338344 -0.15410265 0.15374732 -0.18170728 -0.24503334
a 0.08673439 0.14908627 -0.3031829 -0.2655944 -0.032261785 0.1139479 0.0005901056 0.33778548 -0.11679041 -0.43154985 -0.36773288 0.04408372 0.5633768 -0.014348852 -0.1596791 0.016843423 -0.38261506 0.11504852 0.11010239 0.25442532 -0.31995335 -0.3467514 -0.24844687 0.08201632 -0.2027599 0.40862048 0.06419983 -0.38198885 -0.037895907 -0.5322982 0.12534063 0.4380726 0.27492702 -0.32969105 0.24416417 -0.0028973734 0.2741217 -0.25772563 0.38872406 -0.0959743 -0.19460677 -0.45144334 0.36347935 -0.09843161 -0.10921321 0.15529323 -0.010185204 0.2176328 -0.22749452 0.17352208
with 0.08708352 0.12507637 -0.33139342 -0.3118844 -0.06622788 0.122851826 0.04608545 0.34071505 -0.12516363 -0.4798961 -0.37573755 0.08477707 0.6309377 -0.07782098 -0.17230748 0.07322618 -0.405481 0.12508115 0.03551753 0.22097811 -0.29442737 -0.34933987 -0.2830044 0.07689438 -0.32735947 0.42028412 -0.0117989015 -0.38454202 -0.054915637 -0.5603217 0.10626704 0.44352052 0.3307838 -0.33506808 0.19745494 -0.017595626 0.28666562 -0.19404598 0.41456977 -0.1576676 -0.29929996 -0.48584062 0.28141776 -0.11711956 -0.07028706 0.15049443 -0.009077824 0.30198425 -0.21704386 0.23039249
that 0.10826431 0.15486525 -0.30792353 -0.27696982 -0.0800345 0.13231425 0.0042952527 0.3512645 -0.105990976 -0.4593154 -0.34145063 0.03696863 0.5650257 -0.03687723 -0.19122031 -0.021869242 -0.38856506 0.08539468 0.10734833 0.2600062 -0.30652878 -0.3119075 -0.2234834 0.046626996 -0.19747224 0.40370002 0.03482773 -0.34633055 -0.020938883 -0.5328834 0.13568911 0.48553577 0.2665206 -0.34341 0.25552025 0.012734311 0.24994779 -0.23690335 0.3920127 -0.06531594 -0.15869324 -0.44414547 0.4007077 -0.12657349 -0.12685025 0.15030119 0.0005492036 0.21071279 -0.2667273 0.23506753
profilin 0.0984613 0.15027462 -0.2743705 -0.28232723 -0.04548542 0.07960558 0.050252296 0.3801685 -0.14600526 -0.4595596 -0.43599197 0.039111488 0.5916647 -0.040490393 -0.22419593 0.047915336 -0.3236874 0.0688518 0.08301062 0.24900168 -0.28899246 -0.34892058 -0.25711235 0.037036065 -0.28906643 0.46407154 0.038202092 -0.34505278 -0.0010437072 -0.549364 0.16363686 0.46751848 0.28867853 -0.3272224 0.18776701 -0.0371991 0.22649807 -0.1584212 0.41089243 -0.099186905 -0.23219901 -0.47449905 0.3599428 -0.21496512 -0.042597774 0.16729741 -0.0085962005 0.25706536 -0.21231477 0.21110807
for 0.059890416 0.12667729 -0.2940013 -0.30285144 -0.026745025 0.10707305 -0.037948024 0.27399585 -0.17022635 -0.44598916 -0.40058243 0.037934467 0.61417025 -0.06883763 -0.15227225 0.03658888 -0.35002258 0.0728819 0.12056906 0.22121108 -0.3019379 -0.39682773 -0.2345685 0.100975364 -0.2604826 0.4271822 0.114455014 -0.40516755 -0.054326024 -0.5400111 0.099396974 0.41482297 0.23952389 -0.36683264 0.13447717 -0.042191412 0.31611252 -0.29222256 0.40452752 -0.16103536 -0.25367346 -0.4208808 0.42315972 -0.09794914 0.004296307 0.075243264 -0.064578995 0.23602988 -0.24666151 0.10310638
is 0.08494281 0.14575909 -0.31100935 -0.24983408 -0.06448976 0.13248627 0.019697707 0.38603187 -0.11976259 -0.46641675 -0.36924076 0.032016963 0.56129366 -0.025169399 -0.1795431 0.011796171 -0.38180956 0.09120559 0.09145274 0.26360998 -0.3288159 -0.31073657 -0.25561404 0.034431405 -0.21890545 0.3968392 0.04051962 -0.3486895 -0.039884467 -0.5214993 0.14270703 0.47830373 0.3087723 -0.33358216 0.25226423 0.022436732 0.23297912 -0.20121856 0.37496328 -0.10546295 -0.17195775 -0.45378125 0.3353239 -0.14983864 -0.11503256 0.18630356 0.013459935 0.20490925 -0.22172298 0.21004757
by 0.09554556 0.1369024 -0.30493915 -0.25441283 -0.06255434 0.10673169 0.005676213 0.32366222 -0.11856547 -0.4561113 -0.3774984 0.0589864 0.59460634 -0.02678627 -0.14685327 0.01806825 -0.36342123 0.078758776 0.0937168 0.25454658 -0.3060651 -0.3231275 -0.25861666 0.07717004 -0.1939864 0.3896213 0.06563191 -0.36688673 -0.056517806 -0.50387096 0.09790939 0.4509072 0.26305947 -0.31509742 0.22351244 -0.021947471 0.2746542 -0.278731 0.3843523 -0.08823618 -0.19971432 -0.45402762 0.40237963 -0.13317804 -0.10171318 0.1527439 -0.015558526 0.22173901 -0.2633052 0.18532194
protein 0.091649495 0.108962245 -0.25879398 -0.3823932 0.04731752 0.096123405 -0.030195106 0.20797165 -0.22636251 -0.39115828 -0.4518497 -0.05572996 0.60644 -0.09712881 -0.14209038 0.0843523 -0.38222116 0.1348509 0.13357227 0.22073092 -0.36948743 -0.47704712 -0.13908032 0.10877928 -0.34992248 0.4856915 0.13952206 -0.46289313 -0.027650146 -0.61329603 0.13364214 0.36809924 0.29449412 -0.4515227 0.12635279 -0.050804492 0.3280615 -0.2995542 0.43072274 -0.20947354 -0.27261773 -0.42754784 0.39905277 -0.022114143 0.053998686 0.06807604 -0.111019745 0.2266163 -0.16526692 0.0035506366
The 0.06601663 0.15350093 -0.27572224 -0.2305114 -0.040310297 0.10497331 -0.024693338 0.27598697 -0.113496184 -0.43526402 -0.35437304 0.05386804 0.54518557 -0.023382034 -0.13634811 0.014516576 -0.33817592 0.04803368 0.12537235 0.25587675 -0.2939654 -0.32738703 -0.25818306 0.10370474 -0.1508171 0.3616249 0.08508837 -0.37173846 -0.044480484 -0.4833726 0.06177566 0.43491223 0.21143754 -0.31282288 0.22244965 -0.0041902526 0.30249718 -0.3178186 0.3357902 -0.038888633 -0.13845281 -0.40702403 0.4511972 -0.09349679 -0.081018195 0.08202869 -0.006311879 0.19415775 -0.2834753 0.14523563
proteins 0.09420081 0.14447933 -0.32391798 -0.36625814 -0.021312684 0.1207589 -0.02215668 0.27987638 -0.17855215 -0.42223334 -0.42792994 0.043838706 0.6483651 -0.09949842 -0.18856658 0.06835944 -0.38830793 0.11221402 0.06761381 0.2146451 -0.33672476 -0.41031143 -0.20675051 0.090153016 -0.34329623 0.45731106 0.055261675 -0.38878515 -0.046841558 -0.5775801 0.115664154 0.41854265 0.26721793 -0.3825935 0.13061842 -0.0685219 0.31988204 -0.24697165 0.42159066 -0.16369309 -0.3143737 -0.46848533 0.34510162 -0.097665206 -0.014627082 0.097112484 -0.07714001 0.27844346 -0.1669448 0.1236338
was 0.09462132 0.14626205 -0.30479047 -0.32106236 -0.03579904 0.11923584 -0.031221662 0.23444165 -0.13925552 -0.42823073 -0.3840443 0.07349521 0.6101604 -0.07285979 -0.15182395 0.042488575 -0.34282896 0.09007916 0.08698186 0.18484734 -0.30055928 -0.38298634 -0.25351083 0.16714914 -0.2504965 0.3970856 0.09155848 -0.4076669 -0.07908548 -0.55209565 0.07606893 0.43041787 0.21330035 -0.33013812 0.1622263 -0.036999173 0.32548645 -0.28986388 0.3852532 -0.14989154 -0.2745822 -0.41127002 0.4115517 -0.09808544 0.005090251 0.044784028 -0.06264283 0.24342173 -0.1918353 0.13476883
beta-catenin 0.14020675 0.08983677 -0.49509048 -0.5670872 0.040366836 0.21987566 0.014177129 0.25934708 -0.18502459 -0.39577487 -0.43707234 0.12527333 0.74309903 -0.26394144 -0.21015567 0.13664791 -0.6063843 0.45242953 -0.0794654 0.061521966 -0.4294958 -0.48375827 -0.28299493 0.21668735 -0.71202654 0.5716914 -0.09788568 -0.46531874 -0.22655064 -0.80957687 0.1065792 0.44515258 0.51168954 -0.49635193 0.07665232 0.0017061284 0.4307757 -0.082415976 0.61897004 -0.5007116 -0.7860309 -0.5899174 -0.05325035 0.0206178 0.0014305853 0.12331712 -0.096800454 0.50940996 -0.036616143 0.22712527
cells 0.07726876 0.1468001 -0.3122465 -0.24952222 -0.063519135 0.13086535 0.014243658 0.34873232 -0.08687068 -0.4559241 -0.35520843 0.073649004 0.58131 -0.008744183 -0.16261181 0.014964601 -0.3466712 0.062477816 0.095507205 0.2568398 -0.26694563 -0.31582138 -0.2693053 0.071916156 -0.18866442 0.37619716 0.025388917 -0.3290741 -0.050874636 -0.4802764 0.07967406 0.45132703 0.25798652 -0.2698947 0.23729576 -0.0025886146 0.25149816 -0.2690237 0.34764317 -0.06608737 -0.18489203 -0.46143675 0.37712958 -0.13605292 -0.094388954 0.1418157 0.019190745 0.24342053 -0.24504784 0.20260279
myosin 0.04112056 0.15931208 -0.21731582 -0.622406 0.14604464 -0.03070224 -0.28217652 -0.28491428 -0.2644779 -0.41180754 -0.72993666 0.10597467 0.9441907 -0.17559958 -0.13613614 0.18700121 -0.098924376 -0.17935674 0.25301892 0.057271127 -0.19739711 -0.7453007 -0.21272595 0.5840213 -0.30999267 0.6915885 0.5489215 -0.745079 -0.09473701 -0.72902614 -0.13248876 0.34536976 -0.298354 -0.48384106 -0.19730112 -0.37891462 0.83043873 -0.8017929 0.45084962 -0.12665126 -0.53851557 -0.27560434 1.19765 -0.05982626 0.742409 -0.43869483 -0.35795024 0.24250427 -0.20759201 -0.40715113
alpha-catenin 0.12965111 0.108493626 -0.4739961 -0.53145516 -0.0108196065 0.2101618 -0.010543934 0.2893763 -0.23619886 -0.39316186 -0.45744553 0.11121526 0.7442055 -0.25369617 -0.23259237 0.16569413 -0.63575906 0.44745705 -0.14340226 0.05095874 -0.46196142 -0.51097053 -0.27035934 0.1607544 -0.71688 0.61319995 -0.10769606 -0.47990623 -0.16880676 -0.80127513 0.17334019 0.4850208 0.53932387 -0.47789437 0.0511292 -0.022069635 0.42761174 -0.0418575 0.61334866 -0.5100417 -0.7913583 -0.6365086 -0.09885837 -0.018294536 0.029072937 0.09452599 -0.14030825 0.52400523 0.014161891 0.24318244
binding 0.08519136 0.10672822 -0.31191272 -0.3208848 -0.0449195 0.13552974 0.02833045 0.34454167 -0.14775975 -0.44647306 -0.42620125 0.05150695 0.6005313 -0.058013238 -0.19077973 0.089779176 -0.40331894 0.12685086 0.061903812 0.19805855 -0.3119984 -0.36895618 -0.22971034 0.07958675 -0.3475362 0.46122494 0.03731329 -0.38044727 -0.031134063 -0.5821605 0.18560074 0.47201896 0.3363553 -0.3783239 0.16883433 -0.026158351 0.2872734 -0.16155104 0.42625085 -0.18350169 -0.30200952 -0.4781373 0.27363208 -0.15184173 -0.022381142 0.16465032 -0.028416058 0.25574028 -0.16755857 0.20084967
chain 0.028154027 0.2191897 -0.18837793 -0.60853255 0.13169932 -0.06541537 -0.30632907 -0.27714643 -0.30202988 -0.46889055 -0.7434621 0.09817557 0.95326966 -0.10283878 -0.21687908 0.2285177 -0.15391181 -0.10750783 0.23803867 0.067025766 -0.17516768 -0.8057456 -0.19303383 0.556011 -0.33276972 0.6982236 0.5223183 -0.83443105 -0.1338283 -0.7777395 -0.14266998 0.32917494 -0.2654465 -0.4447201 -0.2409549 -0.37044477 0.81796455 -0.79461753 0.5080694 -0.17370875 -0.5089855 -0.28057584 1.2611995 -0.0880131 0.7471506 -0.466459 -0.326882 0.285009 -0.2716079 -0.40646353
are 0.09041032 0.1594886 -0.3262392 -0.23702128 -0.061609615 0.1551256 -0.010958704 0.37360886 -0.10849723 -0.50282824 -0.3344726 0.054997608 0.59489226 -0.03390278 -0.16080596 -0.008767772 -0.3901809 0.055425815 0.12314519 0.27257913 -0.32985717 -0.30723166 -0.28823245 0.072368115 -0.19410723 0.35805267 0.043779705 -0.34844637 -0.036396045 -0.4891352 0.101744264 0.45771924 0.28414127 -0.33047402 0.25733545 0.012165091 0.25039804 -0.27550387 0.3600782 -0.0842677 -0.16996862 -0.4761099 0.38808462 -0.11796479 -0.15467848 0.13451913 0.027110267 0.21014766 -0.2676792 0.2208339
were 0.08393596 0.12396063 -0.31382632 -0.32880816 0.0030466912 0.15034144 -0.03927177 0.23598313 -0.15497692 -0.40478644 -0.3787847 0.04010617 0.6160817 -0.06618813 -0.14092834 0.04763882 -0.38054338 0.1270801 0.06466949 0.19431399 -0.32952747 -0.38676625 -0.24467626 0.13057092 -0.2908084 0.39962026 0.07849355 -0.42678455 -0.08020961 -0.565742 0.076856755 0.3821446 0.29445472 -0.35021806 0.17404605 -0.014422781 0.34641933 -0.28864494 0.40826392 -0.18682875 -0.31912825 -0.44762674 0.36422268 -0.041794695 -0.004256698 0.05864327 -0.04675541 0.2625326 -0.1869411 0.09589335
cofilin 0.087982155 0.13412449 -0.27639708 -0.29686093 -0.026495198 0.104316965 0.016683806 0.32827762 -0.13744241 -0.44108588 -0.3778395 0.052424986 0.5632036 -0.021276422 -0.16730869 0.036056682 -0.34687552 0.07276836 0.10015044 0.2450016 -0.31090635 -0.31978768 -0.24266729 0.04947244 -0.23071155 0.42751765 0.065253094 -0.3518786 -0.02182976 -0.525927 0.12600231 0.42903575 0.2782148 -0.31839663 0.18955392 -0.026030324 0.26185983 -0.1879816 0.37737215 -0.0905662 -0.20590886 -0.45124695 0.36119017 -0.12976386 -0.06330509 0.16365452 -0.034716073 0.22989994 -0.20464742 0.15792474
as 0.07047799 0.120125644 -0.3144203 -0.32154256 -0.04764679 0.10955428 -0.046791106 0.28817403 -0.14600684 -0.4065071 -0.39778066 0.05800154 0.6432098 -0.03915922 -0.1489665 0.049356155 -0.3683294 0.12528342 0.10513642 0.19963339 -0.33592957 -0.37053588 -0.2569883 0.12332443 -0.2462562 0.44149065 0.06550783 -0.4415722 -0.049600106 -0.57681495 0.10103517 0.42762798 0.28127876 -0.33336014 0.20151109 -0.050594024 0.37816185 -0.25032714 0.42115945 -0.10610349 -0.2809901 -0.4744155 0.36451772 -0.08636071 -0.024218036 0.07181166 -0.04287837 0.28864315 -0.20037644 0.12830801
heavy 0.06971216 0.17041181 -0.20578723 -0.5712299 0.12847416 -0.08085275 -0.33712885 -0.32903078 -0.25685313 -0.51755524 -0.73700464 0.073274165 0.96105844 -0.18952703 -0.11350775 0.18016057 -0.14352596 -0.20097266 0.20385297 0.004847676 -0.16266583 -0.7582436 -0.22874786 0.5994348 -0.36134577 0.68478924 0.5412743 -0.7583269 -0.15221456 -0.6699832 -0.15290941 0.40025377 -0.29377908 -0.4690449 -0.1869617 -0.3897763 0.8601705 -0.81566215 0.48976526 -0.1356114 -0.5735399 -0.29875013 1.2137282 -0.12246661 0.660649 -0.4642375 -0.2758632 0.3020359 -0.2286929 -0.33566964
not 0.059382826 0.1303961 -0.37173328 -0.32107025 0.013083305 0.08955741 0.034231193 0.26851287 -0.16115521 -0.46372375 -0.4213993 0.10792203 0.64589036 -0.045324024 -0.19358008 0.071088195 -0.39454544 0.088327765 0.04538176 0.20280547 -0.30830827 -0.39577782 -0.30108407 0.1439025 -0.26854014 0.46657214 0.012565676 -0.4356968 -0.08754039 -0.5504418 0.04809952 0.412068 0.29021046 -0.31211287 0.21001755 -0.0073579787 0.35293108 -0.2637587 0.40205255 -0.17899144 -0.28853858 -0.45084894 0.36106253 -0.09554721 -0.036497146 0.09978569 -0.0321948 0.282726 -0.18916969 0.17556773
or 0.056696065 0.12861365 -0.31503326 -0.36422038 0.026489876 0.10391288 -0.054582413 0.19585797 -0.19818023 -0.41632116 -0.45115867 0.040818363 0.637725 -0.09843943 -0.15532517 0.09131485 -0.38608712 0.12355887 0.05770809 0.17641778 -0.31858528 -0.47240245 -0.21099232 0.16832997 -0.33169302 0.4640741 0.116519585 -0.47895858 -0.08556219 -0.58980376 0.071702465 0.38891652 0.24256381 -0.38313884 0.12791182 -0.054331955 0.40225038 -0.3219053 0.4212495 -0.19753218 -0.34422684 -0.427648 0.4143552 -0.061358303 0.068796076 -0.0037436548 -0.07070479 0.26649448 -0.20050181 0.04728764
on 0.09374375 0.1693007 -0.2830087 -0.2631374 -0.05139854 0.087199315 -0.0065731043 0.2774826 -0.12902734 -0.46109322 -0.41643316 0.017144252 0.58915 -0.050245106 -0.16551511 0.04489027 -0.30720732 0.030718692 0.13026635 0.26154208 -0.27660608 -0.37439805 -0.21682096 0.10196366 -0.23957694 0.4339477 0.0805988 -0.39552963 -0.0220544 -0.5302137 0.110584795 0.42416877 0.19257127 -0.3212043 0.1283947 -0.04672487 0.33525196 -0.28321192 0.39247683 -0.07914886 -0.21955419 -0.4225619 0.4549337 -0.15252517 -0.026706314 0.10193201 -0.05891427 0.22534707 -0.24530792 0.13016291
an 0.05988979 0.12929614 -0.28990787 -0.29345745 -0.03681311 0.117246345 -0.02167255 0.30463025 -0.13314722 -0.44702035 -0.39647952 0.041721087 0.57290137 -0.024755819 -0.141787 0.029009266 -0.36786368 0.10235442 0.115350895 0.24175525 -0.30858555 -0.35712308 -0.22144708 0.06964562 -0.23281941 0.4019894 0.08822587 -0.39554393 -0.027846357 -0.5360243 0.12750863 0.4419696 0.24985544 -0.3487313 0.21679556 -0.03360541 0.28657436 -0.28906107 0.37764502 -0.083456166 -0.18280804 -0.45950505 0.41814235 -0.10330822 -0.0505284 0.13546975 -0.035334766 0.20666781 -0.23385791 0.13299292
which 0.06490837 0.13571045 -0.32467562 -0.3034881 -0.024328591 0.14032422 -0.006906741 0.31213477 -0.1244414 -0.45915273 -0.37202293 0.05206145 0.5821575 -0.061320424 -0.15925246 0.043089867 -0.39314878 0.09625101 0.10362864 0.23173384 -0.31973436 -0.3563243 -0.23720044 0.07520399 -0.26539668 0.41014135 0.040676683 -0.3774989 -0.052121997 -0.5459225 0.10006132 0.46193594 0.26962245 -0.3507222 0.22415864 -0.030576225 0.26933408 -0.2711136 0.38889128 -0.14681225 -0.23446065 -0.4582972 0.36804804 -0.09841482 -0.07862926 0.13966152 -0.02993091 0.22659819 -0.20476481 0.17844352
from 0.08589003 0.15442362 -0.30031547 -0.25094286 -0.05132163 0.13654326 -0.007813319 0.36139783 -0.098559916 -0.46376085 -0.36707756 0.068993896 0.59730476 -0.030339547 -0.14542083 0.023378814 -0.35384366 0.08076184 0.09545471 0.26868504 -0.30334628 -0.33001795 -0.2841368 0.062346026 -0.19786625 0.37106818 0.041470166 -0.37624377 -0.03499311 -0.5090138 0.092616364 0.46056366 0.2833941 -0.31397134 0.24161331 -0.007198993 0.29398817 -0.2648134 0.35281742 -0.07432068 -0.18549436 -0.4451983 0.3908018 -0.12160176 -0.12370717 0.1329978 0.010023195 0.2105074 -0.26844716 0.17977057
cell 0.0999567 0.17155401 -0.31969967 -0.25846264 -0.043202393 0.14627267 -0.008915222 0.3301851 -0.08739277 -0.4641996 -0.35247815 0.060221504 0.55651134 -0.024994794 -0.14773983 0.012384899 -0.37072557 0.11633139 0.10187261 0.28144595 -0.2914979 -0.33174625 -0.2715097 0.07387558 -0.1597857 0.34161925 0.0493796 -0.3226288 -0.059839092 -0.49827203 0.06951446 0.4629329 0.2622352 -0.3163349 0.23595005 0.02122893 0.25105178 -0.27005425 0.38048825 -0.0613706 -0.17126781 -0.47108027 0.37841275 -0.11498723 -0.16732612 0.1672794 0.018281573 0.24004805 -0.29005137 0.18724847
expression 0.13795017 0.12095408 -0.35378247 -0.46407914 0.05337441 0.0731517 -0.06655424 0.08249752 -0.1930949 -0.39147317 -0.49966177 0.041864507 0.70837224 -0.16025662 -0.1319484 0.14548135 -0.39147958 0.2107978 0.014801645 0.09536029 -0.3156229 -0.48920983 -0.22012292 0.27498916 -0.47563505 0.5345045 0.13231985 -0.49066043 -0.13766967 -0.6842649 0.038277145 0.41792455 0.21980044 -0.44177416 0.0059292144 -0.14157832 0.44332558 -0.27753156 0.5027443 -0.2874433 -0.54330695 -0.46032465 0.33500686 -0.076131284 0.17347445 -0.02435823 -0.13931338 0.37131009 -0.11321881 0.045581315
In 0.048033122 0.16047738 -0.2967237 -0.21170959 -0.06712686 0.1389301 -0.04371092 0.3164829 -0.08919367 -0.4638302 -0.32493594 0.073890984 0.5687252 0.0020677715 -0.13010491 -0.014766579 -0.35806304 0.053099062 0.15844528 0.2800806 -0.28153867 -0.31269416 -0.24523309 0.056321807 -0.069576725 0.34982562 0.08341443 -0.3867219 -0.05212653 -0.4523524 0.04813266 0.46416298 0.19800915 -0.27439493 0.28783607 0.0011325987 0.2896562 -0.32154667 0.33936763 -0.003874427 -0.1111805 -0.41058156 0.47458664 -0.08476444 -0.1354947 0.105309196 -0.0064698607 0.16877082 -0.3057689 0.18395837
we 0.05676903 0.21030426 -0.30709332 -0.19427575 -0.09906551 0.15131317 -0.0422444 0.33308086 -0.040428173 -0.45995393 -0.2894253 0.017865306 0.49200338 0.02769661 -0.13968296 -0.0601092 -0.33792728 0.07782516 0.16595434 0.26766694 -0.3199915 -0.26013058 -0.24688682 0.031229256 -0.03477481 0.33437705 0.04051793 -0.33564708 -0.056126934 -0.45642152 0.07780399 0.45803878 0.19165257 -0.32374904 0.3326248 0.054656275 0.25221813 -0.32419565 0.3341558 -0.01652219 -0.06564577 -0.42335582 0.47097906 -0.06876992 -0.18862365 0.14164804 -0.004102095 0.15097621 -0.30315867 0.21166421
actin-binding 0.0994675 0.13413933 -0.31310478 -0.30972207 -0.037789684 0.10895352 0.014117769 0.325079 -0.16357407 -0.42174637 -0.41764474 0.03990111 0.5843505 -0.049882937 -0.15830426 0.048034623 -0.37324828 0.13064004 0.11909933 0.23813826 -0.32736576 -0.34533766 -0.22892524 0.0748553 -0.26473194 0.44519988 0.06452613 -0.3887589 -0.0324422 -0.576807 0.14909425 0.46652526 0.31138054 -0.37449437 0.21198085 -0.024769852 0.27369532 -0.20689662 0.4065389 -0.10239843 -0.21556537 -0.47743616 0.32834446 -0.10883332 -0.059611674 0.13359128 -0.032579593 0.24856015 -0.21706906 0.14313915
but 0.094198674 0.14626934 -0.3633157 -0.3695973 -0.018351981 0.13530089 -0.017027808 0.25482032 -0.15070489 -0.44080493 -0.4226401 0.08687781 0.63817894 -0.10291639 -0.13655236 0.062429354 -0.4264251 0.14884183 0.02751934 0.15344298 -0.3595075 -0.42618355 -0.27270198 0.16841005 -0.3389721 0.42153654 0.054609694 -0.43177122 -0.08025517 -0.5730375 0.09647005 0.45512483 0.32670516 -0.36416167 0.19389255 -0.028321955 0.33526182 -0.27830663 0.45432568 -0.22193442 -0.36165008 -0.4556278 0.35408357 -0.07779163 -0.016937263 0.058913317 -0.04449883 0.29800814 -0.18233705 0.16776673
at 0.06679556 0.14071105 -0.28359747 -0.24189854 -0.061597846 0.11327127 -0.004018177 0.29295906 -0.12085621 -0.45420203 -0.3581916 0.06676309 0.57789636 -0.027384887 -0.14442255 0.021834379 -0.32949266 0.04972162 0.11522091 0.2667221 -0.2721741 -0.34473282 -0.24956357 0.11032419 -0.16125399 0.38093048 0.06944185 -0.36841965 -0.05175359 -0.48227048 0.0714658 0.43728557 0.21122292 -0.29367554 0.20122802 -0.008389454 0.31108442 -0.31877062 0.3591783 -0.068051085 -0.14705226 -0.41925034 0.45120695 -0.12082716 -0.07603853 0.1125209 -0.013357994 0.21209064 -0.27259648 0.15793063
complex 0.107002914 0.14195661 -0.3267793 -0.27713957 -0.053450868 0.11449322 -0.0018698102 0.33542928 -0.10985307 -0.46600038 -0.37488905 0.03742987 0.5765312 -0.0339073 -0.16019651 0.02234937 -0.3683164 0.11400766 0.08662814 0.2528351 -0.2976848 -0.34963483 -0.24476187 0.05589682 -0.23727381 0.42351264 0.05372337 -0.36183658 -0.054822072 -0.53510207 0.1135541 0.4523183 0.2908975 -0.33585885 0.22190903 -0.0058270274 0.27005717 -0.2187324 0.38210478 -0.103300884 -0.2143716 -0.44311476 0.36327758 -0.13606334 -0.08318326 0.16185465 -0.0195334 0.22927646 -0.221067 0.20183715
E-cadherin 0.14163949 0.08195861 -0.48806453 -0.55832756 0.009202962 0.21249859 -0.0005190595 0.24300306 -0.20606083 -0.38929212 -0.46777183 0.10723049 0.760912 -0.24039596 -0.18014923 0.13586797 -0.58344555 0.44693407 -0.10345521 0.051839337 -0.44517305 -0.4944923 -0.30094332 0.19329798 -0.70872855 0.5694018 -0.10209301 -0.47225654 -0.2062908 -0.79348516 0.12590441 0.4528802 0.5171072 -0.5052911 0.03973455 -0.036272753 0.4393834 -0.0894598 0.6018941 -0.48072374 -0.7796368 -0.6051289 -0.029186646 0.014190054 0.012563736 0.068954594 -0.14286864 0.49676213 -0.035002384 0.19636884
have 0.0738254 0.13656862 -0.29820693 -0.23612528 -0.05309649 0.15105617 -0.04294827 0.34411085 -0.06728268 -0.4393015 -0.33567584 0.052442513 0.554615 0.007303275 -0.11293616 -0.048818197 -0.4109369 0.098452 0.15463944 0.28843117 -0.3540991 -0.2928684 -0.25733018 0.07395392 -0.11621532 0.33801314 0.046310965 -0.38495165 -0.039787978 -0.50880086 0.08134375 0.44062454 0.28411067 -0.31502408 0.29613 0.024520151 0.2952797 -0.28923857 0.38726997 -0.05964678 -0.15923372 -0.42709893 0.39762458 -0.045556575 -0.19704498 0.13387443 -0.00072727655 0.20174967 -0.27297017 0.18352157
these 0.08365111 0.1441221 -0.32876888 -0.27596048 -0.066142544 0.1542379 0.00624373 0.35664922 -0.09951081 -0.46331057 -0.35006502 0.0762925 0.5786682 -0.035642534 -0.17476045 0.012028626 -0.4048524 0.11808691 0.07802789 0.25125048 -0.32759085 -0.31912458 -0.26142794 0.071734905 -0.21796641 0.37998915 0.008868492 -0.3509078 -0.060757723 -0.5038415 0.086289756 0.45825776 0.28404823 -0.3296433 0.2456578 0.003534938 0.27321595 -0.25235358 0.4065145 -0.10157716 -0.21671815 -0.47193715 0.33370787 -0.10226343 -0.13367091 0.1477992 0.0085495645 0.26924706 -0.23471236 0.21076216
: 0.071945176 0.1532058 -0.28157237 -0.2678995 -0.019688906 0.097118706 -0.059103075 0.20754075 -0.111206435 -0.4233688 -0.379662 0.029314725 0.5846204 -0.04375342 -0.109426305 0.016197199 -0.29290056 0.057522595 0.12502128 0.22989097 -0.2813542 -0.37275174 -0.22532049 0.12233602 -0.17261003 0.36587262 0.1263412 -0.41723844 -0.05802369 -0.5026073 0.043393295 0.39618614 0.18670964 -0.30563757 0.18769716 -0.027060809 0.36899164 -0.36735052 0.3721184 -0.06112613 -0.17307563 -0.41634834 0.50986683 -0.08362247 -0.034140352 0.041199103 -0.034679696 0.20597821 -0.27760604 0.08118562
talin 0.095726155 0.114158474 -0.31088042 -0.3692309 0.0111115 0.08042115 -0.043081716 0.22584881 -0.17852305 -0.39682016 -0.46252298 0.039000414 0.6273537 -0.103893176 -0.1782074 0.094404906 -0.3825128 0.12115725 0.060664233 0.17484228 -0.30237937 -0.42683616 -0.20612216 0.14528011 -0.34502274 0.48165178 0.09832221 -0.4046661 -0.06916314 -0.5833605 0.13039105 0.37887818 0.23855232 -0.36769637 0.104869254 -0.08977634 0.36605895 -0.20792724 0.4304224 -0.19971871 -0.35257456 -0.42220256 0.37409848 -0.08106846 0.0936596 0.05270484 -0.10298784 0.3049457 -0.14554124 0.09172709
genes 0.090899326 0.15680592 -0.30024198 -0.3550377 0.0029720983 0.13178347 -0.08522353 0.17803384 -0.18286756 -0.4737963 -0.41009727 0.018169958 0.6788716 -0.0945038 -0.1628538 0.030441912 -0.36933473 0.06920642 0.10127525 0.24150923 -0.305575 -0.4321407 -0.22026196 0.13119684 -0.23244832 0.43049547 0.13069399 -0.42329553 -0.07241301 -0.54274315 0.0415436 0.38989207 0.18414511 -0.36076924 0.127192 -0.067159705 0.3297011 -0.3667348 0.3631957 -0.11704014 -0.26398718 -0.43584156 0.4796244 -0.053384848 0.018519092 0.012024968 -0.073318034 0.26397157 -0.20982759 0.06745504
muscle 0.021336474 0.16212468 -0.18420807 -0.4677621 0.053327795 -0.031234594 -0.20107901 -0.09651612 -0.2278007 -0.40393406 -0.59774214 0.049043436 0.7750886 -0.07424094 -0.16572718 0.15415458 -0.13444543 -0.122641206 0.18882611 0.0961092 -0.16826142 -0.57959807 -0.22302566 0.40433964 -0.25905696 0.52219856 0.38579836 -0.58462226 -0.07981943 -0.60423684 -0.053915206 0.3282763 -0.13333431 -0.33516946 -0.10178719 -0.2554962 0.59801334 -0.6055078 0.3987671 -0.12307476 -0.37246895 -0.3287131 0.93573254 -0.10734846 0.4657428 -0.25965074 -0.20910302 0.2532965 -0.214235 -0.20017666
be 0.09386905 0.14601715 -0.3337945 -0.277948 -0.059387293 0.14543802 0.025277352 0.3664655 -0.08999988 -0.47367054 -0.38887334 0.08063842 0.5663273 0.0070936005 -0.17538704 -0.008759277 -0.38553604 0.050631028 0.09948041 0.28844798 -0.2988267 -0.31034583 -0.29814234 0.07759632 -0.20725459 0.39185652 0.04501351 -0.37203822 -0.05376191 -0.5396001 0.1312539 0.49641094 0.31200373 -0.31805626 0.25100607 0.00822306 0.24608026 -0.25484082 0.37889287 -0.0968922 -0.17653582 -0.47159564 0.38157687 -0.13150991 -0.14527275 0.1986526 0.0143210795 0.22194716 -0.25981843 0.25138858
two 0.08860805 0.17327335 -0.30513063 -0.26899382 -0.029360497 0.1203709 -0.02345802 0.30622205 -0.12542903 -0.4811501 -0.37473318 0.04697885 0.60315996 -0.024901908 -0.16527928 0.013759397 -0.3602936 0.051957753 0.1275902 0.26931137 -0.3058167 -0.3701663 -0.25705367 0.10286669 -0.17644638 0.40557072 0.077925466 -0.38430926 -0.036638167 -0.5053455 0.07726062 0.45127878 0.22660898 -0.33379444 0.23170249 -0.017266653 0.3074819 -0.31303346 0.35698536 -0.081522346 -0.16800022 -0.43903106 0.469942 -0.108786725 -0.08624466 0.099424094 -0.0069306237 0.228609 -0.2601439 0.1349175
kinase 0.1377077 0.14007333 -0.3279257 -0.33948526 0.07543224 0.04229086 0.006858597 0.1536611 -0.18270434 -0.44102675 -0.46055803 -0.091395274 0.6207843 -0.042554054 -0.0307455 0.09606161 -0.39201128 0.12319548 0.11867653 0.19653296 -0.3196523 -0.43687245 -0.21443814 0.20635481 -0.24649861 0.42152888 0.22147435 -0.4932546 -0.04994187 -0.5675325 0.07406573 0.386829 0.23938894 -0.42022884 0.17221658 -0.08584998 0.31659058 -0.39729974 0.4376756 -0.15274496 -0.21318199 -0.4629451 0.43606868 -0.1123268 0.04965344 0.056389496 -0.013242449 0.2229785 -0.25101817 -0.0040973965
; 0.057787355 0.13847686 -0.31007233 -0.31429678 -0.009021245 0.1232023 -0.05085521 0.26122946 -0.17853466 -0.40276262 -0.37151188 0.025034146 0.57211316 -0.06056044 -0.13239332 0.028806277 -0.37709355 0.11224931 0.10708668 0.23914944 -0.3404291 -0.42204785 -0.21681362 0.14008361 -0.22226344 0.3902525 0.10848133 -0.43342507 -0.044344883 -0.53984064 0.067503564 0.38329458 0.259751 -0.36028832 0.1772051 -0.0043871826 0.3297176 -0.32868442 0.39137188 -0.1495511 -0.19579743 -0.4236538 0.4131105 -0.03854077 -0.051318295 0.073047295 -0.043059904 0.21507818 -0.24044615 0.08865283
filaments 0.07251445 0.12684326 -0.26115322 -0.29039708 -0.021748986 0.082365304 0.010220951 0.29156426 -0.13691878 -0.4369711 -0.40139288 0.045087762 0.58941764 -0.03437779 -0.18135042 0.050444517 -0.32137436 0.03747241 0.09429038 0.23045744 -0.25515592 -0.36616257 -0.21247451 0.10454201 -0.22743778 0.41406372 0.07939553 -0.35419825 -0.020994022 -0.5133754 0.10354802 0.41850325 0.21664962 -0.3038816 0.15165298 -0.05972829 0.29360735 -0.2562198 0.37353802 -0.086195394 -0.21601042 -0.43364716 0.42267537 -0.15981096 0.014155346 0.09426528 -0.041717418 0.23397137 -0.22195002 0.14098597
between 0.06684294 0.134458 -0.28858355 -0.2642311 -0.040707946 0.11316835 -0.038062166 0.28147596 -0.14501888 -0.45024985 -0.38120297 0.028077064 0.59883535 -0.05159381 -0.14065331 0.038611215 -0.344177 0.08172626 0.111239 0.23067634 -0.30418816 -0.351176 -0.25127703 0.097491756 -0.21434993 0.38535306 0.08262675 -0.40437967 -0.054548766 -0.5163717 0.072328426 0.44235548 0.22968587 -0.33441567 0.20064439 -0.0028489886 0.3167296 -0.30705374 0.38147113 -0.09861083 -0.1900797 -0.42010564 0.41944787 -0.10798894 -0.06452935 0.09525971 -0.034458723 0.21059583 -0.2433621 0.13765764
this 0.076793544 0.16781892 -0.32220036 -0.23991556 -0.05054638 0.12882039 -0.03797883 0.33421338 -0.07475769 -0.4669065 -0.34833813 0.07099826 0.56102794 -0.020371776 -0.13894786 0.008771445 -0.36780995 0.08686425 0.10771169 0.24913612 -0.31336612 -0.32677618 -0.26967785 0.07949355 -0.14578293 0.35999522 0.06358386 -0.37514606 -0.04892381 -0.48195034 0.08582983 0.46065816 0.23191571 -0.3067601 0.26881894 -0.0046938774 0.28545588 -0.27462777 0.34690076 -0.08371066 -0.17833845 -0.43524238 0.41668725 -0.108173154 -0.09914648 0.10149572 -0.010421258 0.20459339 -0.24884473 0.1919912
also 0.07454793 0.15047932 -0.33229595 -0.26079154 -0.05760232 0.13052121 -0.010026188 0.33351564 -0.10627247 -0.4675806 -0.33930674 0.07341436 0.58968896 -0.009747862 -0.14578845 -0.008870878 -0.38120005 0.065631874 0.12068054 0.26926735 -0.31014204 -0.32442647 -0.28484902 0.076316856 -0.16506967 0.3690447 0.04182564 -0.3744707 -0.046142686 -0.48629236 0.08686143 0.4596925 0.25441968 -0.28976202 0.2671164 0.01713483 0.2897633 -0.29536316 0.36964524 -0.06831431 -0.16591127 -0.46633688 0.4136872 -0.09212806 -0.13511992 0.1417361 -0.0022007003 0.21244077 -0.25626838 0.1864667
yeast 0.0748074 0.14766987 -0.27714008 -0.25656992 -0.045136675 0.11103889 -0.0058179307 0.332075 -0.116289236 -0.458583 -0.3735513 0.03741484 0.5754595 -0.022111202 -0.15132682 0.0048190425 -0.33891252 0.056588423 0.12544535 0.26755193 -0.29865518 -0.33035898 -0.22492371 0.053965587 -0.17154242 0.38419476 0.07765507 -0.35041124 -0.037313383 -0.5028446 0.10599105 0.44608384 0.25246015 -0.30114004 0.2247646 -0.0016305981 0.26075232 -0.27655855 0.34449086 -0.057083964 -0.14676115 -0.44632024 0.41506204 -0.105272576 -0.08443382 0.13962242 -0.0003509375 0.20943934 -0.255863 0.17401326
histone 0.09712864 0.12579401 -0.2855554 -0.2441396 -0.10885827 0.18154946 -0.050918512 0.3628094 -0.17589268 -0.5173019 -0.3262562 0.014411754 0.5625841 -0.043916002 -0.15952814 0.014684899 -0.42208633 0.04296885 0.13759407 0.2729033 -0.3916431 -0.37088242 -0.28071496 0.05183581 -0.10119899 0.32662484 0.023797454 -0.35653618 -0.014613108 -0.5069749 -0.008613219 0.41256294 0.273003 -0.37230873 0.31288978 0.009310794 0.21719627 -0.36011449 0.27755678 -0.15211679 -0.111545034 -0.4408642 0.4550699 -0.043987438 -0.19456479 0.11581197 -0.017626327 0.15408032 -0.24604799 0.20274995
can 0.090745665 0.15334868 -0.34241912 -0.2274542 -0.08764879 0.12120919 0.02690401 0.3954824 -0.084307015 -0.4829515 -0.36318728 0.05831545 0.5634238 0.008981534 -0.16966952 0.009163022 -0.3743649 0.0649015 0.1120031 0.26889527 -0.3214487 -0.30214387 -0.27262887 0.06390152 -0.15384713 0.3845733 0.026701996 -0.36991316 -0.03701227 -0.5047665 0.104889624 0.4887881 0.27798495 -0.28892854 0.29915786 0.018615734 0.2634059 -0.27196878 0.3878694 -0.06469774 -0.15031016 -0.46604043 0.41915113 -0.13109714 -0.17211962 0.17137766 0.014311104 0.22209841 -0.27659738 0.23445489
polymerization 0.06265556 0.15984944 -0.2757311 -0.2779461 -0.039716404 0.08854649 -0.010448965 0.2668043 -0.13389245 -0.43077585 -0.42027718 0.038889263 0.57997304 -0.020587975 -0.17476746 0.039094426 -0.284695 0.04344841 0.08866434 0.23539504 -0.2648829 -0.3581378 -0.2311869 0.08433085 -0.21140388 0.40623194 0.08829914 -0.35798943 -0.04170566 -0.49889126 0.094210096 0.41644266 0.221916 -0.28664184 0.15108676 -0.045496054 0.30705598 -0.27524468 0.3575688 -0.067358635 -0.19409387 -0.42644742 0.4344313 -0.13981801 -0.0055628875 0.10834425 -0.032500803 0.22575977 -0.2371649 0.13292402
both 0.07206209 0.12281673 -0.3215873 -0.2805825 -0.045258056 0.12689763 -0.019819397 0.30257392 -0.12746783 -0.44303122 -0.35332832 0.047750466 0.59707123 -0.07225901 -0.14747144 0.024249377 -0.38250867 0.10764786 0.09192055 0.23130323 -0.30589864 -0.35679573 -0.24603406 0.098189384 -0.22170939 0.38068035 0.049743373 -0.3634706 -0.073903665 -0.53173894 0.10025113 0.43307436 0.28536463 -0.3247091 0.21023133 0.0067783156 0.28348985 -0.27403703 0.38233644 -0.14282705 -0.23219085 -0.46148393 0.35695726 -0.08044035 -0.08849351 0.10020702 -0.029756116 0.23822144 -0.22222333 0.17723973
gene 0.058427565 0.13279064 -0.2679903 -0.31284544 0.012952382 0.09447293 -0.07168293 0.19858146 -0.16667862 -0.39716217 -0.3908898 0.014590984 0.6041014 -0.052295536 -0.15202206 0.034354407 -0.35049912 0.07412075 0.12985174 0.21535215 -0.31181026 -0.42212218 -0.19834924 0.15416181 -0.21792978 0.4123626 0.12319833 -0.42563978 -0.047497343 -0.5374385 0.082206525 0.40140226 0.19214626 -0.3699245 0.14994124 -0.05454553 0.33491915 -0.33861178 0.38713753 -0.11447011 -0.21903108 -0.41531023 0.47909445 -0.072414465 0.016043516 0.048154652 -0.0693544 0.20371903 -0.21635953 0.055780783
% 0.04822008 0.13494337 -0.30080485 -0.34302256 0.028726548 0.09169089 -0.07425966 0.1852464 -0.17237037 -0.39404443 -0.38784957 0.02392089 0.598281 -0.06534401 -0.079418354 0.049758352 -0.33161277 0.08468357 0.12123764 0.20035902 -0.3142823 -0.42509103 -0.21917647 0.1617944 -0.20986587 0.35750943 0.13081367 -0.44842628 -0.07551004 -0.52146757 0.06075947 0.35245338 0.23733886 -0.3487938 0.15426293 -0.0058779274 0.35420486 -0.39786956 0.3799858 -0.14086305 -0.22744095 -0.42597005 0.446409 7.151512e-05 0.020060884 0.03749235 -0.048350006 0.18193434 -0.24813846 0.046282034
We 0.05851669 0.17476569 -0.297137 -0.20951454 -0.054757148 0.13119972 -0.04294044 0.3092218 -0.093727104 -0.4602201 -0.3297707 0.042775553 0.5400495 0.020659931 -0.11368759 -0.034735482 -0.32246423 0.029784434 0.13294287 0.2760731 -0.2942942 -0.31212696 -0.27117664 0.068190806 -0.07079321 0.3323748 0.06819323 -0.36555555 -0.047564853 -0.45934895 0.067038745 0.43368945 0.2152886 -0.28463316 0.28519958 0.02160662 0.28845042 -0.35101435 0.33014086 -0.005707737 -0.07883391 -0.4142215 0.47136584 -0.088122874 -0.15189387 0.10544141 0.025037896 0.16685618 -0.313508 0.16714188
1 0.025158206 0.14154233 -0.25896734 -0.27558252 0.0003697744 0.07412187 -0.09028355 0.15582952 -0.15351734 -0.42040512 -0.39848092 0.022928413 0.5816473 -0.03595711 -0.07913844 0.019715972 -0.2864515 0.026471317 0.16310808 0.22425997 -0.29672557 -0.402724 -0.22079937 0.17008899 -0.14066842 0.38512468 0.1943134 -0.45365208 -0.059039954 -0.49870393 0.014656216 0.3833987 0.15096553 -0.33782092 0.18445246 -0.01677985 0.4116483 -0.44175407 0.34586906 -0.053987842 -0.12815785 -0.39308804 0.57806796 -0.03953042 0.010838377 0.007176551 -0.05293672 0.17087409 -0.2955821 0.017987773
domain 0.06861745 0.13003613 -0.30838725 -0.29051957 -0.027918715 0.124742344 -0.0073206048 0.31868443 -0.14339012 -0.44048473 -0.3744732 0.029252812 0.5573145 -0.05505038 -0.13568841 0.0421019 -0.35793933 0.102880515 0.098001376 0.25141504 -0.32250014 -0.35505491 -0.2381444 0.09552994 -0.23950353 0.40694004 0.05917889 -0.36313856 -0.056505125 -0.51911956 0.10208354 0.43401077 0.2788267 -0.34341428 0.20445198 -0.004754705 0.27457225 -0.26987267 0.38451794 -0.10779383 -0.20365943 -0.45035198 0.35966766 -0.08422963 -0.08375627 0.11710834 -0.023464112 0.20900702 -0.2453769 0.14016177
DNA 0.08981264 0.16526863 -0.3177312 -0.2557628 -0.042935472 0.121479206 -0.04943461 0.3059837 -0.11961519 -0.48959923 -0.3587736 0.028676543 0.5894028 -0.035752974 -0.12228868 -0.01986284 -0.37462607 0.06906285 0.11826262 0.2811626 -0.3288385 -0.34294942 -0.24930227 0.072084025 -0.14295372 0.36730564 0.07714422 -0.37921876 -0.04682644 -0.48244396 0.0719614 0.43772784 0.23290518 -0.31338176 0.26511562 -0.009509613 0.28844517 -0.34810227 0.3378799 -0.06804364 -0.12746364 -0.46060607 0.46658158 -0.08666346 -0.11149021 0.13199715 0.023259098 0.21428996 -0.30917144 0.15699941
its 0.061699964 0.13004243 -0.29081377 -0.257388 -0.040552273 0.106692664 0.00069279585 0.32924965 -0.11769705 -0.46381065 -0.37620866 0.049868118 0.57808024 -0.026309254 -0.15270756 0.028478136 -0.3400104 0.06416134 0.1195457 0.24697341 -0.28321815 -0.33912712 -0.27355018 0.09705779 -0.18164194 0.38964918 0.075027436 -0.38932028 -0.03311008 -0.5009973 0.10273837 0.44499943 0.25395477 -0.31075746 0.23319933 -0.0023798284 0.30624807 -0.29353902 0.36802694 -0.08054301 -0.19636479 -0.44151738 0.4388358 -0.13149841 -0.060475953 0.13006443 0.0017703156 0.21703792 -0.26186582 0.15833299
human 0.06733788 0.15027593 -0.30024034 -0.28498763 -0.031932265 0.12173481 -0.03119987 0.2783131 -0.12442744 -0.44619244 -0.38119918 0.05381977 0.5794196 -0.03711117 -0.13948718 0.019416591 -0.3497797 0.07262292 0.12602386 0.22998124 -0.30829725 -0.3638001 -0.24843884 0.11424061 -0.20492442 0.38916847 0.08532635 -0.3907145 -0.06643064 -0.5224574 0.07857926 0.41998047 0.2490671 -0.33975738 0.21539356 -0.02173161 0.3181407 -0.3216545 0.36719504 -0.09037588 -0.19140412 -0.4379565 0.41778114 -0.094099596 -0.07192206 0.086688824 -0.009985731 0.2269275 -0.26058015 0.12670586
RAD51 0.10635288 0.14057913 -0.32030192 -0.30885944 -0.035895396 0.121969126 -0.031362634 0.2973076 -0.13416435 -0.46082652 -0.36052677 0.0565753 0.60830617 -0.10277255 -0.15714528 0.0066529512 -0.386542 0.089013584 0.104481675 0.25000438 -0.32984152 -0.35807937 -0.23213112 0.08778194 -0.2478712 0.39403385 0.068374574 -0.36497074 -0.04495478 -0.5548984 0.11551109 0.42495695 0.2937042 -0.34229448 0.18172693 0.004460246 0.28570473 -0.25271255 0.3796577 -0.16475308 -0.2491308 -0.45318565 0.30668825 -0.05656848 -0.053025793 0.13260451 -0.027629655 0.2784641 -0.20916249 0.16159335
results 0.09340631 0.15502013 -0.29590872 -0.22077785 -0.09114124 0.15164222 -0.040653456 0.3769695 -0.095111914 -0.44937894 -0.30492428 0.025030006 0.5292575 0.03193829 -0.13380468 -0.06753606 -0.3449899 0.040926162 0.113917366 0.28338516 -0.32204187 -0.27366963 -0.24928248 0.059584282 -0.08369954 0.3493887 0.04939174 -0.34137568 -0.03496105 -0.44983 0.078018 0.4927026 0.239181 -0.2995096 0.29661748 0.051774643 0.23753573 -0.33666813 0.34262463 -0.0006580833 -0.042357482 -0.461892 0.47159836 -0.1011627 -0.23145887 0.15818746 0.035955474 0.16155499 -0.32665873 0.21904638
activity 0.069498055 0.14033034 -0.30570674 -0.23807174 -0.044213474 0.09230401 -0.0020577707 0.31034026 -0.13031775 -0.46387562 -0.35480487 0.038704723 0.56550014 -0.013695175 -0.120688125 0.0134700565 -0.35960475 0.07371381 0.12281666 0.2452434 -0.30723602 -0.3472971 -0.24892937 0.08923493 -0.1583944 0.37487265 0.07564498 -0.38330364 -0.037050843 -0.49403378 0.0676554 0.43263966 0.2557775 -0.32870647 0.23125954 0.004252177 0.28576618 -0.31734744 0.35498187 -0.06800346 -0.14358352 -0.44508514 0.422943 -0.10359684 -0.111559354 0.12977767 0.017031496 0.19040358 -0.27951142 0.15240581
cytoskeleton 0.07788933 0.14127213 -0.27731082 -0.26989928 -0.030309066 0.0909423 0.009022774 0.29753074 -0.120002925 -0.44029528 -0.403805 0.056294836 0.59319866 -0.020320088 -0.16548283 0.05363849 -0.335839 0.055781 0.10376055 0.22616428 -0.27558202 -0.340376 -0.22340497 0.098748975 -0.23064306 0.39422324 0.08566679 -0.35679406 -0.039589725 -0.5177307 0.107034095 0.4304796 0.23237272 -0.31319663 0.16243534 -0.034913957 0.27926877 -0.24678464 0.35942146 -0.08300394 -0.22208306 -0.4366435 0.40356782 -0.15092614 -0.0155445365 0.11929655 -0.031304047 0.20782815 -0.22205539 0.13975473
These 0.06978375 0.17835888 -0.29048622 -0.2112739 -0.08281301 0.1416031 -0.034882817 0.34869376 -0.0962061 -0.46957892 -0.329645 0.03791223 0.57669014 0.011436597 -0.1269352 -0.04708238 -0.34113222 0.022198332 0.14726155 0.3214712 -0.3178446 -0.3170416 -0.27091515 0.062079087 -0.078303576 0.35365823 0.06483637 -0.40140685 -0.053654976 -0.45010284 0.071585335 0.49077472 0.23733972 -0.32790247 0.2934289 0.013198138 0.31504083 -0.36544752 0.36924782 0.0043798303 -0.056733225 -0.46844772 0.51170456 -0.0842348 -0.19232753 0.12170977 0.044206355 0.18273628 -0.3571449 0.18865724
interaction 0.06402961 0.1425314 -0.2961201 -0.29643434 -0.035471722 0.12220332 -0.0033477454 0.31310388 -0.14313625 -0.44609392 -0.38760585 0.049863283 0.59789586 -0.04116819 -0.16293445 0.030598504 -0.35269 0.09522593 0.09599212 0.2364671 -0.3107407 -0.35926005 -0.24299408 0.0844522 -0.23294657 0.38664114 0.06241431 -0.37151155 -0.05765975 -0.5312131 0.10253061 0.44094273 0.27682638 -0.31977 0.20471579 -0.024624528 0.28919035 -0.26658043 0.37786552 -0.11299168 -0.22346002 -0.45386502 0.38363644 -0.10225694 -0.0657367 0.12948105 -0.008190576 0.2355029 -0.22288628 0.14787865
assembly 0.077544846 0.14795078 -0.27442434 -0.2674923 -0.029491236 0.08044704 -0.0096686585 0.273176 -0.123142384 -0.43453905 -0.39184794 0.0404728 0.5791706 -0.02094781 -0.16435513 0.032726053 -0.3117987 0.052580923 0.11472275 0.24465358 -0.27229866 -0.3522809 -0.22032216 0.08909647 -0.19591153 0.39676327 0.101885244 -0.37322032 -0.05239811 -0.49445158 0.092428856 0.42618448 0.21332945 -0.30209076 0.16596344 -0.030050563 0.30314106 -0.28563818 0.36445558 -0.074496 -0.20633163 -0.4325245 0.4423073 -0.13903423 -0.017706947 0.099021465 -0.018871738 0.22715135 -0.24156052 0.13853161
has 0.061468266 0.1572055 -0.29127726 -0.23423842 -0.060944386 0.14740251 -0.009944208 0.3492374 -0.09666467 -0.47292978 -0.37204683 0.04951643 0.5775694 0.006416936 -0.12181084 0.0047087767 -0.39007804 0.07059094 0.14956 0.2963322 -0.33147734 -0.3330271 -0.26571664 0.06886325 -0.1163324 0.3518635 0.078787215 -0.3801302 -0.05373803 -0.509596 0.07684148 0.44884026 0.2722293 -0.3225724 0.27970877 0.016494643 0.2916113 -0.3027697 0.3823797 -0.04003418 -0.12661469 -0.4419647 0.47090283 -0.09633032 -0.14956711 0.1309715 0.014305914 0.20353279 -0.29752478 0.15640056
plakoglobin 0.098023966 0.086900964 -0.39701974 -0.4482022 -0.0047094743 0.16421445 -0.026274629 0.23759022 -0.17806211 -0.38564125 -0.40400186 0.08159916 0.6705903 -0.1733628 -0.16267693 0.109181896 -0.49044102 0.31274894 -0.03161757 0.09721654 -0.37958393 -0.44212395 -0.27397877 0.17033608 -0.5189544 0.51412886 -0.039997626 -0.44907796 -0.14885941 -0.6728013 0.0992128 0.42031348 0.40099227 -0.41235602 0.07641513 -0.025758443 0.38876528 -0.14726463 0.50223863 -0.37141934 -0.58680105 -0.51061004 0.103141166 -0.009974738 0.004129025 0.07420874 -0.11568025 0.39046666 -0.08672843 0.1748772
cyclin 0.11621551 0.15038048 -0.33637974 -0.2885445 -0.020171436 0.09363559 0.011320611 0.28409764 -0.15291911 -0.4387975 -0.38439226 8.411501e-05 0.57593554 -0.037201162 -0.089937896 0.040002834 -0.3771084 0.116303936 0.0725521 0.2288311 -0.31282037 -0.37262765 -0.2505184 0.11056033 -0.22104584 0.38400328 0.10154828 -0.41024816 -0.06063405 -0.5146661 0.075570755 0.43733513 0.26055607 -0.3371865 0.22469878 -0.030738747 0.29494515 -0.31921268 0.39957502 -0.10752703 -0.21224913 -0.43886995 0.37950405 -0.12409261 -0.085298635 0.12453537 0.016999481 0.24187708 -0.25563434 0.12411702
region 0.07498909 0.14574818 -0.31629866 -0.27585995 -0.053401608 0.12479668 0.0020105615 0.31716466 -0.12977062 -0.44343513 -0.36391214 0.03795921 0.56856275 -0.031482674 -0.13990256 0.025456185 -0.3648614 0.088991255 0.108708516 0.2545539 -0.32357278 -0.33626997 -0.2429527 0.06649566 -0.21162716 0.3832882 0.037770644 -0.36730653 -0.042973276 -0.51168185 0.08656782 0.43456393 0.27372232 -0.3350543 0.22300135 -0.0066067316 0.28198582 -0.26773223 0.378854 -0.10823706 -0.19177966 -0.44184464 0.3609203 -0.083618335 -0.11390381 0.13469052 -0.02442957 0.21416277 -0.24977472 0.17778507
fimbrin 0.07143649 0.14456756 -0.3117645 -0.29591823 -0.02636436 0.124091275 -0.024764823 0.28679532 -0.12889175 -0.46243176 -0.39896336 0.057429876 0.5829614 -0.02944042 -0.13913043 0.021777058 -0.35760722 0.056115355 0.1240637 0.2416696 -0.30457196 -0.3640325 -0.23916134 0.1118125 -0.19560762 0.38429165 0.08689675 -0.41285792 -0.050458897 -0.5143512 0.07499481 0.42630562 0.23930153 -0.33786532 0.21107051 -0.0065452503 0.32872015 -0.3160323 0.37767687 -0.08786536 -0.16608208 -0.44692248 0.4502672 -0.079925396 -0.058222592 0.09830685 -0.012791646 0.2033365 -0.27194375 0.1375334
been 0.05892408 0.1767952 -0.32487082 -0.2777727 -0.049826264 0.15566327 -0.0021336104 0.32219204 -0.085388266 -0.47721672 -0.38023403 0.05565161 0.58498234 -0.012954796 -0.14711377 -0.021807699 -0.37402925 0.081212975 0.114913665 0.27001318 -0.31514606 -0.35240316 -0.254722 0.06885698 -0.13395339 0.3541129 0.044172768 -0.40406427 -0.03108125 -0.5100855 0.10040438 0.45578372 0.27168673 -0.33752477 0.27010348 0.03632719 0.29815757 -0.33836094 0.35546732 -0.046866544 -0.14970413 -0.44627935 0.455171 -0.06758773 -0.14279573 0.1358672 -0.0032586507 0.22416973 -0.2930125 0.18130745
other 0.072852075 0.14627272 -0.3118739 -0.28951952 -0.05325956 0.12525792 -0.02367226 0.3181717 -0.11472913 -0.45291165 -0.36209765 0.05295283 0.5864378 -0.047236763 -0.14943312 0.0081746485 -0.37199143 0.09494459 0.10732687 0.23011196 -0.32028455 -0.35290602 -0.25678474 0.096921414 -0.21112993 0.37853637 0.05542959 -0.3897844 -0.06035606 -0.5187659 0.092060834 0.4309858 0.27057043 -0.34171566 0.2152023 0.0011745979 0.3027075 -0.28204295 0.38673827 -0.113089934 -0.21392654 -0.44752693 0.37847906 -0.10031204 -0.078391455 0.10835617 -0.001039177 0.25055224 -0.24086563 0.16334568
RAD52 0.085729875 0.16783175 -0.33207682 -0.29582036 -0.05524588 0.11668903 -0.05259259 0.31427085 -0.12901777 -0.48797646 -0.39327884 0.062434368 0.63279104 -0.09388645 -0.15993857 -0.0018643064 -0.38645077 0.092408895 0.10152137 0.24564306 -0.33135548 -0.3628136 -0.22945073 0.103563674 -0.22869472 0.38102046 0.06368302 -0.3975944 -0.051099367 -0.5409368 0.07879461 0.4193327 0.2545733 -0.34231094 0.19378762 -0.034248434 0.28740346 -0.28386477 0.385067 -0.1190526 -0.22546726 -0.4506118 0.35176486 -0.0979643 -0.09048076 0.11756765 -0.032037415 0.25619417 -0.22314218 0.16288055
found 0.06763089 0.1447459 -0.29806247 -0.27818662 -0.038569707 0.13135022 -0.032201406 0.2881709 -0.11755716 -0.4440013 -0.35727358 0.046116848 0.560374 -0.015611932 -0.14574742 0.007322313 -0.36010608 0.05299961 0.107891 0.23937318 -0.3062722 -0.34874156 -0.24946065 0.101741225 -0.16543086 0.37194797 0.06256305 -0.387864 -0.049078688 -0.48732018 0.08007438 0.4417963 0.22526674 -0.3119736 0.21538149 -0.019016333 0.3009183 -0.32581517 0.36704773 -0.085453846 -0.18936771 -0.4247298 0.4359358 -0.08922972 -0.0877797 0.10367563 -0.0045557558 0.20607816 -0.26058617 0.15859373
factor 0.057071753 0.13452725 -0.27269572 -0.24613176 -0.032557238 0.095672116 -0.043042805 0.27443838 -0.1158117 -0.41586593 -0.35147813 0.022430748 0.5365739 -0.019166803 -0.13368139 -0.0015086917 -0.31916088 0.051020484 0.13140643 0.2421193 -0.27235326 -0.33077672 -0.21190754 0.095927864 -0.14988352 0.3471023 0.093863666 -0.3800471 -0.042885587 -0.4783453 0.08176173 0.39622176 0.20772405 -0.3008693 0.20056432 0.0009031941 0.29612407 -0.32730952 0.3465743 -0.08090645 -0.13796149 -0.41912398 0.4245814 -0.07256187 -0.08412957 0.09534989 -0.021001872 0.17892237 -0.24483638 0.11046082
binds 0.06759931 0.14115499 -0.32537562 -0.27576834 -0.052164447 0.13897045 -0.01368081 0.330996 -0.12254949 -0.43131348 -0.36233807 0.061326325 0.573675 -0.024298292 -0.15555406 0.039137248 -0.37996602 0.09899384 0.09585168 0.23942657 -0.30564272 -0.36060858 -0.24574736 0.09978835 -0.24361835 0.4001652 0.044420075 -0.38808566 -0.04127616 -0.52786714 0.12682901 0.43737733 0.30143106 -0.3226601 0.22635557 -0.008376741 0.29741585 -0.24061593 0.3867051 -0.114247866 -0.22754891 -0.45786166 0.36125582 -0.100162685 -0.08205457 0.14088356 0.0002600473 0.22242919 -0.23591506 0.1875549
virus 0.031560894 0.15277484 -0.26121596 -0.25491768 -0.028819889 0.117539905 -0.058352225 0.21892896 -0.1400898 -0.4354995 -0.34259212 0.015890118 0.54181415 -0.034934245 -0.07305888 -0.017620668 -0.3213765 0.07775008 0.13313004 0.25050497 -0.31540954 -0.37144965 -0.23986939 0.1091389 -0.124722324 0.36653176 0.1283929 -0.41217563 -0.058926955 -0.49378547 0.045732304 0.38256618 0.2311614 -0.31611478 0.22757722 0.025498878 0.3440764 -0.39689073 0.3308336 -0.0389768 -0.097392194 -0.41782972 0.50127065 -0.02939262 -0.061563876 0.059129987 -0.020104788 0.1563409 -0.2776987 0.078933686
vinculin 0.07557075 0.13402812 -0.3205655 -0.3475453 0.0011176373 0.10071673 -0.038337294 0.2115607 -0.14745629 -0.39385006 -0.43229124 0.048339166 0.61172754 -0.07266071 -0.15822974 0.06263171 -0.36828476 0.105504975 0.091741174 0.18948518 -0.31121337 -0.41342884 -0.23466088 0.13932157 -0.2993418 0.4574984 0.07706041 -0.43214652 -0.074737936 -0.5576511 0.101021744 0.3806222 0.2643373 -0.33910647 0.1453236 -0.0597139 0.37155977 -0.26405483 0.4179507 -0.17037174 -0.31863776 -0.4497912 0.35760608 -0.077869974 0.032579932 0.06013038 -0.071046025 0.2676164 -0.16934858 0.10542635
inhibitor 0.11018145 0.1304823 -0.31793597 -0.2703361 0.032488685 0.07065569 -0.01228991 0.22423756 -0.173807 -0.46299648 -0.39792424 -0.07239354 0.59377086 -0.02597529 -0.05255045 0.06808289 -0.40148497 0.105770275 0.088272475 0.23921001 -0.33449382 -0.39506447 -0.23291074 0.15763971 -0.18662222 0.3990085 0.1624153 -0.44956866 -0.039598446 -0.54059553 0.05922847 0.4090047 0.27578112 -0.3961082 0.23012619 -0.043430403 0.2911536 -0.36192226 0.3816549 -0.10536863 -0.16457601 -0.4533044 0.44826487 -0.11869821 -0.060668964 0.13231328 -0.016532028 0.20176995 -0.28773317 0.0670823
using 0.07102396 0.149361 -0.2875891 -0.24833629 -0.04344582 0.1263964 -0.037231565 0.29541585 -0.08799854 -0.46628886 -0.35892707 0.054108024 0.5796131 -0.0011353056 -0.12432976 -0.012378334 -0.34336796 0.04279157 0.12735564 0.28183958 -0.2936326 -0.3288735 -0.26334956 0.07897515 -0.11316901 0.35494512 0.08936122 -0.3775751 -0.050501153 -0.4785964 0.057047073 0.4274545 0.2184536 -0.29003808 0.24384291 -0.009258477 0.31181872 -0.34523746 0.335404 -0.043345504 -0.1332044 -0.43331656 0.47655845 -0.07751955 -0.12233231 0.0997262 -0.007902431 0.20013429 -0.3081475 0.15279819
P 0.07721356 0.13643661 -0.27535602 -0.38788292 0.06708279 0.09466879 -0.09525304 0.16626902 -0.24062279 -0.33774814 -0.41993403 -0.055635195 0.5692207 -0.06515428 -0.10171871 0.043079395 -0.35023326 0.1512538 0.13114308 0.2015034 -0.36534008 -0.50751656 -0.15816718 0.13848475 -0.23344673 0.41192102 0.18850835 -0.50417554 -0.038455583 -0.54493266 0.0658117 0.31522363 0.29043832 -0.41915402 0.15628275 0.007279409 0.389227 -0.4084962 0.426216 -0.19852556 -0.2013699 -0.38917512 0.4614973 0.060037542 0.0142612485 0.018356964 -0.07985833 0.17455254 -0.20627138 -0.052882
may 0.09343065 0.14805293 -0.33015803 -0.25914258 -0.071989425 0.11443813 -0.007232574 0.34739223 -0.115241505 -0.4664015 -0.38484016 0.046619784 0.59213066 -0.0034579537 -0.16356295 -0.0008645964 -0.36311853 0.068680584 0.110903054 0.2621468 -0.3312385 -0.3253057 -0.27998132 0.08144004 -0.17474146 0.38230154 0.061861835 -0.37570828 -0.049160205 -0.51491535 0.110049896 0.48607722 0.27061114 -0.3174644 0.2655727 0.010137457 0.2793996 -0.28022146 0.39594847 -0.07929156 -0.16023229 -0.46795425 0.44180378 -0.12457455 -0.12508017 0.15122062 0.006270736 0.21992736 -0.27055025 0.18753883
A 0.053866774 0.14498217 -0.2662349 -0.25501743 -0.040620126 0.09686549 -0.06017954 0.24498437 -0.121379696 -0.42381832 -0.35793218 0.050414234 0.5493108 -0.02135304 -0.11490171 0.015782887 -0.30730343 0.03383995 0.1268617 0.2368349 -0.26848775 -0.35479978 -0.22709328 0.12826274 -0.12475866 0.34926638 0.117133446 -0.3742964 -0.050437342 -0.44983137 0.04279974 0.3893637 0.17626153 -0.3017696 0.20235251 -0.01945206 0.33470738 -0.35647544 0.31930086 -0.04817301 -0.14175385 -0.38813305 0.47637483 -0.0692498 -0.04617385 0.056267716 -0.014549742 0.19061662 -0.25546423 0.09320142
membrane 0.06665281 0.1414096 -0.2863352 -0.2635498 -0.02781518 0.11050465 -0.026328217 0.28243843 -0.12528338 -0.44711047 -0.37533277 0.063961014 0.5787213 -0.030186279 -0.14759718 0.01663189 -0.3503117 0.06601663 0.10441136 0.23863886 -0.2861834 -0.3609771 -0.25358647 0.10565938 -0.18266244 0.3831599 0.074022345 -0.3882794 -0.0471608 -0.49610633 0.077484995 0.41492873 0.24558836 -0.32364297 0.20864585 -0.022129644 0.2902565 -0.29431164 0.36150333 -0.08680077 -0.1956998 -0.42290714 0.42799708 -0.11519127 -0.049934197 0.10665211 0.00304381 0.22740306 -0.24936028 0.13472818
bind 0.07063634 0.13631201 -0.32607728 -0.25474283 -0.062364712 0.15292381 -0.0046395413 0.36815324 -0.10659124 -0.4521271 -0.37935802 0.06367049 0.5912071 -0.03111174 -0.14977247 0.01115116 -0.40711412 0.09679194 0.09100502 0.23659667 -0.31318307 -0.33368212 -0.28164342 0.0917424 -0.22981043 0.38564003 0.024079109 -0.37479344 -0.061691646 -0.5150681 0.11014053 0.45900193 0.31797963 -0.3174162 0.2440708 0.020531679 0.30650184 -0.25370234 0.3852381 -0.12200912 -0.21982223 -0.47523376 0.3524994 -0.11466948 -0.120107345 0.13968964 0.013493887 0.22812836 -0.25190738 0.20817707
it 0.071138486 0.15351896 -0.29427463 -0.26162955 -0.032865223 0.11741529 -0.04226739 0.29650915 -0.11124053 -0.449937 -0.36662775 0.04949711 0.5748247 -0.01693586 -0.14014594 0.011983934 -0.33769754 0.06017382 0.11823058 0.23631278 -0.28126243 -0.34277725 -0.25446862 0.12140858 -0.1762419 0.38349575 0.077060774 -0.39686 -0.044970717 -0.4920021 0.06370673 0.43065342 0.20940986 -0.30638072 0.22755377 -0.020159518 0.310224 -0.3272436 0.3695083 -0.078987926 -0.18342976 -0.43061036 0.4513249 -0.100088045 -0.08292126 0.0939257 -0.0139384065 0.21450798 -0.26125067 0.1419362
site 0.07032674 0.13871206 -0.30280432 -0.2759371 -0.033239305 0.13058232 -0.0027506028 0.3150246 -0.12912612 -0.44328865 -0.37210646 0.039071217 0.5849979 -0.043608066 -0.13399386 0.01925873 -0.38433483 0.123109005 0.10737378 0.24350566 -0.32527623 -0.36001074 -0.25992283 0.085958645 -0.24305026 0.39958656 0.035365004 -0.37999517 -0.055799637 -0.5314261 0.11321081 0.45752558 0.2769134 -0.35296166 0.20528132 -0.012424961 0.30935735 -0.26370353 0.38222933 -0.12275333 -0.21056746 -0.4715063 0.3736329 -0.09295547 -0.1048208 0.115536466 -0.026642779 0.23270498 -0.25796646 0.16541336
I 0.06907878 0.13762131 -0.28012463 -0.25397894 -0.035010736 0.1020945 -0.037985846 0.24539182 -0.11916212 -0.44425052 -0.37899777 0.044809673 0.57837117 -0.02565243 -0.14343052 0.035671443 -0.3010199 0.032287464 0.13694532 0.2420328 -0.26973298 -0.36124355 -0.24519913 0.12581563 -0.18501526 0.3873073 0.11744027 -0.4012842 -0.03772292 -0.50091547 0.056841813 0.41884494 0.20606492 -0.31948248 0.17982605 -0.032986388 0.32850945 -0.34013638 0.35722232 -0.07563907 -0.18621941 -0.39892673 0.4897227 -0.107015125 -0.043873373 0.07222704 -0.038297676 0.21355043 -0.26980013 0.10907453
identified 0.06580792 0.16701964 -0.2908423 -0.28025842 -0.047948558 0.141751 -0.052056693 0.3039715 -0.09654306 -0.46603775 -0.36330444 0.049120124 0.587421 -0.022304963 -0.1251468 0.0077664442 -0.35800615 0.071723245 0.13437197 0.2545141 -0.31099987 -0.34318236 -0.25328797 0.103162326 -0.13777657 0.3793409 0.0838387 -0.42144686 -0.045350228 -0.51403826 0.054355346 0.44840223 0.22025359 -0.32597396 0.256648 -0.020629708 0.33576453 -0.35146186 0.3586614 -0.040582057 -0.15772657 -0.44439936 0.49067658 -0.07355558 -0.105119005 0.096545026 -0.011370394 0.21091878 -0.2644164 0.13671044
growth 0.039781485 0.15242761 -0.27758542 -0.24658911 -0.047280956 0.103141785 -0.04202207 0.26244906 -0.11548802 -0.4275551 -0.36086223 0.054015122 0.5639238 0.0051022586 -0.108231276 -0.008546553 -0.29297367 0.01765478 0.1333191 0.26258147 -0.2751443 -0.33049512 -0.2517345 0.118191 -0.10528367 0.35595253 0.12709635 -0.3846844 -0.059731755 -0.4593309 0.04321254 0.40378425 0.17841816 -0.28975827 0.22078039 -0.0077319574 0.3205242 -0.37479177 0.32331458 -0.020816218 -0.108694695 -0.41305432 0.5086601 -0.0891692 -0.08057635 0.08767385 -0.014499071 0.18116322 -0.287549 0.10903654
than 0.051776532 0.15479776 -0.28847197 -0.27336857 -0.03336776 0.1124506 -0.04111279 0.2945382 -0.1133682 -0.45034784 -0.37496504 0.04824953 0.59272903 -0.012321464 -0.119245626 0.014525151 -0.31796333 0.044830892 0.115214065 0.2534746 -0.28653356 -0.3463932 -0.26446354 0.108702034 -0.15357727 0.3676617 0.101176225 -0.39069787 -0.062230878 -0.48307297 0.06174455 0.42209503 0.21355538 -0.31162286 0.21211372 0.001990782 0.33561298 -0.3557715 0.351485 -0.06633832 -0.17141154 -0.43648168 0.46056953 -0.07586363 -0.07993292 0.07558057 -0.023297379 0.18732814 -0.27037174 0.12619068
into 0.05888734 0.1361892 -0.29929894 -0.24964146 -0.03332963 0.11283391 -0.041745756 0.27637386 -0.1080329 -0.45057476 -0.35698247 0.057797138 0.58275026 -0.014490219 -0.11359839 0.019811695 -0.32946903 0.050019477 0.11908717 0.24117625 -0.28068325 -0.3545158 -0.26654276 0.11245973 -0.15107481 0.36959866 0.09829872 -0.38322473 -0.05723003 -0.48709333 0.06457131 0.41430366 0.20309278 -0.29392794 0.21023612 0.00033941318 0.31384334 -0.33205047 0.35065392 -0.05791137 -0.16054621 -0.41324508 0.46561125 -0.09932917 -0.064143494 0.07842954 -0.012458654 0.20798382 -0.27345508 0.1263382
increased 0.08114035 0.13283105 -0.29087496 -0.2698581 -0.028063858 0.11020369 -0.01804549 0.27837133 -0.122232206 -0.44638073 -0.35338244 0.04413904 0.55843973 -0.029522264 -0.110983945 0.03717241 -0.35223985 0.08067848 0.09300468 0.21513034 -0.2870339 -0.35256204 -0.2564965 0.123671755 -0.17935528 0.3682755 0.08710925 -0.39171365 -0.062259164 -0.47917253 0.05368503 0.42039943 0.22676302 -0.3214107 0.21079662 -0.022901978 0.31398934 -0.3112859 0.36569506 -0.091818415 -0.18890235 -0.4278007 0.41658193 -0.10207066 -0.068452634 0.09224154 -0.009710364 0.20134388 -0.26416868 0.13330932
sequence 0.06084638 0.15640666 -0.28187123 -0.24393721 -0.05532419 0.115840785 -0.008907466 0.32097962 -0.110607915 -0.45150328 -0.34762737 0.0388942 0.5518394 -0.02430826 -0.12748268 0.0025691933 -0.33909586 0.055264354 0.12490978 0.26705587 -0.30443534 -0.32401636 -0.2522819 0.075093396 -0.13720545 0.3449608 0.06777762 -0.3457455 -0.036074575 -0.47248447 0.06869703 0.4435158 0.23211305 -0.31030473 0.24320795 0.014276293 0.27341345 -0.29593658 0.34311616 -0.03971645 -0.13310033 -0.43067166 0.4176143 -0.09130917 -0.13053922 0.12930663 -0.0011095307 0.19961269 -0.2802035 0.15934883
suggest 0.093736194 0.1530349 -0.28596357 -0.21842559 -0.0651757 0.122343495 -0.043696824 0.34384578 -0.08622232 -0.46511388 -0.31933975 0.029471863 0.5590504 -0.0030819753 -0.1428705 -0.032322552 -0.34746644 0.031016512 0.11470675 0.28700855 -0.29697677 -0.30450654 -0.2639257 0.07733758 -0.116925456 0.35931295 0.07334734 -0.38245794 -0.049086124 -0.4675592 0.07352232 0.47400612 0.2281641 -0.32565823 0.2635972 0.021454092 0.2788227 -0.3158065 0.3734388 -0.015472957 -0.11070593 -0.4498694 0.4633576 -0.091087654 -0.17311016 0.14007996 0.035535168 0.18648972 -0.30826163 0.1745499
their 0.06196866 0.15903996 -0.31859437 -0.23064703 -0.066302 0.12305754 -0.027971096 0.34820876 -0.099675864 -0.48305425 -0.35186273 0.060987737 0.5681557 0.0038729573 -0.12499231 -0.011660936 -0.3492738 0.040840913 0.14206184 0.2686174 -0.30966562 -0.32057214 -0.27255744 0.069018096 -0.12561025 0.34869885 0.07241452 -0.36878753 -0.055546854 -0.46235606 0.08182055 0.4535301 0.23846737 -0.29944026 0.27110425 0.018116647 0.2921829 -0.337447 0.3467104 -0.043091763 -0.12821741 -0.4564826 0.4606209 -0.105132036 -0.14310786 0.116378896 0.020616075 0.20176095 -0.30342934 0.1891105
filament 0.06953156 0.1428604 -0.27924073 -0.23341799 -0.041832715 0.10560812 -0.003257516 0.30944496 -0.08992052 -0.44137642 -0.3558054 0.04774585 0.53496796 -0.0040823026 -0.1380097 -0.0031529043 -0.3222739 0.046128083 0.12420743 0.25367075 -0.2632284 -0.31787235 -0.24546164 0.07562731 -0.13807586 0.35240653 0.06228918 -0.3532071 -0.025288582 -0.45270535 0.08085758 0.41004714 0.22593983 -0.27502587 0.22944577 -0.0034291479 0.278518 -0.29877916 0.32194483 -0.038624723 -0.12165497 -0.40237904 0.4252651 -0.12739024 -0.09996548 0.1053171 0.005848466 0.18887402 -0.27946585 0.14317897
affinity 0.07227903 0.14491588 -0.2906701 -0.23299618 -0.0510326 0.110253364 -0.020738697 0.30207968 -0.103107594 -0.45451725 -0.35262114 0.04587078 0.56568205 -0.005437976 -0.14322451 0.019566644 -0.3265388 0.05971818 0.11935758 0.24412957 -0.2941656 -0.33724305 -0.25462562 0.062976725 -0.16846561 0.37350333 0.06671982 -0.36565316 -0.039518695 -0.48680735 0.100677036 0.43281922 0.23370525 -0.29215372 0.2347421 -0.00803853 0.2740961 -0.27775577 0.3630271 -0.081047855 -0.15588722 -0.41880205 0.41986614 -0.10834591 -0.10188813 0.1290024 0.0023420153 0.21246913 -0.2570115 0.15461868
Acanthamoeba 0.07168864 0.1509845 -0.29379326 -0.21814112 -0.057751354 0.10528884 -0.017332936 0.31550595 -0.09437712 -0.45614076 -0.3601277 0.039867863 0.56418353 0.0060911546 -0.1433253 0.016263934 -0.3224212 0.04657911 0.12673019 0.2549754 -0.27536798 -0.33202305 -0.26918086 0.071576804 -0.14451228 0.36222562 0.061541144 -0.3705179 -0.03260562 -0.46903566 0.07485624 0.43849474 0.21736361 -0.29057443 0.232328 0.010378961 0.29716232 -0.2850756 0.33779946 -0.05938788 -0.14089854 -0.41515005 0.45357397 -0.11503356 -0.11147007 0.12087475 -0.006944986 0.1990095 -0.2752951 0.17001456
similar 0.069392025 0.14577086 -0.29686913 -0.2539441 -0.050019838 0.12324873 -0.014283988 0.30609939 -0.11513294 -0.43585315 -0.34193426 0.06253321 0.55746865 -0.0124269305 -0.11945877 -0.00087852415 -0.35522586 0.05261791 0.11549669 0.2454835 -0.30657 -0.33623803 -0.26426548 0.07812907 -0.15973881 0.3440537 0.059559874 -0.37984183 -0.04089152 -0.46631142 0.088128805 0.4284824 0.24023826 -0.31706873 0.25071612 0.0013651114 0.2815665 -0.31479543 0.33717313 -0.08363071 -0.15923597 -0.43073636 0.40185365 -0.081539184 -0.12157905 0.118151955 0.011942941 0.19586496 -0.25737286 0.16430028
involved 0.089598395 0.15901501 -0.32589048 -0.26852593 -0.063514136 0.13552101 0.004065211 0.34980378 -0.1044012 -0.48384544 -0.35855886 0.052840937 0.5760728 -0.02387942 -0.15667556 0.010364156 -0.36235124 0.05370827 0.12546842 0.27728653 -0.3066227 -0.31457847 -0.25763535 0.08086505 -0.1551096 0.35531646 0.058463912 -0.34519556 -0.037895117 -0.49066406 0.106725276 0.47844955 0.24696095 -0.30150822 0.25524256 -0.0024314942 0.25565925 -0.3032938 0.37084097 -0.0648075 -0.13909861 -0.47319722 0.43052888 -0.11659246 -0.1340467 0.15197474 0.012940068 0.2238081 -0.28522104 0.20758702
role 0.07168108 0.15666793 -0.30031833 -0.25124153 -0.06268338 0.1295691 -0.014450274 0.31765538 -0.09190141 -0.4497214 -0.3524549 0.051660497 0.56261045 -0.020947592 -0.14132793 0.007188725 -0.32860094 0.050681494 0.104490936 0.25722018 -0.29574567 -0.32753724 -0.24643764 0.06150248 -0.13703522 0.35716906 0.07181569 -0.3622285 -0.047497164 -0.46893027 0.07088019 0.437013 0.22318119 -0.28485826 0.24325222 0.004483537 0.28685886 -0.30326888 0.34053135 -0.03354628 -0.13661852 -0.42109728 0.43686464 -0.09858795 -0.10529424 0.12660788 0.012163938 0.19360745 -0.26963973 0.16518977
presence 0.085405715 0.13995264 -0.28261867 -0.2732426 -0.040104065 0.111600876 -0.008522901 0.2780935 -0.11394741 -0.4218727 -0.3786026 0.036903787 0.5742731 -0.04718222 -0.14913428 0.04221991 -0.33766127 0.08947918 0.101546586 0.22837152 -0.271904 -0.3403476 -0.23789991 0.091745146 -0.21751489 0.38097572 0.05332107 -0.3553153 -0.054117344 -0.4970821 0.0942936 0.41956705 0.2249878 -0.32253805 0.18367054 -0.027237386 0.28012303 -0.2736498 0.36555907 -0.081285395 -0.20435467 -0.42718673 0.39541242 -0.10732921 -0.074650995 0.10438136 -0.021001417 0.22603746 -0.2278691 0.15893659
UL8 0.05647309 0.15353623 -0.30886897 -0.28968078 -0.0064487583 0.13812733 -0.05195492 0.23054439 -0.1648247 -0.47636643 -0.3745315 0.013656135 0.62276185 -0.0536368 -0.1656472 0.010631581 -0.36919075 0.116269544 0.09678473 0.26504856 -0.30658123 -0.3559678 -0.22499008 0.1029048 -0.20905255 0.42653835 0.09677379 -0.3925087 -0.083620615 -0.5214675 0.051625617 0.41827255 0.21647848 -0.32582504 0.1754606 -0.023213604 0.29779512 -0.33367622 0.37411547 -0.08015215 -0.22800936 -0.4768693 0.46041608 -0.04211562 -0.06639844 0.08399792 -0.035316605 0.2409311 -0.23165824 0.12212947
phosphoprotein 0.05832837 0.103782006 -0.26493987 -0.35947365 0.052493747 0.120178945 -0.08256529 0.1924374 -0.2167859 -0.33055308 -0.41480395 -0.03746923 0.5563027 -0.08128754 -0.08898293 0.032551613 -0.37131202 0.14908127 0.13837607 0.206897 -0.3784734 -0.47107738 -0.15811494 0.14858903 -0.2563255 0.40423554 0.18028939 -0.47865862 -0.055526372 -0.54964006 0.08861431 0.32627866 0.2967814 -0.42886123 0.13695897 0.0026323323 0.38620672 -0.36206543 0.42605066 -0.19925478 -0.23917958 -0.41284016 0.42465335 0.025698857 0.021206649 0.02324638 -0.09175169 0.20355868 -0.19943124 -0.037475534
during 0.06194341 0.13944964 -0.2868897 -0.29351926 -0.0129643325 0.09401721 -0.045022625 0.23215312 -0.1278337 -0.42130357 -0.39481816 0.061844155 0.58922285 -0.04468609 -0.14093162 0.030617308 -0.32049567 0.04514333 0.1220043 0.22802292 -0.26527888 -0.3851565 -0.24150439 0.1341921 -0.1847851 0.38203433 0.1075713 -0.39564887 -0.07066534 -0.49892667 0.05279505 0.4030944 0.17533483 -0.3128091 0.16782296 -0.053492315 0.34851262 -0.33419383 0.35917768 -0.08174192 -0.21687712 -0.4069555 0.47442076 -0.10286203 -0.009202827 0.049074855 -0.048661426 0.21510352 -0.24311161 0.0825576
UL52 0.084011205 0.16430679 -0.31785133 -0.27307522 -0.0016158284 0.13775606 -0.06041657 0.23644355 -0.13951944 -0.4754576 -0.380097 0.024102226 0.61853504 -0.064857 -0.1563694 -0.0004717964 -0.3824216 0.11000709 0.11913133 0.25178298 -0.2994149 -0.3511034 -0.23296782 0.10197288 -0.20312351 0.4145884 0.09609237 -0.37906322 -0.06983458 -0.5191219 0.052609626 0.40276968 0.24848779 -0.3256404 0.17022578 -0.034397233 0.30549154 -0.3431073 0.35734668 -0.08848529 -0.23151371 -0.46269855 0.4265612 -0.047924567 -0.064593896 0.07091807 -0.024301533 0.24145886 -0.24741082 0.10703343
repair 0.08785195 0.17325655 -0.32428074 -0.24839504 -0.054371815 0.15469134 -0.031862773 0.32449204 -0.11741216 -0.4997005 -0.3509612 0.04750955 0.6020634 -0.048435517 -0.15653822 -0.023254855 -0.39499682 0.06475697 0.116973735 0.280853 -0.32285264 -0.35085076 -0.2648892 0.06814832 -0.1525109 0.37734684 0.056704324 -0.38187748 -0.050123557 -0.4946065 0.076762356 0.46044523 0.28305998 -0.32475543 0.26098529 -0.0076418566 0.28581062 -0.33223712 0.34534004 -0.077047884 -0.12892829 -0.46498975 0.42823073 -0.08740008 -0.12025161 0.1435584 0.028447323 0.23211187 -0.2834001 0.16826153
profilins 0.057163265 0.15065433 -0.2831656 -0.22945859 -0.052390657 0.11855606 -0.030661047 0.33641037 -0.109223604 -0.4501724 -0.34640393 0.046451062 0.56010383 0.01513909 -0.12704794 -0.008950037 -0.33525702 0.031586293 0.13849348 0.27365506 -0.2907945 -0.32784092 -0.27055457 0.08251664 -0.10082334 0.3328881 0.077667065 -0.36413142 -0.04811765 -0.44257593 0.065761596 0.45093766 0.22941439 -0.28309715 0.2785954 0.022856059 0.28195423 -0.33091962 0.32611844 -0.033403702 -0.07831442 -0.4271045 0.46541348 -0.0894191 -0.149544 0.107103646 0.02484023 0.17489602 -0.30704832 0.16085944
vitro 0.065293364 0.13726044 -0.27935112 -0.25996318 -0.051181592 0.107457496 -0.030105887 0.27405855 -0.09989473 -0.41984355 -0.35459962 0.055584643 0.54323316 -0.016847098 -0.13582955 0.021400966 -0.32411915 0.050127413 0.11956423 0.22406186 -0.27765182 -0.33392334 -0.24809845 0.105252564 -0.16803496 0.35719565 0.07221623 -0.37282574 -0.05148492 -0.47536 0.07796423 0.4137968 0.21900438 -0.28993034 0.21378401 -0.019758126 0.29830942 -0.30827257 0.34383148 -0.06950595 -0.15953654 -0.42087975 0.43122113 -0.087452814 -0.054858286 0.09701848 -0.00811351 0.20629267 -0.24953306 0.14719768
type 0.022213338 0.13856158 -0.2609187 -0.26911965 -0.03072552 0.10403803 -0.08379682 0.20149508 -0.1127035 -0.44383794 -0.37466207 0.038781464 0.58151126 -0.033716716 -0.07566884 -0.00729065 -0.2878344 0.014941877 0.15450795 0.241129 -0.28763938 -0.37330192 -0.25979763 0.1343924 -0.11038411 0.37708446 0.17332534 -0.42968392 -0.07575281 -0.48881558 0.014920356 0.41193926 0.15518056 -0.30596998 0.22856466 0.0039168685 0.38938957 -0.42836696 0.3337976 -0.01372034 -0.10845685 -0.38804403 0.58023727 -0.05551046 -0.019463157 0.017616674 -0.023433758 0.17305487 -0.300366 0.052718405
antibodies 0.05354229 0.14087567 -0.29318777 -0.27674684 -0.021772576 0.11560091 -0.054934565 0.23830505 -0.12681037 -0.43246806 -0.391973 0.07408046 0.5853155 -0.03452634 -0.12764996 0.02934554 -0.33752105 0.038059082 0.11854599 0.19964369 -0.27111468 -0.36706716 -0.25744966 0.15250471 -0.18154651 0.38971978 0.1122621 -0.41328585 -0.05372711 -0.5096648 0.04771608 0.4080432 0.1977904 -0.310019 0.18670373 -0.04670587 0.3635664 -0.33345386 0.3678166 -0.10251571 -0.2157786 -0.41638505 0.4796849 -0.086746514 -0.022484984 0.041243833 -0.03983673 0.21771014 -0.2515357 0.11391341
beta 0.047937784 0.12765704 -0.2788166 -0.27996784 -0.015373182 0.08318997 -0.06459835 0.1872857 -0.15064906 -0.39579353 -0.40371153 0.031053126 0.5755855 -0.041847173 -0.12393025 0.026751153 -0.29898968 0.05240141 0.12142099 0.20941435 -0.29466635 -0.40644556 -0.22730173 0.13658927 -0.17893475 0.38172117 0.121814564 -0.43130282 -0.06544804 -0.4874864 0.038800374 0.3876545 0.17767806 -0.31600672 0.16394036 -0.037431415 0.37652048 -0.36391386 0.3720671 -0.09425709 -0.19880155 -0.3956348 0.51620585 -0.069230415 0.00025018584 0.03642089 -0.058051884 0.19251278 -0.24057871 0.050319765
associated 0.06259434 0.13621297 -0.32826185 -0.28788865 -0.04030928 0.113348745 -0.0029677318 0.30282563 -0.1277172 -0.45394734 -0.37195233 0.06912499 0.60428035 -0.04455582 -0.15525316 0.03363833 -0.37924483 0.08487449 0.100976974 0.22311734 -0.29738906 -0.36184758 -0.25229323 0.11680956 -0.21700743 0.37415788 0.05644775 -0.386606 -0.055680823 -0.528554 0.06342855 0.45605314 0.26878196 -0.32968777 0.2145821 -0.016327327 0.3039253 -0.2893433 0.3793645 -0.12084804 -0.21947475 -0.45046183 0.3930824 -0.10053844 -0.077092916 0.10225959 -0.0024331384 0.24112147 -0.25355208 0.16016059
required 0.07050781 0.13818185 -0.30976617 -0.2431918 -0.05245326 0.14095217 -0.042331934 0.3342801 -0.11193432 -0.47158682 -0.35933006 0.05858916 0.58472055 -0.022909975 -0.11845292 -0.0049291733 -0.36357084 0.05758249 0.11994299 0.2700648 -0.30614954 -0.33599076 -0.27351868 0.083491154 -0.1648937 0.34708053 0.07314116 -0.36958343 -0.0640347 -0.48855367 0.08951137 0.4654113 0.25884047 -0.32813174 0.2736406 0.02421316 0.30014035 -0.3376706 0.34887955 -0.08542461 -0.14385734 -0.4607298 0.4460053 -0.10500536 -0.11403008 0.13680205 0.023589626 0.1912965 -0.28939423 0.1657075
UL5 0.060747854 0.14550924 -0.32683438 -0.27738106 -0.02129107 0.14935859 -0.051454116 0.2724525 -0.14321385 -0.47763118 -0.37474594 0.035726625 0.6269058 -0.03679074 -0.15816312 -0.007839481 -0.3756147 0.096295185 0.095602825 0.27898017 -0.3156244 -0.34870675 -0.23389418 0.09337937 -0.19222197 0.41043505 0.057271965 -0.37189996 -0.05490343 -0.52396995 0.06449723 0.43978342 0.23864034 -0.32050174 0.20565334 -0.017251521 0.28343144 -0.32570475 0.38051698 -0.068242684 -0.19764556 -0.49112132 0.43466687 -0.0617818 -0.104047045 0.092180826 -0.0146561675 0.24700479 -0.23648386 0.14686681
2 0.06128165 0.15106179 -0.28366172 -0.2703311 -0.0057810955 0.08829522 -0.08127013 0.2155341 -0.13665482 -0.41984987 -0.37985694 0.02531346 0.5768844 -0.022025516 -0.093036756 0.014203777 -0.3130575 0.04213907 0.14193739 0.23372407 -0.2894283 -0.4020429 -0.2395814 0.14696757 -0.14302659 0.37451795 0.15053616 -0.44177476 -0.048938178 -0.48935175 0.039238933 0.40529802 0.18468799 -0.32046196 0.18555343 -0.026468508 0.37880406 -0.39838758 0.35335037 -0.079618126 -0.14316411 -0.38662162 0.5328333 -0.053714044 -0.01590546 0.044954594 -0.031454433 0.1905174 -0.28479818 0.044535886
function 0.056509815 0.14770593 -0.29703626 -0.2317718 -0.06440973 0.13489208 -0.023104439 0.33902583 -0.10296549 -0.44775325 -0.34033978 0.045036025 0.5379435 -0.002803248 -0.1210483 -0.00088043173 -0.3340352 0.040890303 0.115336955 0.27625492 -0.28414533 -0.3178901 -0.24851753 0.06808859 -0.12718233 0.33325624 0.069683716 -0.3581424 -0.049787287 -0.46226004 0.08210121 0.44414777 0.2423871 -0.2896483 0.26467416 0.0011903032 0.26444635 -0.3086296 0.32718006 -0.03177407 -0.1135526 -0.43913212 0.4382428 -0.107426554 -0.12966868 0.14003438 0.012177221 0.19021654 -0.28515342 0.17176616
effect 0.06337824 0.1537238 -0.26329824 -0.24651974 -0.038762532 0.090140894 -0.023063274 0.25360447 -0.123648115 -0.44036305 -0.3849903 0.028870944 0.5718943 -0.030189697 -0.14715995 0.03855394 -0.3192835 0.05399207 0.13060704 0.25199732 -0.2694213 -0.3671338 -0.23244233 0.096853584 -0.16759385 0.39247364 0.08782306 -0.39238736 -0.04900617 -0.48407516 0.06565334 0.4211473 0.20475134 -0.30615154 0.17713274 -0.029687867 0.3228207 -0.3095215 0.35601223 -0.058168653 -0.18591572 -0.41173702 0.45153317 -0.121217184 -0.04173034 0.09421973 -0.033935636 0.21080603 -0.25855637 0.12063542
microM 0.05521663 0.14202264 -0.28266716 -0.23773365 -0.03771173 0.105340816 -0.03952608 0.2672477 -0.12063673 -0.42715132 -0.34220934 0.033569787 0.5394192 -0.02359369 -0.09834262 0.006223313 -0.32395515 0.055676565 0.12232947 0.2476094 -0.29149413 -0.3523375 -0.23979178 0.08274431 -0.14678332 0.3557181 0.09402538 -0.39665878 -0.040016573 -0.45893544 0.06731319 0.39467704 0.2260442 -0.31266373 0.22945394 0.009659947 0.32376724 -0.35014012 0.35001045 -0.070193745 -0.12655377 -0.41777632 0.4381411 -0.06336538 -0.09589195 0.09409939 -0.0069693853 0.19148876 -0.28069723 0.10630809
containing 0.052325357 0.14094745 -0.29408476 -0.25565526 -0.040336363 0.12990145 -0.053601757 0.27721933 -0.11248619 -0.4382481 -0.3583598 0.05448824 0.5729744 -0.031459097 -0.1169431 0.017334988 -0.34326452 0.065374926 0.11663077 0.25098863 -0.29673696 -0.35542834 -0.26711142 0.11940493 -0.15903285 0.37447742 0.084773585 -0.39642504 -0.06325461 -0.48570338 0.058971707 0.42586148 0.22829118 -0.31361014 0.22197372 0.0028567007 0.3310185 -0.3362175 0.35100585 -0.07718751 -0.1734586 -0.4302052 0.4410881 -0.05871897 -0.08928306 0.078170404 -0.021414699 0.21303917 -0.27313358 0.123570606
cyclin-dependent 0.117537126 0.13405782 -0.33514783 -0.25857884 0.019817546 0.06628319 -0.015988821 0.25154987 -0.15183784 -0.47700232 -0.41536418 -0.068371184 0.6010286 -0.0018468967 -0.05703125 0.035699315 -0.38924146 0.1104403 0.11799887 0.25141776 -0.31583962 -0.40603077 -0.22262457 0.14191464 -0.17159209 0.40310585 0.14116393 -0.4455061 -0.040157028 -0.55639184 0.055839542 0.41563663 0.27214468 -0.39432842 0.2370705 -0.038126774 0.2979768 -0.3995348 0.38347417 -0.09341302 -0.1413624 -0.46692815 0.47039652 -0.11847848 -0.05816376 0.13321956 0.018356513 0.1987565 -0.29498386 0.07680529
shown 0.069625065 0.16304876 -0.30215654 -0.23315658 -0.067042924 0.14982712 -0.035601493 0.33600578 -0.08805378 -0.48293278 -0.35465798 0.0504323 0.5693517 0.00012499564 -0.12505881 -0.0066200527 -0.37687716 0.043599833 0.12918289 0.28875303 -0.29860896 -0.33221912 -0.26739964 0.09064081 -0.11336597 0.34912655 0.053143747 -0.392189 -0.035039 -0.47529092 0.07220248 0.4691602 0.24308838 -0.31556076 0.281904 0.013525309 0.29666704 -0.3410144 0.3599181 -0.030671235 -0.12463304 -0.45749485 0.45178723 -0.09384564 -0.16518225 0.14124613 0.011749203 0.19704601 -0.28354704 0.1963256
sites 0.0600805 0.13957243 -0.28129762 -0.2551525 -0.050662983 0.113208555 -0.042192593 0.2862716 -0.12136967 -0.4572575 -0.3757514 0.040998228 0.5775027 -0.016314484 -0.14170687 0.018047653 -0.32222602 0.023429327 0.12671049 0.26622954 -0.28380018 -0.36467636 -0.26583454 0.10589821 -0.1467249 0.37076548 0.08217725 -0.3969431 -0.03874655 -0.475368 0.06781682 0.43590322 0.19511513 -0.3210763 0.22488129 -0.013546226 0.30604526 -0.33387578 0.35946682 -0.05214489 -0.14967176 -0.41209704 0.49305087 -0.11478651 -0.08237921 0.091900185 -0.010378214 0.19620304 -0.27128366 0.13647167
complexes 0.06214333 0.14113367 -0.3312441 -0.26117182 -0.04995444 0.14229596 -0.0071210396 0.33201903 -0.1082671 -0.4632267 -0.36424497 0.0639812 0.58835673 -0.034810808 -0.1266447 0.013917349 -0.38350227 0.09057299 0.08774471 0.2541487 -0.3124849 -0.34779444 -0.28256944 0.10050957 -0.18768157 0.3837074 0.051136144 -0.39192152 -0.06612631 -0.5052411 0.06474028 0.43478075 0.2843999 -0.3043203 0.23934263 0.0018551722 0.30368152 -0.27992314 0.3763398 -0.08883661 -0.18979439 -0.45083827 0.3874887 -0.08778656 -0.12864798 0.117392935 -0.0010640251 0.23063149 -0.25148603 0.18688774
synthesis 0.060732465 0.1508388 -0.2725751 -0.30271673 -0.008081722 0.07421726 -0.082433976 0.17183624 -0.13958576 -0.4122157 -0.40336585 0.05446837 0.61072093 -0.06069729 -0.11118392 0.048199605 -0.27999943 0.013553407 0.1336267 0.1906554 -0.266732 -0.40334228 -0.23671311 0.19175902 -0.1810108 0.39853573 0.15156938 -0.42107132 -0.0660207 -0.49264464 0.028755797 0.39817953 0.13247943 -0.31269643 0.14004746 -0.06352919 0.38817996 -0.39627042 0.355234 -0.08201539 -0.21733274 -0.3862808 0.54945266 -0.09566293 0.05882467 0.008976389 -0.061628297 0.22176422 -0.24053591 0.042104833
adhesion 0.0667624 0.1399067 -0.33217382 -0.2750891 -0.050828997 0.13057482 -0.020162009 0.30157587 -0.10180466 -0.4454352 -0.35858777 0.055621646 0.58019763 -0.046481974 -0.123433866 0.008903376 -0.37941957 0.1050368 0.11522193 0.24838497 -0.3088092 -0.35067743 -0.25039417 0.11301738 -0.18504286 0.37364957 0.060630303 -0.38697517 -0.055818964 -0.5063003 0.08145838 0.4327275 0.2635962 -0.30504993 0.24133931 0.009806414 0.3108234 -0.3163812 0.3826171 -0.09454573 -0.19550869 -0.45321286 0.40365708 -0.07584994 -0.10489278 0.09322022 -0.002655093 0.23031963 -0.26609966 0.16944167
whereas 0.07204082 0.15047902 -0.30286282 -0.26359656 -0.031775456 0.12552737 -0.04074215 0.27662924 -0.10976885 -0.44167444 -0.34879044 0.041855715 0.5839101 -0.028461171 -0.13135202 0.021015907 -0.3632074 0.09694606 0.09634763 0.24104539 -0.30567405 -0.3449442 -0.25106657 0.10123179 -0.18915264 0.3622318 0.07209271 -0.38361767 -0.057504505 -0.5077061 0.06045315 0.4327882 0.24706529 -0.32837865 0.22244099 -0.013933099 0.31036296 -0.30249134 0.36920747 -0.094534434 -0.20230876 -0.4393181 0.41546276 -0.08255257 -0.08445763 0.09753324 -0.015420118 0.21293902 -0.25904486 0.14052539
three 0.07240932 0.15595824 -0.30763733 -0.247351 -0.057100996 0.13546827 -0.030044038 0.30485132 -0.10298564 -0.47974744 -0.35171127 0.04880685 0.57006323 -0.019755933 -0.14669205 0.001945208 -0.35093376 0.056882136 0.136493 0.28160837 -0.3000037 -0.3539039 -0.25831908 0.102401644 -0.14343192 0.36917338 0.08398671 -0.39220297 -0.04206001 -0.47665828 0.054762777 0.45219252 0.2345672 -0.32094437 0.25370112 -0.0105665 0.307702 -0.35248774 0.3465649 -0.052186593 -0.13771951 -0.44288155 0.473277 -0.099200204 -0.12176213 0.09429433 -0.010815669 0.19135857 -0.28061792 0.15059017
molecules 0.065880165 0.1517123 -0.32904932 -0.26541948 -0.04343426 0.13073952 -0.035832908 0.30931753 -0.1262753 -0.44388005 -0.3509825 0.051257618 0.56744295 -0.04444936 -0.12878034 -0.00088249426 -0.3610945 0.09406836 0.10945699 0.25413242 -0.3287696 -0.35472596 -0.254873 0.09615451 -0.17534028 0.37504157 0.07493082 -0.38242143 -0.051059492 -0.4972927 0.08416906 0.4331403 0.26801312 -0.3187511 0.23604043 0.0076095746 0.30882332 -0.30732602 0.38035792 -0.09411671 -0.1847882 -0.44782445 0.40607685 -0.081291415 -0.11747666 0.11575267 -0.014031579 0.23289084 -0.26178297 0.1553847
skeletal 0.061372735 0.14725813 -0.2728999 -0.29783398 -0.0063442006 0.08360168 -0.08258866 0.18606211 -0.13839649 -0.4182105 -0.41505408 0.05759858 0.6159509 -0.035666145 -0.114069 0.027773365 -0.27299565 -0.009289635 0.15011346 0.20652518 -0.2489222 -0.394688 -0.23143359 0.17071521 -0.16025852 0.39826033 0.17615654 -0.44450164 -0.06055963 -0.4994634 0.02141504 0.39362505 0.117675655 -0.30202684 0.14188054 -0.07666255 0.3819244 -0.3989691 0.36269167 -0.066234946 -0.19057012 -0.39876106 0.59528345 -0.092826344 0.07945558 -0.00109281 -0.054413754 0.21562138 -0.2528634 0.03931438
effects 0.075819924 0.16519774 -0.2820179 -0.2576008 -0.030137237 0.097938076 -0.035557427 0.28465173 -0.106605366 -0.44445324 -0.38560513 0.025870139 0.57704055 -0.021737732 -0.11844869 0.0044448967 -0.32662413 0.039875515 0.13297643 0.26027837 -0.28982994 -0.3598464 -0.24346358 0.09420646 -0.1512038 0.36181536 0.09630366 -0.38252014 -0.039991297 -0.48249185 0.06609559 0.43510273 0.20023125 -0.30619985 0.21585588 -0.021640956 0.32090327 -0.3536137 0.34517097 -0.044170927 -0.14184299 -0.42512906 0.48982778 -0.11424074 -0.081124276 0.084588625 -0.0024758969 0.20163947 -0.2749284 0.12611134
isoforms 0.057947032 0.15690775 -0.24736005 -0.33671272 0.009632405 0.04463106 -0.12868172 0.08638784 -0.14296423 -0.42891017 -0.4540555 0.06490646 0.6368351 -0.037146118 -0.11608647 0.050432514 -0.23688872 -0.04077906 0.1627543 0.18534492 -0.23848246 -0.4449863 -0.22989792 0.25872195 -0.16174424 0.4265061 0.22581205 -0.47870582 -0.063649595 -0.505219 -0.011221063 0.39154118 0.01844119 -0.33827657 0.08497752 -0.12837188 0.44731465 -0.48255545 0.3659494 -0.052540552 -0.23036022 -0.34970945 0.70209694 -0.0951151 0.14997746 -0.09307278 -0.09939674 0.20325491 -0.27472973 -0.029117875
show 0.06554198 0.15796155 -0.3119257 -0.19712292 -0.060641196 0.14943026 -0.05133537 0.35983506 -0.081675164 -0.48493046 -0.33428156 0.042152066 0.54853994 0.03371168 -0.11228528 -0.050486974 -0.35475162 0.049057104 0.16770357 0.30440867 -0.30911475 -0.31137353 -0.26433524 0.07267126 -0.051595606 0.35619107 0.07255334 -0.37931564 -0.042537905 -0.44761443 0.06951172 0.47273746 0.22543761 -0.31686586 0.31168568 0.028519697 0.286291 -0.3538597 0.34054783 -0.00015112963 -0.05624874 -0.4384379 0.48411825 -0.086493604 -0.19816333 0.14243056 0.009126843 0.15232271 -0.32012105 0.20089063
high 0.06553657 0.1486508 -0.30416316 -0.24672806 -0.04195837 0.12313234 -0.030127997 0.30708385 -0.12320194 -0.43545008 -0.36426073 0.049175724 0.561532 -0.015227499 -0.11294079 0.004247432 -0.34640262 0.06805059 0.10921819 0.24555834 -0.28771466 -0.32664993 -0.253033 0.092379995 -0.1518727 0.34876725 0.06398171 -0.36855242 -0.054276694 -0.4766934 0.06189937 0.42471525 0.2453709 -0.29425737 0.2331432 0.0040130503 0.29908937 -0.31037727 0.35924232 -0.07337454 -0.1650775 -0.4173606 0.4248135 -0.08528748 -0.08855382 0.10990533 0.008044266 0.19469166 -0.26657286 0.15417358
form 0.07309581 0.13615084 -0.3175548 -0.2596107 -0.05337663 0.1345624 -0.027930375 0.31267023 -0.119653344 -0.44173905 -0.34799594 0.06192853 0.5725005 -0.02434474 -0.14223461 0.017208993 -0.35940015 0.08698768 0.118782446 0.25880116 -0.31326497 -0.330922 -0.26622942 0.09495749 -0.16598716 0.3833946 0.05705366 -0.38616267 -0.053746153 -0.48928803 0.069311254 0.4419447 0.2547014 -0.3041098 0.23495822 0.0067523005 0.30574358 -0.29901984 0.36902896 -0.08136786 -0.15965009 -0.45195585 0.42498583 -0.087387845 -0.11758259 0.12868044 0.0058525046 0.20450267 -0.26472422 0.17630562
formation 0.05371227 0.14587374 -0.29352114 -0.2395271 -0.05598941 0.106708035 -0.029437771 0.2790664 -0.09703147 -0.44165567 -0.36044568 0.04369528 0.55800974 -0.008851855 -0.12274156 0.007950809 -0.3189058 0.050255273 0.11896661 0.24431232 -0.27087435 -0.340032 -0.23978736 0.102465756 -0.12303261 0.34889102 0.09327774 -0.36681518 -0.052664828 -0.4497934 0.05390699 0.41922095 0.21548972 -0.29682526 0.21667114 -0.0068488633 0.2999605 -0.3352109 0.3253994 -0.05255975 -0.122346155 -0.4147541 0.46380576 -0.09478223 -0.091188975 0.10125737 0.009785684 0.19157729 -0.26746285 0.13429867
nucleocapsid 0.05946268 0.12317726 -0.25963154 -0.3300733 0.036853015 0.09996204 -0.07711533 0.2087288 -0.19427018 -0.35048494 -0.40332073 -0.031181147 0.54536676 -0.048416328 -0.08846422 0.03927077 -0.34612092 0.12895164 0.13381329 0.22026826 -0.3388308 -0.4509659 -0.15578671 0.14347392 -0.20794588 0.37109032 0.16638795 -0.45316958 -0.04854302 -0.5085968 0.070559174 0.3470422 0.25870454 -0.38654712 0.16887654 0.010954339 0.36211503 -0.38580707 0.3839096 -0.1468306 -0.16856845 -0.38464892 0.456473 0.020191327 -0.011456796 0.041917212 -0.061034527 0.17189503 -0.23183444 -0.0080304565
domains 0.06905767 0.15007442 -0.30431604 -0.23096973 -0.055257775 0.11603795 -0.02939928 0.30442256 -0.10500573 -0.4683351 -0.34725514 0.05943335 0.56384206 -0.015364419 -0.13536833 0.005305034 -0.33697432 0.04698753 0.14152005 0.2660877 -0.2914277 -0.33604008 -0.25339922 0.097875796 -0.13725416 0.36247924 0.086609095 -0.37737387 -0.054749016 -0.47681454 0.052326858 0.44132164 0.21131259 -0.29815266 0.2502099 -0.005929473 0.29803017 -0.34507266 0.3337045 -0.047673475 -0.1254021 -0.4311177 0.47743422 -0.10132256 -0.10742231 0.09645484 0.013538055 0.1908793 -0.2953017 0.14166602
functions 0.07220892 0.15079653 -0.2972788 -0.238357 -0.04550327 0.128041 -0.014600737 0.30476013 -0.10905456 -0.45495176 -0.3425244 0.051262747 0.5557452 -0.0087731 -0.13511577 -0.009426562 -0.35063893 0.053056423 0.13135827 0.2691401 -0.3045834 -0.33613655 -0.25718415 0.07482586 -0.1415447 0.35921726 0.07203774 -0.37755525 -0.04065436 -0.47480962 0.069827914 0.42902377 0.22838655 -0.30845252 0.23771909 -0.0031040292 0.2935223 -0.31176406 0.33982012 -0.051070876 -0.1252671 -0.42676395 0.4367843 -0.083417974 -0.111972585 0.11301922 0.0037424185 0.19414057 -0.2891954 0.16341607
nucleotide 0.046160877 0.15039523 -0.2918724 -0.23449127 -0.052664697 0.11356209 -0.03656298 0.29767078 -0.10371876 -0.43506056 -0.3716128 0.042512715 0.55818754 -0.018464832 -0.109280676 -0.0039535593 -0.31044537 0.04012393 0.13389333 0.2618382 -0.28045642 -0.35463765 -0.2516484 0.08585668 -0.12707244 0.37033638 0.086717665 -0.37776318 -0.049205557 -0.4672057 0.07572284 0.43270603 0.22871192 -0.28869945 0.21342693 -0.0013728036 0.31044266 -0.3345926 0.35081238 -0.047899824 -0.14038964 -0.42041373 0.4678681 -0.08488127 -0.09892255 0.09660403 -0.015014555 0.18716767 -0.28058946 0.1277681
H4 0.08586132 0.14624254 -0.2844059 -0.2620666 -0.07671541 0.14791231 -0.028317176 0.32684112 -0.14358492 -0.47521013 -0.35367483 0.023590622 0.57446855 -0.027847152 -0.1502966 0.013960704 -0.3709403 0.060242094 0.12823887 0.26942754 -0.3469694 -0.3694496 -0.2662773 0.07508924 -0.122604884 0.3635472 0.073884726 -0.3791959 -0.044721406 -0.49274382 0.031053318 0.41881266 0.23593736 -0.34033346 0.2647664 -0.0067650657 0.27064854 -0.35726792 0.31140518 -0.10826984 -0.13410945 -0.43895334 0.46554437 -0.089982614 -0.1425309 0.09189423 -0.009623842 0.18283805 -0.25865543 0.18093564
mutant 0.059569757 0.15198483 -0.31021956 -0.25407347 -0.045826107 0.1194778 -0.02903784 0.29160023 -0.10951817 -0.42853388 -0.3488987 0.05550495 0.56766903 -0.027799888 -0.12895635 0.004414404 -0.33938828 0.08902273 0.10087533 0.23930879 -0.3063227 -0.34743032 -0.25033617 0.084580585 -0.18701757 0.36995357 0.07614761 -0.39042345 -0.067409195 -0.4900602 0.060976017 0.42641154 0.23971161 -0.3067815 0.22232474 -0.008496757 0.32094753 -0.2935835 0.36426207 -0.08584477 -0.18591508 -0.42577207 0.40972912 -0.078268364 -0.09394987 0.099989496 -0.023907078 0.21406452 -0.26407847 0.13389166
such 0.06430482 0.15890145 -0.3020067 -0.2839236 -0.050042607 0.12047249 -0.045330048 0.28890407 -0.11961582 -0.44055364 -0.3873297 0.054320347 0.597208 -0.028686212 -0.13027085 0.012227601 -0.33945465 0.06671665 0.1390071 0.2510305 -0.29998225 -0.3521516 -0.2552231 0.10784091 -0.16689517 0.37150273 0.088157736 -0.4243898 -0.047299124 -0.511548 0.05819391 0.42538932 0.21869366 -0.3124167 0.21774398 -0.039934356 0.35941058 -0.33264327 0.37120098 -0.04414975 -0.16742976 -0.44241905 0.48117942 -0.09516954 -0.06597994 0.05805735 -0.037284978 0.2331313 -0.26461616 0.11911811
vivo 0.064158596 0.13850008 -0.2901113 -0.255142 -0.04500613 0.10832607 -0.04004927 0.26348823 -0.10147889 -0.44004416 -0.34697893 0.056695372 0.5642421 -0.032835845 -0.12359032 0.0062663923 -0.31661147 0.048521373 0.12727728 0.23902214 -0.28187212 -0.34855613 -0.24177448 0.12563708 -0.13863221 0.35256532 0.09841998 -0.37313145 -0.062148288 -0.4614895 0.055573996 0.40251747 0.18694207 -0.28881302 0.1991967 -0.007953698 0.3218469 -0.33958644 0.3299909 -0.055416007 -0.1598071 -0.40505433 0.4605616 -0.0884703 -0.058778327 0.06325273 -0.0046371967 0.18599842 -0.2721076 0.13012995
study 0.068918936 0.17087595 -0.31426248 -0.23805872 -0.054913472 0.14035673 -0.053729735 0.32772768 -0.08810575 -0.46948984 -0.37044734 0.06634828 0.5979056 -0.008184896 -0.13411225 -0.005449395 -0.37355846 0.052887794 0.13853209 0.2718213 -0.3198684 -0.33968264 -0.26589018 0.07973863 -0.12563102 0.380247 0.09424075 -0.4030136 -0.053876277 -0.48298556 0.063299745 0.47099337 0.21848452 -0.30784014 0.27761266 0.006455001 0.33327034 -0.34583876 0.34969372 -0.05399266 -0.13712071 -0.43196684 0.4937499 -0.092010304 -0.1196878 0.09391775 -0.0034022608 0.18831922 -0.2971535 0.17347291
different 0.048614796 0.1532446 -0.3106565 -0.25245067 -0.042269807 0.11567617 -0.045627303 0.28319278 -0.106866024 -0.46132892 -0.36652094 0.051667936 0.58367336 -0.016477777 -0.1201227 -0.0075843455 -0.34313765 0.03574298 0.13085335 0.27353883 -0.30280262 -0.34620503 -0.27307352 0.10553433 -0.11853079 0.35780364 0.10302027 -0.41434535 -0.050875865 -0.48246583 0.046255533 0.43912408 0.19393776 -0.316957 0.2515196 -0.0023189285 0.32842427 -0.38277042 0.34111255 -0.039918263 -0.119616754 -0.43531594 0.5243258 -0.093890965 -0.09278762 0.09165066 -0.0068100183 0.1876328 -0.29019192 0.12724727
receptor 0.05042039 0.1335744 -0.29968694 -0.23164701 -0.055954892 0.10674999 -0.040617153 0.30923226 -0.1173936 -0.4529436 -0.3571356 0.04499914 0.5591401 -0.005998304 -0.10420813 0.0043060738 -0.33467343 0.052560244 0.14190584 0.25820902 -0.28761765 -0.33101028 -0.26324978 0.0924208 -0.12409773 0.34138435 0.087973684 -0.3967881 -0.0510065 -0.45163563 0.057253603 0.44118065 0.22511417 -0.28934637 0.2540242 0.0013896304 0.3098049 -0.35520563 0.34618583 -0.03231676 -0.11114764 -0.43310234 0.48363885 -0.0861812 -0.10659258 0.10670337 0.00912346 0.17521618 -0.29148027 0.14261511
cytoskeletal 0.056421798 0.14428079 -0.29142213 -0.26646253 -0.026147185 0.114450745 -0.04231359 0.29166925 -0.12152048 -0.45184594 -0.3764695 0.037826825 0.5710374 -0.016174063 -0.12032876 0.005266159 -0.34284768 0.042956457 0.118728004 0.24943507 -0.2839885 -0.35508987 -0.2512649 0.099779524 -0.16025683 0.36408895 0.08609576 -0.38251436 -0.038167156 -0.48395133 0.07938082 0.4264861 0.21773252 -0.30499953 0.22786191 -0.009675875 0.3191585 -0.32230338 0.3473605 -0.062424757 -0.1664286 -0.41919556 0.4630629 -0.0871325 -0.06915709 0.07927507 -0.0019078966 0.19621469 -0.26635116 0.12270161
expressed 0.061922587 0.14798152 -0.29338175 -0.2494128 -0.045955382 0.11238718 -0.05101522 0.2651001 -0.12360955 -0.42455134 -0.34382194 0.049303636 0.5712764 -0.02489574 -0.113989785 0.015818374 -0.33323947 0.050693844 0.121219896 0.2476108 -0.28922486 -0.33968896 -0.24337812 0.1168591 -0.13866322 0.34898108 0.10117995 -0.38563168 -0.06440361 -0.47285062 0.042652566 0.406678 0.20530306 -0.30147335 0.21965532 -0.0026320736 0.33610478 -0.36319998 0.3397512 -0.06410956 -0.142977 -0.4131159 0.47628057 -0.063803285 -0.080955885 0.06665419 -0.013302212 0.19958286 -0.2727263 0.12024583
showed 0.06198119 0.15092488 -0.28490907 -0.21680707 -0.04468732 0.11348004 -0.032600734 0.30809224 -0.09052552 -0.43873703 -0.32967222 0.05790021 0.53035605 -0.019002926 -0.11922293 -0.01942053 -0.33445403 0.05988433 0.12993836 0.2621531 -0.29570445 -0.31196985 -0.25160366 0.09200508 -0.106176764 0.3394231 0.07708447 -0.36118203 -0.04004668 -0.4377808 0.0509059 0.4176635 0.21010675 -0.29175487 0.2585149 0.0014664654 0.28546518 -0.32833216 0.34183168 -0.039251957 -0.117996134 -0.41256613 0.44622162 -0.08129268 -0.12846176 0.111157924 0.0010817003 0.18563233 -0.28497538 0.15866801
interactions 0.05915282 0.1377734 -0.29078913 -0.24214177 -0.038212597 0.12128126 -0.03380657 0.28695974 -0.116123565 -0.4385442 -0.3473874 0.047673766 0.5466004 -0.033474464 -0.1380836 0.01238383 -0.33236325 0.057408698 0.11241617 0.2523904 -0.28496572 -0.33716908 -0.2522762 0.08516162 -0.14505252 0.3551851 0.08673652 -0.3711766 -0.060564753 -0.4806324 0.07388938 0.42522445 0.22479197 -0.30509406 0.21621871 0.0033624272 0.28724092 -0.31424066 0.34760618 -0.06303958 -0.14517805 -0.41095963 0.4227674 -0.08886469 -0.09926659 0.10677144 -0.0076858154 0.20299679 -0.27489015 0.15424077
3 0.06303227 0.1491276 -0.2979085 -0.22951676 -0.040913373 0.12445186 -0.038622305 0.3020541 -0.119379215 -0.4351586 -0.34231806 0.042671498 0.5348321 -0.015132851 -0.11524438 -0.0052625565 -0.3384802 0.060933754 0.13219288 0.25943986 -0.30468297 -0.33978075 -0.24209842 0.090230554 -0.111149594 0.32358596 0.07806435 -0.37350604 -0.045055613 -0.45626584 0.06974657 0.4171812 0.22547747 -0.30041718 0.24605022 0.012672923 0.31156033 -0.33820444 0.33459774 -0.048082925 -0.09797171 -0.40506786 0.435847 -0.07357385 -0.12732838 0.109588645 0.0010030641 0.18732601 -0.28892606 0.12882647
[ 0.029850684 0.13837597 -0.27155793 -0.21350275 -0.036286224 0.1175979 -0.060455706 0.2785712 -0.109094135 -0.41843325 -0.33347678 0.0544448 0.5298369 -0.00045670272 -0.10649091 -0.016484318 -0.322849 0.01920118 0.1552598 0.26859927 -0.29569316 -0.33243448 -0.2620018 0.11518875 -0.086198606 0.33253694 0.11885129 -0.39496368 -0.044412196 -0.4374525 0.036255218 0.41648754 0.19239905 -0.2759304 0.238707 0.0026498393 0.3290548 -0.38931322 0.3086912 -0.020420745 -0.06302009 -0.3872649 0.48840353 -0.06910443 -0.11931375 0.0869449 0.020338975 0.16460666 -0.29986072 0.10174217
] 0.049089532 0.12870531 -0.26153356 -0.22248603 -0.05229532 0.10079525 -0.043102622 0.25706968 -0.10430807 -0.40922603 -0.32915622 0.031191437 0.50253326 0.011257987 -0.096184954 -0.016626675 -0.3138805 0.029204164 0.1339887 0.25690436 -0.28466865 -0.31733558 -0.23566356 0.09209178 -0.064723834 0.2986526 0.10412545 -0.37634113 -0.031903874 -0.4023869 0.053128514 0.3961294 0.17705876 -0.2711529 0.25486407 0.026987288 0.30244407 -0.36712795 0.2921613 -0.021393197 -0.055854417 -0.36883503 0.4778639 -0.052066155 -0.113085665 0.090132646 0.021000069 0.15275049 -0.30168635 0.10082241
