5200 20
, -0.17183211 0.23863283 -0.25784925 0.17887804 -0.47021607 0.4703208 0.370706 -0.6862491 -0.6294708 0.5573394 0.41135857 -0.30468374 -0.33353132 0.08757028 0.6336084 -0.6920699 0.5675711 0.65939397 0.9101829 0.2601001
of -0.118780404 0.031247538 -0.4041819 0.12643111 -0.5339278 0.26414964 0.3213088 -0.5890838 -0.6478015 0.44249272 0.54433066 -0.16271932 -0.24851449 -0.17593497 0.4860246 -0.7694769 0.4211349 0.4801923 0.85152113 0.2210166
the -0.16523123 0.13100438 -0.37933463 0.17510149 -0.50347376 0.10786221 0.31373528 -0.54697984 -0.6978969 0.56044537 0.4813468 -0.09185237 -0.17686673 -0.2829837 0.3911232 -0.8065906 0.34018105 0.41226622 0.743571 0.2777044
and -0.21444806 0.12424827 -0.30260563 0.23398149 -0.6463039 0.48705393 0.43139297 -0.6488045 -0.5944176 0.30680475 0.4468895 -0.36615068 -0.31503096 -0.104089044 0.6317344 -0.77812874 0.6162475 0.7320014 0.8008908 0.22744311
. -0.16758804 0.043193605 -0.3901278 0.12688968 -0.5443259 0.32256466 0.3368921 -0.5775836 -0.4772613 0.36128753 0.38495287 -0.3044617 -0.11118908 -0.18187585 0.47477108 -0.8018831 0.4663521 0.59341145 0.69850546 0.2371127
in -0.16989566 0.07636167 -0.41096875 0.09245454 -0.53718585 0.17861795 0.28118443 -0.50666934 -0.5603088 0.47166336 0.47516772 -0.21686727 -0.1431783 -0.28766915 0.39604524 -0.84456867 0.31072825 0.4461052 0.7260478 0.34362528
actin -0.28225502 -0.01744198 -0.43517035 0.15463945 -0.85490525 0.3349642 0.49135864 -0.6669241 -0.4451535 0.109325945 0.5647088 -0.3403932 -0.31077507 -0.35307172 0.47074592 -0.9244586 0.4613921 0.6409318 0.6925269 0.17807283
to -0.15778011 0.1787114 -0.30317143 0.14500345 -0.37370425 0.052003864 0.24385254 -0.554506 -0.7579242 0.5689882 0.5218887 -0.18940333 -0.18498413 -0.30496442 0.4893189 -0.77969784 0.28921497 0.40869078 0.8303262 0.28137073
) -0.12061696 0.016533243 -0.3780139 0.1974015 -0.2124716 0.56489277 0.31462282 -0.5472349 -0.6279802 0.3572807 0.28148296 -0.403578 -0.24392925 0.18649574 0.7395835 -0.77185416 0.7314227 0.89281297 0.86469704 0.24409208
( -0.14134216 -0.057422057 -0.30630317 0.24953707 -0.32786125 0.51981884 0.34221265 -0.66265213 -0.5087132 0.28973222 0.23433734 -0.29862916 -0.12077083 0.19067553 0.7628949 -0.7589116 0.6801164 1.0000312 0.8537927 0.18909426
a -0.09845528 0.023185004 -0.34717542 0.13209657 -0.41859147 0.06468794 0.25363725 -0.49613467 -0.58749247 0.61996293 0.39448568 -0.1740424 -0.12185711 -0.2690965 0.38878947 -0.80509734 0.332812 0.4761563 0.7594838 0.34667033
with -0.0908518 0.20654911 -0.32745638 0.11510204 -0.39229608 0.17927621 0.20350042 -0.59446776 -0.73481184 0.739329 0.54906434 -0.1347701 -0.20431283 -0.20553039 0.49988356 -0.7338051 0.30348447 0.39745575 0.84408635 0.2629442
that -0.087486215 0.17282832 -0.37751222 0.13716072 -0.42603928 -0.013637212 0.22857113 -0.43680692 -0.74543595 0.6622859 0.4788247 -0.11710188 -0.2048126 -0.3131563 0.36163187 -0.8041704 0.24377774 0.35509259 0.8088232 0.37639517
profilin -0.18406335 0.13938314 -0.4196831 0.17906044 -0.4672585 0.03374246 0.34212017 -0.54173607 -0.6975289 0.52312577 0.43672588 -0.2182271 -0.2304439 -0.39075914 0.35665026 -0.79966486 0.31827822 0.39433804 0.7474672 0.31184515
for -0.20375974 0.07517967 -0.38397738 0.17016323 -0.41788158 0.19247444 0.235908 -0.50924224 -0.5865098 0.4939136 0.39573348 -0.17399538 -0.09839722 -0.25322878 0.42260066 -0.8140674 0.36549735 0.51338893 0.77705127 0.32247716
is -0.16929246 0.21096666 -0.3460844 0.14213157 -0.34867787 0.07663456 0.24190332 -0.48527154 -0.7864473 0.66747344 0.5097174 -0.15610737 -0.21326092 -0.2853232 0.45463935 -0.7448812 0.2843915 0.3526698 0.84681857 0.3328004
by -0.123475276 0.0837921 -0.43212867 0.14988868 -0.41216063 0.0829345 0.22036868 -0.47998002 -0.70864826 0.5990739 0.4935581 -0.15545905 -0.17664781 -0.26663628 0.4762741 -0.783363 0.3242964 0.37672153 0.77339333 0.27226532
protein -0.20311561 0.08159297 -0.34233278 0.1802647 -0.35900068 0.2824434 0.38955832 -0.5743502 -0.7905704 0.47922146 0.40267053 -0.28999686 -0.2216549 -0.05674928 0.5015648 -0.7576368 0.40586334 0.6147093 0.8136161 0.24544774
The -0.1186768 -0.020291967 -0.36607867 0.081301704 -0.44464687 0.11007203 0.21327275 -0.46593598 -0.42884508 0.51773643 0.3527625 -0.15886827 0.049189985 -0.29339153 0.32034782 -0.8588512 0.35761854 0.53714186 0.6443431 0.32789055
proteins -0.2051965 0.17579278 -0.35247564 0.1764092 -0.48467445 0.2592124 0.37420657 -0.5377327 -0.70723766 0.53175986 0.42698398 -0.2808112 -0.21073051 -0.1928726 0.49667698 -0.7408515 0.36530373 0.51473737 0.7757473 0.31369495
was -0.1406447 0.113601565 -0.37491158 0.11709108 -0.42319664 0.1883481 0.2834321 -0.514934 -0.5767341 0.557454 0.42266837 -0.19527537 -0.13448091 -0.2123665 0.4556275 -0.7901451 0.3952601 0.47681388 0.71296036 0.2741631
beta-catenin -0.05487044 0.58997095 0.01977989 0.2618998 -0.3499363 0.49395332 0.34758583 -0.9073333 -1.2544934 1.0735872 0.6808508 -0.14612807 -0.7068056 0.30047706 0.8480789 -0.53267926 0.39665002 0.50062424 1.2755927 0.30370042
cells -0.18297063 0.12188029 -0.37235737 0.0959894 -0.42720938 0.079471506 0.23946312 -0.49791843 -0.57561195 0.59390295 0.45569062 -0.12924317 -0.070030086 -0.2897894 0.32463992 -0.7880769 0.308515 0.41115823 0.68174535 0.30693257
myosin -0.4391799 -0.3303482 -0.67820233 0.27608806 -1.1400945 0.9345647 0.8580044 -0.71785814 0.14673693 -0.3851856 0.4358848 -0.6199608 -0.25623104 -0.20308237 0.61678493 -1.3216033 1.0000234 1.3939354 0.57359284 0.08792469
alpha-catenin -0.029201923 0.6555109 0.031040963 0.17586774 -0.2823091 0.4568865 0.35389128 -0.93921226 -1.2623351 1.0741863 0.6787213 -0.068570346 -0.72269005 0.29703456 0.8729421 -0.5905766 0.44647136 0.4726411 1.3843015 0.1839929
binding -0.18392573 0.2364119 -0.31521142 0.19253232 -0.46368313 0.12567869 0.34908712 -0.5474884 -0.8073723 0.5622427 0.54925114 -0.16572337 -0.33781442 -0.25733104 0.4628172 -0.78219116 0.3421726 0.37394068 0.80198926 0.23430166
chain -0.50949556 -0.4004451 -0.64068466 0.34557116 -1.2863364 1.0268936 0.8599316 -0.74108124 0.11036526 -0.41950798 0.50017095 -0.7858476 -0.24323875 -0.17460692 0.5925433 -1.2938677 1.143087 1.4018036 0.55923134 0.10839059
are -0.17860448 0.20392385 -0.33216852 0.10509678 -0.39067557 0.17185715 0.27909654 -0.5098318 -0.6221297 0.63252795 0.36373535 -0.17384514 -0.05945156 -0.29326963 0.42028943 -0.82602847 0.3080493 0.45972425 0.7396418 0.3640202
were -0.15400966 0.15054254 -0.29271188 0.08470653 -0.38098434 0.32352164 0.3182403 -0.5811088 -0.5465024 0.54106003 0.45193756 -0.19223562 -0.11926254 -0.16500051 0.4798598 -0.76023465 0.4623047 0.544218 0.7857825 0.25654152
cofilin -0.14100488 0.18392503 -0.417972 0.11643037 -0.38428125 0.068393774 0.28827342 -0.5072722 -0.7631701 0.61559767 0.50245076 -0.1515268 -0.23007338 -0.27137172 0.37766904 -0.74524385 0.27333468 0.37638086 0.7950079 0.33331603
as -0.19989653 0.10405389 -0.38569364 0.12756912 -0.47327796 0.22626151 0.3162966 -0.5129324 -0.61489743 0.47226885 0.46121758 -0.21743539 -0.14805023 -0.22861949 0.45840937 -0.8292786 0.34216312 0.46150652 0.84328425 0.2881875
heavy -0.57706493 -0.33302084 -0.57652277 0.099283054 -1.2548763 0.9550964 0.73894775 -0.89173746 -0.0091670705 -0.3844162 0.4413678 -0.8042842 -0.17145692 -0.2962476 0.6864698 -1.2296214 1.1113436 1.4146565 0.4681483 0.02535355
not -0.1284271 0.31449157 -0.33800656 0.1584007 -0.2877314 0.14313677 0.20568208 -0.50887966 -0.7569393 0.73815554 0.57271385 -0.18187928 -0.227127 -0.11854474 0.60014683 -0.6939236 0.36574638 0.41904926 0.8792403 0.3535842
or -0.20062098 0.17321682 -0.25169742 0.19084106 -0.44903943 0.36285987 0.3750628 -0.6168039 -0.6570036 0.50314486 0.4777295 -0.26950127 -0.2583465 -0.011714863 0.6257475 -0.7861251 0.5190709 0.6132236 0.8134706 0.23477137
on -0.19935328 0.021085529 -0.46021563 0.12591402 -0.54644734 0.22388622 0.35015842 -0.5186021 -0.5612111 0.39876556 0.44039327 -0.24133 -0.075377695 -0.2956218 0.37714696 -0.8523732 0.35075817 0.52092624 0.6649471 0.26156548
an -0.10863756 0.109516084 -0.38142288 0.14029437 -0.41247857 0.080809414 0.23711054 -0.5116363 -0.70025265 0.60584664 0.43977007 -0.18773308 -0.123529956 -0.2543207 0.38275826 -0.80899537 0.3654175 0.44599175 0.7214629 0.3198624
which -0.16984868 0.17964695 -0.35251397 0.1798787 -0.40979055 0.10107116 0.2929434 -0.51360893 -0.71798766 0.6116738 0.48540732 -0.16289444 -0.18876393 -0.22554651 0.43205565 -0.75437033 0.38532427 0.45596915 0.845188 0.2945926
from -0.100025296 0.09570458 -0.3562623 0.088895135 -0.3195734 0.103955895 0.20745163 -0.48083732 -0.572393 0.6415767 0.41850027 -0.15003154 -0.004080879 -0.28144896 0.43625146 -0.82043093 0.33275282 0.44422302 0.6804584 0.36513263
cell -0.13889316 0.07184049 -0.29748356 0.09474702 -0.3565544 0.10906646 0.22434363 -0.46982235 -0.6716798 0.6996703 0.48923308 -0.15958716 -0.09893902 -0.22410823 0.40089178 -0.7425193 0.3235598 0.4149116 0.7704831 0.34339097
expression -0.23872332 0.13808012 -0.24543822 0.22803855 -0.5710029 0.60309094 0.5156141 -0.82914084 -0.63301885 0.42098397 0.5587413 -0.18491969 -0.44187817 0.08465062 0.65714854 -0.7738911 0.5855828 0.66976416 0.8201531 0.087715246
In -0.090995476 -0.029466663 -0.42077085 0.110243246 -0.39252037 0.044575587 0.13606252 -0.38234955 -0.4688867 0.63273996 0.3724777 -0.20694156 -0.0012488435 -0.3189928 0.3315301 -0.8180198 0.3814183 0.49408415 0.6252983 0.35745117
we -0.12715799 0.0990193 -0.379019 0.034037445 -0.35159695 -0.07285914 0.14232343 -0.33690658 -0.6851914 0.82523626 0.3457091 -0.21587804 -0.16829868 -0.21091653 0.32449284 -0.78460866 0.25939313 0.46164915 0.6952709 0.3894378
actin-binding -0.12937582 0.20645131 -0.40426573 0.1446638 -0.3843844 -0.0133476 0.21174547 -0.45371193 -0.8100871 0.5772482 0.38239792 -0.1231651 -0.07209485 -0.2585439 0.3806789 -0.85669935 0.25830105 0.41430768 0.7626299 0.33603355
but -0.16328783 0.29552487 -0.2671318 0.2148523 -0.29139686 0.23705201 0.3542202 -0.6767304 -0.7894218 0.64458954 0.56315535 -0.20793742 -0.27650708 -0.13278677 0.616953 -0.7632333 0.39575702 0.4535095 0.83895844 0.2127936
at -0.13222273 0.027225597 -0.3726848 0.1056305 -0.35522103 0.09182395 0.20058662 -0.45169833 -0.49739608 0.548041 0.413557 -0.18086435 -0.017679425 -0.2941301 0.38695583 -0.85148597 0.3730027 0.47436073 0.6614485 0.29441828
complex -0.11859627 0.17708814 -0.3377825 0.1561486 -0.35510164 0.12585239 0.21416028 -0.51349527 -0.6885944 0.68020505 0.4447803 -0.107568175 -0.22017972 -0.25047714 0.40235764 -0.70975995 0.31088907 0.42106497 0.88106406 0.33098477
E-cadherin -0.056116235 0.5247491 -0.0052940585 0.21819359 -0.3593378 0.4976924 0.42690086 -0.9017959 -1.2216502 0.9615388 0.64454335 -0.12196356 -0.7250912 0.2276031 0.77393216 -0.5443592 0.44752666 0.5259991 1.2564167 0.22752725
have -0.10593837 0.12563911 -0.4152353 0.07792134 -0.36286944 -0.036406886 0.17579994 -0.42127684 -0.6297987 0.69509226 0.40279278 -0.11139721 -0.024304837 -0.2515601 0.2711782 -0.8042253 0.27627406 0.3824137 0.74612755 0.45945242
these -0.10310515 0.15188563 -0.3068723 0.12772912 -0.34872946 0.06352677 0.17551973 -0.50697863 -0.6815462 0.7106496 0.45284173 -0.11593488 -0.1373099 -0.19298272 0.37884983 -0.7854341 0.33769503 0.39617157 0.7976707 0.38469094
: -0.16462675 -0.04711231 -0.4131725 0.08997525 -0.4754685 0.24404427 0.25124028 -0.49115726 -0.3616769 0.4471269 0.3774222 -0.18159954 0.0035766861 -0.28609443 0.3637287 -0.88762003 0.46876276 0.5815153 0.5987558 0.33013317
talin -0.19072458 0.16068704 -0.28941384 0.08890237 -0.52950007 0.21753536 0.35771456 -0.5828904 -0.6663075 0.4006921 0.46445024 -0.24158515 -0.1912116 -0.19298698 0.5152943 -0.783197 0.3952418 0.544893 0.7680638 0.18728597
genes -0.24566153 0.13651244 -0.37774813 0.14635246 -0.5521109 0.37769964 0.37738466 -0.48969883 -0.56031966 0.47985026 0.30560553 -0.3198526 -0.17301595 -0.07682007 0.48034525 -0.7726795 0.51691794 0.72628963 0.789225 0.28279492
muscle -0.40921402 -0.2553645 -0.5788454 0.21948884 -0.996338 0.70101666 0.6709364 -0.6295619 -0.070513345 -0.2438632 0.39797035 -0.5785843 -0.10055162 -0.314012 0.49400893 -1.0939432 0.8845513 0.95608145 0.47184741 0.08927075
be -0.14526796 0.1545167 -0.4629475 0.104190476 -0.43193698 0.055938985 0.26621214 -0.44123214 -0.6534477 0.68059087 0.52038974 -0.15595399 -0.12057872 -0.3722021 0.2995198 -0.8577127 0.29333222 0.28997704 0.78260714 0.41697732
two -0.14893913 0.060397178 -0.42799404 0.13141458 -0.3874219 0.098873936 0.27657685 -0.48074582 -0.58420837 0.60196584 0.35847715 -0.18819715 -0.017643264 -0.27764243 0.35615104 -0.8860579 0.3291906 0.51445657 0.6753415 0.3556965
kinase -0.20249064 -0.10263131 -0.5369993 0.16382195 -0.33155873 0.37092435 0.3292932 -0.6619089 -0.596677 0.5068319 0.49227938 -0.19017377 -0.17236178 -0.06294339 0.64606184 -0.8411992 0.5270527 0.5330139 0.68546015 0.030305034
; -0.1260626 0.104814425 -0.34734067 0.14397825 -0.31045872 0.25810388 0.22824387 -0.48074675 -0.61590767 0.5292601 0.33155158 -0.22775295 -0.1450868 -0.10204019 0.5338776 -0.8291102 0.46150038 0.5912143 0.7792146 0.30675
filaments -0.16993512 0.107997194 -0.40278783 0.16766739 -0.48382565 0.13563171 0.31495154 -0.4946103 -0.57121915 0.410961 0.4449873 -0.20618492 -0.20362577 -0.31101462 0.41317207 -0.7780432 0.38700107 0.43590796 0.63895625 0.26527137
between -0.12455076 0.027140034 -0.36104628 0.120704375 -0.44779032 0.247472 0.27344236 -0.4762208 -0.5582183 0.48331872 0.42526656 -0.17124104 -0.06796811 -0.213811 0.41857228 -0.79556817 0.4180751 0.57064444 0.75523794 0.2860534
this -0.1468654 0.035739362 -0.3776446 0.08144017 -0.34242424 -0.011035025 0.1670927 -0.41432217 -0.5357284 0.6645715 0.4398447 -0.19181028 -0.111348696 -0.28275818 0.35026956 -0.821867 0.3417645 0.44928542 0.6798208 0.32170248
also -0.14201073 0.14819449 -0.36402404 0.08184554 -0.34158838 0.08174151 0.18434744 -0.46161518 -0.5957404 0.63739914 0.42069632 -0.13579284 -0.079166 -0.2693736 0.40725416 -0.85545135 0.30081472 0.44384438 0.76967144 0.35966536
yeast -0.16174282 0.080356896 -0.3582413 0.08272619 -0.43264702 0.091826275 0.25786808 -0.40587443 -0.5941831 0.6019962 0.40908602 -0.18799892 -0.05542956 -0.2984425 0.3600967 -0.8123243 0.32491273 0.44937703 0.68244576 0.3336567
histone -0.082548745 0.08446915 -0.45592833 0.10777247 -0.2680335 0.27846155 0.14797069 -0.41127497 -0.6089246 0.87446135 0.15136035 -0.061256967 -0.13923313 -0.012114265 0.46066105 -0.9409587 0.31057742 0.55617565 0.7303557 0.29073018
can -0.13732532 0.15210445 -0.37292802 0.11358393 -0.30624056 0.06565832 0.20695089 -0.49034488 -0.70669985 0.68738884 0.49246994 -0.12173543 -0.097702146 -0.3199355 0.41995594 -0.81594557 0.29189005 0.37292513 0.7878604 0.38490763
polymerization -0.19825737 0.059325423 -0.4347887 0.16380672 -0.52401555 0.13306245 0.27362123 -0.46923068 -0.5084348 0.42423713 0.44355312 -0.25550398 -0.15108839 -0.34603077 0.41314235 -0.8110526 0.4072324 0.42070952 0.64805937 0.2863957
both -0.18010877 0.18582961 -0.343539 0.10634096 -0.36226067 0.17237194 0.24476813 -0.48112825 -0.66100556 0.6557353 0.4088077 -0.18479481 -0.13361567 -0.16019782 0.4165677 -0.7700604 0.34105694 0.46945557 0.7865351 0.33056796
gene -0.1754764 0.032514375 -0.3707901 0.15455939 -0.39812565 0.23264448 0.3056659 -0.4635073 -0.5699965 0.49407858 0.3912533 -0.25898522 -0.12062406 -0.2018776 0.45994467 -0.79821354 0.4121355 0.5662442 0.74220556 0.3120838
% -0.13145757 0.03792641 -0.34678596 0.17805326 -0.397782 0.36292875 0.28463063 -0.51367986 -0.55058914 0.48824728 0.2984382 -0.27537107 -0.19193622 -0.030018548 0.56347287 -0.7484317 0.48741707 0.67973644 0.7550883 0.22852188
We -0.13568924 0.012557783 -0.42574665 0.088427536 -0.36611992 0.07481135 0.15908353 -0.3926046 -0.49985716 0.64771765 0.38704655 -0.16889739 0.02795413 -0.30162403 0.34799248 -0.90030116 0.3407858 0.47943905 0.6530348 0.38894212
1 -0.17578897 -0.101761214 -0.44579396 0.07270758 -0.4470114 0.22886485 0.27862304 -0.46196425 -0.38652685 0.3531348 0.32623953 -0.25193694 0.007572195 -0.20435329 0.40993086 -0.8260726 0.51271784 0.70409155 0.71814233 0.29432654
domain -0.18129487 0.14622657 -0.32255387 0.13304263 -0.33405817 0.10864822 0.21008255 -0.50702906 -0.6851909 0.6010853 0.41689223 -0.14120744 -0.15864904 -0.23644494 0.43699285 -0.7982691 0.309879 0.44265237 0.7550105 0.31262684
DNA -0.16023946 0.11495104 -0.4371616 0.11203265 -0.36651275 0.15368627 0.21684532 -0.42047843 -0.6014937 0.67878544 0.35290533 -0.13680737 0.035052404 -0.28966296 0.40594628 -0.82067126 0.33145636 0.49565956 0.7188013 0.3819951
its -0.17268841 0.10887912 -0.35470563 0.13393368 -0.41733077 0.09720472 0.26409462 -0.52440614 -0.6463533 0.59408975 0.47873855 -0.19734472 -0.16640879 -0.25512072 0.40568593 -0.81991464 0.32218102 0.45499676 0.724702 0.295068
human -0.19013241 0.046143282 -0.37747258 0.110187314 -0.39401007 0.14048854 0.23978372 -0.49356827 -0.54263014 0.5714923 0.40549836 -0.14543784 -0.017501878 -0.24629511 0.39190778 -0.83884805 0.38652906 0.49572766 0.68143564 0.32473904
RAD51 -0.2402677 0.242468 -0.3784581 0.16709022 -0.3889418 0.21003465 0.33851612 -0.4387637 -0.67122984 0.6363814 0.3813832 -0.21257523 -0.15266624 -0.20035757 0.45655924 -0.74650943 0.3335923 0.5147722 0.82220715 0.28885856
results -0.057315607 0.10678802 -0.40461442 0.074644394 -0.32738742 -0.060362395 0.18851887 -0.34789798 -0.5697762 0.7305265 0.37370408 -0.06482824 0.0544481 -0.32534942 0.32498056 -0.9333529 0.26672903 0.40962756 0.7132604 0.394723
activity -0.1662683 0.02820195 -0.42284828 0.119627126 -0.35267326 0.11059498 0.2064127 -0.47391424 -0.54562527 0.6104422 0.4154528 -0.18353221 0.006044238 -0.25990853 0.43304053 -0.8445896 0.3338007 0.4454253 0.6568516 0.32610208
cytoskeleton -0.17457435 0.07453748 -0.3983151 0.14889613 -0.48147768 0.2064691 0.31854093 -0.46737355 -0.5451854 0.45395574 0.43855336 -0.20591475 -0.19259349 -0.26939723 0.39703315 -0.7706796 0.3602454 0.4790148 0.6867403 0.2683971
These -0.072771296 0.07886872 -0.4749998 0.027601207 -0.33380604 -0.020161029 0.17427793 -0.4240154 -0.5346927 0.7593288 0.43050742 -0.13414311 0.07620194 -0.36610448 0.2965851 -0.9610422 0.32036182 0.5131427 0.7368407 0.42176676
interaction -0.12274061 0.116555855 -0.35033575 0.13717552 -0.40832594 0.13879585 0.28639483 -0.5005721 -0.6728521 0.5978189 0.4613695 -0.15352985 -0.12480452 -0.25320065 0.43457276 -0.76751345 0.33671004 0.4701038 0.73919165 0.2846198
assembly -0.18002968 0.026275415 -0.42273125 0.10867 -0.4281461 0.119351014 0.26894373 -0.46503335 -0.560935 0.47303534 0.40010333 -0.18297254 -0.1115949 -0.28106505 0.39429188 -0.8094225 0.37592536 0.47188708 0.67102414 0.29994756
has -0.09704663 0.07168043 -0.43207297 0.0707322 -0.32787636 -0.02803251 0.18660499 -0.42526805 -0.6157657 0.66226864 0.41973397 -0.15591547 0.045555755 -0.34014198 0.30079958 -0.865419 0.33247072 0.38830405 0.74991775 0.41280016
plakoglobin -0.088144295 0.4945382 -0.033703756 0.16122995 -0.37202212 0.3809214 0.36572435 -0.76498634 -1.0568159 0.88310707 0.5971314 -0.13746244 -0.52885956 0.12391437 0.7196735 -0.5653512 0.37878066 0.447468 1.1266005 0.25200927
cyclin -0.18103527 0.011122144 -0.42254403 0.16294445 -0.31585482 0.24215046 0.26127625 -0.6044589 -0.62311494 0.6139349 0.4711994 -0.14807475 -0.089009516 -0.10211854 0.46510917 -0.75424063 0.43941918 0.476905 0.7431446 0.19286108
region -0.14909022 0.11414893 -0.34807202 0.124724515 -0.31835678 0.10408444 0.18458958 -0.48388442 -0.66803527 0.64153826 0.41528833 -0.10767207 -0.073927954 -0.26319823 0.39687982 -0.8261903 0.34448966 0.41914254 0.72128177 0.35493666
fimbrin -0.16073869 0.094225794 -0.33569166 0.10138149 -0.36070666 0.16490467 0.25676936 -0.50748426 -0.6124244 0.5810005 0.39567125 -0.21096212 -0.105871946 -0.24028835 0.40838224 -0.8290484 0.38541743 0.47949177 0.6969205 0.3336001
been -0.17465502 0.06477178 -0.44049084 0.09060066 -0.39191598 0.04784783 0.19353305 -0.41906872 -0.6546204 0.7198697 0.37838057 -0.16767852 -0.048136417 -0.21541664 0.3243261 -0.8359558 0.3474432 0.45010644 0.7077741 0.39496207
other -0.15878889 0.1431937 -0.3731161 0.09215387 -0.3549157 0.16240057 0.24497339 -0.5112257 -0.6007936 0.6372662 0.40807807 -0.15233576 -0.07733772 -0.24324913 0.40512255 -0.8290785 0.34071738 0.47511277 0.76351017 0.34035602
RAD52 -0.22342195 0.18270175 -0.35091484 0.08186876 -0.3770481 0.17096704 0.30841875 -0.4815642 -0.68840873 0.6451841 0.3631691 -0.26048547 -0.11586596 -0.23852585 0.47056076 -0.74112785 0.38333663 0.56669927 0.7991176 0.36860695
found -0.15942977 0.055981375 -0.3919076 0.08523393 -0.37703297 0.097448125 0.25565144 -0.49388298 -0.6008535 0.59284496 0.439335 -0.1977002 -0.060166296 -0.20590661 0.35400322 -0.7935572 0.35023147 0.48366216 0.7082823 0.36819986
factor -0.116794564 0.020075856 -0.36926863 0.081846304 -0.38983777 0.13747658 0.20029491 -0.40496898 -0.52488464 0.52431685 0.38593453 -0.23043008 -0.034144815 -0.23648499 0.41749933 -0.76739043 0.35532638 0.5224715 0.62119687 0.29714665
binds -0.1281016 0.10172002 -0.32254615 0.16460261 -0.4232614 0.100040615 0.2196813 -0.5020494 -0.61874306 0.6008671 0.47269568 -0.20326479 -0.11603021 -0.29234165 0.47804627 -0.80071545 0.3412132 0.43628502 0.7693835 0.31333607
virus -0.11425002 -0.076975755 -0.38176298 0.06511627 -0.2758467 0.11634398 0.23187272 -0.38997948 -0.4630269 0.5739794 0.3269225 -0.1595891 0.031218726 -0.18100515 0.35284278 -0.808512 0.43523693 0.59660506 0.73631907 0.36771286
vinculin -0.13919449 0.13221301 -0.30284142 0.14750467 -0.45124066 0.23411515 0.31092855 -0.52517086 -0.6243746 0.54283863 0.4126484 -0.29536822 -0.23192948 -0.14111972 0.532792 -0.7896949 0.45654833 0.5370917 0.8028602 0.2486224
inhibitor -0.18577366 -0.05328584 -0.45302412 0.21548294 -0.3541993 0.25373265 0.2615306 -0.6360616 -0.6528405 0.5919995 0.48320228 -0.1477313 -0.13868734 -0.10443215 0.5698871 -0.7768285 0.4757973 0.5377203 0.7011314 0.12237466
using -0.11442812 -0.0029984328 -0.40446708 0.040158756 -0.37787908 0.098671064 0.16050456 -0.41930252 -0.46882924 0.6334864 0.400996 -0.18650417 0.06404508 -0.2867692 0.34306374 -0.87045884 0.3769875 0.49263874 0.65032834 0.37594315
P -0.150642 0.05670703 -0.32904798 0.13842648 -0.22673891 0.287471 0.2833314 -0.4820853 -0.6772819 0.4732557 0.29544947 -0.19472396 -0.06133035 -0.04187586 0.53287655 -0.7942501 0.47338966 0.6688945 0.79615575 0.30940184
may -0.14015594 0.09646341 -0.45658484 0.14095703 -0.400867 0.06956973 0.21363276 -0.49138874 -0.6506163 0.6628354 0.4350281 -0.16210373 -0.03965814 -0.31810662 0.3774576 -0.89603764 0.29865488 0.41149366 0.7452217 0.35327923
A -0.16844812 -0.011880636 -0.40744677 0.08215114 -0.3282729 0.1388141 0.18344545 -0.43955654 -0.42193002 0.55535454 0.3409932 -0.16761741 0.018392196 -0.2762646 0.3695746 -0.84710246 0.36605504 0.5181898 0.6274617 0.30032438
membrane -0.1352819 0.04240644 -0.37555993 0.1008342 -0.39271575 0.15329352 0.22468358 -0.48832834 -0.5694844 0.54682696 0.42764696 -0.17888865 -0.116246305 -0.23165247 0.39339557 -0.82067853 0.37318328 0.45310402 0.7304757 0.311621
bind -0.13909014 0.19581532 -0.3252773 0.10613042 -0.38468647 0.121925175 0.19219097 -0.50117594 -0.6453229 0.64117783 0.49742478 -0.17772485 -0.17175637 -0.28078634 0.48101056 -0.78942215 0.33550978 0.41221803 0.7918385 0.29582837
it -0.15905848 0.053662397 -0.3794888 0.089748904 -0.40107214 0.0952564 0.2618666 -0.4284478 -0.5034913 0.5917572 0.42331022 -0.1658818 -0.078227215 -0.2577928 0.35572496 -0.84256595 0.3715679 0.4712363 0.71976066 0.35535398
site -0.16724284 0.10135188 -0.37016457 0.09332499 -0.33708087 0.09008854 0.23703049 -0.48745516 -0.6577641 0.6364714 0.44036782 -0.17895629 -0.08909761 -0.22205478 0.3758682 -0.78837854 0.30762506 0.46332234 0.7093492 0.33260056
I -0.19180475 0.012549844 -0.39573738 0.12793879 -0.47665948 0.18028776 0.24724588 -0.49295378 -0.4643358 0.43103153 0.35974273 -0.2278133 -0.10134565 -0.24959332 0.40657547 -0.8222088 0.39986622 0.56723684 0.6564625 0.2936051
identified -0.15500747 0.022721345 -0.42818874 0.056884825 -0.35585618 0.0638146 0.21667518 -0.4434659 -0.5474334 0.6499215 0.36807248 -0.19208886 0.004954057 -0.26917908 0.35665068 -0.8880206 0.3445144 0.47209135 0.7134975 0.40020138
growth -0.1397848 -0.027736822 -0.41857085 0.08478561 -0.39109764 0.1490378 0.21501108 -0.41182685 -0.3787023 0.49401158 0.3830073 -0.21266815 0.053303503 -0.31508273 0.33596843 -0.8486871 0.38455498 0.52423537 0.5908526 0.3293323
than -0.13356628 -0.021400617 -0.43861732 0.11192401 -0.39881107 0.14375716 0.19382586 -0.47657582 -0.4605997 0.53906465 0.40239334 -0.20711184 -0.0006759773 -0.3114009 0.36339518 -0.86379075 0.37287185 0.49947017 0.6506088 0.36194316
into -0.14660096 -0.041530345 -0.38071787 0.081208274 -0.36941263 0.14924474 0.23443936 -0.44681013 -0.44012344 0.53974736 0.3696184 -0.17229438 0.042792924 -0.27847582 0.3759363 -0.87653404 0.3826677 0.51978517 0.66920716 0.33046165
increased -0.13569349 0.0068280683 -0.38314295 0.06363129 -0.33170176 0.14487687 0.18414934 -0.48357093 -0.5171262 0.6028429 0.4353788 -0.15112615 -0.008714678 -0.23479669 0.4031006 -0.81338626 0.38778526 0.47271106 0.6891023 0.29605165
sequence -0.14355776 0.03664995 -0.4198786 0.067308135 -0.35262546 0.06092353 0.15786397 -0.39520591 -0.5408923 0.64541256 0.3817839 -0.14045686 0.010980632 -0.3284508 0.36852196 -0.8285683 0.31205228 0.42343304 0.6706168 0.3578358
suggest -0.106723174 0.12760615 -0.44410262 0.11422574 -0.32649484 -0.001749758 0.19721864 -0.40825763 -0.5341911 0.6755485 0.44613838 -0.11136164 -0.021883935 -0.33806607 0.33456153 -0.8720925 0.31959152 0.41788536 0.725597 0.39941022
their -0.16347757 0.0164143 -0.41350606 0.097385034 -0.36339656 0.07981037 0.21417858 -0.46440312 -0.5025147 0.6087384 0.37539473 -0.18236944 0.03893269 -0.31034565 0.37879676 -0.8587308 0.3653085 0.48689303 0.6733478 0.37645426
filament -0.11725858 0.014662518 -0.39303118 0.070601836 -0.41465098 0.070692465 0.18468352 -0.43691885 -0.46011308 0.536776 0.41842532 -0.16074507 -0.021247433 -0.29777774 0.34108347 -0.8089304 0.32794055 0.44256696 0.62991077 0.31675225
affinity -0.12766215 0.059005935 -0.37057778 0.07938434 -0.3317766 0.066106044 0.22446993 -0.43652248 -0.54501647 0.6002659 0.3835645 -0.13204893 -0.013953675 -0.28377205 0.39143547 -0.8025836 0.34126392 0.4497427 0.7002146 0.33989093
Acanthamoeba -0.16018632 0.012607486 -0.35632163 0.12846488 -0.37210876 0.08811051 0.18999426 -0.45504972 -0.5071304 0.55073583 0.40995952 -0.16404313 -0.056108043 -0.3089142 0.37827256 -0.8214684 0.36017483 0.43297383 0.67009646 0.33240646
similar -0.156194 0.05731161 -0.36654866 0.12970093 -0.30638587 0.108312786 0.20245056 -0.40469268 -0.53923714 0.6384804 0.35676894 -0.12961586 -0.006757308 -0.27818826 0.4145692 -0.8236364 0.3613652 0.4264984 0.68996865 0.35529068
involved -0.18987837 0.12592754 -0.44122368 0.108420044 -0.40149137 0.07982586 0.24012047 -0.45027775 -0.6203661 0.6515345 0.47875583 -0.13892123 -0.06627174 -0.31306002 0.35396054 -0.84561795 0.2880652 0.4234733 0.7068592 0.37328216
role -0.1322839 0.037646506 -0.3805872 0.081241615 -0.37614372 0.06923766 0.18810001 -0.43874 -0.5279301 0.62479895 0.4283697 -0.100631684 -0.018862134 -0.30153525 0.33310607 -0.8284059 0.29388067 0.39357492 0.6548603 0.35047537
presence -0.15379964 0.051270857 -0.3413475 0.100892425 -0.4474885 0.18583004 0.27176124 -0.47382262 -0.5819198 0.520255 0.41786984 -0.12344706 -0.11153922 -0.22949122 0.38601846 -0.7972517 0.34615913 0.43798417 0.6658267 0.29365793
UL8 -0.08539249 0.18608198 -0.36280954 0.05833114 -0.44767052 0.2233985 0.29101968 -0.5424461 -0.61285514 0.59656054 0.32686898 -0.25797787 -0.0763211 -0.08347432 0.41670284 -0.6948936 0.41077045 0.5989429 0.86031413 0.34753677
phosphoprotein -0.109236255 0.07044765 -0.34651804 0.16386907 -0.22272576 0.23814043 0.28816906 -0.501921 -0.6899819 0.47166967 0.33984283 -0.24780107 -0.116875015 -0.031242842 0.5313333 -0.733433 0.4558975 0.6383212 0.7958413 0.32501295
during -0.16873176 -0.024519656 -0.37367308 0.078893036 -0.49236315 0.23759046 0.29626447 -0.47139066 -0.44808513 0.45883098 0.42073405 -0.23507452 -0.07966034 -0.25121635 0.3959876 -0.8784373 0.4598745 0.54930294 0.6481236 0.26357386
UL52 -0.08990801 0.22427419 -0.36936152 0.086924426 -0.46410716 0.19314012 0.3294145 -0.5038723 -0.648636 0.5795745 0.36493355 -0.20945163 -0.13695465 -0.060663536 0.44990444 -0.68399847 0.41580516 0.62204343 0.86932325 0.30923358
repair -0.19264367 0.10172501 -0.38427827 0.054114673 -0.34160644 0.08644748 0.18297248 -0.38767168 -0.6022586 0.68465966 0.39083195 -0.11108674 0.02278084 -0.29818803 0.3767728 -0.869268 0.2957404 0.46383062 0.7280093 0.41096434
profilins -0.1737518 0.025003713 -0.4098937 0.08685429 -0.31860608 0.112060696 0.18701461 -0.41761953 -0.5139288 0.6220623 0.3838021 -0.1531479 0.06704167 -0.34196416 0.38388395 -0.8719363 0.3298362 0.4719511 0.63782823 0.3499724
vitro -0.15865631 0.02029901 -0.37070277 0.05947292 -0.37696797 0.082409985 0.22074215 -0.42206603 -0.5030073 0.5858501 0.41637057 -0.15691449 0.0060032583 -0.28393012 0.33499894 -0.7933671 0.3400877 0.4569262 0.6263212 0.34170973
type -0.13334881 -0.11718595 -0.4477909 0.052450627 -0.45349622 0.15253797 0.25008222 -0.46026424 -0.29539555 0.4694968 0.30552265 -0.21922465 0.103173 -0.2680551 0.39245206 -0.8687792 0.4641446 0.6561449 0.6716611 0.35086736
antibodies -0.14765406 0.052227426 -0.33987677 0.0856179 -0.43585405 0.23686002 0.29702422 -0.5314177 -0.44980362 0.48131225 0.40705776 -0.2555904 -0.07447221 -0.22691679 0.45983917 -0.8464865 0.4372512 0.5400939 0.68016833 0.27364245
beta -0.18887758 -0.04121456 -0.34727895 0.08595324 -0.43180668 0.2918643 0.27327305 -0.46648085 -0.4453468 0.4001407 0.36402678 -0.22792576 -0.06773259 -0.21354522 0.46207553 -0.83865976 0.4796024 0.6162776 0.67409813 0.29501435
associated -0.13117662 0.0815201 -0.3213757 0.08482082 -0.30675256 0.18463644 0.19744457 -0.5157635 -0.6314218 0.63619477 0.4651941 -0.15900075 -0.12131708 -0.19640279 0.44426546 -0.8172113 0.41061035 0.4672979 0.7206338 0.331755
required -0.1671022 0.053259525 -0.39855134 0.114062965 -0.33146685 0.12987274 0.19412158 -0.43700886 -0.5466605 0.63624 0.39127418 -0.13751137 0.040466722 -0.28366366 0.4283814 -0.8366246 0.34570596 0.5171629 0.7202136 0.34172028
UL5 -0.11464655 0.19458878 -0.33925492 0.06443749 -0.41073006 0.17122622 0.24839406 -0.51929474 -0.6157012 0.6038086 0.33598593 -0.21647021 -0.11844095 -0.10021399 0.40882158 -0.71806014 0.4246318 0.5537711 0.87218225 0.3626674
2 -0.20163566 -0.06492105 -0.40510598 0.084428 -0.40705746 0.29369053 0.29728094 -0.4973562 -0.40003514 0.4087534 0.38939238 -0.23086375 -0.02149826 -0.23026207 0.4265589 -0.83510333 0.4617479 0.63384235 0.688929 0.2917146
function -0.16800888 0.050028645 -0.3954861 0.06213676 -0.37305933 0.08303386 0.20546532 -0.4192065 -0.5036229 0.58851796 0.3639951 -0.12605734 0.037971664 -0.31502762 0.34703764 -0.8529225 0.3313683 0.45950624 0.65879136 0.32668826
effect -0.16632737 -0.030356275 -0.38761193 0.08979208 -0.42738292 0.107629515 0.26022986 -0.44824532 -0.46492538 0.4789159 0.37788752 -0.1517063 0.019760255 -0.3097697 0.34220916 -0.8737798 0.41716006 0.5225242 0.615593 0.32585815
microM -0.10535246 -0.016933344 -0.38398036 0.10228692 -0.31134537 0.15785313 0.18892233 -0.43428114 -0.50372845 0.5860997 0.35103515 -0.14747885 0.0038217548 -0.23726878 0.42330867 -0.8391179 0.3650878 0.51080644 0.663811 0.2949933
containing -0.10203231 0.028683614 -0.31485704 0.066587865 -0.3527895 0.16968541 0.21317227 -0.49425855 -0.4978613 0.61687106 0.41399065 -0.18550414 -0.018127866 -0.19322793 0.4096265 -0.8438758 0.38612968 0.5010549 0.6908112 0.31705472
cyclin-dependent -0.13837238 -0.07027948 -0.54366404 0.19972564 -0.31069365 0.24562588 0.25206748 -0.57848114 -0.5787091 0.64346963 0.4905743 -0.15129101 -0.089446545 -0.08195025 0.55452347 -0.7964966 0.49786174 0.50562835 0.731159 0.16442168
shown -0.14391291 0.03113432 -0.45533174 0.09000589 -0.3530089 0.011586215 0.20630448 -0.435241 -0.53440493 0.6563876 0.42368677 -0.15264784 0.018967176 -0.29600316 0.3068749 -0.8892108 0.32973418 0.4534492 0.68831754 0.42502043
sites -0.14244644 0.010121193 -0.42096925 0.097736575 -0.4197098 0.14148636 0.2016294 -0.47084236 -0.5039005 0.4989722 0.37813342 -0.20660093 0.014940874 -0.3133128 0.36753622 -0.88486296 0.39309713 0.52191716 0.62579703 0.2974453
complexes -0.09597038 0.11326964 -0.29940802 0.15004842 -0.32174316 0.1903073 0.22321932 -0.50822496 -0.64171857 0.665101 0.45723656 -0.1796582 -0.13734679 -0.16844685 0.4751662 -0.75939673 0.3886939 0.44555566 0.75449586 0.27721328
synthesis -0.18374647 -0.029512327 -0.41325116 0.12260077 -0.48856863 0.24004008 0.29664856 -0.4715662 -0.38313422 0.4015324 0.38274965 -0.23293982 -0.011943401 -0.22818197 0.3744013 -0.84897655 0.44443282 0.55981684 0.5970253 0.2840892
adhesion -0.11745691 0.078577384 -0.35818675 0.12177661 -0.32760343 0.12511581 0.18073864 -0.43933484 -0.55284774 0.64159644 0.4425914 -0.14781635 -0.023364065 -0.25751185 0.4215779 -0.8304999 0.37679234 0.43988213 0.7278115 0.3698751
whereas -0.14384003 0.097571276 -0.33713305 0.06696423 -0.36483747 0.15735823 0.21405633 -0.4999866 -0.61458826 0.6315508 0.39759985 -0.17023364 -0.11594298 -0.1884627 0.41600433 -0.7994009 0.34054938 0.47526044 0.6955079 0.33254805
three -0.16989611 0.018508172 -0.37665161 0.05404342 -0.35002935 0.10267028 0.19333953 -0.43786728 -0.4743326 0.6031688 0.36562127 -0.18949956 -0.0011323368 -0.28665367 0.3763564 -0.8719969 0.39354327 0.51656955 0.66815895 0.3704659
molecules -0.13468 0.079915784 -0.3543163 0.09456165 -0.33539784 0.12529604 0.21946032 -0.46358612 -0.59319824 0.66230035 0.39444655 -0.10451391 -0.022400945 -0.2186247 0.3983371 -0.8230554 0.38176757 0.4527972 0.7716065 0.3664275
skeletal -0.21972425 -0.07382148 -0.4648697 0.09576702 -0.6105675 0.3015865 0.33722273 -0.50715506 -0.25860313 0.25621125 0.4144638 -0.29970434 -0.02042761 -0.323728 0.38684323 -0.9123253 0.5496631 0.6914923 0.51009864 0.2116454
effects -0.14535777 -0.03392969 -0.41432428 0.11594049 -0.42964435 0.15691939 0.21700811 -0.47148126 -0.4667767 0.51455057 0.37376893 -0.15742043 0.060401987 -0.3000826 0.36724114 -0.8918461 0.39732376 0.5251525 0.6378357 0.3461549
isoforms -0.27205816 -0.16692784 -0.48274443 0.12407781 -0.6410993 0.36547863 0.40247646 -0.4955285 -0.19561708 0.17211047 0.36110306 -0.37494034 -0.046110358 -0.26239863 0.3848605 -0.9738313 0.6011879 0.7536312 0.51867884 0.24111743
show -0.12791477 0.05735912 -0.43586078 0.08930401 -0.30928686 -0.011717011 0.14947267 -0.41177538 -0.57879436 0.6970926 0.41319847 -0.13178787 -0.019758753 -0.314998 0.2849919 -0.85032666 0.3279847 0.45407322 0.73396844 0.41469347
high -0.14517842 0.043131065 -0.35662267 0.11845467 -0.35662767 0.12720259 0.2173303 -0.47902897 -0.50294006 0.5674337 0.42258736 -0.13854918 -0.024014007 -0.22719257 0.41603372 -0.8362026 0.39933777 0.4914979 0.6814568 0.2955296
form -0.14006257 0.10164262 -0.3426398 0.10338065 -0.33393294 0.09870718 0.22231343 -0.46143487 -0.5852806 0.6698814 0.40382433 -0.16981193 -0.048565958 -0.26233178 0.42299017 -0.8115335 0.33729255 0.4747095 0.7650481 0.32525238
formation -0.124719836 -0.0077327834 -0.40480837 0.110863514 -0.40540767 0.12207839 0.23066248 -0.46013498 -0.48045337 0.5121406 0.411527 -0.20474447 -0.016918633 -0.29332054 0.34422895 -0.83240473 0.39112073 0.48944685 0.62476623 0.32484046
nucleocapsid -0.09144975 0.049692225 -0.31416586 0.12217122 -0.21148784 0.2580632 0.2699176 -0.44159585 -0.6428824 0.4951828 0.2752695 -0.20566837 -0.087447755 -0.07101363 0.49914017 -0.73518443 0.4840367 0.60499007 0.7635246 0.31807023
domains -0.148439 -0.02073546 -0.4336369 0.10242425 -0.368155 0.10943316 0.18107128 -0.4506927 -0.4583511 0.59123814 0.3786381 -0.1608586 0.05419726 -0.3066833 0.34769905 -0.8698367 0.35452986 0.49700275 0.66740936 0.33853674
functions -0.16995688 0.025186142 -0.4296262 0.07483932 -0.37629342 0.1062479 0.17852384 -0.4041823 -0.54239625 0.63551146 0.3664137 -0.14859842 -0.002468634 -0.29518154 0.37264872 -0.85098875 0.3210912 0.4646531 0.6809191 0.34436667
nucleotide -0.14613834 -0.017230274 -0.3857876 0.056002688 -0.376209 0.08223981 0.17509581 -0.4349392 -0.45769045 0.58628553 0.38304475 -0.18024537 0.056230564 -0.30447006 0.37800118 -0.82491297 0.3803357 0.4601105 0.6152738 0.34273657
H4 -0.12275787 0.093185976 -0.41978565 0.06729699 -0.3035674 0.21666789 0.14377832 -0.4215269 -0.5652186 0.7693594 0.25726077 -0.11666247 -0.057383697 -0.11390661 0.41091 -0.88721293 0.37969366 0.49445146 0.72672254 0.35453355
mutant -0.123205885 0.050121278 -0.34123853 0.07082538 -0.3475659 0.103563786 0.1807717 -0.49435878 -0.56352943 0.60775137 0.43729535 -0.16144285 -0.047783293 -0.23671995 0.4215755 -0.7934845 0.37140134 0.47321382 0.72097355 0.3511938
such -0.14303342 0.0509104 -0.39881787 0.08229042 -0.36311597 0.14194413 0.2321646 -0.46442178 -0.5310782 0.58269 0.38526002 -0.14877003 -0.019587982 -0.29760045 0.42996427 -0.8682254 0.39212054 0.47896925 0.73829675 0.34298325
vivo -0.14825764 -0.0011138623 -0.3833606 0.06865394 -0.39546546 0.11846067 0.21639673 -0.42339334 -0.46877077 0.5221872 0.3534994 -0.1765765 0.004137208 -0.2604065 0.34782064 -0.80568033 0.34359327 0.46874985 0.6312705 0.30112022
study -0.12132756 0.00093969743 -0.41957536 0.103487045 -0.3561565 0.04679043 0.16215299 -0.4247333 -0.54341507 0.6254274 0.3986109 -0.16254583 -0.025888506 -0.3117537 0.34805405 -0.8705794 0.40348014 0.5307283 0.67350507 0.3753218
different -0.15283592 0.0072902963 -0.3998995 0.11142828 -0.41997465 0.16722456 0.230583 -0.450497 -0.46111777 0.5592675 0.39844957 -0.24334326 0.01807845 -0.32379436 0.4068594 -0.880365 0.45295185 0.5501942 0.6331979 0.34733304
receptor -0.15645696 0.042853463 -0.4262997 0.10764312 -0.3090603 0.105553694 0.18152714 -0.4290009 -0.52869713 0.5833429 0.39125025 -0.14850858 0.025813451 -0.27775067 0.43107727 -0.84018236 0.39225012 0.5139473 0.6655436 0.33001623
cytoskeletal -0.1530423 0.039264355 -0.3800839 0.09663105 -0.40963364 0.117045954 0.25280952 -0.47036496 -0.48160112 0.48148486 0.38303328 -0.1981345 0.0027883002 -0.28930518 0.36005628 -0.85003966 0.39571962 0.49326652 0.661855 0.29297492
expressed -0.168195 0.02303911 -0.4105096 0.08027796 -0.38751286 0.15369174 0.21357678 -0.4509012 -0.508211 0.54009473 0.41155666 -0.16642371 0.018825654 -0.26549473 0.3511554 -0.8100597 0.4060209 0.5223976 0.6423766 0.30077916
showed -0.11275444 0.014862755 -0.35110766 0.08523375 -0.28590065 0.06286874 0.16956261 -0.41559032 -0.5121969 0.599921 0.3723337 -0.16543585 0.0636476 -0.2955112 0.3559798 -0.8272036 0.32263744 0.44956657 0.6764599 0.33728862
interactions -0.10396694 0.053878028 -0.3744596 0.080259316 -0.3788946 0.15833335 0.23257613 -0.42087582 -0.5403711 0.6009636 0.38104388 -0.17675596 -0.010662657 -0.21647114 0.3845106 -0.77492946 0.36341393 0.5015464 0.6683218 0.31346384
3 -0.12500077 0.00525619 -0.38274318 0.051465835 -0.32458547 0.10639161 0.14090377 -0.43238515 -0.48292026 0.5764022 0.36363012 -0.13637768 0.07026363 -0.2985294 0.35291687 -0.85436213 0.36913466 0.4887334 0.65916234 0.31690517
[ -0.1623472 -0.10772155 -0.43651438 0.01983469 -0.27852294 0.123094045 0.16470297 -0.39111537 -0.38859507 0.55068135 0.3054222 -0.14919354 0.14436626 -0.33769116 0.29984868 -0.8655421 0.39272857 0.49732476 0.6228905 0.32924002
] -0.14769113 -0.092010394 -0.42527083 0.057671104 -0.29086262 0.11712694 0.15711707 -0.3380404 -0.38769212 0.52288395 0.2989325 -0.1447184 0.13619909 -0.31456113 0.2956379 -0.8659435 0.37044057 0.5168903 0.5933612 0.3709827
one -0.14650464 0.039189737 -0.3797808 0.08503564 -0.31605455 0.12809429 0.18101518 -0.41634682 -0.53040886 0.6222226 0.37958026 -0.17421037 0.02028556 -0.28440514 0.39545038 -0.8478414 0.38395306 0.4722676 0.672771 0.36040658
H3 -0.12460859 0.06516972 -0.40495282 0.048815336 -0.3108098 0.14353846 0.12432401 -0.37106004 -0.5475992 0.7467187 0.2636385 -0.09558093 -0.002432854 -0.18253124 0.38392287 -0.906381 0.35810536 0.5194883 0.70159054 0.35940602
mutations -0.1563268 0.063779205 -0.39672256 0.06819933 -0.3555605 0.15319696 0.1961618 -0.44376177 -0.5376472 0.6384293 0.42319658 -0.17526247 -0.022884473 -0.25328293 0.4044726 -0.8219356 0.34171486 0.5012497 0.6931797 0.35698062
only -0.15904953 0.017277872 -0.3857074 0.09074436 -0.33615625 0.080785446 0.18728374 -0.43756005 -0.5282551 0.62612647 0.37385833 -0.17008282 0.038173612 -0.26384807 0.3911543 -0.86495453 0.33396918 0.44680372 0.6793166 0.33336014
activation -0.14805245 0.05603224 -0.34380665 0.08546705 -0.3196764 0.115710884 0.21567167 -0.44470254 -0.57177055 0.6162839 0.37522006 -0.14118141 -0.0333537 -0.219901 0.4093069 -0.7845798 0.3492575 0.4684861 0.65605664 0.31627327
levels -0.13830905 0.00461399 -0.36341208 0.07570683 -0.34633738 0.1346259 0.18925929 -0.42245105 -0.45017844 0.57776326 0.40299124 -0.18627653 -0.014369206 -0.23943493 0.39038384 -0.82695806 0.39678615 0.50352865 0.65919006 0.3321442
Here -0.07898918 0.015461274 -0.40751436 0.07137803 -0.30025983 -0.03539302 0.15835856 -0.39260107 -0.53108346 0.7371672 0.3580196 -0.18746516 0.056540713 -0.29547852 0.27182022 -0.9036443 0.34388262 0.45920944 0.6890715 0.46254006
N -0.14761882 0.07402949 -0.3115182 0.12841655 -0.2270993 0.22917181 0.2636986 -0.45181626 -0.59468657 0.45025507 0.31698486 -0.20830196 -0.068791956 -0.08166466 0.48568287 -0.7488095 0.41539723 0.6207462 0.728004 0.2897843
regulation -0.13061385 0.03632414 -0.3820071 0.08118765 -0.37768522 0.11242813 0.2325135 -0.4539907 -0.53162557 0.56726664 0.41728732 -0.12555504 -0.058325734 -0.28620458 0.3690509 -0.8032484 0.297839 0.4008368 0.6681239 0.31801337
MSH2 -0.1436983 0.050323136 -0.3703347 0.07618031 -0.31648937 0.11867749 0.2207163 -0.40609905 -0.52978414 0.6487354 0.4003341 -0.17191716 -0.009382758 -0.23186193 0.35496512 -0.82805467 0.31278822 0.4736279 0.7165337 0.38196722
mutants -0.15436435 -0.019890133 -0.40780595 0.06283865 -0.33935028 0.07150595 0.16469161 -0.40542957 -0.4730482 0.61247003 0.40154973 -0.15341918 0.059620082 -0.31618863 0.3226934 -0.84483314 0.32572052 0.4521295 0.6598157 0.3493122
ability -0.16178034 0.031485055 -0.3889279 0.105333306 -0.37033916 0.05557618 0.1904827 -0.40890756 -0.47623968 0.60520524 0.4157586 -0.15609193 0.054365568 -0.33530334 0.37096995 -0.86781335 0.3793231 0.46140847 0.64959186 0.37746778
isolated -0.13516465 -0.050670058 -0.41546798 0.049406767 -0.35613364 0.09103348 0.1566019 -0.3785189 -0.41056573 0.5805226 0.32718098 -0.19235308 0.072701596 -0.28531823 0.3061811 -0.8521547 0.37217146 0.4817325 0.60018533 0.3471293
gelsolin -0.12904182 0.060874935 -0.3520622 0.07533612 -0.35022324 0.12267567 0.22102638 -0.47224364 -0.5472575 0.5320392 0.38858774 -0.19077913 -0.06764993 -0.23867233 0.385036 -0.79633385 0.3385603 0.43588886 0.67750674 0.33645427
smooth -0.30277672 -0.17976794 -0.5073459 0.12576684 -0.7639258 0.47652748 0.44274327 -0.5604591 -0.16127066 0.045832288 0.4117233 -0.38077587 -0.009882489 -0.28374276 0.41317192 -0.99322444 0.69185233 0.8720683 0.46644843 0.17434019
exchange -0.097689316 0.018110942 -0.38195708 0.052027788 -0.34837353 0.12614453 0.23158424 -0.41034803 -0.45786357 0.5312945 0.34131047 -0.1411177 0.03096114 -0.29941428 0.36064696 -0.8384876 0.36314568 0.4687123 0.6705293 0.34148303
all -0.1438775 0.04250866 -0.34542024 0.07323268 -0.33740097 0.14301388 0.20423694 -0.43602583 -0.49247882 0.55781645 0.35473627 -0.14972475 5.2063595e-05 -0.21425422 0.4005456 -0.78420734 0.36198628 0.45620424 0.66212904 0.31827638
known -0.12568213 0.0690822 -0.38484737 0.08854597 -0.35637084 0.09377895 0.20487887 -0.413434 -0.55935705 0.6114702 0.3900717 -0.18012506 -0.002436335 -0.23373902 0.36799335 -0.8258923 0.339724 0.47416395 0.6840438 0.34254923
interact -0.15028219 0.03382529 -0.34730643 0.108659945 -0.35057423 0.11268754 0.20603877 -0.48283815 -0.48966464 0.57694894 0.42506826 -0.1574189 -0.028852575 -0.29741126 0.39632106 -0.81731457 0.41113836 0.47900525 0.6806672 0.33704397
lines -0.14024322 0.039141078 -0.39671877 0.10261536 -0.31636786 0.0754476 0.19293764 -0.44320315 -0.5120987 0.6542215 0.44026205 -0.10197007 0.011672557 -0.23435557 0.3696465 -0.8521192 0.34904286 0.45671254 0.6845931 0.3929013
adenosine -0.15763615 0.005831406 -0.4149312 0.07243099 -0.3198145 0.08289956 0.16870834 -0.43417674 -0.47550884 0.5778884 0.38137403 -0.15692723 0.04647093 -0.26649135 0.3845652 -0.83943534 0.38119987 0.5033052 0.6616821 0.35592535
TRADD -0.16189535 0.031128792 -0.38357466 0.06723013 -0.3236544 0.12445931 0.21206567 -0.44912156 -0.50625324 0.5797202 0.34504828 -0.14354488 -0.00028787061 -0.23555265 0.3644878 -0.8128252 0.35269472 0.47357118 0.67161685 0.34959632
4 -0.14660738 -0.00193517 -0.33905002 0.059176136 -0.34296107 0.17074326 0.20467824 -0.48744458 -0.4891236 0.4905166 0.35614553 -0.15401338 -0.028082892 -0.24064818 0.4262778 -0.8209392 0.41852027 0.5325119 0.70828086 0.3094295
induced -0.09740107 0.04463551 -0.40812394 0.068917155 -0.3347494 0.12209274 0.20451684 -0.43853146 -0.5264439 0.599563 0.41366327 -0.18543158 0.038504723 -0.25410616 0.3700818 -0.83089656 0.35862896 0.49822852 0.69400084 0.3688327
addition -0.10389337 0.00732595 -0.32064122 0.05532846 -0.29602358 0.043808494 0.15664066 -0.38570037 -0.4848109 0.583609 0.33159995 -0.16095547 -0.011040801 -0.24670847 0.2939763 -0.7508299 0.30811125 0.43356064 0.5760462 0.30965352
kDa -0.1932269 0.026428856 -0.36488423 0.13931239 -0.37110215 0.337219 0.312094 -0.5309 -0.44083184 0.44807833 0.3132054 -0.26822266 -0.048797473 -0.13790154 0.50151473 -0.84660494 0.5083278 0.64907104 0.69710594 0.2816452
To -0.106794976 -0.05730945 -0.35119244 0.0597067 -0.28969276 0.07679574 0.15846345 -0.35876235 -0.3663006 0.47698295 0.32041916 -0.123090595 0.09388826 -0.27766743 0.28971514 -0.73709345 0.28979763 0.39088348 0.5217901 0.3297949
light -0.26675582 -0.15812613 -0.44186673 0.0822332 -0.6761833 0.48913813 0.44740197 -0.567601 -0.1163202 0.0948653 0.38684082 -0.4397303 -0.0381447 -0.24035716 0.42956665 -0.94418335 0.68451196 0.83896095 0.50773317 0.18783902
nuclear -0.13184845 0.04340962 -0.40169677 0.053867854 -0.32190093 0.090486385 0.17374098 -0.39856914 -0.5107381 0.63472986 0.39824548 -0.13227822 0.05302447 -0.28117913 0.35579023 -0.82953614 0.33920914 0.4320287 0.6350875 0.36126256
association -0.11950273 0.060962733 -0.35072306 0.108153775 -0.33881634 0.14968523 0.19743225 -0.5023702 -0.54723525 0.6284552 0.40949178 -0.14618757 -0.094448656 -0.20251243 0.40335104 -0.8124945 0.3438538 0.4447958 0.7046248 0.30183578
cerevisiae -0.14453407 -0.032815725 -0.4073998 0.08427011 -0.33552215 0.104267254 0.13152191 -0.37479565 -0.4284499 0.5891878 0.36977682 -0.19007118 0.05759376 -0.27028432 0.30600578 -0.81431925 0.30858865 0.4896785 0.6463038 0.3577186
analysis -0.114450574 -0.016683314 -0.39483458 0.05647677 -0.30224094 0.058037914 0.16253777 -0.374642 -0.50276494 0.6401963 0.3553684 -0.14499064 0.08245944 -0.32532346 0.3432026 -0.8257826 0.32634023 0.42516866 0.62154573 0.38346505
II -0.13368101 -0.025083842 -0.37676004 0.101694934 -0.38135475 0.1642042 0.22590056 -0.46395394 -0.4180267 0.51978725 0.38667822 -0.22572719 0.011207947 -0.27539858 0.39737833 -0.8147564 0.4154467 0.5307346 0.61475235 0.31022468
This -0.10508118 -0.031428777 -0.36776474 0.03948494 -0.3030191 0.032780435 0.103496045 -0.33174983 -0.4084927 0.572582 0.32186934 -0.117992945 0.070863485 -0.3135823 0.29039934 -0.7946785 0.33613354 0.4126936 0.5881309 0.31268135
gamma-catenin -0.08469557 0.26439393 -0.16128959 0.15000115 -0.32512212 0.29121292 0.26967192 -0.62788266 -0.7634777 0.71367437 0.479878 -0.15753245 -0.30971763 -0.005829299 0.5751069 -0.61677736 0.3801623 0.45212376 0.8773613 0.24684294
rate -0.14571859 0.007969926 -0.41072357 0.08947 -0.40384024 0.1464369 0.24056304 -0.41272452 -0.4352968 0.50958043 0.37661955 -0.16478603 -0.0042324895 -0.29410657 0.38543767 -0.81662625 0.39061087 0.46962485 0.64122653 0.2937004
regulate -0.12690681 0.0223398 -0.40755305 0.10286413 -0.3504882 0.08809718 0.20479445 -0.39231902 -0.50582564 0.5883942 0.3769824 -0.13591179 0.020727813 -0.3037285 0.3394017 -0.7911667 0.34122133 0.4494113 0.63430136 0.33700615
monomers -0.15091065 0.044747062 -0.36747018 0.1065324 -0.38874042 0.084779814 0.2127987 -0.4216476 -0.50481594 0.50531614 0.41100547 -0.18751924 -0.012915789 -0.32040602 0.39466408 -0.8178859 0.33997348 0.43624997 0.65562 0.3035524
residues -0.12234535 -0.042651527 -0.40599564 0.09449876 -0.37229845 0.12830998 0.18183422 -0.39145556 -0.48042378 0.58458066 0.3410394 -0.17907815 0.092474915 -0.29455218 0.33984238 -0.8641645 0.40547878 0.5023126 0.64569575 0.37795538
localization -0.13025837 0.087856956 -0.32634792 0.08712338 -0.31187174 0.11372262 0.17386453 -0.42762777 -0.52120245 0.53173614 0.3718826 -0.12888907 -0.04275949 -0.22543569 0.37024173 -0.7045145 0.31065327 0.4300973 0.6678343 0.3271534
normal -0.09734735 0.063065775 -0.3251039 0.07192194 -0.34908804 0.14823055 0.17215161 -0.44179785 -0.5278934 0.58161783 0.3903525 -0.116291575 -0.084242925 -0.19768848 0.36285964 -0.76904553 0.3652388 0.44399568 0.6642052 0.32887277
phosphorylation -0.12505043 0.08004851 -0.3292389 0.05476272 -0.3328409 0.14185084 0.22290039 -0.44645333 -0.577576 0.60984236 0.413586 -0.1287544 -0.051878877 -0.22366753 0.41788927 -0.8012317 0.32532984 0.4629082 0.6798389 0.33399758
MSH3 -0.14872606 0.081111945 -0.38191038 0.09187427 -0.35593593 0.12181354 0.21789469 -0.42422363 -0.50565064 0.62253326 0.37567922 -0.15138875 -0.0055694627 -0.24251677 0.38572422 -0.807836 0.3158202 0.4631142 0.6787299 0.3124799
focal -0.11342558 0.022848904 -0.38764757 0.055546086 -0.35810038 0.0906378 0.18128233 -0.4322707 -0.50770277 0.5714376 0.39862424 -0.16781017 0.025641916 -0.26172674 0.37091255 -0.87491655 0.35924822 0.44933182 0.6818608 0.3082316
essential -0.15044014 0.031239096 -0.38998222 0.093733795 -0.36426035 0.08366958 0.17893107 -0.396268 -0.49646226 0.5881228 0.4017993 -0.13050823 0.05059848 -0.28828645 0.34630144 -0.85098135 0.36662716 0.43859947 0.6662633 0.3339803
demonstrated -0.13059543 0.046403542 -0.37298867 0.073579624 -0.3086768 0.055481806 0.19295155 -0.38800776 -0.494019 0.64059466 0.3653875 -0.17652963 0.027863521 -0.28202707 0.36210373 -0.8534955 0.3623525 0.46342763 0.6468255 0.3532646
specific -0.10402508 0.008462314 -0.4020021 0.067150995 -0.36331338 0.08435381 0.19907497 -0.44085187 -0.4838278 0.58338773 0.3939677 -0.14664543 0.014139677 -0.25800967 0.36042732 -0.7893521 0.33151713 0.4847641 0.62892246 0.32243472
changes -0.16554636 0.008299114 -0.3800331 0.054978527 -0.3738989 0.16092233 0.23638284 -0.4504523 -0.45929947 0.51637733 0.3649469 -0.15933035 0.029969787 -0.25612316 0.3630614 -0.8294574 0.3755713 0.49692732 0.605256 0.33294424
pathway -0.14416774 -0.02674255 -0.37675673 0.04714184 -0.35378125 0.077635 0.16484436 -0.38682377 -0.4475215 0.56273234 0.35920492 -0.14003918 0.013341709 -0.28110564 0.35652405 -0.8053517 0.35597762 0.46770355 0.6425301 0.3331555
major -0.121715486 0.042113543 -0.38725758 0.06031443 -0.32021192 0.11655378 0.17885205 -0.41226533 -0.4406305 0.5123144 0.34399801 -0.15948601 0.031773124 -0.24811174 0.36159396 -0.7671971 0.3283756 0.47198278 0.636701 0.3415054
did -0.10889466 0.092809565 -0.34297466 0.0919847 -0.3055049 0.15210304 0.19674097 -0.49171942 -0.5589395 0.657458 0.40837204 -0.15961193 -0.05922533 -0.21210936 0.4405494 -0.8070189 0.34613767 0.4589865 0.71848434 0.32240894
most -0.16432813 -0.036126107 -0.40131426 0.09735573 -0.33136463 0.108247586 0.16113064 -0.41939425 -0.44117078 0.54888463 0.38125 -0.1822763 0.05742499 -0.3050755 0.33023697 -0.82456434 0.35210395 0.48002756 0.6494991 0.32674363
Saccharomyces -0.1046003 -0.02644275 -0.3575359 0.0637536 -0.34540543 0.08842724 0.17354798 -0.41498768 -0.4564363 0.5819971 0.37706843 -0.1606027 0.049382884 -0.2614598 0.32099703 -0.8296815 0.35752806 0.471312 0.63330114 0.35557774
system -0.095107526 -0.0036136874 -0.36036956 0.052040827 -0.30947176 0.05043145 0.14492184 -0.38438606 -0.4582672 0.5896578 0.3466557 -0.12668021 0.06828813 -0.26178464 0.3518267 -0.82079905 0.33103564 0.42753527 0.5873255 0.35233107
recombinant -0.1466047 0.007332221 -0.3550794 0.07170364 -0.3290293 0.106108725 0.15837312 -0.43091395 -0.4903264 0.59137034 0.3489511 -0.16862348 0.04873381 -0.2720855 0.35654244 -0.8389884 0.33707932 0.4468856 0.61821645 0.34574312
used -0.13899171 0.016357789 -0.40298408 0.09560171 -0.35796037 0.06165701 0.17230196 -0.39850053 -0.46107367 0.6078305 0.3822501 -0.17997696 0.05201498 -0.263946 0.3280861 -0.84224707 0.3381398 0.4535865 0.66822904 0.34584177
through -0.12243472 0.012094794 -0.37929672 0.08657383 -0.3462314 0.11164098 0.21335146 -0.4378524 -0.47155035 0.5845902 0.39123586 -0.16096643 0.027323425 -0.25810158 0.35979936 -0.82906425 0.3690726 0.44718644 0.65138704 0.34523553
well -0.08949112 0.024291866 -0.36259764 0.10378036 -0.32151753 0.0914409 0.1948889 -0.42004445 -0.51725477 0.6625682 0.36789048 -0.11046581 -0.015530124 -0.24183024 0.3901808 -0.8413212 0.34248793 0.46967697 0.7096309 0.35127005
FADD -0.12312768 0.026985442 -0.39022967 0.09978045 -0.3207861 0.08318505 0.21330985 -0.40681717 -0.50862265 0.5907957 0.39308396 -0.16245879 0.01188443 -0.2667608 0.38913342 -0.8261265 0.33869746 0.4511551 0.67134607 0.32703972
revealed -0.13321392 0.010044837 -0.3666408 0.053660467 -0.31375468 0.09286618 0.17219718 -0.40330693 -0.48422784 0.6114505 0.36590657 -0.12362169 0.05874218 -0.26035014 0.32128888 -0.8210329 0.3477853 0.452747 0.6548733 0.35414892
concentration -0.14200336 0.001543519 -0.37462014 0.091768704 -0.32604444 0.12739098 0.17157872 -0.40556815 -0.4646385 0.5333364 0.37114626 -0.13253903 0.035514537 -0.26678613 0.33496818 -0.79048103 0.32702515 0.42345017 0.58658963 0.2897321
present -0.12983811 0.059792392 -0.3418719 0.05950684 -0.33681476 0.08658757 0.19360945 -0.3957342 -0.51559764 0.5991022 0.367767 -0.17100102 -0.01005278 -0.27954867 0.330973 -0.79759246 0.35266605 0.45735452 0.61871254 0.33268726
MSH6 -0.14779611 0.06306503 -0.34461427 0.09279554 -0.32184127 0.14801687 0.2092476 -0.40575525 -0.5422225 0.61590946 0.36434197 -0.16313359 -0.016244572 -0.20843484 0.37247047 -0.8060938 0.36533943 0.45756876 0.69861275 0.3343076
replication -0.12569411 0.044884298 -0.38052 0.09290736 -0.3128817 0.07540048 0.18944417 -0.40157315 -0.48879692 0.5999845 0.35479933 -0.14038682 0.06716796 -0.24660417 0.3460572 -0.8129604 0.33222502 0.44338533 0.6192922 0.31717843
respectively -0.14175761 -0.00055401225 -0.36691523 0.10684215 -0.39206636 0.21380347 0.20570055 -0.43327397 -0.4241622 0.48640066 0.33762616 -0.20248596 -0.031331707 -0.23546839 0.41212392 -0.7839139 0.3818674 0.53430414 0.6549869 0.31471208
RAD54 -0.16195792 0.086969264 -0.37232935 0.05194142 -0.3232101 0.1284406 0.19540653 -0.41619003 -0.5116458 0.6177921 0.3236661 -0.19717692 0.013584668 -0.27236295 0.3650534 -0.7710112 0.3498644 0.4796767 0.64646226 0.32421213
determined -0.111266516 -0.0005920214 -0.4192385 0.0476248 -0.3482347 0.061957505 0.17444259 -0.4109119 -0.44831997 0.5861834 0.37921774 -0.18321812 0.094187476 -0.28654212 0.3444803 -0.85510933 0.3606901 0.4795714 0.6310191 0.37544033
However -0.12240773 -0.01688662 -0.36066216 0.08169405 -0.33226907 0.08244056 0.18650131 -0.3582497 -0.40317833 0.50633115 0.3169617 -0.13121982 0.044888213 -0.22257592 0.31960928 -0.75452614 0.33356994 0.44696054 0.5375255 0.2843898
signaling -0.0959471 0.039460048 -0.3787467 0.07585314 -0.27726424 0.06937311 0.14291054 -0.38468114 -0.46180555 0.61827284 0.38071096 -0.10525475 0.04476103 -0.29175872 0.3493875 -0.772796 0.32416588 0.41952798 0.630222 0.34379154
alpha -0.17219238 -0.08191302 -0.36583674 0.06014093 -0.47029802 0.25894964 0.274021 -0.44958955 -0.25972837 0.34786892 0.36634934 -0.25180772 0.019623553 -0.20880868 0.3981867 -0.84400535 0.5142369 0.64794743 0.5514449 0.24077314
structures -0.12644169 0.041181453 -0.37402058 0.07799499 -0.32957822 0.10677697 0.21344759 -0.4521868 -0.49591902 0.60789865 0.4188804 -0.1491696 0.031097036 -0.2833164 0.39683938 -0.81961304 0.3574768 0.49406025 0.6701443 0.33231157
transcription -0.14321177 -0.0030070683 -0.3580175 0.052743834 -0.3004454 0.06848801 0.19242762 -0.41813233 -0.46806931 0.56297493 0.32876265 -0.15485832 0.017190456 -0.25097227 0.3469707 -0.8043785 0.31620058 0.45372137 0.6238076 0.31152594
CBP -0.15162013 0.035739746 -0.33044535 0.07158992 -0.30603698 0.11307461 0.16346264 -0.40650302 -0.53470105 0.6024541 0.35602665 -0.14645898 -0.0045580124 -0.23551947 0.37928066 -0.81950086 0.32944983 0.452986 0.65288603 0.29309914
studies -0.11178823 -0.024971714 -0.39411637 0.070306905 -0.3078718 0.030513404 0.17712243 -0.4129104 -0.4650176 0.61415726 0.34484476 -0.13349742 0.08611563 -0.3120124 0.3384494 -0.87194335 0.35487282 0.4277529 0.6219381 0.3856108
either -0.14358552 0.10240814 -0.31049225 0.09620047 -0.30682397 0.16849303 0.19323114 -0.44257778 -0.56544477 0.6509648 0.3721711 -0.15376739 -0.023029666 -0.2173341 0.40042317 -0.80562377 0.33965105 0.47449428 0.72942746 0.2999885
tropomyosin -0.16773485 -0.057100285 -0.39697525 0.064657174 -0.4315333 0.21068585 0.259282 -0.4291958 -0.3273269 0.37488 0.36057472 -0.2368967 0.010435268 -0.27032152 0.36011967 -0.8293181 0.45967057 0.5935265 0.5609852 0.24169646
recombination -0.17016914 0.022761354 -0.39150554 0.045092277 -0.34512556 0.10782399 0.1673751 -0.3940742 -0.45341817 0.6029272 0.36428803 -0.14669555 0.076279916 -0.27564076 0.35157794 -0.8018726 0.34511676 0.43844908 0.6561001 0.35256422
after -0.14859141 0.022332663 -0.3849761 0.052505225 -0.3308441 0.1426435 0.2049039 -0.4101373 -0.48375726 0.5809173 0.37828562 -0.17269245 0.043920264 -0.271079 0.3649557 -0.8548964 0.38268423 0.5064211 0.6398069 0.30852598
simplex -0.08545731 -0.08110343 -0.38443527 0.05781828 -0.30266243 0.05199045 0.14570878 -0.36737847 -0.35148114 0.5376515 0.3223227 -0.11885691 0.12698944 -0.2547743 0.30879635 -0.7728437 0.33108285 0.48336965 0.62145007 0.3693445
regions -0.11689275 0.0051895836 -0.37093833 0.093950234 -0.33737162 0.09785413 0.17207432 -0.43143907 -0.436642 0.52879506 0.36593565 -0.18487357 0.068212464 -0.30986476 0.35850114 -0.84475344 0.33920607 0.4817917 0.6472254 0.3516004
determine -0.098790675 -0.0070282216 -0.37817147 0.09143029 -0.30511585 0.082293294 0.14816059 -0.40860522 -0.44491813 0.55608135 0.34394157 -0.15473132 0.07378298 -0.3040038 0.34847218 -0.8151602 0.37583378 0.44734553 0.6395508 0.3591252
J. -0.12461732 0.031152852 -0.3286256 0.05991435 -0.30060804 0.14830975 0.18948737 -0.4239951 -0.45689842 0.5377365 0.32579365 -0.21188293 0.009031643 -0.19017452 0.39767247 -0.786381 0.392349 0.54010236 0.637092 0.31794173
' -0.12922259 -0.007375928 -0.36549968 0.064109586 -0.31773672 0.12914939 0.14302433 -0.37907284 -0.4116137 0.55705583 0.33235028 -0.15459989 0.08488057 -0.2955213 0.34549102 -0.80577254 0.37198532 0.4519331 0.61488014 0.3071429
acid -0.11340383 -0.00585859 -0.39874455 0.07114254 -0.29673204 0.09342839 0.1624362 -0.406635 -0.46344128 0.5391921 0.33266053 -0.14935185 0.08417203 -0.29341197 0.34864506 -0.80442685 0.34904617 0.47928 0.61910903 0.3367935
more -0.13808633 -0.014337941 -0.40688545 0.08460792 -0.31907347 0.08765665 0.178386 -0.42527822 -0.45129398 0.63587075 0.4037614 -0.13037178 0.054701377 -0.27123442 0.33374032 -0.841712 0.3392855 0.4798576 0.657648 0.35581556
homologous -0.15385647 0.081946865 -0.3481603 0.08186674 -0.3119873 0.09607378 0.20078968 -0.4121572 -0.54150915 0.6505209 0.38233188 -0.17234442 -0.0038695403 -0.2495552 0.3580322 -0.83282787 0.35708225 0.46333843 0.68036413 0.3492697
four -0.12866211 0.01075694 -0.39007893 0.07629975 -0.2977955 0.093668625 0.14134367 -0.39176837 -0.4675507 0.60904354 0.3657181 -0.12587039 0.030280355 -0.2762356 0.33019882 -0.80935955 0.3712039 0.4645877 0.62613505 0.36077675
reduced -0.12587585 0.03103477 -0.3253129 0.05622647 -0.311509 0.095209554 0.14588371 -0.40195313 -0.45449668 0.5652115 0.37339583 -0.16965434 0.048337746 -0.2626218 0.33582702 -0.7636268 0.37532794 0.46927288 0.63581 0.31453466
distribution -0.13887277 -0.0052605197 -0.3775944 0.072836615 -0.3415876 0.09816051 0.1857632 -0.43009415 -0.47167146 0.5603054 0.38440588 -0.1644229 0.00978238 -0.25627556 0.33676386 -0.7966633 0.35628608 0.4765028 0.6408638 0.3080186
staining -0.13823453 0.025600923 -0.3668001 0.051688656 -0.33935288 0.16441551 0.17787303 -0.40739036 -0.42030293 0.51321244 0.37400046 -0.1608797 0.00951062 -0.25746465 0.36950162 -0.8008995 0.39346996 0.47637314 0.597359 0.30700672
ends -0.09941757 -0.01854142 -0.37654766 0.040445212 -0.34236383 0.054567635 0.15569833 -0.41953498 -0.46985948 0.548219 0.37535787 -0.16612831 0.018023187 -0.28419933 0.32599124 -0.7980485 0.3572553 0.41642836 0.60470134 0.31230432
related -0.12316913 0.031786855 -0.34937638 0.056103818 -0.32036912 0.13347058 0.21177189 -0.40573025 -0.5129667 0.59148437 0.33256087 -0.1326623 0.016445223 -0.24640548 0.35652405 -0.8115532 0.347119 0.46823886 0.6719203 0.3391539
important -0.14863408 0.026170017 -0.37935585 0.097958624 -0.36118522 0.0693923 0.15460941 -0.37837863 -0.47606507 0.61104745 0.38238728 -0.13060935 0.07103211 -0.30904824 0.33969894 -0.85909253 0.31734622 0.45463395 0.6249287 0.36901096
indicate -0.12297663 0.018893583 -0.3572723 0.03516852 -0.2962528 0.04397691 0.14998077 -0.34241757 -0.42833933 0.6033222 0.35580108 -0.12939954 0.08523421 -0.3167891 0.27507064 -0.8129337 0.30553076 0.38966614 0.6012093 0.34526214
sequences -0.11722402 0.009674505 -0.34346 0.078103594 -0.3216133 0.15273333 0.19875978 -0.43359995 -0.44990674 0.5129223 0.31094563 -0.18670934 0.029223517 -0.24129227 0.36003706 -0.79528576 0.401428 0.5121538 0.5958448 0.28871745
C -0.16291529 -0.047292195 -0.39920303 0.069421336 -0.3264847 0.11879288 0.19741058 -0.39186704 -0.42417198 0.56635594 0.36159295 -0.19045985 0.09522035 -0.27695692 0.3602477 -0.86304265 0.38850233 0.5081661 0.57941645 0.323646
including -0.1338455 0.073821574 -0.3213821 0.06461981 -0.3359497 0.1745623 0.22123952 -0.45547587 -0.5713917 0.62671137 0.37858143 -0.16381253 -0.053347405 -0.1634732 0.4173565 -0.81023526 0.35994205 0.48664865 0.70418215 0.3055914
products -0.13503133 0.062044974 -0.36173427 0.077086054 -0.38740727 0.112452805 0.2241927 -0.44864035 -0.4945346 0.61178803 0.34930193 -0.16808467 0.0048834877 -0.26588336 0.3715715 -0.8016576 0.34190327 0.47064832 0.7013361 0.34478426
endothelial -0.13659872 -0.009056093 -0.40423268 0.0619528 -0.30971658 0.114785686 0.1648824 -0.39930692 -0.4050627 0.56456006 0.34944823 -0.17100601 0.097808935 -0.28224823 0.35016936 -0.8373855 0.33696336 0.49547592 0.6366327 0.34071684
L -0.10657323 0.002988791 -0.3377578 0.065194465 -0.30107442 0.13017407 0.18015486 -0.4460914 -0.50869507 0.55147 0.3563414 -0.1808594 0.028527206 -0.20078106 0.3624267 -0.7887781 0.3897147 0.5252593 0.64214337 0.31610543
helicase-primase -0.1292795 0.027482368 -0.36943594 0.05453857 -0.3334214 0.07887865 0.16930279 -0.39744633 -0.4590365 0.613233 0.33243513 -0.12545939 0.061955955 -0.27385983 0.36236152 -0.7670533 0.37700164 0.46736348 0.70738345 0.37897378
D1 -0.14510511 -0.040170398 -0.3585419 0.088340394 -0.30585942 0.16875644 0.18313247 -0.48132926 -0.4633187 0.5286849 0.3645228 -0.16520166 -0.034878034 -0.22102512 0.35525364 -0.79666597 0.39009872 0.47855926 0.6684951 0.23978041
observed -0.14539002 0.02933741 -0.35317776 0.08845038 -0.32715923 0.10960097 0.18376966 -0.40698832 -0.47198412 0.5629947 0.34649834 -0.1452547 0.029242858 -0.20007727 0.35928723 -0.7762441 0.34617648 0.4235628 0.60586363 0.30723223
5 -0.10551614 -0.01724779 -0.3751184 0.051463548 -0.31874725 0.13904993 0.18322717 -0.4010754 -0.41973004 0.54973817 0.32229885 -0.16925569 0.05765805 -0.27972937 0.3528309 -0.81472385 0.35356537 0.45965132 0.64621544 0.29812184
bundles -0.1516457 -0.03752416 -0.35252082 0.070492245 -0.33152446 0.09745513 0.16545033 -0.3770048 -0.40107575 0.48584482 0.3656073 -0.17886868 0.015916646 -0.29920104 0.34669894 -0.8038021 0.3699643 0.4431707 0.58233505 0.31920332
control -0.13044778 0.020318372 -0.3802877 0.06593295 -0.30038494 0.06400528 0.1586863 -0.36717507 -0.41846734 0.553167 0.35452148 -0.15228789 0.033388026 -0.25324085 0.31927037 -0.78312546 0.31221712 0.44132295 0.58345956 0.30511102
motility -0.12469065 0.031042555 -0.3449907 0.07448286 -0.31377968 0.11680394 0.18048467 -0.40057573 -0.4168733 0.54359263 0.3627178 -0.11529969 0.03397604 -0.27448004 0.34885973 -0.8009398 0.33305323 0.42079604 0.59054416 0.29911584
monomeric -0.123878404 -0.013903402 -0.39425352 0.062950045 -0.32265005 0.079220295 0.18311809 -0.4155857 -0.4384551 0.5131267 0.37758404 -0.16509153 0.015900586 -0.30854216 0.31215376 -0.8070271 0.3492516 0.44290805 0.5816053 0.32663283
compared -0.13879466 0.018279694 -0.3817547 0.04606133 -0.29728413 0.0735835 0.17071524 -0.36212364 -0.4312038 0.53919137 0.35055587 -0.16348508 0.038110007 -0.25067112 0.3195655 -0.772169 0.33384582 0.4424176 0.59503275 0.33448693
bound -0.14799835 -0.01086327 -0.37002817 0.055953916 -0.33116654 0.047112722 0.13187861 -0.40084058 -0.477169 0.5482471 0.3609174 -0.12477872 0.054611214 -0.288633 0.326064 -0.7988532 0.33699185 0.40975302 0.6183066 0.31580597
cytoplasm -0.14893113 0.034629997 -0.358553 0.052964557 -0.32351303 0.06655614 0.17345002 -0.41352692 -0.4776638 0.5437597 0.33681345 -0.12072985 0.023182854 -0.24095823 0.32270035 -0.7862038 0.31479517 0.42783186 0.61242604 0.31085894
inhibited -0.1426734 0.0034359396 -0.35745513 0.04832678 -0.30579665 0.120538846 0.15078019 -0.39205942 -0.43201438 0.55024487 0.3707689 -0.17337011 0.070557505 -0.25038555 0.37423423 -0.82291114 0.3709975 0.49034753 0.62883484 0.31643942
fluorescence -0.09988471 0.0070094727 -0.38756233 0.056727353 -0.31780845 0.07251399 0.16326295 -0.4023049 -0.44222623 0.5784896 0.34682828 -0.17220454 0.06530686 -0.29955924 0.32968673 -0.8387761 0.35405678 0.43797284 0.6270587 0.3269302
stress -0.109757856 0.026241174 -0.36696735 0.032681253 -0.28616172 0.054693017 0.12987714 -0.4021789 -0.49904406 0.61764425 0.34279498 -0.15858103 0.084438674 -0.2827394 0.34004113 -0.8168023 0.32349014 0.45740122 0.62236845 0.34954098
M -0.088402025 0.03114883 -0.32299003 0.09854697 -0.23510905 0.1743183 0.17912006 -0.4169934 -0.4853756 0.540301 0.31283045 -0.15604013 0.04135443 -0.16760664 0.3904992 -0.7922033 0.4047422 0.51783854 0.66059786 0.30268833
previously -0.148562 -0.005109035 -0.37682852 0.0667004 -0.31871372 0.067374766 0.15428013 -0.41277772 -0.45830515 0.5734099 0.35293424 -0.13930142 0.07430549 -0.31078583 0.31720966 -0.84033716 0.359162 0.45134363 0.6279786 0.35863042
dynamics -0.1250682 0.003979123 -0.35770616 0.048801318 -0.3434671 0.12390021 0.16644226 -0.37767014 -0.41249144 0.46315995 0.3372202 -0.16671568 0.014150049 -0.2692778 0.30241227 -0.71885765 0.3313017 0.4273374 0.5539591 0.2946512
model -0.09870181 -0.024036782 -0.36346555 0.06572888 -0.34637076 0.06592555 0.14353853 -0.37280768 -0.44842 0.52370536 0.34677622 -0.1238649 0.03180197 -0.3057345 0.33968577 -0.81842005 0.33512026 0.42123416 0.6070621 0.32392055
viral -0.1161123 0.033575807 -0.34630206 0.04623156 -0.31285352 0.116976164 0.15692356 -0.38759708 -0.47199336 0.5508452 0.32557952 -0.12513165 0.027142998 -0.22753543 0.3566268 -0.7520539 0.33263934 0.4385877 0.632173 0.32879326
no -0.15124625 0.029192321 -0.38319033 0.08233125 -0.3206359 0.09229656 0.17069975 -0.41116226 -0.46570024 0.55812025 0.3692133 -0.15467608 0.05958856 -0.29472923 0.34484094 -0.8062079 0.33689576 0.47443482 0.61376506 0.35447833
p27 -0.1376805 0.007166476 -0.41829008 0.10450893 -0.29936305 0.12719186 0.17492962 -0.4742617 -0.52946854 0.5856741 0.41940087 -0.112875514 0.0061635724 -0.2441913 0.4115093 -0.8384088 0.37136897 0.4632614 0.64897627 0.25357932
purified -0.10736838 -0.021353383 -0.36649236 0.07903048 -0.3520425 0.10005049 0.18512192 -0.3936324 -0.41169596 0.53428394 0.31381002 -0.1781767 0.022297826 -0.24753247 0.34332818 -0.81105417 0.38561425 0.45420632 0.6120976 0.31827807
alpha-smooth -0.19193055 -0.0915804 -0.41407543 0.091050245 -0.53967345 0.33367574 0.3073175 -0.45536768 -0.26653412 0.22318575 0.36354217 -0.26835358 0.019841727 -0.2804701 0.38238582 -0.916793 0.5443465 0.64804834 0.49426448 0.2449696
molecular -0.122287825 0.031431723 -0.36225468 0.08053559 -0.3196559 0.10884994 0.16848393 -0.41292557 -0.5006783 0.58707464 0.35362864 -0.17781053 0.054460794 -0.27178425 0.3207705 -0.82754225 0.35505652 0.49147803 0.61111623 0.31565472
increase -0.15623388 0.0034435655 -0.40228158 0.054116137 -0.32197085 0.10228894 0.2071946 -0.4221217 -0.44431958 0.5563839 0.3891479 -0.18523316 0.0516448 -0.28656977 0.31134027 -0.8215052 0.3246764 0.4604884 0.5910322 0.30955768
reorganization -0.15545885 0.040629417 -0.34241247 0.10301131 -0.3443011 0.11434849 0.18404645 -0.39213914 -0.45850044 0.490145 0.34928936 -0.13248996 0.0017068248 -0.25141153 0.33216274 -0.7894091 0.32493943 0.43757743 0.5812997 0.30872068
desmin -0.20809649 -0.035146512 -0.36351743 0.11652506 -0.47506493 0.3098704 0.3245624 -0.44340906 -0.30442178 0.27007544 0.36264992 -0.2825833 -0.035675824 -0.22238319 0.38643447 -0.8002934 0.48532435 0.6275221 0.54672164 0.23401767
cardiac -0.16818716 -0.13147613 -0.42058694 0.059885826 -0.49527916 0.2379553 0.2838249 -0.42834666 -0.19878924 0.28170165 0.33121008 -0.2628403 0.04903693 -0.27174988 0.34165007 -0.8757231 0.47914052 0.6033731 0.50637984 0.26637757
absence -0.10388311 0.018943172 -0.35980135 0.059452422 -0.31133682 0.101324126 0.15314089 -0.39446896 -0.46950382 0.5509962 0.33140004 -0.11108178 0.020526098 -0.24065979 0.3314187 -0.73404646 0.30067232 0.40735146 0.6154705 0.30103937
plant -0.109059826 -0.0006740026 -0.3656379 0.046157885 -0.3105724 0.09631706 0.14449188 -0.3546944 -0.39942977 0.5396702 0.34578753 -0.16905423 0.03317345 -0.24449676 0.30215514 -0.78827524 0.32735243 0.43702385 0.5636315 0.30898455
ADF -0.13081138 0.04087429 -0.36440593 0.052412685 -0.31787494 0.116931334 0.1608044 -0.39602602 -0.4470428 0.50923485 0.34945416 -0.16897377 0.040403582 -0.22310394 0.37047425 -0.78544873 0.35171062 0.436473 0.6065529 0.32524875
relative -0.13972063 -0.03140395 -0.35000673 0.073468015 -0.32434636 0.12221985 0.19609854 -0.37036043 -0.38262886 0.4937384 0.31768486 -0.16493678 0.02244935 -0.21459721 0.35945708 -0.76510215 0.35765418 0.48912296 0.5658492 0.27474877
N-terminal -0.14634508 0.0019873183 -0.40049985 0.10856268 -0.35838887 0.11692323 0.21842778 -0.4079339 -0.45764628 0.5657113 0.35319555 -0.17322913 0.030755611 -0.2618373 0.37954977 -0.8513671 0.34634528 0.49153468 0.6173845 0.31299606
examined -0.111601084 0.018770816 -0.34072167 0.057834856 -0.27265775 0.10461311 0.15880947 -0.3778525 -0.43478614 0.54718447 0.35001376 -0.14169031 -0.00051006227 -0.23348644 0.32725683 -0.7234812 0.3214695 0.3760198 0.5938412 0.31284407
receptors -0.12492421 0.0184743 -0.3748775 0.083084464 -0.3048769 0.08129176 0.17749931 -0.37585995 -0.43386415 0.5556282 0.35790345 -0.16914728 0.09588714 -0.28258145 0.34101197 -0.8037392 0.33728 0.45316252 0.56955314 0.33957422
surface -0.10474734 0.0025098738 -0.34955 0.09569883 -0.28934428 0.12826419 0.17704113 -0.40606967 -0.47922438 0.54581416 0.37550193 -0.11048557 0.0034057712 -0.2056116 0.33965304 -0.7848301 0.33583724 0.46659926 0.63276345 0.31996375
large -0.14703031 -0.019762041 -0.36968702 0.07669115 -0.28903395 0.100336395 0.14997876 -0.37604263 -0.464966 0.5231657 0.34535864 -0.12948076 0.037166238 -0.24631055 0.335285 -0.7900062 0.3505023 0.45503616 0.59036624 0.32608894
encoding -0.14606452 0.03406304 -0.37612057 0.08965128 -0.34895203 0.14517824 0.21128629 -0.43845704 -0.47127 0.55690867 0.3301059 -0.13229004 -0.004175431 -0.21468255 0.37216344 -0.8140701 0.34412038 0.502405 0.64103085 0.3208865
suggesting -0.121889874 0.029426899 -0.33331004 0.060404737 -0.34493136 0.096083805 0.22059801 -0.42731887 -0.49839237 0.6037741 0.35184848 -0.15838604 -0.024407735 -0.24547528 0.35912082 -0.7643395 0.3361222 0.46247184 0.6675822 0.30271104
concentrations -0.1165328 -0.00762395 -0.374873 0.06265797 -0.32988334 0.083230935 0.1480876 -0.37708673 -0.44127125 0.51786166 0.32436922 -0.12012358 0.05494417 -0.28257304 0.33117262 -0.75526756 0.29650524 0.4330165 0.55397105 0.27366272
had -0.13492607 -0.04467661 -0.40949818 0.045910183 -0.2858273 0.055279247 0.14868788 -0.39716676 -0.4185283 0.6052634 0.3020517 -0.12541571 0.11290581 -0.2899265 0.32449132 -0.8298829 0.31908292 0.4667145 0.6014105 0.3215494
directly -0.14001866 0.054870505 -0.35232386 0.0944991 -0.28662062 0.06907949 0.15756975 -0.43847743 -0.49738878 0.6219178 0.40058047 -0.12293733 -0.006490882 -0.23794371 0.38756773 -0.81955546 0.36048606 0.42170155 0.6727944 0.33570692
encodes -0.14076485 -0.030301217 -0.3946098 0.08423809 -0.31059322 0.08148164 0.14518552 -0.4034684 -0.4856015 0.574355 0.32376328 -0.12900007 0.06400166 -0.26126337 0.3208278 -0.81804156 0.33632675 0.5017856 0.6708287 0.32883406
mammalian -0.10291846 0.011129394 -0.32039595 0.051329523 -0.30574837 0.096477136 0.14561297 -0.40780306 -0.43303385 0.54888564 0.32490617 -0.118687205 0.0034436553 -0.25341263 0.34735662 -0.75942224 0.30106246 0.41992018 0.61542237 0.33357546
brain -0.13393502 -0.019514443 -0.36338374 0.045848433 -0.3178121 0.07196657 0.1718034 -0.38373643 -0.37162244 0.5068076 0.30835935 -0.15618251 0.0558626 -0.27243224 0.3006443 -0.75533694 0.3331824 0.41340706 0.5392222 0.32096186
inhibition -0.1339079 0.0005653025 -0.36153412 0.05148257 -0.28774473 0.10106378 0.1696789 -0.39113402 -0.4139127 0.523768 0.36245462 -0.123304434 0.024709528 -0.2842218 0.34908998 -0.7890847 0.34596244 0.41248146 0.5958835 0.32287052
Kd -0.10686587 -0.02414366 -0.35752505 0.11052998 -0.32746226 0.10000124 0.199439 -0.3844194 -0.44519004 0.4988288 0.359767 -0.15498957 0.033862967 -0.26332697 0.3523732 -0.777485 0.33644012 0.44485626 0.5712667 0.28021976
link -0.14155516 -0.002928745 -0.35983133 0.067246705 -0.34694687 0.08479221 0.17791474 -0.3939525 -0.4652221 0.567936 0.36856517 -0.1446649 0.034575656 -0.30178982 0.3436008 -0.8217966 0.32480815 0.43083277 0.66883075 0.31171465
although -0.10772083 0.06851213 -0.31510934 0.087276496 -0.32372785 0.15638576 0.17252964 -0.4296985 -0.509691 0.6251728 0.3613269 -0.17652254 -0.03507264 -0.2049762 0.4015688 -0.7809178 0.33788624 0.47829852 0.6415675 0.31182805
pathways -0.124338806 0.006821745 -0.41730353 0.08234277 -0.3259899 0.08859471 0.17704046 -0.3881821 -0.44961253 0.59182703 0.34377128 -0.15302402 0.08687327 -0.31189904 0.30823568 -0.8268907 0.3062848 0.45478696 0.61965424 0.33675992
intracellular -0.14445513 0.010623529 -0.39445707 0.07203729 -0.3179785 0.07340556 0.17616096 -0.42144433 -0.47056475 0.5729375 0.38047385 -0.12945582 0.032974035 -0.2729506 0.31723803 -0.79335004 0.3115811 0.41788265 0.65693104 0.34759098
mechanism -0.13577619 0.020900698 -0.34016407 0.09124619 -0.29601717 0.061021704 0.14018561 -0.35723886 -0.439891 0.56813955 0.3469361 -0.14689672 0.019116918 -0.28935874 0.33264986 -0.7708918 0.29411614 0.38718772 0.5931788 0.3050392
nucleation -0.1111889 -0.017977344 -0.35405108 0.08430586 -0.28870285 0.10456121 0.17396457 -0.38886377 -0.40554848 0.5063894 0.33030042 -0.15813832 0.06262416 -0.2923881 0.31516936 -0.7796538 0.3280899 0.40800858 0.5705691 0.31681243
cytoplasmic -0.115993425 0.06310345 -0.2872668 0.07178554 -0.2822224 0.095541604 0.14987372 -0.437487 -0.5163738 0.5853582 0.36369026 -0.12473009 -0.019353243 -0.19689396 0.36727107 -0.7442775 0.30046967 0.39958775 0.65585524 0.28192416
10 -0.13666636 -0.023943255 -0.36945558 0.07015379 -0.31175545 0.10979157 0.14701524 -0.39161155 -0.40286282 0.55397 0.30818525 -0.14382593 0.029972933 -0.26292467 0.36892033 -0.8222861 0.36533928 0.47109878 0.6191075 0.3379227
amino -0.105119266 -0.01763339 -0.33896577 0.0639655 -0.29585287 0.078814626 0.1463452 -0.38156846 -0.44642046 0.5536931 0.34596863 -0.14211497 0.05572246 -0.27628186 0.31326115 -0.79565 0.35149193 0.45206764 0.58938247 0.34922704
family -0.1365204 0.03375761 -0.39249364 0.052177377 -0.31818643 0.07688383 0.14565827 -0.39689705 -0.4811629 0.5536922 0.34682658 -0.11939916 0.055386428 -0.29131168 0.33739817 -0.8106837 0.30337736 0.42548716 0.63424444 0.33089077
components -0.12791008 -0.011235079 -0.34222552 0.088787526 -0.30405465 0.11442207 0.13737175 -0.37977955 -0.41538417 0.5431809 0.3377807 -0.14873727 0.052843273 -0.215836 0.3486069 -0.75980055 0.33946317 0.4369814 0.5865499 0.33106706
dependent -0.15004452 -0.00052566035 -0.36291543 0.0663681 -0.32692164 0.071896404 0.1527635 -0.39016512 -0.4339688 0.5517864 0.3694642 -0.15185222 0.04067821 -0.28437504 0.35019234 -0.8200911 0.36836094 0.44683596 0.61387044 0.31395182
highly -0.1428645 -0.00370931 -0.35470745 0.049047656 -0.3137277 0.091292 0.17656286 -0.3779852 -0.44213265 0.5633846 0.36056653 -0.13962854 0.058122687 -0.29458818 0.33182597 -0.77557063 0.36262047 0.4523009 0.6062807 0.3046396
data -0.11990198 0.00017925314 -0.34954807 0.055481233 -0.24881898 0.0147464415 0.14786965 -0.33700645 -0.3452294 0.51906663 0.30884475 -0.12526022 0.08930684 -0.27423793 0.24307166 -0.7427404 0.27375644 0.36739376 0.53623587 0.29202792
platelet -0.124504365 -0.007975378 -0.36702627 0.078232154 -0.3268147 0.08639339 0.16303018 -0.3952812 -0.433981 0.5785727 0.34930068 -0.17727265 0.042393427 -0.28938922 0.34844628 -0.8036925 0.332651 0.42281562 0.5945284 0.32632902
mutation -0.13396591 0.0043725963 -0.36993605 0.08650945 -0.31007323 0.089666486 0.15741608 -0.3861121 -0.39391643 0.5111861 0.31433013 -0.16494769 0.04195788 -0.2795568 0.34375504 -0.7684347 0.36679798 0.48371398 0.53949803 0.28486294
under -0.12442041 -0.009603077 -0.3704255 0.056442417 -0.27541322 0.06604401 0.16263406 -0.35120833 -0.402024 0.58528 0.32748047 -0.12510073 0.08940616 -0.2971147 0.32168633 -0.8038028 0.34773296 0.43241107 0.5876486 0.3294634
suggests -0.10407451 -0.032039028 -0.3746145 0.07547283 -0.3185957 0.052345596 0.15686145 -0.34866834 -0.41102964 0.55979323 0.34454134 -0.1271459 0.10168482 -0.2904088 0.31618807 -0.8328785 0.34874588 0.44186023 0.5943641 0.32173738
peptide -0.11481296 0.013299222 -0.3904634 0.049460158 -0.3098869 0.07743294 0.15756822 -0.40303168 -0.43457365 0.5638689 0.36393723 -0.1722502 0.07042785 -0.2681196 0.3423398 -0.8146458 0.32149383 0.4642905 0.6213572 0.3586512
cellular -0.12529157 0.014342278 -0.31403545 0.033243477 -0.30999193 0.060957678 0.14594571 -0.3561569 -0.4266274 0.51370233 0.33900988 -0.13863792 0.055880502 -0.23156755 0.30378988 -0.7458642 0.32466683 0.4072417 0.55550694 0.3069607
when -0.13646348 -0.027292259 -0.3594651 0.07977823 -0.3173482 0.060618974 0.13112237 -0.3997456 -0.42125827 0.5932101 0.35390678 -0.15991896 0.0668222 -0.27123564 0.31655508 -0.7891195 0.3592194 0.4578243 0.5684624 0.33717674
responsible -0.1437213 0.011912577 -0.40212244 0.103703775 -0.36436713 0.10087077 0.17525886 -0.3997913 -0.41196644 0.522025 0.3599081 -0.15332456 0.056793813 -0.30325624 0.36611238 -0.81522065 0.3392969 0.45103613 0.5995634 0.32148367
fusion -0.120547585 0.032297097 -0.30410427 0.07221464 -0.2785377 0.124284774 0.19884326 -0.41086677 -0.43568105 0.5133952 0.2957913 -0.15429945 0.0007920203 -0.1598233 0.38845712 -0.71881574 0.37452587 0.4833069 0.5836953 0.2840401
molecule -0.14053077 -0.0012095639 -0.3345802 0.08181914 -0.31208947 0.09744279 0.19918995 -0.37619823 -0.42629158 0.51675 0.3603692 -0.17630003 4.5016233e-05 -0.24576043 0.33323216 -0.7499343 0.33000517 0.46459013 0.5938821 0.31811267
total -0.1269635 -0.052770127 -0.3763325 0.06135019 -0.33944085 0.1596098 0.19596316 -0.38383362 -0.3720305 0.4597168 0.32766774 -0.19791311 0.02705001 -0.23028001 0.32575807 -0.80455875 0.3934127 0.47700652 0.56856453 0.26964578
pollen -0.13122235 -0.0037243743 -0.34845966 0.056493822 -0.2780989 0.05845081 0.12862307 -0.3500594 -0.3815593 0.5368055 0.3458114 -0.14912437 0.051671978 -0.30917397 0.30372885 -0.7531076 0.31137025 0.42496726 0.55711937 0.3416248
contrast -0.11178251 -0.008577695 -0.31274706 0.019956714 -0.2611608 0.065016694 0.13085352 -0.33261132 -0.32439378 0.43810776 0.2666381 -0.148097 0.036856584 -0.23550305 0.24408863 -0.6659047 0.31909177 0.39468277 0.45951235 0.2692684
assay -0.09599578 -0.0018254301 -0.37215182 0.060337633 -0.2869542 0.01854419 0.14133626 -0.33869964 -0.37586054 0.5374863 0.28568578 -0.13655281 0.096022435 -0.30084917 0.28882524 -0.7347201 0.275712 0.37448758 0.5309804 0.31412405
independent -0.10033478 0.03140415 -0.3311777 0.06822807 -0.33129153 0.104432106 0.14187083 -0.42421407 -0.4806898 0.61930054 0.39026427 -0.15135817 0.0137335975 -0.23618744 0.3435098 -0.7742594 0.34551507 0.44065297 0.6533179 0.30028632
rabbit -0.14443143 -0.06085493 -0.3759812 0.07795565 -0.3440607 0.12255265 0.18718787 -0.37935904 -0.3163327 0.4396375 0.3241208 -0.16545233 0.051753722 -0.30002427 0.32079232 -0.7584875 0.37639177 0.4456936 0.52889305 0.299434
treatment -0.10422258 -0.005735633 -0.35967273 0.03670131 -0.27821454 0.07595989 0.164223 -0.37549657 -0.4213376 0.57937574 0.35894528 -0.16874474 0.10121864 -0.26473352 0.34476194 -0.7805438 0.318026 0.43410814 0.5730515 0.32697916
each -0.13006124 0.026790762 -0.38202313 0.052370794 -0.289316 0.07317289 0.13618594 -0.37834918 -0.45496422 0.573646 0.34892574 -0.1151221 0.06592381 -0.2820909 0.31415105 -0.8017414 0.32362142 0.4532982 0.6167451 0.32083043
those -0.11288423 0.005175361 -0.34211755 0.061201368 -0.28972432 0.08821408 0.1607715 -0.36464864 -0.43683228 0.53220636 0.3342969 -0.166657 0.06879589 -0.27584824 0.31898057 -0.77283055 0.3446962 0.4263465 0.57241803 0.29482773
MHC -0.20374388 -0.1409303 -0.427907 0.11546044 -0.52623653 0.39514098 0.36504057 -0.45434982 -0.12013785 0.06894473 0.3093712 -0.31477624 -0.01978244 -0.17550614 0.40970975 -0.8597458 0.5421813 0.71607745 0.4599596 0.20420198
regulated -0.13539164 -0.041474517 -0.39271688 0.046600573 -0.35476673 0.134222 0.16431567 -0.39125106 -0.3971913 0.5118806 0.3639147 -0.1638733 0.06239016 -0.23857352 0.3653213 -0.7964206 0.3779714 0.4847339 0.577217 0.28829342
PIP2 -0.14805673 0.032960754 -0.34760994 0.046959512 -0.28584328 0.10764141 0.18041594 -0.3852532 -0.46493322 0.57162684 0.34241915 -0.16467607 0.04954597 -0.27978107 0.34820056 -0.77072793 0.35767436 0.45128602 0.5926613 0.3077365
contractile -0.12836023 -0.009818899 -0.3555745 0.095410734 -0.36965615 0.1221325 0.22024888 -0.37988198 -0.35102895 0.4749726 0.33713454 -0.1568112 0.04638181 -0.25556695 0.30067933 -0.77322096 0.34554896 0.50127786 0.5576755 0.27987564
Thus -0.12544017 -0.005944509 -0.29268485 0.038536955 -0.25298727 0.081626296 0.14173979 -0.3577694 -0.3873808 0.4353288 0.28875998 -0.1246977 0.02268761 -0.22058773 0.30773133 -0.6615119 0.29680935 0.36980075 0.519976 0.24997468
birch -0.1095555 -0.046102192 -0.33496502 0.063616574 -0.2722996 0.09048003 0.13701785 -0.36713812 -0.38999388 0.48417407 0.3241308 -0.14911662 0.07386572 -0.27735257 0.29072675 -0.75715107 0.34095404 0.39647844 0.5604184 0.32366696
monomer -0.1140737 -0.010778023 -0.35899466 0.047137864 -0.2949656 0.05190749 0.16205525 -0.38800025 -0.43112737 0.48853233 0.31758866 -0.15705763 0.04303296 -0.25303185 0.29514948 -0.71131516 0.30674314 0.38081294 0.5879613 0.3144544
C-terminal -0.13760002 -0.0042949435 -0.33449984 0.039582144 -0.27801427 0.06889767 0.14203367 -0.3766529 -0.4528946 0.567244 0.3276776 -0.11424393 0.03385261 -0.2559357 0.28833458 -0.74210334 0.29561877 0.4301049 0.589282 0.29490772
actin-based -0.106617905 0.023525065 -0.33592474 0.044940315 -0.3139624 0.09210353 0.1314827 -0.3803778 -0.4326427 0.52070075 0.35424814 -0.09909454 0.019135518 -0.25228915 0.30057976 -0.7620018 0.29527214 0.4007557 0.5651989 0.29872787
consistent -0.1001368 0.009897537 -0.3851118 0.084192865 -0.2754925 0.09188915 0.15966292 -0.38041103 -0.43696645 0.5943315 0.37009752 -0.12514171 0.03148875 -0.26854435 0.34222603 -0.7656121 0.3334983 0.40774393 0.6294203 0.2965565
plasma -0.1076309 0.019296512 -0.3519625 0.08416343 -0.32479683 0.10909125 0.1456165 -0.3750556 -0.4333092 0.48101133 0.31677568 -0.16857253 0.0064538186 -0.207401 0.34628373 -0.7102256 0.32533 0.42822218 0.61836314 0.2608311
response -0.13408804 -0.0055373437 -0.3673999 0.0723306 -0.30059084 0.095311135 0.17073965 -0.37624916 -0.40674385 0.53874123 0.34861487 -0.12206575 0.03435208 -0.24624155 0.30084604 -0.75600564 0.29467294 0.40239123 0.58751106 0.29317793
distinct -0.13743821 0.0025589415 -0.37002754 0.049815528 -0.2985886 0.07116179 0.123164415 -0.354119 -0.4179262 0.57947963 0.3249404 -0.12490192 0.110719696 -0.28462982 0.29459012 -0.8297566 0.32699192 0.44500864 0.61396235 0.32971182
stimulation -0.093963265 -0.0053388025 -0.34715316 0.030955363 -0.29662132 0.07355421 0.14364497 -0.37891397 -0.40004238 0.54632676 0.31515655 -0.1218369 0.049409926 -0.28008947 0.29050896 -0.78165203 0.32487062 0.4417339 0.5543634 0.30046383
fibers -0.13446265 0.022210386 -0.37589005 0.029849006 -0.3270582 0.07572934 0.15305111 -0.4154224 -0.4622171 0.55613106 0.3657123 -0.12206017 0.04438401 -0.28062636 0.31428063 -0.78351706 0.3490688 0.41017857 0.57498205 0.2938182
loss -0.10973496 0.051374476 -0.335382 0.051650546 -0.31954274 0.129582 0.14586586 -0.4259385 -0.4803825 0.61975604 0.34617427 -0.1303659 0.026096433 -0.21022025 0.37107837 -0.77727187 0.30909368 0.41063803 0.6223991 0.28472874
cortical -0.09075222 -0.021093044 -0.37256244 0.04337113 -0.27426007 0.070586346 0.13908702 -0.3599874 -0.4018258 0.49717268 0.34673738 -0.1265211 0.08360545 -0.29439694 0.29319155 -0.72138834 0.31964093 0.36797118 0.55265146 0.2924261
same -0.12808496 0.041717455 -0.35106122 0.06815353 -0.2745517 0.06676226 0.13498831 -0.37771726 -0.47474968 0.5553811 0.36293557 -0.14888112 0.004715994 -0.26513332 0.3125142 -0.75838363 0.29737666 0.42199993 0.6164194 0.3196485
detected -0.16562626 0.012336117 -0.36742476 0.054229487 -0.32424554 0.11990548 0.19685958 -0.4005456 -0.431834 0.5175705 0.37079316 -0.15565081 -0.004447619 -0.25791252 0.3484733 -0.78912383 0.3879051 0.48643112 0.5841132 0.29356086
structure -0.13310179 0.023292905 -0.31961355 0.053000737 -0.28442484 0.08078618 0.14946891 -0.3782896 -0.42663518 0.5084084 0.31382897 -0.15794872 0.033213504 -0.27560622 0.2812134 -0.7697922 0.31879532 0.39495468 0.5531306 0.31527284
proposed -0.112610824 0.032668136 -0.34920445 0.07205077 -0.31621838 0.07615444 0.16795227 -0.3922459 -0.47507823 0.5769208 0.35423622 -0.16103883 0.06082205 -0.2588517 0.337938 -0.8096534 0.3694571 0.45856038 0.6114968 0.33207068
syntaxin -0.10072082 0.00088256056 -0.38165164 0.043413308 -0.28024054 0.071648225 0.14713296 -0.36872956 -0.452919 0.6040329 0.33654815 -0.13963644 0.078782305 -0.29932025 0.3125255 -0.83460534 0.34753466 0.45340627 0.60160863 0.3827331
increases -0.14670216 0.009361563 -0.3591886 0.070371054 -0.29359984 0.07580865 0.16334864 -0.383713 -0.41746542 0.51245546 0.33625916 -0.14503978 0.06588025 -0.2962281 0.32533225 -0.783785 0.3486601 0.43476334 0.5753328 0.31547314
antigen -0.11440304 0.0046655224 -0.3322646 0.06360579 -0.2473626 0.08902982 0.12682775 -0.33044732 -0.4107136 0.5629906 0.32887495 -0.14584379 0.053551648 -0.257741 0.27757636 -0.756723 0.30254272 0.39045823 0.5468484 0.34590766
free -0.12451388 -0.0057565696 -0.33087128 0.044890173 -0.28811583 0.0933989 0.1593723 -0.36692667 -0.37358066 0.51657695 0.33114845 -0.14155814 0.05358221 -0.27432573 0.26846325 -0.7387843 0.28467676 0.3990923 0.54911 0.27482775
Arp2/3 -0.09232269 0.004868652 -0.31074166 0.048054893 -0.271643 0.041316863 0.1562216 -0.33551335 -0.3818434 0.5167625 0.33710122 -0.1236422 0.04554347 -0.27748668 0.30591452 -0.7105638 0.3049248 0.4062774 0.54295206 0.283406
thymosin -0.14954354 -0.023360321 -0.3550318 0.0731996 -0.3144677 0.14385952 0.2153478 -0.40582603 -0.43658316 0.46411505 0.32879013 -0.16664095 -0.021759816 -0.24855533 0.37445256 -0.7824685 0.34802762 0.47193405 0.63957393 0.26701424
T -0.1023867 -0.011317629 -0.3168621 0.047774594 -0.28609136 0.119566016 0.149436 -0.35847914 -0.40459386 0.49256068 0.35789743 -0.14898714 -0.005434351 -0.23449114 0.3295478 -0.7432636 0.32858744 0.41973606 0.5629579 0.30981383
low -0.13394201 0.004649215 -0.35250452 0.05268901 -0.26658076 0.06488441 0.16203083 -0.35618284 -0.39751494 0.51065254 0.3437459 -0.1535037 0.045416187 -0.24924214 0.30883467 -0.73908806 0.35284218 0.43745744 0.5694893 0.28860444
two-hybrid -0.114265494 -0.0029171414 -0.34613046 0.02095533 -0.29782304 0.061086196 0.13759992 -0.34179038 -0.4294102 0.5398306 0.33839467 -0.15004691 0.08961119 -0.26026306 0.29779103 -0.75775605 0.272033 0.40994808 0.53774804 0.33030242
functional -0.09230303 -0.023714488 -0.36335003 0.049285494 -0.27398476 0.045736093 0.13018864 -0.36430347 -0.38406682 0.55449325 0.33382708 -0.16039407 0.10964919 -0.2584573 0.29768527 -0.784817 0.33639595 0.43639925 0.59015375 0.35138047
homology -0.12211837 0.010949509 -0.3595305 0.0786531 -0.26387116 0.058557887 0.13292925 -0.38258305 -0.434877 0.5456483 0.34324402 -0.14017408 0.09952779 -0.27365294 0.31389716 -0.74564976 0.3175807 0.43229416 0.55354613 0.3284413
barbed -0.08882617 -0.012439167 -0.3350211 0.063736945 -0.29550728 0.083172396 0.1583178 -0.34207305 -0.41540313 0.50858814 0.29927278 -0.15170039 0.05274463 -0.29049715 0.3296867 -0.751724 0.2959156 0.38963848 0.54915106 0.27620706
contains -0.14246695 -0.03376077 -0.36172402 0.03994471 -0.32337108 0.09541385 0.16613075 -0.3650665 -0.33379662 0.4840742 0.33833948 -0.16428249 0.088079624 -0.2857444 0.32340854 -0.8211938 0.3784141 0.49400523 0.55068547 0.28092116
characterized -0.08832391 -0.020240707 -0.32180536 0.049652312 -0.3077109 0.055221878 0.17291653 -0.3451126 -0.394143 0.4542147 0.28687567 -0.13502504 0.04331466 -0.25090638 0.29101667 -0.72502553 0.3189167 0.39531082 0.5279944 0.31108817
cell-cell -0.12874274 0.010549665 -0.3617944 0.047734383 -0.24476936 0.050967894 0.14522178 -0.33139205 -0.40895408 0.57205623 0.3103629 -0.13640715 0.07805832 -0.25412878 0.3079283 -0.7415917 0.32187268 0.3910013 0.57340354 0.3186141
RIP -0.1135069 0.003019246 -0.34582126 0.089769594 -0.27892345 0.08659342 0.1569596 -0.39622632 -0.4109309 0.53621644 0.34197363 -0.14800557 0.044544853 -0.21277241 0.32137614 -0.77277577 0.34530845 0.42199373 0.5757276 0.2998058
together -0.10897641 0.033058356 -0.32066017 0.08687889 -0.28536412 0.11194484 0.15354183 -0.40382475 -0.43657404 0.4948806 0.32927948 -0.12772998 0.010845887 -0.23087786 0.3152266 -0.73500866 0.35287744 0.42131367 0.6073432 0.29427654
death -0.14731522 -0.0034075463 -0.34641933 0.06475131 -0.30310184 0.095718965 0.18747514 -0.4017018 -0.39976695 0.5282189 0.31997955 -0.14356469 0.085368365 -0.27498665 0.32488954 -0.80233705 0.33999887 0.4572081 0.59593785 0.303812
demonstrate -0.08145074 -0.0016133692 -0.37725288 0.07054483 -0.2538399 0.0068666837 0.10102339 -0.33508074 -0.38762754 0.5549967 0.29887867 -0.15754186 0.06674901 -0.25598073 0.28870478 -0.77370775 0.31441388 0.38093022 0.5631037 0.34408954
several -0.13921191 -0.0230187 -0.36644933 0.06442178 -0.32456744 0.11350944 0.17824386 -0.39246643 -0.44315052 0.5372363 0.34071803 -0.16067223 0.06614092 -0.27157173 0.36197352 -0.7754659 0.3679926 0.45052108 0.59679323 0.3529878
rates -0.10775609 -0.007561402 -0.34955925 0.062137663 -0.28258964 0.09078606 0.15149222 -0.33183768 -0.34569472 0.48245832 0.29931578 -0.14949894 0.06680447 -0.29205385 0.28838092 -0.7510871 0.3316341 0.44086656 0.52162474 0.2786771
investigated -0.09048504 -0.026416007 -0.3222246 0.05992426 -0.28413504 0.10232402 0.1579647 -0.3871519 -0.41412827 0.49571165 0.3071379 -0.14574504 0.03639214 -0.238893 0.29300568 -0.7357461 0.31788725 0.4315248 0.5685803 0.27012217
ATP -0.104393646 -0.0334393 -0.33876225 0.061664537 -0.32231447 0.0710969 0.16278523 -0.37002987 -0.3736624 0.48847568 0.32332754 -0.14311756 0.08157354 -0.27276114 0.28609288 -0.73774296 0.31117624 0.43345264 0.5255217 0.30115402
S. -0.1216357 -0.0012904175 -0.3384763 0.060964264 -0.3054288 0.10814307 0.15393975 -0.37296346 -0.3855281 0.53263164 0.32261604 -0.15891477 0.059255376 -0.24615654 0.2793012 -0.777092 0.30222493 0.44356945 0.54051363 0.3323204
accumulation -0.11215989 0.029487338 -0.33677572 0.05978707 -0.295277 0.1061488 0.18971376 -0.42488518 -0.43227962 0.49303412 0.35956162 -0.14420791 0.023414664 -0.21488526 0.34095705 -0.72426605 0.3287853 0.4246958 0.59468466 0.2761901
pattern -0.12679452 0.0043336605 -0.33710542 0.06408041 -0.35202935 0.14085989 0.18227527 -0.41957185 -0.39653423 0.5090005 0.3586496 -0.19965921 0.018208481 -0.25097227 0.31956977 -0.7690644 0.3773853 0.458465 0.5936417 0.28335
inhibits -0.11982592 -0.008238369 -0.33045897 0.07560814 -0.30535144 0.075317174 0.1622702 -0.37482017 -0.4100999 0.533536 0.3313824 -0.14335531 0.009734137 -0.26279348 0.3327446 -0.73237526 0.3180959 0.4286325 0.55575645 0.288758
could -0.122663304 0.009060701 -0.36494824 0.06782318 -0.3199879 0.07803549 0.15299214 -0.39927906 -0.43605062 0.58007634 0.32626164 -0.15806267 0.07251447 -0.30325246 0.33462146 -0.8003013 0.34084326 0.4301871 0.5816711 0.3462693
tumor -0.12479921 0.030047167 -0.33813664 0.07182499 -0.25664046 0.07617268 0.12983753 -0.3300638 -0.38953638 0.5098348 0.31521383 -0.12236359 0.054374024 -0.23805945 0.27975395 -0.712955 0.32380486 0.38410988 0.5201639 0.31012124
properties -0.09727261 -0.02330194 -0.36202997 0.07120019 -0.3168132 0.11434686 0.1383987 -0.3938201 -0.427896 0.5378031 0.3299746 -0.14685786 0.025218714 -0.22280684 0.31718004 -0.7429023 0.34102523 0.4005765 0.5630076 0.2844727
strongly -0.10632084 -0.04037926 -0.355388 0.053278245 -0.29710102 0.07245447 0.13152243 -0.34029874 -0.3342158 0.42935112 0.31551817 -0.1532512 0.11262599 -0.26821408 0.2732903 -0.7492677 0.31721222 0.4145735 0.50825614 0.30844155
via -0.10600313 0.012303698 -0.34869444 0.06372516 -0.30882865 0.09694517 0.15437524 -0.38906828 -0.44703734 0.57051235 0.3264393 -0.15927286 0.046712197 -0.23088753 0.33706805 -0.7693698 0.30350852 0.40327522 0.63754815 0.32677734
interacts -0.09233689 0.041914985 -0.339218 0.050949994 -0.25088757 0.054038156 0.13904394 -0.38780737 -0.43238613 0.55985355 0.33011925 -0.12316471 0.0127508715 -0.23284125 0.31383976 -0.73911 0.2866727 0.388277 0.56477696 0.2975921
core -0.12281861 0.0023990695 -0.35076088 0.030980228 -0.2712536 0.08561633 0.15149307 -0.35604572 -0.3496513 0.46798804 0.29814547 -0.10244446 0.045996893 -0.24254552 0.27776295 -0.6885139 0.29122758 0.3695773 0.53109765 0.30217963
mouse -0.13221586 -0.048460204 -0.36809835 0.06359327 -0.31894735 0.10533799 0.16018175 -0.35722208 -0.41590562 0.49706012 0.3107513 -0.17349432 0.0622308 -0.2589993 0.3311748 -0.81141865 0.3564155 0.4395495 0.57015496 0.33598518
does -0.13646607 0.026597027 -0.37418905 0.049223345 -0.2590328 0.1002751 0.18364733 -0.39835593 -0.44203502 0.5909707 0.3842018 -0.14264742 0.06969077 -0.26560754 0.35653073 -0.78698164 0.3327052 0.44441813 0.62953955 0.32605565
cycle -0.10460827 -0.0067449347 -0.35188177 0.068173446 -0.31901005 0.06634468 0.14283946 -0.36129448 -0.43811098 0.51271445 0.34853834 -0.12478465 0.05752782 -0.25733027 0.32285336 -0.74579597 0.33553818 0.40489492 0.54628086 0.33380538
CREB -0.12364855 0.022996614 -0.37098217 0.044515498 -0.28972024 0.055880956 0.16637722 -0.40819356 -0.43369496 0.5666051 0.3583037 -0.1285415 0.060517233 -0.29257074 0.3049799 -0.7785378 0.2993359 0.45143026 0.57467777 0.3431574
epithelial -0.09301075 -0.013077292 -0.34002075 0.054236002 -0.2918899 0.11211905 0.15261245 -0.3750939 -0.39479235 0.55512255 0.34628418 -0.1404106 0.042162932 -0.2619238 0.31450903 -0.7032885 0.3111666 0.42105806 0.5893003 0.31509605
N-cadherin -0.07575171 0.087056145 -0.23782554 0.09116497 -0.28262895 0.16957031 0.19444251 -0.4154635 -0.54607344 0.52985686 0.3441493 -0.15209077 -0.10366981 -0.13774644 0.36800042 -0.6522774 0.32702708 0.4166177 0.662228 0.23637797
microscopy -0.104087114 -0.0317164 -0.36031938 0.04886474 -0.2985826 0.102951325 0.14925168 -0.33498698 -0.38746542 0.5113796 0.32877845 -0.12353464 0.09136708 -0.26460132 0.27659374 -0.73503584 0.28836882 0.3791593 0.5228219 0.32362238
following -0.09806683 -0.04448743 -0.39482978 0.040777568 -0.30264935 0.10710262 0.16969885 -0.3745705 -0.42388022 0.54619265 0.33012238 -0.12703007 0.06146668 -0.29695067 0.30405366 -0.8160484 0.3529942 0.4338422 0.586941 0.33284593
Although -0.10306652 -0.026104623 -0.27202561 0.036554124 -0.23410694 0.05119972 0.090766236 -0.28309786 -0.32470807 0.416311 0.28226587 -0.10241435 0.07252172 -0.22617602 0.22129318 -0.6336989 0.24890296 0.3252869 0.44443825 0.24222013
small -0.11899025 -0.0037409936 -0.32500517 0.08140403 -0.26397333 0.08768217 0.12849635 -0.33656183 -0.37727496 0.4637799 0.30347696 -0.115022235 0.077789485 -0.27128288 0.28645948 -0.7049065 0.32061467 0.37968746 0.53195703 0.28507325
development -0.1525101 -0.013532129 -0.33233517 0.039922692 -0.31897113 0.10384899 0.15105096 -0.32862052 -0.3346336 0.4282103 0.2925976 -0.15612762 0.07847771 -0.26912045 0.31561953 -0.7202595 0.3204628 0.4294732 0.5100979 0.26075122
subunits -0.1170441 0.024008833 -0.32894942 0.037480008 -0.32218903 0.1195516 0.14769758 -0.38416082 -0.40440014 0.5116321 0.34265932 -0.13487865 0.022291431 -0.27055117 0.3060264 -0.77214086 0.3321975 0.46330714 0.58748585 0.29338816
level -0.12823458 0.005803548 -0.28579873 0.04830934 -0.25624245 0.07205211 0.16904622 -0.33321023 -0.40875584 0.46134397 0.2903763 -0.15851231 0.043650415 -0.22798094 0.275199 -0.6543571 0.28481114 0.39884046 0.53042 0.25301665
seen -0.14393258 0.015369129 -0.32789725 0.044745453 -0.29467973 0.12336211 0.167387 -0.3981439 -0.44208115 0.51426136 0.33956164 -0.12258846 0.057491273 -0.24584447 0.33734834 -0.75083715 0.3155461 0.4563688 0.55959624 0.31393522
manner -0.119274795 -0.007001933 -0.3159125 0.054249875 -0.28198296 0.0793083 0.13267632 -0.3703557 -0.37658215 0.47939283 0.32224935 -0.12133734 0.041294612 -0.24891897 0.27646255 -0.6922544 0.33162457 0.41984814 0.5262573 0.30494446
conditions -0.09361774 -0.06362712 -0.3079301 0.015545412 -0.22372699 0.06300463 0.08972957 -0.27620605 -0.32673404 0.46686283 0.2738946 -0.11825219 0.12734333 -0.2313396 0.2261961 -0.6853331 0.2721296 0.37911308 0.48234063 0.2769747
experiments -0.10981182 -0.0073724412 -0.37739944 0.0667885 -0.29496187 0.04535596 0.12944381 -0.33474264 -0.37534073 0.5490121 0.33491862 -0.16832921 0.1279965 -0.26748097 0.3118566 -0.7866167 0.35625967 0.41147846 0.551011 0.33240443
phenotype -0.14284915 -0.04661597 -0.35150638 0.050935704 -0.3005379 0.07450657 0.17084923 -0.31436893 -0.3741442 0.4909615 0.28971034 -0.15438528 0.05870944 -0.2708055 0.26888523 -0.73136675 0.29752105 0.43355137 0.540829 0.3096653
against -0.12160634 0.025777793 -0.31711844 0.06984734 -0.30942515 0.089390166 0.13342081 -0.3949639 -0.4426381 0.54063326 0.32769194 -0.15286894 0.032929093 -0.25818574 0.348741 -0.7271474 0.3337114 0.42955548 0.56862634 0.30803707
regulator -0.11737396 0.0023661451 -0.3666704 0.058132086 -0.31126347 0.056361575 0.15314291 -0.356186 -0.44507167 0.49380797 0.304768 -0.13539748 0.02331113 -0.2717525 0.3214355 -0.73128444 0.30383968 0.38817433 0.5819653 0.2799488
number -0.10012119 -0.03960796 -0.32391247 0.045938656 -0.2812711 0.08258591 0.14434218 -0.3645623 -0.35917306 0.47885555 0.29630262 -0.1100009 0.037528213 -0.24774268 0.2726636 -0.70167 0.29979002 0.4005815 0.5481945 0.2950361
decreased -0.08967674 -0.015713142 -0.3635306 0.05456476 -0.30163085 0.08754314 0.15326747 -0.37861428 -0.39204684 0.53790385 0.34824908 -0.13576747 0.0299505 -0.21419474 0.34003118 -0.7617204 0.33573583 0.41005817 0.5484379 0.27086696
deaminase -0.093655355 0.008554083 -0.3339583 0.07736259 -0.28741708 0.07760858 0.14109966 -0.37110394 -0.38015562 0.50958467 0.31442985 -0.13012382 0.06640331 -0.25561437 0.3139302 -0.74628556 0.3416848 0.431581 0.5765961 0.33833888
matrix -0.12824719 0.027541354 -0.32574508 0.07248308 -0.277352 0.13033532 0.18608847 -0.39246127 -0.4354352 0.45700482 0.30740726 -0.18020289 -0.0033138513 -0.18274531 0.366445 -0.70728326 0.36359784 0.45301327 0.59330136 0.290664
microfilaments -0.1352431 0.01256843 -0.36140132 0.08776399 -0.3296433 0.10577776 0.1601932 -0.39617258 -0.43225947 0.5377545 0.35769668 -0.17197219 0.039919574 -0.26940757 0.30123118 -0.7557264 0.3113153 0.4137482 0.5853982 0.2808013
