5200 50
, -0.09744158 0.15534927 -0.1581655 0.13367258 -0.28872433 0.2700176 0.22545858 -0.42891586 -0.45811176 0.36778614 0.27523106 -0.19626659 -0.19883418 0.04908842 0.40871432 -0.40928647 0.32217512 0.3640314 0.5751633 0.15465431 -0.28429765 -0.101613484 0.34343526 -0.18641236 -0.4573474 -0.25802994 0.12594746 0.3126531 0.32073402 0.105664365 0.38612434 0.50841326 -0.55754584 0.026378527 -0.06800671 0.23543131 -0.26694795 -0.48645747 -0.03337556 0.6152034 0.3891746 0.18610653 0.20060651 -0.20398414 -0.15414697 -0.084393054 0.32076296 -0.41340324 -0.23632373 0.05576078
of -0.082478605 0.015079076 -0.26725966 0.09071119 -0.3045917 0.14521845 0.18593387 -0.33258697 -0.3693258 0.29199156 0.2915306 -0.11837108 -0.06631932 -0.13258204 0.2867452 -0.48249376 0.24127944 0.29188764 0.46679196 0.15271376 -0.24325956 -0.05921982 0.31019276 -0.08396279 -0.333423 -0.21190588 -0.07436162 0.31459165 0.21496187 0.13030776 0.39864683 0.514316 -0.33055463 -0.020752024 -0.14468767 0.05896765 -0.20799005 -0.34253216 0.16142343 0.7562377 0.34327784 0.20801434 0.21910943 -0.2555915 -0.027525295 -0.055679064 0.26197165 -0.22222434 -0.08932819 0.0068123695
the -0.08631984 0.101821996 -0.23868667 0.12549509 -0.28097948 0.08596904 0.18491077 -0.34371462 -0.47136822 0.39226943 0.29990694 -0.08023383 -0.10518703 -0.14901602 0.2796493 -0.486358 0.20294142 0.25132126 0.48533484 0.17883188 -0.26730603 -0.04878707 0.36308384 -0.040946525 -0.3677829 -0.15499204 -0.11972771 0.25999075 0.17350996 0.09058192 0.38227707 0.5162193 -0.30079776 -0.009677925 -0.19226086 0.114363104 -0.2439564 -0.31253108 0.19548748 0.7108769 0.3274187 0.23480675 0.24302529 -0.2154512 -0.022343976 -0.12911545 0.2750324 -0.23925848 -0.1021966 0.0008351727
and -0.11493395 0.08938489 -0.19132602 0.15544671 -0.35678113 0.2927469 0.25065896 -0.40796238 -0.41907075 0.23322767 0.28365585 -0.2009243 -0.18239693 -0.030695552 0.40514785 -0.4572475 0.34513575 0.40796822 0.50470805 0.13124342 -0.22777802 -0.06768235 0.32356748 -0.1862058 -0.4132587 -0.2547222 0.05906272 0.42053345 0.3167876 0.086405836 0.39201087 0.5211305 -0.5213112 -0.017718818 -0.10240191 0.17456937 -0.18350859 -0.46518752 -0.061573796 0.73136973 0.41789195 0.18214059 0.16976547 -0.26198497 -0.13153288 -0.020295419 0.2785082 -0.41465798 -0.19564226 0.057927538
. -0.08171649 0.054650854 -0.23176508 0.09114225 -0.27088544 0.14249954 0.16813742 -0.33325645 -0.36101925 0.31721687 0.24481556 -0.15061896 -0.040913485 -0.11981313 0.2839806 -0.4755031 0.23894863 0.29780126 0.4447144 0.17110956 -0.26910096 -0.082427494 0.3029131 -0.057524443 -0.3194325 -0.21161957 -0.04144884 0.320195 0.18039194 0.12665701 0.41239005 0.495068 -0.35676736 -0.03378454 -0.15681124 0.11571469 -0.2251666 -0.32267952 0.103514366 0.6874316 0.31832764 0.2411603 0.21006542 -0.24080195 -0.06256207 -0.11680136 0.24585406 -0.20020376 -0.07212046 0.022621438
in -0.09922634 0.053486373 -0.2597571 0.089360416 -0.3081179 0.11818147 0.16966036 -0.3168984 -0.3811573 0.32115936 0.28220952 -0.1386208 -0.07332855 -0.15352274 0.2699531 -0.50309885 0.20231047 0.27249986 0.44512782 0.19768019 -0.24463844 -0.035696186 0.32148367 -0.08156671 -0.35158387 -0.21505241 -0.084608555 0.26255265 0.1927598 0.08676219 0.39463997 0.50144035 -0.3055068 -0.03970907 -0.16003756 0.05570949 -0.22203547 -0.32824033 0.13848837 0.7561293 0.3452857 0.25841197 0.23578991 -0.2589836 -0.012184847 -0.088976964 0.2699089 -0.22848001 -0.104857 -0.00044992578
actin -0.15747745 -0.040864266 -0.27588177 0.105822705 -0.467434 0.22930673 0.27508804 -0.37541527 -0.24407804 0.09457032 0.30157983 -0.22633669 -0.102526516 -0.17655465 0.29283854 -0.5518052 0.30527106 0.4141116 0.37424293 0.11108027 -0.13810088 -0.02062525 0.22285457 -0.15851296 -0.34006855 -0.24063614 -0.0067656403 0.44395003 0.27164268 0.104878224 0.3835383 0.52945197 -0.35965115 -0.0788202 -0.13067701 -0.004339427 -0.094239675 -0.45370576 0.021529805 0.8998145 0.40839374 0.22336285 0.102966934 -0.31550252 -0.02030656 0.07674506 0.23719591 -0.24444991 -0.08584076 0.0012771385
to -0.0740677 0.0797426 -0.21546425 0.0915329 -0.20500477 0.038562622 0.116323285 -0.31768793 -0.43949917 0.40967026 0.2888877 -0.1136451 -0.045147933 -0.16755275 0.293548 -0.49221706 0.18983437 0.25195274 0.48772186 0.19299182 -0.3037656 -0.09602209 0.3701691 -0.025430763 -0.37571216 -0.19338466 -0.08543786 0.22887926 0.18140133 0.07676007 0.40026364 0.51792586 -0.29804453 -0.04631975 -0.124651924 0.11636578 -0.23734574 -0.3155856 0.18795633 0.69493353 0.30800867 0.26274222 0.2779072 -0.23638295 -0.004324924 -0.15894017 0.27011046 -0.17604315 -0.10566667 0.032832634
) -0.094981566 0.009664585 -0.20301774 0.15382098 -0.22584814 0.3685873 0.22788234 -0.34389585 -0.3412543 0.13630575 0.19666915 -0.23848312 -0.1525191 0.08124026 0.4331293 -0.45429003 0.41682112 0.5038547 0.49337858 0.11566255 -0.30689418 -0.11400084 0.2939348 -0.12105591 -0.35996926 -0.27057147 0.19640209 0.5114351 0.3640006 0.21587668 0.46893153 0.5368414 -0.72176594 0.027747946 -0.20367987 0.28272414 -0.22302277 -0.38846192 -0.15978171 0.6296597 0.3246621 0.1911199 0.059854273 -0.25307018 -0.21408372 -0.12094859 0.2831681 -0.32005355 -0.13975194 -0.049073488
( -0.08667664 0.009792037 -0.17828058 0.1711622 -0.24905224 0.33457354 0.23023553 -0.39901707 -0.34599766 0.17897648 0.1930886 -0.18632041 -0.12115034 0.09692403 0.44746977 -0.45090124 0.38186252 0.5222014 0.5080498 0.10284372 -0.30024824 -0.13919705 0.32839757 -0.1258157 -0.36816353 -0.2846822 0.19403718 0.48292467 0.36050022 0.2344511 0.51658964 0.52469563 -0.6967679 0.04803363 -0.20437466 0.26488924 -0.29406628 -0.4269094 -0.11706692 0.61656326 0.35844845 0.16637287 0.11767445 -0.24414913 -0.22379722 -0.13851693 0.26778674 -0.31228536 -0.15814555 -0.03435458
a -0.046221662 0.030956442 -0.2161744 0.08358308 -0.22221087 0.04705188 0.12372277 -0.29891473 -0.37600434 0.43089437 0.24285077 -0.10339914 -0.0341863 -0.14850537 0.25679803 -0.48579398 0.2020098 0.264944 0.45828798 0.21187806 -0.3085338 -0.09270677 0.33431157 -0.039630935 -0.33422467 -0.2007111 -0.07570568 0.24031264 0.122603565 0.11462201 0.40891588 0.49805164 -0.29967898 -0.001656985 -0.16356915 0.11289834 -0.2563203 -0.2944604 0.21252452 0.6380625 0.3006073 0.26215988 0.2608509 -0.2205966 -0.04151913 -0.17365378 0.27220115 -0.16413109 -0.07096991 -0.007181681
with -0.058828454 0.101456925 -0.2187588 0.08427048 -0.2406433 0.12149253 0.13765688 -0.3537743 -0.4394203 0.4387059 0.31145328 -0.10821813 -0.08005861 -0.11757806 0.31435198 -0.4716878 0.2114307 0.2663417 0.50366205 0.17371656 -0.28740838 -0.07878211 0.35839742 -0.09754376 -0.39216602 -0.21672581 -0.06279973 0.2362409 0.2107387 0.106730245 0.37713867 0.51754636 -0.32262307 -0.032962456 -0.1049719 0.11851635 -0.22370897 -0.37463188 0.1437626 0.67977643 0.35625327 0.24506362 0.2643093 -0.21210654 -0.057284497 -0.15218125 0.2674343 -0.25596222 -0.14359981 0.038188692
that -0.04165699 0.08430624 -0.26089233 0.07566244 -0.21500814 -0.02585179 0.0962961 -0.25709888 -0.43668634 0.48209065 0.26608777 -0.066719115 -0.011893393 -0.20245276 0.22156635 -0.51962495 0.15777661 0.216608 0.48116136 0.25581208 -0.3043803 -0.08787052 0.37235543 0.018443733 -0.3236431 -0.15985359 -0.11104877 0.15279426 0.10321496 0.09974872 0.40417382 0.5408172 -0.26601887 -0.041888714 -0.20555526 0.1096675 -0.28394836 -0.23383315 0.29527467 0.6529583 0.29568976 0.27977964 0.30728215 -0.22007473 0.0071586077 -0.16762197 0.30322567 -0.11270861 -0.10172614 -0.021542817
profilin -0.092073165 0.07771237 -0.26415583 0.10845576 -0.26263016 0.054630537 0.1820726 -0.32999468 -0.44389373 0.3797144 0.2653619 -0.13568139 -0.084846064 -0.18869953 0.25583985 -0.49795714 0.2074426 0.259725 0.47613403 0.20172264 -0.242246 -0.044400204 0.34286734 -0.040153746 -0.36754385 -0.15743203 -0.13668504 0.2234642 0.17480884 0.09179122 0.33865145 0.509915 -0.28823835 -0.06273919 -0.14578474 0.09001585 -0.22231598 -0.29493612 0.21122909 0.7057583 0.32492116 0.24646766 0.24893424 -0.24201031 0.015274028 -0.09333154 0.2627363 -0.17584239 -0.08922554 0.010060648
for -0.10720209 0.04911091 -0.2427669 0.11008537 -0.2601487 0.13495143 0.15350196 -0.32270637 -0.36908886 0.33586502 0.24975988 -0.12693 -0.039539278 -0.13729157 0.28054944 -0.5094679 0.24377055 0.32286784 0.47370976 0.1931709 -0.27645114 -0.08860206 0.32237914 -0.07791319 -0.3277881 -0.2105771 -0.040259503 0.27119315 0.19017485 0.100601725 0.42808372 0.5242498 -0.36016202 -0.04984489 -0.18738112 0.07609915 -0.22524124 -0.3159891 0.15986529 0.69109815 0.34645528 0.24028373 0.24650301 -0.26098064 -0.03708973 -0.10109741 0.29768577 -0.20270522 -0.10834335 -0.012091078
is -0.08220227 0.10337155 -0.22653994 0.09257008 -0.20662674 0.06265029 0.13011539 -0.29765058 -0.44820243 0.43411162 0.28414506 -0.10327018 -0.0638972 -0.15796123 0.28365356 -0.47019687 0.19219522 0.23107307 0.49809387 0.2064371 -0.287715 -0.09512987 0.37000334 -0.04207562 -0.35866657 -0.17033078 -0.072476916 0.18182668 0.17617981 0.07769194 0.3861573 0.52117825 -0.30129328 -0.034581605 -0.15985027 0.129419 -0.25202316 -0.30498073 0.20714898 0.67173815 0.31516957 0.24293123 0.2963713 -0.23181361 -0.035787214 -0.17033893 0.29680315 -0.21023312 -0.10408749 -0.0048046573
by -0.06448884 0.031020988 -0.27147177 0.0908518 -0.24519987 0.05840825 0.12340043 -0.28152207 -0.38527167 0.37842074 0.26507887 -0.1127885 -0.027244093 -0.17120811 0.26943728 -0.50221366 0.21288936 0.25327334 0.44242805 0.19089599 -0.29481426 -0.0824008 0.31927985 -0.022623617 -0.3281575 -0.2193452 -0.10193206 0.25253725 0.12719359 0.11498081 0.41280192 0.49554837 -0.27874416 -0.03606187 -0.17086187 0.059813824 -0.22514555 -0.2717057 0.19571738 0.7045617 0.30782995 0.27041453 0.24505933 -0.24341871 -0.0326763 -0.1343286 0.25747398 -0.14670591 -0.058640912 -0.017308295
protein -0.11436981 0.051149044 -0.21917759 0.12477339 -0.25402707 0.19751257 0.22826906 -0.35559657 -0.4459367 0.28818223 0.24857174 -0.17905472 -0.10886426 -0.040575895 0.3246541 -0.47229242 0.2672573 0.37211865 0.48813623 0.14998089 -0.26267725 -0.066670604 0.35614964 -0.07831983 -0.3963707 -0.17834519 -0.006296332 0.33863285 0.27018064 0.17995715 0.38215584 0.53475434 -0.50099635 0.008084474 -0.18574706 0.20357624 -0.26168332 -0.3235049 0.064387575 0.6486274 0.32123563 0.22317655 0.1671815 -0.21313182 -0.10109593 -0.13461359 0.25947097 -0.27440184 -0.10504276 -0.06304736
The -0.06808347 -0.0047287396 -0.23773761 0.0715066 -0.26911816 0.09221853 0.13661967 -0.28543594 -0.2798787 0.32917178 0.21230708 -0.118548386 0.03154659 -0.16105653 0.21909657 -0.5160069 0.23489477 0.32255676 0.39141035 0.19857834 -0.24461682 -0.079031646 0.27047637 -0.08207086 -0.25227973 -0.22838685 -0.033275243 0.3040952 0.10615867 0.098093994 0.44884285 0.48438194 -0.32834107 -0.03243453 -0.20266275 0.041557178 -0.2024288 -0.29517695 0.18077825 0.68720925 0.3107654 0.2652533 0.22816387 -0.24073923 -0.036371283 -0.11490575 0.2692153 -0.12559345 -0.05803824 0.004890842
proteins -0.10524407 0.11860685 -0.21244323 0.120692894 -0.27633935 0.16186135 0.20900032 -0.3586077 -0.4737799 0.39187887 0.27819046 -0.16514121 -0.113709204 -0.09228217 0.3403115 -0.46870738 0.24086624 0.31014627 0.5133656 0.19553901 -0.26426068 -0.0645901 0.34711057 -0.105860114 -0.41366047 -0.19361664 -0.017373905 0.2886793 0.2450099 0.08881638 0.3640185 0.52160454 -0.43003756 -0.014677337 -0.12297598 0.1381559 -0.27489263 -0.38854542 0.08879045 0.67673194 0.34510285 0.2421959 0.22560523 -0.21339594 -0.093253314 -0.13663165 0.30026805 -0.33045238 -0.13780285 0.046419222
was -0.073582456 0.07211319 -0.23093753 0.090774715 -0.2543921 0.11829642 0.15946725 -0.33063573 -0.38518712 0.3902757 0.26887003 -0.118811004 -0.055757765 -0.12522827 0.29832286 -0.48995456 0.240248 0.28656623 0.4555468 0.18119794 -0.29160902 -0.09499024 0.31365222 -0.079000264 -0.3078715 -0.21737777 -0.01415093 0.2640445 0.16543528 0.078985326 0.42858252 0.48499686 -0.32719797 -0.017942114 -0.13748175 0.09363465 -0.21548189 -0.34236068 0.11515723 0.70320565 0.34735176 0.2396241 0.25301734 -0.24402316 -0.041710097 -0.11540423 0.26171812 -0.23664232 -0.11845022 0.01740079
beta-catenin -0.051609963 0.3452673 -0.037348084 0.19233905 -0.24048132 0.3055453 0.2186091 -0.57147133 -0.794543 0.6528281 0.43353528 -0.10934926 -0.40272045 0.15880668 0.56272924 -0.36589912 0.2525765 0.29700142 0.80619776 0.17674704 -0.38593516 -0.07075949 0.54288536 -0.26005518 -0.6454967 -0.22171755 0.047862582 0.1717995 0.45339057 0.020563176 0.30777368 0.457491 -0.5805545 0.020865602 0.01902125 0.37530234 -0.31626555 -0.6469812 -0.11045374 0.603478 0.42830345 0.1094307 0.3295717 -0.16272537 -0.16522634 -0.22503987 0.33308217 -0.6950092 -0.36890855 0.1496117
cells -0.090975784 0.06080823 -0.23628347 0.071217574 -0.24087907 0.054664407 0.12801583 -0.29481998 -0.36051416 0.39391324 0.25993043 -0.09424786 -0.0045409757 -0.16939813 0.22088079 -0.48441356 0.20043118 0.25091097 0.41670075 0.20007195 -0.2782566 -0.09379241 0.31721467 -0.046711247 -0.3251763 -0.20350839 -0.062109478 0.23291253 0.12313261 0.08502496 0.4278393 0.48148406 -0.28675973 -0.035473995 -0.15059479 0.05410428 -0.22961405 -0.27631852 0.17848246 0.6762768 0.3325434 0.27444285 0.2405977 -0.25899646 -0.048248526 -0.13356368 0.25703672 -0.15681362 -0.06769423 0.008537116
myosin -0.25818938 -0.26975238 -0.4012293 0.19431637 -0.7384261 0.6314349 0.52624965 -0.410769 0.17873715 -0.34742588 0.23648323 -0.41381043 -0.1085206 -0.09688244 0.35028306 -0.75913996 0.6239525 0.85739297 0.24068277 0.02406718 -0.040262505 0.052127667 0.09293488 -0.38456658 -0.203212 -0.45401183 0.3280298 0.9239725 0.44983712 0.09535707 0.64011663 0.5761691 -0.72676873 -0.054672904 -0.22605622 -0.121974714 0.12918535 -0.7135176 -0.30597222 1.280005 0.5527932 0.18103409 -0.1277264 -0.5161569 -0.21012406 0.3138259 0.27909073 -0.2962264 -0.16766052 -0.06665855
alpha-catenin -0.04014172 0.36566436 -0.027539467 0.15103929 -0.19669852 0.29584652 0.21788964 -0.56682396 -0.77840084 0.62992966 0.41915768 -0.08241877 -0.39715967 0.16343947 0.5630951 -0.37511063 0.2762801 0.2817125 0.8301318 0.122007385 -0.3898415 -0.07246822 0.5301206 -0.2670778 -0.6676767 -0.1767914 0.09042047 0.20329729 0.4558061 0.05992422 0.33392417 0.47230187 -0.6113356 0.033788852 0.0021013108 0.35945866 -0.31833193 -0.6394912 -0.1178482 0.5761703 0.48048973 0.10511233 0.33585858 -0.16612975 -0.16816267 -0.20048736 0.33736637 -0.6978032 -0.38134181 0.17302974
binding -0.098634414 0.112667456 -0.22594865 0.122434855 -0.26488614 0.106321864 0.18946494 -0.35013598 -0.47706017 0.3837221 0.3172514 -0.119589195 -0.1304286 -0.1398157 0.3119429 -0.50295264 0.23386472 0.26349777 0.49701837 0.16050576 -0.27559492 -0.054193426 0.36559504 -0.06935953 -0.3920445 -0.16719472 -0.08996148 0.26444215 0.23948787 0.10002977 0.3476405 0.5237694 -0.3150436 -0.036737576 -0.13645649 0.120022915 -0.20767733 -0.3278378 0.1302036 0.72394073 0.33967364 0.23818858 0.24906476 -0.24284953 -0.009054695 -0.097277895 0.2781696 -0.2669147 -0.12734196 0.04344912
chain -0.2977201 -0.32449663 -0.3946753 0.2126468 -0.80421185 0.665883 0.51907873 -0.40974462 0.19694795 -0.3898326 0.25333992 -0.49279672 -0.07077999 -0.10736382 0.3290269 -0.7571279 0.69199836 0.85953087 0.20111221 0.030721415 -0.04809313 0.043342095 0.033840783 -0.40494388 -0.23208885 -0.48860252 0.33525097 0.9533678 0.40937558 0.11908732 0.6673961 0.5873786 -0.7549879 -0.010856317 -0.23256697 -0.13066414 0.12328886 -0.7255768 -0.25846282 1.2924259 0.6022736 0.22692351 -0.13625588 -0.5304363 -0.22139658 0.29207954 0.26401457 -0.32992682 -0.16405746 0.015899146
are -0.095124654 0.0951488 -0.22369345 0.08876904 -0.23803507 0.10830622 0.16153872 -0.31365004 -0.3915078 0.4046206 0.22968835 -0.118792795 -0.013229747 -0.16230153 0.27287218 -0.50464994 0.2083465 0.28331846 0.45417485 0.21713999 -0.27194637 -0.098567575 0.32737535 -0.0714907 -0.31632742 -0.21056944 -0.0455072 0.25529298 0.15765466 0.06914573 0.4213198 0.50419897 -0.3340672 -0.030017428 -0.17248207 0.07632653 -0.2592681 -0.31002274 0.18649016 0.65645635 0.32061702 0.25909838 0.26580456 -0.23574366 -0.04437532 -0.15482356 0.28539002 -0.20083189 -0.09251671 0.009161919
were -0.09309374 0.06299523 -0.20317502 0.078727 -0.2620232 0.19932994 0.19123866 -0.34108037 -0.3301564 0.31629902 0.26021236 -0.14024182 -0.054876428 -0.09710043 0.29439783 -0.47311497 0.2800583 0.334346 0.4504535 0.15551682 -0.27444008 -0.07342671 0.2922831 -0.11188215 -0.3142319 -0.23517582 0.03439917 0.3367661 0.21392116 0.081655145 0.4201835 0.4828521 -0.41043353 -0.013970274 -0.123799875 0.11871044 -0.22410022 -0.3643459 0.06633559 0.68564534 0.35898492 0.22262655 0.20744194 -0.2538077 -0.078013055 -0.10243617 0.25945422 -0.2592464 -0.12283337 0.039945636
cofilin -0.074992865 0.09291567 -0.25182608 0.088949405 -0.23147747 0.08400464 0.16261189 -0.32008567 -0.44586298 0.3897699 0.2863871 -0.10923065 -0.09134074 -0.13459669 0.26805192 -0.46104068 0.19578819 0.24943903 0.4799765 0.19353552 -0.27554792 -0.06510121 0.34878683 -0.026671102 -0.38168216 -0.16591205 -0.108583495 0.22608331 0.18692207 0.105382025 0.365815 0.5098694 -0.2996888 -0.05076786 -0.15950234 0.11276966 -0.24097224 -0.30801824 0.18314373 0.67690134 0.30066654 0.2593891 0.22529307 -0.20979787 -0.021839913 -0.124134205 0.2674131 -0.19832413 -0.08390582 0.004053507
as -0.10390781 0.056536213 -0.24476856 0.09601208 -0.27365834 0.14065474 0.17247818 -0.32358325 -0.38957965 0.35282108 0.2733979 -0.14268976 -0.0491317 -0.12550884 0.29876134 -0.5185076 0.23133628 0.29729798 0.50733066 0.19351934 -0.29274586 -0.085122675 0.35164413 -0.067294106 -0.378158 -0.22520053 -0.056054477 0.2652291 0.18154803 0.09593414 0.41818795 0.49903974 -0.36580458 -0.029146949 -0.14865074 0.12039392 -0.21638167 -0.35903913 0.1133576 0.7343912 0.33780697 0.26357853 0.2034043 -0.23187202 -0.07334853 -0.12665409 0.30271745 -0.24368858 -0.10380544 0.022291368
heavy -0.32432538 -0.28066024 -0.34768367 0.09961574 -0.77973783 0.62893414 0.45910358 -0.48242697 0.12011436 -0.35352123 0.23061548 -0.4994201 -0.041127194 -0.1536386 0.36857468 -0.70808816 0.67301315 0.85469323 0.16297963 -0.008892654 -0.055059787 0.013797893 0.045894403 -0.37700078 -0.18699737 -0.51573664 0.3364472 0.9332223 0.41502827 0.18748868 0.6789278 0.66208893 -0.76581055 -0.052514005 -0.17901458 -0.091966644 0.14328879 -0.7350917 -0.26610994 1.2781209 0.61670464 0.2561675 -0.12261949 -0.47346774 -0.21836196 0.35749978 0.21862385 -0.32806566 -0.18496348 -0.023470102
not -0.073466614 0.15008478 -0.21632437 0.10879029 -0.19422476 0.09548729 0.12572852 -0.32097822 -0.4600112 0.46153024 0.32426375 -0.11615994 -0.09297399 -0.08183051 0.35013372 -0.44485337 0.2237302 0.2562456 0.5167178 0.20936152 -0.3234658 -0.12711214 0.35210693 -0.10496489 -0.39672026 -0.20138524 -0.01126366 0.18626866 0.16282639 0.115633234 0.42447847 0.505842 -0.38196236 -0.03703856 -0.123611264 0.12150381 -0.25819567 -0.39952826 0.1518134 0.6493425 0.35524845 0.21810576 0.29327583 -0.206434 -0.07468784 -0.17932345 0.29811865 -0.27591616 -0.1811457 0.036178585
or -0.110984996 0.06036371 -0.19570908 0.11934799 -0.28056845 0.19151394 0.19960004 -0.3485083 -0.36581406 0.313896 0.27528042 -0.15903506 -0.08670918 -0.061824463 0.344869 -0.49274224 0.29448402 0.3428873 0.4529736 0.15652531 -0.28473973 -0.068983085 0.3155954 -0.12152684 -0.33138105 -0.23790142 0.02770913 0.34215093 0.2216297 0.122527584 0.43018723 0.50753266 -0.42981327 0.002521324 -0.13416612 0.1169176 -0.21324041 -0.41004184 0.055177208 0.6697373 0.3436993 0.22019964 0.200389 -0.2590988 -0.08330461 -0.10316772 0.2590891 -0.2821176 -0.15169209 0.028136333
on -0.103664786 -0.004093513 -0.29007152 0.082790576 -0.31058106 0.12267084 0.18611337 -0.2986664 -0.31779382 0.2772085 0.25226232 -0.15167744 0.011813833 -0.18553916 0.22787553 -0.52763253 0.22592688 0.3120932 0.38356048 0.17853919 -0.22669609 -0.038831625 0.29682803 -0.058650453 -0.2730313 -0.22745617 -0.087931186 0.32094684 0.14964789 0.12869363 0.41469222 0.536619 -0.30873433 -0.048770566 -0.20305271 0.021144753 -0.19608451 -0.30234313 0.16760637 0.75882363 0.30484653 0.2690118 0.21319558 -0.2815066 -0.027941614 -0.06534664 0.25728506 -0.14119735 -0.04825918 0.006557367
an -0.061578486 0.042071156 -0.25368193 0.09149476 -0.2488732 0.055057082 0.132489 -0.30397317 -0.39811823 0.3955859 0.25679344 -0.11779934 -0.017974412 -0.16719246 0.24279365 -0.5225027 0.22792782 0.2780175 0.43429098 0.20677811 -0.29219645 -0.09994846 0.32374915 -0.026712593 -0.3192931 -0.2026245 -0.08876025 0.26881838 0.112443 0.12258555 0.41975805 0.53585106 -0.2847093 -0.035813604 -0.19441263 0.078458436 -0.24541835 -0.25773072 0.22091302 0.7085395 0.3126008 0.28941366 0.25464958 -0.22965945 -0.01960366 -0.1380692 0.2926916 -0.13951811 -0.047129247 0.009638177
which -0.09352458 0.08780074 -0.2223806 0.11177616 -0.25799307 0.10365912 0.17271738 -0.32106757 -0.40981457 0.3742734 0.28060067 -0.12267003 -0.07452772 -0.124382205 0.2848156 -0.4700299 0.24431619 0.29218256 0.4899233 0.17545685 -0.2711494 -0.099388644 0.3521311 -0.07027535 -0.36676627 -0.19686723 -0.026072815 0.2589154 0.18538608 0.07574577 0.40170467 0.4890691 -0.3591777 -0.017434653 -0.14078565 0.12814303 -0.24516982 -0.34544167 0.13438974 0.66895103 0.3256323 0.23451257 0.23274295 -0.24112026 -0.062562615 -0.13249497 0.2913345 -0.25587747 -0.1253134 0.03165801
from -0.051817585 0.05200998 -0.23591673 0.06619699 -0.19120009 0.062066566 0.11766292 -0.28910717 -0.3674853 0.42485505 0.24743755 -0.09949746 0.021541098 -0.16137014 0.26745316 -0.50453407 0.20559043 0.26437607 0.42902723 0.2269811 -0.29004204 -0.10291235 0.3404399 -0.034179177 -0.29662445 -0.20552008 -0.07709628 0.21856841 0.11535838 0.11420321 0.42049766 0.49093354 -0.31981432 -0.010918064 -0.16142625 0.07826602 -0.27550164 -0.2796256 0.22187337 0.6531701 0.30763674 0.26673856 0.25747374 -0.23815413 -0.03683562 -0.16296025 0.28311348 -0.14717689 -0.07882795 0.019109767
cell -0.0809585 0.027638778 -0.22426838 0.07095561 -0.2317681 0.07222681 0.13237406 -0.28395814 -0.38213775 0.4223748 0.273351 -0.11370871 -0.011247338 -0.16014367 0.2461089 -0.49054065 0.21219513 0.26376227 0.44464484 0.21445552 -0.28086603 -0.08075133 0.33999318 -0.03708586 -0.30128333 -0.20204984 -0.10097721 0.22554247 0.13897234 0.11352863 0.407351 0.47995314 -0.31641236 -0.017733445 -0.20146058 0.09660969 -0.27227795 -0.2778177 0.21442336 0.66203034 0.30260918 0.26115176 0.258591 -0.21898867 -0.052158758 -0.17918918 0.24973759 -0.16256005 -0.09562462 0.0046363003
expression -0.1320881 0.05619133 -0.18321374 0.14976506 -0.3533468 0.3421019 0.28654048 -0.45404723 -0.36253074 0.2505197 0.31639972 -0.15776263 -0.19979881 0.017881488 0.39253855 -0.48002365 0.3490888 0.40376055 0.47359097 0.077895805 -0.25860822 -0.0127613535 0.29619527 -0.24672201 -0.40162855 -0.28359923 0.06767769 0.40173396 0.3124459 0.09562991 0.3956412 0.47855824 -0.5114276 0.034535017 -0.1020421 0.14120834 -0.15134948 -0.52793175 -0.062886015 0.77133226 0.43215767 0.1583515 0.15815462 -0.2703303 -0.13685746 -0.047735475 0.25950852 -0.44935042 -0.21578881 0.0346263
In -0.05046389 0.012096902 -0.24065456 0.07971479 -0.22968839 0.055236503 0.10152849 -0.25661063 -0.31797665 0.39072198 0.22211324 -0.13048585 -0.0076899324 -0.15358241 0.23191968 -0.47379893 0.22804351 0.28374386 0.39518473 0.20390321 -0.2834527 -0.08067414 0.31085956 -0.04403745 -0.2951386 -0.2073838 -0.02324096 0.22291903 0.10026438 0.08960774 0.39264342 0.49465248 -0.32102004 -0.030445976 -0.16420989 0.057926383 -0.21992822 -0.29632756 0.2046142 0.661673 0.2876794 0.24774201 0.23575196 -0.25781175 -0.062180743 -0.14248425 0.27723813 -0.15251662 -0.085693724 -0.021279875
we -0.06342806 0.05082185 -0.23841533 0.05220266 -0.2116828 0.0047622775 0.095019475 -0.23015495 -0.3921543 0.47265676 0.21187152 -0.13333958 -0.055995386 -0.12363037 0.22267255 -0.4692958 0.18063076 0.26744342 0.41981646 0.222808 -0.30085498 -0.06803366 0.3788704 -0.022315057 -0.31368053 -0.16088474 -0.057803035 0.14976348 0.10248873 0.06431332 0.40762752 0.48116076 -0.2906701 -0.038006425 -0.19555877 0.079676844 -0.29918608 -0.2824546 0.26513004 0.6376548 0.27222985 0.3088874 0.29092294 -0.26912814 -0.024474781 -0.15697546 0.28718063 -0.08626275 -0.12961572 -0.048233613
actin-binding -0.075157665 0.10515578 -0.23719667 0.10675033 -0.24242425 0.06680578 0.1475206 -0.30523622 -0.46356684 0.3427544 0.23905577 -0.1124799 -0.05387724 -0.11917056 0.27288204 -0.49514657 0.19843797 0.2759536 0.4636023 0.18295546 -0.2806863 -0.090403184 0.36622438 -0.047679346 -0.39224294 -0.15889303 -0.0708636 0.27611077 0.19761722 0.11369745 0.39435923 0.506686 -0.33971992 -0.0211732 -0.1732357 0.13259381 -0.25461015 -0.28455606 0.15377341 0.65509516 0.32218575 0.24381767 0.2004532 -0.21336615 -0.043299485 -0.1284044 0.28007814 -0.18678519 -0.085837446 0.020200254
but -0.0895215 0.16201913 -0.17450362 0.13830656 -0.21252489 0.17144652 0.20479478 -0.4204144 -0.4971722 0.4195976 0.33497703 -0.13861947 -0.14750414 -0.06347948 0.38974625 -0.47273192 0.252959 0.29132417 0.5311332 0.14595534 -0.2985548 -0.105168216 0.35731545 -0.109701574 -0.38638312 -0.2207349 0.018404253 0.27479714 0.28808615 0.072794154 0.40944433 0.5131391 -0.41986975 0.00659705 -0.086654276 0.19248302 -0.2431803 -0.4269201 0.026153274 0.69471085 0.3847584 0.21062708 0.24801496 -0.2378145 -0.09290512 -0.14728306 0.27647084 -0.34235388 -0.16429693 0.07430462
at -0.06713836 0.021605672 -0.23774713 0.0737119 -0.20875585 0.06006345 0.111635715 -0.275341 -0.32298803 0.38666144 0.23935731 -0.11249241 0.02405467 -0.1687279 0.24151854 -0.51728886 0.22650088 0.27797207 0.40873897 0.1979268 -0.29260466 -0.091062695 0.29913852 -0.032477744 -0.26381528 -0.21774642 -0.058302894 0.2690039 0.09699305 0.120030396 0.45324045 0.50914335 -0.28770208 -0.017442495 -0.19713989 0.04568897 -0.24074312 -0.2709277 0.21950772 0.6937312 0.2863862 0.26885447 0.24668024 -0.2540829 -0.049538814 -0.15628684 0.27747652 -0.14345127 -0.06400426 -0.010520209
complex -0.061238494 0.08934465 -0.21797384 0.09894019 -0.20879751 0.08525552 0.121065356 -0.31186008 -0.41855258 0.43679494 0.25728756 -0.08939699 -0.07410383 -0.13288465 0.26631686 -0.45289117 0.20492022 0.26249442 0.509716 0.2030989 -0.2776324 -0.10477818 0.36564893 -0.048194937 -0.35723108 -0.19653286 -0.08330948 0.21080624 0.17316118 0.10314251 0.3722351 0.50824 -0.33392158 -0.036972497 -0.15800312 0.12948251 -0.27126956 -0.31101608 0.18895005 0.6584726 0.33068877 0.23721592 0.27557123 -0.2235327 -0.028614827 -0.1677721 0.279628 -0.2223288 -0.11277299 0.0041346885
E-cadherin -0.056123216 0.27929893 -0.058754127 0.1565163 -0.23918018 0.30041236 0.2438568 -0.5341421 -0.7074113 0.5572153 0.38794893 -0.1128626 -0.35975483 0.107533984 0.49887314 -0.37900984 0.28363127 0.32202742 0.7416312 0.13999301 -0.35681438 -0.07579366 0.47613755 -0.2526742 -0.5802791 -0.20323567 0.093432374 0.21667494 0.41512784 0.027247703 0.338528 0.45195088 -0.58290416 0.020737998 -0.00071811664 0.3311887 -0.28546652 -0.5907288 -0.10167006 0.6019775 0.43966952 0.1098225 0.27165565 -0.18694893 -0.17842965 -0.15608683 0.33008224 -0.64001995 -0.33183607 0.15180095
have -0.056350596 0.06990899 -0.26079816 0.0664966 -0.20999956 0.002728491 0.1027105 -0.2735463 -0.39882937 0.46615323 0.24016507 -0.085256875 0.013368034 -0.15325922 0.20544 -0.50439584 0.18731834 0.2421046 0.46471286 0.27231887 -0.34705335 -0.11140297 0.32736036 -0.031166887 -0.303385 -0.17838763 -0.051833093 0.16893674 0.10203516 0.115278125 0.43630722 0.5107249 -0.31966826 -0.005477419 -0.2027514 0.092746384 -0.29393327 -0.23745678 0.27719012 0.6284365 0.27926415 0.29133615 0.31591943 -0.24203305 -0.056336585 -0.19155584 0.28423002 -0.14157508 -0.105496995 0.006777671
these -0.061621547 0.07946037 -0.21193996 0.09086313 -0.22416437 0.06832528 0.1210173 -0.31842375 -0.41395152 0.44010156 0.26657116 -0.09299705 -0.05366538 -0.11941803 0.2585563 -0.49222666 0.22117272 0.25839052 0.47952273 0.22483037 -0.30361843 -0.10124098 0.3430475 -0.0763229 -0.33708504 -0.19654761 -0.04159943 0.21383414 0.13007328 0.08653246 0.42043218 0.50754815 -0.322284 -0.0044948473 -0.16611926 0.10642245 -0.25967747 -0.3036514 0.20266175 0.6461708 0.32102424 0.23472287 0.28369614 -0.2078874 -0.048832107 -0.17115298 0.26632723 -0.19813836 -0.11851906 0.021715524
: -0.08230462 -0.016851882 -0.24314591 0.07404772 -0.2742771 0.15310775 0.1524495 -0.2979615 -0.24449186 0.29685012 0.22404118 -0.12445811 0.00849092 -0.14253452 0.2428816 -0.5191233 0.27882805 0.3434977 0.37105677 0.18997924 -0.2563983 -0.08668935 0.25145495 -0.09764738 -0.23635837 -0.24425618 0.018937387 0.3400011 0.12320003 0.13357684 0.4674219 0.50227267 -0.37378645 -0.021607464 -0.19008867 0.051684275 -0.18618828 -0.30818495 0.15631512 0.6849773 0.31033328 0.2580913 0.19436996 -0.25265524 -0.07520284 -0.11078788 0.25459963 -0.1369572 -0.06815103 0.011784374
talin -0.11071059 0.06463671 -0.20548561 0.087289676 -0.32462344 0.17210431 0.21456173 -0.35523343 -0.37704405 0.2621234 0.2768392 -0.17156431 -0.0881294 -0.10625146 0.32626975 -0.49424845 0.27199486 0.35193878 0.45795405 0.12783028 -0.22132394 -0.048742477 0.29518703 -0.10175508 -0.35175207 -0.20578562 0.016060468 0.3444214 0.24440724 0.10365285 0.36813456 0.5000772 -0.4002423 -0.033890944 -0.13971023 0.11588921 -0.2026334 -0.4015089 0.07223637 0.72580856 0.37603733 0.23215939 0.14685811 -0.24228731 -0.059048913 -0.046234775 0.24983391 -0.24329434 -0.12732282 0.026597599
genes -0.13929541 0.047905702 -0.24931733 0.11007311 -0.34820557 0.22848918 0.2273428 -0.30304137 -0.31859156 0.26942113 0.20697092 -0.19058758 -0.06887272 -0.08516763 0.2888426 -0.49029642 0.30598477 0.40478197 0.4394434 0.16415718 -0.23201899 -0.07312365 0.2782985 -0.16461885 -0.32215506 -0.25993887 0.05179529 0.38726223 0.20764004 0.081815936 0.4131523 0.51903677 -0.4752538 -0.011643026 -0.1808915 0.07554652 -0.2155022 -0.3957053 0.07506011 0.69199383 0.3652244 0.24423392 0.18473712 -0.26675084 -0.116957314 -0.05134177 0.29392657 -0.2834664 -0.14623885 0.009910617
muscle -0.21990287 -0.17550735 -0.32904547 0.14317836 -0.586673 0.4435813 0.38205144 -0.3636339 -0.014307302 -0.1468989 0.21968164 -0.3491365 -0.024115108 -0.14888194 0.2931333 -0.6302277 0.5174111 0.5916061 0.24381584 0.05423557 -0.13625641 0.01867827 0.11524423 -0.27113742 -0.23880513 -0.3731358 0.18107603 0.6378514 0.32924944 0.09199657 0.5076683 0.54464626 -0.52364403 -0.04380729 -0.16086796 -0.07928577 0.0073130126 -0.5213449 -0.14329167 1.0236318 0.49582237 0.21060644 -0.0030937814 -0.4092959 -0.10936961 0.18044709 0.2387396 -0.23591824 -0.1569563 0.00011806019
be -0.07341341 0.07236906 -0.28732747 0.07137697 -0.24060483 0.035556246 0.13482322 -0.2776695 -0.39579728 0.4528312 0.29042608 -0.10778794 -0.013740085 -0.21180247 0.21028504 -0.5330679 0.1985397 0.21022701 0.46491563 0.25186673 -0.296683 -0.118457735 0.34227937 0.007934788 -0.2988337 -0.1741292 -0.12235692 0.19278257 0.09187039 0.0860431 0.45548812 0.5084415 -0.23333876 -0.041873977 -0.18317933 0.051220242 -0.24609041 -0.27149996 0.2573736 0.7062976 0.3072339 0.3078703 0.3049062 -0.2753125 0.0028937482 -0.18099584 0.28947037 -0.16199695 -0.071634516 0.018211784
two -0.082594275 0.012072637 -0.27497566 0.08673758 -0.2504433 0.08227653 0.15854208 -0.28868297 -0.3306348 0.36523628 0.21705994 -0.12895067 0.020375647 -0.16744371 0.22960979 -0.5458648 0.2289347 0.32182768 0.40196812 0.21531169 -0.26165712 -0.09074768 0.296973 -0.05254317 -0.28214058 -0.21544598 -0.036304243 0.294139 0.118073285 0.10865843 0.4642513 0.5156233 -0.33348358 -0.008067404 -0.20205837 0.049003277 -0.24010192 -0.2833902 0.2196161 0.7084059 0.3163888 0.26141265 0.22919859 -0.2381929 -0.05171559 -0.12826335 0.27785724 -0.12182711 -0.06765949 -0.0006694485
kinase -0.101478525 -0.052351158 -0.304505 0.10097288 -0.23299684 0.20540287 0.18173325 -0.36490634 -0.32475024 0.31788525 0.27091163 -0.13656029 -0.040056728 -0.07473577 0.35257933 -0.5318857 0.3138959 0.3363331 0.40349996 0.0822984 -0.3363396 -0.08565797 0.28766695 -0.08319013 -0.32742923 -0.28427845 -0.0759038 0.37543696 0.18169047 0.2157894 0.49555993 0.5340869 -0.39453155 0.06913371 -0.19900271 0.14591646 -0.23436627 -0.3351041 0.16343221 0.7027941 0.3409034 0.2398987 0.12723185 -0.2566907 -0.12046497 -0.14828327 0.21553625 -0.19971247 -0.08478265 -0.07829114
; -0.070380494 0.038353313 -0.22917491 0.10021935 -0.20504254 0.151744 0.1327285 -0.29773715 -0.357072 0.34702113 0.21310546 -0.13839701 -0.032110274 -0.08494449 0.31828436 -0.5244724 0.28355035 0.34895632 0.4622593 0.19650121 -0.29440257 -0.10950703 0.34026223 -0.07013181 -0.3096784 -0.25380248 0.037182998 0.31408933 0.17706798 0.14223254 0.48680258 0.5168592 -0.43392536 -0.004090453 -0.20601457 0.15044565 -0.28238875 -0.31259987 0.12972622 0.6468461 0.29601032 0.24164046 0.22547267 -0.24333985 -0.081870675 -0.16729468 0.2939278 -0.18031973 -0.108222745 0.0073606865
filaments -0.091997094 0.02260504 -0.26164076 0.096406385 -0.27768102 0.0886054 0.16317843 -0.28850183 -0.31572092 0.29573166 0.24656288 -0.13758808 -0.0323698 -0.18765537 0.24666707 -0.5050546 0.24956886 0.28942958 0.37065512 0.17878921 -0.24796644 -0.057352852 0.26920792 -0.03843477 -0.28043547 -0.2118042 -0.061754454 0.2788667 0.14789417 0.08193578 0.4006553 0.4713307 -0.29129744 -0.046922673 -0.15604146 0.052767415 -0.17050487 -0.27772167 0.16131847 0.73255527 0.3173361 0.24892414 0.2085803 -0.26599216 -0.014043504 -0.075658605 0.23842102 -0.1595666 -0.070576385 0.006699614
between -0.0745684 -0.008720446 -0.24801585 0.08386129 -0.26796338 0.13587217 0.15357831 -0.28014168 -0.30849445 0.31079772 0.23734443 -0.120679304 0.016736314 -0.14580727 0.2475255 -0.51010543 0.26013306 0.3389953 0.41993064 0.18552335 -0.25095958 -0.09125165 0.3001283 -0.0890289 -0.28991446 -0.22653325 -0.011440164 0.32909453 0.15112801 0.12110913 0.43905863 0.5054929 -0.37553144 -0.017478114 -0.18715946 0.06494079 -0.20248277 -0.31468722 0.16735424 0.68464315 0.32644078 0.25889814 0.20935695 -0.2564445 -0.067589775 -0.11057469 0.27895558 -0.15921988 -0.060828093 -0.013128659
this -0.07416628 0.03475445 -0.24406412 0.068481274 -0.21290766 0.021793574 0.107261226 -0.27656034 -0.35940552 0.43835893 0.26287773 -0.11923109 -0.034919538 -0.16142473 0.2407206 -0.50630516 0.2139837 0.27123454 0.43707615 0.20816158 -0.3151562 -0.091485314 0.34920317 -0.027530322 -0.3013248 -0.19933212 -0.042257685 0.2180164 0.09599528 0.09820435 0.43422925 0.511428 -0.2758206 -0.028606992 -0.1787218 0.09264951 -0.24398437 -0.2915196 0.2505625 0.66139793 0.31050107 0.27008978 0.28679752 -0.25509456 -0.04803451 -0.15239787 0.27158147 -0.13561036 -0.09298717 -0.022376325
also -0.07436483 0.071891285 -0.23435017 0.07231985 -0.20922008 0.062192798 0.10981294 -0.29085168 -0.37530324 0.41814592 0.25255564 -0.09563836 -0.016849805 -0.15640435 0.26482788 -0.5203812 0.20387378 0.26945457 0.46191478 0.21920027 -0.315375 -0.10555886 0.33370697 -0.046109397 -0.31835148 -0.19516927 -0.06081736 0.23530723 0.11464573 0.09044158 0.4453998 0.5095564 -0.30062568 -0.019775862 -0.16446097 0.073365465 -0.24413365 -0.29508087 0.2144906 0.66247004 0.3107464 0.2836392 0.27907002 -0.24416126 -0.04259615 -0.16710256 0.27483392 -0.17212057 -0.08972949 0.0028108745
yeast -0.08477652 0.03006884 -0.23933932 0.06488985 -0.25224712 0.068921685 0.1428172 -0.26068717 -0.3461431 0.38664111 0.24120316 -0.12342491 0.0110512385 -0.17686628 0.23319654 -0.5110319 0.2185052 0.28312474 0.41174933 0.21070027 -0.28932542 -0.09849195 0.32557353 -0.04739508 -0.2925744 -0.20684662 -0.053852763 0.2546751 0.112402424 0.10997978 0.41605422 0.5040133 -0.30285433 -0.027340852 -0.19183432 0.061562415 -0.24683289 -0.26252 0.2036694 0.6645105 0.29723832 0.2893243 0.2596493 -0.25026494 -0.041081894 -0.14851667 0.27407244 -0.14856246 -0.060680654 0.0038227602
histone -0.04984687 0.039548635 -0.28820962 0.074646205 -0.18286574 0.12584686 0.09244901 -0.2625996 -0.37251633 0.5281435 0.14137068 -0.058041777 -0.021280266 -0.0716863 0.26973844 -0.5753706 0.20363529 0.31184003 0.45020267 0.20683879 -0.34542394 -0.09710445 0.33694336 -0.030046744 -0.25017238 -0.2888991 -0.029155605 0.23035789 0.055840794 0.09875078 0.5014686 0.56398547 -0.3799478 -0.006918742 -0.22171359 0.16259205 -0.3024658 -0.24859124 0.29237986 0.60920244 0.23521873 0.25217432 0.25462472 -0.21047135 -0.050452307 -0.14377399 0.27186474 -0.08960882 -0.15206595 -0.030008487
can -0.0740121 0.061852403 -0.24988216 0.07435264 -0.19620113 0.049554393 0.114682235 -0.29341125 -0.39500517 0.44653356 0.27288422 -0.098946415 0.007914051 -0.19067411 0.2566268 -0.5242664 0.20500351 0.2527253 0.45860508 0.23725566 -0.29965496 -0.09832708 0.3558588 -0.019194253 -0.29878354 -0.21660829 -0.077313945 0.22404706 0.11373441 0.08573147 0.44478297 0.5108888 -0.2834256 -0.027685633 -0.1635767 0.077033035 -0.26585788 -0.2777619 0.24248253 0.70117724 0.31513286 0.2919326 0.31112954 -0.24301255 -0.01902392 -0.1916052 0.2960827 -0.14449607 -0.06059249 0.007928323
polymerization -0.101241946 0.038455907 -0.2654179 0.10769443 -0.29150468 0.095656216 0.16089785 -0.2946749 -0.33808586 0.30589452 0.2597082 -0.15023504 -0.059492096 -0.17908105 0.2647512 -0.49420378 0.24334571 0.26841748 0.40391684 0.17696999 -0.25005236 -0.05228933 0.3023159 -0.032692246 -0.30808485 -0.20545965 -0.090752326 0.28555828 0.1611366 0.087854765 0.37940562 0.48113254 -0.2770597 -0.049564008 -0.17053995 0.06326379 -0.18985845 -0.2951157 0.15880609 0.7209595 0.31501877 0.24477533 0.21546619 -0.25867385 -0.011005111 -0.07677168 0.24466737 -0.17083465 -0.0709784 0.0062235924
both -0.09410194 0.08050488 -0.23502426 0.08350805 -0.23034362 0.10161458 0.14189991 -0.30172357 -0.39872375 0.41806233 0.25391448 -0.12355158 -0.033328928 -0.11762515 0.2668766 -0.49241453 0.2225877 0.28472802 0.4673192 0.20913428 -0.28650972 -0.09724436 0.335896 -0.067517616 -0.34515658 -0.21474585 -0.031767994 0.25380176 0.14425234 0.08017069 0.43182686 0.50246066 -0.36783358 -0.016860774 -0.16437787 0.11565766 -0.25438565 -0.3242764 0.16252345 0.6620031 0.33438566 0.25593507 0.24830288 -0.23951346 -0.06772651 -0.15167405 0.2964949 -0.21446148 -0.11193598 0.025054237
gene -0.087100774 -0.005038307 -0.25527343 0.09120757 -0.24243559 0.12039251 0.15704858 -0.2704887 -0.3190627 0.3281176 0.22981364 -0.14982016 -0.0004201361 -0.15063024 0.26561606 -0.5169023 0.25181872 0.32954484 0.42239562 0.20300527 -0.26615378 -0.08714732 0.29524145 -0.06210588 -0.27226278 -0.23356241 -0.0027800004 0.30238056 0.14351441 0.112032555 0.45509622 0.5141178 -0.37544334 -0.02627675 -0.21326084 0.07982534 -0.2243384 -0.30309558 0.17435184 0.69592136 0.300824 0.26791352 0.22822751 -0.24401504 -0.06431871 -0.11623554 0.27837974 -0.14030847 -0.09909326 -0.013795319
% -0.08746877 -0.011339034 -0.24251208 0.102168664 -0.2872236 0.2049439 0.17369655 -0.29915112 -0.27780148 0.2752307 0.20223925 -0.17161958 -0.039491978 -0.083971985 0.29674765 -0.498281 0.29268315 0.38938195 0.40573475 0.15530248 -0.26761255 -0.0879297 0.28487554 -0.10406155 -0.30423078 -0.26216203 0.06446698 0.3547108 0.16726866 0.110112175 0.4708484 0.48572478 -0.44550505 0.002795632 -0.190584 0.10021452 -0.19383454 -0.34953165 0.042796623 0.6793258 0.34355566 0.24426925 0.17961003 -0.27403212 -0.10843791 -0.100241706 0.26727515 -0.22272855 -0.109761246 -0.015959242
We -0.070360005 0.008167107 -0.2572837 0.0685252 -0.22734538 0.06762243 0.10396997 -0.25402138 -0.3091312 0.39639664 0.22456536 -0.11190569 0.030209297 -0.16346143 0.22510476 -0.52763677 0.218108 0.2884644 0.39374757 0.22312413 -0.2875832 -0.10558939 0.29872912 -0.05169199 -0.2562092 -0.21710974 -0.05962415 0.24370664 0.084577106 0.11534565 0.47540864 0.49727324 -0.29556465 -0.01703193 -0.21439582 0.052857727 -0.23877263 -0.26803625 0.24050498 0.67928714 0.2980891 0.2936972 0.2638141 -0.25172013 -0.028666135 -0.1560211 0.2680551 -0.11050162 -0.076352544 -0.013171511
1 -0.08286899 -0.040433936 -0.26042473 0.06656102 -0.26152122 0.13485658 0.15482242 -0.28201413 -0.2565055 0.27573135 0.20397319 -0.14449617 0.026798164 -0.122347146 0.25412014 -0.50288856 0.29095653 0.3828332 0.41960004 0.18731734 -0.26286483 -0.1286107 0.2580921 -0.09339432 -0.24146691 -0.26836145 0.027933057 0.37499446 0.15622024 0.1426723 0.47379234 0.52881444 -0.40343872 -0.036917184 -0.21616997 0.04692801 -0.22714975 -0.33402446 0.11927954 0.7134543 0.30820847 0.26266894 0.20540477 -0.25384253 -0.06501027 -0.1062801 0.27478197 -0.14612344 -0.071146384 -0.024809439
domain -0.088583075 0.066172145 -0.21937813 0.08723172 -0.20956522 0.0790446 0.1212404 -0.30738038 -0.3951166 0.39231122 0.25057054 -0.102021724 -0.03923948 -0.14269055 0.27588457 -0.49835736 0.21146722 0.2770524 0.4540138 0.19805965 -0.28529164 -0.10528133 0.3372671 -0.05329444 -0.31856045 -0.17707291 -0.07269137 0.25071105 0.14386962 0.13000454 0.4307044 0.51635414 -0.3206734 -0.012822269 -0.17946225 0.10139125 -0.2630777 -0.30167088 0.1766524 0.6676521 0.31138775 0.27049667 0.26081946 -0.2228831 -0.035441175 -0.17052524 0.28785762 -0.18246675 -0.08671132 0.0027403617
DNA -0.08108091 0.040562317 -0.27521014 0.07837374 -0.22556716 0.08544226 0.122817084 -0.26594135 -0.35436007 0.42057723 0.2170311 -0.09946436 0.047537323 -0.17908043 0.2497714 -0.5172778 0.21844202 0.29430157 0.42492345 0.22997685 -0.3021502 -0.10428847 0.30949613 -0.029187398 -0.27086484 -0.24248624 -0.044388086 0.28452352 0.08237593 0.12750988 0.46366048 0.5313403 -0.32930094 -0.016143713 -0.2237255 0.06366842 -0.26992694 -0.27896738 0.25230655 0.66421825 0.29621863 0.2910554 0.26033026 -0.25076842 -0.055880897 -0.1735398 0.29025167 -0.14222805 -0.047017198 -0.026194736
its -0.08577627 0.050466686 -0.2356405 0.093703575 -0.24082403 0.07433594 0.14336066 -0.31756023 -0.3883855 0.39306727 0.27594128 -0.12660293 -0.04714559 -0.14990005 0.26617184 -0.51273817 0.21611188 0.28213927 0.44363725 0.1908736 -0.28038758 -0.08297 0.32371953 -0.043594837 -0.3296133 -0.20444068 -0.075797796 0.2493691 0.14289899 0.09402096 0.4066769 0.50604 -0.32176813 -0.01779551 -0.14684479 0.08900573 -0.22286165 -0.3183477 0.16813989 0.708217 0.3065129 0.25919962 0.24540861 -0.24433923 -0.024458222 -0.14162038 0.2610181 -0.18274508 -0.07875852 0.016246928
human -0.09590332 0.008085888 -0.25152594 0.07641301 -0.23973644 0.09005069 0.13472311 -0.293269 -0.32361886 0.36746594 0.23437311 -0.10934224 0.03091783 -0.1580905 0.24495031 -0.5273146 0.24793437 0.3063385 0.40855297 0.20679191 -0.27516565 -0.103712514 0.29945123 -0.05027477 -0.29008463 -0.22324023 -0.034114722 0.29724354 0.11672783 0.11498023 0.45112643 0.51212907 -0.3284367 -0.022634868 -0.20248339 0.059584573 -0.23339221 -0.28785536 0.1792489 0.6934968 0.31648037 0.2640228 0.23121004 -0.25778183 -0.046968374 -0.14135952 0.2797371 -0.14860293 -0.066670105 -0.0014388745
RAD51 -0.119329 0.09121735 -0.24976042 0.1044659 -0.2442104 0.12354958 0.18031392 -0.28350848 -0.37852266 0.3994779 0.23411377 -0.13652655 -0.026271664 -0.13858527 0.27788338 -0.49105945 0.22636758 0.31052807 0.4641606 0.18898329 -0.30982035 -0.10694177 0.32049567 -0.10361609 -0.37261364 -0.21344088 0.0077751046 0.2524446 0.12621143 0.097280994 0.40989995 0.53800243 -0.38417023 0.002127472 -0.1879999 0.08769556 -0.27086413 -0.33563444 0.17628576 0.6437138 0.31872308 0.29286095 0.23431654 -0.26554862 -0.07192764 -0.16218807 0.28767353 -0.23234482 -0.09189344 -0.010690512
results -0.03794008 0.034862146 -0.26697645 0.056449857 -0.20836297 -0.0032488108 0.10739246 -0.2257446 -0.32288703 0.44186962 0.21654996 -0.07370417 0.065822564 -0.1932508 0.20756641 -0.56233823 0.19298442 0.26538628 0.41411558 0.2400798 -0.2949253 -0.09934603 0.33161122 -0.0040917885 -0.26266524 -0.1864513 -0.087988 0.19895445 0.045080986 0.11442894 0.4913453 0.543891 -0.29193056 -0.04287134 -0.2280524 0.0751957 -0.2516856 -0.20649727 0.29589385 0.70148605 0.28720093 0.31042865 0.3042656 -0.23374261 -0.035059113 -0.20052664 0.31225845 -0.05626724 -0.04835473 -0.006278749
activity -0.08247455 0.013363868 -0.2639595 0.07887105 -0.21941255 0.06734829 0.11662245 -0.28661007 -0.32912046 0.4024857 0.24223413 -0.11670143 0.03708453 -0.1645743 0.2602622 -0.525284 0.21707961 0.274788 0.40126517 0.21225655 -0.30031416 -0.10089054 0.29660708 -0.027416952 -0.26974493 -0.22472759 -0.074660465 0.2581137 0.08164028 0.13763793 0.44505465 0.51841676 -0.30090088 -0.0040689055 -0.19604248 0.06317781 -0.2519944 -0.2711897 0.22680776 0.6737951 0.297171 0.2942137 0.24571769 -0.24933311 -0.03924067 -0.17453173 0.24901533 -0.11755508 -0.06296863 -0.023155246
cytoskeleton -0.09010395 0.022830259 -0.25277436 0.097501405 -0.2713752 0.12778907 0.17020705 -0.28238988 -0.32143623 0.30498338 0.24684824 -0.12905443 -0.051527213 -0.15078586 0.25032666 -0.48273066 0.229217 0.2977361 0.40315723 0.17195882 -0.2504744 -0.06195605 0.2943578 -0.057654306 -0.29315862 -0.21380945 -0.065428294 0.29199523 0.16135806 0.08389755 0.39436847 0.4723204 -0.30382907 -0.040669426 -0.16548447 0.06558597 -0.18096723 -0.30011 0.14814308 0.6982507 0.32371145 0.24141748 0.19811045 -0.24864636 -0.031715088 -0.09784676 0.24323049 -0.1776431 -0.09330757 0.0026177058
These -0.04523592 0.018339824 -0.29572174 0.042109348 -0.2147595 0.018439531 0.103850484 -0.26029134 -0.30875543 0.45026094 0.24138643 -0.10344263 0.07772831 -0.21215428 0.20117874 -0.58084184 0.22154313 0.31272665 0.42287824 0.2501208 -0.30008316 -0.13082874 0.33113387 -0.025910802 -0.23971689 -0.22390756 -0.057637084 0.23408625 0.035688303 0.11760883 0.51318526 0.5539452 -0.3041486 -0.01700668 -0.24574625 0.05869514 -0.26161188 -0.23936486 0.28582802 0.7308452 0.30865806 0.3057428 0.29024175 -0.25287974 -0.021078454 -0.17279379 0.31266826 -0.04143041 -0.059461813 -0.03313855
interaction -0.069800496 0.046255916 -0.2335021 0.08793709 -0.24541564 0.09421394 0.15475215 -0.3007043 -0.37921086 0.3822018 0.26143786 -0.1089066 -0.021965194 -0.15242767 0.2651472 -0.48785168 0.21977179 0.2891288 0.43438685 0.18593787 -0.27385208 -0.07725274 0.3140703 -0.072102815 -0.30350554 -0.21027546 -0.061518926 0.27748924 0.15750755 0.10301174 0.41233042 0.50796014 -0.33935064 -0.023424221 -0.15739958 0.082766965 -0.23197815 -0.3040606 0.14960115 0.6747824 0.30677742 0.23861924 0.23571284 -0.22814721 -0.050758462 -0.12610827 0.27224904 -0.18078054 -0.07206539 0.0072190706
assembly -0.09514123 0.016544495 -0.26606327 0.08118541 -0.25879526 0.09215098 0.15636599 -0.2945832 -0.34614322 0.33091727 0.24242651 -0.12499543 -0.025473274 -0.16344237 0.25705212 -0.51320016 0.24447393 0.30143347 0.415466 0.19295534 -0.27109426 -0.0761175 0.29167327 -0.047821414 -0.30130786 -0.21134168 -0.06656627 0.2783817 0.13184805 0.10890822 0.4136345 0.50677836 -0.31252322 -0.02370359 -0.16982989 0.06574997 -0.2127325 -0.29871976 0.18372281 0.7007413 0.33260757 0.24821576 0.21952857 -0.24233389 -0.02838421 -0.11466309 0.27170843 -0.15882415 -0.08343737 -0.007987016
has -0.055226475 0.037189223 -0.2672271 0.061369814 -0.20998926 0.021283625 0.11449718 -0.2775907 -0.37506473 0.42638728 0.24508598 -0.11173058 0.0422303 -0.18482322 0.21738732 -0.5310847 0.22236682 0.25839493 0.45011002 0.24085069 -0.32088915 -0.12690428 0.33102748 -0.0073352046 -0.27714175 -0.21035874 -0.06504496 0.2271538 0.090181 0.121744715 0.48155716 0.5414048 -0.3217063 -0.012727079 -0.20773497 0.09854134 -0.26652044 -0.23561972 0.2536181 0.6852156 0.29976678 0.2931522 0.275172 -0.24619517 -0.04778711 -0.18155488 0.2668755 -0.11241312 -0.06476715 0.0156606
plakoglobin -0.06666683 0.26716542 -0.07186442 0.13360722 -0.23883742 0.24232854 0.21682063 -0.4714041 -0.6460181 0.52720577 0.36457765 -0.111026205 -0.28200123 0.06179517 0.46285266 -0.37962347 0.24588674 0.27911305 0.6810953 0.15404741 -0.32425046 -0.07908061 0.4362015 -0.20009924 -0.54179883 -0.18662988 0.053586524 0.19602785 0.361998 0.04286547 0.3130872 0.45552906 -0.5115197 0.006629434 -0.020647602 0.27095088 -0.2919256 -0.5464863 -0.050400402 0.588889 0.4243274 0.13092309 0.28152063 -0.17222327 -0.12433183 -0.15630282 0.31187704 -0.5446157 -0.2936277 0.12687369
cyclin -0.09333576 -0.00046795077 -0.26622102 0.09693356 -0.21715906 0.13323425 0.14581345 -0.34141365 -0.35310376 0.39084315 0.26653898 -0.11043603 -0.0021536131 -0.099793606 0.27744293 -0.4986636 0.2700364 0.30142218 0.43675306 0.15620437 -0.31560162 -0.10623842 0.30085006 -0.0827239 -0.29918942 -0.25934738 -0.072500564 0.29991278 0.12789482 0.14894888 0.46324885 0.5048612 -0.34974498 0.0327592 -0.1849532 0.097841404 -0.26406974 -0.319876 0.22134104 0.6842921 0.30140832 0.2526317 0.2456748 -0.24874592 -0.05459652 -0.17364399 0.2401753 -0.18836845 -0.097513236 -0.038934987
region -0.078274 0.04893243 -0.23401646 0.08131463 -0.20433685 0.069115065 0.11150977 -0.2917807 -0.38801706 0.40745145 0.24342132 -0.084747285 -0.005484046 -0.15905495 0.24568604 -0.50787073 0.2164374 0.2612926 0.4262582 0.21547563 -0.30700102 -0.10235476 0.323139 -0.03645014 -0.3054829 -0.20684268 -0.066235095 0.23118974 0.10337781 0.09982479 0.432227 0.5031634 -0.31098592 -0.018464897 -0.18859251 0.086539455 -0.24456948 -0.2711535 0.20092075 0.6691367 0.30015525 0.27145746 0.24856758 -0.23325497 -0.05308784 -0.1748877 0.26149198 -0.16667242 -0.07979716 -0.016970895
fimbrin -0.082371704 0.05141013 -0.2182436 0.077007 -0.22068849 0.10372033 0.14540115 -0.30818477 -0.37485144 0.37906823 0.24167517 -0.132658 -0.033502314 -0.13868542 0.26366836 -0.50319296 0.23673292 0.28709197 0.42960125 0.20089708 -0.27697772 -0.10563395 0.32470626 -0.061927587 -0.3117376 -0.21388346 -0.034645613 0.27266946 0.14988257 0.118288755 0.4216183 0.50647146 -0.33169472 -0.012439219 -0.1740782 0.08355242 -0.2534065 -0.2936841 0.1784305 0.6565715 0.31667754 0.2640183 0.24329102 -0.23109081 -0.04800794 -0.14048065 0.28063765 -0.17418075 -0.09100394 -0.0034508645
been -0.09079803 0.022359276 -0.2781618 0.069970734 -0.24247596 0.05195764 0.11750722 -0.26942897 -0.37615713 0.44977596 0.22805932 -0.11863571 0.018216059 -0.14790216 0.22476855 -0.53456765 0.23225515 0.2905583 0.4335917 0.24003349 -0.31941515 -0.10042105 0.33973816 -0.049803887 -0.3081968 -0.21109182 -0.07998937 0.22925824 0.096921615 0.11323126 0.47808135 0.49691513 -0.32181743 -0.01739446 -0.21834417 0.079847574 -0.28283894 -0.25569022 0.21129702 0.6691861 0.3016425 0.28767806 0.28338018 -0.27015686 -0.034795858 -0.18381315 0.2913913 -0.13960642 -0.08511712 0.011664497
other -0.08084838 0.063881285 -0.24207953 0.07279343 -0.22160769 0.1059049 0.13880834 -0.3110895 -0.36413357 0.40774634 0.24665658 -0.10823542 -0.0108243665 -0.14322141 0.26387006 -0.51423866 0.22436085 0.29410303 0.4584591 0.21111782 -0.28610304 -0.110534504 0.3258341 -0.0687741 -0.31136355 -0.22090222 -0.032337572 0.250504 0.13515846 0.097498365 0.42543942 0.4914905 -0.34434915 -0.008619299 -0.18111262 0.083737075 -0.2609049 -0.31263173 0.1754841 0.6651846 0.31202376 0.24989319 0.25052828 -0.23011996 -0.052605554 -0.16063865 0.28567746 -0.17794077 -0.10374413 0.00049052207
RAD52 -0.113806404 0.08154012 -0.22824919 0.07358043 -0.23692104 0.113599405 0.17158279 -0.29934764 -0.39501595 0.3867967 0.22388223 -0.15486589 -0.03533197 -0.13597102 0.28693795 -0.46299484 0.23949097 0.32574272 0.45797178 0.20963036 -0.2753209 -0.11245917 0.35228083 -0.1042959 -0.36859116 -0.21097481 -0.026392588 0.27594763 0.15927462 0.083708726 0.42749387 0.5149422 -0.400019 0.0008195076 -0.15061666 0.1096926 -0.26684305 -0.33640254 0.18006104 0.60794646 0.34477 0.2530459 0.24825543 -0.25850156 -0.098720886 -0.1297998 0.2649258 -0.24020638 -0.092819534 0.008704053
found -0.085033 0.016724119 -0.25539705 0.066701084 -0.23305446 0.072968304 0.13996665 -0.2998323 -0.3472207 0.3851224 0.25321436 -0.12842008 0.014696747 -0.14104602 0.23395224 -0.5092126 0.23106402 0.30113178 0.42193884 0.2246532 -0.30234423 -0.09453166 0.3017416 -0.0652335 -0.3110015 -0.21925019 -0.039069757 0.25967556 0.101522684 0.107506506 0.46828908 0.4952338 -0.33688477 -0.0069176224 -0.18089966 0.08300241 -0.22318992 -0.30156955 0.1952036 0.68985456 0.31521207 0.27072397 0.24386516 -0.25644398 -0.043979283 -0.1501798 0.27023605 -0.16168952 -0.08841787 -0.0007521739
factor -0.066840164 0.014478419 -0.22823666 0.07256998 -0.23983468 0.10352093 0.13014707 -0.2638373 -0.3192716 0.32290286 0.2305532 -0.14079817 -0.009911529 -0.12885435 0.26146665 -0.4659367 0.22676419 0.30882683 0.38430947 0.17734882 -0.27401528 -0.09973781 0.2807569 -0.059383597 -0.2971089 -0.21702145 -0.025793651 0.2743103 0.13604148 0.13045084 0.42131233 0.4657184 -0.34878606 -0.03382715 -0.1580304 0.08969237 -0.23378083 -0.2903862 0.13888647 0.63631123 0.28418273 0.24183387 0.19554202 -0.23256727 -0.06352401 -0.13464697 0.260078 -0.14165159 -0.09203967 0.0050477833
binds -0.066768266 0.053166077 -0.21538912 0.1028161 -0.24076027 0.0770444 0.12821577 -0.30287668 -0.37875265 0.3883954 0.2656418 -0.12874486 -0.0365791 -0.14921539 0.29290202 -0.48489532 0.21574022 0.2719836 0.45643693 0.19210573 -0.2816787 -0.09709367 0.33635616 -0.052576214 -0.31811604 -0.19873695 -0.035332184 0.23323531 0.14433183 0.106359825 0.41608462 0.5057562 -0.30896884 -0.02405958 -0.1534932 0.11591458 -0.22953816 -0.3165898 0.18174411 0.6702358 0.3226186 0.2559241 0.24752745 -0.24131343 -0.046354007 -0.15864415 0.28592584 -0.18364401 -0.09416156 0.027124533
virus -0.06372847 -0.037489284 -0.24222142 0.053902723 -0.19415548 0.08092653 0.13106975 -0.2478981 -0.2794748 0.36562198 0.19908638 -0.1068979 0.049357194 -0.1274612 0.22085012 -0.50737363 0.2602375 0.34357086 0.42207268 0.22309601 -0.28857166 -0.12876022 0.2764989 -0.049360137 -0.22826985 -0.24883012 -0.023427237 0.30037394 0.09450764 0.15934673 0.45567182 0.5173235 -0.3841121 -0.035355736 -0.23601475 0.05861428 -0.2748244 -0.265009 0.20392855 0.6477038 0.27688125 0.26770175 0.23959285 -0.22598034 -0.07301246 -0.1674178 0.2793887 -0.10543854 -0.049773555 -0.04344829
vinculin -0.08062386 0.06183762 -0.21059978 0.10379042 -0.26889768 0.14825355 0.17476664 -0.32633698 -0.38050327 0.3601681 0.25504926 -0.17187308 -0.084588975 -0.09374369 0.32704926 -0.49968117 0.27798444 0.32386282 0.4782392 0.16870058 -0.26804546 -0.084246404 0.31754318 -0.106059074 -0.35361683 -0.20984055 -0.0019249759 0.3058747 0.20361462 0.10040304 0.410154 0.491655 -0.40229672 -0.0045947093 -0.13777165 0.11760108 -0.24000023 -0.37854046 0.08737257 0.669103 0.32990775 0.2222879 0.20568262 -0.23199289 -0.086069465 -0.121601485 0.27120823 -0.25611994 -0.13869153 0.012886981
inhibitor -0.09624584 -0.027113536 -0.28143457 0.12161203 -0.24079275 0.1526221 0.15105152 -0.3609198 -0.3664837 0.38487282 0.27500692 -0.116639346 -0.022582171 -0.097736634 0.3302903 -0.520392 0.29520065 0.3401701 0.42945945 0.12704226 -0.34653163 -0.1093273 0.31282032 -0.07557152 -0.3184112 -0.28641832 -0.10555814 0.33917356 0.11825251 0.19864294 0.46808717 0.5483374 -0.3741641 0.07645631 -0.21903048 0.13006172 -0.2576198 -0.29877284 0.2227565 0.7073022 0.32784864 0.27621314 0.18444933 -0.23138615 -0.106415324 -0.20064805 0.23475097 -0.20484106 -0.0630694 -0.080093384
using -0.064950764 0.004884354 -0.2424578 0.050435036 -0.23366514 0.077201225 0.10799005 -0.26740932 -0.29762933 0.3876006 0.23216535 -0.12315673 0.036158368 -0.15840589 0.2249451 -0.5112539 0.23361637 0.29231593 0.39079076 0.21645324 -0.29752108 -0.10642293 0.29309264 -0.054448217 -0.2733202 -0.2430153 -0.03697639 0.27723747 0.079614304 0.105083846 0.46667343 0.49982622 -0.31849685 -0.032204315 -0.19388917 0.052497633 -0.2500108 -0.26493302 0.20974812 0.6856048 0.31324744 0.29403788 0.24293815 -0.2602911 -0.04112764 -0.16172932 0.28181213 -0.11121917 -0.06572605 -0.016182885
P -0.082067646 0.037345156 -0.20006852 0.10576991 -0.17456143 0.18537675 0.17316021 -0.2975108 -0.39114574 0.27939007 0.1937982 -0.12659557 -0.038995776 -0.034953896 0.32332703 -0.46867922 0.27888218 0.36920422 0.4665644 0.17209485 -0.29747212 -0.10972788 0.33142018 -0.039024446 -0.3333716 -0.19890146 0.075215325 0.32997468 0.23524667 0.1715004 0.45758826 0.5119438 -0.5289088 0.014897427 -0.20894048 0.19563602 -0.29185164 -0.2915473 0.057105545 0.5938576 0.28940684 0.22003022 0.18516335 -0.21726918 -0.11907456 -0.16418289 0.2777361 -0.21040423 -0.10318001 -0.03789197
may -0.071962334 0.041709043 -0.284824 0.08488475 -0.22890922 0.0416202 0.111141585 -0.29174438 -0.3819508 0.44342944 0.2505474 -0.107369825 0.030918222 -0.19296038 0.23737045 -0.552249 0.20185883 0.25987116 0.44341835 0.23019768 -0.29542324 -0.108318515 0.33787802 -0.013441757 -0.31552497 -0.21084149 -0.08118427 0.23504172 0.08708953 0.10293967 0.46536872 0.5267998 -0.27414504 -0.040048696 -0.20821935 0.06787809 -0.2647325 -0.271164 0.23842253 0.7261304 0.32369173 0.31322712 0.30007705 -0.24966557 -0.023095556 -0.17077547 0.30301535 -0.11658034 -0.06359086 -0.0060004503
A -0.08311745 -0.0056982012 -0.25043094 0.06499471 -0.2100434 0.087252535 0.11314918 -0.2688385 -0.27246663 0.355032 0.20747142 -0.11047778 0.030031068 -0.15807386 0.22934575 -0.5087932 0.22672029 0.30314222 0.37979847 0.18926726 -0.2862716 -0.10535048 0.2838263 -0.061407156 -0.2542002 -0.23479943 -0.026066318 0.27880093 0.07434059 0.11704974 0.4618053 0.4867735 -0.32671642 -0.0024886446 -0.19796209 0.06056818 -0.21494237 -0.26196784 0.18828182 0.66143286 0.28633413 0.26977488 0.23459867 -0.23350719 -0.06441068 -0.13335094 0.26228216 -0.11106761 -0.06525228 -0.008476771
membrane -0.073995605 0.009298856 -0.25094873 0.069347836 -0.23868753 0.09246024 0.12636806 -0.29239595 -0.32870263 0.36356753 0.24602026 -0.115917355 -0.00508983 -0.15292777 0.24094269 -0.51523936 0.2345847 0.28378525 0.42381454 0.20228212 -0.29230058 -0.08836123 0.30275562 -0.051165294 -0.28504452 -0.21870354 -0.06505488 0.2793714 0.12869804 0.11805741 0.4481631 0.50149006 -0.30301583 -0.03537309 -0.18724735 0.06307816 -0.24062417 -0.27891943 0.19844739 0.67870045 0.30814415 0.2505269 0.24174392 -0.24593817 -0.036519956 -0.14656419 0.26331994 -0.15160264 -0.08568647 -0.006483556
bind -0.07346999 0.08060119 -0.22936682 0.077192485 -0.2282861 0.082075305 0.11144285 -0.31016374 -0.39023504 0.4272123 0.2818023 -0.120052375 -0.037281662 -0.16335835 0.29771906 -0.5122295 0.22497113 0.2746209 0.47574592 0.2033032 -0.30120677 -0.12879695 0.35029146 -0.039812144 -0.3220292 -0.20644762 -0.036923908 0.23004995 0.12756565 0.0925404 0.42870933 0.51895046 -0.32960883 -0.027698169 -0.14850284 0.11705185 -0.2535429 -0.31680658 0.18784904 0.6807513 0.31812727 0.269027 0.28700015 -0.24792056 -0.053323604 -0.17964707 0.2962726 -0.2028095 -0.095389225 0.03800039
it -0.083837636 0.022429898 -0.24470116 0.077297375 -0.25176635 0.08360574 0.15420288 -0.27615765 -0.3178195 0.37030658 0.24871723 -0.11761571 -0.017261492 -0.1480065 0.23860821 -0.5142559 0.23916338 0.2969928 0.42939407 0.20973034 -0.28856134 -0.08809534 0.30838597 -0.068524875 -0.29723993 -0.21900934 -0.027157778 0.2475613 0.13542971 0.09315989 0.4319036 0.5113704 -0.32401106 -0.02468304 -0.16922413 0.071669 -0.20832913 -0.29658806 0.18875696 0.6914065 0.325778 0.26051337 0.2544963 -0.2507285 -0.05037825 -0.12892409 0.27603748 -0.15220144 -0.09351624 0.0183344
site -0.085954204 0.040158704 -0.24583857 0.07161091 -0.21524218 0.0715592 0.13138683 -0.29384255 -0.37624556 0.39810917 0.2527689 -0.11866781 -0.0043283603 -0.14240927 0.24387482 -0.49936375 0.2112276 0.28806293 0.42655852 0.20879412 -0.28674352 -0.09881612 0.32888946 -0.052298617 -0.30147827 -0.18905845 -0.05090371 0.25129378 0.11400106 0.11418228 0.43132824 0.49998733 -0.31387502 -0.024203738 -0.19703786 0.07512444 -0.24306911 -0.2899308 0.19302188 0.682416 0.2922561 0.2730421 0.23856063 -0.23554991 -0.042977504 -0.16121021 0.2775229 -0.16660269 -0.07985821 -0.011670667
I -0.09748685 -0.008636738 -0.26172927 0.08248639 -0.2724892 0.10048979 0.13492665 -0.28985846 -0.28374293 0.31816137 0.21724968 -0.13498579 0.004719952 -0.1654472 0.24226974 -0.526986 0.2465925 0.32915828 0.3902617 0.1996241 -0.25149587 -0.09569483 0.2747333 -0.055769324 -0.2592912 -0.22490452 -0.03295562 0.2991775 0.11048066 0.12429783 0.45004073 0.5078317 -0.3367899 -0.03506725 -0.18093836 0.04353357 -0.21953419 -0.29064143 0.16824904 0.72014517 0.3235406 0.27440798 0.22747537 -0.25000122 -0.037678313 -0.11456334 0.25460744 -0.13567364 -0.061246734 -0.0052582934
identified -0.08385326 0.0065903636 -0.26791444 0.057581626 -0.23382808 0.07029856 0.134187 -0.2877483 -0.33048388 0.40363684 0.22532366 -0.13531342 0.026111484 -0.15882394 0.24233131 -0.5469396 0.23748551 0.30492377 0.4309687 0.23591517 -0.30067056 -0.1041982 0.304436 -0.044771113 -0.30128247 -0.23575144 -0.024023676 0.27380016 0.10699146 0.1134819 0.47606993 0.5153274 -0.34523264 -0.010440968 -0.1951193 0.07406647 -0.2506544 -0.29522088 0.2059987 0.70224357 0.31743518 0.30028886 0.24383649 -0.25706846 -0.06631062 -0.15071166 0.28733996 -0.12528497 -0.087843694 -0.0010383569
growth -0.08221701 -0.025988577 -0.25858745 0.07150408 -0.25836876 0.1147042 0.14200193 -0.25925332 -0.2290211 0.28755945 0.21940956 -0.14572074 0.04041199 -0.17402872 0.21622944 -0.5095418 0.25130135 0.32510185 0.346321 0.18931043 -0.2659529 -0.09910936 0.25199354 -0.062337637 -0.23505823 -0.23717897 -0.011799708 0.29912972 0.08807522 0.1318051 0.46758997 0.4902642 -0.31315237 -0.019840337 -0.18708149 0.02254795 -0.2022482 -0.27101976 0.18345919 0.71049774 0.2891134 0.2679982 0.20036544 -0.26238444 -0.056366842 -0.11802217 0.25634503 -0.097516395 -0.06636229 -0.02420523
than -0.07438047 -0.011605174 -0.26338702 0.07962994 -0.2526147 0.10057241 0.123046376 -0.28766158 -0.28222433 0.33931267 0.23280989 -0.13352205 0.020263098 -0.17226258 0.23075506 -0.5163129 0.23553534 0.30368817 0.38429803 0.21040206 -0.28104568 -0.104589686 0.28693992 -0.05429575 -0.25220114 -0.23831622 -0.03741098 0.2915529 0.09995406 0.103816986 0.46066812 0.49814272 -0.3112278 -0.017663948 -0.17806774 0.048065018 -0.19946148 -0.29323444 0.17444165 0.6956737 0.31402856 0.27884236 0.2503251 -0.263375 -0.034210525 -0.12988693 0.25981832 -0.13358633 -0.06614985 0.011247605
into -0.0824326 -0.025814092 -0.24732903 0.06664 -0.24365637 0.1059478 0.14268187 -0.27434665 -0.26745513 0.33023092 0.21753033 -0.125771 0.040923864 -0.16224514 0.2360782 -0.52703995 0.24630208 0.31730723 0.38908097 0.19737102 -0.28455788 -0.09533822 0.2775988 -0.06971246 -0.25420216 -0.2544453 -0.022620536 0.29897445 0.09273336 0.114524536 0.47743773 0.500788 -0.32378107 -0.01821128 -0.20177306 0.054253146 -0.20603392 -0.28743157 0.19007194 0.72078687 0.32043704 0.26640698 0.21950316 -0.26853964 -0.04439904 -0.12818332 0.27608815 -0.1328019 -0.07064475 -0.010351602
increased -0.074433364 0.029791621 -0.2274734 0.06878903 -0.21623376 0.11233495 0.12808451 -0.3145151 -0.35297808 0.39106673 0.261034 -0.10952845 -0.018698601 -0.117891945 0.27520305 -0.4874543 0.2432827 0.29074714 0.43821156 0.18101548 -0.29120374 -0.09243024 0.29777268 -0.07407611 -0.29512477 -0.22988407 -0.028049594 0.25955987 0.13166408 0.12396902 0.44700253 0.5015025 -0.3562799 0.0016745559 -0.17374508 0.10126912 -0.23377435 -0.31774127 0.1701718 0.6642229 0.30641964 0.2497396 0.24481805 -0.22400746 -0.06787936 -0.14637706 0.2642104 -0.18144697 -0.10127027 0.009490485
sequence -0.07664425 0.031648275 -0.25320646 0.06448994 -0.22313479 0.06402357 0.109299734 -0.2639361 -0.34619266 0.40361077 0.23214957 -0.10334293 0.011078127 -0.17244618 0.24474989 -0.50045216 0.21099913 0.26797858 0.41783866 0.21172012 -0.29219964 -0.093195796 0.3147247 -0.032899603 -0.28502193 -0.1971246 -0.060321983 0.23070678 0.09303781 0.108915016 0.4308381 0.4925372 -0.29044306 -0.02078137 -0.20564729 0.07029489 -0.24431169 -0.27391142 0.2293531 0.66235334 0.2887202 0.27393737 0.24838041 -0.22966987 -0.039106157 -0.1503626 0.26086757 -0.12008308 -0.06953047 -0.0013714836
suggest -0.056499295 0.045324426 -0.28475323 0.07780699 -0.20622829 0.01696721 0.11307969 -0.2532269 -0.32112226 0.42158765 0.24853297 -0.088348836 0.03365051 -0.19774604 0.21508989 -0.5404672 0.20929003 0.26595584 0.42590788 0.2415257 -0.2958315 -0.12107166 0.33334857 -0.031602126 -0.27554318 -0.21867654 -0.06595952 0.2114004 0.060126696 0.12238057 0.48244566 0.53956294 -0.28799644 -0.03474857 -0.216004 0.052117813 -0.23953821 -0.23489548 0.2833152 0.71454275 0.31668773 0.28985468 0.3015786 -0.24952726 -0.01438456 -0.175892 0.30935335 -0.08315536 -0.06433359 -0.016430657
their -0.086103335 0.02976458 -0.24120341 0.08056306 -0.2347999 0.08281268 0.14119302 -0.30027792 -0.3376299 0.38177112 0.23282088 -0.12486336 0.00206463 -0.15137239 0.25527662 -0.5005407 0.23048143 0.2954198 0.42162582 0.20965569 -0.27273512 -0.09148934 0.29900444 -0.055422157 -0.2882919 -0.22126178 -0.043060336 0.25166932 0.111220434 0.09323751 0.43189847 0.49527457 -0.32614526 -0.022305844 -0.17465158 0.083186865 -0.23000112 -0.30507705 0.18522632 0.67999524 0.31085163 0.26382056 0.23424788 -0.2529718 -0.058673844 -0.15162478 0.26339567 -0.16349345 -0.07876362 0.00063996494
filament -0.06424295 0.014655071 -0.24525091 0.061478984 -0.2443713 0.06287745 0.116211236 -0.27426374 -0.30362904 0.35408014 0.24196824 -0.11202082 0.0049211583 -0.16290778 0.22773401 -0.49255148 0.21255213 0.2749721 0.39110485 0.19555715 -0.26975483 -0.08250417 0.27995145 -0.033247046 -0.26995298 -0.19566453 -0.059056595 0.2642367 0.10387606 0.105534405 0.40552953 0.4816746 -0.27242982 -0.029798415 -0.18374614 0.052041613 -0.20402215 -0.24846984 0.20293821 0.6697407 0.2871791 0.25320414 0.23431349 -0.24081272 -0.01478742 -0.11647387 0.2490606 -0.12855293 -0.04833873 -0.0010895191
affinity -0.06868584 0.026264155 -0.24238044 0.06257141 -0.20852897 0.053445555 0.1250766 -0.27314374 -0.33083117 0.3965901 0.22871715 -0.095613815 0.027429014 -0.172046 0.24458112 -0.50631315 0.22206701 0.2785001 0.41752428 0.21484159 -0.27879873 -0.09244367 0.30041552 -0.042549226 -0.2733349 -0.21084419 -0.07409309 0.24030577 0.09197397 0.10575872 0.4187045 0.49416888 -0.26906863 -0.031799383 -0.18143505 0.052457877 -0.21687947 -0.25877097 0.22265275 0.6836956 0.28118286 0.27387425 0.27485898 -0.2467615 -0.022814423 -0.14991528 0.25293505 -0.13786249 -0.045926675 -0.004243577
Acanthamoeba -0.08311152 0.0036801728 -0.23526238 0.085247904 -0.23193154 0.07564761 0.12050853 -0.28003362 -0.30805534 0.354126 0.23759721 -0.1168965 0.002067129 -0.1713391 0.2400639 -0.5075178 0.23314403 0.28019884 0.40169698 0.20203513 -0.25690225 -0.09820273 0.30601197 -0.04304602 -0.27910912 -0.21404962 -0.063005686 0.2565488 0.10600406 0.11913161 0.41684213 0.5014806 -0.30390257 -0.020478828 -0.17315541 0.04428763 -0.22677238 -0.26974213 0.1948762 0.6771932 0.2956932 0.26202294 0.24193361 -0.2512893 -0.042881247 -0.13880776 0.26717445 -0.13576236 -0.06061551 0.012217859
similar -0.080417305 0.025251592 -0.23776193 0.08152323 -0.19969381 0.07173076 0.11798762 -0.25660035 -0.32827765 0.39860344 0.21571079 -0.095803365 0.022041373 -0.16253576 0.25142407 -0.5016854 0.22355936 0.26287156 0.40790284 0.21207261 -0.28598207 -0.09888434 0.31924367 -0.04971714 -0.28292447 -0.21674806 -0.036972877 0.22572362 0.07555737 0.09624248 0.43405846 0.49228108 -0.3123785 -0.017247988 -0.1728212 0.07647703 -0.23901486 -0.26445964 0.21228455 0.634877 0.29494235 0.26919973 0.26953182 -0.2306627 -0.05024852 -0.17319983 0.26134595 -0.12821776 -0.06757142 0.007048565
involved -0.09269242 0.0610737 -0.27607766 0.075599834 -0.23540005 0.05955233 0.13101988 -0.2812525 -0.3791146 0.42939693 0.27236468 -0.099306785 0.004030957 -0.18056442 0.23715314 -0.5268549 0.19841291 0.26790306 0.4375332 0.2294951 -0.28990155 -0.1151618 0.3355581 -0.035531566 -0.31722933 -0.18959334 -0.076694116 0.23252974 0.10875495 0.09293938 0.45150685 0.5108418 -0.29647267 -0.036003083 -0.18348394 0.07013075 -0.2560389 -0.25308895 0.22467175 0.6913396 0.33620065 0.27841684 0.28576034 -0.2554326 -0.034275904 -0.14573614 0.2956145 -0.1448566 -0.0800052 -0.0122125065
role -0.0723822 0.0146039985 -0.24726751 0.063960895 -0.23175776 0.066773504 0.11654615 -0.2749096 -0.32201198 0.3963513 0.24593253 -0.0953721 0.01943716 -0.16761045 0.22600317 -0.51654226 0.2105324 0.27040547 0.40237308 0.21590649 -0.29540506 -0.109645955 0.30297238 -0.042377915 -0.2729568 -0.21282277 -0.055640504 0.25237647 0.08367378 0.10731805 0.4491148 0.49344453 -0.30633977 -0.037678204 -0.20229504 0.06261334 -0.23455815 -0.25623137 0.22340927 0.6821996 0.31516662 0.26959854 0.2529715 -0.25282153 -0.028210033 -0.15017821 0.2692176 -0.121628165 -0.06556481 -0.0010137714
presence -0.08301057 0.029220378 -0.22516465 0.07834093 -0.2623586 0.11440436 0.1550367 -0.29347506 -0.35504293 0.34896478 0.2500519 -0.0970923 -0.028857807 -0.14121568 0.2513687 -0.49493322 0.22354767 0.27598035 0.40840557 0.18775503 -0.26576778 -0.07917127 0.30381352 -0.0777448 -0.30801192 -0.2078286 -0.04774446 0.27646983 0.13825262 0.09806464 0.4152168 0.47734207 -0.31609446 -0.012923619 -0.1611894 0.081662685 -0.22595535 -0.30200508 0.14389353 0.67389244 0.3269821 0.2433242 0.22418363 -0.2306975 -0.044728186 -0.1093429 0.2571692 -0.19244355 -0.08475215 0.0031682772
UL8 -0.057673726 0.08996493 -0.23064283 0.06854358 -0.27396405 0.14219828 0.17550439 -0.32901487 -0.3808353 0.35883635 0.21835352 -0.1545051 -0.036944475 -0.06799162 0.2737507 -0.439979 0.2485289 0.33844087 0.49676445 0.19614801 -0.28108406 -0.11267223 0.2942005 -0.09598156 -0.31537473 -0.2371092 0.0057426193 0.31636703 0.16942962 0.089017265 0.37992004 0.4905337 -0.40612918 -0.015958695 -0.14673133 0.1142547 -0.2838847 -0.34695128 0.12445287 0.62965715 0.31979945 0.24574584 0.20396298 -0.21438664 -0.07968961 -0.11580979 0.28763375 -0.24342228 -0.120274 0.014483084
phosphoprotein -0.06964886 0.036820997 -0.21558279 0.11496634 -0.17845304 0.16418289 0.17397434 -0.31147215 -0.39714754 0.28671476 0.21685481 -0.15249895 -0.049736414 -0.03821371 0.32864505 -0.46086267 0.27948514 0.36946148 0.46984768 0.1843882 -0.28959268 -0.08886541 0.34164202 -0.04571865 -0.3472409 -0.20606534 0.04849727 0.32223088 0.24958096 0.15963987 0.42613474 0.5173239 -0.5133717 0.003394545 -0.21616745 0.21202466 -0.29397213 -0.27918327 0.06614002 0.5847629 0.3105499 0.20188345 0.1880236 -0.2172828 -0.12609448 -0.15766296 0.28350767 -0.21149375 -0.11292687 -0.038912524
during -0.0905842 -0.027242655 -0.24644578 0.06534488 -0.29061058 0.1433539 0.16565895 -0.28434598 -0.26433158 0.29489487 0.2355453 -0.15013778 0.0021002067 -0.15148295 0.24259219 -0.5334138 0.27840656 0.3350619 0.3768428 0.1718775 -0.2609904 -0.06884441 0.26376438 -0.084268324 -0.2640019 -0.2584633 -0.0009783588 0.32770437 0.13805126 0.11803232 0.45406702 0.49994236 -0.3596394 -0.015047181 -0.19444989 0.04765644 -0.19544153 -0.32619613 0.14207388 0.71515054 0.318445 0.24751128 0.20319693 -0.2700244 -0.06253487 -0.09918088 0.26581717 -0.14896625 -0.08698298 0.0021984652
UL52 -0.06355135 0.108391486 -0.22930628 0.081858546 -0.28314722 0.14266059 0.1946609 -0.3180148 -0.3950849 0.3475343 0.23451595 -0.1347974 -0.06852558 -0.052449387 0.29265448 -0.4338489 0.25242856 0.35014236 0.50228286 0.17689082 -0.28545088 -0.109516025 0.3194154 -0.10291853 -0.3299048 -0.22450829 0.00045546255 0.318911 0.20321 0.08685608 0.36742228 0.4959789 -0.41932377 -0.019478003 -0.15960278 0.13577832 -0.28122473 -0.35829872 0.122137755 0.6192254 0.31920016 0.21514514 0.20027828 -0.20061968 -0.07907087 -0.10392263 0.27820963 -0.26029485 -0.13601556 0.007841835
repair -0.09311744 0.038652077 -0.25215623 0.051143337 -0.21270241 0.0550711 0.107346185 -0.24516268 -0.34753552 0.4236898 0.22585773 -0.08565769 0.046123806 -0.18208985 0.22874202 -0.52812475 0.19657768 0.27739838 0.422119 0.24311565 -0.31326324 -0.1266041 0.32305035 -0.03834153 -0.27161855 -0.2274339 -0.04844352 0.24972203 0.06314177 0.12320938 0.46892694 0.512711 -0.30392942 -0.013278205 -0.20329589 0.042272914 -0.27315813 -0.24195376 0.2465584 0.64667076 0.28723004 0.29708043 0.28055888 -0.25489044 -0.04887962 -0.17781074 0.2942316 -0.11562668 -0.06459759 -0.024788693
profilins -0.086783335 0.00922906 -0.256611 0.06779463 -0.21036631 0.07755611 0.115012534 -0.2632496 -0.3120868 0.38840532 0.22530125 -0.10750821 0.052322913 -0.19093372 0.23853664 -0.52797294 0.21815175 0.28704333 0.38615415 0.21176714 -0.28728068 -0.10787511 0.3016523 -0.03443291 -0.25266555 -0.23162563 -0.062756136 0.2524181 0.06621811 0.11223309 0.46795452 0.5136018 -0.2945537 -0.030232778 -0.206668 0.040091168 -0.24438074 -0.25483516 0.21426983 0.672136 0.29008666 0.2876823 0.24923395 -0.25956994 -0.030500367 -0.16331147 0.2766979 -0.105556175 -0.057014536 -0.0061747576
vitro -0.08174965 0.00556188 -0.2386951 0.054064844 -0.22888441 0.06346891 0.12523489 -0.2589657 -0.30052212 0.37083337 0.23716341 -0.10924416 0.03198416 -0.1659201 0.21321239 -0.489605 0.21811658 0.27849665 0.37667933 0.20999175 -0.2780689 -0.109964885 0.27361044 -0.036329165 -0.27394655 -0.21473832 -0.039245598 0.2451635 0.076686464 0.10120493 0.45233214 0.48292446 -0.29763836 -0.02879741 -0.16902766 0.04224831 -0.2201202 -0.25808612 0.20533958 0.6745286 0.3107568 0.27642906 0.25136408 -0.24727194 -0.03695646 -0.1359294 0.25967464 -0.11512462 -0.046242908 -0.009459117
type -0.07642441 -0.05256329 -0.27113646 0.057416044 -0.28266808 0.107768804 0.1506358 -0.28601953 -0.21932884 0.31160617 0.19876218 -0.1401876 0.06497123 -0.16202158 0.24345079 -0.5336335 0.27947962 0.37377876 0.39517432 0.21061638 -0.25899303 -0.13167433 0.2573579 -0.088120066 -0.22896744 -0.25358382 0.019180382 0.34885204 0.111627094 0.13295622 0.48965034 0.52077955 -0.3853872 -0.04171011 -0.22195688 0.01550645 -0.2250888 -0.2964116 0.17995384 0.71518207 0.32969695 0.2642048 0.2326214 -0.25402042 -0.059192434 -0.09934804 0.2835441 -0.1185134 -0.0529992 -0.016619885
antibodies -0.08570435 0.0100872405 -0.22032446 0.07306204 -0.2725612 0.15700658 0.17331696 -0.310585 -0.2603169 0.2793814 0.23585437 -0.16265818 -0.018942015 -0.12943448 0.276105 -0.50369376 0.2711976 0.3293877 0.38236153 0.16128275 -0.24922118 -0.08051055 0.25923073 -0.102534086 -0.26384488 -0.22817959 0.014845579 0.31818193 0.16685566 0.085432984 0.43885112 0.48169446 -0.35756445 -0.022825772 -0.13790971 0.04742887 -0.16844854 -0.34857193 0.087461546 0.71446854 0.3273675 0.22765702 0.18667577 -0.26212814 -0.070229776 -0.09678335 0.2440058 -0.18612105 -0.09645251 0.023926985
beta -0.10245387 -0.04382276 -0.23749472 0.06936931 -0.27041307 0.16931674 0.15416372 -0.27951908 -0.24729422 0.26711124 0.21422713 -0.1509948 0.017443432 -0.14326435 0.27078852 -0.53164 0.29725355 0.37014613 0.38219795 0.18613724 -0.24174988 -0.08374865 0.26481053 -0.079586156 -0.27051684 -0.2598109 0.017887546 0.37160742 0.14634953 0.12324889 0.48369566 0.5186809 -0.3924113 -0.016971733 -0.18664473 0.07023141 -0.18888563 -0.3223439 0.13894866 0.7272793 0.3334666 0.25164872 0.1824114 -0.26542562 -0.08401738 -0.099931374 0.25099796 -0.16644879 -0.06336394 -0.010153263
associated -0.07870304 0.03932227 -0.2207532 0.07474973 -0.2230507 0.12233185 0.13231301 -0.31653285 -0.3693387 0.38835734 0.2679801 -0.117413715 -0.036734965 -0.12946616 0.27765405 -0.50922865 0.2538324 0.29542688 0.43210548 0.20113406 -0.2986138 -0.080463536 0.3190981 -0.06579049 -0.31651688 -0.21624294 -0.04389442 0.2784567 0.13877714 0.09371927 0.4448868 0.50678116 -0.3573605 -0.013697751 -0.15847084 0.10185634 -0.23895055 -0.32481647 0.15650648 0.69886637 0.31673363 0.25313902 0.2328226 -0.25122976 -0.061083253 -0.14685665 0.25775433 -0.20035328 -0.09798703 0.005789851
required -0.085303195 0.032464758 -0.24869227 0.08366572 -0.21519057 0.08946904 0.12230559 -0.27672255 -0.34585783 0.3989552 0.23494688 -0.09951894 0.026535716 -0.16105233 0.26625326 -0.5058277 0.21898042 0.30193242 0.4370738 0.20780046 -0.30074042 -0.10197056 0.3314724 -0.047452595 -0.290445 -0.2214333 -0.040964063 0.26924044 0.09799178 0.10418034 0.43947577 0.5091247 -0.33186305 -0.012139418 -0.18307069 0.065254256 -0.24281244 -0.29262277 0.20729485 0.65701413 0.31016955 0.2789553 0.25632185 -0.25531197 -0.053956542 -0.15247805 0.2805367 -0.1527508 -0.07701607 0.003756586
UL5 -0.071461946 0.089883894 -0.2229739 0.06976961 -0.2622872 0.12487124 0.1594547 -0.32191375 -0.3746879 0.3646919 0.22038293 -0.13795659 -0.04800916 -0.078432456 0.27094665 -0.45930862 0.25970548 0.32726762 0.500123 0.20577691 -0.28458035 -0.11428169 0.30052477 -0.08926294 -0.322986 -0.23182905 -0.002612914 0.30577138 0.18070231 0.09369874 0.40414557 0.50199217 -0.395984 -0.023751514 -0.1532884 0.1270331 -0.27834597 -0.34149224 0.16420478 0.61903745 0.3298647 0.24765474 0.23974074 -0.20445353 -0.058487006 -0.13809595 0.29971087 -0.21309981 -0.11897219 -0.006879482
2 -0.09940329 -0.04091734 -0.2567899 0.06885608 -0.2551141 0.16136664 0.16517729 -0.29065293 -0.24532697 0.27608117 0.22290353 -0.1458723 0.021041222 -0.14372376 0.25214484 -0.51909757 0.2782441 0.36485934 0.39457732 0.18641894 -0.27067697 -0.1068723 0.272613 -0.08968201 -0.25816393 -0.26653382 0.013854574 0.36350158 0.13135119 0.12390768 0.47143817 0.51457626 -0.3811678 -0.01630877 -0.19101259 0.061050415 -0.19911711 -0.31677222 0.14190863 0.7189552 0.3059223 0.2713635 0.18415348 -0.26018575 -0.07120908 -0.12145808 0.25412512 -0.14019895 -0.06358699 -0.018663391
function -0.08652708 0.035115182 -0.2454677 0.06281028 -0.23442528 0.0760192 0.13214219 -0.27920875 -0.33592412 0.383315 0.22882585 -0.10111044 0.017555557 -0.1658632 0.24118932 -0.51459074 0.22045723 0.2861225 0.418565 0.20037718 -0.29237828 -0.09391631 0.3050756 -0.049839225 -0.27692124 -0.21077412 -0.05466283 0.24081616 0.10082155 0.11972598 0.42246813 0.5062028 -0.30533388 -0.023467457 -0.1955084 0.057328712 -0.23591158 -0.26842102 0.20867035 0.67156816 0.30870053 0.2643784 0.25252447 -0.24861889 -0.05168905 -0.14668182 0.26571655 -0.13800147 -0.06268935 -0.0033790246
effect -0.08919681 -0.025417961 -0.2477874 0.068901084 -0.26492998 0.095016114 0.15456647 -0.2789061 -0.27120328 0.30923578 0.2196797 -0.11919757 0.039187603 -0.1748297 0.2244715 -0.53679794 0.26836988 0.3314011 0.36666936 0.19864936 -0.25156882 -0.07522618 0.27498037 -0.07243847 -0.25381413 -0.24376297 -0.027521743 0.32530722 0.08872182 0.109177016 0.47013745 0.50178635 -0.32046902 -0.038898446 -0.19916533 0.033276565 -0.18922865 -0.30410364 0.19670098 0.7232643 0.2996879 0.28447857 0.22647953 -0.25538927 -0.039456688 -0.10208432 0.26237836 -0.12436353 -0.0446828 -0.002575706
microM -0.058841642 -0.014318683 -0.24238715 0.073663674 -0.20734258 0.09924259 0.115136035 -0.2629048 -0.29340494 0.35631007 0.20784222 -0.10977972 0.02822565 -0.14503884 0.25114858 -0.51020837 0.23577963 0.30648914 0.3890479 0.18717039 -0.29245213 -0.12113473 0.28652292 -0.03421004 -0.25732195 -0.23528612 -0.022842288 0.276112 0.09805513 0.13674743 0.47248286 0.4996251 -0.3312704 -0.026183512 -0.19166505 0.08138278 -0.22916743 -0.25712842 0.1768093 0.6626005 0.28676233 0.27629396 0.23117587 -0.23856647 -0.061028313 -0.16257568 0.2623243 -0.11597136 -0.057285357 -0.010135084
containing -0.06386803 0.012857418 -0.21621078 0.0646999 -0.23343176 0.115800746 0.13619065 -0.3026655 -0.31235385 0.37073028 0.24415095 -0.12679878 0.004466186 -0.12091835 0.26061773 -0.5124092 0.2463734 0.30608952 0.41411424 0.19114056 -0.28887197 -0.088467784 0.2992533 -0.073671155 -0.27728397 -0.23719145 -0.0036701423 0.29189596 0.12978949 0.10913263 0.4450908 0.48430958 -0.35056242 -0.007850852 -0.18062513 0.0785944 -0.23920703 -0.32288325 0.16079074 0.6808472 0.3201326 0.25512823 0.23432642 -0.24156743 -0.06826238 -0.13086566 0.2647212 -0.16504544 -0.08843215 0.017543817
cyclin-dependent -0.07843859 -0.02042363 -0.30930668 0.11932837 -0.22969323 0.15223098 0.15520617 -0.34563968 -0.35188287 0.40025288 0.28444985 -0.11635073 -0.029160844 -0.082765505 0.3267473 -0.5126449 0.29732907 0.31609854 0.44712007 0.13643986 -0.3415654 -0.11270684 0.29552832 -0.055688277 -0.32190278 -0.29076418 -0.10617006 0.35723925 0.10810406 0.20069908 0.47019097 0.52319694 -0.37270668 0.06758698 -0.22243784 0.12765548 -0.2540672 -0.31420007 0.22561796 0.7025578 0.3198234 0.2794785 0.20061678 -0.22687115 -0.08907023 -0.19805092 0.23600018 -0.20185484 -0.066239215 -0.0757037
shown -0.07760935 0.016715892 -0.27613643 0.07108897 -0.2308717 0.04351255 0.12724459 -0.27954134 -0.330623 0.4069986 0.24757932 -0.10971619 0.0293459 -0.17290108 0.21589464 -0.5382147 0.21938242 0.2840034 0.41732618 0.24272506 -0.30001587 -0.0959543 0.30881566 -0.029086703 -0.30296248 -0.22993025 -0.05113398 0.23343174 0.08317805 0.09514288 0.46234897 0.49799842 -0.30166078 -0.02008667 -0.19228067 0.05310796 -0.2545827 -0.27739632 0.23286094 0.6912418 0.30586523 0.27979288 0.26702484 -0.2584317 -0.035294585 -0.16727112 0.29139858 -0.13010922 -0.064034484 -0.0075280857
sites -0.07197471 -0.0025388028 -0.27154538 0.06424612 -0.24271141 0.077788316 0.10922872 -0.27911943 -0.30890012 0.36554694 0.22176977 -0.12622513 0.05559972 -0.18894324 0.22943059 -0.5538417 0.24609317 0.31541926 0.38939807 0.20734116 -0.29000497 -0.106188364 0.2994274 -0.043992706 -0.24563475 -0.2273441 -0.032623883 0.29773927 0.09002411 0.11144133 0.48043463 0.5313869 -0.32007003 -0.020925816 -0.21254861 0.03668347 -0.23880225 -0.2710294 0.23150668 0.7108701 0.29956788 0.28687996 0.2533873 -0.26845592 -0.05065965 -0.12830216 0.26311535 -0.09735928 -0.046249226 -0.011958361
complexes -0.05564015 0.05707693 -0.20463932 0.09605238 -0.2035142 0.10890889 0.12617871 -0.30605617 -0.38352805 0.41997138 0.264752 -0.11564708 -0.037985865 -0.11490665 0.28785488 -0.47837147 0.23860294 0.26990622 0.44841254 0.18406352 -0.29880357 -0.0936991 0.3309185 -0.058688786 -0.3089368 -0.22322504 -0.038242906 0.23420195 0.14051583 0.096024446 0.40794998 0.4751707 -0.32201916 -0.004474058 -0.15106058 0.10683916 -0.25048518 -0.32449904 0.16942546 0.6382391 0.31989905 0.24122036 0.26359385 -0.23451217 -0.061693404 -0.15336956 0.26557857 -0.21880756 -0.09953354 0.02975115
synthesis -0.098539256 -0.031864267 -0.25701338 0.08599024 -0.2942291 0.15589863 0.17159778 -0.28388962 -0.22726306 0.2530387 0.22193913 -0.15438016 0.017755708 -0.13509314 0.23619907 -0.51455015 0.27820483 0.34231487 0.3460436 0.17085114 -0.24870743 -0.087374635 0.23994975 -0.092050105 -0.25347954 -0.2611153 0.008816077 0.35329586 0.12538767 0.124319606 0.4532629 0.47883388 -0.35059878 -6.718816e-05 -0.19048706 0.034628164 -0.17498301 -0.33137026 0.110601366 0.7167556 0.31955588 0.24706404 0.16840707 -0.26375332 -0.07619857 -0.07671581 0.25238112 -0.15767846 -0.0685518 -0.00025495054
adhesion -0.062267035 0.044082344 -0.22740592 0.082809605 -0.20388038 0.08504479 0.10878952 -0.279828 -0.34716606 0.41832227 0.2547653 -0.10281329 0.010684911 -0.14566097 0.26622832 -0.50618035 0.23475815 0.27094033 0.44182926 0.22142671 -0.29632035 -0.11818408 0.32012516 -0.041930836 -0.29023647 -0.21722543 -0.041313395 0.254036 0.114449345 0.11019365 0.45781115 0.49082044 -0.3155785 0.003827688 -0.1904536 0.093925044 -0.25701278 -0.29051912 0.19900233 0.6491602 0.31819358 0.26538345 0.2505283 -0.23941684 -0.047818355 -0.18623582 0.2818724 -0.17939653 -0.07535015 0.012112743
whereas -0.07697864 0.049895093 -0.21760724 0.065679014 -0.22591333 0.10953012 0.12879345 -0.3089554 -0.37007195 0.39858547 0.24062157 -0.11355987 -0.03609876 -0.11416704 0.2708372 -0.4914356 0.22389567 0.2901177 0.43056193 0.2025908 -0.30079836 -0.09145017 0.31892174 -0.06184597 -0.29469025 -0.22017577 -0.02488122 0.26594803 0.11710163 0.1066765 0.42811814 0.49135628 -0.34829664 -0.009146576 -0.16282861 0.09789187 -0.24392942 -0.30503306 0.17537975 0.6445333 0.29679766 0.24750954 0.2429778 -0.22044337 -0.050900478 -0.1425326 0.27121118 -0.19103308 -0.09511404 0.0032515218
three -0.08636454 0.01828233 -0.24131581 0.05692901 -0.22483194 0.077169895 0.12152963 -0.2821347 -0.3201191 0.39826268 0.22518012 -0.12105459 0.013882856 -0.16113046 0.24628283 -0.52912325 0.2434664 0.30981967 0.4183843 0.22530359 -0.29185423 -0.109695695 0.30843902 -0.060690213 -0.28164345 -0.22962824 -0.044395987 0.26957855 0.09519401 0.102618374 0.4513245 0.5184559 -0.31878832 -0.00549017 -0.19346404 0.066209115 -0.24472263 -0.28874406 0.2193718 0.67508924 0.31438172 0.27182627 0.2515467 -0.25299412 -0.0592718 -0.14267208 0.26639125 -0.14338164 -0.09201891 -0.0106147695
molecules -0.07384957 0.048250515 -0.22497973 0.07501815 -0.21855722 0.094815426 0.13418241 -0.29426938 -0.36488226 0.41193798 0.23853528 -0.09080782 -0.004608803 -0.12352613 0.26096275 -0.4980221 0.23831348 0.27937183 0.46106532 0.2138687 -0.29448625 -0.09176073 0.33140785 -0.059884794 -0.31220046 -0.21494256 -0.04291781 0.24627693 0.12463279 0.112504214 0.4298259 0.5040062 -0.35013267 -0.0019076952 -0.17941254 0.08826268 -0.24760081 -0.29659876 0.1774095 0.65767527 0.3145171 0.26173997 0.2665416 -0.22578044 -0.06602283 -0.17130028 0.28062794 -0.1844948 -0.080533706 0.021464478
skeletal -0.119974494 -0.06357431 -0.28742367 0.076717995 -0.36201787 0.19097154 0.19744891 -0.2966494 -0.1587083 0.1711331 0.2307716 -0.19033617 0.022548925 -0.18138374 0.2363025 -0.5560905 0.3337611 0.41677773 0.30037102 0.14136365 -0.21498662 -0.063734695 0.2105682 -0.12529905 -0.2372893 -0.294778 0.037520602 0.39524716 0.16334149 0.11179712 0.47935572 0.4979865 -0.38123354 -0.013107658 -0.20000899 -0.0035098712 -0.122274056 -0.35797143 0.08380514 0.7920998 0.35989755 0.26616523 0.15822563 -0.31650493 -0.06911476 -0.034563053 0.25603732 -0.15251458 -0.07728458 -0.017392205
effects -0.07780863 -0.023794638 -0.26516733 0.07674842 -0.2623737 0.095518276 0.12857002 -0.28036815 -0.27865845 0.34267077 0.21959256 -0.113122106 0.06082734 -0.18284428 0.22651944 -0.54896057 0.24918054 0.3183891 0.37823328 0.21485467 -0.27581897 -0.09988599 0.288186 -0.062959425 -0.237368 -0.24144706 -0.049875412 0.3124156 0.089178905 0.12314249 0.47167712 0.5186489 -0.3179033 -0.024677131 -0.21005581 0.023496578 -0.22349502 -0.2823758 0.22205092 0.71945775 0.29662862 0.27797493 0.23441122 -0.27368835 -0.05330423 -0.12732443 0.2587766 -0.09957648 -0.050713655 -0.001880202
isoforms -0.14287625 -0.094053395 -0.27887744 0.095728315 -0.3829931 0.24618897 0.24065752 -0.3013868 -0.13071838 0.10882788 0.21053094 -0.22511064 -0.016948117 -0.12993608 0.24667972 -0.5557403 0.35600093 0.4460238 0.30336037 0.13366716 -0.18302672 -0.06255698 0.20549369 -0.16327366 -0.22422512 -0.29896426 0.07561534 0.4500833 0.20394477 0.12638432 0.48952615 0.49450147 -0.4254883 -0.023157176 -0.18705155 -0.009670166 -0.106955595 -0.4025739 0.02693699 0.8248378 0.3673597 0.24312976 0.10334078 -0.32246387 -0.10038649 0.023836687 0.24931744 -0.17145203 -0.10057878 -0.0223136
show -0.06706607 0.028486563 -0.27617908 0.068373956 -0.20624669 0.023006413 0.09689449 -0.26741683 -0.35445952 0.44313136 0.24680541 -0.09763827 0.02183833 -0.18535349 0.20715727 -0.53328806 0.21751195 0.2826634 0.44708014 0.24760923 -0.3293255 -0.09989597 0.32694647 -0.013406318 -0.2804746 -0.20831074 -0.057645947 0.20311506 0.07863488 0.11594086 0.45868573 0.5358563 -0.28951505 -0.009515406 -0.22061236 0.060345456 -0.272632 -0.24542122 0.27495193 0.6785644 0.28096116 0.29853535 0.28402898 -0.25038373 -0.043078385 -0.16882193 0.30296758 -0.10207107 -0.08163844 -0.032992166
high -0.0814658 0.012318131 -0.24166472 0.08078136 -0.23294081 0.085583374 0.13048111 -0.28822923 -0.30261874 0.3648562 0.24448444 -0.10787639 0.017980574 -0.14979066 0.2516666 -0.5213458 0.24927424 0.30336958 0.4041236 0.19196096 -0.27587485 -0.10132117 0.28458434 -0.06522792 -0.28079063 -0.2250565 -0.050237734 0.27506763 0.09311994 0.115191795 0.44072875 0.49344867 -0.31179148 -0.0120421825 -0.17569299 0.06925496 -0.22495863 -0.28607082 0.20592053 0.68886656 0.30889344 0.27345213 0.23365545 -0.24428073 -0.05394549 -0.14716583 0.24867374 -0.13854127 -0.06232229 -0.0022460618
form -0.07073998 0.051027928 -0.22191486 0.07482238 -0.20457123 0.07335547 0.12369175 -0.28662983 -0.3588915 0.42540216 0.23921172 -0.10878934 0.0011789291 -0.1474447 0.2666972 -0.4954216 0.21551451 0.28183702 0.45017883 0.20267701 -0.29871717 -0.103186786 0.3332114 -0.037964396 -0.30589044 -0.22484064 -0.044918425 0.22838654 0.10743986 0.11721958 0.44685715 0.50841445 -0.31607375 -0.008532819 -0.17540473 0.09165387 -0.255594 -0.28801042 0.20393328 0.6579471 0.30654547 0.25747955 0.27533296 -0.22821558 -0.047735926 -0.16524453 0.2770829 -0.15267922 -0.098883435 0.007378785
formation -0.0698195 -0.012427056 -0.25984123 0.076130316 -0.24638842 0.090488374 0.13404556 -0.27893442 -0.28691438 0.33593127 0.23530526 -0.13265277 0.026143584 -0.16921316 0.22447571 -0.5183483 0.24868447 0.30759627 0.37839308 0.20010109 -0.26443624 -0.085313246 0.2666422 -0.0560568 -0.25070557 -0.2236492 -0.05135085 0.2928448 0.0887961 0.11543683 0.4399495 0.48067427 -0.31095284 -0.01053805 -0.18654694 0.053964473 -0.2083962 -0.2646329 0.19827268 0.68994087 0.30287194 0.27429184 0.22046004 -0.24265769 -0.03745622 -0.11827497 0.24415575 -0.13314544 -0.06804955 -0.014386517
nucleocapsid -0.05969776 0.027914934 -0.20405455 0.09186784 -0.17808598 0.16366905 0.16517407 -0.28013146 -0.36862603 0.29656613 0.18632418 -0.13166969 -0.03436994 -0.060346525 0.29989064 -0.45644307 0.28118268 0.34720743 0.44676155 0.18103126 -0.28395218 -0.107146375 0.30229813 -0.04662382 -0.31366935 -0.21571048 0.055029746 0.3162372 0.19542027 0.16773216 0.4451467 0.492341 -0.47096816 0.006279458 -0.21372062 0.16921178 -0.2814809 -0.27384338 0.09452212 0.58303905 0.29472348 0.20700413 0.18845026 -0.22114787 -0.11445074 -0.15201195 0.26149935 -0.18855253 -0.10409282 -0.031456027
domains -0.07845637 0.0033583562 -0.25555524 0.07964836 -0.23152074 0.09078566 0.12207191 -0.28376636 -0.3029744 0.36498716 0.22533192 -0.1143786 0.02471814 -0.15716644 0.23538525 -0.5097843 0.22787152 0.29992002 0.4071526 0.19788842 -0.28722307 -0.09070588 0.28862128 -0.05111788 -0.28104457 -0.21503179 -0.02760055 0.281905 0.1131602 0.10935308 0.4481968 0.504195 -0.3288685 -0.010279743 -0.17905207 0.06333014 -0.23338257 -0.2883938 0.19166464 0.68468136 0.30256617 0.26566455 0.22930913 -0.24605308 -0.049528044 -0.13917261 0.26813513 -0.14143866 -0.059278596 0.0071914177
functions -0.085987814 0.011137011 -0.2669413 0.065020114 -0.23219141 0.07382967 0.11266141 -0.2570181 -0.3280516 0.39558962 0.21688695 -0.10733642 0.022917787 -0.17038462 0.23546372 -0.5190183 0.21354531 0.28732023 0.40773147 0.21081272 -0.28909537 -0.10720335 0.3160614 -0.03999706 -0.27068612 -0.20505373 -0.063030176 0.24473721 0.09119293 0.12094853 0.45128238 0.50620633 -0.3044148 -0.011030818 -0.20767781 0.06665749 -0.2452267 -0.24941368 0.2341342 0.6650255 0.28811726 0.27286848 0.26134807 -0.25941882 -0.031813957 -0.16717906 0.27384952 -0.11247942 -0.065941945 -0.008740958
nucleotide -0.075454205 0.0037957192 -0.23697351 0.060200218 -0.2295394 0.07658586 0.11532342 -0.27690735 -0.3033159 0.37115577 0.22820817 -0.11940751 0.027553685 -0.15852535 0.24749002 -0.4958054 0.2390116 0.28435448 0.38910356 0.20187926 -0.27185568 -0.09609953 0.29799303 -0.04820636 -0.26925504 -0.22529972 -0.038442887 0.2530141 0.08392049 0.11320652 0.44787407 0.49051973 -0.30794436 -0.020818004 -0.18430398 0.07085799 -0.22218029 -0.2642836 0.18805794 0.6673035 0.2897879 0.2681266 0.24821918 -0.24225684 -0.048959218 -0.135456 0.24724747 -0.12359 -0.044531774 0.002298781
H4 -0.06986328 0.029096616 -0.28138494 0.05836443 -0.20862924 0.11137227 0.09351876 -0.26749486 -0.33947518 0.47532853 0.18150924 -0.0931807 0.02419199 -0.116349325 0.2513924 -0.5673618 0.24466613 0.30598506 0.44054374 0.23278022 -0.31380576 -0.11728088 0.33537105 -0.029858895 -0.277744 -0.27308813 -0.033072032 0.26891232 0.06531968 0.11036359 0.49396914 0.5487436 -0.35084906 0.00075698306 -0.22573057 0.1181 -0.2718625 -0.25326174 0.256736 0.6582805 0.2760269 0.27783796 0.26122606 -0.25135455 -0.04924719 -0.14338838 0.28776705 -0.09802951 -0.11228576 -0.029529668
mutant -0.06636614 0.014583527 -0.23115328 0.060309973 -0.21432422 0.06941748 0.1042489 -0.2894907 -0.32908267 0.38261062 0.24534838 -0.10729425 0.013490739 -0.150741 0.25119835 -0.4946328 0.23033535 0.2826703 0.41805193 0.2159862 -0.30091187 -0.11585001 0.30746204 -0.054238 -0.29210845 -0.22337887 -0.029173156 0.26133972 0.09615164 0.10590952 0.43811035 0.49457878 -0.3185057 -0.019965773 -0.19302374 0.0822128 -0.25740477 -0.26889688 0.19438677 0.67382246 0.29370236 0.26258832 0.24789454 -0.24183045 -0.042412743 -0.17149073 0.2794994 -0.12979487 -0.06649769 -0.0035695238
such -0.07449288 0.031004041 -0.25294667 0.06852568 -0.22657634 0.09325756 0.13438186 -0.2963611 -0.34603354 0.39531964 0.23674414 -0.10643885 0.012991932 -0.1651412 0.27324072 -0.5346886 0.24558683 0.2975629 0.45456007 0.21735053 -0.31025374 -0.10274383 0.31362978 -0.045893475 -0.31713715 -0.24798633 -0.032653395 0.27183062 0.11325077 0.1140329 0.45398226 0.5280668 -0.32450688 -0.017087685 -0.18091871 0.08120751 -0.25107506 -0.28462088 0.20833702 0.6974534 0.30735198 0.28466898 0.24421614 -0.23700236 -0.06606323 -0.17102778 0.28404105 -0.14296952 -0.060156465 0.009024507
vivo -0.083798945 -0.005973996 -0.24088056 0.06254453 -0.25492355 0.098828144 0.13758107 -0.26850796 -0.28064275 0.31778562 0.21267621 -0.12584615 0.015639296 -0.14826657 0.22527738 -0.49175742 0.22916338 0.29747796 0.3737659 0.18208499 -0.25632733 -0.08508507 0.27362213 -0.06947089 -0.26494336 -0.23101415 -0.022263335 0.28346372 0.10141922 0.11434931 0.44302168 0.48282546 -0.3243127 -0.026669564 -0.17700814 0.043838292 -0.19784401 -0.28442824 0.15255527 0.66616887 0.31272796 0.26209053 0.21225852 -0.2573237 -0.051478267 -0.10867256 0.24569574 -0.13644016 -0.078409255 -0.0032895836
study -0.061931595 0.013924466 -0.25188345 0.07334986 -0.21425536 0.04462125 0.101762906 -0.26749256 -0.34158787 0.40487358 0.2331911 -0.10930632 0.009148939 -0.17031509 0.22937532 -0.51479036 0.23815955 0.3022564 0.4131187 0.22463025 -0.31166208 -0.09515565 0.32397175 -0.04154969 -0.29356223 -0.21205114 -0.036168974 0.23948309 0.09899528 0.10862216 0.44567695 0.506405 -0.32560173 -0.017339313 -0.18487032 0.07468787 -0.24793226 -0.29815158 0.23609135 0.68239945 0.29376513 0.2775111 0.27483746 -0.2613961 -0.049620766 -0.17284834 0.29443783 -0.13788232 -0.084926434 -0.009750538
different -0.08371363 0.008472012 -0.24673584 0.084379174 -0.264104 0.122012295 0.14710362 -0.2906883 -0.3002404 0.35147223 0.2390116 -0.15060617 0.013701176 -0.16877042 0.2640195 -0.5281695 0.2759441 0.3310924 0.3944255 0.20367873 -0.28308794 -0.094382904 0.2801963 -0.07155211 -0.2867257 -0.23957126 -0.008977853 0.3249569 0.11489659 0.1116264 0.4641869 0.5107646 -0.35057187 -0.01632784 -0.18682039 0.050226193 -0.23217785 -0.32479104 0.16787311 0.71243376 0.3153346 0.27401918 0.22796966 -0.26932195 -0.050118797 -0.13453566 0.26489058 -0.15827037 -0.08780801 0.0185134
receptor -0.07829384 0.015025959 -0.25824657 0.07455723 -0.20217235 0.07744995 0.110456 -0.263829 -0.3109033 0.3661776 0.22301586 -0.10548832 0.03716869 -0.1574655 0.25428197 -0.5071887 0.24137186 0.30493042 0.39394787 0.20270337 -0.30752733 -0.118438706 0.2991624 -0.037423294 -0.25174576 -0.23870505 -0.030854 0.2810504 0.070824675 0.13071783 0.47870564 0.4949987 -0.3167014 -0.0135313235 -0.21042389 0.058136273 -0.23400325 -0.27677113 0.19669192 0.6766528 0.27577823 0.28559986 0.2522189 -0.23660734 -0.06752384 -0.15779285 0.26445737 -0.107323825 -0.052212656 -0.0037445002
cytoskeletal -0.07775146 0.019246925 -0.23769969 0.07556882 -0.23972708 0.09149061 0.14504822 -0.28639644 -0.30456582 0.32175708 0.22372888 -0.12775297 0.016720977 -0.15204565 0.23792344 -0.50677365 0.24490128 0.30065933 0.4018804 0.18216982 -0.27833524 -0.10436312 0.28317353 -0.044765104 -0.2735289 -0.21733527 -0.03729374 0.2760658 0.11678133 0.10482971 0.42911404 0.49440926 -0.31889004 -0.024951328 -0.17004652 0.06430109 -0.20934634 -0.2734064 0.17729382 0.66535956 0.30507705 0.25037658 0.20684314 -0.2467556 -0.04944743 -0.13157336 0.25565416 -0.1415913 -0.070693195 -0.004125053
expressed -0.08962641 0.0074713705 -0.25210944 0.07010689 -0.2427246 0.11008134 0.13228203 -0.28160763 -0.30710322 0.34199598 0.23731902 -0.11951498 0.02407142 -0.14821608 0.23437536 -0.49965775 0.25519916 0.31963506 0.3902038 0.18679704 -0.27844495 -0.092708595 0.27526763 -0.08183035 -0.26734093 -0.24162355 -0.0078027695 0.28558603 0.10283654 0.11084247 0.45878115 0.5020125 -0.34635654 -0.011050933 -0.18648121 0.055190217 -0.23125763 -0.29719496 0.16819514 0.675099 0.3255032 0.2570058 0.22287989 -0.25881732 -0.06045726 -0.12944672 0.2677231 -0.15259758 -0.092164725 -0.0016065282
showed -0.059905484 0.0060695778 -0.2348361 0.06262563 -0.1901754 0.04871561 0.10066973 -0.25937843 -0.315683 0.39248484 0.22099903 -0.107313916 0.058284286 -0.17539993 0.22414544 -0.50957745 0.2080117 0.2715688 0.40588865 0.21219374 -0.28448376 -0.11420275 0.30316812 -0.035599276 -0.25190896 -0.22832929 -0.04249847 0.24584396 0.06904753 0.1173668 0.46581823 0.5073431 -0.2827348 -0.008598674 -0.19948143 0.04970094 -0.24190155 -0.257939 0.22959775 0.64954203 0.28095266 0.27163985 0.26672 -0.23213229 -0.048511904 -0.16196877 0.2736335 -0.09353693 -0.06060845 -0.008123048
interactions -0.0600331 0.010395882 -0.24932376 0.0650917 -0.2313354 0.09240449 0.13124235 -0.2562054 -0.30921352 0.3719721 0.22321521 -0.11255483 0.033212222 -0.14749476 0.23166502 -0.49354488 0.23007576 0.29639262 0.3899316 0.19967145 -0.26391506 -0.10170944 0.29576123 -0.053322017 -0.25468183 -0.2234078 -0.048544396 0.27798322 0.08865274 0.11493173 0.42813295 0.49207592 -0.31075463 -0.02001259 -0.18792284 0.066992775 -0.23251326 -0.25511584 0.19741654 0.6507958 0.28443202 0.2646833 0.22960442 -0.24695116 -0.05820768 -0.13545854 0.26078755 -0.12735148 -0.04809626 -0.0022466935
3 -0.064487316 0.0048856717 -0.23956898 0.052111946 -0.20553172 0.07557946 0.095124744 -0.26357445 -0.29781422 0.36121047 0.21389177 -0.097722314 0.049378853 -0.16581573 0.22407317 -0.5079429 0.22803067 0.28745154 0.3912259 0.19427878 -0.28990024 -0.11912688 0.29219663 -0.034447633 -0.25539216 -0.23594873 -0.030964907 0.26669127 0.07575488 0.12953173 0.4639362 0.4913511 -0.3138395 -0.01727436 -0.20550354 0.058736026 -0.24249975 -0.24855103 0.20344555 0.64804035 0.29231286 0.27841225 0.24387296 -0.2479828 -0.05647203 -0.15641646 0.26536885 -0.11524872 -0.0562081 -0.019638976
[ -0.0818594 -0.035873976 -0.25351378 0.04204815 -0.19562513 0.09597254 0.11439696 -0.2545054 -0.26448655 0.33863768 0.18895507 -0.107536815 0.05987214 -0.16920725 0.20805746 -0.5022465 0.24302533 0.29965976 0.37887046 0.19202417 -0.29650524 -0.11292799 0.2773515 -0.034820843 -0.2284553 -0.24418071 -0.019506194 0.27933803 0.07992061 0.116892844 0.4817278 0.4999951 -0.32186735 -0.029807933 -0.20832443 0.052799232 -0.23099719 -0.23372178 0.19770572 0.63651377 0.26777345 0.26179475 0.22863767 -0.22616096 -0.04455101 -0.1478632 0.26809022 -0.083474085 -0.039000746 -0.0061033242
] -0.072664626 -0.029996727 -0.24577229 0.05493773 -0.19254032 0.08482034 0.10387453 -0.22639759 -0.25955415 0.32979754 0.18485181 -0.100924045 0.0616097 -0.16180548 0.200443 -0.49501622 0.2255036 0.29631823 0.3626661 0.2083889 -0.27928373 -0.11517478 0.25559333 -0.03785241 -0.21358371 -0.2216034 -0.03563825 0.27758202 0.07486606 0.122687854 0.4543804 0.4710056 -0.28836772 -0.026447635 -0.1798674 0.046189472 -0.22571754 -0.2270501 0.20505193 0.6125138 0.26298788 0.2737578 0.23448667 -0.21498683 -0.03720595 -0.15218967 0.2579376 -0.074628815 -0.04439661 -0.01823502
one -0.07721235 0.02532901 -0.24051845 0.07010538 -0.2132211 0.08824278 0.11906628 -0.26657063 -0.3315155 0.38501558 0.22664401 -0.11558485 0.01864723 -0.15967399 0.24888928 -0.5087849 0.23492648 0.28655866 0.41225013 0.21106811 -0.2946847 -0.096005686 0.29721916 -0.055798184 -0.2798238 -0.21331824 -0.03878407 0.27158365 0.08800987 0.10503299 0.44432476 0.507119 -0.3066605 -0.015993034 -0.19022879 0.06890032 -0.23103453 -0.27009398 0.20690192 0.6624322 0.29795742 0.26014483 0.24528077 -0.2423053 -0.04469996 -0.15434344 0.2820612 -0.12981533 -0.07522246 -0.0015067871
