5200 20
, -0.60757005 4.185695 -3.01862 -0.09865951 0.94908917 -1.7661387 1.0744084 0.5993082 -2.1458998 -0.95850694 -1.0590092 1.910621 -2.6468246 0.9389941 1.9916844 2.070019 -0.6629258 0.7986383 -0.69624615 -2.172989
of -0.5957237 3.8952763 -2.7444074 -0.08471265 0.8370983 -1.6470628 1.0098002 0.52511275 -2.010832 -0.8864375 -0.961833 1.7501731 -2.3985448 0.8772167 1.8208363 1.8937534 -0.60198665 0.70997286 -0.72771037 -1.9650928
the -0.53845525 3.725822 -2.6330097 -0.049394436 0.8429151 -1.5472109 0.9508993 0.5175807 -1.8927275 -0.853555 -0.8969722 1.6625239 -2.3272207 0.8005562 1.7206452 1.8070503 -0.62965024 0.6881363 -0.6916308 -1.9139649
and -0.5383295 3.794586 -2.706352 -0.0894803 0.85027117 -1.5615239 0.9630867 0.5161351 -1.9148788 -0.84693027 -0.9597692 1.7451882 -2.3975806 0.8586336 1.7895378 1.8707167 -0.6272665 0.72469336 -0.6663007 -1.938468
. -0.44462284 3.1212864 -2.205952 -0.047369335 0.7070326 -1.2690183 0.8075944 0.41384462 -1.5587052 -0.72730476 -0.740501 1.4178177 -1.9360895 0.6829107 1.4331064 1.5144432 -0.5180859 0.5613641 -0.5319954 -1.6097097
in -0.5273789 3.5911996 -2.4997716 -0.06610668 0.8090981 -1.468568 0.9506278 0.4624595 -1.8106651 -0.83045024 -0.89641255 1.6355736 -2.2541564 0.8228845 1.6789114 1.7523733 -0.6119032 0.6390258 -0.6327244 -1.7937003
actin -0.40049076 2.8805616 -2.041779 -0.06239754 0.63620985 -1.1981056 0.7703573 0.3957511 -1.4889915 -0.6736351 -0.67624587 1.2788798 -1.8155644 0.6263549 1.3409387 1.4006808 -0.43263164 0.5679836 -0.5030088 -1.4854897
to -0.50843966 3.4095223 -2.4427488 -0.06655256 0.7387192 -1.4509567 0.9214321 0.48147118 -1.7732962 -0.77387094 -0.84455425 1.5678546 -2.134344 0.77637964 1.5982333 1.6837385 -0.53650236 0.60363907 -0.5986524 -1.7520965
) -0.52432317 3.2506561 -2.3302112 -0.060199093 0.77895 -1.4124956 0.82622325 0.4894183 -1.6798989 -0.7578728 -0.78766066 1.503106 -2.0683072 0.74275386 1.5463742 1.6598711 -0.51711464 0.59582704 -0.57999337 -1.7089535
( -0.50662535 3.5201552 -2.5596623 -0.10978711 0.85804135 -1.4994333 0.9129988 0.5298905 -1.8039006 -0.82692623 -0.878653 1.5841788 -2.2575345 0.80934626 1.6691817 1.8002495 -0.5830018 0.6526616 -0.5819754 -1.8543917
a -0.5118417 3.3856127 -2.3727465 -0.036098532 0.7538681 -1.4107307 0.89439833 0.45148596 -1.755438 -0.741216 -0.7997988 1.5022542 -2.141314 0.7690364 1.5786809 1.6593738 -0.58021104 0.6105003 -0.59723693 -1.7176093
with -0.53801167 3.3776917 -2.4103076 -0.039370757 0.72894317 -1.4245067 0.89942807 0.43733385 -1.6952813 -0.7460144 -0.8445768 1.5292733 -2.0897703 0.76863974 1.570812 1.6585957 -0.56756353 0.59256005 -0.56937397 -1.7355114
that -0.49195114 3.319286 -2.3423991 -0.039501168 0.7388822 -1.3879204 0.8852603 0.41540995 -1.6782192 -0.75235265 -0.8303257 1.4976557 -2.0901134 0.7475829 1.5822423 1.5927769 -0.54916614 0.59837735 -0.5719637 -1.6966963
profilin -0.3482352 2.3500643 -1.6905203 -0.03758503 0.52104294 -1.0128073 0.640393 0.34145972 -1.2055728 -0.5387609 -0.55067396 1.0609137 -1.4702073 0.547869 1.1039741 1.1385359 -0.38959342 0.45518228 -0.39492235 -1.22838
for -0.43569455 2.8318255 -1.9912819 -0.05672975 0.64889455 -1.185552 0.7075799 0.36828887 -1.4333326 -0.6490903 -0.69744617 1.2725155 -1.7772014 0.6020861 1.2949572 1.3619014 -0.47062564 0.487888 -0.48181432 -1.4161764
is -0.42094567 2.755158 -1.9083441 -0.050402686 0.6292204 -1.1142179 0.70367235 0.38738313 -1.4048389 -0.6221229 -0.6665104 1.2539518 -1.7163361 0.6274352 1.2937536 1.316211 -0.44827905 0.4991421 -0.47049907 -1.4101137
by -0.47240996 3.1601985 -2.2534704 -0.07333722 0.7082568 -1.3418349 0.82836777 0.4389978 -1.606653 -0.7337115 -0.75154954 1.4462798 -1.9852731 0.68773323 1.4909964 1.5313833 -0.5238056 0.59058475 -0.5651121 -1.5828608
protein -0.3884265 2.4722009 -1.7691637 -0.034557845 0.59802365 -1.0527409 0.64743745 0.33105582 -1.2792885 -0.5501113 -0.6280851 1.1119759 -1.5465951 0.57757986 1.1665279 1.2220433 -0.37873653 0.4439745 -0.4285567 -1.2754788
The -0.34461978 2.177598 -1.5621659 -0.013517355 0.49550807 -0.9204511 0.5609657 0.30469784 -1.1260691 -0.508071 -0.53064215 1.0010264 -1.36493 0.48438275 0.9952195 1.0848285 -0.3544148 0.41235685 -0.39330572 -1.1278672
proteins -0.36513752 2.4706273 -1.76133 -0.048980314 0.5527202 -1.0439981 0.6517522 0.3080697 -1.2734482 -0.5239328 -0.6193853 1.1173897 -1.543935 0.53690284 1.127728 1.2073367 -0.39878687 0.46302524 -0.4298944 -1.2601126
was -0.3947661 2.6047795 -1.8659523 -0.06542848 0.59482443 -1.0823383 0.6749405 0.360457 -1.3457009 -0.57217836 -0.65671074 1.191405 -1.6525466 0.6064748 1.2288309 1.2784708 -0.4110243 0.5013977 -0.46242306 -1.32983
beta-catenin -0.2683107 1.7164037 -1.2389761 -0.074198306 0.3746494 -0.7814035 0.47294083 0.2726624 -0.90724576 -0.37049338 -0.46722102 0.7766889 -1.1098577 0.3565124 0.82765216 0.8697799 -0.32907528 0.32771885 -0.3058688 -0.8873606
cells -0.41723013 2.6244671 -1.8479152 -0.050689187 0.6026658 -1.1126169 0.6628258 0.33861083 -1.323693 -0.5779411 -0.64311445 1.1625934 -1.610001 0.5926446 1.2074311 1.2429613 -0.45162863 0.462226 -0.46656066 -1.3024764
myosin -0.19157204 1.9249889 -1.4530144 -0.08595723 0.48275033 -0.78960544 0.42377284 0.32795253 -1.0173519 -0.43360823 -0.52933306 0.9772268 -1.2434249 0.41084883 0.93392104 1.049569 -0.17142604 0.47776198 -0.3011899 -1.0455086
alpha-catenin -0.2223216 1.5493965 -1.1398678 -0.05352798 0.31718174 -0.6880739 0.45677695 0.24228023 -0.7951138 -0.34922016 -0.3967289 0.7409265 -1.0085593 0.38587552 0.79156744 0.7634838 -0.26105317 0.261495 -0.30106193 -0.8252553
binding -0.31459635 1.9432166 -1.3488765 -0.050703276 0.39794257 -0.8341233 0.5277995 0.2598484 -0.96738863 -0.43893915 -0.45222172 0.85590094 -1.2247553 0.45553184 0.89092726 0.9266293 -0.32446927 0.36059144 -0.3419037 -0.97303605
chain -0.15537871 1.723706 -1.3490833 -0.07714706 0.4090549 -0.72821134 0.36134058 0.31184447 -0.9173987 -0.41922632 -0.48595786 0.88633054 -1.1112475 0.4221371 0.872442 0.9729841 -0.14532076 0.41475192 -0.2627135 -0.95875347
are -0.40325987 2.7566876 -1.9309351 -0.025034396 0.59624195 -1.1248895 0.7158991 0.35991037 -1.370962 -0.6013031 -0.6872569 1.2138603 -1.7034718 0.6127624 1.3001544 1.3107551 -0.47968522 0.48543882 -0.47851104 -1.4018136
were -0.46527448 2.955867 -2.0829878 -0.056660086 0.6732171 -1.2231317 0.7457707 0.3937499 -1.4986606 -0.65413505 -0.7284565 1.3266566 -1.8588231 0.68064344 1.4019554 1.4209589 -0.48624644 0.5372486 -0.5311922 -1.5314606
cofilin -0.28949985 2.0095358 -1.3823017 -0.0038142435 0.42726272 -0.83204085 0.5183275 0.28785008 -1.0113279 -0.45839638 -0.47862712 0.89444053 -1.2611743 0.45704702 0.925647 0.95069534 -0.35097414 0.36044446 -0.3421778 -0.99852806
as -0.41427195 2.6006966 -1.8282092 -0.0641086 0.5819545 -1.0985801 0.6914715 0.3363045 -1.3234185 -0.6013074 -0.6475408 1.1907513 -1.6339883 0.56631905 1.2160625 1.2781652 -0.40595666 0.45147857 -0.4165777 -1.2983495
heavy -0.14016965 1.6643229 -1.1773739 -0.10870341 0.44699267 -0.6035122 0.39389828 0.22988449 -0.7971648 -0.43363577 -0.4293096 0.8089161 -0.99084336 0.3991158 0.7433596 0.93920225 -0.09501708 0.3791697 -0.23211086 -0.8494814
not -0.40065286 2.5492866 -1.811864 -0.06970076 0.56595176 -1.0762055 0.7028979 0.35134757 -1.2934818 -0.57851875 -0.6162308 1.1483003 -1.6255213 0.5827347 1.1772022 1.2398914 -0.4245661 0.4664168 -0.43885568 -1.2906837
or -0.39502996 2.5741754 -1.8310255 -0.053009443 0.5927831 -1.0675822 0.68660295 0.34847394 -1.2852992 -0.56426066 -0.6314423 1.1601737 -1.594602 0.5927724 1.2159567 1.2366736 -0.4170792 0.45204002 -0.45871228 -1.32531
on -0.3868871 2.5352666 -1.7510407 -0.0697502 0.56388044 -1.0372486 0.6529028 0.33035114 -1.3127351 -0.56293917 -0.6346045 1.1211039 -1.546421 0.53726417 1.1536618 1.2275158 -0.39329064 0.4557515 -0.446859 -1.2987719
an -0.38065198 2.6061933 -1.8295492 -0.03499157 0.58881706 -1.0766891 0.673425 0.32650793 -1.3320397 -0.5771541 -0.6412009 1.1967866 -1.6455778 0.59683514 1.2085409 1.2507671 -0.44813254 0.48340732 -0.4287017 -1.3060755
which -0.34189016 2.3088503 -1.6516541 -0.037501037 0.49687698 -0.95034057 0.57690024 0.31880468 -1.1819395 -0.5340456 -0.5552648 1.0396411 -1.4331483 0.5095536 1.1061113 1.1395434 -0.36705834 0.4398432 -0.40114167 -1.1735109
from -0.4120396 2.828625 -2.0304966 -0.024314983 0.6173375 -1.17079 0.7353862 0.39283934 -1.4593339 -0.61240447 -0.6771775 1.2802254 -1.7597543 0.6546904 1.3335773 1.3952874 -0.4510367 0.5261023 -0.49899724 -1.4722754
cell -0.41576093 2.832231 -1.9789991 -0.049688026 0.59735924 -1.1669272 0.75771487 0.3587123 -1.4401522 -0.63299155 -0.6972162 1.2370553 -1.7191877 0.65198237 1.3097277 1.3819386 -0.47132647 0.49161983 -0.52108467 -1.4056379
expression -0.23922 1.7439277 -1.2584058 -0.050695855 0.38901222 -0.72968024 0.46087956 0.22205663 -0.8880004 -0.3840172 -0.43999544 0.7697415 -1.104238 0.37811214 0.7966324 0.86840147 -0.25403053 0.315653 -0.32759464 -0.90993303
In -0.25114396 1.4705648 -1.041657 -0.006266859 0.33676535 -0.5918191 0.40226284 0.21574536 -0.7420521 -0.32245958 -0.3475961 0.6836919 -0.9461585 0.29853526 0.6853182 0.7027884 -0.25109234 0.2812605 -0.2782663 -0.71469444
we -0.3247333 2.283388 -1.5862576 -0.01595485 0.49407083 -0.9567595 0.5959714 0.32106835 -1.1755373 -0.49380726 -0.557604 1.0328138 -1.3903302 0.4920071 1.0531154 1.0722045 -0.3778761 0.44442126 -0.41392437 -1.1480671
actin-binding -0.22112446 1.4752183 -1.0197043 0.0012948954 0.34175625 -0.5941818 0.40668565 0.18121052 -0.78053236 -0.33970284 -0.34296855 0.6594969 -0.91512495 0.3258087 0.7012439 0.70820004 -0.23053353 0.2362044 -0.27314863 -0.7361704
but -0.30625334 2.0757425 -1.4499866 -0.056317072 0.4734947 -0.82702523 0.50500435 0.29842257 -1.0627149 -0.4718309 -0.5135979 0.95418924 -1.3197947 0.43463933 0.94635785 0.9883226 -0.33159837 0.36245435 -0.33206686 -1.0750043
at -0.3851875 2.6905165 -1.899412 -0.048339043 0.6170466 -1.086933 0.6919545 0.3637216 -1.36527 -0.6022861 -0.678541 1.1893765 -1.6921402 0.5738813 1.220198 1.2800794 -0.4267867 0.4932543 -0.46833882 -1.3536326
complex -0.25414246 1.6482496 -1.1520483 -0.015074789 0.35998192 -0.6867992 0.44052255 0.20716572 -0.8476127 -0.37914202 -0.3920286 0.75319344 -1.0017103 0.38822493 0.7827777 0.82289964 -0.2794187 0.27966848 -0.28166634 -0.83195
E-cadherin -0.20719196 1.1433562 -0.82232326 -0.027076326 0.23488672 -0.5213542 0.31128708 0.14409858 -0.5841144 -0.26657194 -0.33719635 0.5082635 -0.76801354 0.24882427 0.5358154 0.57909805 -0.21376391 0.20950606 -0.19553614 -0.61432743
have -0.32947308 1.9814672 -1.3970022 -0.008155958 0.42351738 -0.8654433 0.525827 0.27001643 -1.0415795 -0.43193033 -0.5037661 0.8756954 -1.2250391 0.431318 0.9542593 0.98080117 -0.3442068 0.38743103 -0.3233178 -0.9941145
these -0.27367738 1.7849281 -1.2414771 -0.013938042 0.40010598 -0.7500408 0.45063263 0.26176885 -0.91530716 -0.384988 -0.4594393 0.791624 -1.1076459 0.37655565 0.84753233 0.8736692 -0.30364507 0.30488572 -0.3065729 -0.8824741
: -0.40090686 2.5389578 -1.7961316 -0.043227147 0.5547778 -1.0729966 0.6411086 0.35872647 -1.3085394 -0.5554384 -0.6112809 1.146989 -1.5687884 0.5310462 1.2003987 1.2577022 -0.39524508 0.48893443 -0.41488874 -1.2506503
talin -0.20334145 1.5232114 -1.0818542 -0.005120878 0.3699128 -0.63672364 0.41728938 0.23172875 -0.7599976 -0.32255515 -0.3883892 0.6958413 -0.96126366 0.3556018 0.72441405 0.7245817 -0.2185913 0.27668262 -0.26563528 -0.7905897
genes -0.25364244 1.8960664 -1.3791236 -0.02983703 0.4469874 -0.8165839 0.49563658 0.28234512 -0.9896235 -0.41385558 -0.50445545 0.86057425 -1.1848123 0.3979295 0.9167711 0.9541789 -0.3414693 0.33434993 -0.33052474 -0.95138925
muscle -0.21982533 1.7283133 -1.2524339 -0.03595444 0.39364138 -0.7112278 0.42721465 0.2681141 -0.89029694 -0.385956 -0.42022943 0.8382272 -1.0901356 0.39561355 0.7992044 0.8608722 -0.218396 0.34610248 -0.26800576 -0.87441844
be -0.31397432 1.920028 -1.3392262 -0.021140095 0.4412933 -0.81875104 0.53236717 0.28588492 -0.9818537 -0.45175302 -0.46856865 0.8697333 -1.2355703 0.4512258 0.93000257 0.94851726 -0.29591763 0.34441906 -0.31966344 -0.9716127
two -0.25757027 1.8121563 -1.3109725 -0.022024505 0.43444565 -0.75117314 0.45455322 0.27096033 -0.96027637 -0.40267536 -0.42347488 0.84395975 -1.1562706 0.396978 0.8733086 0.8825024 -0.28549922 0.35699266 -0.3360367 -0.944041
kinase -0.2798139 1.8299001 -1.2963107 -0.020180766 0.4213338 -0.8024708 0.48459357 0.21963327 -0.93877125 -0.44430244 -0.47133076 0.8642993 -1.1679071 0.3939576 0.8478418 0.9084742 -0.31113595 0.38330576 -0.32459742 -0.9311634
; -0.32743138 2.1183693 -1.5018126 -0.02390454 0.48515671 -0.89812154 0.57046616 0.29578596 -1.1151916 -0.4647271 -0.5448494 0.9603074 -1.3180225 0.4750241 0.97896206 1.0722567 -0.34985176 0.398042 -0.38723275 -1.1026176
filaments -0.26557627 1.6047864 -1.1162722 -0.039137196 0.35925654 -0.6507113 0.40796828 0.20100972 -0.82764506 -0.37077218 -0.3814605 0.7367057 -0.9720576 0.3609908 0.7514684 0.75314707 -0.28051743 0.275153 -0.28807208 -0.8348623
between -0.28064266 1.8831741 -1.3405291 -0.03127018 0.43455705 -0.80678433 0.48289484 0.24841651 -0.9577689 -0.42357138 -0.44923094 0.84917444 -1.1959381 0.4441253 0.89018524 0.92329115 -0.29315057 0.32360053 -0.32960555 -0.9452301
this -0.25978002 1.5247047 -1.0801427 -0.04343157 0.33404878 -0.65530497 0.37763616 0.18055244 -0.7836892 -0.32965785 -0.3865088 0.6727769 -0.9661454 0.30390748 0.70521116 0.7104181 -0.2747864 0.30783466 -0.29061082 -0.7515888
also -0.30502552 1.8625867 -1.2889807 -0.009105684 0.39590794 -0.7605289 0.46798414 0.24697864 -0.9457116 -0.4097576 -0.4379321 0.82462436 -1.1711149 0.40230137 0.8878851 0.91935414 -0.32314047 0.32120708 -0.29972342 -0.9275234
yeast -0.19498643 1.3304819 -0.9370639 -0.035098977 0.3126231 -0.56296027 0.3731818 0.15246046 -0.6732293 -0.29982224 -0.31661418 0.61144423 -0.8419604 0.30986035 0.6002643 0.636844 -0.19788082 0.25705183 -0.24890077 -0.7006201
histone -0.27909142 1.614419 -1.1717815 -0.00023918519 0.3475508 -0.6967657 0.3999745 0.24350365 -0.838895 -0.32990834 -0.40066934 0.75929856 -0.99118584 0.3837946 0.78469294 0.7740823 -0.2862065 0.3396598 -0.24460608 -0.8437783
can -0.2879011 1.7303724 -1.2348061 -0.036471374 0.38180336 -0.73598325 0.43210503 0.24416395 -0.8935629 -0.36037043 -0.39993483 0.7922304 -1.0757042 0.40838316 0.80723774 0.85261184 -0.27852225 0.29164767 -0.29473436 -0.8922276
polymerization -0.20036024 1.2174152 -0.8368705 -0.04185524 0.24715042 -0.51409316 0.29393595 0.16817366 -0.6086361 -0.2963001 -0.26938155 0.56420624 -0.7420171 0.2749289 0.53733796 0.6000301 -0.18617876 0.24509244 -0.20716171 -0.60421866
both -0.24787647 1.6888187 -1.1837771 -0.021678792 0.38412344 -0.73146695 0.4618448 0.22622168 -0.8770717 -0.40335113 -0.3922565 0.74429566 -1.0594003 0.35548276 0.8053176 0.811615 -0.27319947 0.3066561 -0.31908748 -0.87217015
gene -0.22714186 1.5873173 -1.1390995 -0.05407435 0.37475356 -0.65608853 0.4333822 0.19329856 -0.7928867 -0.3328545 -0.41342646 0.69571674 -1.005814 0.37288368 0.72526425 0.7937281 -0.25155059 0.2781857 -0.27872014 -0.78278726
% -0.22226426 1.6613061 -1.1896228 -0.053781737 0.40099657 -0.67312306 0.4404804 0.20764416 -0.83800304 -0.40018392 -0.4120383 0.7594499 -1.0491121 0.35132056 0.75924075 0.80185246 -0.28893384 0.29702368 -0.28172004 -0.8674934
We -0.14884819 0.9552625 -0.6341829 -0.0068095056 0.19505334 -0.40143508 0.24946928 0.14836891 -0.48083743 -0.18772289 -0.22395259 0.42457688 -0.5895991 0.18358225 0.42215618 0.46192935 -0.14853632 0.19244951 -0.17438526 -0.44467887
1 -0.24613918 1.7050439 -1.1826831 -0.052278567 0.37999862 -0.7088442 0.42260003 0.25067133 -0.8753027 -0.35345834 -0.43434495 0.75652796 -1.029517 0.36076277 0.7939013 0.83035934 -0.29336712 0.29477036 -0.2840946 -0.88245726
domain -0.21272187 1.4343563 -0.98550594 -0.032644555 0.33717903 -0.5999317 0.3942838 0.21817093 -0.7294335 -0.308249 -0.35184747 0.65452063 -0.90950876 0.3128955 0.6957153 0.71918476 -0.2307926 0.27082524 -0.2484656 -0.75713176
DNA -0.27844703 1.721385 -1.1993961 -0.022280496 0.36198395 -0.6919405 0.46430704 0.2400804 -0.85255665 -0.35505643 -0.4247636 0.7825337 -1.0602025 0.39907894 0.81601304 0.8055132 -0.27414498 0.29733446 -0.29752567 -0.88306606
its -0.24342605 1.4743453 -1.0286123 -0.04898918 0.31813073 -0.60586256 0.37759033 0.18393616 -0.7398846 -0.30905136 -0.33593646 0.67353064 -0.90569234 0.35073805 0.6658628 0.7242409 -0.22853322 0.28029206 -0.23997223 -0.75614727
human -0.22983257 1.4413149 -1.0118594 -0.031679895 0.34972847 -0.6234578 0.36926517 0.17454821 -0.76547265 -0.31588468 -0.33275044 0.6753432 -0.9223361 0.32162204 0.6962032 0.7079271 -0.24881002 0.2653835 -0.26787797 -0.7542167
RAD51 -0.12521417 1.1013458 -0.75181776 -0.043727744 0.27472895 -0.45741206 0.26664075 0.13710868 -0.5255706 -0.26058552 -0.265442 0.4658103 -0.6888834 0.2654309 0.4964518 0.4982551 -0.17645949 0.1881796 -0.21729949 -0.53973454
results -0.16709325 1.2800308 -0.8860341 -0.008828062 0.29191765 -0.53929585 0.31207436 0.14056556 -0.6223151 -0.28760785 -0.31461355 0.5594985 -0.8175826 0.27329305 0.6007979 0.6035645 -0.19553979 0.20972836 -0.25695857 -0.6197877
activity -0.2283158 1.4814671 -1.0322998 -0.004968552 0.32408366 -0.60912246 0.40597248 0.22069995 -0.7770241 -0.3200326 -0.3756205 0.6411139 -0.94464 0.3290586 0.67162406 0.731215 -0.23703794 0.286333 -0.27851558 -0.75625664
cytoskeleton -0.19531491 1.1091138 -0.8059105 -0.0040670703 0.24640635 -0.4638615 0.3122694 0.15840843 -0.5697573 -0.2413364 -0.2664599 0.5224752 -0.68031543 0.26902905 0.5123499 0.5480387 -0.17962277 0.209566 -0.20652938 -0.55739236
These -0.1343524 1.0254395 -0.73100096 0.016933518 0.25885475 -0.42409807 0.24712741 0.13716213 -0.4998321 -0.2546594 -0.24244104 0.4735825 -0.61628366 0.20541584 0.5035776 0.48499125 -0.17308551 0.1665008 -0.19640276 -0.5022786
interaction -0.1320949 0.82738984 -0.55775774 -0.02714481 0.1661419 -0.35205624 0.2046662 0.092292726 -0.42553017 -0.17053814 -0.2089231 0.36600485 -0.49045518 0.1563185 0.35569188 0.41062936 -0.1533711 0.13701567 -0.14700696 -0.40242055
assembly -0.19730657 1.1721318 -0.8305538 -0.021445809 0.23949793 -0.48430243 0.32062945 0.18272987 -0.60580635 -0.25415367 -0.29452527 0.5270837 -0.7208101 0.2563631 0.54011285 0.5781735 -0.21013509 0.22093992 -0.2202995 -0.5924612
has -0.22995828 1.4985105 -1.0369226 -0.048058875 0.357244 -0.61769617 0.38118783 0.17270395 -0.7782549 -0.32374236 -0.37422153 0.69052947 -0.9476606 0.34171507 0.6756924 0.6990738 -0.21591017 0.2916429 -0.24605608 -0.718706
plakoglobin -0.10726931 0.56710565 -0.4595254 -0.013232478 0.11864232 -0.27500156 0.1812972 0.06717608 -0.2786201 -0.14399496 -0.17231172 0.27675313 -0.37520078 0.16279711 0.30364424 0.30711436 -0.10745661 0.13282062 -0.120311394 -0.341886
cyclin -0.20663407 1.200624 -0.8224887 -0.015117609 0.28557703 -0.5025034 0.33527437 0.14498167 -0.6179464 -0.24439466 -0.2840482 0.542777 -0.7292825 0.2528561 0.5618442 0.5662491 -0.20902264 0.2378976 -0.24365544 -0.6207389
region -0.17335118 1.2279463 -0.8551021 -0.010658363 0.2871312 -0.5417446 0.33958116 0.1840971 -0.6273062 -0.2813028 -0.31195515 0.5523628 -0.78488106 0.26784676 0.6039254 0.616927 -0.22743627 0.24830186 -0.21575214 -0.65405244
fimbrin -0.17010424 1.1016842 -0.745072 -0.039686877 0.24219503 -0.44411746 0.2611604 0.15829715 -0.5767424 -0.25149605 -0.27625486 0.47084737 -0.68438125 0.25922027 0.5059851 0.5042262 -0.18655324 0.2209284 -0.18796296 -0.5636671
been -0.21960156 1.2526143 -0.8881177 -0.012920926 0.288161 -0.50791156 0.32794493 0.18071723 -0.63019603 -0.263323 -0.29868162 0.5526302 -0.7809969 0.2826654 0.623528 0.6166217 -0.22091196 0.23841025 -0.21281287 -0.67156416
other -0.18605602 1.2045465 -0.8812168 -0.041727733 0.29724208 -0.5197063 0.2990463 0.16250059 -0.643215 -0.26845542 -0.27550974 0.5639752 -0.7535503 0.28197172 0.5629625 0.58121806 -0.18169239 0.2177011 -0.21506922 -0.59572023
RAD52 -0.07188379 0.64174503 -0.43960425 -0.0068274345 0.15215918 -0.25410816 0.1812763 0.08191797 -0.33460444 -0.14930287 -0.17616102 0.28763556 -0.37971964 0.12963706 0.2631938 0.3038536 -0.13698137 0.10408668 -0.097295724 -0.3213275
found -0.17713393 1.0429565 -0.71773124 -0.008740023 0.20835525 -0.43134978 0.28553247 0.14858446 -0.5487432 -0.25512856 -0.27490124 0.45579225 -0.6656705 0.25209233 0.48952615 0.52347815 -0.19412303 0.20459579 -0.19140728 -0.49776712
factor -0.17122133 1.0014279 -0.723211 0.0019341316 0.24386941 -0.43932763 0.27297205 0.11712391 -0.5256581 -0.21946518 -0.2489852 0.43608698 -0.6098906 0.21632849 0.46635777 0.49518535 -0.18175203 0.18497916 -0.16049096 -0.50762415
binds -0.14693657 0.93268394 -0.62411785 0.0068081054 0.19042335 -0.37160397 0.25990403 0.13271001 -0.4559351 -0.19464168 -0.23136921 0.4192335 -0.556595 0.2028275 0.42051885 0.42947143 -0.1385851 0.16921243 -0.17044298 -0.48154327
virus -0.22500919 1.414427 -1.01453 -0.0028583035 0.3373065 -0.5892709 0.38991463 0.17574655 -0.71448064 -0.31057248 -0.3503566 0.63476866 -0.89463264 0.31665784 0.68338 0.6912311 -0.250474 0.23889017 -0.21867594 -0.7291302
vinculin -0.16565682 0.9715411 -0.68156415 -0.0019256417 0.22038946 -0.4006783 0.25833002 0.13205948 -0.466525 -0.18834084 -0.2476364 0.45766145 -0.6003583 0.23675732 0.45025945 0.4902728 -0.16844516 0.16274992 -0.14484502 -0.46501854
inhibitor -0.19033664 1.0830365 -0.7962638 -0.048575845 0.23223421 -0.4600235 0.269677 0.12480833 -0.5846651 -0.2643634 -0.26976514 0.4601954 -0.6881416 0.22367702 0.49704778 0.52013445 -0.18372814 0.22274658 -0.23120326 -0.5489076
using -0.23385233 1.4474764 -1.0373429 -0.025593312 0.30825028 -0.60804665 0.389619 0.20499331 -0.74599504 -0.32346535 -0.35472575 0.66221553 -0.9172049 0.3248925 0.7033327 0.72023535 -0.22345178 0.26207453 -0.2363458 -0.75681835
P -0.10009129 0.81851435 -0.5809972 -0.03409082 0.23408987 -0.34124312 0.24011232 0.13294874 -0.4660058 -0.20528628 -0.18802294 0.35647163 -0.5531126 0.17925766 0.4211902 0.43330267 -0.11573415 0.13871424 -0.14461002 -0.45271662
may -0.18317871 1.1263454 -0.7654633 -0.027178502 0.25784463 -0.4557471 0.27319255 0.13090247 -0.5671428 -0.2467992 -0.28357664 0.53018725 -0.712674 0.2708203 0.50749725 0.5339702 -0.20120731 0.18030912 -0.19929473 -0.57095283
A -0.14422864 1.1345389 -0.7673436 -0.03018466 0.2240043 -0.48521405 0.2968655 0.1644951 -0.589661 -0.22619611 -0.26862845 0.49186832 -0.7000281 0.25093856 0.53202194 0.5634332 -0.19453055 0.22479403 -0.1747284 -0.5427473
membrane -0.1578271 1.076761 -0.71818036 -0.043037664 0.2412778 -0.4651664 0.2967812 0.1651447 -0.55681086 -0.23069003 -0.25971353 0.4611741 -0.6802266 0.23777746 0.48925832 0.52437454 -0.15752618 0.18289699 -0.20537402 -0.5408844
bind -0.10780809 0.8524148 -0.611703 -0.018586205 0.20052531 -0.36880082 0.23905598 0.090485945 -0.41046914 -0.20757256 -0.18503948 0.3558265 -0.52723217 0.1818791 0.40273607 0.4291833 -0.13437478 0.15341981 -0.15993264 -0.4460772
it -0.14701462 1.1257676 -0.77644426 -0.021687085 0.22233585 -0.47129756 0.26559258 0.1506755 -0.53970826 -0.24991192 -0.2879212 0.497082 -0.69287664 0.2733308 0.5051949 0.550865 -0.17018376 0.20478413 -0.19902036 -0.55550075
site -0.15769082 0.9839967 -0.6646907 -0.008226541 0.2343127 -0.40213177 0.2573015 0.12286656 -0.5225756 -0.21111426 -0.21265316 0.42319238 -0.5783153 0.19614492 0.4489235 0.46001935 -0.17203154 0.19318262 -0.1830141 -0.46485516
I -0.123857625 0.9835384 -0.69627166 -0.03419676 0.22024977 -0.4265843 0.27594662 0.1589108 -0.5303094 -0.24069545 -0.230502 0.4320385 -0.64410233 0.22063735 0.4719354 0.49514693 -0.14373675 0.18020274 -0.18188582 -0.49251574
identified -0.15303656 1.0843836 -0.73637724 -0.0111548 0.24513406 -0.44645536 0.2803417 0.12868541 -0.5791208 -0.25299639 -0.26109946 0.49609524 -0.65853775 0.24117188 0.50212353 0.5230588 -0.19405764 0.22410087 -0.17163442 -0.5284475
growth -0.1671759 1.3091396 -0.919273 -0.02390669 0.2623461 -0.5580159 0.3426271 0.18527544 -0.6786617 -0.31420797 -0.3307038 0.58008903 -0.7962741 0.28087822 0.6074448 0.60728884 -0.22734465 0.24151215 -0.23382305 -0.63591003
than -0.19144227 1.2926052 -0.92675173 -0.02870314 0.28893694 -0.54768354 0.3081148 0.17416906 -0.6599619 -0.27183783 -0.29987824 0.56984985 -0.81887585 0.29092467 0.57036656 0.6413407 -0.21817558 0.21670666 -0.22972533 -0.6506611
into -0.20643495 1.3402426 -0.9249065 -0.031181201 0.29671302 -0.57891095 0.33107737 0.1716105 -0.6950053 -0.29541487 -0.31828848 0.6003148 -0.8332376 0.28046444 0.6423092 0.6372464 -0.2240214 0.2308384 -0.22980495 -0.70391095
increased -0.20400625 1.3910995 -0.98426276 -0.035975546 0.28523204 -0.5750937 0.34194556 0.17085521 -0.7023911 -0.30517176 -0.34796712 0.6005974 -0.8565438 0.3096295 0.64241034 0.6592025 -0.19985393 0.2775183 -0.26355702 -0.7203821
sequence -0.19773567 1.1540847 -0.846865 -0.038778864 0.26948845 -0.47658294 0.31026378 0.14039348 -0.61339015 -0.26421094 -0.30522537 0.50827795 -0.7093522 0.23809008 0.55760396 0.5571042 -0.21156424 0.2004362 -0.19999382 -0.5657877
suggest -0.13269852 0.9579656 -0.6631447 0.0052169235 0.2193361 -0.3915891 0.2350131 0.09801566 -0.49620742 -0.2194093 -0.22529775 0.4462476 -0.60749733 0.19374095 0.4361755 0.47219452 -0.18156523 0.16893758 -0.16928114 -0.4583944
their -0.22508028 1.3771647 -0.99035746 -0.012345102 0.3023835 -0.5578647 0.37870055 0.1696869 -0.6986399 -0.31958717 -0.35090917 0.6495803 -0.8919571 0.31358027 0.6301277 0.6524351 -0.23945388 0.26903367 -0.2635744 -0.722118
filament -0.15453893 0.9027607 -0.61994195 0.0017434593 0.21076235 -0.3907331 0.22006601 0.13788071 -0.44718575 -0.17832206 -0.21163154 0.37984854 -0.56892365 0.2160615 0.3975522 0.43804732 -0.15776545 0.17902076 -0.15953648 -0.44550142
affinity -0.14153306 0.93994135 -0.63243973 -0.02928254 0.17662206 -0.4012197 0.21965367 0.113174744 -0.4429281 -0.2094944 -0.21921676 0.39725414 -0.56314015 0.17826837 0.43546236 0.43939677 -0.15533112 0.16060248 -0.14995466 -0.45892632
Acanthamoeba -0.12806855 0.82964545 -0.54307073 -0.024862299 0.16530618 -0.3279888 0.21783035 0.11890453 -0.43424365 -0.19864781 -0.20403087 0.3520365 -0.5209615 0.16732475 0.3851116 0.37014455 -0.1317693 0.16713676 -0.15130576 -0.39370984
similar -0.13874955 0.83687186 -0.61492866 -0.033212505 0.18012963 -0.35809162 0.22060864 0.09149511 -0.43659765 -0.21089335 -0.22761002 0.39918932 -0.5367899 0.21246304 0.42005858 0.4039749 -0.13596635 0.14367566 -0.12834111 -0.42258143
involved -0.12971376 0.9680487 -0.6695844 -0.0031003929 0.19440782 -0.3970158 0.23339184 0.1102327 -0.49831662 -0.23467728 -0.22157599 0.40938386 -0.5972372 0.20219822 0.47390237 0.48235872 -0.17376697 0.19637732 -0.14720105 -0.48457938
role -0.15256096 1.0261402 -0.7254326 -0.0081046 0.22229765 -0.44386077 0.27509135 0.121992916 -0.5007885 -0.22211035 -0.22547089 0.4464642 -0.6364569 0.23115219 0.48514068 0.48818645 -0.16710483 0.16411151 -0.18994425 -0.5328967
presence -0.14278524 0.85617036 -0.6042707 -0.0063368194 0.1892755 -0.3681834 0.21177413 0.114197575 -0.42747247 -0.19634812 -0.19735047 0.37069425 -0.5427296 0.20677504 0.39751497 0.42989385 -0.16379528 0.18506496 -0.15719028 -0.43515402
UL8 -0.089525424 0.7411787 -0.56861866 0.0021954484 0.17613234 -0.29485166 0.21689998 0.098147795 -0.4100612 -0.14267583 -0.1772446 0.32450762 -0.47448465 0.15438348 0.3871969 0.37292385 -0.12345893 0.11852609 -0.14908896 -0.37593985
phosphoprotein -0.07059368 0.51805764 -0.38497588 -0.004244196 0.1371905 -0.25170758 0.117537126 0.094841294 -0.27993008 -0.13950022 -0.15194087 0.227475 -0.36666667 0.09640966 0.23434359 0.28054523 -0.073460065 0.10716429 -0.06910601 -0.26852754
during -0.1509644 1.1493766 -0.80651194 -0.04435077 0.25272822 -0.49613315 0.2895692 0.13990313 -0.6028893 -0.26282734 -0.2878546 0.53466976 -0.70365644 0.24665888 0.5605902 0.5497115 -0.19795452 0.23200832 -0.19658786 -0.5725045
UL52 -0.0814646 0.5650079 -0.39483342 -0.030700501 0.103873245 -0.21002391 0.13421322 0.07554766 -0.29090276 -0.13234793 -0.1658302 0.23556061 -0.352206 0.10658236 0.27895173 0.2799921 -0.12700132 0.09712482 -0.08618037 -0.3065623
repair -0.17868236 1.091872 -0.72876024 -0.018643342 0.26510447 -0.41704428 0.2758648 0.12048139 -0.56432605 -0.22225972 -0.28281057 0.5042025 -0.65533316 0.22861966 0.47549647 0.5223215 -0.19158763 0.18952063 -0.1897363 -0.51617634
profilins -0.17849368 1.2377369 -0.875969 -0.0048140856 0.28453478 -0.5074985 0.32126704 0.14645314 -0.61260647 -0.29391426 -0.28287202 0.54427403 -0.77243423 0.2525651 0.5530509 0.61110634 -0.22075756 0.22226319 -0.19570805 -0.63655937
vitro -0.13242531 0.68714774 -0.49152204 -0.017199857 0.1505691 -0.2751046 0.16164756 0.074604034 -0.34641314 -0.15288745 -0.14559136 0.3189546 -0.4268728 0.17637116 0.35190806 0.3377581 -0.09317084 0.15273847 -0.14657445 -0.36092225
type -0.16241874 1.2510283 -0.8661219 -0.041537993 0.27582785 -0.533763 0.30006948 0.16316459 -0.6405338 -0.25299048 -0.32733062 0.5463819 -0.7589939 0.2574878 0.56248593 0.5920036 -0.1883273 0.20700274 -0.19087805 -0.6141592
antibodies -0.114771776 0.8964658 -0.6695048 -0.024530852 0.19362645 -0.39698318 0.2171398 0.112007566 -0.45312995 -0.18850344 -0.24789035 0.40855825 -0.5575633 0.18459885 0.43681258 0.4328813 -0.15544155 0.17257081 -0.13740896 -0.45733914
beta -0.14562787 1.0462447 -0.74237376 -0.046696175 0.2425589 -0.4596301 0.28414595 0.14521667 -0.5135604 -0.25613037 -0.2681485 0.44662094 -0.6602006 0.23787826 0.4831664 0.5402171 -0.14798291 0.18910328 -0.188008 -0.54863983
associated -0.12622432 0.8714965 -0.59873354 -0.005013513 0.1698045 -0.37157565 0.23922297 0.090756856 -0.4583805 -0.21384932 -0.20165238 0.37646556 -0.55021334 0.1676408 0.40988025 0.4096005 -0.14546563 0.17395996 -0.15257135 -0.45606834
required -0.12361498 1.033546 -0.72480005 -0.010271343 0.22003789 -0.43255654 0.2672696 0.12918456 -0.5103479 -0.21905407 -0.25993901 0.4560423 -0.6328272 0.2221746 0.45791042 0.51015335 -0.18484597 0.17173904 -0.17945683 -0.4995918
UL5 -0.058961097 0.5528387 -0.3567193 0.011709902 0.11292355 -0.23245975 0.15161358 0.06018861 -0.2838457 -0.10226987 -0.12369546 0.21858867 -0.3148954 0.09761322 0.24222565 0.26818478 -0.094400935 0.07641203 -0.10617372 -0.27008978
2 -0.1306994 0.8987717 -0.6276489 -0.022686254 0.19289887 -0.36805284 0.2114791 0.114487484 -0.4577195 -0.18404527 -0.21801436 0.39301348 -0.56310326 0.18313543 0.4325781 0.44240117 -0.14866531 0.14854646 -0.14788443 -0.48390225
function -0.108154505 0.79155874 -0.541641 -0.019594371 0.1884369 -0.33629462 0.18580979 0.09925907 -0.40860212 -0.14712118 -0.20434749 0.34435937 -0.4713052 0.1968025 0.3672331 0.35677397 -0.11012338 0.12376363 -0.15542454 -0.39170465
effect -0.0963807 0.6956139 -0.50378454 -0.011793326 0.1426912 -0.30265963 0.16843814 0.08959641 -0.378848 -0.17094941 -0.1639197 0.33561048 -0.43609616 0.18005352 0.33078414 0.35958952 -0.10150639 0.1307923 -0.13638225 -0.35733983
microM -0.1324955 0.9040029 -0.67007494 -0.038813494 0.19212116 -0.3628875 0.22660422 0.1325561 -0.49359193 -0.2154343 -0.23693174 0.4371406 -0.5571711 0.17925479 0.41763774 0.4346125 -0.14778589 0.14915247 -0.16150704 -0.4630548
containing -0.18655169 1.1890633 -0.84079885 -0.039900977 0.27601936 -0.49882397 0.32601988 0.14738058 -0.6122391 -0.26329193 -0.26662928 0.5550177 -0.7189669 0.26577753 0.5515987 0.5872393 -0.20061694 0.20865498 -0.18508758 -0.57316494
cyclin-dependent -0.14832611 0.73504037 -0.5628709 -0.029864388 0.1865281 -0.3237056 0.20171843 0.11055856 -0.41348812 -0.15626363 -0.20257021 0.31009167 -0.4444267 0.18483274 0.31866044 0.3488077 -0.13500047 0.14176281 -0.17114256 -0.4078481
shown -0.15051979 0.8838935 -0.6359224 -0.032260936 0.22188511 -0.3641952 0.20948242 0.12042115 -0.4741651 -0.21969697 -0.21259196 0.42636615 -0.5821594 0.18711798 0.4332017 0.41741288 -0.16864242 0.17624398 -0.15207753 -0.4428196
sites -0.14870133 0.91314024 -0.62305653 -0.024981229 0.19264929 -0.38809896 0.25830165 0.105511226 -0.46750483 -0.18663447 -0.20999506 0.39912543 -0.5474336 0.21621937 0.40894294 0.4614761 -0.12922105 0.16568777 -0.14956445 -0.44342148
complexes -0.11101811 0.8057044 -0.6017141 -0.008802966 0.1615355 -0.36386102 0.21820371 0.13141097 -0.42876598 -0.17856547 -0.18632472 0.349716 -0.5032514 0.21002181 0.39520955 0.39481947 -0.14281663 0.14671138 -0.1633358 -0.43686557
synthesis -0.10956328 0.79074496 -0.59626865 -0.021615328 0.1680478 -0.3398408 0.21827078 0.09897291 -0.40421954 -0.15791473 -0.22340012 0.39070103 -0.49366507 0.17056392 0.3676203 0.40762663 -0.111987166 0.1664907 -0.15392189 -0.3885029
adhesion -0.13678047 0.9332424 -0.6424424 -0.007109922 0.22084835 -0.39329162 0.23990901 0.13595384 -0.46432143 -0.21447837 -0.2334298 0.42228615 -0.5791624 0.20214665 0.45628902 0.4431659 -0.17619237 0.14819854 -0.18436378 -0.48318982
whereas -0.14949985 0.9584711 -0.70456535 -0.020645509 0.19586046 -0.4201903 0.27501976 0.10723698 -0.4885822 -0.1968137 -0.24968545 0.44550562 -0.62622637 0.19458191 0.44570726 0.457389 -0.1421281 0.19796635 -0.17450425 -0.46627864
three -0.1742049 1.0000987 -0.6991833 -0.009445842 0.2061892 -0.42223066 0.28385535 0.15598436 -0.52724135 -0.21409927 -0.25215757 0.46269467 -0.6203447 0.23792022 0.45280743 0.5046929 -0.17800662 0.20478195 -0.19210535 -0.48334864
molecules -0.18459567 1.0872056 -0.7433631 -0.0057254056 0.24765298 -0.44712362 0.2835139 0.14079067 -0.5374646 -0.2287291 -0.2871449 0.46148548 -0.6945677 0.24561718 0.5028923 0.5244398 -0.17034005 0.19430469 -0.17898986 -0.53216946
skeletal -0.08182549 0.6551546 -0.46061036 -0.028397365 0.14079423 -0.29065895 0.14657211 0.075129956 -0.33038998 -0.13500601 -0.15732789 0.31559992 -0.3834796 0.13449018 0.3250303 0.32996687 -0.101197846 0.14555988 -0.11078069 -0.34907925
effects -0.10387022 0.8372596 -0.6002975 0.00048983976 0.20134579 -0.3350404 0.2206828 0.1349849 -0.42480132 -0.20089899 -0.20403248 0.36601985 -0.5091158 0.19805989 0.36623532 0.40099007 -0.110463284 0.17002417 -0.14453124 -0.40061212
isoforms -0.075937435 0.61906725 -0.43655702 -0.014389645 0.124585785 -0.26493683 0.16507684 0.06805248 -0.33666047 -0.14480127 -0.1736177 0.3005455 -0.38334572 0.14803524 0.32069683 0.3331186 -0.06872242 0.13293257 -0.11535022 -0.30216116
show -0.13368082 0.8399237 -0.5705187 -0.025050323 0.20745757 -0.37030205 0.24125257 0.12922767 -0.4258782 -0.17007996 -0.18477856 0.38688895 -0.5341187 0.18314599 0.39458948 0.3932587 -0.15956354 0.13832392 -0.1549901 -0.43017352
high -0.11888913 0.9423316 -0.65197843 -0.026451943 0.212271 -0.4126556 0.2588668 0.14353837 -0.47135195 -0.213638 -0.2413263 0.42623794 -0.59653735 0.19046187 0.4166963 0.47361284 -0.12730911 0.15565437 -0.1630543 -0.49338344
form -0.11240626 0.83582795 -0.5826348 -0.03310408 0.19638184 -0.36454612 0.2316533 0.088278696 -0.44330752 -0.16743802 -0.2209828 0.375934 -0.51763326 0.16439803 0.37930152 0.41133657 -0.12388396 0.16217698 -0.13476247 -0.44053993
formation -0.119170964 0.8002818 -0.5715133 -0.02757215 0.20043458 -0.3461253 0.19479717 0.113042474 -0.42920625 -0.19812168 -0.19823049 0.3693454 -0.49596906 0.16474627 0.37806684 0.3895347 -0.12671591 0.15199022 -0.14708088 -0.39132947
nucleocapsid -0.09310693 0.5629131 -0.39733472 -0.009868276 0.17231391 -0.2670882 0.14701568 0.09659924 -0.30541447 -0.15177703 -0.12909585 0.25116953 -0.37599117 0.14794323 0.26431188 0.28254163 -0.11605875 0.12958765 -0.10540072 -0.32789305
domains -0.12759608 0.9964793 -0.7141839 -0.03903977 0.20856728 -0.4340068 0.26206067 0.13532259 -0.49063787 -0.23609106 -0.23805264 0.45844355 -0.6372726 0.23674303 0.491642 0.496511 -0.14514978 0.16607548 -0.18012379 -0.51361036
functions -0.14688921 0.83660364 -0.5770682 -0.021486584 0.20551881 -0.3433172 0.22515477 0.13234991 -0.43960503 -0.19072652 -0.21828252 0.36484945 -0.5099687 0.18345462 0.359704 0.39328176 -0.15769725 0.12612551 -0.13148129 -0.4095885
nucleotide -0.12141969 0.9390679 -0.665223 -0.00857852 0.22066014 -0.4048304 0.24237613 0.14283995 -0.5060998 -0.2218473 -0.21528657 0.4457454 -0.59010327 0.23333852 0.44632828 0.4835761 -0.13744266 0.19650385 -0.17014848 -0.5064637
H4 -0.123446934 0.7138204 -0.5362032 0.00198778 0.14903338 -0.30034763 0.1812775 0.09931928 -0.36292726 -0.16977175 -0.18880816 0.3554289 -0.42722815 0.16369581 0.32837704 0.33465275 -0.1470656 0.16665478 -0.1106417 -0.35047406
mutant -0.15782067 0.9294611 -0.64584696 -0.016984245 0.19965507 -0.3842593 0.26748863 0.10078365 -0.48251414 -0.18274832 -0.21799266 0.39932367 -0.567091 0.18600866 0.43875635 0.44893008 -0.16780202 0.15270013 -0.14890085 -0.45808983
such -0.121459685 0.7681292 -0.5281738 -0.01648713 0.18378916 -0.30854213 0.17497335 0.088740975 -0.41032895 -0.15196583 -0.17343691 0.3380986 -0.46375751 0.1898233 0.37408116 0.35731667 -0.12167166 0.15700652 -0.103836775 -0.39635208
vivo -0.07622353 0.5398261 -0.3670861 -0.0066930125 0.112231575 -0.22306827 0.12184953 0.07360637 -0.2872394 -0.14405267 -0.14266156 0.23766084 -0.32120767 0.12924497 0.25205433 0.25356638 -0.09368496 0.10246062 -0.07849124 -0.27638462
study -0.12514162 0.6144339 -0.4255492 -0.0015015673 0.16331306 -0.27477276 0.18918057 0.107915066 -0.30762818 -0.12666869 -0.1328618 0.29111427 -0.40341398 0.12810375 0.28917903 0.29667857 -0.10977434 0.11166536 -0.12494101 -0.31186673
different -0.16190836 0.9267755 -0.6499971 -0.021844713 0.19424264 -0.37542203 0.2414774 0.11308315 -0.44317114 -0.21016483 -0.24308048 0.40611535 -0.5871564 0.22017181 0.4222064 0.41941354 -0.1393616 0.15752526 -0.17217067 -0.44366467
receptor -0.15595976 1.0323117 -0.70890504 -0.0105810305 0.24154244 -0.42143562 0.27735692 0.12716712 -0.5443594 -0.22749141 -0.2667405 0.47735298 -0.6561425 0.20430367 0.49614364 0.4832087 -0.1604704 0.16995603 -0.15170112 -0.52191895
cytoskeletal -0.09216768 0.7549497 -0.5257433 -0.01329209 0.18669552 -0.29884464 0.17448883 0.10703924 -0.38236752 -0.17314348 -0.20409518 0.34009296 -0.49318048 0.18007946 0.36513054 0.38269085 -0.117610246 0.11999081 -0.15388945 -0.39667332
expressed -0.10486289 0.73588836 -0.53446794 -0.01228397 0.18895596 -0.33800548 0.19136862 0.08940619 -0.38063484 -0.16550758 -0.20644303 0.35235372 -0.46937406 0.1568917 0.37460893 0.38508093 -0.14195725 0.13724814 -0.13671903 -0.37820816
showed -0.13136312 0.96365005 -0.6537794 0.0020756088 0.19237554 -0.38056353 0.23409235 0.13338616 -0.5062837 -0.20233695 -0.25127777 0.44911474 -0.5934011 0.20283997 0.42959735 0.4564737 -0.18496132 0.1761068 -0.1662226 -0.48991504
interactions -0.084348224 0.55080366 -0.41446736 -0.010544693 0.11807121 -0.21969034 0.13578832 0.075888485 -0.29426846 -0.10695866 -0.15992941 0.25860044 -0.33696994 0.1263043 0.25313553 0.28615692 -0.076504156 0.12700324 -0.09389517 -0.27445024
3 -0.15722808 0.90807205 -0.62544686 -0.002407662 0.20023173 -0.3926929 0.24340826 0.14076549 -0.4747558 -0.18758588 -0.20052713 0.42396924 -0.58023953 0.20796509 0.4381634 0.43420455 -0.14825726 0.16862771 -0.14988162 -0.45969495
[ -0.15691957 1.110723 -0.8026268 -0.027466856 0.2645632 -0.48122782 0.3095858 0.15802506 -0.5669422 -0.2369996 -0.29819822 0.50505924 -0.72853047 0.24414277 0.5256975 0.53210276 -0.17397347 0.21619496 -0.21470647 -0.58324987
] -0.14094092 0.79031336 -0.5854431 -0.0037776625 0.17981371 -0.35102466 0.21902984 0.12104491 -0.42627785 -0.17024493 -0.19732194 0.37154168 -0.52473223 0.20105332 0.3787277 0.3965368 -0.11117318 0.1549661 -0.16492273 -0.3975617
one -0.110693775 0.8390316 -0.58735526 0.0068907384 0.21094891 -0.33293214 0.19923677 0.1282311 -0.41677806 -0.19609712 -0.2002177 0.38155448 -0.5185245 0.1767807 0.37231198 0.4298598 -0.15222768 0.15338846 -0.17059234 -0.42911908
H3 -0.13365573 0.66771954 -0.48895523 0.011049815 0.16087343 -0.2660264 0.16207056 0.07015135 -0.37378517 -0.15034324 -0.175326 0.33646828 -0.4117582 0.1592154 0.30309987 0.352407 -0.12928209 0.15828136 -0.11033006 -0.3497207
mutations -0.13714589 0.8501501 -0.61347127 -0.028511535 0.1936814 -0.3629069 0.2445553 0.109051526 -0.4118471 -0.21447079 -0.18735771 0.39565763 -0.53818184 0.17942385 0.39601797 0.40389514 -0.13888617 0.14457323 -0.13697168 -0.44914898
only -0.13038403 0.77793 -0.5512621 -0.013160081 0.1572159 -0.3172694 0.18605295 0.08691789 -0.3789288 -0.19100232 -0.19214763 0.3614516 -0.47093263 0.18316838 0.36471683 0.36210808 -0.13113238 0.15309602 -0.15082748 -0.41068313
activation -0.15037306 0.91139674 -0.646783 -0.03746756 0.2261801 -0.37468573 0.23882703 0.10461574 -0.49242908 -0.2189384 -0.20426866 0.3953342 -0.55128473 0.1964637 0.4526584 0.43872505 -0.13050039 0.14805722 -0.18143086 -0.48017386
levels -0.08672066 0.7624622 -0.49701837 -0.037683036 0.14151299 -0.33092895 0.18087356 0.0802568 -0.3972473 -0.14251493 -0.19605897 0.3540262 -0.46696544 0.14800955 0.3620986 0.34265828 -0.12850535 0.116146594 -0.12274778 -0.37229276
Here -0.110713206 0.55465627 -0.4156249 -0.019350566 0.09836108 -0.25896972 0.15600853 0.06951598 -0.28818303 -0.14397156 -0.14376126 0.26512292 -0.35026965 0.121596456 0.29209808 0.28724194 -0.098754086 0.07761048 -0.089299165 -0.2844818
N -0.073468596 0.44168916 -0.315781 0.011344249 0.12522875 -0.17016177 0.1113166 0.057699125 -0.23686507 -0.13374305 -0.102307014 0.18147881 -0.26996255 0.08819174 0.20454666 0.2513797 -0.0827503 0.056361407 -0.070602015 -0.23739049
regulation -0.03909733 0.34069172 -0.23492612 -0.014368117 0.058600843 -0.1168591 0.07844578 0.020670673 -0.19881675 -0.063410394 -0.075816095 0.14279854 -0.19755588 0.068784595 0.18229881 0.15579621 -0.07393643 0.08195445 -0.059162393 -0.19091529
MSH2 -0.15165232 0.93098795 -0.661562 -0.024305731 0.22457066 -0.37496883 0.24914359 0.10907365 -0.4644276 -0.1997551 -0.24710251 0.4227851 -0.5703795 0.19887379 0.4404547 0.45771453 -0.17112103 0.16952229 -0.18667315 -0.47510827
mutants -0.11589392 0.93130726 -0.6541472 -0.02152342 0.21757314 -0.3684082 0.22425409 0.11028736 -0.48207414 -0.18588841 -0.23741682 0.39979985 -0.5825932 0.19256233 0.42314205 0.44902378 -0.12639832 0.1609792 -0.16671081 -0.44391918
ability -0.094666004 0.59481674 -0.427187 -0.014243325 0.14487764 -0.23028219 0.1811578 0.08746064 -0.2928856 -0.14170657 -0.13247187 0.2761032 -0.3606786 0.14265446 0.28514317 0.28876927 -0.07796773 0.11027282 -0.11009267 -0.2874555
isolated -0.1575008 0.95924217 -0.6585432 -0.017544793 0.18562943 -0.4042877 0.24357152 0.12323853 -0.46200684 -0.2232934 -0.24030623 0.44085455 -0.5712118 0.2223568 0.45723844 0.44872043 -0.14553192 0.16859291 -0.1530885 -0.4810675
gelsolin -0.09093846 0.44378623 -0.3179467 -0.030174049 0.10640252 -0.15664305 0.088520415 0.042459864 -0.21426795 -0.07277196 -0.08830707 0.18052363 -0.25199303 0.10549917 0.20123552 0.22223754 -0.08105768 0.07399232 -0.070210874 -0.21487783
smooth -0.089099474 0.58854866 -0.44964346 -0.031821035 0.15375704 -0.25494438 0.13226923 0.068269216 -0.31503615 -0.13742594 -0.1758588 0.29238725 -0.34467873 0.12279758 0.26398847 0.28884304 -0.05949298 0.111725725 -0.10415256 -0.3261436
exchange -0.10117148 0.76488024 -0.503217 -0.019577492 0.16229546 -0.33549815 0.1946367 0.10696954 -0.391063 -0.1774081 -0.19213572 0.3455184 -0.47091976 0.16802263 0.35463244 0.36162302 -0.094787695 0.12303613 -0.12586321 -0.3601357
all -0.12218844 0.75346464 -0.52018887 -0.007286126 0.19020975 -0.3152715 0.18372779 0.08033789 -0.37903875 -0.18426605 -0.21328492 0.36422265 -0.49431506 0.15727529 0.3685692 0.3716847 -0.10781821 0.16361612 -0.14509894 -0.39086238
known -0.13102221 0.7683167 -0.5112537 0.0060994057 0.16131768 -0.32803354 0.19010107 0.11975875 -0.41079172 -0.15942177 -0.18727134 0.32330737 -0.4720125 0.16792387 0.35222694 0.37953892 -0.13333413 0.11121474 -0.107453115 -0.39374313
interact -0.0980221 0.64095795 -0.41788286 0.013118651 0.11709385 -0.23849079 0.1544496 0.0624815 -0.3114936 -0.12600741 -0.15107362 0.26024777 -0.40703973 0.13233867 0.31084073 0.30423704 -0.11211449 0.10704858 -0.1141678 -0.30286536
lines -0.059112288 0.55947185 -0.37254232 -0.013240993 0.11583861 -0.24775651 0.14482172 0.10028335 -0.3043676 -0.10435301 -0.12822221 0.23921864 -0.3435927 0.14723615 0.24667455 0.28128636 -0.10836106 0.0858525 -0.1271101 -0.28190675
adenosine -0.09833079 0.7983963 -0.5666737 -0.028572477 0.18061833 -0.3184556 0.23060107 0.120232634 -0.42194656 -0.18654858 -0.19383256 0.36662063 -0.4823322 0.18975224 0.3855855 0.39234543 -0.12580961 0.13526219 -0.13361853 -0.40683162
TRADD -0.09763829 0.7594745 -0.5317633 -0.031955592 0.14462328 -0.29500982 0.18282071 0.09326007 -0.3641971 -0.1487319 -0.1931505 0.35699403 -0.4982842 0.19262786 0.34192592 0.3609533 -0.12809087 0.12816468 -0.1283411 -0.39973193
4 -0.058471296 0.531309 -0.38851607 -0.015791247 0.1269027 -0.2107905 0.16189249 0.076779075 -0.28018826 -0.10905159 -0.109820515 0.23626511 -0.33235893 0.13267185 0.2634215 0.26160726 -0.09022538 0.08914758 -0.10333371 -0.30690736
induced -0.16159843 0.9322207 -0.66834694 -0.01846513 0.20160963 -0.35853937 0.23778425 0.13024384 -0.45269066 -0.21430098 -0.21089748 0.3917554 -0.5942744 0.21598443 0.4223319 0.46199825 -0.13876618 0.19403933 -0.14325385 -0.44126573
addition -0.08887158 0.45582306 -0.28664026 -0.021455642 0.10539477 -0.200032 0.11949578 0.06280855 -0.24383274 -0.081805624 -0.08177753 0.17770398 -0.25149885 0.07408491 0.17729053 0.19624567 -0.081898816 0.10193516 -0.090643875 -0.24190113
kDa -0.11453379 0.8160392 -0.6063604 -0.022022592 0.16824295 -0.3450183 0.22801979 0.12691003 -0.41976446 -0.17881711 -0.209883 0.37248293 -0.51843494 0.19179456 0.375726 0.42184198 -0.15263313 0.17752694 -0.15745462 -0.44468036
To -0.08019517 0.47496843 -0.34527814 -0.024322644 0.118391275 -0.21408817 0.10681547 0.0816436 -0.24628411 -0.11359054 -0.12809524 0.20974122 -0.28720197 0.09028146 0.23779286 0.23594366 -0.061673295 0.07404589 -0.08945462 -0.23794588
light -0.061995223 0.52533597 -0.36598378 -0.03820356 0.1392629 -0.20773837 0.13401 0.056416113 -0.2896753 -0.13179052 -0.1236907 0.2763366 -0.326755 0.1345131 0.2394801 0.26599422 -0.05760966 0.12987572 -0.10173127 -0.25174662
nuclear -0.1016304 0.8083279 -0.5489831 -0.028562766 0.17841345 -0.3450026 0.21208897 0.11181793 -0.40650472 -0.18114598 -0.16774844 0.34378546 -0.49894327 0.16767123 0.34062803 0.3865788 -0.1199564 0.13109285 -0.16237004 -0.37644607
association -0.06019995 0.58224165 -0.4189377 -0.022047004 0.104518525 -0.24862494 0.16570553 0.08801359 -0.2961825 -0.1046167 -0.13459152 0.23396887 -0.3548403 0.13000274 0.2849451 0.28417465 -0.093651526 0.09111567 -0.092244454 -0.29890314
cerevisiae -0.09864656 0.687583 -0.49643263 -0.026975032 0.17715523 -0.3168914 0.19046184 0.06936124 -0.36447793 -0.17282666 -0.17148285 0.3404739 -0.45588577 0.16911115 0.34014127 0.3290432 -0.11918421 0.125645 -0.09798229 -0.36787134
analysis -0.10151965 0.70360684 -0.49084422 -0.0015125064 0.16590539 -0.2880151 0.18260503 0.10199759 -0.38783324 -0.17426348 -0.18906891 0.3168222 -0.44403404 0.17707439 0.3147203 0.3683274 -0.11362188 0.13692626 -0.15165493 -0.3884898
II -0.15095924 0.87567925 -0.6341119 -0.027757702 0.18208611 -0.35006797 0.19896147 0.1376463 -0.45076063 -0.18780519 -0.21113428 0.40175593 -0.5549553 0.17899297 0.4085463 0.4389813 -0.13391067 0.16494863 -0.13805327 -0.4454781
This -0.07123829 0.5311566 -0.34901518 -0.008776116 0.09117586 -0.22845784 0.12975699 0.06176547 -0.25696284 -0.08821361 -0.10501022 0.23223428 -0.29211134 0.095030084 0.23795153 0.24563786 -0.067442544 0.092350006 -0.105910294 -0.23434314
gamma-catenin -0.069072835 0.3327128 -0.2397042 -0.0007348863 0.068617925 -0.15577796 0.104039244 0.039822064 -0.18342212 -0.053272597 -0.11065586 0.15152091 -0.20945647 0.07915163 0.17055814 0.14240845 -0.082364626 0.066135004 -0.03278232 -0.18640499
rate -0.12500596 0.81473756 -0.55205816 -0.0008114747 0.19566625 -0.34403452 0.23122987 0.117477246 -0.38882688 -0.20106101 -0.21552634 0.3632788 -0.5055272 0.19200516 0.38632327 0.41622764 -0.10351196 0.16850387 -0.16607077 -0.43024665
regulate -0.0943337 0.6769008 -0.47841394 -0.027429119 0.17000839 -0.2842628 0.15850209 0.07297641 -0.32856786 -0.17399302 -0.18032074 0.32192042 -0.44797343 0.1326075 0.32520485 0.35955364 -0.09681123 0.11944468 -0.13502908 -0.34234962
monomers -0.099516675 0.5230343 -0.36404145 -0.018628491 0.09419251 -0.22423846 0.1401983 0.05048675 -0.24095498 -0.123317055 -0.1259793 0.20940809 -0.32279906 0.08949027 0.21258098 0.22154936 -0.08686914 0.07734747 -0.07018643 -0.25063774
residues -0.111203596 0.8201206 -0.5558707 -0.0049615786 0.16899517 -0.33288082 0.22824086 0.10739182 -0.42378855 -0.18492322 -0.19008903 0.37644714 -0.50116765 0.15429562 0.3490369 0.3766099 -0.12842014 0.17175671 -0.124616444 -0.4233482
localization -0.05650765 0.50467443 -0.3776544 -0.024345523 0.1413532 -0.21518567 0.15974005 0.06864766 -0.28178954 -0.101763785 -0.14313233 0.24444601 -0.35192442 0.11515731 0.2619752 0.2638771 -0.083821654 0.10130373 -0.08234138 -0.2767157
normal -0.12067756 0.7889236 -0.57158595 -0.029948944 0.19499314 -0.309006 0.18798064 0.093171656 -0.37783897 -0.1547284 -0.21763471 0.35317525 -0.4957885 0.18194371 0.371795 0.3825588 -0.14168505 0.12349002 -0.132604 -0.3853866
phosphorylation -0.11492635 0.73352504 -0.53502053 -0.032588754 0.19294652 -0.32306424 0.17457172 0.11613634 -0.36345404 -0.16061734 -0.18852247 0.355168 -0.49955323 0.17797077 0.36691397 0.34444782 -0.13169804 0.14025863 -0.114437215 -0.40885988
MSH3 -0.07731317 0.5493479 -0.38388434 -0.00095212605 0.11731829 -0.21106327 0.15561129 0.07477948 -0.3008319 -0.13704816 -0.11530133 0.25999522 -0.3261352 0.09835158 0.2648418 0.24596521 -0.09570596 0.1013987 -0.0940073 -0.30856818
focal -0.09907674 0.62785727 -0.4522323 -0.021754969 0.15480553 -0.26541567 0.17981414 0.09507866 -0.30049008 -0.13087356 -0.13792953 0.28965214 -0.38414294 0.14225669 0.29641584 0.2947874 -0.11052903 0.108382076 -0.123637535 -0.32060617
essential -0.06711822 0.49237832 -0.34027717 -0.019868683 0.08629971 -0.19445878 0.10991914 0.058166325 -0.22361363 -0.103650376 -0.11446726 0.23036757 -0.30635262 0.12602054 0.20420198 0.24820615 -0.057437368 0.07458633 -0.10239993 -0.22606075
demonstrated -0.099586755 0.6384604 -0.4426765 -0.016854886 0.15525357 -0.28319725 0.15531531 0.077164784 -0.3110388 -0.12744531 -0.16950044 0.2850026 -0.40696687 0.1674524 0.3226661 0.32385337 -0.1186062 0.12269289 -0.091574095 -0.3056731
specific -0.07634178 0.58840567 -0.42084184 -0.018043693 0.112643205 -0.25669318 0.17722438 0.0760262 -0.31549987 -0.14287934 -0.12288688 0.29020032 -0.36966482 0.108354256 0.26604474 0.2903034 -0.11210585 0.09007769 -0.11401101 -0.30920804
changes -0.13353671 0.7407886 -0.5429185 0.009517475 0.1689246 -0.33169654 0.1980721 0.09105027 -0.35514325 -0.18878254 -0.16040449 0.3403197 -0.46198118 0.16245216 0.36573756 0.34789643 -0.105214976 0.15747203 -0.13588013 -0.39735767
pathway -0.0933402 0.6663481 -0.48874027 -0.01317965 0.15054889 -0.2918991 0.19396763 0.10090469 -0.33336306 -0.14269109 -0.16262858 0.309144 -0.39078954 0.14640044 0.30817252 0.34579256 -0.084190756 0.097155936 -0.09756877 -0.32455653
major -0.09775431 0.7593603 -0.50076926 0.004812708 0.16598359 -0.32140967 0.21292141 0.11951727 -0.35651976 -0.16549434 -0.1788982 0.31587508 -0.465224 0.16788693 0.35493302 0.3488659 -0.127528 0.12987962 -0.1283408 -0.35671556
did -0.13870442 0.82992715 -0.57120425 0.007445846 0.16267976 -0.3205517 0.18963744 0.08687555 -0.41418844 -0.16033842 -0.20400916 0.35468975 -0.5296407 0.17858936 0.3987263 0.4116897 -0.14971787 0.12259881 -0.1438037 -0.4373107
most -0.109301664 0.66524965 -0.4562906 0.0040184725 0.1381811 -0.24682489 0.16501293 0.08989254 -0.3124079 -0.12201938 -0.15923265 0.28695267 -0.3957839 0.14496848 0.31662232 0.3315099 -0.088282906 0.1349055 -0.12006603 -0.320871
Saccharomyces -0.082544215 0.55247086 -0.38790458 0.0049047032 0.13779755 -0.21598157 0.1288076 0.052945733 -0.27877653 -0.15410683 -0.13962975 0.23162776 -0.37185547 0.1246672 0.28628093 0.2856611 -0.0829495 0.12761497 -0.12513569 -0.30720127
system -0.096804395 0.5582515 -0.39594886 -0.033660654 0.14437379 -0.24428691 0.12855023 0.0895734 -0.2593661 -0.109407015 -0.13101898 0.24962285 -0.33840168 0.10187409 0.26597375 0.29142725 -0.113562234 0.10629094 -0.11234306 -0.25963438
recombinant -0.09138611 0.75765073 -0.5242575 -0.0072744754 0.18117712 -0.32660028 0.19149226 0.084175095 -0.37610433 -0.13958828 -0.15606141 0.35626736 -0.46254542 0.15249006 0.35566324 0.35090494 -0.13242729 0.1287548 -0.11886703 -0.3763359
used -0.113285184 0.554896 -0.39757138 -0.0030829692 0.111186355 -0.22199702 0.14786004 0.08392681 -0.3051831 -0.13702165 -0.15039593 0.25993887 -0.33062384 0.12079697 0.24005628 0.2757514 -0.08889081 0.08962189 -0.08922166 -0.2907856
through -0.10885665 0.7496847 -0.51934457 0.0012495763 0.17534456 -0.3244168 0.1707115 0.085473344 -0.3789901 -0.15903592 -0.19611043 0.34385648 -0.4868505 0.15513457 0.3267483 0.37983212 -0.10794195 0.1395145 -0.12109015 -0.37176618
well -0.07878311 0.5494397 -0.36644816 -0.014346875 0.116691075 -0.21636073 0.14813392 0.095771864 -0.27334628 -0.11639505 -0.15671113 0.22568446 -0.35546312 0.11279794 0.26613522 0.27056286 -0.10383736 0.081381455 -0.10411052 -0.26061758
FADD -0.095621474 0.6337945 -0.45200318 0.0075087664 0.14918475 -0.24527298 0.17819072 0.07058133 -0.32173026 -0.1535614 -0.16725682 0.29826435 -0.38464582 0.15250193 0.31462675 0.32242027 -0.12490513 0.09147719 -0.11986648 -0.290588
revealed -0.11594249 0.78660625 -0.54225624 -0.0074423756 0.1626806 -0.31916907 0.21895088 0.08622817 -0.3891728 -0.19721293 -0.1723901 0.3654425 -0.47338763 0.15743074 0.37444147 0.37053418 -0.12778585 0.16616476 -0.1120877 -0.4004499
concentration -0.043166943 0.46565038 -0.3034077 -0.0144996885 0.09560199 -0.19830306 0.09694542 0.08259278 -0.21751507 -0.10287095 -0.13243371 0.1999355 -0.26871333 0.11089169 0.2015499 0.23075774 -0.07701417 0.10347393 -0.05542536 -0.23271735
present -0.06814568 0.3840421 -0.2879846 0.016639356 0.07199135 -0.15953311 0.111396916 0.058535207 -0.20024267 -0.074927144 -0.08548588 0.20701443 -0.2357959 0.085381016 0.20613216 0.175933 -0.070321076 0.09118811 -0.04732654 -0.22710225
MSH6 -0.10300885 0.61490804 -0.45208776 -0.033222094 0.12491262 -0.25999284 0.1829295 0.06534358 -0.3163438 -0.16033317 -0.1558673 0.25775364 -0.37895647 0.12176935 0.31280008 0.304234 -0.115730435 0.12317191 -0.09576544 -0.341318
replication -0.064255804 0.6042668 -0.41894248 -0.022168068 0.13076332 -0.24371256 0.16004366 0.09553676 -0.29351795 -0.11811968 -0.14589593 0.26992688 -0.36220312 0.15222628 0.26117906 0.27441955 -0.10618842 0.096586846 -0.12344699 -0.2801267
respectively -0.03982704 0.40811953 -0.28288585 0.015308272 0.09430867 -0.15978917 0.107656285 0.06039659 -0.19878624 -0.09640723 -0.12054459 0.17123865 -0.26664773 0.10269041 0.18510099 0.21587017 -0.061673857 0.08884784 -0.09270565 -0.21226549
RAD54 -0.053421825 0.45746192 -0.33797646 0.0064412984 0.1090639 -0.16227949 0.13464905 0.067166016 -0.20736134 -0.077138014 -0.12676817 0.20786688 -0.3037175 0.07552501 0.19948587 0.20408478 -0.0710457 0.06780079 -0.059749134 -0.24724883
determined -0.0846653 0.6780055 -0.45870945 -0.008494394 0.17489736 -0.26987293 0.17033872 0.11252596 -0.3567457 -0.13448456 -0.17307076 0.32167786 -0.44338953 0.13805856 0.31923795 0.3143987 -0.11283876 0.108113304 -0.110605925 -0.35838902
However -0.07297928 0.35798913 -0.2582105 0.01692586 0.075984485 -0.12865734 0.09826666 0.041737936 -0.17870225 -0.062043637 -0.077063955 0.1452647 -0.20460069 0.08043073 0.14574735 0.16407624 -0.080525674 0.063630134 -0.07872755 -0.19610462
signaling -0.116952114 0.73879844 -0.5424987 -0.0006689899 0.16033371 -0.29269102 0.20474525 0.08041352 -0.3650596 -0.18432406 -0.15648775 0.32923812 -0.45585448 0.1403745 0.36583957 0.3730815 -0.11845559 0.13349047 -0.13320021 -0.364312
alpha -0.09474386 0.65405184 -0.46585003 -0.027720284 0.16961385 -0.25759548 0.16827184 0.06977565 -0.338285 -0.15823098 -0.16243477 0.3258896 -0.4108326 0.15939397 0.30502558 0.31652856 -0.10785896 0.13883938 -0.120847285 -0.3327379
structures -0.10203078 0.66787 -0.47480804 -0.032037325 0.1289652 -0.25805774 0.16027209 0.06660308 -0.34915194 -0.159584 -0.1394832 0.27930853 -0.41311386 0.17318122 0.29887167 0.3389833 -0.12571234 0.11300685 -0.13950548 -0.3578377
transcription -0.07550755 0.6109129 -0.42822996 0.016023058 0.13388716 -0.25843558 0.16316743 0.07687888 -0.32843313 -0.1409398 -0.17289637 0.2800659 -0.36834317 0.13213757 0.28030866 0.3178698 -0.107350044 0.1217652 -0.114298046 -0.29757726
CBP -0.09602487 0.4890479 -0.32602906 0.005532081 0.12246046 -0.21571451 0.1404783 0.0681277 -0.2630911 -0.12061193 -0.1323339 0.21930344 -0.33517963 0.13035831 0.22786666 0.23045619 -0.066125184 0.070041694 -0.0655195 -0.23241505
studies -0.10576249 0.7132792 -0.50955945 -0.0015062344 0.16930346 -0.30679342 0.21350251 0.111921355 -0.3697728 -0.15929219 -0.16451278 0.33875102 -0.45567745 0.14882526 0.32783353 0.37593207 -0.12033098 0.122318566 -0.15220973 -0.36157504
either -0.07673886 0.66597027 -0.45527387 -0.013639494 0.13979638 -0.29058167 0.15641789 0.095742896 -0.3376757 -0.12553723 -0.15034053 0.28182492 -0.42723498 0.15229113 0.30447805 0.3388515 -0.10740212 0.14165889 -0.09490189 -0.3295955
tropomyosin -0.054406352 0.45205265 -0.29923445 -0.030436749 0.12448172 -0.16297032 0.1173797 0.05277951 -0.19440764 -0.11128087 -0.08986354 0.20009784 -0.2904027 0.1069188 0.18158048 0.20046948 -0.040692378 0.09920807 -0.07309426 -0.23591551
recombination -0.04406249 0.40130883 -0.28880972 -0.013782343 0.060662106 -0.15730548 0.077680424 0.05462047 -0.21547139 -0.10145388 -0.083852634 0.16146772 -0.23412293 0.109363176 0.18360159 0.19696027 -0.07660062 0.058751985 -0.074831165 -0.1845881
after -0.13354483 0.74709547 -0.5338438 -0.025631549 0.17109531 -0.32890803 0.20504357 0.12645699 -0.38533658 -0.16802202 -0.16804911 0.36443698 -0.4693091 0.17725301 0.33873796 0.36112332 -0.1184745 0.14511593 -0.12289304 -0.40020937
simplex -0.08612492 0.52686673 -0.37578523 0.003841695 0.11484537 -0.22686228 0.13158248 0.053174574 -0.24289428 -0.104297385 -0.14419307 0.20345308 -0.3327734 0.104967915 0.25873062 0.21916595 -0.058615297 0.10786634 -0.09836433 -0.28253567
regions -0.102171704 0.7403732 -0.52910036 -0.03670721 0.1765872 -0.28314173 0.19314784 0.09794266 -0.3879908 -0.14993426 -0.17587656 0.3146088 -0.4677273 0.16147278 0.32095376 0.34695205 -0.14174834 0.12038285 -0.14810243 -0.3487261
determine -0.07447038 0.61669135 -0.44568726 0.008308029 0.16231325 -0.28154498 0.15813749 0.08356622 -0.34948888 -0.14391807 -0.17609534 0.2708186 -0.40202788 0.13694808 0.2938245 0.29690737 -0.111380965 0.098116376 -0.122709624 -0.3398265
J. -0.13099413 0.9133816 -0.6145513 -0.01174116 0.18841004 -0.35746235 0.25376892 0.12990448 -0.4345436 -0.21461119 -0.206697 0.38943407 -0.57150114 0.19540352 0.4075733 0.44668546 -0.12396554 0.17173852 -0.1303239 -0.46015045
' -0.093717314 0.67534375 -0.45296234 0.0043770215 0.1504394 -0.28807494 0.16067632 0.10284493 -0.32746765 -0.14995965 -0.14753646 0.31450838 -0.41856724 0.123912536 0.30260617 0.31516808 -0.10309142 0.14336997 -0.09958465 -0.30614346
acid -0.12050898 0.6611057 -0.44732302 -0.0114564095 0.1369771 -0.28837112 0.17538133 0.06861218 -0.34364203 -0.1624223 -0.15477806 0.31412274 -0.40725976 0.15453774 0.2982578 0.33118895 -0.105596915 0.14243431 -0.117673025 -0.36179665
more -0.09211219 0.69812775 -0.5270939 0.0024730633 0.1576329 -0.2955443 0.15958674 0.10751902 -0.36227944 -0.15646562 -0.16995214 0.3304859 -0.4309808 0.13971919 0.3493836 0.35172316 -0.14146887 0.12884323 -0.11257136 -0.33638546
homologous -0.09935185 0.565721 -0.4024767 -0.022012698 0.11795431 -0.23536219 0.13767344 0.09442346 -0.2706552 -0.1080547 -0.12584823 0.2773701 -0.35074878 0.11679012 0.27115992 0.27219698 -0.079870425 0.08758067 -0.076778255 -0.2878079
four -0.051647063 0.4176279 -0.32792237 0.0093233595 0.07654561 -0.17282063 0.09784011 0.068030864 -0.23832713 -0.10273868 -0.09716018 0.20339645 -0.25361648 0.0933003 0.18314792 0.21990225 -0.079478934 0.064907655 -0.07336958 -0.1979825
reduced -0.095451415 0.5099397 -0.34880352 0.011153204 0.09273239 -0.20241432 0.115555875 0.06981827 -0.26276734 -0.12463903 -0.13901968 0.21823524 -0.3360099 0.09056497 0.21760876 0.26285425 -0.06616294 0.07735796 -0.07752145 -0.23636083
distribution -0.068676084 0.5130195 -0.33847016 0.002409713 0.10334724 -0.20738944 0.14782494 0.06098936 -0.26023307 -0.09712532 -0.14119221 0.21265055 -0.33128792 0.10797211 0.22143357 0.24373777 -0.059706226 0.07082343 -0.08400424 -0.25203058
staining -0.081771046 0.55540913 -0.40979603 -0.012009814 0.11319033 -0.25901055 0.13214606 0.0690984 -0.30998328 -0.14704034 -0.15283802 0.27324367 -0.34966314 0.12689826 0.24307708 0.2848864 -0.08624799 0.11195212 -0.08175325 -0.2610933
ends -0.041583635 0.36274093 -0.25276396 0.0061362204 0.09158689 -0.16279511 0.074004956 0.03017523 -0.16475657 -0.076012954 -0.07016837 0.18475719 -0.2117038 0.10160746 0.18786085 0.1681356 -0.07430252 0.060427252 -0.0574725 -0.1867293
related -0.07764372 0.6485738 -0.46186146 -0.022996722 0.17098323 -0.26025823 0.16040426 0.08759248 -0.35387596 -0.14452484 -0.1823352 0.30118352 -0.42699376 0.13828994 0.33526793 0.33185515 -0.12893052 0.13554269 -0.12205526 -0.34645024
important -0.08628413 0.5200659 -0.3559099 -0.014482646 0.08472749 -0.18135159 0.12831603 0.071883835 -0.26032907 -0.12779696 -0.10694814 0.2316018 -0.3262908 0.12554806 0.25278953 0.25780046 -0.084056534 0.084893696 -0.067301504 -0.26755422
indicate -0.1027992 0.51792604 -0.36113712 -0.012883785 0.14064391 -0.20359275 0.13684858 0.05899366 -0.28712177 -0.09775154 -0.1374045 0.22996031 -0.34258476 0.12717356 0.2329809 0.24485242 -0.088774405 0.092370465 -0.10578342 -0.24876152
sequences -0.11056668 0.57362556 -0.4016118 -0.03429757 0.115329735 -0.23645668 0.17175135 0.06897544 -0.30821183 -0.15356877 -0.12858953 0.27340263 -0.38840804 0.10871628 0.2698858 0.28520706 -0.07727149 0.094930604 -0.09833739 -0.29001498
C -0.08954965 0.6526787 -0.46200892 0.008207008 0.14890563 -0.27619 0.16843668 0.100646175 -0.36235854 -0.14388253 -0.14181377 0.2941832 -0.42223495 0.15475062 0.31260335 0.32206938 -0.08865488 0.14988507 -0.12224717 -0.33737642
including -0.072811574 0.6375745 -0.4336391 -0.018810626 0.12120792 -0.27075574 0.17601283 0.1021256 -0.30925018 -0.11334769 -0.16914423 0.30186373 -0.40385997 0.14735407 0.29787624 0.31676307 -0.10963502 0.11702141 -0.11908107 -0.31296116
products -0.062351942 0.49630705 -0.3583146 0.004933724 0.09582866 -0.19477917 0.1551318 0.04340958 -0.25043905 -0.096298344 -0.12227023 0.23293677 -0.29716608 0.11423733 0.26392457 0.2517414 -0.06845863 0.11616874 -0.075345404 -0.23990768
endothelial -0.086129434 0.60623264 -0.40475124 -0.008441997 0.15144764 -0.23181441 0.14042398 0.08629239 -0.32252234 -0.11193432 -0.14830522 0.2652591 -0.36423633 0.11985891 0.2993645 0.29076692 -0.1137566 0.098061845 -0.11107909 -0.29817998
L -0.038670372 0.3595601 -0.24116698 -0.018710582 0.081283994 -0.15941684 0.09221709 0.06108713 -0.19931196 -0.0778639 -0.078322366 0.12973681 -0.21875244 0.07161936 0.16567868 0.18213579 -0.059276424 0.079523034 -0.0484071 -0.16712745
helicase-primase -0.062289376 0.40105182 -0.2713545 -0.0065237675 0.080850884 -0.14840762 0.120719455 0.050062783 -0.19566894 -0.09706627 -0.11448261 0.16959329 -0.23769416 0.0755387 0.1886681 0.18703136 -0.078530975 0.051661562 -0.06587183 -0.18085815
D1 -0.039452463 0.45170718 -0.27983797 -0.003732646 0.0704624 -0.19418973 0.11817344 0.06591138 -0.24223816 -0.10649367 -0.10570939 0.20805274 -0.25432625 0.11123045 0.20494947 0.21743901 -0.065276906 0.0665413 -0.101001315 -0.22750863
observed -0.039318293 0.35322058 -0.27919298 -0.015100514 0.09227296 -0.1588369 0.11411854 0.07020126 -0.20340802 -0.10135179 -0.10873918 0.18586476 -0.23395744 0.085784525 0.18216228 0.15931362 -0.060541783 0.09382 -0.05984583 -0.2024238
5 -0.07752094 0.51444197 -0.34350163 0.007254279 0.10025082 -0.21649478 0.12761328 0.06325868 -0.25654045 -0.09828626 -0.110319816 0.2553435 -0.3171735 0.13049465 0.25677332 0.25294995 -0.10389999 0.113349624 -0.066413164 -0.2842787
bundles -0.07171574 0.532051 -0.3584043 -0.0007886799 0.11563093 -0.19212806 0.114574365 0.0702642 -0.23528905 -0.09034342 -0.12452222 0.22677857 -0.33530357 0.1337385 0.24946992 0.2560007 -0.094818205 0.10965751 -0.09574321 -0.2364368
control -0.07586575 0.3966338 -0.25672022 -0.022437705 0.10999877 -0.15318486 0.12261399 0.06454591 -0.19982713 -0.11069259 -0.101042464 0.17666192 -0.24184588 0.07748033 0.1983448 0.18195613 -0.044992276 0.081808686 -0.06054734 -0.18288447
motility -0.06431101 0.4881404 -0.32752943 -0.023919696 0.1308457 -0.19026226 0.15396474 0.08854851 -0.24331227 -0.12084301 -0.13836984 0.24721092 -0.33079955 0.12449105 0.23508967 0.24290125 -0.091430895 0.09920544 -0.08362623 -0.24163069
monomeric -0.03991862 0.4059991 -0.2984642 0.004737485 0.102027304 -0.1488564 0.119762816 0.057219353 -0.201401 -0.07718819 -0.114279434 0.20910606 -0.2368793 0.08181731 0.1984068 0.20045894 -0.07469505 0.09693324 -0.07834805 -0.18905698
compared -0.063865945 0.47859332 -0.3460449 -0.02495648 0.11142906 -0.21440226 0.102036625 0.076553605 -0.25149295 -0.08331419 -0.119095124 0.22815369 -0.29816827 0.11253822 0.21334518 0.24178742 -0.09752591 0.070321105 -0.08676378 -0.24279618
bound -0.06956995 0.4571845 -0.29517823 0.0027478163 0.08005291 -0.1648577 0.101183206 0.06589867 -0.20464471 -0.08755377 -0.0958158 0.17431381 -0.25859046 0.07579531 0.20854412 0.22880909 -0.08907753 0.09262934 -0.074612565 -0.20374705
cytoplasm -0.053473763 0.31154057 -0.19390121 0.0061586215 0.0524642 -0.13253666 0.094645604 0.06280345 -0.14369746 -0.058643393 -0.08288872 0.111830436 -0.1635472 0.062544435 0.12965411 0.1278184 -0.04845017 0.07770161 -0.04844545 -0.17158027
inhibited -0.06978176 0.62229407 -0.45086837 0.008035894 0.14497034 -0.27490592 0.1675678 0.07171645 -0.32813194 -0.15899935 -0.1651234 0.28734353 -0.3851172 0.14883834 0.27363038 0.28288335 -0.08014876 0.11085568 -0.09010621 -0.2988799
fluorescence -0.124561094 0.6867317 -0.4989202 -0.023518043 0.17752255 -0.32009453 0.20141993 0.10733934 -0.36069116 -0.16102979 -0.18506497 0.30600426 -0.46667546 0.14362101 0.35187092 0.321916 -0.1283871 0.106558874 -0.12874918 -0.36004835
stress -0.086497106 0.7205154 -0.48488253 -0.019588709 0.15191947 -0.31367892 0.18334979 0.09993221 -0.3458287 -0.15618606 -0.17168269 0.2990322 -0.43790194 0.15074493 0.34394088 0.3488739 -0.09350234 0.15456076 -0.13016209 -0.34150392
M -0.041026544 0.38428393 -0.23879787 -0.02361458 0.0700775 -0.13489743 0.118202895 0.05049684 -0.2032599 -0.06367981 -0.08655302 0.16621742 -0.221421 0.059838522 0.17507222 0.20642102 -0.05244397 0.09152554 -0.06984332 -0.18950547
previously -0.07965475 0.49481604 -0.34170878 0.011121003 0.12362258 -0.2201187 0.13389666 0.054110188 -0.26673335 -0.1214083 -0.116814025 0.22121139 -0.31019014 0.109988116 0.25794974 0.22195832 -0.096292675 0.10778205 -0.112912394 -0.26383564
dynamics -0.04069568 0.41079095 -0.2729561 -0.014292012 0.07797204 -0.18961254 0.118961394 0.06000668 -0.19632168 -0.07964064 -0.079050995 0.19225168 -0.23906371 0.07951366 0.19180475 0.2168501 -0.05886146 0.089589834 -0.06906533 -0.19430502
model -0.04124352 0.36076716 -0.24792501 -0.014674388 0.08603493 -0.15197232 0.09813003 0.06379179 -0.20504467 -0.08071603 -0.070225805 0.168309 -0.25449562 0.07974061 0.19634216 0.16791885 -0.04431936 0.08678106 -0.08914816 -0.21561089
viral -0.07363496 0.47125685 -0.29701424 0.0060495352 0.08988578 -0.1925708 0.13435403 0.065107174 -0.25005853 -0.10138042 -0.08816802 0.21152757 -0.30526018 0.086834684 0.23309954 0.23940495 -0.056509055 0.08308239 -0.07275423 -0.2302194
no -0.065401 0.5983144 -0.38629973 -0.009413053 0.1532 -0.23432867 0.15628992 0.08469043 -0.30564222 -0.13579303 -0.13067624 0.28188327 -0.36126167 0.11257971 0.25140247 0.27546692 -0.07873256 0.1202132 -0.09282838 -0.27582443
p27 -0.081706405 0.4282349 -0.32987884 -0.012368805 0.10824873 -0.20521273 0.10124535 0.065354735 -0.22773448 -0.12161658 -0.10191316 0.18442072 -0.2649192 0.11516866 0.19130817 0.2398263 -0.10000842 0.0996055 -0.085054636 -0.25235257
purified -0.040599585 0.40506923 -0.27168217 0.008447309 0.11334878 -0.19258662 0.12406665 0.072903395 -0.23004441 -0.09101 -0.08543967 0.18138492 -0.2572294 0.11266886 0.20297745 0.18399546 -0.073082484 0.07454071 -0.08171911 -0.23179081
alpha-smooth -0.05714077 0.4953736 -0.3626376 -0.006940465 0.13476115 -0.18587112 0.14061688 0.06376135 -0.23415808 -0.13552718 -0.13511035 0.23677233 -0.32559422 0.103309706 0.22522254 0.26919895 -0.090625696 0.0993733 -0.08116865 -0.26729724
molecular -0.07357784 0.5608824 -0.37614512 0.009116152 0.10743053 -0.21884893 0.13955876 0.084395304 -0.28349778 -0.09871608 -0.15014946 0.22917432 -0.36154473 0.14526232 0.25055987 0.2842485 -0.1016395 0.11211141 -0.11876413 -0.2556148
increase -0.06846052 0.5640193 -0.4135565 0.011734054 0.10229639 -0.21851057 0.13192631 0.09950453 -0.28969085 -0.11316673 -0.16331904 0.24803779 -0.34190282 0.15005326 0.29112083 0.27444327 -0.07353543 0.105422415 -0.11827298 -0.289879
reorganization -0.047562353 0.41739252 -0.28329706 -0.004637681 0.097228825 -0.17412336 0.10086678 0.07926746 -0.19415699 -0.1092432 -0.09100937 0.21325174 -0.27833286 0.081874706 0.19145015 0.1859084 -0.055752624 0.05849007 -0.079012364 -0.22580385
desmin -0.060937885 0.4041198 -0.32891113 -0.016114164 0.11553467 -0.16312832 0.09992295 0.06208093 -0.21553743 -0.09142963 -0.08590062 0.1939394 -0.26793635 0.103715844 0.21408471 0.23823562 -0.078936145 0.08205982 -0.046106745 -0.23535149
cardiac -0.073019065 0.5012652 -0.3552332 -0.022164294 0.097071484 -0.17690478 0.1291062 0.08691504 -0.22134116 -0.11475283 -0.12606727 0.23789935 -0.31561038 0.099812105 0.20882258 0.26299015 -0.04452569 0.117157824 -0.08336553 -0.2570444
absence -0.07290225 0.35796544 -0.22688179 -0.0007946733 0.06536685 -0.12522191 0.11094589 0.04156985 -0.20586985 -0.05943983 -0.10835424 0.13630559 -0.21587189 0.093925625 0.14977553 0.14798667 -0.07624618 0.08222097 -0.048394352 -0.18969029
plant -0.050506808 0.4312702 -0.30854893 -0.011220778 0.12517777 -0.18659812 0.104931645 0.055390198 -0.2173475 -0.07925373 -0.098576546 0.21414034 -0.26054487 0.083572656 0.21542202 0.21963707 -0.06017585 0.09735387 -0.060751896 -0.22102556
ADF -0.05216614 0.33209774 -0.25510955 -0.018641258 0.06997543 -0.1431156 0.09899538 0.043489467 -0.17762445 -0.06432292 -0.107691966 0.15137291 -0.24326327 0.09915762 0.17115363 0.19672485 -0.042034656 0.08168866 -0.057384845 -0.19772537
relative -0.06831744 0.5050168 -0.35418838 -0.020005422 0.095928386 -0.20628276 0.13501441 0.09165873 -0.25289273 -0.13453154 -0.109187424 0.2301145 -0.30357546 0.12609711 0.24736744 0.24921663 -0.07542164 0.10914829 -0.1068823 -0.27656984
N-terminal -0.08311752 0.570756 -0.3768562 -0.0066668037 0.10561041 -0.24030279 0.15336691 0.05542842 -0.2712627 -0.13143009 -0.13766618 0.26419154 -0.335793 0.10948594 0.27834317 0.25251284 -0.06591021 0.09214255 -0.09431435 -0.27431744
examined -0.048480388 0.31441242 -0.23278268 -0.021819199 0.05427262 -0.12799165 0.087689616 0.023616895 -0.16176714 -0.068351135 -0.06309035 0.1160141 -0.21040684 0.055683784 0.12515418 0.14968474 -0.07821307 0.04958266 -0.05195874 -0.13640283
receptors -0.062163252 0.5431359 -0.3629302 -0.023576822 0.14337242 -0.24704084 0.121400304 0.0691796 -0.28188947 -0.102344476 -0.120252535 0.231999 -0.31205365 0.09551415 0.27213478 0.25104102 -0.06693873 0.09095089 -0.1021575 -0.2958805
surface -0.08264105 0.41251132 -0.27989283 -0.004962872 0.07023954 -0.15097885 0.1230064 0.06919115 -0.23174648 -0.10667873 -0.11467663 0.16135196 -0.23829748 0.076325476 0.18856803 0.20373918 -0.056905452 0.076108806 -0.065336935 -0.1963376
large -0.05331451 0.39751044 -0.3022873 0.014439513 0.073408894 -0.17157742 0.11025197 0.059307158 -0.20966388 -0.06894141 -0.1141941 0.20148169 -0.23854862 0.08601039 0.19166344 0.1956282 -0.046156026 0.07513891 -0.050554182 -0.22901897
encoding -0.0663241 0.4305672 -0.32988933 -0.015200147 0.10247506 -0.18582593 0.11420508 0.04462424 -0.21307953 -0.09951047 -0.12613691 0.18658502 -0.27246216 0.08402796 0.2114447 0.21489662 -0.05522561 0.092955336 -0.07486392 -0.23319095
suggesting -0.09048911 0.6514219 -0.45171678 0.013197641 0.15563463 -0.28414458 0.18626377 0.07739584 -0.32160568 -0.13752097 -0.14046164 0.30393103 -0.3844709 0.118539624 0.29436675 0.29989552 -0.11736071 0.10837578 -0.10622046 -0.32231697
concentrations -0.071592 0.55410254 -0.3888321 0.002975089 0.14074643 -0.22254238 0.14578575 0.052440897 -0.2728503 -0.13127722 -0.13916044 0.22954865 -0.32772213 0.13093752 0.24632333 0.28037378 -0.063783616 0.09040788 -0.096984185 -0.30111706
had -0.12616259 0.70649433 -0.5066415 -0.02723409 0.13823932 -0.31574547 0.19880794 0.076520614 -0.37953946 -0.16959359 -0.19157921 0.32872942 -0.4263779 0.15481201 0.35048947 0.36308903 -0.106938384 0.11590811 -0.11796588 -0.36321473
directly -0.066459835 0.43915686 -0.31290025 -0.017698273 0.11156366 -0.18900064 0.12826322 0.03915006 -0.20997712 -0.1150627 -0.105345525 0.19502747 -0.257148 0.11305514 0.20057863 0.20314054 -0.060780093 0.050901987 -0.063420825 -0.21117868
encodes -0.05825266 0.45622003 -0.2847605 -0.02108442 0.091087684 -0.15803728 0.112706915 0.0335676 -0.2447985 -0.116660334 -0.12570065 0.17510141 -0.25013968 0.090779886 0.19981988 0.22341278 -0.04808321 0.060159486 -0.053026542 -0.23475415
mammalian -0.064436056 0.34495887 -0.25004938 0.010271575 0.057650704 -0.14091535 0.10126579 0.034781326 -0.16977966 -0.07200174 -0.09609721 0.15254149 -0.20789458 0.09988067 0.1702971 0.1422297 -0.07911642 0.055436563 -0.0764029 -0.18446963
brain -0.053640068 0.43192416 -0.30028728 -0.01659762 0.11210065 -0.1645536 0.12884529 0.03854314 -0.22136451 -0.09361558 -0.09652649 0.17824541 -0.27461663 0.085025 0.22183275 0.22599134 -0.055680986 0.06801565 -0.056629818 -0.20888387
inhibition -0.041815262 0.45028442 -0.32346356 -0.023473792 0.09460843 -0.19549307 0.10006335 0.07791991 -0.24326824 -0.07940947 -0.09260902 0.1818848 -0.29849282 0.104864135 0.22311898 0.19468553 -0.052422013 0.08878005 -0.07307312 -0.21839805
Kd -0.057656404 0.46685457 -0.32701477 0.0068743355 0.122534186 -0.21492304 0.1424531 0.07215214 -0.2529514 -0.09309941 -0.10155125 0.21524271 -0.26672047 0.10552661 0.20754984 0.23472545 -0.09206338 0.085611865 -0.09622159 -0.21331275
link -0.075871766 0.47706318 -0.36170536 -0.024874946 0.10680085 -0.22039853 0.14500806 0.06736051 -0.25344 -0.09348936 -0.111594155 0.22614485 -0.28709128 0.118750155 0.22182918 0.2490969 -0.08303794 0.09922659 -0.095698416 -0.23607226
although -0.085986204 0.6324186 -0.43255407 0.010114132 0.13035506 -0.24955313 0.17523733 0.069693685 -0.29488957 -0.13995074 -0.1711657 0.2931933 -0.4025737 0.12289002 0.30645004 0.31305608 -0.08684416 0.08816512 -0.103307135 -0.30491835
pathways -0.08394224 0.6040065 -0.42901966 0.015420975 0.13915865 -0.2562402 0.15199818 0.072066315 -0.2902794 -0.14670809 -0.12826525 0.2572842 -0.36385325 0.12408983 0.27546108 0.2835469 -0.08260998 0.08937972 -0.10317618 -0.29048184
intracellular -0.045230042 0.4510126 -0.32494277 0.010305558 0.12059229 -0.20597568 0.113589555 0.07018114 -0.2339837 -0.09607254 -0.11835377 0.19714454 -0.28984597 0.10461025 0.23782195 0.22947475 -0.05845315 0.062884584 -0.088907585 -0.22398615
mechanism -0.052658528 0.518173 -0.3780077 0.014914473 0.101041555 -0.23195739 0.14891067 0.0742855 -0.27095842 -0.1251872 -0.10456825 0.20567052 -0.33366713 0.113536894 0.23854646 0.265633 -0.06848078 0.0808198 -0.09870608 -0.25245038
nucleation -0.042250354 0.4409064 -0.28299302 0.016786166 0.09563112 -0.17058274 0.1150155 0.07573081 -0.21046053 -0.09942323 -0.110825926 0.20701462 -0.2683647 0.115370736 0.18952657 0.21589316 -0.07607948 0.07934871 -0.048063826 -0.21489562
cytoplasmic -0.06334972 0.47772008 -0.33550122 -0.014197629 0.10888713 -0.18328829 0.112083554 0.044331826 -0.22528496 -0.11046832 -0.13027245 0.20147517 -0.28151378 0.104816996 0.21575706 0.23642904 -0.05863018 0.089107044 -0.085683554 -0.25043315
10 -0.09157796 0.62636507 -0.45789248 -0.0039758757 0.13566953 -0.25895965 0.18723394 0.06426342 -0.34875 -0.13854173 -0.14166887 0.2775533 -0.41749626 0.12329581 0.2764754 0.32871446 -0.10819452 0.13527973 -0.10449247 -0.32443002
amino -0.09556361 0.56812286 -0.3974218 -0.003762577 0.1206171 -0.21559432 0.12326525 0.05314693 -0.2946195 -0.14910227 -0.15525575 0.2354898 -0.3517934 0.1029683 0.2639103 0.26847625 -0.06941465 0.09426603 -0.07540022 -0.29837593
family -0.047701564 0.41038242 -0.3064576 0.008462508 0.09241897 -0.16581197 0.13451223 0.06056078 -0.21362323 -0.077216715 -0.08257186 0.18686633 -0.24622086 0.10026229 0.20697695 0.19594245 -0.049264237 0.09272911 -0.06891308 -0.23486716
components -0.051305708 0.49576905 -0.3542502 0.016106833 0.12461156 -0.22973222 0.12856027 0.066011816 -0.25125706 -0.13124691 -0.13835369 0.21106279 -0.32589465 0.13419615 0.2466902 0.24861856 -0.07391075 0.09466254 -0.106076956 -0.2412159
dependent -0.043816622 0.4191409 -0.29506552 -0.028117815 0.09471743 -0.17852972 0.090779975 0.043936457 -0.18379329 -0.10450347 -0.10047648 0.18038003 -0.2637763 0.104966745 0.19146378 0.19480029 -0.054734062 0.07715648 -0.09237936 -0.18890047
highly -0.09339255 0.56029475 -0.37977147 -0.012623298 0.099592276 -0.22212453 0.14374085 0.08574844 -0.2663281 -0.10656053 -0.13510524 0.23885995 -0.3435672 0.13748907 0.2439614 0.2531883 -0.078506306 0.118205674 -0.094158165 -0.3003511
data -0.06679369 0.4662747 -0.34155175 0.014574398 0.099510185 -0.20381175 0.1247145 0.07809166 -0.22552054 -0.10430328 -0.10079179 0.22748882 -0.29754582 0.1033739 0.22647269 0.24350439 -0.068358324 0.058856905 -0.1055807 -0.20789388
platelet -0.06232276 0.5140123 -0.37289366 -0.02121598 0.09463375 -0.19988847 0.15445612 0.061437238 -0.26718324 -0.13037644 -0.11031988 0.24203062 -0.30616894 0.12316674 0.23153646 0.28247872 -0.09399464 0.117199615 -0.097432494 -0.2824339
mutation -0.04737623 0.40866032 -0.28363857 0.011484752 0.1190323 -0.17498185 0.12960726 0.055430442 -0.23401675 -0.08867671 -0.1084187 0.19674888 -0.2607338 0.10658096 0.21461658 0.18496603 -0.07346592 0.08757787 -0.08009534 -0.22069773
under -0.07506976 0.5915145 -0.4410385 0.008626849 0.1377684 -0.25663596 0.15502642 0.06662297 -0.32179996 -0.16171046 -0.16924775 0.28137138 -0.3806788 0.13251922 0.2980981 0.29716146 -0.09729052 0.13725445 -0.08840718 -0.30869526
suggests -0.077380955 0.4891194 -0.35363382 0.0028187449 0.09262814 -0.21990404 0.13322945 0.046187446 -0.24556865 -0.11000119 -0.1343505 0.22454062 -0.30016878 0.098642915 0.20884292 0.22779255 -0.096440725 0.09654077 -0.083534434 -0.26667657
peptide -0.06741912 0.5893301 -0.43110788 -0.020776995 0.1382084 -0.24015799 0.17081696 0.088111624 -0.31033322 -0.118416525 -0.1623067 0.27453312 -0.37117034 0.15193866 0.28413367 0.27556035 -0.116570294 0.08712407 -0.113756604 -0.3040741
cellular -0.097258605 0.55639625 -0.40059742 -0.004278966 0.11106279 -0.22125994 0.14766179 0.05255645 -0.29847944 -0.11825779 -0.12284983 0.26606578 -0.36312243 0.119172424 0.24467956 0.27349487 -0.08061127 0.08536558 -0.072113134 -0.2958957
when -0.0794661 0.57516015 -0.4274119 0.0033367681 0.1406663 -0.2712734 0.17150523 0.06795098 -0.29024544 -0.15828465 -0.14644201 0.277265 -0.34810862 0.15658818 0.28672543 0.2877324 -0.08526971 0.11006901 -0.08580134 -0.32650322
responsible -0.047256853 0.39315513 -0.24503139 0.00826476 0.05968696 -0.16085236 0.10060781 0.051640578 -0.17528614 -0.0770148 -0.09049277 0.17250991 -0.24035762 0.06749012 0.1515865 0.17548966 -0.08614663 0.0690438 -0.068581864 -0.2006868
fusion -0.062194467 0.35391435 -0.24415228 -0.029114064 0.08427818 -0.121017925 0.07770408 0.029646894 -0.18819308 -0.05897819 -0.07667119 0.1712475 -0.21402244 0.07769189 0.13649411 0.1651907 -0.07206591 0.04450101 -0.06371216 -0.1877887
molecule -0.07092177 0.3771883 -0.27897137 -0.009679917 0.08096301 -0.17451438 0.10598286 0.028733406 -0.21498257 -0.084354125 -0.083715774 0.18696389 -0.24635455 0.10384843 0.17004848 0.19483879 -0.041848492 0.06470072 -0.06519943 -0.18517917
total -0.07037696 0.41632122 -0.29141057 0.0065016625 0.08065575 -0.17066155 0.0896661 0.051282216 -0.22715472 -0.09652569 -0.11885149 0.17104445 -0.27550152 0.101446114 0.17794128 0.20053029 -0.07920055 0.089589745 -0.07724464 -0.23023108
pollen -0.08801789 0.45922798 -0.31165135 -0.010119964 0.07645609 -0.17133428 0.09059275 0.06429242 -0.21659571 -0.0932596 -0.13039994 0.20343441 -0.2713255 0.11066491 0.20055163 0.23761539 -0.052487392 0.097860806 -0.06087958 -0.24594766
contrast -0.040613364 0.4097831 -0.2637285 -0.022276174 0.06893458 -0.15381587 0.12576194 0.03135418 -0.18228328 -0.07940578 -0.11988574 0.18200813 -0.22625448 0.0869824 0.19789436 0.19072673 -0.06220592 0.08649933 -0.08239049 -0.21574722
assay -0.049216308 0.34329778 -0.21281345 -0.03054602 0.09370571 -0.15819842 0.08064526 0.02725712 -0.15948659 -0.07409478 -0.060326505 0.1686385 -0.20433243 0.094285816 0.17637837 0.15555768 -0.07120559 0.085010245 -0.045191202 -0.15606606
independent -0.08523324 0.44556352 -0.35098484 7.526872e-05 0.09363735 -0.18122141 0.1313353 0.08497624 -0.2604941 -0.12155525 -0.10141937 0.21436378 -0.30169162 0.08042891 0.19217767 0.20291093 -0.08864746 0.100590006 -0.070171066 -0.24824932
rabbit -0.028768493 0.24332576 -0.18335815 0.015406809 0.070405215 -0.09298886 0.08402975 0.03203764 -0.12210313 -0.030429065 -0.036020663 0.12313895 -0.14982788 0.07142629 0.10669905 0.12602758 -0.058769584 0.039276738 -0.029348694 -0.109485656
treatment -0.07728926 0.51201093 -0.37016663 -0.007094886 0.109877884 -0.20192407 0.14470781 0.08405847 -0.27666336 -0.10715139 -0.12948602 0.26560146 -0.35038328 0.118704036 0.24385178 0.25444624 -0.08037132 0.091044165 -0.10379065 -0.26381695
each -0.0601773 0.41989866 -0.27487555 -0.020461319 0.07287966 -0.19707754 0.121938616 0.07896032 -0.20053457 -0.08673884 -0.07693898 0.17576465 -0.28411785 0.10224432 0.19022782 0.19824892 -0.07805979 0.06521597 -0.08981382 -0.20165831
those -0.030300647 0.33946565 -0.23143269 0.0022941423 0.0794633 -0.15957569 0.09156292 0.06713428 -0.1590516 -0.054776248 -0.065456085 0.14823155 -0.22806892 0.098040074 0.16739173 0.13819262 -0.06826991 0.079302505 -0.057882275 -0.18812194
MHC 0.00091147044 0.14111629 -0.13460936 0.0034890664 0.052336287 -0.060116466 0.033607114 0.029756078 -0.07960373 -0.054782845 -0.023145618 0.084704496 -0.10252037 0.01828204 0.08491903 0.09045947 -0.013927239 0.053429533 -0.017366884 -0.071382225
regulated -0.03345132 0.36828753 -0.28467897 0.008192389 0.11091496 -0.15010665 0.092741884 0.04160757 -0.18062307 -0.104069926 -0.090320714 0.19014768 -0.25336707 0.075730026 0.18949872 0.1835627 -0.07147835 0.08119314 -0.05641818 -0.21889113
PIP2 -0.061275568 0.2933588 -0.23422198 -0.008019182 0.08338635 -0.12766536 0.06755682 0.03819365 -0.15264101 -0.07901899 -0.08486867 0.12640007 -0.18191116 0.06550051 0.15112497 0.1653379 -0.075357564 0.060004655 -0.06549007 -0.18218522
contractile -0.066572264 0.56156206 -0.3806478 -0.01686482 0.113656096 -0.23047322 0.13097057 0.061413847 -0.26034012 -0.13100097 -0.11436317 0.24768785 -0.34208125 0.13814075 0.26477924 0.2849958 -0.062635034 0.0769158 -0.080623545 -0.29759648
Thus -0.0070275553 0.16056234 -0.11361198 -0.00095244014 0.01875576 -0.065078534 0.06525461 0.04298203 -0.08484495 -0.04003588 -0.02813798 0.0835229 -0.1206702 0.03579475 0.079184964 0.06547118 -0.030877562 0.049867723 -0.028008578 -0.079116255
birch -0.05485505 0.3510495 -0.24634068 0.017111998 0.09914919 -0.13274652 0.06612284 0.0322655 -0.1727504 -0.058405574 -0.0748486 0.14345057 -0.22269125 0.08131018 0.15084575 0.17695306 -0.07141319 0.073258884 -0.034931924 -0.15164365
monomer -0.04228536 0.34776014 -0.26031646 -0.02862698 0.08878495 -0.14991865 0.0906741 0.052215684 -0.20275421 -0.0648984 -0.10408843 0.1924504 -0.22273026 0.058199476 0.15748343 0.20073792 -0.07405122 0.046671692 -0.07239395 -0.19438155
C-terminal -0.048089 0.4560437 -0.33726832 -0.023149591 0.11733898 -0.1974976 0.10314962 0.07832105 -0.21521553 -0.11854851 -0.10876841 0.20254503 -0.28703657 0.11285566 0.20509972 0.24286744 -0.051427405 0.09176568 -0.09637985 -0.21782377
actin-based -0.04492775 0.42762044 -0.2912956 -0.022823177 0.07033582 -0.1566642 0.10490019 0.051466357 -0.23458083 -0.1044731 -0.099762134 0.2049212 -0.25361007 0.099771395 0.21350133 0.19779134 -0.04788767 0.064032115 -0.048733927 -0.19025677
consistent -0.035452023 0.31359053 -0.21170782 0.015682857 0.06500805 -0.12344039 0.09335108 0.023591142 -0.16924477 -0.053519763 -0.050972722 0.11473214 -0.19897953 0.06486688 0.1248244 0.16468863 -0.04722755 0.07730485 -0.06409793 -0.14070679
plasma -0.0145942895 0.21505688 -0.19021517 -0.028812073 0.074976854 -0.09860476 0.0850081 0.017523898 -0.13105437 -0.05765648 -0.075071454 0.08806127 -0.14545457 0.067862734 0.117594995 0.11109528 -0.051696036 0.030216986 -0.06803081 -0.10580036
response -0.0693862 0.35705844 -0.26570058 0.009173347 0.096037894 -0.1433441 0.10934661 0.045187075 -0.17735863 -0.07112097 -0.09452633 0.15698619 -0.21763366 0.10544398 0.18718883 0.18820468 -0.056482017 0.07765795 -0.040358853 -0.16186002
distinct -0.08653398 0.5140957 -0.33960843 -0.028570803 0.12203374 -0.22351715 0.15097441 0.07865325 -0.25787863 -0.09743199 -0.12511298 0.22025879 -0.2945979 0.08900695 0.23934908 0.2395685 -0.101651326 0.06942976 -0.091445126 -0.22638467
stimulation -0.05864745 0.53327405 -0.41197547 -0.012590302 0.124498494 -0.23828569 0.16122168 0.0884145 -0.2842726 -0.09998463 -0.115456425 0.22830652 -0.32578465 0.115643725 0.27194524 0.25654078 -0.07016361 0.11690422 -0.103010036 -0.27796558
fibers -0.083645724 0.5500383 -0.37953988 -0.008676623 0.11979175 -0.21526289 0.14485918 0.07612451 -0.27899745 -0.11909503 -0.10824722 0.23325418 -0.32060632 0.117595 0.2609525 0.24899049 -0.08188572 0.09707415 -0.11731175 -0.25626016
loss -0.045686938 0.42058942 -0.30715215 -0.0010174823 0.11544398 -0.18047518 0.12486696 0.06017264 -0.24108797 -0.08130848 -0.10759663 0.16904315 -0.251029 0.07427981 0.1766164 0.20234697 -0.078909405 0.096479066 -0.05726135 -0.23832065
cortical -0.06898195 0.44855875 -0.28111646 -0.027049674 0.08930741 -0.20136668 0.09763159 0.046842106 -0.2158331 -0.11735755 -0.10413577 0.17932464 -0.25807723 0.10172817 0.22051957 0.20431364 -0.08765404 0.08136017 -0.07280517 -0.24000698
same -0.10210399 0.5478322 -0.36522582 -0.027564473 0.11454249 -0.21715759 0.15330121 0.085445985 -0.28370437 -0.12701629 -0.15215513 0.24860303 -0.32655305 0.14227879 0.23739192 0.2536392 -0.10984834 0.079446696 -0.11265014 -0.27490318
detected -0.09287636 0.4484946 -0.33704033 -0.021595497 0.11913861 -0.17035618 0.11284598 0.05673599 -0.20524971 -0.07704673 -0.111276194 0.22772156 -0.27761635 0.09868037 0.23529138 0.22082646 -0.07898407 0.10325856 -0.06847505 -0.20355248
structure -0.09532673 0.5058865 -0.3406404 0.010366584 0.11117169 -0.20772006 0.111087404 0.048598915 -0.22999008 -0.12684275 -0.1012548 0.23150696 -0.28390992 0.11085575 0.22833598 0.2366211 -0.08198032 0.10125656 -0.08358913 -0.2503083
proposed -0.053449385 0.4221436 -0.26181 -0.0088056205 0.09816245 -0.16674457 0.09803392 0.04710937 -0.19408724 -0.08881715 -0.10881942 0.17127497 -0.25504535 0.0991119 0.20866239 0.21020518 -0.052348044 0.0496302 -0.0638629 -0.18678267
syntaxin -0.08269502 0.5073206 -0.31894907 0.009235629 0.13113709 -0.20367952 0.14087264 0.04820478 -0.26465082 -0.13019955 -0.12843442 0.20567778 -0.29338416 0.12300623 0.20339434 0.22111504 -0.09878868 0.10932892 -0.09695301 -0.25698146
increases -0.07740457 0.46189114 -0.31156114 0.008567105 0.123847865 -0.1763431 0.10897244 0.06591739 -0.24257301 -0.10244023 -0.13329725 0.21148191 -0.2865911 0.08865597 0.22474205 0.20350151 -0.07927611 0.086759016 -0.092937656 -0.2552281
antigen -0.059752546 0.38639823 -0.2853285 -0.02191687 0.075960204 -0.15964784 0.12679954 0.032337353 -0.21854913 -0.11384394 -0.09067674 0.19748284 -0.24133806 0.11499337 0.16657452 0.20947444 -0.087620765 0.08601633 -0.048361074 -0.2012178
free -0.07737694 0.37394553 -0.26437724 -0.0062676882 0.0906475 -0.17408963 0.082886994 0.051890824 -0.21184686 -0.08188832 -0.11860304 0.18953115 -0.22721563 0.097556114 0.17600589 0.19283362 -0.0768027 0.09266472 -0.09191378 -0.22095516
Arp2/3 -0.023003522 0.26063225 -0.22139043 -0.02818282 0.042031154 -0.12950729 0.05882499 0.025275337 -0.15493546 -0.069741234 -0.06840694 0.14234467 -0.19956616 0.054846358 0.111748435 0.11087818 -0.020778589 0.054731168 -0.07505355 -0.15036567
thymosin -0.06565836 0.39506888 -0.28316203 -0.0077039 0.084193416 -0.1858036 0.12543452 0.03590508 -0.21099767 -0.10242451 -0.08597591 0.1530316 -0.23488618 0.09002504 0.20301917 0.20126727 -0.04444345 0.0920501 -0.07121871 -0.1832264
T -0.052128483 0.37205034 -0.27609414 0.0013312144 0.072449334 -0.16439524 0.07997979 0.060666222 -0.19530669 -0.093301974 -0.1118594 0.19205149 -0.21457829 0.06733848 0.15614727 0.2056837 -0.04975322 0.0908947 -0.05948125 -0.20899951
low -0.065313384 0.4026393 -0.27535787 -0.004053906 0.0928483 -0.18186548 0.10996605 0.056277446 -0.2126367 -0.06615977 -0.11793612 0.17223345 -0.26424515 0.079576336 0.1763188 0.1793151 -0.07707959 0.06697415 -0.07125338 -0.17933272
two-hybrid -0.0638369 0.30097038 -0.22446312 -0.017860517 0.06371633 -0.105483495 0.09787275 0.061541364 -0.15794449 -0.08796252 -0.0498997 0.12304174 -0.1980009 0.078753196 0.12185884 0.16586249 -0.060669478 0.06886646 -0.038020004 -0.1291366
functional -0.097358845 0.5364801 -0.3623571 -0.030718977 0.12934552 -0.2377157 0.1355452 0.07290811 -0.27561927 -0.1074245 -0.12367467 0.2256192 -0.33518955 0.12975115 0.27257496 0.25882852 -0.075727 0.1045961 -0.08295957 -0.26145104
homology -0.06876058 0.40407884 -0.2675183 -0.02838717 0.088765405 -0.14889096 0.11583587 0.0476975 -0.2111606 -0.11021019 -0.08235296 0.19050288 -0.280077 0.093803406 0.19835494 0.1920823 -0.06736257 0.072853416 -0.08693223 -0.19889261
barbed -0.040054012 0.43583047 -0.27145672 -0.013239982 0.07573591 -0.15155543 0.09568243 0.06914115 -0.22220695 -0.10834595 -0.076317534 0.19515215 -0.25906307 0.09704879 0.19872068 0.18385498 -0.07244727 0.089777745 -0.06883248 -0.22716545
contains -0.07065243 0.49509028 -0.34562212 -0.013840057 0.09582774 -0.20968314 0.11867839 0.0792344 -0.23985898 -0.119847454 -0.12888406 0.21001823 -0.3020662 0.08833236 0.26424894 0.24662715 -0.10501841 0.09275006 -0.06356587 -0.25137806
characterized -0.061815854 0.24943273 -0.19138137 -0.01634839 0.055296827 -0.092796944 0.057967313 0.039038707 -0.14316902 -0.04982566 -0.07857671 0.12270494 -0.16327085 0.043169905 0.13779303 0.123710416 -0.0358299 0.035784718 -0.048682 -0.14011572
cell-cell -0.073049165 0.40065196 -0.26771572 -0.018608509 0.07004441 -0.15602201 0.10323545 0.078277335 -0.18756922 -0.11317829 -0.11186979 0.16109891 -0.24630667 0.10691168 0.18829207 0.20627767 -0.070815936 0.052058104 -0.060539242 -0.19407868
RIP -0.05142512 0.3256309 -0.25095358 -0.012741513 0.05635807 -0.12276346 0.10489829 0.046385713 -0.17135258 -0.07519512 -0.07901692 0.17181379 -0.19349602 0.05876575 0.13481787 0.14600879 -0.05180025 0.0727638 -0.0794574 -0.16058037
together -0.06221127 0.33337453 -0.21291809 -0.024570573 0.08525676 -0.1367659 0.07505512 0.06759093 -0.1750473 -0.06568802 -0.05725912 0.1507886 -0.19464202 0.07893251 0.17333017 0.18195912 -0.06431218 0.055207156 -0.073566474 -0.1763529
death -0.07429028 0.45307788 -0.33372408 0.0028825079 0.105374716 -0.16524829 0.09862471 0.056816004 -0.21998458 -0.122582816 -0.085823074 0.19723961 -0.28734982 0.07594328 0.19593146 0.21399607 -0.08120657 0.09930513 -0.092538215 -0.2364649
demonstrate -0.07901996 0.34192196 -0.21097073 -0.005538393 0.06132491 -0.14780034 0.08966259 0.04487904 -0.16960391 -0.07216998 -0.058246985 0.17208143 -0.21085472 0.07600427 0.15195978 0.14468433 -0.058697104 0.060801342 -0.043183487 -0.16329254
several -0.07397865 0.4898749 -0.32407135 -0.0069385543 0.08667651 -0.19200987 0.10736594 0.06057536 -0.24159361 -0.10393399 -0.11651331 0.21265782 -0.2901128 0.115111314 0.2289091 0.2605129 -0.090304606 0.093632996 -0.078725405 -0.27394545
rates -0.0739484 0.37745285 -0.2441561 0.012326205 0.081863485 -0.13948713 0.11336143 0.05628726 -0.2046546 -0.061046597 -0.10920963 0.17812218 -0.21895598 0.092082724 0.17792046 0.17676035 -0.058091413 0.081191786 -0.043450255 -0.17418216
investigated -0.06474032 0.3479947 -0.21602142 -0.0045893383 0.0592856 -0.14710222 0.08017022 0.05303232 -0.1516824 -0.08315227 -0.096939206 0.14127603 -0.22066131 0.054280847 0.15344343 0.17931929 -0.046663094 0.06848699 -0.06440099 -0.17766932
ATP -0.066621974 0.40268466 -0.24540903 -0.029899351 0.088032916 -0.13180226 0.095382415 0.050929103 -0.1842 -0.09301862 -0.09258459 0.16144031 -0.23167434 0.09520085 0.17677851 0.17525779 -0.051995043 0.053218894 -0.042407267 -0.1956928
S. -0.09202962 0.6101161 -0.41257998 -0.020010838 0.13472627 -0.2370531 0.14024685 0.10017184 -0.2913005 -0.14416485 -0.16639458 0.29316235 -0.40312114 0.15421568 0.2873406 0.2913447 -0.10637863 0.13401414 -0.10545683 -0.32958
accumulation -0.057842284 0.30605102 -0.19993031 0.009371277 0.07762041 -0.12334642 0.07758185 0.04344055 -0.13318871 -0.082742386 -0.05993847 0.13899855 -0.18099822 0.04940525 0.15837122 0.13404047 -0.041166272 0.080490395 -0.058637436 -0.1569512
pattern -0.08659594 0.551803 -0.39274484 0.008314688 0.115211956 -0.20262487 0.15012632 0.087063625 -0.27626187 -0.10508319 -0.12062576 0.2685267 -0.35925072 0.12120855 0.24810833 0.24616231 -0.06966572 0.12103871 -0.074543364 -0.2915415
inhibits -0.060404643 0.3962392 -0.28932086 -0.026075069 0.08698752 -0.18352245 0.12322976 0.07255616 -0.19333407 -0.10668584 -0.08796468 0.14924163 -0.22426781 0.070233464 0.1554284 0.20924173 -0.05800191 0.07731945 -0.09242805 -0.19203457
could -0.08358635 0.46686706 -0.337085 -0.0148128485 0.11551755 -0.19324592 0.12613504 0.03690424 -0.242997 -0.096714884 -0.106045865 0.21854976 -0.28825942 0.111097015 0.20482269 0.23561765 -0.06006906 0.058602076 -0.088376395 -0.20534071
tumor -0.042168137 0.3831564 -0.2476356 0.0017960472 0.0875917 -0.14947262 0.11363972 0.03153565 -0.179492 -0.061442282 -0.10758916 0.17281821 -0.24069217 0.07055568 0.18702985 0.18093263 -0.05298045 0.07730487 -0.041991763 -0.17694324
properties -0.062381342 0.33157492 -0.2342229 -0.0056849867 0.073445834 -0.14327775 0.08833039 0.045668982 -0.15899882 -0.052014515 -0.055192217 0.13112989 -0.22382721 0.081640534 0.13194548 0.17521171 -0.05442084 0.055333853 -0.065264314 -0.18709487
strongly -0.030846026 0.37255326 -0.2784574 -0.0019042122 0.10705878 -0.13314554 0.089349456 0.06845949 -0.21378304 -0.06729815 -0.07386201 0.18292591 -0.21973555 0.062242385 0.19117814 0.19242844 -0.06575015 0.052254815 -0.08378092 -0.20569181
via -0.04296126 0.45013556 -0.28661475 0.014370286 0.08708171 -0.19389774 0.10086789 0.08163137 -0.24578205 -0.07988293 -0.10233011 0.21125811 -0.2745992 0.08125653 0.18145576 0.22525215 -0.09149124 0.061541513 -0.09224691 -0.24466653
interacts -0.07344259 0.35897964 -0.26837 -0.024333391 0.07928652 -0.13577689 0.077550225 0.065762654 -0.19799823 -0.062844664 -0.095557034 0.16634302 -0.21168593 0.0734616 0.1724268 0.18188553 -0.08484121 0.06306125 -0.05221379 -0.16165777
core -0.031024521 0.30268723 -0.20719329 0.0055634575 0.07295605 -0.15697767 0.061891526 0.021044036 -0.15895346 -0.079626136 -0.09564764 0.14183109 -0.21536577 0.08022746 0.16708998 0.13523202 -0.04221208 0.07107083 -0.08216817 -0.17997405
mouse -0.07049897 0.3961826 -0.28975326 -0.008149262 0.07048082 -0.19051084 0.11932504 0.044026613 -0.20396222 -0.07250631 -0.085044 0.17406848 -0.27060106 0.08279927 0.17093268 0.22222316 -0.083224565 0.07866431 -0.09698807 -0.22039236
does -0.060610496 0.4158281 -0.30044338 0.01696018 0.079198144 -0.16383462 0.10931539 0.035031818 -0.21897614 -0.110985674 -0.10830163 0.17677028 -0.26368365 0.10137214 0.19386283 0.18944335 -0.08797333 0.07087526 -0.08302096 -0.19425792
cycle -0.066733554 0.26868626 -0.1893229 0.016052192 0.08340317 -0.13365857 0.073032714 0.052914694 -0.13516778 -0.055515666 -0.06568274 0.10921647 -0.16197659 0.08472849 0.1371077 0.1653729 -0.06973208 0.031043148 -0.05743843 -0.15871151
CREB -0.063418575 0.48146588 -0.31552312 -0.0059984275 0.08074246 -0.18285155 0.102707796 0.05059087 -0.24112849 -0.115298465 -0.12678954 0.21396792 -0.2794869 0.11554767 0.22154158 0.20801397 -0.09522306 0.09472357 -0.10572746 -0.2313063
epithelial -0.044771194 0.41043434 -0.2990857 -0.029386817 0.085398465 -0.17608759 0.10376028 0.041652106 -0.19724363 -0.084802575 -0.0917488 0.16702992 -0.23548065 0.10296519 0.17913581 0.21457878 -0.08104902 0.07531253 -0.06733799 -0.22058
N-cadherin -0.032124083 0.3553488 -0.25951815 -0.029413786 0.05732837 -0.16478452 0.06719655 0.059005972 -0.16106439 -0.08640879 -0.10565088 0.1472394 -0.19913778 0.06468049 0.15640958 0.15949996 -0.039955523 0.07482772 -0.037122853 -0.16556388
microscopy -0.03966512 0.37601498 -0.29800415 -0.017968554 0.08747708 -0.17115591 0.080883645 0.07631203 -0.19213423 -0.067657284 -0.10756427 0.20043309 -0.24661647 0.080341406 0.17419435 0.1698614 -0.053067435 0.08031996 -0.072863355 -0.19980958
following -0.06402266 0.5896783 -0.3856569 0.007869615 0.10707465 -0.25650015 0.14803141 0.0737998 -0.29155055 -0.12149659 -0.1335753 0.27478695 -0.33954066 0.10945004 0.2665811 0.28086063 -0.0871969 0.08280425 -0.08574413 -0.30808112
Although -0.05862407 0.32545158 -0.20695233 0.01335796 0.06906339 -0.11223342 0.09573733 0.035838023 -0.1430048 -0.092056975 -0.084489204 0.12543052 -0.19421044 0.0504056 0.13089639 0.17245327 -0.050880294 0.07800768 -0.039615363 -0.12930943
small -0.028868424 0.26055336 -0.17406292 -0.024198469 0.08391262 -0.105312 0.08803756 0.049882025 -0.1588689 -0.047609195 -0.059761245 0.11600895 -0.18179004 0.063313834 0.14572099 0.14474057 -0.04099934 0.047200188 -0.069338836 -0.13051356
development -0.08113551 0.5090737 -0.3544682 0.0059112785 0.09519392 -0.22512364 0.14065638 0.0687012 -0.26420954 -0.12862049 -0.10544075 0.22054711 -0.30366814 0.09093439 0.22446796 0.2310943 -0.078645244 0.10868739 -0.065387286 -0.24516892
subunits -0.048626136 0.28020856 -0.21377844 -0.021729877 0.046630654 -0.13829839 0.061690595 0.042221252 -0.15158397 -0.07755981 -0.08425841 0.14575794 -0.17578578 0.06509803 0.11780418 0.13542195 -0.055473097 0.07219179 -0.031898342 -0.17357154
level -0.059834436 0.32194513 -0.21684963 -0.014187682 0.049002856 -0.11369049 0.05861774 0.017899962 -0.14566003 -0.045427553 -0.0689037 0.14059587 -0.2062945 0.07942511 0.13818431 0.14928539 -0.055651102 0.05238381 -0.07731476 -0.14439514
seen -0.082304075 0.46506977 -0.34344703 -0.017412493 0.0961824 -0.1971589 0.09629649 0.047407534 -0.238881 -0.08961696 -0.12837274 0.21539149 -0.2765363 0.10248778 0.20527375 0.24418625 -0.051971707 0.0916859 -0.09565901 -0.24524398
manner -0.06290885 0.29044995 -0.1866658 -0.0068180608 0.08364026 -0.100683145 0.09072726 0.028858373 -0.15307415 -0.08329782 -0.05329263 0.1310984 -0.18516128 0.06092421 0.13372655 0.14124352 -0.035199523 0.04177184 -0.023740733 -0.12507233
conditions -0.053128675 0.4427605 -0.30356973 0.01576706 0.10861169 -0.18094473 0.10460054 0.07718522 -0.22298706 -0.102519624 -0.08335986 0.21374844 -0.2500458 0.10273547 0.22140782 0.20510757 -0.053219 0.08777294 -0.09522721 -0.22337174
experiments -0.07799409 0.5380909 -0.35659418 -0.026428923 0.10003254 -0.21093503 0.15916727 0.0650796 -0.2806433 -0.12649967 -0.12366886 0.2581713 -0.33527747 0.1038257 0.23663205 0.24769464 -0.070419095 0.113253996 -0.07942154 -0.2471067
phenotype -0.048145723 0.35551715 -0.26896206 -0.015247143 0.05998276 -0.14018793 0.0763507 0.045262642 -0.20057869 -0.08417758 -0.1036474 0.16983932 -0.23794776 0.069734916 0.1629458 0.17045678 -0.04265276 0.09127375 -0.070054024 -0.20901097
against -0.039159838 0.4067824 -0.28192317 0.0090652425 0.08109011 -0.19124678 0.11801412 0.046506107 -0.19715641 -0.08005812 -0.08718067 0.19624782 -0.2565905 0.11342451 0.2031884 0.21346751 -0.08596939 0.08210703 -0.062781125 -0.20963159
