5200 20
, 0.042916257 0.04485698 -0.5827289 -0.71659523 -0.22311601 0.11216871 -0.14957474 0.311749 -0.24629968 -0.7565318 -0.8525899 0.28852242 1.310421 -0.26031977 -0.1568851 0.049860116 -0.72893095 0.3729882 -0.18834716 -0.08149693
of 0.102562405 0.051235426 -0.4644999 -0.55811214 -0.21204941 0.11293449 0.18438992 0.49896038 -0.23027274 -0.83465666 -0.7978127 0.21879946 1.1076 -0.22232181 -0.2664257 0.089766964 -0.4576394 0.086379975 -0.14443322 0.11547772
the 0.16310899 0.1357446 -0.5462402 -0.4905849 -0.1727609 0.17348272 0.24192469 0.5903659 -0.2159682 -0.8237655 -0.7690402 0.19479626 0.9909178 -0.042806838 -0.3610334 0.14043139 -0.5299966 0.12258139 -0.07099644 0.1653691
and 0.0353076 0.056801435 -0.5998114 -0.7396602 -0.24160615 0.13140444 -0.04945174 0.38668793 -0.23683174 -0.7236087 -0.85320264 0.33486515 1.2385411 -0.2945418 -0.21185264 0.081323884 -0.6148706 0.21820417 -0.21157208 0.02114369
. 0.11562464 0.07349458 -0.48049456 -0.48126385 -0.18497881 0.09936548 0.109047405 0.6366912 -0.21186176 -0.7955313 -0.7291799 0.1461781 1.008092 -0.034445025 -0.19650833 0.06719298 -0.49197853 0.098805405 0.047432717 0.13773371
in 0.15243632 0.109946676 -0.49709627 -0.4170197 -0.27352038 0.24697562 0.17825463 0.66668546 -0.112040706 -0.8211902 -0.6235193 0.2676916 0.9807787 -0.04281917 -0.3019689 0.0617015 -0.55417037 0.09292817 -0.060781464 0.14788312
actin 0.19261873 0.05392138 -0.47455743 -0.513515 -0.14855087 -0.0023719666 0.26374623 0.39121228 -0.25655693 -0.8669234 -0.968478 0.3624828 1.1149288 -0.17644356 -0.3975104 0.25699842 -0.35283887 -0.025549177 0.027704027 0.047466073
to 0.09251136 0.06040115 -0.563313 -0.38879192 -0.29522973 0.2426123 0.24658662 0.7419802 -0.12782945 -0.85199 -0.6387284 0.21441615 0.9018065 -0.01895991 -0.33415893 0.10037642 -0.55291194 0.11342782 0.034151502 0.111350745
) 0.10829747 -0.03941231 -0.49841306 -0.8655784 -0.13261408 -0.09142405 -0.06238969 0.31046587 -0.5855464 -0.46107996 -1.1354375 -0.015887989 1.2409656 -0.14474708 0.12660296 -0.020023806 -0.62702113 0.3333865 0.08513889 -0.05039992
( 0.047102004 -0.08532464 -0.42599732 -0.98965627 0.047810163 -0.17253852 -0.1403896 0.35809457 -0.61449456 -0.54861045 -1.1365259 0.031153813 1.3080136 -0.22604848 0.1753895 0.014999998 -0.6062916 0.2471301 -0.069398515 -0.08064798
a 0.13351198 0.102092415 -0.44314376 -0.42178738 -0.20852397 0.124802746 0.0804413 0.68061846 -0.23197097 -0.73505807 -0.6995333 0.10919579 0.96262 0.0033897357 -0.21701546 -0.007620255 -0.4997534 0.13570485 0.086967774 0.18215472
with 0.1192347 0.067826055 -0.5062094 -0.4271647 -0.3010421 0.22555277 0.197152 0.69772977 -0.14827286 -0.85884845 -0.5802208 0.18959549 0.98205405 -0.0709602 -0.25455543 0.06372279 -0.5953301 0.18816121 -0.09634555 0.1515898
that 0.17946292 0.14373603 -0.47126603 -0.36994764 -0.3056899 0.22463882 0.1429137 0.7671205 -0.21723463 -0.829274 -0.5943914 0.07650371 0.88529384 -0.030406408 -0.3584 -0.07191132 -0.53443825 0.06378336 0.099091 0.23811541
profilin 0.09345208 0.103343435 -0.45380396 -0.40739807 -0.21218005 0.18636373 0.20343424 0.6522403 -0.20347212 -0.7947468 -0.74924225 0.14577429 0.93460673 -0.05951416 -0.33177885 0.10047481 -0.44924667 0.08423443 0.01145656 0.13310687
for 0.061129674 0.045680203 -0.46673477 -0.46728483 -0.24918792 0.15078901 0.06299462 0.63277924 -0.27720088 -0.8025192 -0.71830034 0.16008496 0.99074644 -0.089172386 -0.20489824 -0.015235448 -0.45844743 0.064124875 0.053982608 0.16848554
is 0.10777527 0.11975244 -0.5076973 -0.41558132 -0.2568576 0.23361515 0.14593185 0.6603025 -0.19591512 -0.7851625 -0.6402717 0.113169156 0.9429023 -0.058399837 -0.2708232 0.03915329 -0.5911283 0.1754134 -0.03702417 0.12615608
by 0.16171294 0.06961372 -0.4323773 -0.36425933 -0.24905209 0.121520035 0.13786721 0.68144137 -0.26068863 -0.7866255 -0.6860172 0.105371974 0.9685911 -0.0018695537 -0.21109009 -0.006498164 -0.450259 0.030428741 0.07010713 0.24228513
protein 0.11347751 0.0005857842 -0.44092813 -0.7029015 -0.17236578 0.07359879 0.09224907 0.4051016 -0.34082443 -0.66592264 -0.9361814 0.10972758 1.155931 -0.19356841 -0.13328798 0.11295008 -0.6422832 0.20500709 -0.018246192 -0.008291206
The 0.110912666 0.110953934 -0.39569387 -0.41715544 -0.1909576 0.081463195 0.06203173 0.6376298 -0.29571941 -0.7420296 -0.71202856 0.12716596 0.92129564 -0.045635793 -0.19978532 0.0099467365 -0.40844426 0.025145397 0.1024919 0.2610752
proteins 0.10880533 0.10649184 -0.5167385 -0.556189 -0.25918835 0.18309112 0.08642967 0.5422541 -0.2021986 -0.75419354 -0.75937545 0.20456178 1.0931782 -0.14394587 -0.27815348 0.09123703 -0.58772093 0.15211454 -0.11449329 0.06556204
was 0.15343663 0.10288829 -0.51229143 -0.4994053 -0.23704334 0.16071056 0.04956435 0.582914 -0.24343865 -0.7957988 -0.6494611 0.18687019 1.0103378 -0.09669068 -0.16943559 -0.004007406 -0.46755502 0.13281591 -0.021495225 0.15815464
beta-catenin 0.09298376 0.039227635 -0.8419946 -0.7850744 -0.29247245 0.44964734 0.05499232 0.50389135 0.027068023 -0.81964916 -0.64418864 0.44514427 1.2575474 -0.37856436 -0.25305516 0.07054377 -1.054057 0.77557206 -0.5037026 -0.27295512
cells 0.09102395 0.09971865 -0.46577471 -0.40462413 -0.21139403 0.18631394 0.07616425 0.68663853 -0.17167416 -0.77077484 -0.62779576 0.13407132 0.95653296 0.025824988 -0.23236974 -0.011846312 -0.4414103 0.035943836 0.05818885 0.26880074
myosin 0.06542005 -0.08393604 -0.41762558 -1.3365393 0.013676859 -0.4186509 -0.19906738 -0.12361001 -0.5987228 -0.8085691 -1.6287347 0.7069834 1.8133781 -0.6067636 -0.16663918 0.19465674 -0.032399558 -0.42557374 -0.10123639 0.107396856
alpha-catenin 0.05745023 0.08615418 -0.83094794 -0.7347285 -0.41433972 0.43639365 -0.022806147 0.5393095 -0.05316139 -0.86337817 -0.6436522 0.44269106 1.3180805 -0.34868878 -0.2269787 0.14981736 -1.1351342 0.80704033 -0.615787 -0.3334134
binding 0.1003201 0.016049115 -0.5038869 -0.4714558 -0.2605902 0.23519358 0.16456501 0.60634494 -0.18168205 -0.80944055 -0.75727594 0.19154942 0.97633344 -0.06455603 -0.24894881 0.14377926 -0.5648421 0.15354303 -0.027039815 0.045606337
chain 0.03403946 0.03602545 -0.3414686 -1.3860494 -0.012066359 -0.61200327 -0.27850375 -0.16314374 -0.7390521 -0.9265682 -1.7187194 0.71142906 1.8283824 -0.4554577 -0.22585782 0.34092793 -0.07778461 -0.32250845 -0.12636983 0.041126493
are 0.15461175 0.14316933 -0.49224025 -0.36257145 -0.23381786 0.22793163 0.066934615 0.7021352 -0.2018327 -0.8707841 -0.5551181 0.09419681 0.94411397 -0.05607649 -0.2592045 -0.012344631 -0.53228736 0.10602723 0.039919503 0.17087175
were 0.13912255 0.067115664 -0.4922218 -0.5329082 -0.18585975 0.20797941 0.025061153 0.566317 -0.23311296 -0.76760775 -0.663589 0.17293683 1.0761298 -0.09673026 -0.17232665 0.0049133534 -0.55053735 0.15776217 -0.09088445 0.10872014
cofilin 0.14300074 0.123520546 -0.47304213 -0.45203558 -0.19947797 0.18964091 0.17494226 0.6446774 -0.18839209 -0.8014503 -0.6484957 0.16076055 0.9068828 0.015348223 -0.26789692 0.06350453 -0.538577 0.09006829 0.052643754 0.18692236
as 0.104937874 0.052156504 -0.55218637 -0.5126001 -0.310268 0.18523031 0.039557602 0.63359237 -0.14956456 -0.7134596 -0.70231843 0.19357942 1.0922443 -0.0064126905 -0.19425416 0.03851375 -0.56865156 0.2295709 -0.014453934 0.051156886
heavy 0.12539043 -0.09009517 -0.3299329 -1.1988779 -0.038109846 -0.55567575 -0.34597448 -0.14356546 -0.59603655 -1.08792 -1.6615533 0.59637266 1.8959552 -0.5857569 -0.046420716 0.2169284 -0.041039024 -0.47430617 -0.15713534 -0.062029853
not 0.045729037 0.06301628 -0.6364427 -0.4431228 -0.13561738 0.10483011 0.15256968 0.6147223 -0.24361454 -0.8002043 -0.68153733 0.2824971 1.0470325 -0.031428628 -0.28567213 0.06887043 -0.62437797 0.16117907 -0.14106771 0.10680469
or 0.05594894 0.05503894 -0.49714583 -0.56790787 -0.16987759 0.06323533 0.049093705 0.5395413 -0.3186113 -0.7986231 -0.8247045 0.19551048 1.0958817 -0.1699349 -0.1829433 0.07462999 -0.5538539 0.114300475 -0.09567261 0.10740838
on 0.15218754 0.12386017 -0.46149588 -0.42640772 -0.25486162 0.109993264 0.15721448 0.5887234 -0.2170962 -0.8207886 -0.8119879 0.1399871 0.95917356 -0.11405796 -0.2776898 0.085616075 -0.3890587 -0.04036062 0.06150132 0.24334382
an 0.07388306 0.05507272 -0.4510959 -0.46879295 -0.23820367 0.15841883 0.0881267 0.676608 -0.2320671 -0.7791303 -0.74048036 0.11558135 0.9411525 -0.008319631 -0.17176887 0.029206127 -0.53295267 0.15750746 0.0709645 0.15156625
which 0.08484137 0.08320823 -0.52469754 -0.48744407 -0.22306901 0.18730506 0.067048445 0.59788805 -0.1894928 -0.83671916 -0.6540284 0.16925211 0.9932105 -0.14010903 -0.24425088 0.06800116 -0.5823018 0.12792332 -0.027208254 0.07287793
from 0.14228989 0.10585576 -0.42026898 -0.38751087 -0.2081428 0.17449765 0.058809 0.75307596 -0.1917986 -0.76971716 -0.6675627 0.13179326 0.9640939 -0.030236518 -0.19032359 0.016686141 -0.44698134 0.11252562 0.037873957 0.24236771
cell 0.19405705 0.16915673 -0.49789163 -0.41627744 -0.20215459 0.24906728 0.100062534 0.68199307 -0.14088717 -0.84874356 -0.6337326 0.12680413 0.937782 -0.037433654 -0.25500673 0.055499934 -0.5365697 0.20861375 0.005653766 0.26719493
expression 0.18698439 0.0054205833 -0.6807166 -0.8146211 -0.16972639 0.10846018 0.011537645 0.2425381 -0.1989475 -0.813418 -0.9283266 0.33833337 1.2866274 -0.28524712 -0.09743765 0.18182549 -0.66244745 0.3826483 -0.38185656 -0.09421129
In 0.095667996 0.11514091 -0.44856635 -0.34758827 -0.23155431 0.18395498 0.010119045 0.6720715 -0.24764758 -0.7469269 -0.60833305 0.14539629 0.9376675 -0.023965895 -0.2060921 -0.029375674 -0.48322907 0.096124 0.15909797 0.25214618
we 0.07889106 0.2796962 -0.499242 -0.30907565 -0.34071785 0.19901237 -0.0045809634 0.72060275 -0.1685813 -0.80678964 -0.57003605 -0.0027212861 0.8767165 -0.00060006743 -0.2679575 -0.09144428 -0.48511788 0.16533317 0.15140364 0.2199731
actin-binding 0.18064329 0.08350426 -0.51455414 -0.51498085 -0.26875237 0.1623391 0.16583614 0.5903812 -0.2647955 -0.7354133 -0.7982282 0.18312128 0.99556035 -0.07402663 -0.22416593 0.11273995 -0.5298935 0.20634396 0.03398307 0.065644145
but 0.123802535 0.11014497 -0.62204516 -0.5650354 -0.2404873 0.17521432 0.05925938 0.6173604 -0.17436175 -0.8463289 -0.6808721 0.25254813 1.0979334 -0.21997304 -0.15244807 0.037395287 -0.68044525 0.21950994 -0.19934049 -0.030426132
at 0.11813515 0.07495978 -0.4389252 -0.38241845 -0.2567896 0.15785208 0.11496493 0.6484239 -0.2523281 -0.8018596 -0.64934516 0.1578149 0.9553078 -0.04640469 -0.22285517 0.026275104 -0.4611675 0.09187545 0.034351885 0.25122234
complex 0.1607956 0.090766184 -0.5344129 -0.41205275 -0.28051296 0.20627244 0.0883722 0.6560233 -0.16141918 -0.79213136 -0.6289592 0.09380695 0.9307472 -0.030698288 -0.21070674 0.020381626 -0.5536559 0.23512387 -0.030230016 0.15328786
E-cadherin 0.12019403 0.0007488446 -0.83236533 -0.83783245 -0.3513732 0.40958706 0.034608454 0.43173188 -0.026190221 -0.8106683 -0.75915325 0.42098323 1.3317021 -0.34998545 -0.14613043 0.088813715 -0.9820629 0.7947226 -0.57856107 -0.31161267
have 0.10501186 0.10280476 -0.43028203 -0.35863453 -0.2293654 0.21745425 0.0118438 0.73912126 -0.15680002 -0.7634895 -0.6593288 0.12331953 0.9259515 0.025566043 -0.17358123 -0.11574324 -0.57905453 0.14161424 0.14742076 0.24530222
these 0.113991916 0.10091796 -0.5123187 -0.41164884 -0.28617263 0.27880284 0.1006811 0.7395098 -0.14024222 -0.81753725 -0.55649114 0.16751349 0.9388972 -0.034189146 -0.2876644 0.0012069194 -0.59267104 0.18682657 -0.0077113113 0.20029941
: 0.13255 0.07482798 -0.44309613 -0.5344873 -0.17964572 0.02081759 -0.004510509 0.53467864 -0.27939013 -0.76485294 -0.80715823 0.14077272 1.0587568 -0.13923047 -0.11800642 -0.0020394966 -0.36186948 0.06462319 0.038363174 0.18408126
talin 0.1352983 0.060431883 -0.5093932 -0.5728741 -0.19299918 0.050112914 0.026161384 0.48760384 -0.23298432 -0.7513398 -0.8431046 0.20058519 1.0568976 -0.11775978 -0.22322392 0.123136334 -0.54972893 0.10950406 -0.08098467 0.06273769
genes 0.12290959 0.09654366 -0.42252043 -0.6151946 -0.2001303 0.1133438 -0.058501042 0.39416254 -0.3595561 -0.8423091 -0.766738 0.14988698 1.1878296 -0.21647988 -0.22027746 -0.020117573 -0.49465942 0.05514547 -0.116550624 0.1719199
muscle 0.035260156 0.01962011 -0.33708563 -0.99210197 -0.10810589 -0.31786716 -0.15176988 0.104464166 -0.51677465 -0.7729472 -1.2858499 0.38918734 1.4277401 -0.28249893 -0.2150933 0.22389477 -0.12795903 -0.2604881 -0.022404673 0.05983147
be 0.15559119 0.103058696 -0.5088054 -0.39391437 -0.19484174 0.25016585 0.16114023 0.74674505 -0.17150709 -0.83618116 -0.6779441 0.12540333 0.8838423 0.058304813 -0.25847715 -0.042563625 -0.51197207 0.014400789 0.04271916 0.31252432
two 0.15133321 0.14635566 -0.43878156 -0.4293237 -0.1780336 0.11462897 0.06788976 0.64364487 -0.2633858 -0.8497164 -0.68433076 0.12714978 0.9829795 -0.027100738 -0.2522488 0.006437267 -0.44023144 0.032701537 0.062206298 0.24678597
kinase 0.26551607 0.00542954 -0.54182535 -0.6273924 -0.02790615 -0.07481458 0.14808512 0.418194 -0.36295655 -0.8177564 -0.9431997 -0.12691972 1.1787652 -0.055235624 0.19342251 0.079353295 -0.6260434 0.134197 0.023107784 0.0481048
; 0.08648273 0.079822496 -0.49475798 -0.5992179 -0.20273985 0.09396076 0.0013464302 0.6098226 -0.35168034 -0.72558737 -0.7469934 0.123824194 1.0385406 -0.12200513 -0.16430432 -0.0063390923 -0.5819645 0.18543749 0.0001673701 0.15582722
filaments 0.10727929 0.051559452 -0.4210234 -0.4551116 -0.1615021 0.11101872 0.16620594 0.55229014 -0.22053027 -0.76537484 -0.7384839 0.1701759 0.9321439 -0.042665407 -0.29425126 0.081441134 -0.41775772 -0.015053973 0.03280017 0.18318485
between 0.09404453 0.05300008 -0.41289365 -0.42400715 -0.21876258 0.10327564 0.029765418 0.6090373 -0.2903575 -0.7697309 -0.73042417 0.1009892 1.0008698 -0.07721517 -0.19608401 0.037207883 -0.42022708 0.10373442 0.036475405 0.15215029
this 0.10465779 0.16321242 -0.5164932 -0.3690988 -0.20299782 0.17672385 0.0273786 0.7268118 -0.16428342 -0.8085768 -0.6179299 0.15660949 0.91354626 -0.050462626 -0.20357051 0.012536066 -0.51371604 0.15196519 0.038308494 0.22315004
also 0.12930211 0.10264848 -0.505713 -0.41287336 -0.22888233 0.15797861 0.078929864 0.6890895 -0.22553553 -0.80184704 -0.5971814 0.12257617 0.9662519 -0.005953425 -0.20965771 -0.042928096 -0.5374801 0.08747484 0.06498375 0.21477358
yeast 0.109477125 0.113540955 -0.3979252 -0.34663686 -0.21565 0.17680591 0.10062687 0.75829816 -0.21649116 -0.7866523 -0.63190585 0.05464407 0.8963244 0.039281562 -0.21816066 -0.053274706 -0.43171388 0.053850636 0.1594389 0.2844188
histone 0.16843253 0.06791195 -0.3322403 -0.40375426 -0.36709997 0.20246333 -0.03788434 0.72250426 -0.40700158 -0.92560387 -0.56137955 -0.04511958 0.8866339 -0.094913095 -0.2543433 -0.0073440056 -0.55517614 0.023360688 0.080273755 0.23335057
can 0.17025737 0.1200433 -0.5580605 -0.36877564 -0.29572704 0.17067379 0.13791601 0.7812619 -0.16371176 -0.8213196 -0.6559392 0.12078559 0.8928304 0.02755743 -0.2813518 0.033108294 -0.5156738 0.102494456 0.047798444 0.18090409
polymerization 0.085179694 0.12220786 -0.4655251 -0.39824963 -0.20091857 0.1261011 0.11896901 0.61116344 -0.24515703 -0.7392666 -0.7624227 0.10261043 0.8829302 0.027331177 -0.2702143 0.016042236 -0.34089938 0.0058535147 0.07073912 0.26180732
both 0.087769814 0.06675644 -0.49866673 -0.4476556 -0.2449231 0.15047733 0.041550994 0.6093426 -0.21560489 -0.7957789 -0.67360264 0.1628599 1.0334973 -0.12280107 -0.2216672 0.022314783 -0.52689135 0.13457195 -0.015169063 0.14538819
gene 0.07226932 0.06964396 -0.41718227 -0.48666078 -0.1629049 0.08484854 -0.013387267 0.5510248 -0.3120856 -0.7234849 -0.7231669 0.0971008 1.0468447 -0.072051845 -0.19759251 -0.019924218 -0.5010625 0.08103633 0.070594564 0.18403845
% 0.066171534 0.053498045 -0.46940503 -0.6262618 -0.11463836 0.0031661554 -0.024150811 0.49136543 -0.3131512 -0.7087487 -0.7720586 0.15803638 1.083374 -0.13256063 -0.053184662 0.034382366 -0.47033754 0.11775868 0.008181485 0.12249171
We 0.10981859 0.16000855 -0.4570734 -0.35766858 -0.21720092 0.15863381 0.027717099 0.7305592 -0.26998731 -0.79730445 -0.64865327 0.036424678 0.91808194 0.039562672 -0.17002127 -0.08820211 -0.4216098 0.039645642 0.110757686 0.28856534
1 0.06758853 0.03048508 -0.41453493 -0.5304872 -0.16150595 -0.023826303 -0.009119415 0.51016074 -0.40740183 -0.7318969 -0.8451888 0.09415138 1.0716233 -0.11296126 -0.04685129 -0.03027553 -0.39026937 0.04633746 0.13139446 0.19056349
domain 0.08097816 0.06847382 -0.5003129 -0.457904 -0.20765461 0.18523145 0.08411108 0.7007322 -0.25459495 -0.789754 -0.67755586 0.102203846 0.92537326 -0.08156535 -0.15888418 0.04256345 -0.49526903 0.14496669 0.0427462 0.20979872
DNA 0.16471131 0.11867346 -0.47127694 -0.39230907 -0.20604368 0.14403187 0.027649812 0.7203566 -0.29098 -0.8440135 -0.61434495 0.013254888 0.9466266 -0.04879359 -0.16836362 -0.09671062 -0.49634072 0.110557616 0.06640223 0.28268945
its 0.09157704 0.061816927 -0.4632841 -0.39383805 -0.21156645 0.15060645 0.12930284 0.716834 -0.205495 -0.8127497 -0.658176 0.11871968 0.9302805 -0.04427214 -0.23834576 0.023369275 -0.47348872 0.12456447 0.08150282 0.20296998
human 0.09628275 0.118292436 -0.45660564 -0.4523968 -0.20296006 0.15914007 0.06070083 0.655653 -0.24308948 -0.78606385 -0.7057393 0.14810917 0.94763213 -0.027387602 -0.19842517 -0.013613825 -0.45503813 0.09467807 0.092531525 0.20027892
RAD51 0.16452831 0.13005014 -0.47172165 -0.4509925 -0.22458501 0.15354021 0.023099909 0.67632294 -0.17474961 -0.8505129 -0.6134106 0.15053065 1.011328 -0.11601694 -0.18438074 -0.08292852 -0.52754754 0.09203249 0.043592174 0.23493427
results 0.17620192 0.11577541 -0.41810122 -0.3849122 -0.27837062 0.19892728 0.034765743 0.83970493 -0.30812997 -0.7525245 -0.60753065 -0.022007069 0.90590936 0.055213287 -0.20539834 -0.13804835 -0.47343215 0.025818879 0.10526228 0.2894509
activity 0.11171781 0.08280919 -0.47254688 -0.3482567 -0.21129067 0.09686892 0.10432748 0.7470993 -0.28187808 -0.8249162 -0.6176514 0.06526604 0.92577124 0.012025017 -0.13976736 -0.032985922 -0.4865313 0.07291792 0.13243596 0.23716356
cytoskeleton 0.11110027 0.07943152 -0.42833665 -0.4016824 -0.17954558 0.10823158 0.17082296 0.60546625 -0.2021071 -0.77200955 -0.7319545 0.15543215 0.94690174 -0.005048069 -0.2549901 0.07472091 -0.4286472 0.0013039003 0.074207515 0.19760285
These 0.14102949 0.15062265 -0.4226277 -0.3690232 -0.29206258 0.18409793 0.08146394 0.85249156 -0.30020875 -0.8160733 -0.6573848 0.022312054 1.0078166 0.00676902 -0.22091703 -0.09864019 -0.4701476 0.03007279 0.14338425 0.37937865
interaction 0.07627751 0.09993679 -0.4396354 -0.4444822 -0.22734228 0.19334146 0.09539813 0.68149704 -0.22935353 -0.76882374 -0.6656785 0.13718502 0.95355916 -0.026769754 -0.2280315 0.006710025 -0.45345002 0.13856201 0.036508333 0.19667415
assembly 0.106654964 0.08990527 -0.43170223 -0.43288368 -0.19241957 0.0789073 0.099407494 0.59894264 -0.24167065 -0.7837937 -0.7331909 0.13730577 0.9558128 -0.0069706133 -0.24231513 0.025693897 -0.37816513 0.014227427 0.07373579 0.24839932
has 0.096986234 0.1340754 -0.43347245 -0.35714403 -0.26746112 0.23698978 0.096098825 0.81281596 -0.22522646 -0.8072985 -0.6676246 0.07400087 0.9164123 0.04800285 -0.14421678 -0.015207123 -0.56867385 0.13158765 0.16127677 0.2978615
plakoglobin 0.072528824 0.010502292 -0.69835764 -0.70153487 -0.32277474 0.314359 0.015699446 0.4765218 -0.066676214 -0.78312665 -0.66472363 0.3309266 1.184181 -0.269265 -0.16255915 0.10060181 -0.865027 0.58366895 -0.39415187 -0.19353463
cyclin 0.19415966 0.07286869 -0.53248197 -0.48178345 -0.16296229 0.081186555 0.14630993 0.61685973 -0.31553555 -0.7818878 -0.7156846 0.0011088642 0.9979925 -0.03931896 -0.026438922 0.025878146 -0.55079156 0.14067931 -0.049388073 0.1512003
region 0.10443348 0.106097676 -0.47718126 -0.4334276 -0.24461313 0.1691879 0.11353329 0.66298854 -0.24736926 -0.76004195 -0.64947355 0.080181375 0.9266734 -0.016662635 -0.18520458 0.019316668 -0.4798602 0.10341461 0.07962276 0.20807922
fimbrin 0.123576015 0.068239704 -0.48773357 -0.5269399 -0.17065151 0.12621987 0.07409992 0.59357715 -0.25788203 -0.78150046 -0.75124687 0.16615248 0.96854484 -0.074104406 -0.18356562 0.02704379 -0.50175744 0.07757374 0.040249277 0.1409495
been 0.06921658 0.16507788 -0.51707447 -0.43068317 -0.22733545 0.23988885 0.07010169 0.7466787 -0.18244065 -0.8151453 -0.6792293 0.09872392 0.9667072 0.002682785 -0.19784036 -0.10071966 -0.5141951 0.113594785 0.08579606 0.2570225
other 0.106973305 0.09451434 -0.47863865 -0.46625954 -0.2532448 0.17480366 0.050200388 0.68876135 -0.19617274 -0.80288714 -0.63372445 0.13492481 0.97673064 -0.07457004 -0.2148593 -0.03575382 -0.5197617 0.15089485 0.03801643 0.14983901
RAD52 0.12298928 0.17965685 -0.48020726 -0.38184622 -0.26889083 0.1307658 0.020101244 0.71027946 -0.2169837 -0.85194355 -0.6623887 0.14972952 1.0143889 -0.111772045 -0.21178226 -0.07677543 -0.49763963 0.095660135 0.008908 0.18165313
found 0.09011551 0.09838347 -0.48822394 -0.46636826 -0.22236188 0.18731272 0.038060732 0.66415775 -0.23746637 -0.78708875 -0.6467344 0.12953947 0.9497658 -0.040376227 -0.22040786 -0.02117319 -0.5423532 0.10050725 0.0055778488 0.18810728
factor 0.10351369 0.07483159 -0.43691376 -0.4364018 -0.20943646 0.07712675 0.026381774 0.63638127 -0.23381849 -0.73957324 -0.6863706 0.06316491 0.9279231 -0.051093645 -0.19553012 -0.04132696 -0.47129047 0.064292826 0.0808367 0.2017827
binds 0.08230317 0.10585639 -0.53029835 -0.43705106 -0.25959224 0.21603242 0.07679474 0.6657114 -0.21709116 -0.7694629 -0.64864063 0.16455285 0.97201824 -0.03503666 -0.23561943 0.06712038 -0.5548526 0.15402061 0.022068948 0.1506344
virus 0.06708945 0.09357459 -0.3747053 -0.43314734 -0.22791992 0.103984244 0.029818261 0.63416135 -0.3634932 -0.7635807 -0.66652334 0.024534337 0.94483316 -0.053355485 -0.03820269 -0.110892214 -0.41871423 0.12343871 0.12151646 0.24466725
vinculin 0.10779338 0.07977056 -0.56790113 -0.5576496 -0.20697466 0.12180182 0.043625202 0.5257458 -0.17585075 -0.72516537 -0.7868439 0.2065107 1.0518838 -0.090669446 -0.20250787 0.026292117 -0.5741617 0.13697004 -0.0078567 0.097198166
inhibitor 0.224566 0.004770282 -0.5345754 -0.48514625 -0.095469475 0.0010204308 0.10287704 0.54709595 -0.3900634 -0.8594358 -0.8098964 -0.11552136 1.1264743 -0.05343808 0.06380089 0.0749089 -0.67565364 0.1253503 -0.04511845 0.14082493
using 0.12400262 0.08947723 -0.4141359 -0.40114617 -0.19610584 0.1502661 0.050951734 0.7095337 -0.20805818 -0.7819602 -0.6427718 0.08536171 0.9295236 0.01759154 -0.17962961 -0.071151644 -0.4420214 0.048677575 0.1042263 0.30647257
P 0.13403495 0.042021193 -0.4547206 -0.769541 -0.09369098 -0.00593103 -0.04329256 0.43936887 -0.44160438 -0.54650474 -0.8961056 0.059727985 1.0858322 -0.15297516 -0.052816965 0.001731227 -0.587171 0.30193475 -0.015832867 -0.023985475
may 0.15691295 0.106016375 -0.52331966 -0.3554953 -0.2848987 0.15309344 0.09686725 0.7592374 -0.2249716 -0.8164216 -0.69606805 0.08322458 0.9264262 0.049457945 -0.2516835 -0.033517506 -0.4546712 0.059852347 0.07107512 0.24892436
A 0.092939265 0.08222281 -0.3995465 -0.45781705 -0.19632086 0.06266324 -0.0011252759 0.6351516 -0.299789 -0.74173796 -0.6831053 0.11287237 0.9263682 -0.04467876 -0.14076233 -0.012125094 -0.4140154 0.03564032 0.08976666 0.23859751
membrane 0.10385224 0.094039716 -0.42573842 -0.39553896 -0.19542988 0.15693001 0.08210147 0.62957895 -0.22741157 -0.7864245 -0.66811675 0.14196335 0.93771696 -0.030146163 -0.23572302 -0.0044239224 -0.4775808 0.082878046 0.0440067 0.21835649
bind 0.09152354 0.08204267 -0.5001327 -0.39792433 -0.23692143 0.24224514 0.07654182 0.70512784 -0.18316048 -0.7779693 -0.67621416 0.12987033 0.988327 -0.055538926 -0.20789772 0.003338311 -0.5944688 0.15121315 0.021244366 0.12357339
it 0.11213992 0.12363449 -0.4258553 -0.38703653 -0.20698518 0.13505955 0.0526185 0.73730636 -0.2553822 -0.79929525 -0.67666245 0.08082544 0.9260717 0.012701182 -0.21464586 -0.0033393563 -0.43447715 0.069352575 0.08519417 0.24090318
site 0.07972439 0.07419174 -0.45313096 -0.4175035 -0.21331644 0.17217156 0.12258031 0.683399 -0.2192467 -0.7848459 -0.6776862 0.11676478 0.97087437 -0.04680388 -0.16831593 -0.011788332 -0.49299943 0.13538453 0.07424625 0.19491075
I 0.114509195 0.055090334 -0.4244736 -0.40448827 -0.21299611 0.09976274 0.054142684 0.64159364 -0.2633772 -0.78196317 -0.7142605 0.12051039 0.95262194 -0.037130497 -0.20009153 0.033766717 -0.37204686 0.010183434 0.12631957 0.24312124
identified 0.1121176 0.14469329 -0.45293444 -0.45877457 -0.2389286 0.20506388 0.012753971 0.77884746 -0.20236887 -0.8283362 -0.66869885 0.10111574 0.9775713 -0.017629178 -0.17994364 -0.024052354 -0.5099505 0.11383522 0.09749389 0.23732531
growth 0.061920807 0.085634805 -0.40714452 -0.44619986 -0.20203249 0.06388001 0.045476895 0.6101572 -0.29688442 -0.7206837 -0.69890106 0.120851025 0.96448386 -0.016196704 -0.14462326 -0.03948231 -0.3475386 0.0038974062 0.08492057 0.2723299
than 0.07485044 0.103180185 -0.42859766 -0.45705587 -0.18670015 0.10484442 0.05092706 0.6943627 -0.25011984 -0.77777797 -0.71212703 0.10527179 0.96277666 -0.0013007415 -0.17073348 0.0022256505 -0.39167562 0.03262862 0.06331695 0.24891993
into 0.09306806 0.05817425 -0.47165534 -0.39125836 -0.19218317 0.1362119 0.031832192 0.677552 -0.22912073 -0.79015136 -0.64299875 0.12783039 0.95389587 -0.010991459 -0.14288497 -0.010984727 -0.42337194 0.065084696 0.07709555 0.23103833
increased 0.14478414 0.060331605 -0.46555278 -0.46503395 -0.18203054 0.12992014 0.07697749 0.6803241 -0.26078746 -0.8167544 -0.66391677 0.103438996 0.95490825 -0.043714557 -0.12036436 0.029805815 -0.51588863 0.11913673 0.013348734 0.16618595
sequence 0.0949239 0.13328709 -0.4077701 -0.39738777 -0.22631599 0.13653292 0.09930964 0.75771344 -0.2616003 -0.79727274 -0.6458505 0.03964538 0.9234625 -0.018292934 -0.18614572 -0.031026702 -0.44483054 0.054457843 0.12379261 0.27311566
suggest 0.18193707 0.11540611 -0.39574766 -0.32356036 -0.26053652 0.1555253 0.05981607 0.8249013 -0.24529754 -0.80375874 -0.61829156 -0.004002905 0.93726516 0.0028435008 -0.2505215 -0.06485313 -0.47780642 0.008561105 0.088531025 0.32958153
their 0.10919181 0.11788356 -0.48389757 -0.3837274 -0.2278882 0.13334294 0.041665103 0.7442775 -0.23655593 -0.8213636 -0.64296174 0.09297551 0.9208301 0.009996971 -0.17778999 -0.04500853 -0.44720086 0.06530844 0.12659585 0.22962435
filament 0.1146585 0.078628644 -0.42345166 -0.39264637 -0.18046156 0.12190667 0.119860284 0.6644892 -0.1935879 -0.7550218 -0.670518 0.10215515 0.8628006 0.0106205605 -0.22179288 -0.01788417 -0.4093044 0.04169057 0.11147461 0.24031985
affinity 0.12860033 0.110838756 -0.44785655 -0.347949 -0.22637957 0.13630119 0.06485598 0.7035228 -0.22651987 -0.8127473 -0.63754517 0.09737636 0.92803335 0.026964255 -0.2234584 -0.005315937 -0.41555703 0.06290746 0.12940788 0.24122915
Acanthamoeba 0.12816711 0.10853875 -0.44931477 -0.32763818 -0.2156848 0.129874 0.08435984 0.696805 -0.2123118 -0.77291334 -0.66554606 0.05755325 0.8823843 0.032368403 -0.22148517 0.026945462 -0.39147583 0.05945909 0.117887415 0.23898625
similar 0.10987678 0.10832759 -0.42948177 -0.40724593 -0.23051241 0.15127875 0.07947099 0.7026426 -0.26139712 -0.75047964 -0.6214159 0.10309627 0.9211319 0.008781528 -0.16084695 -0.046852313 -0.45913568 0.05949223 0.09820275 0.22383724
involved 0.15691572 0.120904796 -0.5020628 -0.4016964 -0.2310038 0.1905352 0.103217 0.7529413 -0.21724111 -0.86240983 -0.63731444 0.06656434 0.91065115 0.00035657024 -0.24543622 0.0066451156 -0.46793306 0.05112868 0.10701285 0.2912977
role 0.13277431 0.11313044 -0.4620802 -0.37873024 -0.23041753 0.1863219 0.07917619 0.6970992 -0.1920977 -0.7549948 -0.6203572 0.08133777 0.8968251 -0.021761943 -0.21652824 -0.0028591903 -0.4340203 0.07846336 0.06444911 0.23616476
presence 0.1353375 0.069284335 -0.4423821 -0.47072685 -0.20340152 0.14272952 0.10770739 0.56475055 -0.2276524 -0.7565721 -0.7229623 0.11358195 0.9938508 -0.0960547 -0.22814888 0.0671651 -0.46132228 0.10660522 0.015157213 0.17662701
UL8 0.09213457 0.08054511 -0.48811895 -0.49520922 -0.1956891 0.17339002 0.009017171 0.45280203 -0.33510303 -0.8385866 -0.6950596 0.092216216 1.0838376 -0.1332992 -0.24984047 -0.043309927 -0.5389759 0.22578219 -0.08777094 0.14021173
phosphoprotein 0.09383582 -0.007161928 -0.42334342 -0.68123394 -0.11578022 0.07641729 -0.009401674 0.48713648 -0.3851239 -0.557148 -0.89349765 0.074733146 1.0518332 -0.16520956 -0.027575923 -0.013901808 -0.6122171 0.26557684 0.049019597 0.04511741
during 0.092430696 0.06634483 -0.45439187 -0.5080628 -0.165399 0.073369436 0.032608386 0.5762394 -0.25390276 -0.75446534 -0.7496015 0.19118883 1.0096369 -0.09710161 -0.19254966 0.004790509 -0.4282648 0.027704122 0.040704116 0.2100416
UL52 0.14136222 0.12590791 -0.50363046 -0.4408978 -0.18204883 0.16607215 -0.016797183 0.47939554 -0.25512034 -0.825903 -0.6922296 0.12701243 1.0515754 -0.12969331 -0.23788749 -0.062505744 -0.55216557 0.18657081 -0.021730816 0.12642814
repair 0.15629053 0.16313918 -0.46137175 -0.33124477 -0.22545655 0.22863767 0.041763443 0.73934406 -0.24817163 -0.858529 -0.5677608 0.054895964 0.9410564 -0.041154567 -0.2390439 -0.1027716 -0.52882844 0.08089472 0.079019226 0.29512876
profilins 0.11652539 0.10142311 -0.4149652 -0.3870597 -0.19299753 0.13855542 0.05299431 0.7649548 -0.27675128 -0.7498444 -0.65163505 0.045538545 0.91288143 0.0453274 -0.19582886 -0.025856372 -0.4377414 0.058788065 0.13549684 0.26156175
vitro 0.10422145 0.08858715 -0.44852427 -0.394974 -0.22446378 0.14951554 0.053184625 0.70586663 -0.20659156 -0.7507441 -0.6358067 0.09670219 0.88164216 0.016591562 -0.20270732 -0.007269754 -0.44274378 0.06277028 0.11869642 0.24810645
type 0.056204002 0.022470178 -0.38501832 -0.5332699 -0.19070359 0.028004397 -0.026918843 0.53657037 -0.33210325 -0.7875594 -0.8083207 0.1224418 1.0805012 -0.13068326 -0.067030385 -0.04169594 -0.33893827 -0.033433747 0.10366637 0.205241
antibodies 0.07075851 0.0737743 -0.4430335 -0.45953625 -0.18348545 0.11972165 0.01277854 0.5924992 -0.26087987 -0.7809219 -0.73746485 0.19362041 0.98073524 -0.07416594 -0.17114499 0.010072978 -0.44407374 0.009786642 0.054465845 0.16204691
beta 0.074613355 0.030824723 -0.44736356 -0.48318243 -0.19552699 0.026198795 0.027411103 0.58908993 -0.3349478 -0.73618126 -0.8123472 0.113703534 1.0317992 -0.07195104 -0.15691768 -0.025658634 -0.40057755 0.029607078 0.068741165 0.207171
associated 0.075555585 0.055466548 -0.50691205 -0.458251 -0.22764198 0.13664517 0.090815514 0.70124674 -0.24068223 -0.7886624 -0.65611166 0.1410412 1.0056375 -0.05993325 -0.19162029 0.0029837699 -0.53781897 0.12976223 0.039550822 0.14570531
required 0.120442174 0.071291804 -0.44207093 -0.3832499 -0.21081327 0.1716038 0.01867195 0.7469927 -0.2535863 -0.8158085 -0.64993614 0.10887408 0.9702232 -0.0314036 -0.16201557 -0.06219892 -0.4679696 0.0700431 0.08068223 0.23524052
UL5 0.08629578 0.06909838 -0.49274296 -0.4527652 -0.20006736 0.1831028 -0.0017808657 0.4910878 -0.27329758 -0.7874737 -0.6833283 0.12049515 1.0530546 -0.07529582 -0.23313835 -0.053098325 -0.4964372 0.1459193 -0.071473 0.16110292
2 0.11745468 0.0782393 -0.4410942 -0.4882086 -0.15901716 0.028809465 -0.017755372 0.5978046 -0.3149255 -0.71706647 -0.7388469 0.08148174 0.99173 -0.06311753 -0.0896527 -0.028990097 -0.43654457 0.07735602 0.07606188 0.20085582
function 0.097551554 0.10044433 -0.44279516 -0.37479267 -0.21720822 0.17229463 0.061805915 0.7246305 -0.25495127 -0.7443654 -0.6351075 0.06392617 0.8655441 0.0040450003 -0.1649685 -0.011895134 -0.41632056 0.041432507 0.08670921 0.27302945
effect 0.09703652 0.10834927 -0.39943486 -0.3895087 -0.21050936 0.10015846 0.10657428 0.64330643 -0.27298352 -0.78396225 -0.7227146 0.07631073 0.94569725 -0.042126704 -0.22907715 0.03133972 -0.40761548 0.05469297 0.12059695 0.28900114
microM 0.08297299 0.08384106 -0.42745715 -0.4179576 -0.21360816 0.0846988 0.045955352 0.6641235 -0.28797162 -0.736943 -0.6732086 0.071602136 0.9331134 -0.03339202 -0.12101702 -0.031414352 -0.44038418 0.062297344 0.0974958 0.23190533
containing 0.075347394 0.06782984 -0.4516528 -0.44612783 -0.23049204 0.1545969 0.005732327 0.6863938 -0.24727526 -0.7918188 -0.69226295 0.12704156 0.9910502 -0.056802407 -0.15143004 -0.003552753 -0.47338745 0.09275093 0.04707853 0.23058806
cyclin-dependent 0.23581001 0.006753995 -0.54740393 -0.42707956 -0.105521806 0.006874431 0.09947722 0.6431698 -0.3242835 -0.8605857 -0.7884471 -0.15089159 1.0554756 0.027244011 0.049522758 -0.011543393 -0.5872317 0.14536387 0.03582648 0.18318357
shown 0.10859371 0.13453905 -0.43965426 -0.37888637 -0.23376855 0.19296966 0.025381709 0.7356547 -0.22545522 -0.8193565 -0.66406494 0.07698202 0.93019724 0.0036742906 -0.16746067 -0.02360371 -0.50167817 0.049179684 0.10131267 0.28770053
sites 0.09783506 0.061568975 -0.42307514 -0.4159538 -0.2293754 0.1385994 0.04238783 0.71049404 -0.28677452 -0.8084672 -0.68228704 0.07843544 0.9471181 -0.03461622 -0.20647132 -0.020817159 -0.39999306 -0.001506727 0.109864995 0.29770622
complexes 0.08714015 0.07308321 -0.506136 -0.4108493 -0.2266109 0.20285867 0.08571459 0.70841074 -0.19842027 -0.7930542 -0.63324195 0.115993634 0.9519077 -0.058708463 -0.14243828 -0.0073709954 -0.54492027 0.14587022 -0.0009217326 0.18982495
synthesis 0.10335972 0.087542504 -0.434906 -0.5145167 -0.17254145 0.037410997 -0.005734894 0.56992227 -0.30991942 -0.737087 -0.7584884 0.1648617 1.0290533 -0.11346822 -0.13402064 0.018288394 -0.3673707 0.0072302897 0.06375575 0.19486725
adhesion 0.10344776 0.09376678 -0.5214518 -0.4019067 -0.24017984 0.19588643 0.07410363 0.7212461 -0.1885039 -0.76709753 -0.6075212 0.10009474 0.92604744 -0.04825928 -0.15048935 -0.036161173 -0.52673626 0.1771697 0.09483349 0.24551252
whereas 0.10758599 0.113394834 -0.4760045 -0.42334545 -0.21421218 0.1732604 0.022568129 0.680347 -0.21718273 -0.82159716 -0.63083816 0.091307305 1.0077164 -0.020725664 -0.18866734 -0.021813737 -0.52313316 0.14472122 0.030535 0.22912195
three 0.13124551 0.11217629 -0.45344028 -0.39425164 -0.23929603 0.16220568 0.057245124 0.70855296 -0.23988374 -0.83224577 -0.62983674 0.074652426 0.90834296 -0.02699239 -0.22040679 -0.021890454 -0.4435466 0.08111931 0.1097106 0.28899568
molecules 0.101944946 0.10733862 -0.5117213 -0.42341986 -0.22852483 0.16874513 0.024873264 0.7057149 -0.25965574 -0.77985716 -0.65262437 0.10396762 0.9369834 -0.061315794 -0.15795855 -0.042211328 -0.48676705 0.1388292 0.058860928 0.2181134
skeletal 0.103958726 0.05271902 -0.43391764 -0.59112215 -0.12794185 -0.012914961 -0.029676674 0.46211138 -0.32597426 -0.71674454 -0.85468084 0.22519234 1.0762509 -0.13506778 -0.12523966 0.016905243 -0.3049961 -0.063134834 0.061083302 0.17187674
effects 0.13737991 0.11963282 -0.42563468 -0.4503139 -0.17127137 0.085756086 0.05882159 0.6753606 -0.24250665 -0.7659026 -0.74732715 0.06550434 0.9738105 -0.042355586 -0.15819515 -0.016064426 -0.42784283 0.030538375 0.09930944 0.25894663
isoforms 0.11536009 0.040090866 -0.390124 -0.7039757 -0.12843877 -0.120386735 -0.07612541 0.3329707 -0.36087626 -0.7553878 -0.96819067 0.27954248 1.1431788 -0.18656029 -0.13262722 0.06685219 -0.2780556 -0.09235828 -0.005340299 0.14038846
show 0.1260908 0.10379485 -0.46244767 -0.31523088 -0.21736631 0.18686846 0.010619793 0.77540326 -0.2514167 -0.79906565 -0.6548344 0.048435584 0.9138409 0.04014931 -0.17173317 -0.08235107 -0.46107823 0.079153895 0.16872792 0.28523993
high 0.111070596 0.093546316 -0.44610447 -0.41624022 -0.19087796 0.12269608 0.041781593 0.67030275 -0.29306787 -0.7446903 -0.6955888 0.08989773 0.9435597 -0.021304874 -0.12262504 -0.03116157 -0.43835557 0.058214646 0.06326932 0.2094652
form 0.11442838 0.059659928 -0.4950674 -0.42993888 -0.24941257 0.18715538 0.054973993 0.6844012 -0.24960211 -0.75467885 -0.6280228 0.1288301 0.9568973 -0.04773867 -0.20876032 0.011556125 -0.51915646 0.16172607 0.06603149 0.19463876
formation 0.089092 0.093624465 -0.4568399 -0.40338033 -0.22352734 0.12397473 0.05818789 0.65133876 -0.22398688 -0.76074886 -0.67379445 0.09360325 0.92376786 -0.0054202965 -0.17486438 -0.011478609 -0.41392845 0.066833615 0.08235011 0.23109461
nucleocapsid 0.10072962 0.034605976 -0.39288974 -0.60510325 -0.12944898 0.03358485 -0.016185539 0.5466043 -0.37193033 -0.5714272 -0.8285902 0.028532622 0.9945221 -0.09824728 -0.02815619 -0.011391428 -0.5150921 0.22767803 0.07005099 0.10536591
domains 0.119411185 0.08238903 -0.4611034 -0.41153675 -0.21580404 0.10872937 0.054120727 0.6736172 -0.2625492 -0.77896285 -0.65411156 0.1199398 0.9370986 -0.051410165 -0.19043142 -0.0030121128 -0.43211445 0.0794976 0.09720308 0.23967135
functions 0.12301199 0.11014301 -0.44751057 -0.3543018 -0.21529683 0.16984816 0.07852752 0.74309355 -0.25564462 -0.79248244 -0.6157575 0.06701177 0.89331615 0.03453262 -0.18769434 -0.06942036 -0.46671435 0.04518511 0.14643085 0.30512843
nucleotide 0.07864915 0.104276225 -0.4480329 -0.3562533 -0.21552683 0.13167818 0.059762426 0.72503257 -0.23440732 -0.7320378 -0.6901665 0.06623436 0.8842106 -0.016549805 -0.14256544 -0.060074892 -0.37963876 0.047957134 0.14059043 0.28354236
H4 0.14758693 0.10252514 -0.36883855 -0.4385643 -0.29749668 0.16589856 0.028363762 0.7473997 -0.3386086 -0.8416036 -0.6336382 -0.019417537 0.91295344 -0.030425012 -0.21914823 -0.03497268 -0.48021868 0.08306371 0.08839893 0.29058838
mutant 0.077254504 0.10960602 -0.4723491 -0.394062 -0.23788185 0.14072646 0.057934448 0.7199789 -0.22850774 -0.76334256 -0.6385013 0.10540201 0.95497227 -0.01856258 -0.1730028 -0.050719034 -0.45175987 0.12306442 0.06782492 0.2246348
such 0.12412836 0.11980301 -0.4950484 -0.48120332 -0.25001508 0.14843477 0.04298118 0.72460157 -0.21989085 -0.76385564 -0.70982295 0.11558785 0.9932328 -0.019277902 -0.18481961 -0.017110817 -0.49021536 0.13507232 0.091389365 0.2127322
vivo 0.11227956 0.07689866 -0.46016252 -0.3929351 -0.2104245 0.13854201 0.059519593 0.62616754 -0.1954898 -0.7441224 -0.5990997 0.1122278 0.8820713 -0.040391106 -0.18293689 -0.021623842 -0.4306684 0.097985074 0.065332055 0.23260428
study 0.12090996 0.14242703 -0.47051585 -0.3539912 -0.21011646 0.17966814 0.002929911 0.7722247 -0.21206509 -0.77945846 -0.6761489 0.12389582 0.9610779 -0.008505268 -0.19503489 -0.0423138 -0.4830759 0.05568389 0.12269186 0.27991492
different 0.078218274 0.0778319 -0.47487178 -0.4754286 -0.19838701 0.09680181 0.04039422 0.6489157 -0.2767786 -0.7883618 -0.72361135 0.1252813 0.9958216 -0.072271384 -0.17757934 -0.027794475 -0.44147652 0.04606886 0.046348587 0.2514336
receptor 0.100396425 0.047563776 -0.44799834 -0.39201218 -0.21095067 0.084993675 0.028759383 0.717687 -0.2991433 -0.75954485 -0.6728618 0.054337133 0.9340152 -0.01570152 -0.11644082 -0.020039344 -0.43800795 0.09255556 0.13621779 0.22541885
cytoskeletal 0.07915925 0.09172232 -0.44283542 -0.42549026 -0.16747232 0.12932546 0.044156056 0.695518 -0.25548083 -0.77298385 -0.7042109 0.08197318 0.9040371 0.012395114 -0.15448365 -0.029454622 -0.43795562 0.016084645 0.09561035 0.2506266
expressed 0.10777955 0.085493945 -0.44235316 -0.43967843 -0.20992118 0.09200439 0.0040188865 0.61933726 -0.28556192 -0.7240697 -0.66604936 0.119503304 0.9773797 -0.061650846 -0.1497256 0.0051372778 -0.44747493 0.069133036 0.042096306 0.2188572
showed 0.11836523 0.12068873 -0.41553518 -0.32379246 -0.20241724 0.12489223 0.06419366 0.7693857 -0.23416182 -0.76287955 -0.6092701 0.071496 0.8594068 -0.008704891 -0.17649207 -0.07259942 -0.44720796 0.09235628 0.14333096 0.2966334
interactions 0.08974332 0.06759206 -0.43671829 -0.40555117 -0.19416623 0.15076518 0.025467535 0.6604168 -0.25883374 -0.75776505 -0.64952797 0.093409576 0.9001958 -0.060000833 -0.1951671 -0.011391592 -0.43778378 0.0766993 0.0592324 0.23792043
3 0.120433144 0.10475903 -0.44441366 -0.3915832 -0.19141741 0.13314316 0.02848946 0.7238893 -0.29309383 -0.7516136 -0.6480367 0.060236014 0.89075714 -0.02288567 -0.15065835 -0.04941384 -0.44785586 0.0866613 0.12761311 0.26072815
[ 0.062477738 0.062207643 -0.38444465 -0.37826863 -0.15592287 0.091282114 -0.014586768 0.70297205 -0.298178 -0.70498943 -0.66960585 0.09222618 0.887368 -0.018002875 -0.15299724 -0.06691994 -0.39237 -0.025666382 0.17957592 0.31577742
] 0.10534042 0.051921338 -0.37843603 -0.3901086 -0.20955539 0.0661984 0.038725648 0.65386444 -0.28069776 -0.70731443 -0.6422794 0.039218273 0.83528614 0.019963233 -0.13828407 -0.064384155 -0.39836118 0.019292705 0.14164983 0.2931006
one 0.086690135 0.095897086 -0.44899207 -0.4197993 -0.24129735 0.16820353 0.052577704 0.70773375 -0.2477302 -0.80203456 -0.669874 0.07069679 0.9337305 -0.0017148674 -0.15044275 -0.016104763 -0.46725252 0.11105552 0.09651204 0.2422304
H3 0.10932605 0.1019821 -0.40633494 -0.43910947 -0.28916752 0.15064083 0.0006073154 0.75777125 -0.34048465 -0.8645811 -0.6308861 0.00032201596 0.8800253 -0.013921941 -0.2216549 -0.06493887 -0.4986454 0.051265236 0.103421725 0.26810372
mutations 0.10630946 0.09288631 -0.4844549 -0.42866862 -0.21435812 0.1738328 0.050690718 0.67776674 -0.21931861 -0.796949 -0.64149624 0.14906904 0.9740721 -0.048779316 -0.18804488 -0.006955496 -0.51762086 0.13642105 0.012538595 0.21803917
only 0.11187368 0.08520026 -0.4504566 -0.38058355 -0.22541228 0.1069064 0.05359796 0.73631936 -0.25698397 -0.77173156 -0.63104653 0.08674084 0.93202275 -0.032633577 -0.18559122 -0.01754994 -0.44591224 0.04024069 0.084767036 0.27237627
activation 0.09022668 0.08546176 -0.40190077 -0.39763802 -0.21491456 0.11959985 0.07691586 0.7039423 -0.25481945 -0.74894327 -0.605933 0.07762205 0.88959837 -0.02191829 -0.12922855 -0.040161368 -0.4595711 0.08158223 0.12636362 0.24572212
levels 0.0898457 0.057208978 -0.46663827 -0.48131528 -0.18876377 0.11136988 0.018441029 0.5762962 -0.28667378 -0.7490388 -0.6963599 0.14525346 0.9566213 -0.047149144 -0.16860174 -0.008377042 -0.4541534 0.079719774 0.0063006096 0.1824428
Here 0.07392925 0.150256 -0.4582473 -0.33773845 -0.23804423 0.17837799 -0.05367066 0.77380663 -0.24388397 -0.77990323 -0.6352757 0.05656633 0.90242064 0.013662866 -0.14872503 -0.14175613 -0.50179267 0.09448888 0.23119135 0.2919652
N 0.09756111 0.05451585 -0.423683 -0.5978745 -0.10994478 0.10117893 0.0023404625 0.5667565 -0.3642562 -0.5904849 -0.79060906 0.057372633 0.98352194 -0.09861425 -0.077115044 -0.05270105 -0.5204646 0.19780986 0.066810146 0.117017165
regulation 0.103034936 0.10920602 -0.43013266 -0.36334178 -0.18943071 0.11976837 0.06864905 0.6569814 -0.21129796 -0.78909904 -0.6619513 0.095607385 0.87802297 -0.011360603 -0.18620206 0.018984297 -0.38150582 0.07145641 0.100030616 0.26423177
MSH2 0.1341527 0.13061479 -0.45091906 -0.4254541 -0.2021503 0.15893273 0.016159045 0.66884893 -0.2587615 -0.7716403 -0.670492 0.12502316 0.93625593 -0.01978896 -0.19201255 -0.02483216 -0.4965789 0.113321096 0.07117626 0.22728774
mutants 0.122797504 0.12014114 -0.43063885 -0.37943378 -0.19519915 0.13263635 0.05260331 0.76825476 -0.23067167 -0.78106546 -0.6256 0.0472034 0.88991636 0.023887143 -0.20080653 -0.07342675 -0.41025418 0.03804553 0.12963282 0.2753804
ability 0.086058706 0.069647186 -0.4719804 -0.3822031 -0.18391669 0.15020318 0.08661329 0.7671822 -0.20857987 -0.76016414 -0.6156859 0.11628959 0.9227517 -0.01270612 -0.18299724 -0.04534013 -0.4221215 0.047921345 0.13069765 0.23909396
isolated 0.07022102 0.11730267 -0.42044988 -0.39232478 -0.17035982 0.12994021 0.026884412 0.7006629 -0.22048368 -0.7581612 -0.6077531 0.057701815 0.8693686 0.015700046 -0.16719665 -0.049976967 -0.39976892 0.04880217 0.13525714 0.2977436
gelsolin 0.116405085 0.075159185 -0.45930734 -0.37569347 -0.21681374 0.12884097 0.05848884 0.6656712 -0.20841974 -0.7682705 -0.64907825 0.08430269 0.91800004 -0.027526323 -0.17041853 0.015354937 -0.42334208 0.0724772 0.07135639 0.24413519
smooth 0.09342036 -0.007197202 -0.39684048 -0.7721962 -0.10247368 -0.1635906 -0.13095628 0.26149353 -0.38847676 -0.70780116 -1.0109551 0.30185774 1.243239 -0.21255942 -0.096809365 0.08670431 -0.24807891 -0.09951432 -0.005862592 0.13881795
exchange 0.0948863 0.09722744 -0.44551098 -0.35032123 -0.18049492 0.12458616 0.053971134 0.67068756 -0.25386733 -0.7179666 -0.65820193 0.050761383 0.8711753 0.02602352 -0.15562542 -0.018696135 -0.39178532 0.076614626 0.1331311 0.2830563
all 0.11800446 0.08350474 -0.47820523 -0.39719048 -0.18258512 0.1446183 0.047906067 0.6520549 -0.23399337 -0.7349558 -0.62049466 0.08693533 0.9341795 -0.02131886 -0.13538426 -0.037959963 -0.4331651 0.10726276 0.056007914 0.21142004
known 0.09023386 0.10832727 -0.4786355 -0.3922531 -0.21356057 0.18002953 0.05805197 0.7242266 -0.1968061 -0.7945371 -0.60485977 0.12931857 0.91328794 -0.027635237 -0.16970673 -0.008948528 -0.50759757 0.10081904 0.09797555 0.24652188
interact 0.06924663 0.062944636 -0.4383598 -0.41789293 -0.21259528 0.14809838 0.03582978 0.6732962 -0.20846897 -0.7842472 -0.6470567 0.09737181 0.9348142 -0.07323894 -0.21375819 0.012850187 -0.4889758 0.07263424 0.047752246 0.20257159
lines 0.0809257 0.104051314 -0.505371 -0.39146268 -0.23489313 0.19234337 0.040073253 0.7929479 -0.25835222 -0.8009432 -0.6192352 0.09838584 0.88892883 0.0004008437 -0.18458773 -0.024751581 -0.47676048 0.12337233 0.10249577 0.2554126
adenosine 0.13000952 0.071880296 -0.41535914 -0.37790877 -0.17241232 0.09922862 0.011291666 0.72595537 -0.25323766 -0.741494 -0.64397234 0.020522837 0.9046552 -0.039846875 -0.122327834 -0.052205108 -0.47127834 0.053012956 0.12889344 0.2746228
TRADD 0.11908373 0.079438716 -0.45982555 -0.43960994 -0.20146339 0.08282007 -0.00569916 0.6606951 -0.21007615 -0.7676511 -0.60394746 0.09302419 0.9512791 -0.062317736 -0.13741578 -0.019026322 -0.48489374 0.10553017 0.07194109 0.19043173
4 0.109600626 0.055980675 -0.39330593 -0.4140184 -0.2050745 0.08158641 0.01965608 0.6476697 -0.285272 -0.731491 -0.6991611 0.05406497 0.9131534 -0.060710486 -0.13974352 -0.028611213 -0.4156184 0.07473835 0.08462956 0.23955296
induced 0.09566579 0.110914424 -0.46173042 -0.40355003 -0.1945134 0.12090625 0.052171215 0.70259386 -0.23523 -0.7674838 -0.62440884 0.090336226 0.9002156 -0.018423282 -0.14894179 -0.024748381 -0.43303683 0.0719453 0.06772088 0.25383607
addition 0.091836035 0.10638208 -0.4098006 -0.29363245 -0.16092984 0.14143556 0.016236207 0.70248306 -0.19423969 -0.6929785 -0.5492592 0.086777195 0.7822282 0.007809238 -0.1462935 -0.027130488 -0.3972816 0.06323022 0.15395354 0.2756868
kDa 0.095852815 0.06272015 -0.42877614 -0.54854494 -0.17685398 0.043131553 -0.06354429 0.5789374 -0.33731157 -0.7140997 -0.7868359 0.11250734 1.0211875 -0.083420634 -0.09347077 -0.03120483 -0.46572185 0.07233701 0.08852795 0.18149373
To 0.057983294 0.08565233 -0.3434229 -0.321249 -0.16763417 0.11809581 0.013363141 0.6329053 -0.20141575 -0.6249027 -0.5277266 0.043514095 0.75229806 0.011126428 -0.11522611 -0.03969041 -0.3220693 0.04249341 0.12533851 0.25535455
light 0.08569774 0.030065067 -0.34561574 -0.73927927 -0.12993053 -0.15001754 -0.12739821 0.29221886 -0.36766785 -0.7531193 -0.99933535 0.31430563 1.2405152 -0.26586998 -0.112132564 0.040702935 -0.23448022 -0.1553699 0.015779417 0.13135712
nuclear 0.10399213 0.092050284 -0.427004 -0.38537738 -0.2340716 0.12249259 0.077929065 0.6903099 -0.27690786 -0.77956027 -0.6097422 0.04584564 0.899406 -0.011142452 -0.14012356 -0.05582335 -0.43503618 0.069670595 0.11492317 0.2343876
association 0.124656186 0.058657523 -0.4710642 -0.41851884 -0.23965739 0.18029538 0.055907946 0.66958773 -0.2131378 -0.7549782 -0.64232296 0.09613923 0.9400622 -0.05511671 -0.14066471 -0.0106503 -0.4938871 0.1560036 0.041886915 0.17300887
cerevisiae 0.095252946 0.07821824 -0.37358728 -0.3423408 -0.23060831 0.13312869 0.017881757 0.7050193 -0.2638338 -0.735039 -0.5585183 0.06910635 0.8864152 0.02014451 -0.17519008 -0.07122373 -0.4228063 0.020023765 0.10562477 0.28140876
analysis 0.1353493 0.10162861 -0.42163864 -0.36043128 -0.20970218 0.15236634 0.049671903 0.7070691 -0.23408201 -0.74500716 -0.6144547 0.0798321 0.8615514 0.018459616 -0.17465284 -0.044396147 -0.44042522 0.091405414 0.07746715 0.28344843
II 0.0884642 0.094408125 -0.43659237 -0.42990896 -0.20970772 0.08141638 0.028644502 0.5910299 -0.28560537 -0.7380423 -0.7249983 0.10064563 0.9436095 -0.03376484 -0.14107041 -0.029881893 -0.36160827 0.017252445 0.09279914 0.2456374
This 0.09478212 0.11523226 -0.3937732 -0.34233612 -0.21584213 0.09665435 0.06609468 0.7119726 -0.24916588 -0.73534393 -0.5747287 0.03302238 0.8198655 0.013598451 -0.14062393 -0.06542089 -0.41041017 0.06530978 0.12691668 0.3063406
gamma-catenin 0.08686845 0.0576381 -0.5680258 -0.5897313 -0.25682425 0.23521328 0.017197518 0.511748 -0.15313472 -0.73926884 -0.6274406 0.22494926 1.0848188 -0.1888314 -0.15423708 0.015482906 -0.6963298 0.3882232 -0.21336086 -0.035587195
rate 0.11340088 0.09677519 -0.42322043 -0.389471 -0.18906692 0.09562177 0.046087585 0.67319906 -0.23706947 -0.73236847 -0.67268425 0.0609732 0.9122554 -0.004769034 -0.14740989 -0.018444521 -0.3621423 0.062842295 0.10975599 0.24603918
regulate 0.10833532 0.08183545 -0.41352084 -0.34819886 -0.17917284 0.14937897 0.095012866 0.73093295 -0.25793576 -0.78532887 -0.64412606 0.049155354 0.8623748 0.0070369695 -0.1637592 -0.041653175 -0.42429268 0.05053514 0.08734083 0.27486676
monomers 0.06435154 0.08144248 -0.4049748 -0.4111784 -0.21453662 0.10652115 0.043266077 0.6179858 -0.22813119 -0.76597226 -0.6675828 0.08452261 0.90736496 -0.011516916 -0.20456804 0.010821394 -0.40539077 0.06428896 0.09039164 0.18751927
residues 0.09932742 0.0702291 -0.4089753 -0.4051357 -0.21089403 0.11104686 0.057387117 0.7073463 -0.27215713 -0.76824737 -0.68139404 0.08663635 0.9175709 -0.0038434411 -0.1256046 -0.026351005 -0.37336385 0.012626866 0.120946415 0.27104473
localization 0.090224355 0.08137628 -0.45861048 -0.4118208 -0.20727545 0.13096888 0.044815686 0.64329994 -0.22469197 -0.727527 -0.62453127 0.09364293 0.8817118 -0.019278385 -0.15416786 0.009992285 -0.45823324 0.13226722 0.06681881 0.20001087
normal 0.09434298 0.071045466 -0.48699003 -0.3980388 -0.22162737 0.1545294 0.042094726 0.6366528 -0.17487493 -0.71501297 -0.5995698 0.12509958 0.9315709 -0.024109578 -0.1424168 -0.02931546 -0.4708928 0.16753806 0.028255558 0.17537723
phosphorylation 0.08086849 0.08755188 -0.4827785 -0.41499522 -0.19804229 0.17626731 0.01851209 0.65861636 -0.23379812 -0.7765434 -0.61904824 0.07973745 0.92573345 -0.015255045 -0.13352914 -0.020520315 -0.45411718 0.112517774 0.034972057 0.18085717
MSH3 0.09378753 0.11498204 -0.47738957 -0.36843044 -0.20488189 0.13838647 0.022315348 0.7373307 -0.23841093 -0.7549818 -0.6372958 0.102847844 0.92055404 -0.057033457 -0.19144315 -0.077898756 -0.492579 0.10014789 0.07380217 0.25629616
focal 0.1207346 0.0859027 -0.46820152 -0.4241562 -0.18127744 0.11571757 0.040747255 0.6539676 -0.2664282 -0.72445923 -0.6264403 0.0752471 0.91123766 -0.021509936 -0.13297404 -0.04382862 -0.46471742 0.052272193 0.07006378 0.24344893
essential 0.085265055 0.066730924 -0.42535543 -0.3479521 -0.21769238 0.15802658 0.051199026 0.7167218 -0.2613883 -0.7712329 -0.61893266 0.103918925 0.91375136 0.02903164 -0.20192672 -0.06185155 -0.40780878 0.023214802 0.12558964 0.2704866
demonstrated 0.09037038 0.088998854 -0.45087817 -0.34596062 -0.21357381 0.1594005 0.028794942 0.7621998 -0.24158229 -0.7443317 -0.6067413 0.08059773 0.88851047 0.014605202 -0.15096122 -0.054242603 -0.44486213 0.08094879 0.1259145 0.28594083
specific 0.103489965 0.07811236 -0.4252503 -0.3736985 -0.21323834 0.1410874 0.06681457 0.67481846 -0.23540325 -0.7572587 -0.61560863 0.0620189 0.8748421 -0.017724225 -0.19176067 -0.055612244 -0.39127913 0.060916577 0.12783684 0.2875706
changes 0.08293579 0.0944664 -0.41308248 -0.45777035 -0.18633367 0.10454838 0.0508141 0.58290803 -0.22038841 -0.7505351 -0.64991814 0.13254483 0.907882 -0.058198135 -0.15296529 -0.005036649 -0.4169484 0.05056037 0.058363266 0.22655235
pathway 0.09901308 0.1069662 -0.43813276 -0.36464068 -0.21777682 0.117304124 0.01786985 0.7030935 -0.26111537 -0.7162755 -0.62219316 0.058838677 0.88940686 0.020441085 -0.1847865 -0.05102165 -0.40499115 0.06332998 0.16353795 0.2791897
major 0.06870344 0.11266784 -0.40538937 -0.39755023 -0.19913656 0.13119434 0.02367854 0.6119214 -0.24710554 -0.71505225 -0.59495753 0.06392864 0.8778853 -0.0019233001 -0.19042899 -0.0062205736 -0.41569728 0.04032451 0.073724255 0.26067764
did 0.12892552 0.113596395 -0.50370246 -0.4299543 -0.23211661 0.10665293 0.021796405 0.6903422 -0.24999982 -0.7860252 -0.6568661 0.14256006 0.9668269 -0.07401575 -0.1323437 -0.02061868 -0.48967868 0.09206039 0.027684594 0.18510777
most 0.11359279 0.10218422 -0.43828723 -0.40694368 -0.17915547 0.09105588 0.048833117 0.63711226 -0.23768118 -0.74916023 -0.6443907 0.08462818 0.8768157 -0.044024307 -0.14086196 -0.05152914 -0.42736092 0.032724902 0.10906683 0.22370249
Saccharomyces 0.09521768 0.11960118 -0.37956178 -0.37660274 -0.2152799 0.14489695 0.020573515 0.66335696 -0.2305735 -0.68991387 -0.57929313 0.058878303 0.8014907 0.030332422 -0.15130176 -0.05995946 -0.38795757 0.06809299 0.10001542 0.282984
system 0.117723726 0.12787598 -0.3836361 -0.31958097 -0.19416057 0.13479738 0.06400633 0.694799 -0.2164065 -0.72115475 -0.55747783 0.0454827 0.8693715 -0.014469031 -0.19484513 -0.06277829 -0.3723139 0.043874815 0.11303523 0.28684473
recombinant 0.10713179 0.09091556 -0.41474313 -0.37273648 -0.20732261 0.14151411 0.049217124 0.7135295 -0.21248224 -0.7054387 -0.6158118 0.07370798 0.8700938 -0.018946934 -0.17239334 -0.05409199 -0.40460506 0.05665819 0.091410026 0.2864651
used 0.08178939 0.09058963 -0.4151274 -0.3628139 -0.19575222 0.14461847 0.06378536 0.738387 -0.22081043 -0.7317193 -0.61362046 0.095099665 0.90036505 0.0036297052 -0.17678227 -0.071704805 -0.45925045 0.0729469 0.1401416 0.24089028
through 0.107581705 0.072535366 -0.44135326 -0.39803296 -0.2037923 0.102293774 0.08802997 0.67877567 -0.2407862 -0.7647371 -0.6512356 0.0632711 0.8973924 -0.02394455 -0.1794089 -0.036096673 -0.4490039 0.05306898 0.112393826 0.23644142
well 0.10456638 0.10832515 -0.44544667 -0.40796235 -0.22029936 0.18279475 0.05741156 0.71415955 -0.20261654 -0.72702044 -0.63248605 0.08857571 0.9585912 -0.02632708 -0.16989343 -0.043102752 -0.5148614 0.14137766 0.08838009 0.23751846
FADD 0.12905927 0.08222983 -0.4636857 -0.4286662 -0.18991499 0.0840665 0.009608853 0.62485015 -0.21884736 -0.7389834 -0.6562685 0.11749216 0.9370088 -0.047819976 -0.16253752 -0.035118405 -0.4967254 0.13292052 0.03875789 0.21127868
revealed 0.099173635 0.11835053 -0.41687685 -0.4015638 -0.21535458 0.14967318 0.03248146 0.6914106 -0.24055985 -0.7492787 -0.620413 0.092986345 0.88038266 -0.008174388 -0.1458911 -0.06001914 -0.4237105 0.10297868 0.09559832 0.25481722
concentration 0.09723644 0.057888277 -0.4015683 -0.38185972 -0.20083568 0.09235183 0.02263932 0.634914 -0.21917975 -0.68272763 -0.607523 0.04787739 0.8393354 0.014535636 -0.16393986 -0.013108216 -0.35386395 0.052288637 0.110896796 0.24127406
present 0.10805253 0.0874613 -0.4177314 -0.39277288 -0.22358355 0.15311489 0.052924115 0.70278543 -0.238781 -0.73704684 -0.5852806 0.09976484 0.89467937 0.00342926 -0.18541764 -0.04677991 -0.4141214 0.052858833 0.09745406 0.25963917
MSH6 0.1363747 0.10355657 -0.43393284 -0.36742982 -0.22059384 0.17851512 -0.0023947936 0.6789215 -0.24589394 -0.7646396 -0.6378368 0.0702865 0.89903 -0.04088922 -0.17017348 -0.030753206 -0.44797626 0.09030343 0.09259893 0.24626209
replication 0.10043302 0.09369349 -0.42226392 -0.3720176 -0.2081823 0.13507658 0.014338342 0.68495184 -0.22937542 -0.7365618 -0.58044684 0.05209511 0.844352 -0.0005456795 -0.16275887 -0.06151283 -0.41448864 0.055958025 0.10047811 0.28651097
respectively 0.10438592 0.07601255 -0.43171638 -0.43474278 -0.16992922 0.07625893 0.042427838 0.62018883 -0.24936809 -0.69430834 -0.6595184 0.078154154 0.9024942 -0.03825218 -0.14724246 -0.047991455 -0.3901166 0.049648643 0.06593986 0.21544899
RAD54 0.11098677 0.12090348 -0.41368544 -0.37120894 -0.24546236 0.110818855 0.024742471 0.6905182 -0.2503495 -0.7640405 -0.6068445 0.11243622 0.92466843 -0.059886593 -0.16404419 -0.08729552 -0.46895173 0.03986789 0.06497859 0.23573805
determined 0.112899624 0.07505877 -0.44718233 -0.42217577 -0.19616553 0.10239696 0.022287698 0.6650549 -0.2710295 -0.7362312 -0.65219647 0.093198225 0.9244662 -0.037823085 -0.16149284 -0.05714523 -0.44811743 0.06256965 0.08616129 0.25490645
However 0.09640611 0.060523473 -0.38282725 -0.39246586 -0.18047933 0.09606609 0.04411107 0.5911579 -0.19827944 -0.6555403 -0.5560188 0.09166719 0.8250428 -0.030932717 -0.15801935 -0.051278614 -0.38607392 0.06364349 0.050012663 0.1940855
signaling 0.09539195 0.09403371 -0.41254646 -0.31729016 -0.20989044 0.1494012 0.022653574 0.7209598 -0.26102224 -0.74839157 -0.5650876 0.060757395 0.82391024 0.011577708 -0.16096726 -0.06253508 -0.37840465 0.03336074 0.1469089 0.2786326
alpha 0.086490005 0.051039442 -0.40932193 -0.5005887 -0.16602933 -0.0034494782 -0.035939876 0.5420421 -0.32384288 -0.73718 -0.7517682 0.17555717 0.99077797 -0.12094421 -0.1451052 0.0004060805 -0.34526613 -0.028781796 0.0843106 0.17572963
structures 0.08888731 0.112573996 -0.45875406 -0.3686217 -0.21967752 0.14072049 0.03781041 0.7504063 -0.22734855 -0.788042 -0.61612195 0.06518106 0.9256719 0.002324994 -0.16755706 -0.06432729 -0.43239483 0.066125154 0.12594564 0.25981575
transcription 0.07671316 0.06179511 -0.39683673 -0.3498942 -0.18315655 0.1446328 0.056710545 0.6577284 -0.23410292 -0.7350222 -0.6093743 0.07970767 0.84834546 -0.004317487 -0.14294793 -0.020520056 -0.42850503 0.07072383 0.079343595 0.21412335
CBP 0.06844284 0.061536796 -0.4349647 -0.42735064 -0.201698 0.16307826 0.058945257 0.67954636 -0.2685313 -0.7100937 -0.60886365 0.10092472 0.863309 -0.01730279 -0.17675191 -0.019611996 -0.45077074 0.11807887 0.09410576 0.21776673
studies 0.108217694 0.13479638 -0.43000087 -0.34965494 -0.18491606 0.15430266 0.04584063 0.74143064 -0.2178054 -0.7493231 -0.58120275 0.03492946 0.8555966 0.0425694 -0.1711602 -0.05370492 -0.38938615 0.051829506 0.15678233 0.33531916
either 0.073585 0.08298733 -0.44834352 -0.40401965 -0.22541857 0.13935578 0.023480674 0.6605466 -0.25513667 -0.7520136 -0.6272734 0.106045276 0.9107311 -0.059526358 -0.1501259 -0.016383048 -0.4736159 0.09334012 0.08474313 0.22895415
tropomyosin 0.088721894 0.057209413 -0.38738167 -0.51219064 -0.1812872 0.0034197122 -0.013908389 0.49474964 -0.2751184 -0.7246905 -0.7700357 0.15787767 0.98347104 -0.101015195 -0.15617868 0.030179938 -0.32768413 0.016105639 0.068937756 0.16183569
recombination 0.10821506 0.08409133 -0.425433 -0.34744498 -0.20638856 0.14159234 0.03669461 0.7028721 -0.26785624 -0.73458755 -0.5896979 0.03910835 0.86739296 -0.04100031 -0.16439122 -0.07826886 -0.41751704 0.0610113 0.11215903 0.2771789
after 0.11357142 0.0956298 -0.44441453 -0.43704945 -0.22040753 0.11668399 0.045126084 0.7039319 -0.27036 -0.7511564 -0.65710074 0.115696 0.9363027 -0.028183544 -0.12706727 -0.06731588 -0.4053957 0.031536967 0.10666132 0.26192906
simplex 0.08901752 0.09117763 -0.35650203 -0.35306668 -0.22795577 0.07837859 0.0084639955 0.6395166 -0.26945224 -0.7105794 -0.59996295 0.00013825702 0.85571426 -0.023482988 -0.07383479 -0.1275809 -0.32621753 0.011562264 0.14876229 0.2713985
regions 0.09498834 0.10002685 -0.4104709 -0.39138976 -0.20065503 0.11799451 0.053527176 0.7186567 -0.24174015 -0.77368194 -0.6245435 0.092978165 0.8943746 0.0027067654 -0.16625364 -0.046237234 -0.3965813 0.04327211 0.1104609 0.25857803
determine 0.06732014 0.09447086 -0.38312393 -0.39708954 -0.19384916 0.10705099 0.027225267 0.6582845 -0.22435647 -0.72527003 -0.59366274 0.09775725 0.8522098 -0.04228056 -0.14390595 -0.033233754 -0.4139629 0.074701585 0.09069071 0.2222207
J. 0.08679326 0.08762816 -0.4486558 -0.46708152 -0.16505496 0.10464565 -0.033318553 0.5537862 -0.2405384 -0.70171934 -0.64743525 0.08545349 0.93457156 -0.066969685 -0.14645247 -0.017522618 -0.4475551 0.09297855 0.07970857 0.16499199
' 0.096725814 0.060072225 -0.40379614 -0.37296763 -0.2053069 0.07721536 -0.0004922153 0.63270783 -0.24570893 -0.68463653 -0.63326293 0.04804435 0.87133354 -0.0022375474 -0.11880795 -0.026470661 -0.39384195 0.05703565 0.12149382 0.2471308
acid 0.096876845 0.08186556 -0.41382056 -0.3623839 -0.17538032 0.097361766 0.045401115 0.72540754 -0.27250686 -0.7282731 -0.60095 0.056626853 0.8736201 -0.0071801306 -0.14090122 -0.023846496 -0.39206862 0.06532716 0.14363624 0.28532928
more 0.10268401 0.058416963 -0.46032372 -0.36283967 -0.21587628 0.15450473 0.0476345 0.6791375 -0.24626075 -0.7456665 -0.6401912 0.0672372 0.9152959 -0.01741353 -0.16279872 -0.018001646 -0.39527422 0.05932448 0.12087521 0.23632424
homologous 0.117120735 0.10049666 -0.41982958 -0.37425533 -0.21393956 0.1786802 0.047568817 0.71037775 -0.24426237 -0.76636994 -0.563439 0.036250986 0.8997879 -0.010422896 -0.17563407 -0.039512113 -0.48330876 0.06870578 0.10352811 0.2499481
four 0.079346806 0.11865909 -0.4155371 -0.38077322 -0.21573064 0.14848685 0.03405844 0.72265786 -0.27174893 -0.753319 -0.62553084 0.047155123 0.8883109 0.0030696385 -0.18223208 -0.08706977 -0.42817602 0.08295257 0.104884565 0.27764812
reduced 0.09975137 0.07560129 -0.4133196 -0.36692363 -0.16582163 0.12382157 0.051575296 0.6495031 -0.24250567 -0.71233505 -0.5882396 0.109479554 0.86166626 -0.015230969 -0.1378178 -0.035749763 -0.4181049 0.078813486 0.08182151 0.23130438
distribution 0.116526514 0.08036362 -0.44890535 -0.42137578 -0.18058199 0.10356086 0.061277743 0.6465894 -0.24383925 -0.685528 -0.62088287 0.11899122 0.87898284 -0.015655829 -0.19098066 0.0014186192 -0.41534117 0.07704793 0.06805157 0.18933924
staining 0.091728196 0.072432324 -0.40503913 -0.40486205 -0.15714237 0.083411165 -0.0031994581 0.6074702 -0.21318574 -0.6831873 -0.60150254 0.104081 0.89238185 -0.034593545 -0.13042606 -0.05024637 -0.3806129 0.08636594 0.07714214 0.18561243
ends 0.07917947 0.064069845 -0.41572398 -0.368446 -0.20810346 0.1375803 0.03667567 0.66479367 -0.20441087 -0.70851994 -0.58521974 0.05395764 0.83790106 -0.00092291133 -0.13926552 -0.050225344 -0.42090544 0.048495978 0.118584655 0.27227286
related 0.12993883 0.072726145 -0.44523722 -0.38631824 -0.18416269 0.15688156 0.05487796 0.65880096 -0.22486243 -0.7433361 -0.6403482 0.122940026 0.9146831 -0.042153273 -0.16438812 -0.025512535 -0.47908574 0.086958155 0.08661886 0.24229766
important 0.10190388 0.08939542 -0.46703452 -0.34604135 -0.24059081 0.15160666 0.044740867 0.72081774 -0.22730766 -0.7690669 -0.64276093 0.10446849 0.86695343 0.014598722 -0.17131186 -0.038611367 -0.4208012 0.049474694 0.11748331 0.2474167
indicate 0.11885161 0.10603446 -0.35757473 -0.33215174 -0.20037559 0.11358795 0.05348798 0.6669142 -0.23420843 -0.69951814 -0.589226 0.06977768 0.8508282 -0.026494917 -0.16706519 -0.07684252 -0.3966525 0.057710383 0.11136938 0.23892258
sequences 0.11010523 0.09932753 -0.41303983 -0.4372836 -0.18300737 0.10228239 -0.005574865 0.61753035 -0.26167864 -0.66774964 -0.63510525 0.08933508 0.89076555 -0.018841842 -0.118147634 -0.046554204 -0.41597584 0.040823676 0.10805592 0.25226697
C 0.10394523 0.06353796 -0.4060896 -0.38109615 -0.16085082 0.10238682 0.02786763 0.6798327 -0.25207344 -0.7122463 -0.6576913 0.05759914 0.8820405 -0.02682153 -0.10597916 -0.047051985 -0.39530036 0.039842904 0.12802294 0.25789663
including 0.09774972 0.07400028 -0.48169214 -0.45855954 -0.23561752 0.14261815 0.0516939 0.6448091 -0.22120233 -0.74128205 -0.6569079 0.12040666 0.9509304 -0.07113427 -0.15418363 -0.014686157 -0.5041397 0.13064401 0.020787295 0.20431732
products 0.12313019 0.0945916 -0.41915613 -0.4171511 -0.22760426 0.12613228 0.011766464 0.66176796 -0.26682028 -0.75163525 -0.61338854 0.09987381 0.9043811 -0.025884235 -0.20260054 -0.036156368 -0.43994573 0.09985731 0.067515016 0.2507366
endothelial 0.10456108 0.051286396 -0.44050846 -0.3713814 -0.16885225 0.120387994 0.02200063 0.6597502 -0.2700076 -0.70957565 -0.5960584 0.08339984 0.8914966 -0.0040955115 -0.11187416 -0.052976727 -0.40977386 0.07416327 0.1264783 0.23071882
L 0.08003215 0.091926455 -0.43920982 -0.47843426 -0.18336132 0.07346125 0.022386122 0.614083 -0.31151444 -0.6683333 -0.6876396 0.09397985 0.9319653 -0.072939724 -0.11530691 -0.059361476 -0.43665618 0.13102561 0.10229112 0.21526855
helicase-primase 0.12491434 0.08535846 -0.41569555 -0.37811458 -0.22493614 0.10582864 -0.0061788023 0.6482673 -0.2849938 -0.77527976 -0.6209922 0.03490999 0.9045554 -0.015952934 -0.12883076 -0.09123144 -0.39788845 0.080915034 0.12919468 0.25743
D1 0.11959719 0.09608678 -0.4255778 -0.39134508 -0.18599008 0.10457878 0.032452583 0.63203 -0.26186827 -0.7209191 -0.6071893 0.017911341 0.91859573 -0.039579023 -0.06811508 -0.0072299726 -0.42706686 0.087312885 0.077991895 0.22306095
observed 0.08304014 0.072761714 -0.40102634 -0.3631843 -0.21502694 0.13029192 0.0152678825 0.62002987 -0.20686142 -0.71336454 -0.5948218 0.09182667 0.8311291 -0.042007744 -0.15874274 -0.009165999 -0.4363396 0.0895741 0.076725096 0.22331314
5 0.106818624 0.06884853 -0.42158234 -0.36916873 -0.18826938 0.116704 0.0021729835 0.66974336 -0.2838043 -0.70804185 -0.6108424 0.042775188 0.86961365 -0.0343279 -0.13009383 -0.07281147 -0.40806106 0.063712485 0.1369106 0.2737228
bundles 0.09579048 0.090933956 -0.38922206 -0.37929407 -0.17835943 0.121325985 0.05546715 0.6429325 -0.23878048 -0.68357587 -0.5836297 0.066380635 0.84359926 -0.02295971 -0.1622933 -0.0046991357 -0.33643648 0.034339923 0.11106223 0.27244386
control 0.10429822 0.06955303 -0.40326098 -0.33603922 -0.1893594 0.12481842 0.043640714 0.66653633 -0.23502438 -0.7069292 -0.58686805 0.060286567 0.83324 0.0102722235 -0.13505912 -0.06603239 -0.38709727 0.06456907 0.12456619 0.24213652
motility 0.0837888 0.09007189 -0.3783547 -0.3453827 -0.17140584 0.113540225 0.06909441 0.6653708 -0.22714655 -0.7171832 -0.57708067 0.081161804 0.7895541 0.036280386 -0.15309641 -0.039526224 -0.34404802 0.026032168 0.100449905 0.26514632
monomeric 0.07518398 0.09552547 -0.41048205 -0.36551335 -0.21293975 0.14288008 0.018981712 0.64689344 -0.22066271 -0.68590677 -0.6103208 0.07403127 0.8197174 0.019707264 -0.15014613 -0.039816935 -0.35526374 0.03828775 0.14131095 0.27622944
compared 0.08048925 0.09683499 -0.37663373 -0.37830293 -0.19503635 0.09924912 0.039286852 0.6556248 -0.23836553 -0.68704873 -0.5928761 0.068595454 0.8438501 -0.032131374 -0.1317404 -0.010292992 -0.3693931 0.07379191 0.117187314 0.24794616
bound 0.0768825 0.07565186 -0.39390206 -0.31265002 -0.16557 0.13842328 0.061707843 0.66659373 -0.2048821 -0.71179897 -0.5776416 0.07332925 0.8314005 -0.01039877 -0.1538343 -0.024509674 -0.4062903 0.05128328 0.097293116 0.25707954
cytoplasm 0.07955885 0.08177586 -0.40894276 -0.37401843 -0.18492116 0.1381527 0.07243725 0.6104053 -0.2123015 -0.7071317 -0.5856541 0.07931157 0.8544556 -0.007758951 -0.17337666 -0.026014104 -0.3855571 0.083748914 0.05930597 0.21512514
inhibited 0.106148146 0.10781835 -0.42800713 -0.35868528 -0.16566238 0.10608604 0.025701735 0.7187205 -0.25081742 -0.7312524 -0.6225607 0.042916086 0.8733813 0.013569993 -0.1447599 -0.058151033 -0.4173398 0.078195766 0.1464874 0.29360884
fluorescence 0.11936083 0.07057386 -0.39336646 -0.3351225 -0.18575041 0.13307525 0.036219906 0.645922 -0.24460934 -0.7055793 -0.6173713 0.08043256 0.85982573 0.017776717 -0.13935213 -0.016861316 -0.39996794 0.076193005 0.10172424 0.2656153
stress 0.08263312 0.07047603 -0.43657205 -0.36202544 -0.20566621 0.11819038 0.020345476 0.68626803 -0.21716103 -0.7397654 -0.6198925 0.08183176 0.8847403 -0.013397414 -0.15196702 -0.047430955 -0.41066542 0.055059563 0.1068399 0.28150508
M 0.113476545 0.047786526 -0.42818096 -0.536405 -0.1564271 0.07036336 0.013488775 0.5468344 -0.30267036 -0.64354295 -0.7174807 0.05399128 0.9293718 -0.08378698 -0.084227964 -0.015230932 -0.45230052 0.13958573 0.07774829 0.15907547
previously 0.06356769 0.096256875 -0.39703616 -0.36717135 -0.22420767 0.14836632 0.04813205 0.7372332 -0.23334888 -0.7503808 -0.5992493 0.06747136 0.86469084 0.01756307 -0.1331791 -0.07098035 -0.41953596 0.028314505 0.1346963 0.26103622
dynamics 0.082825914 0.056807794 -0.38939023 -0.372083 -0.17432642 0.09326997 0.051029872 0.6036117 -0.23532954 -0.6484396 -0.6085615 0.098260865 0.8061636 -0.0032234504 -0.154322 -0.01636819 -0.332235 0.012283239 0.09024169 0.24524523
model 0.081010655 0.08432976 -0.38510033 -0.35097674 -0.20214972 0.13869868 0.048932794 0.6885133 -0.21672638 -0.7136094 -0.5775196 0.06551524 0.8379223 0.027353302 -0.16040951 -0.072878376 -0.3508472 0.011979558 0.12651253 0.25274515
viral 0.120917425 0.07518521 -0.3874528 -0.37264347 -0.1807822 0.14866951 0.012286708 0.6131227 -0.24532077 -0.6845322 -0.5586356 0.06579896 0.8349789 -0.008633112 -0.1382215 -0.046790704 -0.39814416 0.06563146 0.11543905 0.22865379
no 0.10201755 0.08063228 -0.4356327 -0.3797092 -0.21078368 0.114332564 0.06826417 0.7107225 -0.24251205 -0.73639035 -0.59538794 0.06166902 0.8648127 -0.013960816 -0.16426025 -0.051598404 -0.39115864 0.04109695 0.1185757 0.2594095
p27 0.13936682 0.037884187 -0.43925688 -0.43839467 -0.14015153 0.06454081 0.06792473 0.6439113 -0.27900338 -0.77659696 -0.6801451 -0.0028333575 0.9675464 -0.017108139 -0.029681884 -0.02882179 -0.49793562 0.09075098 0.059781715 0.22219661
purified 0.087753 0.08423929 -0.38650298 -0.38774985 -0.16694812 0.119103365 -0.003237127 0.6119844 -0.22267604 -0.7173365 -0.6264728 0.08364267 0.8493225 0.0043639145 -0.14975616 -0.043627646 -0.35463974 0.03894697 0.08242571 0.23946889
alpha-smooth 0.058164734 0.009445902 -0.38583535 -0.6031606 -0.116367914 -0.062255535 -0.04249018 0.44441104 -0.30956936 -0.6648201 -0.814464 0.21635827 1.018902 -0.09992509 -0.13709222 0.023602905 -0.29569474 -0.05452301 0.051920652 0.1526224
molecular 0.08913933 0.09060246 -0.39728385 -0.36566892 -0.17376524 0.14840908 0.016996427 0.69018966 -0.26238757 -0.71657044 -0.59672993 0.0662781 0.90685564 0.00523147 -0.14512564 -0.02159875 -0.4092763 0.075463 0.08677423 0.25674772
increase 0.085583605 0.07937004 -0.4042362 -0.38277337 -0.22628678 0.11042753 0.03211699 0.7248688 -0.2767672 -0.7603168 -0.61106604 0.067970194 0.8867072 -0.023103856 -0.12923917 -0.057934344 -0.41624513 0.04881623 0.1020929 0.26725963
reorganization 0.08952503 0.098745815 -0.38279015 -0.37214065 -0.18447667 0.1058112 0.057804015 0.5838282 -0.23612024 -0.67688274 -0.589559 0.10919525 0.84753317 -0.024661131 -0.15826628 -0.010137788 -0.3937512 0.042987254 0.08136979 0.2081914
desmin 0.06894262 0.03305746 -0.38485897 -0.5712726 -0.14507315 -0.047448937 -0.053994346 0.36872023 -0.33797273 -0.68201137 -0.78089976 0.23273517 1.0336145 -0.15720399 -0.109043114 0.039976615 -0.3086203 -0.0122422865 -0.013993762 0.12533498
cardiac 0.06772164 0.07047903 -0.334387 -0.49863178 -0.13231128 -0.010850859 -0.024239147 0.4283619 -0.28768545 -0.71097434 -0.7455237 0.19785766 0.97613096 -0.100983866 -0.14947471 0.005335725 -0.30696875 -0.032319672 0.062666126 0.17806098
absence 0.081848934 0.09188703 -0.41259432 -0.36948052 -0.1894391 0.14416581 0.05332123 0.6008382 -0.2078329 -0.6992073 -0.5594876 0.057890765 0.8334248 0.0049125035 -0.16162714 -0.021372894 -0.39662772 0.07997762 0.052940037 0.24052297
plant 0.07397638 0.1063827 -0.399585 -0.344686 -0.20844448 0.11928068 0.04473775 0.6842033 -0.21849567 -0.69530135 -0.54548717 0.04341095 0.81184804 -0.00016268749 -0.13191709 -0.04241433 -0.35589975 0.020680778 0.12236375 0.2602256
ADF 0.077458546 0.07186058 -0.3940303 -0.41819942 -0.1750225 0.08007911 0.054328725 0.6407279 -0.25160375 -0.6968502 -0.6177074 0.073040046 0.8467712 -0.018929072 -0.16790578 -0.023310207 -0.42713654 0.09710148 0.08007748 0.20136613
relative 0.084263206 0.07976703 -0.37048608 -0.42106354 -0.18110698 0.06214663 0.037796173 0.6064048 -0.26224142 -0.6977268 -0.6380547 0.08802811 0.8419312 -0.053581055 -0.12650956 0.003112741 -0.3874332 0.02939587 0.07341892 0.23671573
N-terminal 0.083685346 0.09532297 -0.39290065 -0.39888665 -0.17478636 0.11256564 0.027778763 0.6388301 -0.2497115 -0.7158812 -0.6368089 0.10547538 0.88690996 -0.004247819 -0.16806951 -0.01863296 -0.440152 0.07547081 0.10040118 0.24385901
examined 0.06940587 0.074161656 -0.37788972 -0.33507237 -0.200043 0.1495812 0.046277914 0.6582636 -0.20536375 -0.6789335 -0.528023 0.09298208 0.816206 0.017946094 -0.118700504 -0.026584882 -0.39175773 0.08466151 0.08142986 0.23018588
receptors 0.07625371 0.06099548 -0.3962462 -0.35876578 -0.195999 0.13790287 0.035288963 0.6737166 -0.23774306 -0.6653604 -0.5676175 0.06969754 0.81223536 -0.031706467 -0.15424918 -0.06717832 -0.40791953 0.048136894 0.11273669 0.24602582
surface 0.09400173 0.06719885 -0.4209976 -0.36037716 -0.21956234 0.14249977 0.032752194 0.6383155 -0.21387741 -0.7240688 -0.5987393 0.101288736 0.88151973 -0.041693464 -0.12530695 -0.05322635 -0.42821488 0.094185404 0.08545142 0.21579272
large 0.064594515 0.09837549 -0.3670313 -0.4021094 -0.18215783 0.08033827 0.01658267 0.63610566 -0.2657107 -0.6697546 -0.61097205 0.033599757 0.8797109 0.0030945258 -0.09490567 -0.029196875 -0.39138982 0.049829204 0.13443092 0.21255212
encoding 0.084097795 0.057641387 -0.4075772 -0.44206178 -0.1559841 0.09342153 0.018777726 0.5681755 -0.28401622 -0.6847728 -0.67608976 0.10263234 0.903596 -0.029258857 -0.15660913 -0.037214242 -0.42843798 0.094200045 0.05346197 0.20451106
suggesting 0.08579171 0.11730686 -0.4365329 -0.42119867 -0.18882857 0.1612576 0.03791286 0.64096683 -0.23866974 -0.7540198 -0.6356131 0.12256114 0.91496205 -0.03962929 -0.1769541 -0.006485081 -0.43637133 0.10147847 0.06844906 0.2184964
concentrations 0.0910807 0.08312913 -0.36115047 -0.3427078 -0.19635849 0.11591158 0.060644582 0.63290006 -0.22170949 -0.67348737 -0.6090489 0.041104157 0.7906074 0.002239794 -0.13822292 -0.0056434073 -0.36506274 0.04715584 0.078792594 0.27377573
had 0.08806285 0.11406293 -0.38640514 -0.3439956 -0.22586977 0.14633225 0.0056038303 0.73373395 -0.29263437 -0.74288833 -0.60553753 0.04513578 0.85027045 -0.006503377 -0.1521731 -0.05878947 -0.41247115 0.032261733 0.15974756 0.3153946
directly 0.10320106 0.09161622 -0.44602433 -0.37939608 -0.19172457 0.1415137 0.07364935 0.70876664 -0.22120243 -0.7307983 -0.59029156 0.068065204 0.8645674 0.013311816 -0.14041944 -0.03280002 -0.4357229 0.065180704 0.091649115 0.24656942
encodes 0.079483725 0.058360398 -0.40214986 -0.40303573 -0.17795347 0.09464652 0.007914387 0.6511318 -0.31567198 -0.7175042 -0.69430536 0.03581562 0.9235008 0.010385023 -0.09664454 -0.059980836 -0.40380594 0.053691383 0.13209839 0.2369847
mammalian 0.10823667 0.11312076 -0.43588665 -0.34424016 -0.19351603 0.1397555 0.028040728 0.66231203 -0.21081473 -0.6997019 -0.58571666 0.090340205 0.84287596 -0.00038740516 -0.17815672 -0.025769904 -0.42583886 0.029826043 0.07611796 0.26011622
brain 0.10720706 0.09510769 -0.40117103 -0.34020045 -0.17916375 0.12503658 0.021011213 0.6392124 -0.2462662 -0.6926041 -0.5712253 0.055608217 0.79752797 0.030589476 -0.1506198 -0.052817777 -0.33938628 0.04272336 0.093349114 0.23159228
inhibition 0.080065526 0.0781766 -0.4092477 -0.338804 -0.18989228 0.12128441 0.04172516 0.65905917 -0.24893805 -0.7019198 -0.6018376 0.07785024 0.83429164 -0.013775638 -0.13429838 -0.021106973 -0.39250997 0.06802202 0.10737106 0.23449731
Kd 0.109971166 0.08952878 -0.3719121 -0.3748448 -0.17400053 0.13154098 0.029878436 0.6309489 -0.24470365 -0.64832735 -0.59303147 0.072310425 0.8136043 0.002235857 -0.119739585 -0.029597769 -0.36754757 0.08093752 0.080853075 0.22630303
link 0.09348329 0.08272543 -0.40201986 -0.36485666 -0.21241118 0.12986766 0.09831424 0.6811309 -0.22093885 -0.76013416 -0.6158023 0.052986015 0.8883643 0.0002445819 -0.16117461 -0.01933986 -0.41459414 0.031616796 0.12995128 0.2590822
although 0.064672776 0.06426209 -0.47106418 -0.39660707 -0.18822902 0.13559511 0.029832548 0.64547807 -0.21879396 -0.7254816 -0.5959877 0.10819726 0.9017453 -0.027186556 -0.13903204 -0.033155967 -0.44720912 0.09094993 0.040274967 0.24163407
pathways 0.12680793 0.12656546 -0.42683014 -0.35074976 -0.19449167 0.13455802 0.028209176 0.69371283 -0.22879808 -0.7211811 -0.5841856 0.0402748 0.8595179 -0.0047932705 -0.1394134 -0.06270949 -0.42866758 0.052038543 0.13223667 0.30249175
intracellular 0.09734252 0.0737186 -0.4595353 -0.40690127 -0.19772722 0.11059801 0.0634818 0.6736991 -0.24303822 -0.7631256 -0.6019152 0.09061633 0.8824452 -0.014697773 -0.1519769 -0.014839755 -0.41968328 0.08571153 0.08078193 0.25418112
mechanism 0.12032444 0.115393475 -0.37515196 -0.35516143 -0.17575347 0.14063379 0.06430074 0.68335855 -0.23838799 -0.6923287 -0.57443523 0.04878416 0.7966918 0.00453833 -0.15771756 -0.036737703 -0.37200814 0.057463232 0.094154164 0.27704668
nucleation 0.08834598 0.065679185 -0.38813713 -0.32876623 -0.15707563 0.08836796 0.02080607 0.6512294 -0.22118127 -0.65737563 -0.5846559 0.048747946 0.8014219 -0.024942562 -0.13336788 -0.011003821 -0.38470012 0.06408708 0.097720094 0.2480505
cytoplasmic 0.10663391 0.06948356 -0.43430823 -0.38178533 -0.22136359 0.12860137 0.0048996196 0.61894304 -0.23874292 -0.68601596 -0.6034668 0.08836348 0.8972313 -0.014046738 -0.11565033 -0.028121725 -0.4627192 0.15913415 0.062314566 0.19181341
10 0.058474407 0.0476605 -0.41021165 -0.39705017 -0.15933599 0.1193702 0.040151764 0.66168356 -0.25326237 -0.6591842 -0.63779134 0.04768968 0.872702 -0.017287571 -0.102691814 -0.06359942 -0.40878978 0.09044106 0.11538394 0.24488333
amino 0.10969772 0.11263019 -0.3646537 -0.37893572 -0.19108468 0.14135836 0.03630441 0.67719936 -0.23420352 -0.68962187 -0.59278375 0.06687315 0.83701175 0.020208793 -0.13076907 -0.05030166 -0.36261082 0.080951825 0.12302066 0.25364164
family 0.10806794 0.10163446 -0.41265237 -0.35592118 -0.20955163 0.09921464 0.061863348 0.6836691 -0.2328396 -0.71664476 -0.5986421 0.07494967 0.83196414 -0.0019308818 -0.159277 -0.008593908 -0.40316507 0.046266824 0.120231226 0.22505221
components 0.08054012 0.070057735 -0.4181759 -0.34935835 -0.17051817 0.14501852 0.02621361 0.6428122 -0.25403804 -0.6991846 -0.5710191 0.06693112 0.86343986 -0.009564182 -0.11564023 -0.03179352 -0.41804042 0.081194855 0.079380974 0.21593021
dependent 0.08522963 0.10224309 -0.4337562 -0.35522178 -0.21118188 0.11199708 0.05305196 0.66155934 -0.22611219 -0.75375426 -0.62437856 0.061616708 0.87505347 0.024152752 -0.15369211 -0.038447924 -0.40519407 0.038144656 0.1017975 0.26850384
highly 0.112631075 0.09413436 -0.37852672 -0.33897096 -0.17997433 0.10416472 0.053480744 0.7119629 -0.23259056 -0.70540214 -0.59326035 0.05746761 0.83950514 0.022100613 -0.14473009 -0.06384638 -0.367738 0.04553097 0.12190936 0.26823792
data 0.08415105 0.069563724 -0.3124782 -0.3056168 -0.17028779 0.13149105 0.012368543 0.6286867 -0.22937551 -0.6214077 -0.51291555 0.031056248 0.70942724 0.019269433 -0.13189267 -0.08827756 -0.34194434 0.035681985 0.11015867 0.26920444
platelet 0.06510227 0.082132585 -0.37731957 -0.37947944 -0.21173379 0.11857419 0.041330565 0.6940367 -0.23691961 -0.68065643 -0.5840598 0.06646086 0.86205506 0.008193669 -0.14446335 -0.053268787 -0.37398338 0.07046317 0.14932908 0.23860478
mutation 0.074466966 0.064561345 -0.3663367 -0.40417227 -0.19225776 0.08630066 0.005075 0.6218959 -0.23997173 -0.6973601 -0.6000022 0.06900414 0.85186774 -0.016921144 -0.15161702 -0.00400833 -0.38025117 0.059042446 0.1062563 0.24760076
under 0.101688415 0.09923776 -0.3943787 -0.33053192 -0.18134232 0.095130436 0.0124785695 0.66575444 -0.22075763 -0.6649226 -0.55818516 0.042590618 0.8180816 0.034891836 -0.14847602 -0.069945425 -0.3961299 0.04995898 0.14338736 0.28722516
suggests 0.07558729 0.12658668 -0.38803628 -0.30840874 -0.17833863 0.106830016 0.062438536 0.7189145 -0.22536312 -0.7228031 -0.58968407 0.06622006 0.82113194 0.043625377 -0.15944782 -0.075698815 -0.37288702 0.036765825 0.13891052 0.29333422
peptide 0.10255303 0.108267166 -0.39381433 -0.37909755 -0.22193131 0.14965804 0.054795414 0.7008594 -0.21457893 -0.7283562 -0.61933357 0.0422991 0.8331886 0.01767019 -0.13477235 -0.044164516 -0.40423477 0.04673332 0.092422955 0.27620265
cellular 0.0608025 0.06323497 -0.37972754 -0.35062808 -0.1642456 0.14000107 0.04112643 0.6453327 -0.23608825 -0.6721099 -0.58148885 0.04844005 0.7786624 0.025508733 -0.12497795 -0.04397234 -0.3648991 0.05055068 0.10800093 0.24495113
when 0.096580826 0.07643497 -0.42993215 -0.3788102 -0.2135532 0.10399969 0.010620415 0.6880152 -0.22526853 -0.7053595 -0.5730081 0.090240434 0.8214848 -0.013905986 -0.15908648 -0.07329444 -0.42665422 0.07036966 0.10268989 0.26773328
responsible 0.11295099 0.07695498 -0.40652245 -0.38291636 -0.19208059 0.14152631 0.04842123 0.6737249 -0.2444145 -0.73496586 -0.598994 0.08829965 0.85549587 0.0012457962 -0.13359436 -0.04153834 -0.39451504 0.024572786 0.08923663 0.26785663
fusion 0.067951635 0.048377953 -0.3788601 -0.42660952 -0.15122768 0.054175574 0.01644628 0.5628049 -0.2657894 -0.63062316 -0.6489342 0.10665756 0.8669528 -0.069937766 -0.1023185 -0.012190989 -0.3954769 0.10702402 0.09354428 0.15591122
molecule 0.092286736 0.049475197 -0.3768313 -0.3397843 -0.15469135 0.11810981 0.0315362 0.6083163 -0.20727341 -0.6614409 -0.550748 0.051379804 0.789799 0.0053230706 -0.1432293 -0.052315634 -0.36108282 0.056809116 0.094908535 0.2535808
total 0.101457395 0.054470237 -0.39230594 -0.37522998 -0.18896003 0.07509948 0.018951628 0.604739 -0.26687542 -0.6966953 -0.640827 0.10672974 0.8415379 -0.010467354 -0.12475729 -0.013628876 -0.36723778 0.059467766 0.057985667 0.19834916
pollen 0.09355331 0.09865155 -0.39262682 -0.3047036 -0.19234735 0.14186893 0.018817192 0.70538384 -0.2524863 -0.68856037 -0.57948047 0.040415928 0.778324 0.010583781 -0.13251589 -0.05225435 -0.3576664 0.03537342 0.14447731 0.27224094
contrast 0.09600012 0.058786605 -0.33074686 -0.27976552 -0.14942928 0.06453514 0.032029506 0.5461267 -0.18290478 -0.6069267 -0.47806847 0.07944596 0.7277521 -0.034883987 -0.135268 -0.015908444 -0.32594246 0.018241813 0.07805573 0.21838178
assay 0.07086998 0.09164933 -0.34654537 -0.31275672 -0.19318655 0.118498474 0.024270052 0.6010611 -0.19820534 -0.67088944 -0.50699496 0.025214562 0.77982783 0.008059462 -0.1358007 -0.041135207 -0.34692425 0.04879024 0.12390451 0.24048823
independent 0.11477556 0.097718775 -0.42250106 -0.35872853 -0.21875913 0.1435634 0.039242428 0.68964976 -0.24547388 -0.74272686 -0.5533085 0.04654987 0.8564022 0.01996707 -0.17782176 -0.051863022 -0.43454245 0.08605614 0.09504064 0.28235257
rabbit 0.08999377 0.084574826 -0.37989813 -0.3781708 -0.16499344 0.09289642 0.02136822 0.56521875 -0.26185435 -0.68891805 -0.62477225 0.07720509 0.83390224 -0.009490548 -0.15313442 -0.028177127 -0.32683995 0.013384111 0.09416096 0.2040466
treatment 0.07023875 0.07784935 -0.37600464 -0.32542673 -0.18673205 0.10057496 0.0130907 0.6221152 -0.22931734 -0.65888965 -0.51208276 0.07434053 0.78427386 -0.019519702 -0.097879305 -0.02686173 -0.38223568 0.037039988 0.118879706 0.2457951
each 0.11330584 0.11335731 -0.42803007 -0.36319724 -0.19279374 0.12755477 0.04552741 0.6989913 -0.24947685 -0.73542374 -0.59700304 0.065809906 0.8445323 0.0064698067 -0.13294263 -0.042259555 -0.41143024 0.064458616 0.11750073 0.27558652
those 0.114652365 0.084186874 -0.4242562 -0.3499748 -0.20402023 0.11574498 0.03627312 0.63806885 -0.21815552 -0.720587 -0.57941055 0.08768361 0.8610891 0.0017244322 -0.16476414 -0.064744495 -0.40277442 0.046637084 0.10951523 0.23219784
MHC 0.036980905 0.012612236 -0.32068172 -0.6180739 -0.069877245 -0.1171622 -0.06594606 0.2720047 -0.34462172 -0.61661005 -0.84159344 0.22825143 1.0135177 -0.17567489 -0.095499866 0.060536046 -0.21842463 -0.08597361 -0.022400081 0.1085752
regulated 0.0828077 0.094442174 -0.39805156 -0.39641637 -0.16728564 0.10445514 0.04901632 0.6581943 -0.22186011 -0.67995495 -0.5754868 0.071570694 0.81792206 0.004067486 -0.15072931 -0.043643035 -0.36936128 0.011018988 0.103406616 0.24956942
PIP2 0.06938281 0.049499746 -0.4047582 -0.35089675 -0.20922264 0.08998251 0.019305456 0.63929754 -0.2295309 -0.6879782 -0.58954954 0.078670256 0.8111489 -0.024884561 -0.15669483 -0.04379604 -0.39637938 0.059620664 0.11320277 0.23607606
contractile 0.099602 0.092730865 -0.37184206 -0.40913326 -0.14625898 0.076267645 0.010066991 0.5602208 -0.27704087 -0.65129316 -0.63469374 0.10236228 0.87971705 -0.063005835 -0.14238816 0.013794862 -0.3273558 0.013718126 0.07534177 0.22593698
Thus 0.08546447 0.06349195 -0.35082716 -0.31847844 -0.19411644 0.124936126 0.039149303 0.58021694 -0.1747808 -0.59863037 -0.4983943 0.053368367 0.7357374 0.0066452697 -0.11445437 -0.04219833 -0.36208045 0.05351461 0.10692262 0.21283771
birch 0.0952074 0.090956576 -0.38810164 -0.30914524 -0.18997419 0.11918156 0.05407343 0.6479322 -0.22542763 -0.6692117 -0.5441007 0.02862669 0.7544134 0.018009497 -0.15314476 -0.015912136 -0.33065736 0.02551993 0.11923237 0.2463513
monomer 0.08558461 0.06375959 -0.37533218 -0.35618156 -0.19374856 0.102940105 0.044649944 0.60320973 -0.21153356 -0.6398626 -0.5648009 0.09035033 0.77658266 0.005313297 -0.15262182 -0.054257095 -0.35770854 0.062361404 0.112895094 0.20344582
C-terminal 0.090557314 0.100309625 -0.38581574 -0.33255047 -0.20149462 0.12562896 0.06387961 0.6288202 -0.22143488 -0.71185136 -0.60723776 0.08404375 0.80096173 -0.013816704 -0.12275711 -0.01751878 -0.38479194 0.022097424 0.11891092 0.26607886
actin-based 0.09515995 0.08024175 -0.37892723 -0.324938 -0.1807432 0.12309352 0.0745504 0.6326642 -0.23824991 -0.6581416 -0.58339757 0.051693168 0.76995534 -0.01102294 -0.15427934 -0.06079793 -0.35329172 0.057207674 0.13495998 0.22731991
consistent 0.09124731 0.07594411 -0.37595263 -0.3469671 -0.19230732 0.13017626 0.03964885 0.69001245 -0.23486295 -0.67077225 -0.55606824 0.050183408 0.8181884 0.016226625 -0.148359 -0.06336654 -0.39111933 0.021364113 0.11148732 0.22938953
plasma 0.10191592 0.07888489 -0.40230423 -0.33631182 -0.21151899 0.10810558 0.055813618 0.5992923 -0.21567506 -0.65596306 -0.5518254 0.087778665 0.80408055 -0.03218045 -0.14489974 -0.025910866 -0.43063626 0.075317234 0.1032986 0.23931265
response 0.11204801 0.07361739 -0.42520827 -0.35976166 -0.2082908 0.123662725 0.060968038 0.6716416 -0.21157603 -0.7037448 -0.5564927 0.057746954 0.80654085 -0.0035359995 -0.14356163 -0.04866303 -0.4093603 0.03215851 0.13620436 0.278497
distinct 0.09953979 0.073236145 -0.4250654 -0.3284919 -0.20787543 0.12737095 0.027429357 0.71172667 -0.22982213 -0.7237466 -0.57133716 0.06763536 0.8339353 0.012196877 -0.16187057 -0.0472637 -0.3902478 0.046719823 0.116437666 0.26727805
stimulation 0.062135812 0.10834016 -0.37425762 -0.29191005 -0.15880941 0.09557426 0.0513726 0.6369147 -0.2452701 -0.63610566 -0.5443151 0.04031059 0.78223264 -0.012846865 -0.10711089 -0.031170962 -0.37486425 0.05059708 0.14829606 0.2732971
fibers 0.09420414 0.08365979 -0.40030164 -0.35584465 -0.19005944 0.1402308 0.0438928 0.673558 -0.25101605 -0.7209399 -0.56223327 0.066403866 0.81272477 -0.018919893 -0.13507728 -0.07157368 -0.37805864 0.044905957 0.0898717 0.28782922
loss 0.108546995 0.084912814 -0.41991508 -0.4209403 -0.20775707 0.15029754 0.050624084 0.60930854 -0.21181926 -0.7030392 -0.58665353 0.11174884 0.88928664 -0.02815256 -0.14047076 -0.0034332958 -0.42813313 0.10954354 0.035771694 0.19413936
cortical 0.097729295 0.10547591 -0.37339377 -0.29298913 -0.18661292 0.085065596 0.02319538 0.6325675 -0.20845534 -0.6777953 -0.5506351 0.080388345 0.7596389 -0.0020079298 -0.15793242 -0.03013226 -0.33578837 0.03265677 0.14341988 0.27245396
same 0.09290698 0.067383885 -0.40343925 -0.35464087 -0.17460996 0.11699965 0.038065255 0.66455084 -0.20816946 -0.67827857 -0.5468126 0.090686426 0.7851113 0.010294428 -0.16605452 -0.044928294 -0.4093242 0.08372868 0.067732796 0.24304193
detected 0.106667645 0.097991124 -0.3886181 -0.41205847 -0.20535533 0.13540909 0.02149767 0.66044027 -0.22897892 -0.6963239 -0.61717546 0.08736524 0.8557032 -0.0056922254 -0.13607867 -0.01540132 -0.3878537 0.051354032 0.1195303 0.2334657
structure 0.1080021 0.07173396 -0.38497832 -0.3795642 -0.20426625 0.07975898 0.032561295 0.6168962 -0.24282548 -0.65957785 -0.56893396 0.055479053 0.8150668 -0.0012045372 -0.11287345 -0.04171775 -0.38714072 0.03820909 0.08950443 0.23114643
proposed 0.08936419 0.0690831 -0.4364961 -0.33733267 -0.19502918 0.1293883 0.042461812 0.7420472 -0.25074267 -0.75554454 -0.5966321 0.041055556 0.85756797 -0.0057899132 -0.16501793 -0.033583444 -0.4127189 0.034413155 0.15188666 0.29288977
syntaxin 0.088456415 0.086353585 -0.36987367 -0.33537894 -0.20324971 0.120191954 0.030809911 0.72612196 -0.24337327 -0.69641346 -0.5913205 0.034873493 0.807892 0.021310749 -0.14244014 -0.049562722 -0.416272 0.02807077 0.10813124 0.26608735
increases 0.08731407 0.053587273 -0.35391203 -0.40007505 -0.18371694 0.07538972 0.014339312 0.613674 -0.2507281 -0.6883402 -0.5707046 0.09155158 0.81623346 -0.04185632 -0.15199454 -0.016390402 -0.39131436 0.017341234 0.077957995 0.20796363
antigen 0.08237181 0.09535264 -0.3814936 -0.3385959 -0.18184642 0.08475956 0.0051785684 0.58655286 -0.20169884 -0.62297684 -0.5436122 0.027916271 0.75201666 -0.028654914 -0.109083146 -0.05293262 -0.38050163 0.06697513 0.09627348 0.24901456
free 0.071738966 0.05735714 -0.35865068 -0.33286962 -0.17600787 0.10334245 0.015190843 0.6140898 -0.20682025 -0.66305274 -0.533364 0.07142224 0.7455907 0.0169684 -0.123743184 -0.025109943 -0.36317468 0.04683954 0.13230541 0.246923
Arp2/3 0.11076227 0.07437454 -0.41121882 -0.32182065 -0.2136112 0.108422525 0.047896333 0.6585778 -0.24182121 -0.6544351 -0.5735148 0.035671216 0.8250113 -0.01382243 -0.14140773 -0.021403274 -0.37664083 0.040871933 0.098542534 0.2519102
thymosin 0.07168124 0.04014187 -0.4103139 -0.41688776 -0.19843931 0.076314636 0.043711822 0.61639124 -0.23548266 -0.6924647 -0.6227025 0.058020238 0.8262866 -0.021839634 -0.13908668 -0.0057114777 -0.3951127 0.021104475 0.073704466 0.22503053
T 0.059421636 0.09139141 -0.39960283 -0.34998855 -0.18308035 0.11444879 0.0064632683 0.64711004 -0.22386813 -0.68636763 -0.54407287 0.03854658 0.7763034 -0.012470092 -0.14452164 -0.04932987 -0.38173658 0.026068235 0.15123741 0.23834765
low 0.078581415 0.06700721 -0.39129794 -0.3463295 -0.16427948 0.08891813 0.0422645 0.6281898 -0.25115493 -0.6970219 -0.581143 0.0771059 0.76740974 0.019727927 -0.15128203 -0.052746158 -0.34064913 0.03392092 0.1311903 0.26501477
two-hybrid 0.057161473 0.09297504 -0.3638852 -0.32177654 -0.15136713 0.10625867 0.025197752 0.6141357 -0.16559277 -0.632174 -0.48930377 0.046074327 0.7655558 0.027975138 -0.14549437 -0.055454683 -0.36645898 0.046145625 0.118474066 0.25884914
functional 0.07104143 0.076233126 -0.37198606 -0.33260614 -0.17427707 0.12285216 0.043987386 0.67549205 -0.25850204 -0.7015517 -0.5605703 0.05671146 0.8258065 -0.0057867286 -0.1532651 -0.06758401 -0.356866 0.06572585 0.12815574 0.23673852
homology 0.10118351 0.09650743 -0.38055024 -0.3267999 -0.20463869 0.09680023 0.014242294 0.6519664 -0.24441494 -0.6885011 -0.56994635 0.08083123 0.81099427 0.02664833 -0.1563771 -0.04350653 -0.38731384 0.037270974 0.10974443 0.24930507
barbed 0.11169496 0.09259866 -0.38045514 -0.34306556 -0.16411467 0.13359484 0.024149435 0.6396283 -0.21128339 -0.6634737 -0.54818946 0.07070569 0.78283364 -0.01450963 -0.13982834 -0.06319538 -0.36618954 0.038039483 0.12072886 0.23186533
contains 0.068458304 0.08090785 -0.3614486 -0.39189017 -0.16497461 0.06725774 -0.010713547 0.60078895 -0.28200227 -0.6891607 -0.6220442 0.07078779 0.84576225 -0.04666584 -0.1207483 -0.055489127 -0.37891865 0.019170519 0.10590644 0.22491679
characterized 0.093573086 0.09199055 -0.3490629 -0.31461185 -0.16162512 0.099587016 -0.0025671124 0.58604103 -0.20030893 -0.638974 -0.52636075 0.083435096 0.74004686 -0.014271505 -0.11480794 -0.050697107 -0.31783295 0.030122265 0.13675779 0.22834747
cell-cell 0.10940165 0.097044215 -0.41636562 -0.32351452 -0.20621984 0.1134128 0.050716415 0.6482012 -0.18888035 -0.6773896 -0.5304087 0.046958096 0.81449455 -0.00863749 -0.13691434 -0.030413684 -0.41384205 0.095736966 0.09252024 0.2602332
RIP 0.08951212 0.06998058 -0.43736106 -0.3893673 -0.19360048 0.073484674 0.022311252 0.60633075 -0.2515236 -0.6812548 -0.60739934 0.063190944 0.87461233 -0.021950748 -0.12888408 -0.034674805 -0.4191842 0.09271463 0.092489906 0.20499508
together 0.09919622 0.07004131 -0.37311512 -0.36616543 -0.17220457 0.09607016 0.04728989 0.5618776 -0.23124279 -0.6602264 -0.58614516 0.06603329 0.8010687 -0.040039394 -0.14714107 0.0007701673 -0.39088488 0.07070813 0.060569804 0.19812304
death 0.10409806 0.07100783 -0.37854567 -0.35498998 -0.20292068 0.09402652 0.010540382 0.6652142 -0.26274517 -0.67654264 -0.5954801 0.05697606 0.82376146 -0.015518796 -0.13509907 -0.024419598 -0.37128985 0.027661974 0.13974315 0.27198133
demonstrate 0.07746216 0.111376084 -0.38644424 -0.2786258 -0.19852954 0.15768406 0.007371435 0.67226326 -0.23135121 -0.6707871 -0.5207151 0.029159945 0.78018653 0.009393785 -0.13694985 -0.07303403 -0.38401213 0.055595152 0.15439412 0.29301864
several 0.082300775 0.113770574 -0.43230596 -0.37308952 -0.18963788 0.12307263 0.05299768 0.6723807 -0.24770777 -0.7247692 -0.6060557 0.07931057 0.83564025 0.010737069 -0.15824065 -0.03366276 -0.38853896 0.06626431 0.09398313 0.26075143
rates 0.103889525 0.08717088 -0.3680684 -0.34422684 -0.15617171 0.087422945 0.019148137 0.57467246 -0.23891859 -0.6151419 -0.5547613 0.045840297 0.7794973 -0.018812358 -0.10383695 -0.013975986 -0.35247305 0.043637466 0.09653679 0.24761452
investigated 0.092122875 0.07294695 -0.3730281 -0.37001947 -0.17425096 0.09423393 0.032863773 0.5852119 -0.2356514 -0.63225025 -0.60005254 0.09367574 0.83715934 -0.01709159 -0.1284792 -0.038659357 -0.37406173 0.055548307 0.08679662 0.24117734
ATP 0.086515725 0.070139214 -0.37798688 -0.3363006 -0.17826712 0.11278356 0.045773737 0.60885507 -0.21234821 -0.66528976 -0.5534476 0.06277517 0.79599315 -0.02267669 -0.11945714 -0.055244196 -0.36948738 0.057090033 0.08238812 0.2199146
S. 0.056311566 0.089072 -0.3743308 -0.35406983 -0.18683133 0.09266888 0.021174502 0.61648136 -0.24524975 -0.6518736 -0.56316 0.04033162 0.81912017 -0.025003865 -0.13850188 -0.07334329 -0.35755238 0.034931697 0.1331378 0.24236764
accumulation 0.08713565 0.09498193 -0.4128715 -0.37055638 -0.16801612 0.10259968 0.06441616 0.6234071 -0.22954619 -0.70809734 -0.5934001 0.04612988 0.8106608 -0.032578293 -0.10729674 -0.03632185 -0.39803895 0.064506404 0.10711514 0.21535906
pattern 0.07446016 0.06316935 -0.40694448 -0.36443734 -0.18741582 0.09288011 1.79294e-05 0.58894455 -0.24417664 -0.6943812 -0.5913123 0.10538533 0.8724484 -0.0046251486 -0.15372291 -0.022152988 -0.3994142 0.038234163 0.109467685 0.23456931
inhibits 0.105379105 0.11003063 -0.3697622 -0.3474583 -0.18575566 0.14145972 0.036597595 0.6413632 -0.24310116 -0.6732489 -0.543935 0.071764596 0.79840577 0.029743226 -0.14864492 -0.021800056 -0.3677854 0.06759402 0.10483803 0.25548768
could 0.11698037 0.08229451 -0.38365376 -0.32238406 -0.21023983 0.13340518 0.025843933 0.65428156 -0.23463924 -0.7272467 -0.60774994 0.08756542 0.81568444 -0.016945692 -0.14844729 -0.04807233 -0.3707732 0.031405956 0.1259609 0.28255528
tumor 0.05783168 0.08158987 -0.3578867 -0.2952999 -0.17142406 0.09731513 0.009194343 0.575977 -0.20043935 -0.6131744 -0.5119919 0.06328223 0.70795876 0.028335059 -0.12696372 -0.031996716 -0.3405033 0.043480463 0.09670115 0.21585292
properties 0.06773547 0.088514574 -0.3613123 -0.33633155 -0.15179026 0.13231498 0.063726045 0.58398545 -0.21006078 -0.6387552 -0.5871745 0.07357241 0.76849353 -0.005926052 -0.13949373 -0.0057938406 -0.34733284 0.045480095 0.07510254 0.20546326
strongly 0.10411979 0.051407702 -0.35607734 -0.31292564 -0.18256167 0.094431914 0.031081991 0.6046692 -0.20669553 -0.59584 -0.55152756 0.06179508 0.7296065 -0.0004792503 -0.11756396 -0.017420113 -0.3294358 0.027863538 0.13542765 0.23820506
via 0.10758172 0.08114963 -0.39356148 -0.3237072 -0.16548397 0.0970503 0.02395242 0.67202044 -0.21870163 -0.7174794 -0.56189126 0.04931012 0.8232318 -0.014347329 -0.15846491 -0.06467898 -0.39935932 0.055629358 0.097212166 0.2650698
interacts 0.10142643 0.08927273 -0.3636188 -0.34489974 -0.16813599 0.13631263 0.012177411 0.6312798 -0.2297764 -0.66575706 -0.5714989 0.058222163 0.7952789 0.0015807678 -0.11752497 -0.024093503 -0.36121908 0.042061966 0.094920725 0.23396668
core 0.079879925 0.08755065 -0.34294894 -0.3328204 -0.1411313 0.06713794 0.05611677 0.5930296 -0.19680345 -0.6335925 -0.5093594 0.06053949 0.72106147 -0.00051172415 -0.10922987 -0.054174874 -0.34980002 0.03458975 0.09903327 0.21037266
mouse 0.08142099 0.10623771 -0.37880522 -0.3776983 -0.20463131 0.123118185 -0.004118056 0.6760189 -0.24338251 -0.7246628 -0.573084 0.08848177 0.82466125 0.0062470664 -0.13294712 -0.023042481 -0.37532115 0.026509687 0.13522871 0.2507704
does 0.08386896 0.06849348 -0.42072797 -0.37363574 -0.1826656 0.11673363 0.062277727 0.6784202 -0.2156565 -0.74753124 -0.58457875 0.08841034 0.8520987 -0.020302048 -0.1343213 -0.060465757 -0.43657494 0.06490458 0.11516 0.231626
cycle 0.096368976 0.06857241 -0.37806296 -0.32236126 -0.17834918 0.12729004 0.055809986 0.70355844 -0.208787 -0.68964106 -0.5490563 0.07209643 0.78904927 0.016716184 -0.16013269 -0.03614455 -0.35908422 0.06110032 0.12344938 0.2741252
CREB 0.07569495 0.07916938 -0.37845823 -0.34164068 -0.1771628 0.14727199 0.07168733 0.69261473 -0.24125588 -0.7247185 -0.57014155 0.06348343 0.8187232 -0.0005430701 -0.13055266 -0.039812397 -0.4131196 0.059902396 0.15310188 0.2575535
epithelial 0.10475026 0.092197835 -0.38853642 -0.3452013 -0.17312662 0.090938486 0.045340016 0.5998573 -0.19155529 -0.64311117 -0.52831656 0.08741148 0.7701416 0.001666993 -0.15639202 -0.034810346 -0.35835364 0.036785282 0.08729359 0.20583712
N-cadherin 0.08270536 0.064295396 -0.45331642 -0.38971227 -0.19711545 0.13249667 0.0050757052 0.5815755 -0.1618975 -0.6738546 -0.5273405 0.13031085 0.8453489 -0.09114645 -0.12710018 -0.00891734 -0.48075873 0.1450429 0.008434905 0.1577306
microscopy 0.073860236 0.07811682 -0.34718406 -0.3298909 -0.16740979 0.11768401 0.025333464 0.60860956 -0.22916682 -0.64829123 -0.50119674 0.063859224 0.71769685 0.02369935 -0.10114503 -0.03220488 -0.3556781 0.049660396 0.09848583 0.2348038
following 0.069827735 0.10294327 -0.403069 -0.35861596 -0.20986444 0.09267917 0.03517306 0.633002 -0.25889796 -0.7004666 -0.5763899 0.06592035 0.80837345 0.00703777 -0.16319658 -0.053189475 -0.40187395 0.03685367 0.09551596 0.24926317
Although 0.07313615 0.08457729 -0.2833659 -0.23362744 -0.13307059 0.101573266 0.029894622 0.5348317 -0.16279499 -0.52356887 -0.4605517 0.0247305 0.63475215 0.0018630725 -0.09174943 -0.06408607 -0.2918556 0.023432758 0.106152244 0.23846392
small 0.083453536 0.0873373 -0.37296516 -0.35680875 -0.1642077 0.123955764 0.04763114 0.6130925 -0.21792185 -0.62678397 -0.57730395 0.04405727 0.7671415 0.009501107 -0.120695785 -0.04296076 -0.38837376 0.0458411 0.109816015 0.25106066
development 0.06406803 0.09371816 -0.32078633 -0.32106447 -0.17986663 0.09046257 0.007563479 0.5442943 -0.20006323 -0.5999031 -0.53130877 0.08160177 0.7587263 0.0072939945 -0.13081764 -0.03257245 -0.30556914 0.017943513 0.10561248 0.24756879
subunits 0.10292847 0.057656147 -0.38675028 -0.32164276 -0.20375165 0.114672676 0.047534566 0.6113902 -0.23202492 -0.6714817 -0.5809362 0.05590551 0.7719166 -0.030384973 -0.12939826 -0.026080014 -0.3602094 0.03928035 0.102069095 0.22255427
level 0.09338025 0.06721243 -0.32538077 -0.33816093 -0.19117102 0.11798519 0.0024242175 0.6042749 -0.19646785 -0.6296876 -0.53901595 0.05851373 0.7604059 -0.013620325 -0.12311641 -0.033487756 -0.35188442 0.054015987 0.092739746 0.2167526
seen 0.07480562 0.052312735 -0.39401677 -0.39431283 -0.1638877 0.11436156 0.037122827 0.5949938 -0.21745984 -0.6618453 -0.5943272 0.09127861 0.84190506 -0.009505536 -0.1251867 -0.04967273 -0.3576681 0.048450995 0.10579122 0.22483
manner 0.070792 0.08177183 -0.36887562 -0.33827132 -0.18812078 0.10285665 0.045215193 0.5946921 -0.20308527 -0.63047224 -0.5496568 0.08404594 0.77819026 -0.0025877422 -0.12664376 -0.010862891 -0.37406823 0.05093451 0.121743836 0.21639858
conditions 0.08412676 0.0779452 -0.35649654 -0.2958943 -0.13344805 0.08436109 0.028453402 0.5844436 -0.1911927 -0.577755 -0.5063776 0.043199044 0.6776072 0.032518677 -0.12523954 -0.04238803 -0.3381702 0.02647665 0.102080524 0.24278702
experiments 0.07678128 0.08306524 -0.4086314 -0.33732867 -0.18474993 0.09881632 0.051110066 0.67299473 -0.21389827 -0.7177741 -0.5421782 0.041495033 0.80117404 -0.022151528 -0.1595198 -0.06603367 -0.36259714 0.029719973 0.11590373 0.26287362
